SVM-light Version V6.02
0 # kernel type
3 # kernel parameter -d 
1 # kernel parameter -g 
1 # kernel parameter -s 
1 # kernel parameter -r 
empty# kernel parameter -u 
16 # highest feature index 
1392 # number of training documents 
43 # number of support vectors plus 1 
-1.4740967 # threshold b, each following line is a SV (starting with alpha*y)
2 1:0 2:0 3:0 4:0.00037664783 5:0.045009952 6:0.047210302 7:0.15236051 8:0.60556638 9:0.61267549 10:0.091720887 11:0 13:0.26178011 14:0.21840391 15:0.30726257 16:0.24971896 #
2 1:0 2:0 3:0 4:1.7788881e-05 5:0.10572645 6:0.61280715 7:0.52345496 8:0.75659794 9:0.74258852 10:0.10287617 11:0.0029477912 13:0.21330725 14:0.22462009 15:0.27917621 16:0.26891106 #
-2 1:0.036363635 2:0.015625 3:0.16083916 4:0.0099700894 5:0.16730408 6:14.264865 7:15.778378 8:0.65011394 9:0.65145922 10:0.077809222 11:0.027397292 12:0.16304348 13:0.43362832 14:0.143719 15:0.47706422 16:0.15950996 #
2 1:0 2:0 3:0 4:1.4199785e-05 5:0.21754973 6:0.001861504 7:0.28443784 8:0.78889537 9:0.77254528 10:0.13831155 11:0.0069922521 13:0.31506848 14:0.22408825 15:0.41418764 16:0.26469514 #
-2 1:0.00047597114 2:0.0043285023 3:0.033333335 4:0.0020833334 6:0.76105803 #
-2 1:0 2:0 3:0 4:2.7414786e-05 5:0.16177891 6:0.41035858 7:0.29482073 8:0.80842423 9:0.80973673 10:0.44921163 11:0.0089384736 13:0.24460432 14:0.28663501 15:0.25555557 16:0.29186502 #
-2 1:0.0015135327 2:0.04296875 3:0.09490741 4:0.0021416505 12:0.23232323 #
2 1:0 2:0 3:0 4:0.00024588147 5:0.13107999 6:0.60118794 7:0.49469665 8:0.7581113 9:0.75027865 10:0.15134297 11:0.007128763 13:0.23219374 14:0.28869006 15:0.28125 16:0.32583311 #
2 3:0 4:0 5:0.083874799 6:0.24860647 7:0.079152733 8:0.69819677 9:0.67547464 10:0.031110711 11:0 12:0.15384616 13:0.19093852 14:0.16868266 15:0.23049645 16:0.19115993 #
-2 1:0 3:0 4:0.0016233766 5:0 6:0.13681869 7:0.12791991 8:0.51548821 9:0.51535642 10:0.0061721131 11:0 12:0.086956523 13:0.014084507 14:0.018946709 15:0.018518519 16:0.021979349 #
-2 1:0 2:0 3:0 4:0.0012820513 5:0.29740819 6:0.33242133 7:0.61285907 8:0.78530759 9:0.7904104 10:0.41803345 11:0.066582181 13:0.37241378 14:0.28228199 15:0.46850392 16:0.33226487 #
-2 1:0.00028682238 2:0.002428639 3:0.039999999 4:0.0024596616 6:0.89419502 #
1.3928893681372755963820964097977 5:0.11719747 6:0.86890244 7:1.2469512 8:0.66555703 9:0.65543813 10:0.057684302 11:0.0014583644 12:0.07272727 13:0.29007635 14:0.20407942 15:0.33893558 16:0.23108441 #
2 1:0.00039447731 2:0 3:0 4:0.00054619228 5:0.014772053 6:0.15634218 7:0.27138644 8:0.62137502 9:0.62438416 10:0.13726558 11:0 13:0.18009479 14:0.19428696 15:0.21951219 16:0.23107328 #
-1.6159421772497069014207227155566 1:0.0067554889 2:0.040123455 3:0.08024691 4:0.0053560175 5:0.011364194 6:0.17766498 7:0.015228426 8:0.12776348 9:0.12896189 10:0.023359925 11:0.0056744497 12:0.84615386 13:0.089622639 14:0.092390828 15:0.11004785 16:0.1111163 #
2 1:0 2:0 3:0 4:0 5:0.12947132 6:0.83181471 7:0.79536825 8:0.7869373 9:0.77647561 10:0.11017139 11:0.0032446419 12:0.070175439 13:0.15156507 14:0.23237179 15:0.19433962 16:0.28017488 #
2 1:3.1593579e-05 2:0 3:0 4:0.00033156498 5:0.16931382 6:0.51196808 7:0.84441489 8:0.82345414 9:0.81306809 10:0.085962839 11:0.0052833473 12:0.093023255 13:0.26479751 14:0.19680819 15:0.30303031 16:0.22349508 #
-2 1:0 3:0 4:0.0015811012 5:0.17315313 6:0.45827234 7:0.70863837 8:0.85238338 9:0.84055948 10:0.13816164 11:0.015594585 12:0.083333336 13:0.36666667 14:0.31759343 15:0.41883117 16:0.35121843 #
-2 1:0 5:0.15592048 6:0.29593945 7:0.24569856 8:0.85597044 9:0.85382366 10:0.39602086 11:0.037578914 12:0.083333336 13:0.28943089 14:0.32560635 15:0.3281787 16:0.36174631 #
-2 1:0 3:0 4:0.0016708438 5:0.18003233 6:0.18358831 7:0.061196107 8:0.87114447 9:0.86469555 10:0.25683308 11:0.010665121 12:0.078431375 13:0.28213167 14:0.29097331 15:0.34228188 16:0.33451435 #
2 1:0 2:0 3:0 4:0 5:0.14328471 6:0.57765669 7:0.47717983 8:0.62547719 9:0.60663819 10:0.05045053 11:0.0063034343 12:0.078431375 13:0.11369991 14:0.19339372 15:0.14211619 16:0.22725391 #
1.2731080275552812963724136352539 1:0 2:0 3:0 4:0.00031404843 5:0.091818184 6:0.32338309 7:0.12271973 8:0.46069795 9:0.4560712 10:0.058412973 11:0.00085387321 13:0.17857143 14:0.16978581 15:0.24495678 16:0.21753435 #
-2 1:0 3:0 4:0.0016534391 5:0.23236333 6:0.058455113 7:0.25260961 8:0.8506735 9:0.84329385 10:0.24016531 11:0.013249295 12:0.074074075 13:0.30504587 14:0.29954541 15:0.35802469 16:0.33305624 #
2 1:0.00012239903 2:0 3:0.0016666667 4:0.00060598407 5:0.13310897 6:0.68123543 7:0.60751748 8:0.71620554 9:0.70355457 10:0.086703099 11:0.0024808734 12:0.064516127 13:0.11748634 14:0.16207899 15:0.15706806 16:0.19604661 #
2 1:0 3:0 4:0.00034305317 5:0.059506137 6:0.41176471 7:0.29127136 8:0.61212438 9:0.61181933 10:0.097090967 11:0 13:0.17966904 14:0.19860229 15:0.24137931 16:0.24701281 #
2 5:0.042268656 6:0.99118221 7:0.98922271 8:0.39375919 9:0.39163548 10:0.228809 11:0 13:0.025 14:0.10998534 15:0.030828517 16:0.12822588 #
2 1:0 2:0 3:0 4:0.00059898174 5:0.053283151 6:0.19512194 7:0.10840108 8:0.60304815 9:0.59626818 10:0.091518968 11:0.0035501195 13:0.19512194 14:0.22867166 15:0.234375 16:0.25130647 #
-2 1:0 3:0 4:0.001572327 5:0.20139429 6:0.43245777 7:0.34896812 8:0.87259746 9:0.8723287 10:0.17542104 11:0.01552618 12:0.07272727 13:0.2631579 14:0.30810255 15:0.33009708 16:0.36444497 #
2 1:0 2:0 3:0 4:0 5:0.067281649 6:0.079006769 7:0.072234765 8:0.69809467 9:0.67170089 10:0.055058744 11:0 12:0.084745765 13:0.23614457 14:0.23560804 15:0.26923078 16:0.26452476 #
-2 1:0 2:0 3:0 4:0.00029205607 5:0.055195395 6:0.79283488 7:0.91588783 8:0.82426918 9:0.8186757 10:0.34316137 11:0.0070841573 12:0.075471699 13:0.25071225 14:0.19534825 15:0.27794561 16:0.21033421 #
2 5:0.1324846 6:0.38093165 7:0.45711797 8:0.72634679 9:0.70897925 10:0.11819191 11:0.0029269122 13:0.19009216 14:0.19233318 15:0.2621232 16:0.24108182 #
1.4478742133866262520314194262028 1:0 2:0 3:0 4:0 5:0.0072116163 6:6.0375233 7:5.1763601 8:0.12809809 9:0.12802175 10:0.0060860892 11:0 13:0.1984127 14:0.10493184 15:0.25 16:0.12090672 #
-2 1:0 3:0 4:0.0016233766 5:0.21866493 6:0.008686211 7:0.19869708 8:0.85035163 9:0.85048759 10:0.36120638 11:0.04428314 12:0.08510638 13:0.36253041 14:0.35333744 15:0.40318301 16:0.38521031 #
1.4712739676658657117513939738274 5:0.060263503 6:3.4251413 7:4.0310736 8:0.58745587 9:0.57672536 10:0.097113311 11:0.00054946123 13:0.33441558 14:0.22752832 15:0.37716264 16:0.2538442 #
-2 1:0 2:0 3:0 4:0.0003391619 5:0.062934682 6:0.35910779 7:0.31672862 8:0.62989259 9:0.62802559 10:0.2331067 11:0.0062506883 12:0.075471699 13:0.2247619 14:0.24583067 15:0.27950311 16:0.28765887 #
2 5:0.10681324 6:0.30965391 7:0.15786278 8:0.58995235 9:0.58225673 10:0.052018821 11:0.00074686453 12:0.074074075 13:0.20703934 14:0.20015003 15:0.25623584 16:0.2302835 #
-2 1:0 2:0 3:0 4:0.0016297263 5:0.24250323 6:0.27027026 7:0.14864865 8:0.8019262 9:0.80518079 10:0.23662746 11:0.057507705 13:0.31647941 14:0.34219179 15:0.36231884 16:0.36847332 #
-2 1:0 3:0 4:0.0016464032 5:0.14150265 6:0.089024387 7:0.073170729 8:0.82766402 9:0.82842422 10:0.3184697 11:0.019406881 12:0.081632651 13:0.33879781 14:0.33956566 15:0.39367816 16:0.38283095 #
-2 5:0.18471734 6:0.7614314 7:0.73260438 8:0.64571953 9:0.64891481 10:0.30972475 11:0.014205131 12:0.030534351 13:0.18231292 14:0.29538539 15:0.21764706 16:0.32444909 #
-2 1:0.0023911402 2:0.023088023 3:0.1875 4:0.012039904 5:0.1092264 6:0.22955975 7:0.067610063 8:0.69003463 9:0.66172659 10:0.35687625 11:0.0020258527 13:0.18296529 14:0.23095459 15:0.2147651 16:0.26617727 #
2 5:0.052726828 6:6.397222 7:6.7555556 8:0.63981712 9:0.63393617 10:0.12010809 11:0.0020307971 13:0.37850466 14:0.18854481 15:0.42718446 16:0.21503234 #
0.030797261267252906691282987594604 1:0 3:0 4:4.8441791e-05 5:0.14162466 6:0.79678792 7:0.75516224 8:0.7608847 9:0.73671126 10:0.11407009 11:0.0012394636 13:0.13814756 14:0.18452686 15:0.1878453 16:0.23070075 #
