SVM-light Version V6.02
0 # kernel type
3 # kernel parameter -d 
1 # kernel parameter -g 
1 # kernel parameter -s 
1 # kernel parameter -r 
empty# kernel parameter -u 
16 # highest feature index 
2236 # number of training documents 
333 # number of support vectors plus 1 
-1.0618609 # threshold b, each following line is a SV (starting with alpha*y)
2 1:0 2:0 3:0 4:0.00023058696 5:0.17039713 6:0.50847459 7:0.44491526 8:0.57039678 9:0.58002615 10:0.71738565 11:0.056893129 12:0.059701491 13:0.31553397 14:0.36727932 15:0.33673468 16:0.38237906 #
2 5:0.33135554 6:0.61605841 7:0.55474454 8:0.84529001 9:0.84141517 10:0.64476693 11:0.096703067 12:0.079999998 13:0.23026316 14:0.31661278 15:0.2591241 16:0.33804157 #
-2 1:0.029748283 2:0 3:0.12037037 4:0.0020961934 5:0.70511621 6:0.0042052143 7:0.040370058 8:0.75996262 9:0.77890021 10:0.96357757 11:0.52570963 12:0.33898306 13:0.729927 14:0.69499356 15:0.77350426 16:0.72961336 #
2 1:0 2:0 3:0 4:3.6551042e-05 5:0.30907515 6:0.57526368 7:0.53691274 8:0.87288713 9:0.87794852 10:0.64269143 11:0.066236094 13:0.28672987 14:0.38801455 15:0.3316583 16:0.43819255 #
-2 1:0.00038974502 2:0.0043619396 3:0.10416666 4:0.0075062551 5:0.41434214 6:0.84972376 7:0.84069979 8:0.90271676 9:0.89370316 10:0.70379257 11:0.15490724 13:0.20744357 14:0.41392833 15:0.24188791 16:0.45278135 #
2 5:0.17069928 6:0.50749999 7:0.47999999 8:0.67065644 9:0.67738771 10:0.59585756 11:0.046529204 12:0.063492067 13:0.21025641 14:0.27272728 15:0.26486486 16:0.33448851 #
-2 1:0.00019872814 2:0.035916824 3:0.1875 4:0.01255887 5:0.019256832 6:0.41723496 7:0.40607563 8:0.60243213 9:0.57857043 10:0.035579178 11:0.0017580618 13:0.090163931 14:0.10063886 15:0.10914455 16:0.11525641 #
-2 1:0.00074060727 2:0.0070149256 3:0.125 4:0.0073630926 5:0.3861708 6:0.51489949 7:0.49272349 8:0.90152431 9:0.90609717 10:0.8538605 11:0.10962689 13:0.3884007 14:0.51635939 15:0.426 16:0.54454511 #
-2 1:0.079999998 2:0 3:0.1388889 4:0.0098379627 5:0.35801375 6:0.14741036 7:0.095617533 8:0.63650721 9:0.65706891 10:0.75620812 11:0.16326874 12:0.33333334 13:0.5462963 14:0.56226569 15:0.58653843 16:0.5922609 #
2 1:0 2:0 3:0 4:0.00024159592 5:0.19821544 6:0.9447059 7:0.9329412 8:0.69226986 9:0.69061643 10:0.42807043 11:0.040834073 12:0.07272727 13:0.078809105 14:0.22666976 15:0.095419846 16:0.26106903 #
-2 1:0.00054555375 2:0.015376458 3:0.010186757 4:0.0019688646 5:0.40242499 6:0.054624122 7:0.0010816657 8:0.90823978 9:0.90829396 10:0.81611484 11:0.23679322 13:0.47092199 14:0.4855046 15:0.52773374 16:0.52857208 #
-2 1:0.00028618381 2:0.0046593407 3:0.054545455 4:0.0022287944 5:0.23489903 6:4.2507291 7:4.6151605 8:0.71833736 9:0.73414439 10:0.52277541 11:0.032153424 13:0.44034091 14:0.23484907 15:0.48447204 16:0.25002503 #
-2 1:0.00024517818 2:0.0082304524 3:0.074074075 4:0.0049835541 5:0.15786378 6:0.025925925 7:0.13611111 8:0.86772478 9:0.87186033 10:0.45719904 11:0.0058889082 13:0.23925234 14:0.24398425 15:0.2790224 16:0.27061045 #
2 1:0.0029985008 2:0.035714287 3:0.66990721 4:0.0010926171 5:0.2601496 6:0.44604316 7:0.528777 8:0.77427447 9:0.78968537 10:0.68869817 11:0.085525393 12:0.27160493 13:0.44999999 14:0.42544752 15:0.46710527 16:0.44430572 #
2 5:0.88192683 6:0.016045846 7:0.14842407 8:0.93652767 9:0.94456965 10:0.99982649 11:0.8122375 13:0.44186047 14:0.42720905 15:0.4642857 16:0.45361105 #
-2 1:0.048484847 2:0 3:0.171875 4:0.0072699655 5:0.48157725 6:0.16551724 7:0.08275862 8:0.78888488 9:0.79807615 10:0.47666734 11:0.30081582 12:0.33898306 13:0.67289722 14:0.65478903 15:0.69902915 16:0.68265617 #
-2 1:0.00049529853 2:0.0065359478 3:0.064583331 4:0.00098814233 5:0.39289078 6:0.72415572 7:0.70456302 8:0.8957485 9:0.90307385 10:0.9084546 11:0.044200715 13:0.20064464 14:0.33845854 15:0.24137931 16:0.38192868 #
2 1:0 2:0 3:0 4:0.00036573649 5:0.25171107 6:0.76782274 7:0.74373794 8:0.73978996 9:0.74083722 10:0.54962915 11:0.023120744 12:0.057971016 13:0.1318408 14:0.23908252 15:0.16032609 16:0.26668727 #
2 1:0.0038314175 2:0.022222223 3:0.65781331 4:0.0010830078 5:0.16038896 6:0.018796992 7:0.0075187972 8:0.87202209 9:0.86918497 10:0.66152459 11:0.043509759 12:0.26506025 13:0.49253732 14:0.47295266 15:0.54838711 16:0.50538421 #
-2 1:0.000921659 2:0.01177394 3:0.005050505 4:0.0013360272 5:0.27314746 6:0.27714932 7:0.1979638 8:0.86051136 9:0.8631227 10:0.51761556 11:0.078688614 13:0.27990431 14:0.33358076 15:0.30690536 16:0.36332121 #
2 1:0.00043392016 2:0.0083333338 3:0.57894737 4:0.0022394799 5:0.27992222 6:0.16587678 7:0.12085308 8:0.85961413 9:0.86506712 10:0.59210461 11:0.15180399 12:0.12977099 13:0.46610171 14:0.50388134 15:0.50666666 16:0.52197015 #
2 1:0.00043785575 2:0.0083333338 3:0.56821591 4:0.0022028077 5:0.36535051 6:0.14068441 7:0.11977186 8:0.91814613 9:0.92228258 10:0.64224499 11:0.13638039 12:0.12230216 13:0.51839465 14:0.56371588 15:0.55172414 16:0.58722019 #
-2 1:0.00057295075 2:0.0051879701 3:0.029999999 4:0.0019545429 5:0.15319781 6:0.8770963 7:0.88284618 8:0.45204693 9:0.45341951 10:0.70975548 11:0.041081373 13:0.093724534 14:0.2168607 15:0.10373066 16:0.23131824 #
-2 1:0.0013968254 2:0.014619883 3:0.0038461538 4:0.00086465362 5:0.24221973 6:0.82115251 7:0.79444838 8:0.79338318 9:0.79485041 10:0.55689937 11:0.039635595 13:0.13480885 14:0.27616045 15:0.15111111 16:0.29698855 #
-2 1:0.00038053712 2:0.0053154146 3:0.1038961 4:0.0044444446 5:0.28994262 6:0.89435649 7:0.89280796 8:0.89336032 9:0.89836514 10:0.8237446 11:0.10887409 13:0.16541865 14:0.35271409 15:0.19787408 16:0.39558646 #
-2 1:0.00077596045 2:0.0092316857 3:0.10416666 4:0.0050515258 5:0.3982738 6:0.49658313 7:0.67767656 8:0.87258458 9:0.87556738 10:0.57980466 11:0.057464991 13:0.34396356 14:0.28892952 15:0.40193704 16:0.33600003 #
2 5:0.90476316 6:0.14497344 7:0.066816509 8:0.98579305 9:0.9882468 10:0.9279393 11:0.74913281 13:0.78932357 14:0.77421379 15:0.82456142 16:0.80612957 #
2 1:0 3:0 4:0.0019493178 5:0.15799214 6:0.8896175 7:0.87540984 8:0.62477529 9:0.62504166 10:0.48602015 11:0.013796549 12:0.090909094 13:0.089805827 14:0.21190308 15:0.10846561 16:0.24852593 #
2 1:0.0038314175 2:0.047619049 3:0.6780318 4:0.001114461 5:0.16860855 6:0.16249999 7:0.06666667 8:0.7933718 9:0.80028641 10:0.4408274 11:0.056446638 12:0.2972973 13:0.41059601 14:0.43342242 15:0.4513889 16:0.46619245 #
-2 1:0.0001911315 2:0.0028929606 3:0.010344828 4:0.001153947 5:0.12138196 6:0.0084985839 7:0.014164306 8:0.63300717 9:0.64017832 10:0.50688207 11:0.020472867 13:0.21693122 14:0.241446 15:0.24861878 16:0.26279417 #
-2 1:0.0011222593 2:0.0125 3:0.14285715 4:0.0056286552 5:0.24786258 6:0.037630662 7:0.11428571 8:0.83718342 9:0.83458042 10:0.48107746 11:0.021241397 13:0.36000001 14:0.35786697 15:0.42094457 16:0.39864787 #
2 5:0.69064081 6:0.01059135 7:0.0017652251 8:0.95273346 9:0.95369834 10:0.96823049 11:0.43453205 13:0.80419582 14:0.78975648 15:0.822335 16:0.80319661 #
2 1:0 2:0 3:0 4:0 5:0.41405746 6:0.70646632 7:0.65763348 8:0.90689182 9:0.90633804 10:0.36374414 11:0.030156605 13:0.16244726 14:0.25583142 15:0.20111288 16:0.29618713 #
2 1:0 2:0 3:0 4:0.00016457422 5:0.20005587 6:0.82242066 7:0.80456346 8:0.59046692 9:0.61255652 10:0.59877986 11:0.035096649 13:0.11011236 14:0.21795236 15:0.12224939 16:0.228568 #
-2 1:0.00058555225 2:0.021621622 3:0.10769231 4:0.003700658 5:0.33570617 6:0.7661221 7:0.73918027 8:0.90657294 9:0.90382791 10:0.58224654 11:0.025776759 13:0.18166091 14:0.32054037 15:0.20874752 16:0.3460826 #
2 1:0.0044929394 2:0.074074075 3:0.51980609 4:0.0012008181 5:0.34263235 6:0.33018869 7:0.21383648 8:0.8564229 9:0.86198217 10:0.72922462 11:0.15515375 12:0.3548387 13:0.5 14:0.54941851 15:0.52688169 16:0.58093011 #
-2 1:0.057142857 2:0 3:0.13333334 4:0.0099537037 5:0.30377766 6:0.13513513 7:0.10810811 8:0.63964993 9:0.64823109 10:0.43220913 11:0.1693335 12:0.33333334 13:0.64999998 14:0.6010322 15:0.68000001 16:0.61065805 #
-2 1:0.0018084904 2:0.032196969 3:0.074074075 4:0.0063004033 5:0.19437203 6:0.21266234 7:0.17694806 8:0.82452327 9:0.82258576 10:0.42029336 11:0.027313998 13:0.27181208 14:0.2938168 15:0.32363635 16:0.3414878 #
2 1:0 2:0 3:0 4:0.00024523298 5:0.30312359 6:0.59460652 7:0.5530504 8:0.87803239 9:0.87808174 10:0.54192001 11:0.048939962 13:0.22348095 14:0.3403213 15:0.25331858 16:0.36858472 #
2 1:0 2:0 3:0 4:0.00032899066 5:0.15664671 6:0.91192412 7:0.90650409 8:0.66094035 9:0.66776431 10:0.55336839 11:0.010314041 12:0.090909094 13:0.088724583 14:0.22789547 15:0.097510375 16:0.24085784 #
2 5:0.65714729 6:0.0096916296 7:0.043171804 8:0.94801307 9:0.95426196 10:0.97733796 11:0.41226602 13:0.78552973 14:0.76773995 15:0.80056179 16:0.78210568 #
-2 1:0.00075051514 2:0.0048152762 3:0.097435899 4:0.0028387762 5:0.4592289 6:0.43417048 7:0.40030441 8:0.91488206 9:0.91334909 10:0.89297718 11:0.12485574 13:0.3984375 14:0.4955219 15:0.45607236 16:0.54005086 #
2 1:0.00042617961 2:0.0083333338 3:0.59172416 4:0.0021968214 5:0.4261598 6:0.19277108 7:0.075301208 8:0.90218508 9:0.90790182 10:0.64753747 11:0.16178036 12:0.13076924 13:0.55050504 14:0.58722407 15:0.59685862 16:0.6114381 #
-2 1:0.00055794674 2:0.012776413 3:0.076666668 4:0.0024518678 5:0.23092234 6:0.050802138 7:0.0080213901 8:0.80689216 9:0.81094307 10:0.77186435 11:0.078221299 13:0.38987342 14:0.37933642 15:0.43010753 16:0.40820044 #
-2 1:0.00025949808 2:0.0020218238 3:0.023423424 4:0.001205962 5:0.45959279 6:0.42692438 7:0.38250256 8:0.91771305 9:0.91055894 10:0.89822453 11:0.091757283 13:0.35971943 14:0.42515433 15:0.43468207 16:0.49316829 #
0.81170955190373206278309226036072 5:0.30735371 6:0.04109589 7:0.04109589 8:0.73496282 9:0.75309086 10:0.84436822 11:0.16262312 13:0.55789477 14:0.56995583 15:0.63736266 16:0.630472 #
-2 1:0.0005857143 2:0.012187088 3:0.008547009 4:0.00036746429 5:0.23675042 6:0.78926176 7:0.7801342 8:0.67944509 9:0.67718023 10:0.28002229 11:0.013055155 13:0.12854758 14:0.24512683 15:0.17617618 16:0.29979223 #
-2 1:0.00098166789 2:0.0082942657 3:0.027777778 4:0.0023758612 5:0.19483821 6:0.4267292 7:0.41852286 8:0.73755944 9:0.73679334 10:0.87549335 11:0.10020459 13:0.28749999 14:0.40757743 15:0.31999999 16:0.44038552 #
2 1:0 2:0 3:0 4:0.00029120559 5:0.21223049 6:0.86720866 7:0.85094851 8:0.74134415 9:0.74548209 10:0.50716174 11:0.045024108 12:0.03773585 13:0.15336463 14:0.3143253 15:0.17504333 16:0.3433111 #
-2 1:0.00010668268 2:0.0071919952 3:0.11775878 4:0.0012548271 5:0.2336068 6:0.79842746 7:0.89278054 8:0.87955928 9:0.87015617 10:0.58762592 11:0.023325879 13:0.35365853 14:0.29077801 15:0.44651952 16:0.35345504 #
-2 1:0.00031172071 2:0.0028327596 3:0.042424243 4:0.0014732966 5:0.098395437 6:0.31070891 7:0.27450982 8:0.46390718 9:0.46108469 10:0.20782013 11:0.025896432 13:0.16369048 14:0.18644175 15:0.17791411 16:0.2043952 #
-2 1:0.021177687 2:0 3:0.13111727 4:0.00098107115 5:0.61643147 6:0.09259259 7:0.093958713 8:0.77124119 9:0.77801991 10:0.71996975 11:0.47728455 12:0.32786885 13:0.63378376 14:0.6198197 15:0.68122977 16:0.66070133 #
-2 1:0 2:0 3:0.12244898 4:0.0083616776 5:0.47298282 6:0.19678715 7:0.13253012 8:0.71986037 9:0.71941471 10:0.63846767 11:0.27392712 12:0.33898306 13:0.62068963 14:0.6352458 15:0.67289722 16:0.66669524 #
-2 1:0.030769231 2:0 3:0.18209876 4:0.0031507201 5:0.58211571 6:0.17382888 7:0.15602013 8:0.75120491 9:0.74238223 10:0.61891377 11:0.30898425 12:0.32786885 13:0.66547406 14:0.65444493 15:0.71157897 16:0.70060277 #
-2 1:0.00018872941 2:0.0025406082 3:0.055555556 4:0.00092760409 5:0.23946278 6:0.78118545 7:0.7654537 8:0.84058493 9:0.83923078 10:0.40918776 11:0.035186864 13:0.21844059 14:0.3509855 15:0.25440452 16:0.38993979 #
2 5:0.60864842 6:0.072222225 7:0.022222223 8:0.85692859 9:0.86467057 10:0.88154888 11:0.37278587 13:0.67391306 14:0.62572837 15:0.71111113 16:0.66151857 #
1.9808216319788698456250131130219 5:0.22988543 6:0.30769232 7:0.25 8:0.56632787 9:0.59906471 10:0.76597571 11:0.13538259 13:0.46835443 14:0.51240838 15:0.47999999 16:0.52372295 #
2 5:0.29889885 6:0.44444445 7:0.35978836 8:0.81348217 9:0.81472635 10:0.7214821 11:0.088083036 12:0.028776979 13:0.34299517 14:0.4234415 15:0.37948719 16:0.45608681 #
2 5:0.2638 6:0.011764706 7:0.011764706 8:0.6742453 9:0.69993967 10:0.71926326 11:0.067573741 13:0.45901638 14:0.46774194 15:0.5 16:0.50421947 #
2 1:6.3789344e-06 2:0 3:0 4:0.00014854426 5:0.22780164 6:0.66174662 7:0.62730628 8:0.75032568 9:0.75451303 10:0.59281844 11:0.036040828 12:0.078431375 13:0.2205438 14:0.31801623 15:0.25901639 16:0.35322809 #
2 1:0.0044871797 2:0.06666667 3:0.5086019 4:0.0011291372 5:0.36532134 6:0.17553191 7:0.10638298 8:0.87225181 9:0.87739807 10:0.66365045 11:0.21075638 12:0.3548387 13:0.55288464 14:0.5736289 15:0.58536583 16:0.59263778 #
-2 1:0.055555556 2:0 3:0.1875 4:0.015190972 5:0.27436513 6:0.087048829 7:0.027600849 8:0.56072378 9:0.55504006 10:0.73586655 11:0.1617597 12:0.32258064 13:0.64772725 14:0.61585444 15:0.70552146 16:0.66952187 #
-2 1:0.00038155523 2:0.0022357968 3:0.064285718 4:0.0015183893 5:0.14866547 6:2.2345417 7:2.4434967 8:0.73874247 9:0.73664212 10:0.6712786 11:0.014471245 13:0.43460765 14:0.32194915 15:0.48723406 16:0.35268772 #
-2 1:0.00080781657 2:0.006289308 3:0.13333334 4:0.012400794 5:0.1663263 6:0.9195354 7:0.9182682 8:0.69630224 9:0.69280052 10:0.44276774 11:0.067227148 13:0.077683613 14:0.21062505 15:0.091603056 16:0.23314771 #
-2 1:0.0018990504 2:0.022941971 3:0.097222224 4:0.0037601052 5:0.10018377 6:0.26455027 7:0.21957672 8:0.75760537 9:0.74715555 10:0.4991318 11:0.0067691123 13:0.30751708 14:0.33370131 15:0.35294119 16:0.36232954 #
2 1:0 5:0.57581615 6:0.12381597 7:0.046008117 8:0.85414797 9:0.85698766 10:0.88097572 11:0.23946935 12:0.070175439 13:0.35741445 14:0.37607044 15:0.40083507 16:0.41217759 #
-2 1:0.00025218658 2:0.0021248774 3:0.021551725 4:0.0014774916 5:0.26003823 6:0.40154439 7:0.40218791 8:0.86256135 9:0.86015123 10:0.78884655 11:0.09946128 13:0.36134455 14:0.44740167 15:0.41044775 16:0.49005672 #
-2 1:0.00040392976 2:0.010617761 3:0.032967035 4:0.0029032258 5:0.18844298 6:4.8546023 7:4.7259417 8:0.51605809 9:0.49750867 10:0.62821275 11:0.0029216327 13:0.32380953 14:0.17584276 15:0.35844156 16:0.18508241 #
2 1:0 2:0 3:0 4:0.00040735962 5:0.4176192 6:0.17914267 7:0.062699936 8:0.89798993 9:0.90146381 10:0.78455925 11:0.09088365 12:0.079999998 13:0.35754189 14:0.34545279 15:0.41908714 16:0.3891544 #
-2 1:0.0017363852 2:0.018243244 3:0.1 4:0.012028869 5:0.43620887 6:0.25442833 7:0.22383253 8:0.92565125 9:0.92878801 10:0.94820029 11:0.23858264 13:0.47727272 14:0.53687626 15:0.54545456 16:0.59420055 #
2 1:0 2:0 3:0 4:0.00027566109 5:0.22048706 6:0.4686411 7:0.44773519 8:0.74411643 9:0.74883962 10:0.65336943 11:0.070107102 13:0.30169493 14:0.40379888 15:0.31914893 16:0.42107597 #
2 1:0 2:0 3:0 4:8.2297753e-05 5:0.4125641 6:0.16523464 7:0.060145408 8:0.91819823 9:0.91625303 10:0.72961646 11:0.090129502 12:0.071428575 13:0.37001899 14:0.38868862 15:0.42405063 16:0.42008129 #
2 1:0 2:0 3:0 4:0 5:0.2732493 6:0.80469817 7:0.78148049 8:0.86670935 9:0.86658454 10:0.59718335 11:0.062157575 12:0.041666668 13:0.2246203 14:0.39907268 15:0.25622776 16:0.43332431 #
-2 1:0 2:0 3:0.1875 4:0.015190972 5:0.33327445 6:0.1375839 7:0.03691275 8:0.61243922 9:0.62293738 10:0.7187019 11:0.19732608 12:0.33333334 13:0.60683763 14:0.6134454 15:0.65765768 16:0.64894658 #
-2 1:0.055555556 2:0 3:0.1875 4:0.015190972 5:0.38596296 6:0.066473991 7:0.06936416 8:0.62137645 9:0.61355084 10:0.65886617 11:0.25854826 12:0.32258064 13:0.66197181 14:0.65523475 15:0.765625 16:0.74004954 #
2 5:0.5552448 6:0.23041475 7:0.12995392 8:0.94218403 9:0.94163764 10:0.78787303 11:0.20906138 13:0.60869563 14:0.64171171 15:0.6416862 16:0.66717243 #
2 5:0.54357702 6:0.0099667776 7:0.076411963 8:0.88564479 9:0.90295631 10:0.90143538 11:0.19264451 13:0.5847953 14:0.58992487 15:0.63580245 16:0.61884469 #
-2 1:0.0012037751 2:0.0092043877 3:0.071428575 4:0.0071645682 5:0.17476755 6:0.90976489 7:0.90785849 8:0.86363697 9:0.86884451 10:0.70052463 11:0.024459582 13:0.087580763 14:0.22415419 15:0.11817368 16:0.28429466 #
2 1:0 2:0 3:0 4:0.00010213834 5:0.30107528 6:0.60177976 7:0.5795328 8:0.83289105 9:0.83304119 10:0.64872396 11:0.056216754 12:0.070175439 13:0.30617285 14:0.43621078 15:0.34133333 16:0.46856278 #
-2 1:0.00038606726 2:0.010727311 3:0.039999999 4:0.002063185 5:0.28224474 6:0.59213573 7:0.5705474 8:0.87705576 9:0.88611209 10:0.83395183 11:0.062709808 13:0.29636362 14:0.42454809 15:0.35095137 16:0.46975949 #
-2 1:0.0005097565 2:0.0038139536 3:0.074561402 4:0.0011045882 5:0.34035233 6:0.63450569 7:0.59743345 8:0.86422282 9:0.86940235 10:0.7996704 11:0.038316041 13:0.18121547 14:0.27695584 15:0.21905941 16:0.31611982 #
2 1:0 2:0 3:0 4:0.00039273739 5:0.19940917 6:0.83397681 7:0.81660229 8:0.77095985 9:0.77464908 10:0.5717783 11:0.027673153 12:0.090909094 13:0.12756264 14:0.25867608 15:0.15151516 16:0.28239125 #
-2 1:0.040816326 2:0 3:0.065789476 4:0.0028326022 5:0.67793638 6:0.20406279 7:0.22622345 8:0.75127786 9:0.76255155 10:0.95870054 11:0.50222367 12:0.33333334 13:0.71481484 14:0.73753661 15:0.77021277 16:0.79066443 #
2 1:0 2:0.00066666666 3:0 4:0.00021640807 5:0.21874608 6:0.44526628 7:0.39349112 8:0.8249374 9:0.83160353 10:0.79528904 11:0.063897021 12:0.065573767 13:0.30434781 14:0.3934648 15:0.33108109 16:0.41543329 #
-2 1:0.00054869684 2:0.013550135 3:0.045454547 4:0.0046883617 5:0.54903758 6:0.1827451 7:0.089803919 8:0.8621667 9:0.86698425 10:0.6929453 11:0.23003517 13:0.60837698 14:0.65067577 15:0.66666669 16:0.7047677 #
2 5:0.43886673 6:0.1826923 7:0.03846154 8:0.78834593 9:0.80828488 10:0.78029436 11:0.21353707 13:0.53521127 14:0.57008773 15:0.56716418 16:0.59440339 #
2 5:0.69657964 6:0.053182214 7:0.047951177 8:0.97164506 9:0.97427475 10:0.9755246 11:0.44048679 13:0.803132 14:0.79429638 15:0.84275186 16:0.82568425 #
2 1:0.00062637019 2:0.0083333338 3:0.24363637 4:0.0027006173 5:0.34527811 6:0.15183246 7:0.13874346 8:0.87059265 9:0.87257612 10:0.62425917 11:0.14103061 12:0.13492064 13:0.50943398 14:0.53759849 15:0.52912623 16:0.5524106 #
-2 1:0.00058680953 2:0.022544283 3:0.050000001 4:0.0045351475 5:0.28672788 6:0.28092244 7:0.256464 8:0.88375753 9:0.8881548 10:0.58138758 11:0.095414653 13:0.40556368 14:0.46098113 15:0.46310833 16:0.50866908 #
-2 1:0.0020192503 2:0.012595591 3:0.11111111 4:0.010146104 5:0.29172033 6:0.58547485 7:0.54413408 8:0.843355 9:0.84834313 10:0.84433156 11:0.072210334 13:0.2846154 14:0.40354922 15:0.30898875 16:0.43333963 #
2 1:0 2:0.0012437811 3:0 4:0 5:0.23485261 6:0.63421053 7:0.56842107 8:0.81641906 9:0.81877625 10:0.67316222 11:0.061906163 13:0.24705882 14:0.36715141 15:0.29113925 16:0.40915164 #
-2 1:0.00067164178 2:0.013043478 3:0.125 4:0.013744273 5:0.42459288 6:0.3738234 7:0.32182878 8:0.87709153 9:0.87787139 10:0.77169669 11:0.083054125 13:0.42057291 14:0.49849203 15:0.50526315 16:0.5681141 #
-2 1:0.0012077295 2:0.021852238 3:0.10185185 4:0.0047474746 5:0.53987306 6:0.026126126 7:0.023423424 8:0.91309428 9:0.9164868 10:0.93004149 11:0.1561034 13:0.5164609 14:0.52939862 15:0.56124723 16:0.5587638 #
-2 1:0.0011361289 2:0.048951048 3:0.088888891 4:0.0053951591 5:0.40968701 6:0.016029593 7:0.21208385 8:0.8113085 9:0.81233764 10:0.81585145 11:0.14617704 13:0.54353565 14:0.53080332 15:0.60806918 16:0.57356864 #
-2 1:0.0015717845 2:0.027586207 3:0.090909094 4:0.0057749753 5:0.39424169 6:0.22482893 7:0.14760508 8:0.91489428 9:0.9186241 10:0.77807152 11:0.19472882 13:0.4817073 14:0.51837981 15:0.53303963 16:0.55819672 #
2 5:0.47692093 6:0.26415095 7:0.17924528 8:0.78847146 9:0.82942128 10:0.87076181 11:0.26442021 13:0.58666664 14:0.64523172 15:0.6056338 16:0.6481021 #
-2 1:0.00073593075 2:0.022774328 3:0.083333336 4:0.0067090397 5:0.37594262 6:0.44181818 7:0.43272728 8:0.89103681 9:0.8961882 10:0.87262613 11:0.099263199 13:0.37300435 14:0.46975896 15:0.41435564 16:0.50665408 #
-2 1:0.00044836116 2:0.0042276424 3:0.074074075 4:0.0059523811 5:0.54309022 6:0.5 7:0.44911936 8:0.92172027 9:0.92314231 10:0.80204606 11:0.20968768 13:0.38418078 14:0.51530176 15:0.43515673 16:0.55729306 #
0.61758322653167851967737078666687 1:0 2:0 3:0 4:6.8769034e-05 5:0.19784877 6:0.57339823 7:0.50121653 8:0.7703712 9:0.77300942 10:0.67146063 11:0.041281734 12:0.078125 13:0.22810219 14:0.34696501 15:0.24708171 16:0.36698154 #
-2 1:0.00086918729 2:0.0073504276 3:0.05952381 4:0.0038819876 5:0.52276623 6:0.83846617 7:0.83876812 8:0.86896431 9:0.87050241 10:0.82132924 11:0.13320367 13:0.17238002 14:0.33965287 15:0.2122588 16:0.38848636 #
2 1:0 2:0.00080128206 3:0 4:0.000302267 5:0.2704989 6:0.61788619 7:0.56549233 8:0.84034652 9:0.84082627 10:0.57913524 11:0.024073683 12:0.055555556 13:0.21247563 14:0.31923106 15:0.23849373 16:0.35315281 #
2 5:0.41707078 6:0.036072146 7:0.048096191 8:0.88996869 9:0.90196556 10:0.93655735 11:0.1621915 13:0.57414448 14:0.58627576 15:0.60483873 16:0.61102962 #
2 1:6.426405e-06 2:0 3:0 4:0.00015352898 5:0.19456634 6:0.73637265 7:0.72844398 8:0.85891479 9:0.85878164 10:0.74533486 11:0.041309617 12:0.078431375 13:0.23592493 14:0.36836854 15:0.24778761 16:0.38151482 #
-2 1:0.055555556 2:0 3:0.16 4:0.011944445 5:0.42203191 6:0.04255319 7:0.018237082 8:0.61004883 9:0.61306971 10:0.62979233 11:0.21437107 12:0.32258064 13:0.625 14:0.61224002 15:0.708134 16:0.67067266 #
-2 1:0 2:0 3:0.0015037594 4:0.0010860484 5:0.49465799 6:0.082660332 7:0.10403801 8:0.82127726 9:0.82773596 10:0.94453347 11:0.35692638 12:0.33898306 13:0.65588236 14:0.62950724 15:0.7006579 16:0.66845101 #
-2 1:0.019138755 2:0 3:0.17901234 4:0.0030864198 5:0.54776394 6:1.0362538 7:0.88519639 8:0.758865 9:0.74919921 10:0.77878684 11:0.24341218 12:0.32786885 13:0.73148149 14:0.51486981 15:0.78723407 16:0.54940063 #
2 1:0.0015197569 2:0.027272727 3:0.37412587 4:0.0049636285 5:0.32947868 6:0.072519086 7:0.072519086 8:0.89832944 9:0.90123415 10:0.60346848 11:0.15069121 12:0.18518518 13:0.61971831 14:0.58020437 15:0.64233577 16:0.5981276 #
-2 1:0.00088795606 2:0.013726836 3:0.10714286 4:0.0077639753 5:0.30077818 6:0.82289904 7:0.79554427 8:0.85832596 9:0.8614319 10:0.67849249 11:0.025255997 13:0.12648946 14:0.26336607 15:0.15836102 16:0.31042612 #
-2 1:0.0022381986 2:0.021088436 3:0.083333336 4:0.0066142092 5:0.2535426 6:0.43888572 7:0.39624786 8:0.91094446 9:0.90572822 10:0.78551859 11:0.045378149 13:0.32175228 14:0.40195209 15:0.3581315 16:0.43432033 #
-2 1:0.0010025062 2:0.0084730806 3:0.054545455 4:0.0041135335 5:0.5954836 6:0.87967914 7:0.87727273 8:0.86877191 9:0.868366 10:0.79298484 11:0.39973938 13:0.14207651 14:0.32801208 15:0.17196056 16:0.37304688 #
-2 1:0.0017670074 2:0.022222223 3:0.11111111 4:0.010702055 5:0.58586466 6:0.08510638 7:0.20141844 8:0.91211051 9:0.91892731 10:0.89572102 11:0.2754989 13:0.61261261 14:0.59716886 15:0.63836479 16:0.61736643 #
-2 1:0.00044482463 2:0.0068574836 3:0.11111111 4:0.0058265585 5:0.36899164 6:0.45478037 7:0.41472867 8:0.88891631 9:0.90281284 10:0.77448827 11:0.071237437 13:0.30171427 14:0.39017126 15:0.35602096 16:0.43703705 #
-2 1:0.00086912169 2:0.0037441212 3:0.061728396 4:0.0016175815 5:0.51457268 6:0.93176663 7:0.92463535 8:0.82806706 9:0.82648176 10:0.686818 11:0.14120711 13:0.082991801 14:0.24108884 15:0.10555903 16:0.27378052 #
2 5:0.62663132 6:0.052384675 7:0.042220484 8:0.90980387 9:0.91234207 10:0.94205672 11:0.39547494 13:0.77735126 14:0.77756792 15:0.82474226 16:0.82304698 #
-2 1:0.00096449454 2:0.010433245 3:0.09375 4:0.0059866272 5:0.34048468 6:0.67859274 7:0.673226 8:0.88088804 9:0.88430709 10:0.76300913 11:0.21130805 13:0.29862174 14:0.46960059 15:0.33105803 16:0.50284725 #
-2 1:0 2:0 3:0.1875 4:0.015190972 5:0.4622429 6:0.10465116 7:0.019379845 8:0.70320582 9:0.71097583 10:0.75773823 11:0.22578655 12:0.33333334 13:0.616 14:0.60253668 15:0.67768598 16:0.65889496 #
-2 1:0.00042483956 2:0.0079223607 3:0.03409091 4:0.0022921863 5:0.40426925 6:0.68938071 7:0.66258979 8:0.92428643 9:0.92295462 10:0.86929703 11:0.11563449 13:0.29378173 14:0.43139255 15:0.33333334 16:0.466993 #
2 5:0.5950622 6:0.041155867 7:0.013134851 8:0.94058585 9:0.94329822 10:0.97920805 11:0.33572111 13:0.76744187 14:0.75717092 15:0.79500002 16:0.78238785 #
-2 1:0.079999998 2:0 3:0.16 4:0.011944445 5:0.45407248 6:0.11409396 7:0.093959734 8:0.80476248 9:0.81733185 10:0.76319098 11:0.22773431 12:0.33333334 13:0.60759491 14:0.5724436 15:0.66233766 16:0.62311065 #
-2 1:0.00058960845 2:0.0036073374 3:0.041666668 4:0.0035552683 5:0.36002213 6:0.25122669 7:0.35525024 8:0.86741799 9:0.88713068 10:0.93494397 11:0.15243983 13:0.44650206 14:0.42069367 15:0.50328225 16:0.46602169 #
-2 1:0.029136317 2:0 3:0.098765433 4:0.0020861912 5:0.7823292 6:0.12730153 7:0.12037221 8:0.81101811 9:0.82083178 10:0.9590432 11:0.43532994 12:0.32786885 13:0.64757162 14:0.65434688 15:0.69378698 16:0.69276297 #
-2 1:0.00036223134 2:0.018200202 3:0.027777778 4:0.0031373398 5:0.47624919 6:0.21793863 7:0.098347761 8:0.85057288 9:0.85345858 10:0.69783682 11:0.19442776 13:0.44802868 14:0.50369501 15:0.49409449 16:0.54146659 #
-2 1:0.00082305272 2:0.0088665579 3:0.077922076 4:0.0046219649 5:0.55882591 6:0.17021276 7:0.17521903 8:0.91854942 9:0.91460675 10:0.84918302 11:0.16529897 13:0.47848102 14:0.51239407 15:0.52688169 16:0.55688113 #
1.1307920942222153826151043176651 1:0 2:0 3:0 4:4.1020594e-05 5:0.33436456 6:0.646281 7:0.58512396 8:0.59965909 9:0.60328805 10:0.29235196 11:0.043480828 13:0.21678321 14:0.29834598 15:0.22463769 16:0.30992252 #
2 5:0.76710194 6:0.15330318 7:0.12081963 8:0.97103363 9:0.97124332 10:0.91986668 11:0.45935813 13:0.72226441 14:0.70235652 15:0.77582318 16:0.74909979 #
2 1:6.1753171e-06 2:0 3:0 4:0.00015521982 5:0.2527675 6:0.70548368 7:0.68946397 8:0.79930216 9:0.81120759 10:0.64946622 11:0.034310326 12:0.090909094 13:0.22928709 14:0.34191582 15:0.27872342 16:0.39168224 #
2 1:0.0064045545 2:0.028124999 3:0.13360325 4:0.0051556746 6:0.037037037 12:0.85000002 #
-2 1:0.00082145643 2:0.021367522 3:0.11111111 4:0.0048247562 5:0.25342259 6:0.58201987 7:0.57092822 8:0.84887695 9:0.85043293 10:0.50548238 11:0.063155867 13:0.2715655 14:0.37485725 15:0.29963899 16:0.39800486 #
2 5:0.90177417 6:0.0016820858 7:0.1783011 8:0.94911051 9:0.96289599 10:0.98492807 11:0.84805804 13:0.37362638 14:0.36958706 15:0.41111112 16:0.40442592 #
2 1:0 5:0.30717021 6:0.79727757 7:0.77491492 8:0.85322762 9:0.85486388 10:0.4750106 11:0.030954499 12:0.043956045 13:0.13014609 14:0.25166404 15:0.1640058 16:0.28958276 #
-2 1:0.00090034783 2:0.0094191525 3:0.0625 4:0.0033283699 5:0.32108539 6:0.89139742 7:0.88030362 8:0.85067123 9:0.84704769 10:0.68416142 11:0.039672572 13:0.086911537 14:0.22852027 15:0.10828403 16:0.26746556 #
2 1:6.465963e-06 2:0 3:0 4:0.00014854426 5:0.34629712 6:0.80327868 7:0.78343397 8:0.77078444 9:0.7727403 10:0.58165723 11:0.061735395 12:0.083333336 13:0.14004377 14:0.25669453 15:0.16747573 16:0.29257256 #
2 1:0.0033420864 2:0.25 3:0.058641974 4:0.0067397328 5:0.42490983 6:0.16 7:0.073684208 8:0.90864277 9:0.92159432 10:0.81437838 11:0.13770044 12:0.42553192 13:0.597561 14:0.58923632 15:0.65929204 16:0.63844508 #
-2 1:0.00047474747 2:0.005408654 3:0.13596492 4:0.0026548475 5:0.30252677 6:0.26697353 7:0.39240506 8:0.75727278 9:0.75556284 10:0.54154992 11:0.13127428 13:0.35665914 14:0.34164673 15:0.41396508 16:0.38819817 #
2 5:0.88800573 6:0.20701228 7:0.08511854 8:0.99286503 9:0.99233931 10:0.89999765 11:0.45609653 13:0.68153775 14:0.69127798 15:0.75 16:0.74381137 #
2 5:0.8223511 6:0.44096065 7:0.17811875 8:0.82768357 9:0.85523796 10:0.99683797 11:0.64640206 13:0.46212122 14:0.43790933 15:0.48461539 16:0.45886493 #
2 1:0 2:0 3:0 4:3.6002304e-05 5:0.36896276 6:0.50089926 7:0.40917265 8:0.84252036 9:0.84195894 10:0.69605446 11:0.16815411 12:0.055555556 13:0.25430211 14:0.34269246 15:0.27515399 16:0.36817634 #
2 1:0 2:0 3:0 4:0 5:0.24330281 6:0.30441898 7:0.22422259 8:0.81913435 9:0.81999862 10:0.83153981 11:0.070316613 12:0.039999999 13:0.40063092 14:0.44515345 15:0.44186047 16:0.48387316 #
-2 1:0.00039054954 2:0.0054651834 3:0.090909094 4:0.0048363097 5:0.32422194 6:0.72302157 7:0.721223 8:0.82883918 9:0.83055609 10:0.66026849 11:0.06303665 13:0.17230769 14:0.28634709 15:0.20811288 16:0.31921402 #
-0.67241599296926324313972145318985 1:0.00068494456 2:0.007542857 3:0.095238097 4:0.0073702829 5:0.46304771 6:0.68647325 7:0.65641385 8:0.92255932 9:0.92098194 10:0.79816741 11:0.080457702 13:0.26615554 14:0.40937096 15:0.32253885 16:0.46907714 #
2 1:0.00053623412 2:0.0083333338 3:0.24764891 4:0.0023521506 5:0.41973236 6:0.0046189376 7:0.043879908 8:0.90276486 9:0.90711039 10:0.69066119 11:0.23788093 12:0.12878788 13:0.59336102 14:0.62243468 15:0.64502162 16:0.65502256 #
2 1:0.0032407406 2:0.06666667 3:0.55716556 4:0.00086154632 5:0.2572124 6:7.0079999 7:8.0319996 8:0.72790891 9:0.72347343 10:0.29240015 11:0.11101154 12:0.3548387 13:0.81481481 14:0.32314527 15:0.83544302 16:0.33375502 #
2 1:0.013636364 2:0.052631579 3:0.27272728 4:0.0095070424 5:0.15731503 6:0.18487395 7:0.44957983 8:0.79153877 9:0.7910049 10:0.27725655 11:0.018424738 12:0.5 13:0.20422535 14:0.17844211 15:0.24626866 16:0.21248354 #
2 5:0.086435303 6:0.63621795 7:0.58814102 8:0.74073243 9:0.74891657 10:0.75787556 11:0.014376366 12:0.057971016 13:0.20945945 14:0.30474809 15:0.23999999 16:0.33517224 #
2 5:0.92431074 6:0.21459553 7:0.10722666 8:0.99529207 9:0.99481928 10:0.91251582 11:0.49257654 13:0.69022202 14:0.67613304 15:0.75386411 16:0.72329199 #
-2 1:0.047619049 2:0 3:0.088541664 4:0.0035807292 5:0.62079817 6:0.36666667 7:0.33240741 8:0.84189218 9:0.8426103 10:0.92555892 11:0.35380325 12:0.33898306 13:0.58631921 14:0.61764508 15:0.63503647 16:0.65956426 #
-2 1:0.00037716873 2:0.0086755352 3:0.09375 4:0.0059031877 5:0.45619452 6:0.64983976 7:0.61939102 8:0.91196585 9:0.90845358 10:0.70710957 11:0.06569504 13:0.23483483 14:0.35904929 15:0.28974739 16:0.4116036 #
1.4571154315655689970299135893583 1:0.0060606059 2:0.11111111 3:0.1025 4:0.0066791154 5:0.56387645 6:0.24005488 7:0.12208505 8:0.94568413 9:0.95053196 10:0.78933203 11:0.24625988 12:0.84210527 13:0.63779527 14:0.68343437 15:0.67138809 16:0.70405805 #
-2 1:0.0016514228 2:0.01978022 3:0.036458332 4:0.0030245297 5:0.38833192 6:0.54481369 7:0.51359516 8:0.87691522 9:0.88060164 10:0.73009878 11:0.17205532 13:0.36585367 14:0.47327796 15:0.40476191 16:0.51334769 #
2 1:0 2:0 3:0 4:0.00032463318 5:0.32046685 6:0.87800586 7:0.87155426 8:0.71704578 9:0.72947413 10:0.76020116 11:0.07966876 12:0.068965517 13:0.12920354 14:0.28046 15:0.14770459 16:0.31379887 #
-2 1:0.00032210269 2:0.0056200824 3:0.0625 4:0.0046669906 5:0.34909195 6:0.8864671 7:0.88053524 8:0.91231734 9:0.91227114 10:0.79192495 11:0.070736043 13:0.12487611 14:0.27215916 15:0.15389186 16:0.30696404 #
2 1:8.6486489e-06 2:0 3:0 4:0.00014387307 5:0.26084232 6:0.78718537 7:0.74828374 8:0.74410254 9:0.74445117 10:0.80232757 11:0.077698506 12:0.08510638 13:0.14733543 14:0.25090319 15:0.17182131 16:0.28604138 #
-2 1:0.000715476 2:0.0059288535 3:0.071428575 4:0.0056320401 5:0.31719983 6:0.50285715 7:0.48263738 8:0.89960271 9:0.89697373 10:0.90167397 11:0.037501492 13:0.2820513 14:0.36918926 15:0.33138686 16:0.41584927 #
2 5:0.55167603 6:0.13095239 7:0.10154062 8:0.94606227 9:0.95040041 10:0.98854566 11:0.53477985 13:0.28915662 14:0.27464917 15:0.32911393 16:0.31361741 #
2 1:7.5152934e-06 2:0 3:0 4:0.00016169455 5:0.32188347 6:0.92039311 7:0.91400492 8:0.76834995 9:0.77365321 10:0.66360223 11:0.040653724 12:0.075471699 13:0.10291859 14:0.24702738 15:0.12765957 16:0.28906572 #
-2 1:0.0011038766 2:0.0065151514 3:0.1 4:0.007751938 5:0.48635525 6:0.071736008 7:0.1061693 8:0.86479217 9:0.86773038 10:0.85761446 11:0.28887153 13:0.4775641 14:0.45944434 15:0.53061223 16:0.50389743 #
2 1:0 2:0 3:0 4:0.00013450242 5:0.3302308 6:0.23492064 7:0.15238096 8:0.7340548 9:0.74060559 10:0.66101319 11:0.13213612 13:0.34285715 14:0.37675527 15:0.37426901 16:0.39960995 #
-2 1:0.053333335 2:0 3:0.14222223 4:0.0037962962 5:0.70917577 6:0.14639905 7:0.13931523 8:0.83050197 9:0.83974737 10:0.86605477 11:0.48657879 12:0.33898306 13:0.71296299 14:0.695319 15:0.74603176 16:0.74018043 #
-2 1:0.00091514754 2:0.032036614 3:0.11904762 4:0.0090361442 5:0.57088929 6:0.21536525 7:0.15113351 8:0.93826509 9:0.93977535 10:0.8416456 11:0.32472271 13:0.5380435 14:0.58033216 15:0.55752212 16:0.59867108 #
2 5:0.93903011 6:0.21136191 7:0.085053109 8:0.99388307 9:0.9931491 10:0.92895341 11:0.7530058 13:0.69862717 14:0.69444013 15:0.76284081 16:0.74063087 #
-2 1:0.0012235148 2:0.0077881622 3:0.15000001 4:0.010884354 5:0.2567094 6:0.40381896 7:0.37270156 8:0.8619867 9:0.867428 10:0.78015876 11:0.094518997 13:0.32894737 14:0.39066184 15:0.36938775 16:0.42857796 #
-2 1:0.00043604651 2:0.0060790274 3:0.023076924 4:0.0016315986 5:0.17198879 6:0.86209106 7:0.85760105 8:0.78302318 9:0.77917057 10:0.63207293 11:0.035614155 13:0.13534483 14:0.28754386 15:0.16768293 16:0.33468628 #
-2 1:0.00040799147 2:0.0031775921 3:0.061538462 4:0.0018140232 5:0.19260378 6:0.25361156 7:0.19261637 8:0.65678108 9:0.65996557 10:0.33659494 11:0.057847288 13:0.2857143 14:0.30669832 15:0.31309903 16:0.32360864 #
2 1:4.0963459e-05 2:0 3:0 4:0.00028730129 5:0.091885462 6:0.8886894 7:0.89587075 8:0.49958059 9:0.50108796 10:0.65420812 11:0.017055919 12:0.08510638 13:0.087719299 14:0.22715543 15:0.095693782 16:0.24082406 #
-2 1:0.0011871358 2:0.016771488 3:0.042857144 4:0.0031187346 5:0.21037196 6:0.41282302 7:0.36277395 8:0.79778856 9:0.77884901 10:0.41877267 11:0.0090207532 13:0.26750973 14:0.31743437 15:0.311804 16:0.34797835 #
-2 1:0.00089976343 2:0.013431014 3:0.083333336 4:0.0047142855 5:0.18506175 6:0.66242516 7:0.66317368 8:0.78970563 9:0.78840679 10:0.53935039 11:0.051073171 13:0.24912281 14:0.36761653 15:0.29558542 16:0.42501238 #
-2 1:0.016917294 2:0 3:0.060975611 4:0.0012510779 5:0.76493335 6:0.054456379 7:0.10457886 8:0.7129823 9:0.72269303 10:0.93696964 11:0.52964211 12:0.32786885 13:0.66260868 14:0.6655305 15:0.71396649 16:0.70689344 #
-2 1:0.081632651 2:0 3:0.12244898 4:0.0083616776 5:0.738967 6:0.27433628 7:0.24778761 8:0.79803401 9:0.80504066 10:0.96726304 11:0.60911202 12:0.33898306 13:0.70535713 14:0.75636804 15:0.70642203 16:0.75668597 #
2 1:0.00010972131 2:0 3:0 4:0.0010630758 5:0.27510393 6:0.88801759 7:0.87609786 8:0.81303561 9:0.81978303 10:0.62882143 11:0.020906631 12:0.078431375 13:0.11764706 14:0.26811445 15:0.1408297 16:0.3052282 #
-2 1:0.00078685087 2:0.0070594624 3:0.045454547 4:0.0043821209 5:0.14213982 6:0.63048017 7:0.60055673 8:0.83300924 9:0.8290484 10:0.54381901 11:0.009654263 13:0.18813559 14:0.26460075 15:0.22456814 16:0.29743275 #
-2 1:0.057142857 2:0 3:0.13333334 4:0.0099537037 5:0.36825532 6:0.25082508 7:0.24422443 8:0.61204219 9:0.62065768 10:0.61275905 11:0.23879234 12:0.33333334 13:0.51219511 14:0.54660815 15:0.52136755 16:0.55567169 #
2 1:8.9174246e-06 2:0 3:0 4:0.00014906547 5:0.2673527 6:0.68166089 7:0.64359862 8:0.77048361 9:0.79878545 10:0.72361195 11:0.052750438 12:0.08510638 13:0.21400778 14:0.31826404 15:0.24894515 16:0.35280672 #
-2 1:0.0010338589 2:0.015599343 3:0.0075187972 4:0.00059220119 5:0.16765679 6:0.84460694 7:0.84186471 8:0.79992968 9:0.76817065 10:0.54507494 11:0.022970274 13:0.13773796 14:0.29261586 15:0.16862746 16:0.34015751 #
2 5:0.59101802 6:0.17927171 7:0.085434176 8:0.93653613 9:0.93861043 10:0.78790718 11:0.25312677 13:0.58974361 14:0.6132831 15:0.60856271 16:0.62705243 #
-2 1:0.0065406975 2:0 3:0.088953488 4:0.0011708656 5:0.67544568 6:1.0731232 7:1.1036724 8:0.78282517 9:0.78519249 10:0.78802907 11:0.35923028 12:0.32786885 13:0.66125542 14:0.50422013 15:0.70394737 16:0.53969419 #
2 5:0.37938866 6:0.89339465 7:0.87834448 8:0.85306901 9:0.85013515 10:0.70773405 11:0.084478922 12:0.06666667 13:0.13722628 14:0.29327765 15:0.1638796 16:0.32398862 #
2 1:0 2:0 3:0 4:6.1489271e-05 5:0.58646536 6:0.2069435 7:0.14635807 8:0.91065323 9:0.90906811 10:0.77986515 11:0.12943652 12:0.083333336 13:0.3444227 14:0.35396585 15:0.39254385 16:0.3858332 #
2 1:0 2:0 3:0 4:0.00033844274 5:0.23831517 6:0.90469611 7:0.89848065 8:0.71736562 9:0.72783083 10:0.58079952 11:0.036332183 12:0.083333336 13:0.10738255 14:0.26381642 15:0.12967581 16:0.29592782 #
-2 1:0.00041191475 2:0.0035731022 3:0.042857144 4:0.0040777619 5:0.15191105 6:0.83776957 7:0.83389491 8:0.80865175 9:0.81151557 10:0.57513827 11:0.03889621 13:0.18384224 14:0.33550581 15:0.2161572 16:0.37077004 #
-2 1:0.00031298204 2:0.0038098693 3:0.041666668 4:0.0030637255 5:0.24939433 6:0.70651084 7:0.69282138 8:0.83641016 9:0.83530563 10:0.58612984 11:0.022577936 13:0.20063025 14:0.29327363 15:0.2345079 16:0.3244316 #
2 1:0 2:0 3:0 4:0.00012800819 5:0.36918676 6:0.74709302 7:0.67441863 8:0.75369966 9:0.74562311 10:0.59952909 11:0.095114432 12:0.093023255 13:0.16149068 14:0.3089115 15:0.17647059 16:0.32907259 #
-2 1:0.029411765 2:0 3:0.031764038 4:0.0013038067 5:0.71063989 6:0.11697303 7:0.10766292 8:0.70092267 9:0.72915429 10:0.88672864 11:0.37457788 12:0.31746033 13:0.59386975 14:0.56070215 15:0.65798044 16:0.59894657 #
-2 1:0.00085531396 2:0.0064244573 3:0.014285714 4:0.0014425719 5:0.29723856 6:0.65649348 7:0.62207794 8:0.84738487 9:0.84225816 10:0.43470484 11:0.019471984 13:0.14603175 14:0.21853818 15:0.17894737 16:0.25669822 #
2 1:0 2:0 3:0 4:0.00030511059 5:0.36421114 6:0.45905513 7:0.44488189 8:0.8618319 9:0.85274762 10:0.7779724 11:0.088174172 12:0.07272727 13:0.29176471 14:0.36836752 15:0.33155081 16:0.40552336 #
-2 1:0.00065984821 2:0.008547009 3:0.10714286 4:0.0078492938 5:0.33907306 6:0.76497394 7:0.73480904 8:0.87039179 9:0.87223792 10:0.38727036 11:0.02598531 13:0.16195373 14:0.29534733 15:0.19969513 16:0.33688673 #
2 1:6.3426019e-06 2:0 3:0 4:0.0001516781 5:0.28302872 6:0.65781713 7:0.6238938 8:0.83688104 9:0.83849645 10:0.75300896 11:0.033741295 12:0.078431375 13:0.22857143 14:0.33749959 15:0.24714829 16:0.35565886 #
-2 1:0.00078656682 2:0.012560386 3:0.020833334 4:0.0032679739 5:0.25818774 6:0.4123314 7:0.42003852 8:0.85241777 9:0.85160714 10:0.81050986 11:0.03925683 13:0.26905829 14:0.34804767 15:0.30024815 16:0.36818445 #
-2 1:0.00050611678 2:0.0045432644 3:0.083333336 4:0.0073563219 5:0.13497414 6:0.2 7:0.15428571 8:0.78872883 9:0.80035758 10:0.58061564 11:0.01343929 13:0.26439792 14:0.31201366 15:0.31355932 16:0.34643546 #
2 1:6.6377261e-06 2:0 3:0 4:0.00014467593 5:0.31111199 6:0.72825253 7:0.69438028 8:0.72938216 9:0.73544663 10:0.6666463 11:0.036430437 12:0.090909094 13:0.17125984 14:0.2771987 15:0.19565217 16:0.30686179 #
2 1:0 2:0 3:0 4:0.00031330701 5:0.37162039 6:0.66162789 7:0.62558138 8:0.87618113 9:0.88386261 10:0.78082567 11:0.11810886 12:0.06779661 13:0.25949368 14:0.35649252 15:0.27946126 16:0.37722987 #
-2 1:0.056122448 2:0 3:0.096938774 4:0.0040745465 5:0.68442297 6:0.17480136 7:0.098751418 8:0.82778203 9:0.83670807 10:0.93085676 11:0.37116221 12:0.33898306 13:0.62295079 14:0.60504562 15:0.67464113 16:0.63758492 #
-2 1:0.036363635 2:0 3:0.16 4:0.011944445 5:0.17944804 6:0.73407203 7:0.71098799 8:0.58862084 9:0.58810562 10:0.54277951 11:0.089186676 12:0.32258064 13:0.30746269 14:0.42620838 15:0.37809187 16:0.48357907 #
-2 1:0.00027376981 2:0.0024155991 3:0.014285714 4:0.0014541558 5:0.30860466 6:0.71985477 7:0.70514047 8:0.84500366 9:0.8450197 10:0.61917222 11:0.037521109 13:0.18000001 14:0.28261358 15:0.23476298 16:0.33909577 #
2 5:0.24686235 6:0.86410987 7:0.860322 8:0.76069599 9:0.75702757 10:0.68021685 11:0.032248396 12:0.095238097 13:0.14893617 14:0.30022752 15:0.17894737 16:0.34205854 #
-2 1:0.00051204587 2:0.005342552 3:0.16666667 4:0.0093390802 5:0.13388306 6:0.42141622 7:0.59758204 8:0.77985877 9:0.77885264 10:0.36792076 11:0.0086600641 13:0.31376517 14:0.27423638 15:0.35384616 16:0.29673448 #
2 1:1.1512249e-05 2:0 3:0 4:0.00015099549 5:0.25784832 6:0.65137613 7:0.58944952 8:0.8324455 9:0.83906436 10:0.74859506 11:0.0090596098 12:0.088888891 13:0.19895288 14:0.26961884 15:0.20670392 16:0.27794421 #
-2 1:0.00071428571 2:0.019056261 3:0.039999999 4:0.0030221816 5:0.38201559 6:0.79801172 7:0.78309989 8:0.88118565 9:0.88493925 10:0.73182231 11:0.28324005 13:0.16557162 14:0.30125719 15:0.21279761 16:0.37023282 #
-2 1:0.036956523 2:0 3:0.1388889 4:0.0031507201 5:0.49413404 6:0.15692821 7:0.10767946 8:0.79562193 9:0.79633683 10:0.80343419 11:0.26650983 12:0.33898306 13:0.59880239 14:0.58285362 15:0.63758391 16:0.62411594 #
-2 1:0.00029911034 2:0.001663722 3:0.064189188 4:0.0012395803 5:0.14904918 6:0.79941648 7:0.78227574 8:0.77656549 9:0.77084821 10:0.56010014 11:0.01377175 13:0.10707804 14:0.23703 15:0.12932791 16:0.26550335 #
2 1:0 2:0 3:0 4:0.00039934801 5:0.1158111 6:0.84241772 7:0.83540207 8:0.72562122 9:0.73157471 10:0.70064586 11:0.01247416 12:0.06666667 13:0.12412831 14:0.26261452 15:0.14820592 16:0.29664335 #
-2 1:0.00027020965 2:0.0026814574 3:0.058441557 4:0.0020944148 5:0.19177249 6:0.91133356 7:0.89846265 8:0.78715199 9:0.7829935 10:0.56234747 11:0.030009598 13:0.12513034 14:0.28980246 15:0.1502146 16:0.32900283 #
2 1:8.1827702e-06 2:0 3:0 4:0.00015065128 5:0.26089275 6:0.75157517 7:0.73807383 8:0.75127286 9:0.75507438 10:0.77566564 11:0.053545401 12:0.088888891 13:0.20273973 14:0.30621418 15:0.2300885 16:0.34361568 #
2 1:0 3:0 4:0.0012019231 5:0.28959927 6:0.66102999 7:0.64027673 8:0.78202784 9:0.78327507 10:0.80748636 11:0.048600525 12:0.090909094 13:0.23250565 14:0.32964149 15:0.25563911 16:0.35321617 #
-2 1:0.00058520597 2:0.0068421052 3:0.057142857 4:0.0045871558 5:0.39529526 6:0.88719839 7:0.87757045 8:0.88745445 9:0.88031179 10:0.61304158 11:0.080527239 13:0.14754952 14:0.32084543 15:0.19420095 16:0.38065213 #
-2 1:0.038781162 2:0 3:0.12890625 4:0.0035536024 5:0.65102267 6:0.046511628 7:0.052540913 8:0.77558535 9:0.78995913 10:0.84306639 11:0.38922921 12:0.33333334 13:0.68070173 14:0.62406802 15:0.70588237 16:0.64863288 #
-2 1:0.0020180438 2:0.024691358 3:0.0090497741 4:0.0021645022 5:0.30791873 6:0.63240302 7:0.59087813 8:0.89121807 9:0.87385988 10:0.89040112 11:0.056076039 13:0.25360826 14:0.3544139 15:0.3020595 16:0.40930283 #
2 1:0 2:0 3:0 4:0.00040255536 5:0.25583136 6:0.72463769 7:0.68888891 8:0.71723676 9:0.71932346 10:0.51615745 11:0.033132169 13:0.20090294 14:0.3152127 15:0.22434367 16:0.33854151 #
2 1:0 2:0 3:0 4:0.00016576679 5:0.33177033 6:0.40686274 7:0.42647058 8:0.74933177 9:0.7586984 10:0.58443266 11:0.12397588 13:0.33858266 14:0.49391457 15:0.37007874 16:0.52966362 #
-2 1:0.015086207 2:0 3:0.10544217 4:0.0026455026 5:0.63164657 6:0.11729186 7:0.11033852 8:0.72742969 9:0.73882663 10:0.81586379 11:0.29948506 12:0.32786885 13:0.56373936 14:0.56941426 15:0.60532153 16:0.60565734 #
-2 1:0.018595042 2:0 3:0.057692308 4:0.0021675706 5:0.80003208 6:0.15312901 7:0.17423917 8:0.77145356 9:0.7738502 10:0.84638053 11:0.50303918 12:0.32786885 13:0.64558142 14:0.64334434 15:0.72162485 16:0.70658934 #
2 1:0 2:0 3:0 4:2.6748839e-06 5:0.14852214 6:0.60512823 7:0.54871798 8:0.36764041 9:0.43704286 10:0.42607996 11:0.01980295 12:0.07272727 13:0.125 14:0.17826851 15:0.12820514 16:0.1836796 #
-2 1:0.0013020312 2:0.0079686316 3:0.1 4:0.0057624113 5:0.24052104 6:0.61877394 7:0.57183909 8:0.71742243 9:0.72692609 10:0.84196109 11:0.067065023 13:0.23255815 14:0.35192567 15:0.27083334 16:0.40280315 #
2 1:0 2:0 3:0 4:0.00018853696 5:0.40974319 6:0.62555718 7:0.91827637 8:0.88829839 9:0.88532412 10:0.58024663 11:0.098990113 12:0.052631579 13:0.30259365 14:0.25353372 15:0.36307693 16:0.29012251 #
2 1:0 2:0 3:0 4:0.00032602114 5:0.27484649 6:0.51688695 7:0.45521292 8:0.78531855 9:0.79648685 10:0.68899256 11:0.070016012 13:0.30914825 14:0.40960908 15:0.34006733 16:0.43927163 #
2 1:0.0010351967 2:0.01010101 3:0.11080332 4:0.007201646 5:0.4946793 6:0.25193799 7:0.12596899 8:0.93364495 9:0.938088 10:0.7543456 11:0.241466 12:0.25373134 13:0.62116039 14:0.6617499 15:0.66545457 16:0.6937843 #
-2 1:0.001311571 2:0.012820513 3:0.06666667 4:0.0051703164 5:0.38836959 6:0.37971014 7:0.33043477 8:0.76167297 9:0.76590544 10:0.40870818 11:0.18553226 13:0.34523809 14:0.40148622 15:0.35220125 16:0.40290377 #
-2 1:0.0011875 2:0.020310633 3:0.07692308 4:0.0040422888 5:0.16819735 6:0.48984468 7:0.4432497 8:0.80662066 9:0.79363179 10:0.44667917 11:0.040730655 13:0.20418848 14:0.25923792 15:0.2419825 16:0.29234597 #
-2 1:0.00079649541 2:0.028340081 3:0.16666667 4:0.015024038 5:0.18241408 6:0.68845069 7:0.66929579 8:0.78500849 9:0.78412575 10:0.51595181 11:0.028411182 13:0.20325203 14:0.3456063 15:0.23726347 16:0.38058668 #
-2 1:0 2:0 3:0.1875 4:0.015190972 5:0.50677907 6:0.16245487 7:0.13718411 8:0.70409614 9:0.70156592 10:0.74657756 11:0.34531507 12:0.33333334 13:0.61538464 14:0.63811183 15:0.66393441 16:0.67225128 #
2 1:0 2:0 3:0 4:0 5:0.19015409 6:0.68614131 7:0.6630435 8:0.70658731 9:0.71304327 10:0.66296482 11:0.062673226 12:0.045977011 13:0.29836065 14:0.43301883 15:0.34999999 16:0.47979301 #
-2 1:0.00093482906 2:0.021739131 3:0.095238097 4:0.0081159417 5:0.47598058 6:0.28010705 7:0.2221231 8:0.92278045 9:0.92299283 10:0.83224612 11:0.2253013 13:0.39845261 14:0.46003902 15:0.4594017 16:0.5152809 #
2 5:0.31779093 6:0.49092644 7:0.45033428 8:0.8180086 9:0.81805009 10:0.70495677 11:0.026051713 12:0.054054055 13:0.27038628 14:0.33510894 15:0.31259969 16:0.3641676 #
2 5:0.66257793 6:0.1194426 7:0.0092899799 8:0.96709061 9:0.96728367 10:0.79914558 11:0.23041159 13:0.62639111 14:0.63108552 15:0.65694684 16:0.65470469 #
-2 1:0.046218488 2:0 3:0.10267857 4:0.0035652281 5:0.73336452 6:0.26674235 7:0.21906924 8:0.85781866 9:0.86736506 10:0.97038668 11:0.45782208 12:0.33898306 13:0.66375548 14:0.67862737 15:0.7150259 16:0.71875978 #
2 1:0 2:0 3:0 4:0.00071556348 5:0.36565551 6:0.45982143 7:0.38474026 8:0.81623048 9:0.81675822 10:0.70285898 11:0.05508006 12:0.070175439 13:0.31707317 14:0.3665235 15:0.37058824 16:0.41094482 #
2 1:0 2:0 3:0 4:0.00021740075 5:0.175136 6:0.83404559 7:0.82977206 8:0.77855647 9:0.789352 10:0.53091067 11:0.028297756 13:0.13097346 14:0.27670795 15:0.15589353 16:0.30546448 #
2 5:0.65306926 6:0.06888441 7:0.10483871 8:0.93863386 9:0.94633925 10:0.72111815 11:0.52770621 13:0.33333334 14:0.3220306 15:0.35772356 16:0.34662867 #
2 5:0.5061391 6:0.052718285 7:0.021416804 8:0.90130949 9:0.91444278 10:0.82662165 11:0.24292247 13:0.59848487 14:0.61766374 15:0.68354428 16:0.66420782 #
-2 1:0.002129307 2:0.010808029 3:0.11111111 4:0.010557433 5:0.1438476 6:0.52876711 7:0.51050228 8:0.80408895 9:0.80777645 10:0.43639356 11:0.01402681 13:0.22931442 14:0.29291472 15:0.24935065 16:0.317141 #
-2 1:0.00028214051 2:0.0024293957 3:0.059999999 4:0.004243827 5:0.49521819 6:0.74716049 7:0.7106173 8:0.76534414 9:0.76733255 10:0.580235 11:0.35024747 13:0.19604316 14:0.28560776 15:0.23320158 16:0.31575644 #
2 1:0.0050798259 2:0.25 3:0.062283736 4:0.0070833336 5:0.46624395 6:0.18072289 7:0.075301208 8:0.92420143 9:0.9301284 10:0.73467171 11:0.18662198 12:0.3125 13:0.59278351 14:0.62176818 15:0.66137564 16:0.67397445 #
2 1:0.0037825722 2:0.33333334 3:0.036363635 4:0.0048106574 5:0.5779283 6:0.24296005 7:0.14472823 8:0.96267694 9:0.96284217 10:0.71566266 11:0.16696845 12:0.24489796 13:0.56910568 14:0.59402502 15:0.61140817 16:0.62785143 #
2 1:0 2:0 3:0 4:0.00017799929 5:0.38642409 6:0.75628078 7:0.73556072 8:0.90381718 9:0.90222508 10:0.49204922 11:0.043489784 12:0.068965517 13:0.17103235 14:0.29294443 15:0.21107267 16:0.3417367 #
2 5:0.64592022 6:0.016505407 7:0.10358566 8:0.95762706 9:0.96092159 10:0.91620797 11:0.64208704 13:0.35106382 14:0.33867982 15:0.37777779 16:0.36389139 #
2 1:8.9336763e-06 2:0 3:0 4:0.0001876419 5:0.14405055 6:0.89880955 7:0.89087301 8:0.73940617 9:0.730178 10:0.64471489 11:0.023750624 12:0.1 13:0.1054614 14:0.255597 15:0.1278826 16:0.283586 #
2 1:0 2:0 3:0 4:0.00012661483 5:0.21104895 6:0.77077919 7:0.74675328 8:0.79541487 9:0.7980873 10:0.5522536 11:0.0097426157 13:0.18813559 14:0.31387043 15:0.21174377 16:0.33766237 #
-2 1:0.00017054062 2:0.013833992 3:0.069444448 4:0.0039609815 5:0.29372931 6:0.75195175 7:0.72995031 8:0.88188535 9:0.85702068 10:0.55324978 11:0.022943083 13:0.16008538 14:0.27833256 15:0.19756098 16:0.31925908 #
2 5:0.87294251 6:0.17433535 7:0.091025144 8:0.98868567 9:0.98805994 10:0.94529521 11:0.56811911 13:0.66356277 14:0.65386981 15:0.7225374 16:0.70563567 #
2 1:0 2:0 3:0 4:0.00021888298 5:0.1681949 6:0.93041235 7:0.9243986 8:0.84314871 9:0.84187979 10:0.60814053 11:0.01955536 12:0.081632651 13:0.092511013 14:0.23448446 15:0.11298482 16:0.27377057 #
2 1:0 2:0 3:0 4:3.5253222e-05 5:0.24810176 6:0.77931035 7:0.75862068 8:0.67178077 9:0.65203691 10:0.50740051 11:0.051772017 13:0.16528925 14:0.28527996 15:0.17621145 16:0.29498813 #
2 5:0.52383721 6:0.17757009 7:0.084112152 8:0.85331291 9:0.8800624 10:0.89710593 11:0.29967529 13:0.65822786 14:0.72014147 15:0.68493152 16:0.75549734 #
-2 1:0.00029239766 2:0.018181818 3:0.0087145967 4:0.0016697263 5:0.34537318 6:0.43862522 7:0.43207857 8:0.76557225 9:0.76022345 10:0.72900414 11:0.023149345 13:0.21142857 14:0.27049255 15:0.25635594 16:0.30752289 #
2 1:7.0674873e-06 2:0 3:0 4:0.00015288766 5:0.30618832 6:0.59889096 7:0.5813309 8:0.8469283 9:0.84022641 10:0.70244825 11:0.044632975 12:0.088888891 13:0.21645021 14:0.31427255 15:0.23953488 16:0.33564559 #
-2 1:0.0004591032 2:0.0042939517 3:0.018181818 4:0.0018916766 5:0.27435118 6:0.82819277 7:0.81662649 8:0.80078864 9:0.80499363 10:0.68909454 11:0.057571106 13:0.15914489 14:0.32006428 15:0.17960289 16:0.34748602 #
-2 1:0.00046381759 2:0.0033988473 3:0.033333335 4:0.0031459224 5:0.16400996 6:0.85817385 7:0.84750551 8:0.72229254 9:0.72620642 10:0.76125526 11:0.021675456 13:0.13197026 14:0.28493884 15:0.16079295 16:0.32087991 #
-2 1:0.00069033285 2:0.0031846159 3:0.041666668 4:0.0034591195 5:0.42584956 6:0.7988447 7:0.78083587 8:0.892784 9:0.89438504 10:0.73941135 11:0.11927187 13:0.21611375 14:0.39576849 15:0.24728851 16:0.43136814 #
-2 1:0.04296875 2:0 3:0.1736111 4:0.0047743055 5:0.46411964 6:0.16348357 7:0.13750955 8:0.74604267 9:0.74710041 10:0.75923312 11:0.29798847 12:0.33333334 13:0.60629922 14:0.57508773 15:0.63636363 16:0.59526366 #
2 1:0 2:0 3:0 4:0.00070664246 5:0.27437568 6:0.50816458 7:0.48073155 8:0.81612211 9:0.81881118 10:0.59214514 11:0.034367356 13:0.28021979 14:0.35187137 15:0.34077078 16:0.39495972 #
2 5:0.76369542 6:0.005654281 7:0 8:0.94639152 9:0.94831097 10:0.97277391 11:0.424851 13:0.80378252 14:0.77858084 15:0.83376622 16:0.80403417 #
2 5:0.56192237 6:0.17227723 7:0.099009901 8:0.91719311 9:0.93633819 10:0.90721297 11:0.24883591 13:0.56444442 14:0.59314895 15:0.62318838 16:0.63880956 #
-2 1:0.00055117195 2:0.013546798 3:0.018518519 4:0.0015595709 5:0.73780656 6:0.39275053 7:0.35735607 8:0.89781672 9:0.90454328 10:0.9206382 11:0.26376945 13:0.39774331 14:0.49041313 15:0.44481054 16:0.52726328 #
-2 1:0.00054339948 2:0.0095254015 3:0.096000001 4:0.0021672125 5:0.33123088 6:0.79647595 7:0.78321123 8:0.84737825 9:0.84211236 10:0.62358868 11:0.022376798 13:0.13782816 14:0.25588819 15:0.16478077 16:0.28953326 #
2 1:0.0011897037 2:0.01010101 3:0.13148789 4:0.0078089633 5:0.41305375 6:0.23481782 7:0.17813765 8:0.9252485 9:0.92780381 10:0.67902416 11:0.2000569 12:0.84210527 13:0.56296295 14:0.60300428 15:0.58620691 16:0.62043059 #
-2 5:0.30645397 6:0.92522418 7:0.92392248 8:0.80129486 9:0.80660588 10:0.81099874 11:0.028213363 13:0.088922009 14:0.24474303 15:0.10410642 16:0.26542035 #
2 1:0 2:0 5:0.35721746 6:0.72780633 7:0.68011737 8:0.85870409 9:0.85840243 10:0.65862304 11:0.059505295 12:0.0625 13:0.20558882 14:0.32078606 15:0.23362446 16:0.35005474 #
-2 1:0.00095591543 2:0.017199017 3:0.15000001 4:0.010504202 5:0.26160508 6:0.5192802 7:0.46603012 8:0.87715864 9:0.87258238 10:0.47123086 11:0.015028457 13:0.23847926 14:0.30767044 15:0.28289473 16:0.34601888 #
-2 1:0.023460411 2:0 3:0.091111109 4:0.0018518518 5:0.7704854 6:0.13939925 7:0.10731992 8:0.79300761 9:0.8033486 10:0.96081054 11:0.4092111 12:0.32786885 13:0.6880734 14:0.66334027 15:0.72321427 16:0.696374 #
-2 1:0.0008957042 2:0.012387387 3:0.055555556 4:0.0045955884 5:0.26567897 6:0.91300827 7:0.90835524 8:0.79885083 9:0.79512209 10:0.64731508 11:0.09745647 13:0.13132022 14:0.33833387 15:0.14742015 16:0.35803831 #
2 1:0 2:0 3:0 4:0.00032244009 5:0.20525634 6:0.7009967 7:0.68106312 8:0.73084122 9:0.73500091 10:0.69643277 11:0.025946861 12:0.071428575 13:0.21203439 14:0.31021944 15:0.24921136 16:0.3464779 #
2 1:0 2:0 3:0 4:0.00032999084 5:0.24825768 6:0.94083071 7:0.93495297 8:0.74324775 9:0.74676305 10:0.54663491 11:0.045846816 12:0.088888891 13:0.084254146 14:0.23740309 15:0.097978227 16:0.25490201 #
-2 1:0.00045572664 2:0.0034013605 3:0.03125 4:0.0022727272 5:0.4322789 6:0.79522496 7:0.77895844 8:0.89656752 9:0.89516479 10:0.61829364 11:0.074206911 13:0.15443242 14:0.30454749 15:0.1875 16:0.34232661 #
-2 1:0.00036770379 2:0.010699589 3:0.06198347 4:0.0023188405 5:0.29231131 6:0.29624277 7:0.21098267 8:0.85069907 9:0.85343796 10:0.84537542 11:0.07452137 13:0.29268292 14:0.33804342 15:0.33717579 16:0.38224274 #
-2 1:0.0014072848 2:0.008086253 3:0.057692308 4:0.0042159664 5:0.23609956 6:0.72940159 7:0.71465743 8:0.84163052 9:0.850528 10:0.75856614 11:0.038942628 13:0.23445596 14:0.35926309 15:0.26756352 16:0.39562094 #
-2 1:0.00049591128 2:0.0055636186 3:0.055555556 4:0.0054753609 5:0.2756916 6:0.86155838 7:0.85396999 8:0.79766059 9:0.79687917 10:0.53787309 11:0.01655644 13:0.11904762 14:0.26542303 15:0.14228617 16:0.29400691 #
2 1:0 2:0 3:0 4:0.00020576132 5:0.30430168 6:0.60162604 7:0.55801922 8:0.86391634 9:0.86657333 10:0.74732763 11:0.08768592 13:0.28174603 14:0.40968588 15:0.32974139 16:0.45944497 #
-2 1:0.00038231956 2:0.0069404282 3:0.050000001 4:0.0035860091 5:0.35718399 6:0.69377989 7:0.67344499 8:0.92846519 9:0.92556679 10:0.8247115 11:0.097980671 13:0.26163393 14:0.41305369 15:0.29341316 16:0.44257799 #
-2 1:0.00071411964 2:0.005850065 3:0.077777781 4:0.0031682027 5:0.16792846 6:0.67693412 7:0.6482808 8:0.84930521 9:0.83969575 10:0.6902383 11:0.01182085 13:0.184375 14:0.29257625 15:0.21331058 16:0.32593 #
2 1:0 2:0 3:0 4:0.00039232353 5:0.18510856 6:0.93373495 7:0.93574297 8:0.80363524 9:0.80208522 10:0.61178643 11:0.032792013 12:0.07692308 13:0.09375 14:0.24601251 15:0.11020408 16:0.27446195 #
2 1:0.00017507003 2:0 3:0 4:6.6907531e-05 5:0.22520152 6:0.34708393 7:0.27169275 8:0.71493578 9:0.71413761 10:0.72403693 11:0.041701168 12:0.059701491 13:0.28070176 14:0.31769302 15:0.32089552 16:0.35579744 #
2 1:8.0901564e-06 2:0 3:0 4:0.00015070716 5:0.3195087 6:0.66193181 7:0.6401515 8:0.76020342 9:0.7729131 10:0.65316498 11:0.079104617 12:0.081632651 13:0.20460358 14:0.29758504 15:0.23351648 16:0.33393216 #
2 1:0 2:0 3:0 4:0.00035632114 5:0.165234 6:0.83144653 7:0.81761009 8:0.72519964 9:0.72918344 10:0.63297236 11:0.039565708 12:0.081632651 13:0.1402985 14:0.29461718 15:0.16558442 16:0.33116883 #
1.9158229831552233690672437660396 1:0 2:0 3:0 4:0.00082706765 5:0.25776282 6:7.3722944 7:8.5064936 8:0.53685886 9:0.53946871 10:0.40703973 11:0.053467963 13:0.30656934 14:0.13510861 15:0.34328359 16:0.15261267 #
2 1:6.9150556e-06 2:0 3:0 4:0.00014467593 5:0.1655688 6:0.56892776 7:0.57111597 8:0.67968684 9:0.71605289 10:0.76454365 11:0.04853886 12:0.083333336 13:0.28169015 14:0.38439682 15:0.31818181 16:0.41569898 #
2 5:0.26419064 6:0.60506642 7:0.56893688 8:0.77740324 9:0.78663617 10:0.70432401 11:0.028867729 12:0.086956523 13:0.28675401 14:0.36032689 15:0.35581788 16:0.41785046 #
2 1:0 2:0 3:0 4:0.00035635897 5:0.28375503 6:0.86968523 7:0.85643291 8:0.79204631 9:0.79894567 10:0.55923539 11:0.074576616 12:0.075471699 13:0.15327103 14:0.29822174 15:0.18776371 16:0.33716476 #
2 1:0 2:0 3:0 4:0.00035714285 5:0.22975887 6:0.54680532 7:0.49479941 8:0.77500343 9:0.77011377 10:0.62480128 11:0.026299914 13:0.21404682 14:0.28877664 15:0.24460432 16:0.30568668 #
-2 1:0.0010370918 2:0.0066750105 3:0.020833334 4:0.0019826426 5:0.27544236 6:0.89321148 7:0.8853786 8:0.81840253 9:0.84218395 10:0.83388704 11:0.048937906 13:0.11749788 14:0.27246186 15:0.14285715 16:0.3097069 #
-2 1:0.018742191 2:0 3:0.11753087 4:0.0012448559 5:0.69915539 6:0.093892694 7:0.11815068 8:0.8045643 9:0.80948752 10:0.96285903 11:0.38005683 12:0.33333334 13:0.66857964 14:0.66951114 15:0.7241993 16:0.71909922 #
2 5:0.43432727 6:0.21538462 7:0.1 8:0.8318463 9:0.87420684 10:0.91638535 11:0.21447611 13:0.61904764 14:0.63915396 15:0.71249998 16:0.7169953 #
-2 1:0.00017907706 2:0.0033467743 3:0.063636363 4:0.002232143 5:0.16617969 6:0.87568384 7:0.87209958 8:0.78386772 9:0.78003442 10:0.63366026 11:0.02376879 13:0.099337749 14:0.21768339 15:0.12851986 16:0.25863189 #
-2 1:0.00073993683 2:0.01003861 3:0.071428575 4:0.0069517591 5:0.52390349 6:0.46471053 7:0.39492467 8:0.91863918 9:0.92239302 10:0.80299175 11:0.29469675 13:0.24029575 14:0.31425276 15:0.27865613 16:0.34931394 #
2 1:0 2:0 3:0 4:0.00042076383 5:0.22984877 6:0.85465115 7:0.84011626 8:0.76383895 9:0.76966953 10:0.6378243 11:0.086786531 12:0.088888891 13:0.1024735 14:0.21893184 15:0.11196911 16:0.23263362 #
2 1:7.48503e-06 2:0 3:0 4:0.00015129508 5:0.27968088 6:0.78012049 7:0.76606429 8:0.82141685 9:0.82028133 10:0.65495294 11:0.082243964 12:0.1 13:0.1521197 14:0.27658182 15:0.17886178 16:0.31496134 #
-2 1:0.00082161324 2:0.0057762749 3:0.035714287 4:0.0032213531 5:0.53059441 6:0.59567451 7:0.54252201 8:0.88507122 9:0.88717663 10:0.72205234 11:0.15375751 13:0.22415669 14:0.32114869 15:0.26826197 16:0.36326656 #
-2 1:0.00079617836 2:0.0088117486 3:0.021505376 4:0.0017284292 5:0.31313857 6:0.82540399 7:0.81588882 8:0.89725494 9:0.89750504 10:0.8785975 11:0.027518794 13:0.18129331 14:0.35042351 15:0.21769178 16:0.39036423 #
2 1:0 2:0.00067204301 3:0 4:0.00019601255 5:0.32708669 6:0.35244161 7:0.30148619 8:0.85934108 9:0.86164802 10:0.69424224 11:0.060048483 12:0.056338027 13:0.28101265 14:0.33908153 15:0.30245233 16:0.35660547 #
-2 1:0.00035883757 2:0.0071313549 3:0.070512824 4:0.0020357238 5:0.31945527 6:0.80557615 7:0.79718727 8:0.66463655 9:0.66897011 10:0.47046968 11:0.052200019 13:0.15627466 14:0.30358908 15:0.17896679 16:0.33094624 #
-2 1:0.00059232028 2:0.0046863533 3:0.059233449 4:0.0012319264 5:0.23430525 6:0.95556486 7:0.95242089 8:0.86003196 9:0.85693419 10:0.59137255 11:0.013688977 13:0.073914915 14:0.23575132 15:0.096774191 16:0.27628756 #
2 1:0 2:0 3:0 4:0.00024006002 5:0.24992499 6:0.74780816 7:0.71686435 8:0.78662544 9:0.7956357 10:0.58384591 11:0.048316851 13:0.18089725 14:0.33133641 15:0.20593081 16:0.36056459 #
2 1:0 2:0 3:0 4:9.0667309e-05 5:0.21378528 6:0.83936173 7:0.81914896 8:0.77426314 9:0.78352445 10:0.63998336 11:0.014051015 12:0.086956523 13:0.14786585 14:0.27154797 15:0.16949153 16:0.29711419 #
-2 1:0.00070284237 2:0.0055139139 3:0.075000003 4:0.0057454756 5:0.16788885 6:0.90417594 7:0.89953601 8:0.8209402 9:0.81685108 10:0.6021598 11:0.0076546031 13:0.088720769 14:0.2202941 15:0.11483654 16:0.2621094 #
2 1:1.7533093e-05 2:0 3:0 4:4.0345356e-05 5:0.11906902 6:0.91326243 7:0.90318972 8:0.74950552 9:0.75695527 10:0.63228816 11:0.013694252 12:0.079999998 13:0.099830799 14:0.24030244 15:0.11523438 16:0.26751935 #
-2 1:0.0009931539 2:0.0094366195 3:0.06666667 4:0.0037615742 5:0.2866286 6:0.75133687 7:0.74123591 8:0.91262031 9:0.91085172 10:0.72816253 11:0.031534925 13:0.17413355 14:0.3170726 15:0.20676328 16:0.35606632 #
-2 1:0.000146616 2:0.0011162589 3:0.03125 4:0.00074257428 5:0.46597931 6:0.62219226 7:0.60182691 8:0.92889929 9:0.92636687 10:0.88317943 11:0.10877173 13:0.26718405 14:0.3836287 15:0.32091504 16:0.43597192 #
-2 1:0.0011880012 2:0.020408163 3:0.075000003 4:0.0055555557 5:0.30814117 6:0.72651356 7:0.68632567 8:0.81192476 9:0.81639028 10:0.63422686 11:0.047548998 13:0.18126889 14:0.30852854 15:0.21061644 16:0.3423754 #
2 1:0 2:0 3:0 4:0.00069909485 5:0.29715434 6:0.76761168 7:0.74097937 8:0.86922258 9:0.8707816 10:0.59813046 11:0.027482217 12:0.095238097 13:0.18985696 14:0.29385737 15:0.23909774 16:0.34521604 #
2 1:6.7658998e-06 2:0 3:0 4:0.00015445647 5:0.21613662 6:0.82249427 7:0.81713849 8:0.78055477 9:0.79212695 10:0.62451118 11:0.032019719 12:0.079999998 13:0.15824176 14:0.29422092 15:0.17391305 16:0.31155697 #
2 5:0.27057892 6:0.73137462 7:0.70094436 8:0.8407042 9:0.8403852 10:0.61749923 11:0.063947432 12:0.088888891 13:0.18765432 14:0.31980306 15:0.22950819 16:0.36338109 #
2 1:0 2:0 3:0 4:0.00026694086 5:0.24398273 6:0.68545991 7:0.6439169 8:0.80923456 9:0.81070697 10:0.60174602 11:0.055153396 13:0.21951219 14:0.33857286 15:0.24299066 16:0.36959457 #
-2 1:0.00095316931 2:0.015077605 3:0.0084507046 4:0.00091907789 5:0.48598504 6:0.87925768 7:0.86163968 8:0.92039776 9:0.91812134 10:0.87788081 11:0.11102471 13:0.13752456 14:0.31188607 15:0.16686252 16:0.34680906 #
2 5:0.2819126 6:0.39754817 7:0.34500876 8:0.76686889 9:0.79128629 10:0.6290288 11:0.025155954 13:0.2962963 14:0.35696331 15:0.33976835 16:0.40643725 #
2 1:0 2:0 3:0 4:5.7421763e-05 5:0.15684505 6:0.75569618 7:0.73291141 8:0.69187295 9:0.69280261 10:0.57060885 11:0.033209033 13:0.15903614 14:0.29699314 15:0.16455697 16:0.30497617 #
-2 1:0.0014981825 2:0.012366738 3:0.10227273 4:0.0039124838 5:0.20723343 6:0.83022147 7:0.81893182 8:0.84546989 9:0.83422214 10:0.60334414 11:0.033551827 13:0.16116248 14:0.29365978 15:0.18251534 16:0.31564209 #
2 1:0 2:0 3:0 4:0.00034093365 5:0.16429207 6:0.80870354 7:0.79057115 8:0.77724099 9:0.78235173 10:0.65614408 11:0.034304146 12:0.06666667 13:0.16262136 14:0.30331501 15:0.1724138 16:0.30688044 #
-2 1:0.00036509676 2:0.011242379 3:0.083333336 4:0.0071919952 5:0.20918483 6:0.73968363 7:0.71767539 8:0.81594807 9:0.81637627 10:0.83310258 11:0.03092465 13:0.2041049 14:0.33089465 15:0.26975477 16:0.40727639 #
-2 1:0.00039761903 2:0.0050179213 3:0.050000001 4:0.0038036809 5:0.39930087 6:0.90234965 7:0.8978228 8:0.81895322 9:0.8158592 10:0.57952505 11:0.05119063 13:0.10989867 14:0.26127198 15:0.13471971 16:0.30484694 #
2 1:0 2:0 3:0 4:0.0003608632 5:0.21701218 6:0.74274409 7:0.72691292 8:0.76135141 9:0.76923269 10:0.56084085 11:0.026332004 13:0.20396601 14:0.34428599 15:0.2327044 16:0.37881532 #
2 1:0 2:0 3:0 4:5.4475131e-05 5:0.26487538 6:0.54859334 7:0.47953963 8:0.77302831 9:0.76848084 10:0.60644066 11:0.016552033 12:0.070422538 13:0.21971831 14:0.2953276 15:0.24924012 16:0.32797375 #
-2 1:0.00055276306 2:0.0046665664 3:0.063636363 4:0.0022604272 5:0.30020249 6:0.80488521 7:0.79370219 8:0.88799095 9:0.88478357 10:0.89219737 11:0.057280965 13:0.18259224 14:0.34060213 15:0.22824858 16:0.39334315 #
-2 1:0.00088559254 2:0.0074605453 3:0.073891625 4:0.0017645253 5:0.34800953 6:0.8834855 7:0.87495035 8:0.85949147 9:0.85793781 10:0.60999012 11:0.029686788 13:0.11813187 14:0.2860747 15:0.14152542 16:0.31986701 #
2 5:0.28674158 6:0.42345276 7:0.35939196 8:0.85961831 9:0.86223102 10:0.78744119 11:0.049459573 12:0.08510638 13:0.2992126 14:0.35406765 15:0.34482759 16:0.38511419 #
2 1:0 2:0 3:0 4:0.00037776688 5:0.19131421 6:0.83551675 7:0.81659389 8:0.73747301 9:0.73550624 10:0.57131124 11:0.035461113 12:0.081632651 13:0.12121212 14:0.23963408 15:0.13919415 16:0.2620939 #
2 1:0 2:0 3:0 4:0.00029980167 5:0.23713562 6:0.53250003 7:0.51499999 8:0.72583812 9:0.73896539 10:0.74682182 11:0.088606745 13:0.39877301 14:0.51519412 15:0.44078946 16:0.54895908 #
2 5:0.5237295 6:0.084915087 7:0.045954045 8:0.85168499 9:0.8505733 10:0.86564505 11:0.28155613 13:0.61616164 14:0.62680423 15:0.63732392 16:0.64649457 #
2 1:3.3933964e-05 2:0 3:0 4:0.00059218321 5:0.17449811 6:0.79372078 7:0.76881164 8:0.8407281 9:0.83211172 10:0.65088928 11:0.015710428 12:0.070175439 13:0.16914499 14:0.29015386 15:0.20320855 16:0.32978708 #
-2 1:0.00038590172 2:0.0092753619 3:0.07692308 4:0.0041243653 5:0.41817781 6:0.77403569 7:0.74496257 8:0.88392919 9:0.88460124 10:0.62979347 11:0.052931726 13:0.18482344 14:0.33193162 15:0.21648626 16:0.37279865 #
2 5:0.83204323 6:0.044348564 7:0.092162967 8:0.96796829 9:0.96844375 10:0.95787019 11:0.67265481 13:0.79066205 14:0.75769287 15:0.82155633 16:0.79101479 #
-2 1:0.052380953 2:0 3:0.14583333 4:0.0047743055 5:0.64382702 6:0.21560846 7:0.13624339 8:0.82176387 9:0.82826692 10:0.90249372 11:0.43521553 12:0.33898306 13:0.61386138 14:0.61167932 15:0.65263158 16:0.65092087 #
-2 1:0.00067255151 2:0.0051759835 3:0.11428571 4:0.0072514294 5:0.23110922 6:0.79620427 7:0.78490734 8:0.80368555 9:0.80658108 10:0.75700045 11:0.054289892 13:0.18757613 14:0.32962462 15:0.21388888 16:0.35940522 #
-2 1:0.0019546913 2:0.013785395 3:0.11111111 4:0.011003521 5:0.32054135 6:0.76023394 7:0.74534822 8:0.79605329 9:0.78237015 10:0.55186903 11:0.089353412 13:0.18181819 14:0.32740805 15:0.21553399 16:0.36974332 #
2 1:0 2:0 3:0 4:0.00010754134 5:0.3658672 6:0.72131145 7:1.0655738 8:0.83101141 9:0.83175719 10:0.61109734 11:0.082581855 13:0.39370078 14:0.28116968 15:0.42399999 16:0.30792624 #
2 5:0.28633714 6:0.78181821 7:0.7612648 8:0.80361289 9:0.79786956 10:0.55153304 11:0.078382775 12:0.075471699 13:0.18415418 14:0.32556862 15:0.22434367 16:0.37247664 #
2 1:0 2:0 3:0 4:0.00044079436 5:0.16769235 6:0.95272148 7:0.95629716 8:0.62209243 9:0.62957019 10:0.43624398 11:0.030001018 12:0.061538462 13:0.067867033 14:0.20781749 15:0.081469648 16:0.23229381 #
2 1:0 2:0.0013661202 3:0 4:0 5:0.45275933 6:0.46921796 7:0.64226288 8:0.88193029 9:0.88897014 10:0.76757354 11:0.17142114 13:0.53496504 14:0.47116542 15:0.57194245 16:0.49442822 #
2 5:0.69525075 6:0.057093427 7:0.025951557 8:0.9481926 9:0.94976598 10:0.96921623 11:0.45668983 13:0.78378379 14:0.77071595 15:0.82598037 16:0.80270863 #
2 1:0 2:0 3:0 4:0.00025138262 5:0.24191506 6:0.5 7:0.45974576 8:0.83622533 9:0.83906764 10:0.64996845 11:0.030253051 13:0.27295917 14:0.3493472 15:0.31129476 16:0.38525736 #
1.0969298864620213862508535385132 5:0.44508687 6:0.17948718 7:0.13675214 8:0.84049237 9:0.86232448 10:0.83654249 11:0.22274977 13:0.57647061 14:0.65352398 15:0.5925926 16:0.66151857 #
2 1:0 2:0 3:0 4:0.00035977692 5:0.29335007 6:0.68947369 7:0.64736843 8:0.79551363 9:0.78881472 10:0.58806145 11:0.060171999 12:0.081632651 13:0.24017467 14:0.30717149 15:0.26511627 16:0.33707753 #
0.40606322701040653555537573993206 5:0.48374659 6:0.18120806 7:0.055928413 8:0.91425371 9:0.92220247 10:0.83507627 11:0.21660554 13:0.55660379 14:0.56471997 15:0.57635468 16:0.58506584 #
0.29776210842805994616355746984482 5:0.64762598 6:0.028499581 7:0.047778711 8:0.94610673 9:0.9477306 10:0.96778303 11:0.45110109 13:0.75159234 14:0.7598092 15:0.77419353 16:0.775087 #
2 5:0.65482628 6:0.0092592593 7:0.0069444445 8:0.95515639 9:0.95448053 10:0.9697693 11:0.3804284 13:0.802935 14:0.78992915 15:0.83105022 16:0.81359118 #
0.95781585169788741040974855422974 1:2.9137529e-05 2:0 3:0 4:0.00020081882 5:0.24363837 6:0.62 7:0.58749998 8:0.78288138 9:0.78283167 10:0.52676427 11:0.04625072 13:0.20999999 14:0.3017934 15:0.24352331 16:0.34001777 #
