SVM-light Version V6.02
0 # kernel type
3 # kernel parameter -d 
1 # kernel parameter -g 
1 # kernel parameter -s 
1 # kernel parameter -r 
empty# kernel parameter -u 
192 # highest feature index 
384 # number of training documents 
51 # number of support vectors plus 1 
-1.3165175 # threshold b, each following line is a SV (starting with alpha*y)
2 1:0 2:0 3:0 4:0 5:0.14860329 6:0.99952704 7:0.99955195 8:0.5625807 9:0.55115277 10:0.048955861 11:0.003702275 13:0.0046782061 14:0.052887827 15:0.0056127943 16:0.060416814 #
-2 1:0 2:0 3:0 4:4.7344001e-05 5:0.25380969 6:0.36559141 7:0.38853046 8:0.86671996 9:0.86759293 10:0.51672947 11:0.024939222 12:0.059701491 13:0.26917511 14:0.35352135 15:0.29907975 16:0.38279766 #
-2 1:0.00012151009 2:0.0023496239 3:0.021012006 4:0.00040407397 5:0.36389828 6:0.77629226 7:0.78721291 8:0.67678589 9:0.68231791 10:0.63862187 11:0.084892265 13:0.20025873 14:0.36566791 15:0.22403733 16:0.38935241 #
-2 1:0.00063500128 2:0.0031712474 3:0.019354839 4:0.002140688 5:0.36806223 6:0.80591905 7:0.80758762 8:0.89497018 9:0.89673269 10:0.64222932 11:0.11174221 12:0.56 13:0.21147685 14:0.38969913 15:0.23304805 16:0.41243309 #
2 5:0.23501557 6:0.99799073 7:0.99809444 8:0.4827069 9:0.48157009 10:0.065864533 11:0.0060269292 13:0.01456927 14:0.094447374 15:0.01651161 16:0.10441253 #
2 5:0.043636255 6:0.98483843 7:0.98675847 8:0.62477386 9:0.61515629 10:0.071998142 11:0.00095786067 13:0.015363606 14:0.074442424 15:0.023275146 16:0.098259225 #
-0.45091684834682554949836230662186 1:0.00040616549 2:0.0050392672 3:0.018726591 4:0.00043016818 5:0.25117615 6:0.96661085 7:0.96819663 8:0.68426067 9:0.68211365 10:0.58104968 11:0.07414937 13:0.07209447 14:0.2498202 15:0.080276817 16:0.26510391 #
2 5:0.76943094 6:0.070901364 7:0.054685753 8:0.96331459 9:0.96484756 10:0.96171081 11:0.55118388 13:0.78982437 14:0.78278303 15:0.81443298 16:0.80373257 #
-2 5:0 6:0.87646008 7:0.87478596 8:0.00020814402 9:0.00020404042 10:1.2487508e-09 11:0 13:0.00037383178 14:0.00061356911 15:0.00037383178 16:0.0006593088 #
-2 1:0 2:0 3:0 4:0.00018746177 5:0.32869253 6:0.0029498525 7:0.038839724 8:0.87507039 9:0.87398523 10:0.76855481 11:0.048238724 13:0.33505821 14:0.38003817 15:0.39193085 16:0.43514597 #
-2 1:0.00063166016 2:0.0035744577 3:0.013392857 4:0.0015691067 5:0.8294149 6:0.40533715 7:0.45003295 8:0.79380953 9:0.79464197 10:0.80364352 11:0.78432685 13:0.505992 14:0.63628542 15:0.50732929 16:0.63720882 #
1.3157265707069996096834074705839 1:0.010285715 2:0.037878789 3:0.010380623 4:0.0059016393 5:0.454557 6:0.18585859 7:0.012121212 8:0.85330951 9:0.85903496 10:0.75910723 11:0.20250309 12:0.43333334 13:0.64338237 14:0.63290888 15:0.67175573 16:0.65568566 #
-2 1:0.00039812879 2:0.0045652627 3:0.12530713 4:0.0013366587 5:0.58186865 6:0.022941971 7:0.059109312 8:0.87225407 9:0.87355572 10:0.70881653 11:0.11749533 12:0.51851851 13:0.41597223 14:0.42740315 15:0.46130729 16:0.45821929 #
-2 1:0.00041254127 2:0.0072930073 3:0.017142856 4:0.0019740164 5:0.23451072 6:0.9683246 7:0.97024435 8:0.83651316 9:0.83282936 10:0.4215292 11:0.021005249 12:0.56 13:0.0474732 14:0.19713472 15:0.05619951 16:0.21697493 #
2 5:0.47776663 6:0.013771187 7:0.046477754 8:0.92981124 9:0.93154591 10:0.8689214 11:0.27009967 13:0.52406967 14:0.50698799 15:0.53823775 16:0.51796734 #
-2 5:0.38063201 6:0.070656694 7:0.0099750627 8:0.90097135 9:0.89913863 10:0.66897333 11:0.090956882 13:0.43366092 14:0.45337045 15:0.48069242 16:0.4933356 #
-2 1:0 2:0 3:0 4:5.6084202e-05 5:0.16169699 6:0.23529412 7:0.12352941 8:0.45804569 9:0.47273636 10:0.39216113 11:0.065277196 12:0.04255319 13:0.32843137 14:0.33751991 15:0.34170854 16:0.35156325 #
2 5:0.35542977 6:0.99007386 7:0.9906975 8:0.45800427 9:0.45701224 10:0.11691689 11:0.023584714 13:0.037609436 14:0.14454806 15:0.035695065 16:0.14367788 #
1.3142068900814223297857097350061 5:0.18442726 6:0.99978703 7:0.99979579 8:0.51331091 9:0.5089817 10:0.045151267 11:0.0020180291 13:0.0031410814 14:0.048762053 15:0.0036713826 16:0.053829931 #
0.33817461848499441590121250555967 5:0.68523413 6:0.76428872 7:0.77426529 8:0.068410039 9:0.069752708 10:0.080219023 11:0.62426484 13:0.062315851 14:0.20835218 15:0.059661619 16:0.20639841 #
-2 1:0 2:0 3:0 4:5.6003584e-05 5:0.15426031 6:0.15765765 7:0.0990991 8:0.63299692 9:0.63773358 10:0.44071168 11:0.046283543 13:0.36820084 14:0.36118445 15:0.39148936 16:0.37363198 #
-2 1:7.3482282e-05 2:0.0044068131 3:0.003888597 4:0.00010304456 5:0.22518183 6:0.89917058 7:0.91078281 8:0.33745322 9:0.33690664 10:0.15414318 11:0.32030541 13:0.082907312 14:0.1928245 15:0.098630831 16:0.21500181 #
2 1:0 2:0 3:0 4:0 5:0.16070893 6:0.99976766 7:0.99977738 8:0.57411885 9:0.5682857 10:0.049960151 11:0.0038516922 13:0.0031076656 14:0.04718937 15:0.0036329387 16:0.052302577 #
2 1:0 2:0 3:0 4:0.00010936432 5:0.13044871 6:0.99972206 7:0.99973631 8:0.40722939 9:0.40488976 10:0.075624675 11:0.0050494606 13:0.0038093964 14:0.055493269 15:0.0042672614 16:0.059454359 #
2 5:0.086095743 6:0.96007681 7:0.96212924 8:0.60581541 9:0.59346384 10:0.10953942 11:0.0038858112 13:0.032775693 14:0.10470577 15:0.042809643 16:0.12826909 #
2 1:0.010285715 2:0.037878789 3:0.0065789474 4:0.0052554132 5:0.34460285 6:0.11940298 7:0.0085287848 8:0.81469822 9:0.82034963 10:0.75890929 11:0.17268677 12:0.39393941 13:0.54275095 14:0.55636734 15:0.594697 16:0.59696251 #
-2 1:0.00027121505 2:0.014610389 3:0.013043478 4:0.0013681632 5:0.29877222 6:0.9802624 7:0.9811995 8:0.73139369 9:0.73483622 10:0.27129576 11:0.049400888 12:0.63636363 13:0.035810646 14:0.15915377 15:0.047420222 16:0.19039199 #
0.014622268563827978127278583997395 5:0.098204374 6:46.897106 7:45.308681 8:0.57600886 9:0.56759983 10:0.10190218 11:0.00033708906 13:0.41176471 14:0.10377028 15:0.43888888 16:0.11552375 #
-2 1:0.00022492128 2:0.018099548 3:0.018181818 4:0.0019000486 5:0.11377106 6:0.93864566 7:0.94319046 8:0.55466729 9:0.55179256 10:0.26261669 11:0.015061673 12:0.51851851 13:0.052605458 14:0.16107143 15:0.063626125 16:0.18036856 #
2 1:0.010285715 2:0.037878789 3:0.0052083335 4:0.0042423215 5:0.53114206 6:0.0046403711 7:0.047563806 8:0.87149096 9:0.87236983 10:0.73423785 11:0.19153924 12:0.40625 13:0.58415842 14:0.58909482 15:0.64322919 16:0.63582128 #
2 1:0.010285715 2:0.037878789 3:0.0078125 4:0.0060709082 5:0.45358929 6:0.11506525 7:0.017793594 8:0.86088133 9:0.8628763 10:0.78489906 11:0.19313772 12:0.3611111 13:0.56930691 14:0.5666275 15:0.60621762 16:0.60310078 #
1.3599913929948486135401708452264 1:0.11111111 3:0.70727038 4:0.0034179688 5:0.58966571 6:0.079518072 7:0.033132531 8:0.94506192 9:0.94774514 10:0.72291934 11:0.14393964 12:0.8490566 13:0.61731845 14:0.58535802 15:0.67867869 16:0.62118042 #
2 5:0.083522975 6:0.9721266 7:0.97576803 8:0.64932781 9:0.62333232 10:0.12504213 11:0 13:0.023898942 14:0.089455143 15:0.032418951 16:0.11329576 #
-2 1:0.00034602077 2:0.012626262 3:0.024 4:0.0025118289 5:0.14258839 6:0.95292902 7:0.95971918 8:0.6201269 9:0.62072551 10:0.27230462 11:0.034069512 12:0.53846157 13:0.05027933 14:0.17340761 15:0.057604641 16:0.188227 #
-2 1:0.00033141847 2:0.010625738 3:0.041666668 4:0.0040561096 5:0.32426035 6:0.96949351 7:0.96985841 8:0.83195859 9:0.82796597 10:0.39215505 11:0.040440716 12:0.5 13:0.048149262 14:0.17697786 15:0.059878092 16:0.20285657 #
2 1:0.00972973 2:0.037878789 3:0.0062500001 4:0.0050301813 5:0.16459851 6:0.21630435 7:0.26304349 8:0.6837613 9:0.67873567 10:0.15483841 11:0.0041959723 12:0.43333334 13:0.12334802 14:0.15829132 15:0.14153132 16:0.17283921 #
-2 5:0.20545265 6:0.16720258 7:0.1414791 8:0.73663187 9:0.74177903 10:0.47291976 11:0.052148536 12:0.048780486 13:0.31016043 14:0.30814546 15:0.33888888 16:0.3316001 #
2 5:0.098864429 6:0.97596663 7:0.97649628 8:0.69877809 9:0.68822008 10:0.074610747 11:0.001407285 13:0.01980198 14:0.07674516 15:0.027431421 16:0.098133482 #
-2 5:0.40847197 6:0.11203911 7:0.15787329 8:0.90564281 9:0.90555972 10:0.76818198 11:0.074300945 13:0.39540815 14:0.42325509 15:0.46743849 16:0.4817701 #
-2 1:0.00045098539 2:0.0077805077 3:0.0042016809 4:0.00025566458 5:0.22453155 6:0.91707844 7:0.91936845 8:0.59937364 9:0.60263366 10:0.4281598 11:0.032827556 13:0.13230605 14:0.29130611 15:0.14591777 16:0.30824703 #
-2 5:0.16596648 6:0.17426273 7:0.19034852 8:0.73727071 9:0.74317062 10:0.60462683 11:0.023922222 12:0.031496063 13:0.29781422 14:0.3469536 15:0.32378224 16:0.36879888 #
2 1:0.010285715 2:0.037878789 3:0.013636364 4:0.0049909255 5:0.45924604 6:0.21454546 7:0.049696971 8:0.86504173 9:0.86955744 10:0.78873587 11:0.23108397 12:0.39393941 13:0.59382421 14:0.59580088 15:0.64764267 16:0.64287472 #
2 5:0.11783369 6:0.99983269 7:0.99983639 8:0.54244071 9:0.53985947 10:0.045821588 11:0.0035383557 13:0.0022889795 14:0.040394183 15:0.0027679533 16:0.046044916 #
0.098219086817073614215090060497459 9:0.83094591 10:0.83094591 11:0.01878223 12:0.01878223 13:0.045228746 14:0.045228746 15:0.98656744 16:0.98656744 17:0.98637044 18:0.98637044 19:0.91570419 20:0.91570419 21:0.35964859 22:0.35964859 24:0.37142858 25:0.74412829 26:0.74412829 27:0.7749756 28:0.7749756 29:0.79516315 30:0.79516315 31:0.82207179 32:0.82207179 #
-2 1:0.0010033321 2:0.0063247862 3:0.071428575 4:0.0024148005 5:0.26199615 6:0.93436533 7:0.93733746 8:0.60380226 9:0.60368103 10:0.47660947 11:0.056303173 13:0.11384153 14:0.27757353 15:0.14011976 16:0.31284931 #
2 1:0.010285715 2:0.037878789 3:0.0054347827 4:0.0044571226 5:0.42332 6:0.093126386 7:0.0066518849 8:0.88649839 9:0.88961208 10:0.69716448 11:0.1829457 12:0.39393941 13:0.56962025 14:0.587367 15:0.60532153 16:0.61920685 #
2 1:0.0042325687 2:0.1388889 3:0.083333336 4:0.0076530613 5:0.58311361 6:0.092896178 7:0.012295082 8:0.94283551 9:0.94321972 10:0.87649029 11:0.34004194 12:0.41772151 13:0.73184359 14:0.74623185 15:0.7647059 16:0.77039152 #
-2 1:0.00075921911 2:0.0073397779 3:0.055172414 4:0.00091124477 5:0.68603557 6:0.91094077 7:0.91141558 8:0.79343688 9:0.79272228 10:0.50181544 11:0.56023544 13:0.10823909 14:0.27236867 15:0.12519416 16:0.29673395 #
2 1:0 2:0 3:0 4:0 5:0.12065259 6:0.99980593 7:0.99983132 8:0.43413079 9:0.42179713 10:0.055343557 11:0.0052239965 13:0.0022722716 14:0.03846921 15:0.002825619 16:0.045917936 #
0.0099760206976569065773219335824251 5:0.096219875 6:0.96663135 7:0.96802169 8:0.72820252 9:0.7123456 10:0.077449851 11:0.00031506293 13:0.02765449 14:0.092536412 15:0.039068993 16:0.12096039 #
