SVM-light Version V6.02
0 # kernel type
3 # kernel parameter -d 
1 # kernel parameter -g 
1 # kernel parameter -s 
1 # kernel parameter -r 
empty# kernel parameter -u 
32 # highest feature index 
1231 # number of training documents 
95 # number of support vectors plus 1 
-2.0677431 # threshold b, each following line is a SV (starting with alpha*y)
-0.5 1:0.012345679 2:0.046875 3:0.264 4:0.0024053196 5:0.67397022 6:0.296875 7:0.1140625 8:0.92113113 9:0.89942014 10:0.48210168 11:0.44187176 12:0.37288135 13:0.67741936 14:0.6634351 15:0.70175439 16:0.68589348 #
0.33963785859714334947057068347931 5:0.61773479 6:0.2137931 7:0.052450091 8:0.94243723 9:0.93725741 10:0.76947331 11:0.2412995 12:0.41999999 13:0.4934555 14:0.46009597 15:0.57784909 16:0.51876271 #
-0.5 1:0.0045351475 2:0 3:0.25 4:0.042857144 5:0.37643445 6:0.35117057 7:0.18311037 8:0.89630896 9:0.89581931 10:0.46384341 11:0.070298888 12:0.89285713 13:0.46666667 14:0.45031965 15:0.54624277 16:0.50614065 #
0.5 5:0.75667018 6:0.3953284 7:0.18721461 8:0.95080507 9:0.95221245 10:0.72560751 11:0.48901638 13:0.73624825 14:0.70728993 15:0.7972973 16:0.75453681 #
0.38013984695470526276039890944958 5:0.36537954 6:0.29471892 7:0.18228279 8:0.84656489 9:0.85786229 10:0.87538409 11:0.16194896 12:0.5 13:0.52444446 14:0.54545522 15:0.54028434 16:0.56201297 #
-0.5 1:0.012345679 2:0.046875 3:0.11111111 4:0.0023975414 5:0.73467016 6:0.18495297 7:0.0062695923 8:0.91311795 9:0.92257327 10:0.96105999 11:0.58644474 12:0.23404256 13:0.72169811 14:0.68840742 15:0.74111676 16:0.71107084 #
-0.5 9:0.10278443 10:0.10278443 11:0.062234797 12:0.062234797 13:0.16195191 14:0.16195191 15:0.67741972 16:0.67741972 17:0.67749476 18:0.67749476 19:0.40170911 20:0.40170911 21:0.0029849999 22:0.0029849999 23:0.18181819 24:0.061538462 25:0.30769232 26:0.30769232 27:0.25539991 28:0.25539991 29:0.34419551 30:0.34419551 31:0.27593023 32:0.27593023 #
0.22831297298620256697176955640316 5:0.77837807 6:0.42735043 7:0.20158432 8:0.94113845 9:0.9466424 10:0.9371978 11:0.5608052 13:0.65945166 14:0.66333109 15:0.73050845 16:0.73299742 #
-0.5 1:0.0067278286 2:0.024216523 3:0.066897348 4:0.0015450871 5:0.80201596 6:0.23222901 7:0.057896432 8:0.98105687 9:0.98265451 10:0.96608245 11:0.54106891 12:0.96774191 13:0.77941179 14:0.77119303 15:0.80378252 16:0.78542888 #
0.49010721720323324746004800545052 1:0 2:0 3:0 4:0 5:0 6:0 7:0.00012410028 8:0.00012410028 9:0.58567971 10:0.58567971 11:0.82628745 12:0.82628745 13:0.76037663 14:0.76037663 15:0.93203682 16:0.93203682 17:0.93263745 18:0.93263745 19:0.56300175 20:0.56300175 21:0.067166418 22:0.067166418 25:0.17579472 26:0.17579472 27:0.30603832 28:0.30603832 29:0.20760627 30:0.20760627 31:0.3457098 32:0.3457098 #
-0.5 5:0.66443163 6:0.19551525 7:0.13328294 8:0.93653136 9:0.93718857 10:0.92424375 11:0.33184248 12:0.91071427 13:0.69372696 14:0.66757071 15:0.74153847 16:0.71422434 #
-0.5 5:0.15573561 6:0.4834308 7:0.78752434 8:0.8640272 9:0.86625481 10:0.4099403 11:0.026574241 12:0.0625 13:0.43648207 14:0.35813582 15:0.49152541 16:0.38255379 #
0.5 5:0.63246459 6:0.30328867 7:0.057247259 8:0.91741323 9:0.9187718 10:0.80349582 11:0.46366829 12:0.4375 13:0.51528382 14:0.53047991 15:0.58762884 16:0.56887758 #
-0.5 5:0.31505403 6:0.048405599 7:0.16471668 8:0.79706991 9:0.80110234 10:0.50677121 11:0.1072797 12:0.11111111 13:0.48037791 14:0.46582222 15:0.52329195 16:0.49507564 #
0.5 5:0.63827187 6:0.20011148 7:0.19788183 8:0.92177999 9:0.92033547 10:0.94373924 11:0.45394871 12:0.92307693 13:0.76701969 14:0.70940852 15:0.80133557 16:0.7477107 #
0.5 5:0.82588691 6:0.37926278 7:0.2004731 8:0.95827442 9:0.96067929 10:0.85339034 11:0.45525175 12:0.62376237 13:0.69519341 14:0.72122276 15:0.76058394 16:0.78079271 #
0.5 5:0.41455892 6:0.10720562 7:0.072056241 8:0.87454778 9:0.8819328 10:0.88238299 11:0.20799507 12:0.41176471 13:0.59307361 14:0.58184719 15:0.61009175 16:0.59787512 #
-0.5 5:0.6684463 6:0.22200772 7:0.050193049 8:0.95239478 9:0.95577055 10:0.96293837 11:0.45103484 12:0.89090908 13:0.77696079 14:0.75163978 15:0.80585104 16:0.78326219 #
0.5 5:0.69968504 6:0.19059543 7:0.12910406 8:0.91904855 9:0.91877168 10:0.95892024 11:0.44329184 12:0.92424244 13:0.72911966 14:0.70129907 15:0.77522349 16:0.74712628 #
-0.5 1:0.0027434842 2:0.020408163 3:0.038062282 4:0.0046946062 5:0.35270318 6:0.26632047 7:0.18545994 8:0.89019096 9:0.89245284 10:0.43247885 11:0.19056371 12:0.5 13:0.44481605 14:0.46517515 15:0.49080881 16:0.50104481 #
0.5 1:9.861933e-06 2:0 3:0 4:2.2726258e-06 5:0.31643453 6:0.20524018 7:0.0087336246 8:0.86451495 9:0.8707093 10:0.66042554 11:0.16043158 13:0.57564574 14:0.58169603 15:0.62307692 16:0.61485499 #
-0.5 5:0.50782907 6:0.297315 7:0.1237721 8:0.85994619 9:0.8626433 10:0.72383916 11:0.25661719 12:0.11458334 13:0.46170214 14:0.46089208 15:0.51877934 16:0.50644666 #
0.5 5:0.57434899 6:0.24502297 7:0.14931087 8:0.92196012 9:0.92097503 10:0.94068551 11:0.3308045 12:0.89090908 13:0.70886075 14:0.69888937 15:0.76027399 16:0.74675691 #
-0.5 5:0.67520881 6:0.23125683 7:0.13289617 8:0.88599896 9:0.88792205 10:0.66016984 11:0.37265268 12:0.92424244 13:0.65415245 14:0.62603229 15:0.69677418 16:0.66106069 #
0.45135105447252499288879334926605 1:0.0024390244 2:0.00078431371 3:0.020661157 4:0.003009496 5:0.4778958 6:0.41252699 7:0.24406047 8:0.87475491 9:0.88483816 10:0.76286614 11:0.24177305 12:0.2682927 13:0.58974361 14:0.62656498 15:0.62427747 16:0.64712441 #
-0.5 5:0.23659016 6:0.21668909 7:0.0067294752 8:0.82460642 9:0.8287105 10:0.61357403 11:0.052856218 12:0.52272725 13:0.5106383 14:0.51658016 15:0.54789275 16:0.54271895 #
0.5 5:0.70575142 6:0.18755031 7:0.15052322 8:0.94251919 9:0.94242752 10:0.91759664 11:0.44537854 12:0.92063493 13:0.70212764 14:0.67780536 15:0.75791854 16:0.73266107 #
0.5 5:0.54160988 6:0.24800709 7:0.17980514 8:0.89994508 9:0.9002862 10:0.45534456 11:0.31323734 12:0.88679248 13:0.71566266 14:0.69248432 15:0.77248675 16:0.74814266 #
-0.5 5:0.77015632 6:0.21884415 7:0.15420432 8:0.92942894 9:0.93017238 10:0.95916241 11:0.41623271 12:0.92307693 13:0.66844922 14:0.65485668 15:0.72115386 16:0.70401591 #
-0.5 1:0.002997003 2:0.018633541 3:0.038062282 4:0.0046778549 5:0.372035 6:0.098915987 7:0.025745258 8:0.86112386 9:0.86066926 10:0.4827168 11:0.091826409 12:0.52777779 13:0.52302629 14:0.49540114 15:0.56272399 16:0.5213818 #
-0.5 1:0 2:0 3:0 4:0.00026784395 5:0.47105494 6:0.16752844 7:0.26008272 8:0.88516062 9:0.8855024 10:0.75902808 11:0.26317737 12:0.11764706 13:0.5887962 14:0.5881049 15:0.60794044 16:0.6086961 #
0.5 5:0.63177711 6:0.17823948 7:0.18261345 8:0.91617841 9:0.91647494 10:0.9319725 11:0.36020046 12:0.9074074 13:0.7096436 14:0.68808943 15:0.74746335 16:0.72492969 #
-0.5 5:0.63554192 6:0.15347625 7:0.12542577 8:0.93913603 9:0.94054741 10:0.91403466 11:0.40498024 12:0.92537314 13:0.66322702 14:0.62908947 15:0.71443409 16:0.68031967 #
0.5 1:5.6529112e-05 2:0 3:0 4:8.8464258e-05 5:0.33164206 6:0.2004717 7:0.047169812 8:0.85318267 9:0.86010408 10:0.75516039 11:0.14553525 13:0.59328359 14:0.60337812 15:0.62055337 16:0.61811501 #
0.5 5:0.6720103 6:0.1835798 7:0.18612953 8:0.92690885 9:0.92770451 10:0.96714401 11:0.40316689 12:0.921875 13:0.69850188 14:0.67402518 15:0.74196893 16:0.72168767 #
-0.5 1:0.02 2:1 5:0.67166442 6:0.37922242 7:0.11982154 8:0.94358438 9:0.94401807 10:0.63735598 11:0.31418273 13:0.59957629 14:0.61985236 15:0.63218391 16:0.65196818 #
-0.5 5:0.54454529 6:0.2411714 7:0.10938846 8:0.85953897 9:0.86556143 10:0.90777522 11:0.29355744 12:0.89285713 13:0.6968326 14:0.71531945 15:0.72195125 16:0.73646426 #
0.5 5:0.75494391 6:0.41451126 7:0.20960699 8:0.93943 9:0.94141334 10:0.78498131 11:0.45223072 12:0.097560972 13:0.69137931 14:0.69113028 15:0.75201613 16:0.73945087 #
-0.5 1:0.0059171598 2:0.0069444445 3:0.14 4:0.0051903115 5:0.54961467 6:0.27817747 7:0.050359711 8:0.91501641 9:0.91858977 10:0.86942059 11:0.2316976 12:0.31428573 13:0.5477941 14:0.5555591 15:0.63519311 16:0.61077815 #
0.5 1:0.25 2:0.5 3:0.17370613 4:0.0049053635 5:0.34171286 6:0.033860046 7:0.19864559 8:0.81847101 9:0.82327789 10:0.58981681 11:0.19070536 12:0.64444447 13:0.47982064 14:0.43884996 15:0.50236964 16:0.45256189 #
-0.5 5:0.594109 6:0.28010949 7:0.097627737 8:0.88237464 9:0.8811695 10:0.50631648 11:0.3584592 12:0.89090908 13:0.6883117 14:0.70487338 15:0.71561772 16:0.73112029 #
0.5 5:0.51705092 6:0.13422222 7:0.0026666666 8:0.91646993 9:0.92075884 10:0.9061622 11:0.26755729 12:0.30909091 13:0.69146007 14:0.60507101 15:0.72106826 16:0.63249087 #
-0.5 1:0.027777778 2:0.039999999 3:0.13609467 4:0.0046326746 5:0.5531562 6:0.28790459 7:0.095400341 8:0.87365884 9:0.87316394 10:0.77587289 11:0.34245405 12:0.2682927 13:0.71428573 14:0.696733 15:0.72826087 16:0.71292734 #
0.5 5:0.5048244 6:0.13615946 7:0.084222347 8:0.8763237 9:0.87564427 10:0.48970938 11:0.26684463 12:0.92537314 13:0.70739913 14:0.66121227 15:0.7603513 16:0.71433115 #
-0.5 5:0.56526291 6:0.12 7:0.029333333 8:0.90132952 9:0.91609019 10:0.92312396 11:0.35280052 12:0.85416669 13:0.60784316 14:0.60586643 15:0.64748204 16:0.64748204 #
0.5 1:0.012987013 2:0.016666668 3:0.0859375 4:0.0033721924 5:0.69467175 6:0.33531746 7:0.15079366 8:0.94544989 9:0.95450848 10:0.92028189 11:0.48010609 12:0.39285713 13:0.71666664 14:0.7447511 15:0.75 16:0.76376259 #
-0.5 5:0.57663971 6:0.16745731 7:0.069734342 8:0.92178684 9:0.92233378 10:0.89256024 11:0.30044523 12:0.41176471 13:0.70175439 14:0.63891149 15:0.74378109 16:0.66360933 #
0.5 5:0.61129797 6:0.16736169 7:0.11036975 8:0.92059076 9:0.92072654 10:0.82172942 11:0.34140989 12:0.921875 13:0.66787004 14:0.62913108 15:0.72043014 16:0.68004096 #
-0.5 5:0.59167314 6:0.26117885 7:0.13821138 8:0.90295047 9:0.905029 10:0.64657533 11:0.36743465 12:0.89090908 13:0.69974554 14:0.72237283 15:0.75630254 16:0.76712286 #
0.5 5:0.48332313 6:0.17206983 7:0.021197008 8:0.90424496 9:0.90814668 10:0.92357033 11:0.24673788 12:0.41176471 13:0.63773584 14:0.64312267 15:0.67083335 16:0.66260195 #
-0.5 1:0.0078125 2:0.03125 3:0.097222224 4:0.0021828222 5:0.66877306 6:0.17694806 7:0.015422078 8:0.92518622 9:0.93105763 10:0.96053153 11:0.34881163 12:0.21782178 13:0.67197454 14:0.66265303 15:0.69858158 16:0.6888786 #
0.5 5:0.64706397 6:0.16456391 7:0.12726276 8:0.8938008 9:0.89402246 10:0.48939085 11:0.39048693 12:0.92424244 13:0.69609082 14:0.65838659 15:0.75463623 16:0.70772982 #
-0.5 5:0.54285896 6:0.25937185 7:0.10739615 8:0.91842449 9:0.92273873 10:0.70461351 11:0.29749227 12:0.89090908 13:0.6721698 14:0.69487447 15:0.71501273 16:0.72906148 #
0.5 5:0.52548581 6:0.15316902 7:0.072183095 8:0.91393274 9:0.91730148 10:0.90307868 11:0.27805018 12:0.27184466 13:0.63675213 14:0.63732916 15:0.66509432 16:0.65288973 #
-0.5 1:0.0099999998 2:0.012345679 3:0.12396694 4:0.0046175737 5:0.55221587 6:0.25903615 7:0.018072288 8:0.87059116 9:0.87679064 10:0.91479868 11:0.38090795 12:0.37931034 13:0.70769233 14:0.71985382 15:0.76436782 16:0.76218081 #
0.5 1:0.0086206896 2:0 3:0.5 4:0.016528925 5:0.58496529 6:0.16455697 7:0.03164557 8:0.8412388 9:0.84485471 10:0.64384741 11:0.3037563 12:0.95833331 13:0.6939891 14:0.6865266 15:0.73142856 16:0.71722472 #
-0.5 5:0.55962604 6:0.30551818 7:0.13055182 8:0.94301069 9:0.9478153 10:0.90871394 11:0.32174179 12:0.89090908 13:0.68410856 14:0.69656265 15:0.73504275 16:0.73741001 #
0.5 5:0.39275095 6:0.22250639 7:0.034526855 8:0.83194792 9:0.82557219 10:0.51195729 11:0.17585735 12:0.42857143 13:0.61250001 14:0.49540168 15:0.66666669 16:0.52311909 #
-0.5 1:0.0054945056 2:0.0064102565 3:0.2631579 4:0.0034421152 5:0.51129323 6:0.2319538 7:0.02694899 8:0.91580021 9:0.92006135 10:0.81255597 11:0.2708365 12:0.25882354 13:0.7537092 14:0.75075305 15:0.76923078 16:0.75545985 #
0.5 5:0.68437725 6:0.16540962 7:0.1503251 8:0.91417158 9:0.91466546 10:0.95125961 11:0.45054996 12:0.92307693 13:0.69610935 14:0.65605688 15:0.73856974 16:0.69838011 #
-0.5 1:0.016528925 2:0.020408163 3:0.087235995 4:0.0014339761 5:0.67765826 6:0.27126321 7:0.074484147 8:0.94762284 9:0.95578182 10:0.92857438 11:0.43121037 12:0.34920636 13:0.70212764 14:0.69357914 15:0.74008811 16:0.72202486 #
-0.5 5:0.71175653 6:0.17911597 7:0.045125518 8:0.9593358 9:0.9595871 10:0.82638896 11:0.34847343 12:0.56 13:0.68729424 14:0.69495124 15:0.7352246 16:0.72724515 #
0.5 5:0.66334146 6:0.029017856 7:0.2327009 8:0.9456929 9:0.94524044 10:0.92101556 11:0.36318916 12:0.42857143 13:0.7121588 14:0.6475473 15:0.74571431 16:0.67434883 #
0.5 5:0.71014935 6:0.38729301 7:0.20682663 8:0.94668168 9:0.95553964 10:0.77173024 11:0.52099222 12:0.68421054 13:0.65685022 14:0.66414738 15:0.73003197 16:0.71864229 #
0.5 5:0.71325421 6:0.15392229 7:0.11804009 8:0.96304578 9:0.96130002 10:0.8980332 11:0.32282776 12:0.42857143 13:0.66214383 14:0.58156145 15:0.69711536 16:0.60083789 #
-0.5 5:0.56976235 6:0.27865404 7:0.12933753 8:0.93033308 9:0.93450922 10:0.93705678 11:0.34955215 12:0.89285713 13:0.71327013 14:0.71764904 15:0.76142132 16:0.75949609 #
-0.5 5:0.80543333 6:0.2372153 7:0.044907607 8:0.97419906 9:0.97511786 10:0.9714461 11:0.53726542 12:0.41999999 13:0.74611402 14:0.71540272 15:0.80063289 16:0.75912678 #
0.5 5:0.78836954 6:0.42786616 7:0.25470835 8:0.94770503 9:0.95249856 10:0.85446119 11:0.5478096 12:0.61764705 13:0.59401196 14:0.61012161 15:0.6862464 16:0.6862464 #
0.5 5:0.38500905 6:0.24277456 7:0.020231213 8:0.85572159 9:0.86759788 10:0.80973655 11:0.17896362 12:0.42857143 13:0.67741936 14:0.63705897 15:0.69633508 16:0.64444005 #
-0.5 5:0.61633307 6:0.26931733 7:0.08927232 8:0.92666113 9:0.92897201 10:0.87394154 11:0.35588339 12:0.89285713 13:0.75336325 14:0.73816723 15:0.78846157 16:0.77642328 #
0.5 5:0.46788445 6:0.14312977 7:0.093511447 8:0.88357723 9:0.90170497 10:0.88865083 11:0.23090622 12:0.42857143 13:0.65168542 14:0.6069265 15:0.70322579 16:0.64543384 #
-0.5 5:0.59109718 6:0.26183844 7:0.089136489 8:0.94846189 9:0.95308834 10:0.94603479 11:0.33121997 12:0.89090908 13:0.71229696 14:0.72373861 15:0.75628144 16:0.75723332 #
-0.5 1:0.0022163121 2:1 5:0.59416968 6:0.32523698 7:0.056872036 8:0.95107317 9:0.95360863 10:0.77819628 11:0.33990729 12:0.24277456 13:0.65166342 14:0.65234375 15:0.68240345 16:0.68461066 #
0.5 1:0.055555556 3:0.42857143 4:0.027777778 5:0.39352942 6:0.29166666 7:0.0023148148 8:0.87598342 9:0.89117163 10:0.73944342 11:0.17738838 12:0.86206895 13:0.57671958 14:0.55472863 15:0.63218391 16:0.5896619 #
-0.5 5:0.51579344 6:0.21568628 7:0.023342671 8:0.92585677 9:0.92503619 10:0.93320447 11:0.29780564 12:0.88461536 13:0.7368421 14:0.68243909 15:0.79768789 16:0.72661275 #
0.5 5:0.71772331 6:0.38053098 7:0.24078171 8:0.92008173 9:0.92088538 10:0.82186419 11:0.55818522 12:0.097560972 13:0.69183171 14:0.71822441 15:0.70923913 16:0.7351675 #
-0.5 1:0.0099999998 2:0.049382716 3:0.19642857 4:0.0019796279 5:0.62465566 6:0.22509961 7:0.025896415 8:0.95244747 9:0.96015251 10:0.97281003 11:0.27778843 12:0.27848101 13:0.78772378 14:0.76566803 15:0.81449276 16:0.78332567 #
0.5 5:0.45188394 6:0.30158731 7:0.049886622 8:0.85361576 9:0.86317873 10:0.88629186 11:0.1992887 12:0.41176471 13:0.61271673 14:0.6006847 15:0.64634144 16:0.62930459 #
-0.5 5:0.55268401 6:0.25719771 7:0.071976967 8:0.93783784 9:0.9457075 10:0.8668133 11:0.34558991 12:0.89090908 13:0.7562077 14:0.75838923 15:0.78817731 16:0.78432316 #
0.5 5:0.44613621 6:0.050673507 7:0.14047466 8:0.8945598 9:0.89452821 10:0.85841453 11:0.23660709 12:0.42857143 13:0.72197312 14:0.59480029 15:0.74509805 16:0.61238569 #
-0.5 5:0.56482071 6:0.21584386 7:0.079219289 8:0.94578546 9:0.95154381 10:0.97819442 11:0.35726297 12:0.89473683 13:0.70789474 14:0.725021 15:0.75644702 16:0.76081955 #
0.5 5:0.43813658 6:0.26298702 7:0.053571429 8:0.89012897 9:0.8956821 10:0.73857719 11:0.19809704 12:0.42857143 13:0.64705884 14:0.64317566 15:0.65765768 16:0.65325856 #
-0.5 1:0.021739131 2:1 5:0.69543165 6:0.28951487 7:0.067292646 8:0.95772713 9:0.95945138 10:0.93427539 11:0.28674966 13:0.65142858 14:0.66803747 15:0.69537812 16:0.71046406 #
-0.5 5:0.59703958 6:0.25258046 7:0.071038254 8:0.9521715 9:0.95353633 10:0.95464748 11:0.32412809 12:0.8888889 13:0.73706007 14:0.71242177 15:0.77324265 16:0.73885894 #
-0.5 5:0.61977851 6:0.2688053 7:0.13053097 8:0.94601834 9:0.9505617 10:0.94790578 11:0.38188294 12:0.88679248 13:0.78885633 14:0.77379465 15:0.81055903 16:0.79586488 #
-0.5 5:0.59209675 6:0.25568941 7:0.087014727 8:0.94582385 9:0.94939017 10:0.96478152 11:0.41105905 12:0.89090908 13:0.75297618 14:0.76166111 15:0.80511183 16:0.80382878 #
0.5 5:0.75665182 6:0.4990297 7:0.34885803 8:0.95316613 9:0.9537496 10:0.71504647 11:0.47645891 12:0.61764705 13:0.64400494 14:0.64490235 15:0.70149255 16:0.68826526 #
0.5 1:0.16666667 3:0.44 4:0.0098718759 5:0.5629316 6:0.26032209 7:0.080819912 8:0.94093722 9:0.94037449 10:0.80368149 11:0.10373431 12:0.80952382 13:0.50719154 14:0.49373558 15:0.54342431 16:0.5135029 #
0.5 1:0.010989011 2:0.027777778 3:0.15000001 4:0.0051707779 5:0.57478398 6:0.3804476 7:0.18021202 8:0.92708266 9:0.92672831 10:0.88212591 11:0.29685068 12:0.30985916 13:0.595092 14:0.65601939 15:0.63636363 16:0.68409592 #
0.5 1:0.0020445252 2:0.017301038 3:0.041322313 4:0.0035862471 5:0.55005002 6:0.32096007 7:0.13340776 8:0.95010448 9:0.94962919 10:0.68914473 11:0.13259408 12:0.59090906 13:0.49458206 14:0.48288548 15:0.54568964 16:0.51330251 #
-0.35719020679725588252040324732661 1:0.021739131 2:1 5:0.54625934 6:0.22829342 7:0.017215569 8:0.94470757 9:0.94517744 10:0.94367301 11:0.28509459 13:0.75321335 14:0.74969745 15:0.79144382 16:0.78208965 #
0.5 5:0.64845544 6:0.094368935 7:0.2 8:0.95673859 9:0.95687068 10:0.86044705 11:0.32410365 12:0.42857143 13:0.66826922 14:0.56128991 15:0.67119563 16:0.56518334 #
0.3831181431210097798611968755722 1:0.010380623 3:0.29862127 4:0.00079617836 5:0.21568261 6:0.34300792 7:0.084432721 8:0.84924877 9:0.84336311 10:0.46648362 11:0.059833989 12:0.69999999 13:0.45777777 14:0.48793423 15:0.49295774 16:0.51000327 #
0.084522374061180016724392771720886 1:0.00023139578 2:0.00046593981 3:0.55644912 4:0.00062233384 5:0.23659016 6:0.21563342 7:0.0053908355 8:0.82426155 9:0.82832843 10:0.61649781 11:0.052856218 12:0.52272725 13:0.5106383 14:0.51658016 15:0.54789275 16:0.54271895 #
