SVM-light Version V6.02
0 # kernel type
3 # kernel parameter -d 
1 # kernel parameter -g 
1 # kernel parameter -s 
1 # kernel parameter -r 
empty# kernel parameter -u 
16 # highest feature index 
2236 # number of training documents 
113 # number of support vectors plus 1 
-1.437875 # threshold b, each following line is a SV (starting with alpha*y)
2 1:0 2:0 3:0 4:0 5:0.017209474 6:0.30523917 7:0.41002277 8:0.4154658 9:0.40356582 10:0.052855562 11:0 13:0.19642857 14:0.13868974 15:0.22818792 16:0.15474381 #
2 1:0 2:0 3:0 4:8.7719302e-05 5:0.037744891 6:0.81097561 7:1.1036586 8:0.46492603 9:0.45237499 10:0.06698072 11:0 13:0.1744186 14:0.12577777 15:0.21250001 16:0.14127478 #
2 1:0 2:0 3:0 4:7.0126225e-05 5:0.17132759 6:0.1007874 7:0.17874016 8:0.66437227 9:0.65520591 10:0.076490477 11:0.0016419664 13:0.25176471 14:0.21154892 15:0.33155081 16:0.25586215 #
2 1:0 2:0 3:0 4:0.00014074595 5:0.077404082 6:0.62763715 7:0.58860761 8:0.46270072 9:0.45998752 10:0.046232738 11:0.0017645907 13:0.13231552 14:0.1744829 15:0.15945946 16:0.2063265 #
-2 5:0.087806486 6:0.16091955 7:0.059386972 8:0.73139679 9:0.72657472 10:0.1338919 11:0.0022471966 12:0.055555556 13:0.17266187 14:0.18531233 15:0.19548872 16:0.20245881 #
2 1:0 2:0 3:0 4:0.00013159626 5:0.10945873 6:0.8487286 7:0.83679295 8:0.53954893 9:0.52496344 10:0.064724572 11:0.0027879404 13:0.087360598 14:0.16448197 15:0.11016043 16:0.19415481 #
-2 1:0 2:0 3:0 4:0.00036801508 5:0.2151709 6:0.69749999 7:0.67250001 8:0.72069407 9:0.69672322 10:0.052035291 11:0.0024565205 12:0.068965517 13:0.15060242 14:0.23129787 15:0.17171717 16:0.25283179 #
-2 1:0 2:0 3:0 4:6.0543684e-05 5:0.086097777 6:0.38524589 7:0.50409836 8:0.66341108 9:0.67749459 10:0.14787717 11:0 12:0.048192769 13:0.21472393 14:0.21501723 15:0.26875001 16:0.24533406 #
-2 6:0.13347237 #
2 1:0 2:0 3:0 4:0.00012254903 5:0.047172558 6:0.069986545 7:0.19919246 8:0.6509921 9:0.64014226 10:0.065017112 11:0.0013861442 12:0.0625 13:0.24709302 14:0.23982921 15:0.27190334 16:0.2625514 #
-2 1:0 2:0 3:0 4:3.4933684e-05 5:0.096721284 6:1.1782945 7:1.5736434 8:0.6444636 9:0.6491183 10:0.2266387 11:0 12:0.070422538 13:0.32653061 14:0.25342104 15:0.33684212 16:0.25033638 #
-2 6:0.097308487 #
2 1:0 2:0 3:0 4:5.412427e-05 5:0.098699056 6:0.87099642 7:0.84386122 8:0.60610765 9:0.60553396 10:0.11817671 11:0.0050635994 13:0.11352041 14:0.22657378 15:0.13294798 16:0.25044796 #
-2 1:0.0058422592 2:0.020833334 3:0.03846154 4:0.003947258 6:0.0027100272 12:0.83333331 #
2 1:0 2:0 3:0 4:4.2838608e-05 5:0.021714516 6:0.24267782 7:0.15062761 8:0.55281729 9:0.55477893 10:0.048048366 11:0 12:0.083333336 13:0.11038961 14:0.13002506 15:0.12582782 16:0.14878298 #
-2 5:0 6:0.4888064 7:0.46338171 8:0.23365045 9:0.23184672 10:0.001735681 11:0 13:0.020008337 14:0.021869773 15:0.020710059 16:0.0244036 #
2 1:0 2:0 3:0 4:0 5:0.074230984 6:0.37488458 7:0.29085872 8:0.47795346 9:0.47097659 10:0.063181825 11:0.0024177453 13:0.1522388 14:0.14849609 15:0.20141342 16:0.17907713 #
1.5448943140070241497596725821495 1:0 2:0 3:0 4:3.0502219e-05 5:0.094020367 6:0.92676973 7:0.92270136 8:0.68176669 9:0.67731893 10:0.070953958 11:0.0021143209 12:0.044943821 13:0.060810812 14:0.15806198 15:0.071146242 16:0.17108944 #
-2 1:8.3005461e-06 2:0 3:0 4:0.0001654503 5:0.083858117 6:0.86902285 7:0.86382538 8:0.76917154 9:0.77742028 10:0.1075011 11:0.010490921 12:0.07272727 13:0.10213777 14:0.23950538 15:0.12911393 16:0.27511355 #
2 1:0 2:0 3:0 4:0 5:0.10257294 6:0.72727275 7:0.70324677 8:0.59010625 9:0.58482903 10:0.058309555 11:0.0039984011 12:0.074074075 13:0.11009175 14:0.1661059 15:0.13861386 16:0.20106974 #
-2 1:0.00019872814 2:0.035916824 3:0.1875 4:0.01255887 5:0.019256832 6:0.41723496 7:0.40607563 8:0.60243213 9:0.57857043 10:0.035579178 11:0.0017580618 13:0.090163931 14:0.10063886 15:0.10914455 16:0.11525641 #
2 1:0 2:0 3:0 4:3.830537e-05 5:0.1090644 6:0.082170546 7:0.28682169 8:0.58642685 9:0.57970834 10:0.053934023 11:0 12:0.061538462 13:0.22151899 14:0.20213079 15:0.25170067 16:0.22286528 #
2 1:0 2:0 3:0 4:0 5:0.065889604 6:0.68971735 7:0.68430549 8:0.5032137 9:0.48063105 10:0.055014938 11:0.0012794421 13:0.11721612 14:0.16976662 15:0.16515838 16:0.22048847 #
-2 1:0 2:0 3:0 4:0 5:0.023499183 6:0.032697547 7:0.095367849 8:0.64071244 9:0.63535327 10:0.098715037 11:0 13:0.19730942 14:0.20914494 15:0.23004694 16:0.23681448 #
-2 1:0 2:0.00065616798 3:0 4:0.00015470297 5:0.10974896 6:0.59446448 7:0.52948254 8:0.75651717 9:0.75192064 10:0.24151824 11:0.0019837755 12:0.068965517 13:0.15201901 14:0.22906277 15:0.17661692 16:0.24553514 #
-2 6:0.098623857 #
-2 6:0.093229748 #
2 1:0 2:0 3:0 4:0.00013114868 5:0.17055756 6:0.085526317 7:0.016447369 8:0.7305845 9:0.72020894 10:0.072146736 11:0.0018297718 13:0.16312057 14:0.16377898 15:0.18560606 16:0.1795848 #
-1.7148613899765337009739596396685 1:0 2:0 3:0 4:3.070923e-05 5:0.15299378 6:0.76827371 7:0.7340591 8:0.80117989 9:0.79922628 10:0.2850194 11:0.0015634125 13:0.11149826 14:0.20163979 15:0.13232514 16:0.22621995 #
-2 6:0.2340824 #
-2 6:0.036890645 #
-2 1:2.4529043e-05 2:0 3:0 4:7.4178475e-05 5:0.1149017 6:0.68947369 7:0.93684208 8:0.69066256 9:0.68318743 10:0.20968682 11:0.030046793 13:0.3140496 14:0.24550386 15:0.31355932 16:0.24645863 #
2 1:0 2:0 3:0 4:0.00013025841 5:0.14607482 6:0.60690081 7:0.57178068 8:0.5600177 9:0.54184169 10:0.053390749 11:0 13:0.15221579 14:0.1941748 15:0.18510638 16:0.21481153 #
-2 1:0 2:0 3:0 4:0.000375848 5:0.17383023 6:0.93082708 7:0.92330825 8:0.66459703 9:0.66732323 10:0.23191749 11:0.028667826 12:0.093023255 13:0.084444441 14:0.22750005 15:0.097972974 16:0.2498886 #
1.4186756768510804249672219157219 1:0 2:0 3:0 4:0.00035193565 5:0.10509273 6:0.20675105 7:0.37834036 8:0.75499254 9:0.74701965 10:0.063730478 11:0 12:0.036036037 13:0.18205805 14:0.1743907 15:0.19337016 16:0.18702009 #
2 5:0.10077511 6:0.32418951 7:0.4713217 8:0.75314409 9:0.74131525 10:0.055476151 11:0 12:0.051948052 13:0.2173913 14:0.18384123 15:0.23857868 16:0.20047612 #
-2 1:0 2:0 3:0 4:0.00012985326 5:0.12970825 6:0.68917018 7:0.65682137 8:0.75593251 9:0.75506473 10:0.20875333 11:0.018273959 12:0.036036037 13:0.16886544 14:0.27071926 15:0.1878453 16:0.28894082 #
-2 1:0 2:0 3:0 4:0 5:0.092693612 6:0.3943662 7:0.5 8:0.67672884 9:0.67091447 10:0.20092091 11:0.007187923 12:0.060606062 13:0.22171946 14:0.18674247 15:0.26066351 16:0.20326225 #
2 1:0 2:0 5:0.040714707 6:0.33128834 7:0.41717792 8:0.57377601 9:0.56562716 10:0.04800282 11:0 12:0.04255319 13:0.18867925 14:0.1613218 15:0.1980198 16:0.16700333 #
2 1:0 2:0 3:0 4:0.00013313806 5:0.15512614 6:0.48449287 7:0.4308466 8:0.59906578 9:0.58797961 10:0.054620173 11:0.0024242869 13:0.15536106 14:0.19744159 15:0.19174758 16:0.22396235 #
2 1:0 2:0 3:0 4:0 5:0.032513097 6:0.18895966 7:0.038216561 8:0.36135918 9:0.35468063 10:0.031027222 11:0 13:0.19318181 14:0.16577676 15:0.20858896 16:0.17636715 #
-1.1453062853099140738777350634336 1:0.0057814992 2:0.026515152 3:0.039999999 4:0.0043149069 6:0.13087249 12:0.83333331 #
-2 5:0.11309937 6:0.89369297 7:0.88456964 8:0.76343817 9:0.75595564 10:0.14353085 11:0 12:0.063492067 13:0.077594571 14:0.19794042 15:0.096500531 16:0.23000194 #
-2 1:0 3:0 4:0.00027073859 5:0.10322059 6:0.18489583 7:0.080729164 8:0.6663571 9:0.66369063 10:0.090865344 11:0.013535856 12:0.064516127 13:0.2029703 14:0.22134387 15:0.23195876 16:0.24081048 #
2 1:0 2:0 3:0 4:0 5:0.088423505 6:0.8628996 7:0.84669065 8:0.48348358 9:0.47154486 10:0.062833942 11:0.00058238045 13:0.089343376 14:0.15162849 15:0.12757201 16:0.19469151 #
2 1:0 2:0 3:0 4:0.00012910167 5:0.071697593 6:0.71469408 7:0.67981702 8:0.52538168 9:0.5157671 10:0.051565848 11:0.0042395676 13:0.15490197 14:0.19900444 15:0.19239374 16:0.23968919 #
0.87862858347625660826452076435089 1:0 2:0 3:0 4:3.2810982e-05 5:0 6:0.59398496 7:0.81203008 8:0.27681494 9:0.27267033 10:0.010080266 11:0 12:0.06666667 13:0.17708333 14:0.15907417 15:0.18947369 16:0.16651684 #
2 1:0.00096899224 2:0 3:0 4:0.0017734598 5:0.067061909 6:0.14553314 7:0.05907781 8:0.59738135 9:0.58839703 10:0.041003101 11:0.0016220777 12:0.1 13:0.19571866 14:0.20122045 15:0.2192691 16:0.21502478 #
2 1:0 2:0 3:0 4:8.0860351e-05 5:0.12650259 6:0.7820285 7:0.76067615 8:0.65187633 9:0.64979404 10:0.08178895 11:0.0031299249 12:0.061538462 13:0.10841837 14:0.18519203 15:0.13872832 16:0.20965096 #
2 1:0 2:0 3:0 4:0.00013371879 5:0.17210037 6:0.49627081 7:0.41939184 8:0.64665037 9:0.63636756 10:0.093561962 11:0.0090907104 13:0.15916398 14:0.20412651 15:0.19047619 16:0.22937381 #
2 1:0 2:0 3:0 4:0 5:0.11011134 6:0.45409182 7:0.36427146 8:0.5473299 9:0.54120106 10:0.045411445 11:0.0009394199 13:0.22368421 14:0.18910691 15:0.28140703 16:0.22583032 #
0.64203795747152980766259133815765 1:0 2:0 3:0 4:0.0001206033 5:0.05231829 6:1.7205882 7:2.1593137 8:0.64250451 9:0.63157767 10:0.05980774 11:0.0024215756 12:0.037037037 13:0.2977528 14:0.18183735 15:0.34104046 16:0.20560113 #
-2 1:0 2:0 3:0 4:2.6638672e-05 5:0.016675007 6:0.16194332 7:0.20242915 8:0.51618963 9:0.51423907 10:0.10961927 11:0 13:0.19512194 14:0.19148542 15:0.20987654 16:0.20078662 #
2 1:0 2:0 3:0 4:0.00047348486 5:0.12652332 6:0.36167341 7:0.27395412 8:0.68533945 9:0.66698515 10:0.051488232 11:0 12:0.055555556 13:0.14166667 14:0.17748855 15:0.15820895 16:0.19011198 #
-2 1:0 2:0 3:0 4:8.6523905e-05 5:0.06418702 6:0.72531646 7:0.70886075 8:0.72699809 9:0.72550094 10:0.26724267 11:0 13:0.11886305 14:0.19675271 15:0.15235457 16:0.23557034 #
2 1:0 2:0 3:0 4:0 5:0.085821077 6:0.8037166 7:0.78203636 8:0.50171369 9:0.48651117 10:0.064443752 11:0.0094376281 13:0.13059033 14:0.18226652 15:0.16842106 16:0.20881608 #
-2 1:6.2275808e-06 2:0 3:0 4:0.00014312295 5:0.062501222 6:0.72673559 7:0.704579 8:0.52719975 9:0.5100562 10:0.079015285 11:0 12:0.07272727 13:0.15714286 14:0.23425475 15:0.16730037 16:0.24563763 #
2 1:0 2:0 3:0 4:0 5:0.011385389 6:1.1944444 7:1.2777778 8:0.56397611 9:0.5558725 10:0.11380227 11:0 13:0.18435754 14:0.15838815 15:0.22839506 16:0.19423175 #
-2 1:0 2:0 3:0 4:0.00053022272 5:0.15403441 6:0.28709289 7:0.25693607 8:0.75496674 9:0.71605843 10:0.17671563 11:0.018244121 13:0.18644068 14:0.22070681 15:0.22251309 16:0.24861455 #
-2 1:0 2:0 3:0 4:0 5:0.091923885 6:0.625323 7:0.59948319 8:0.60690939 9:0.60136425 10:0.20163821 11:0.0047065206 12:0.045977011 13:0.12365592 14:0.16457987 15:0.12568305 16:0.1667192 #
-2 5:0.17837976 6:0.84628236 7:0.83792818 8:0.74618816 9:0.72310483 10:0.15333492 11:0.022664843 12:0.070175439 13:0.11872146 14:0.23690267 15:0.13647643 16:0.26610756 #
2 1:0 2:0 3:0 4:2.1714111e-05 5:0.016141167 6:0.53900707 7:0.63829786 8:0.35835528 9:0.35679552 10:0.021644028 11:0 12:0.04255319 13:0.21276596 14:0.17130974 15:0.21276596 16:0.1731099 #
-2 1:0 2:0 3:0 4:0 5:0.12103759 6:0.61198735 7:0.56466877 8:0.66454715 9:0.6608265 10:0.16049354 11:0.010914306 13:0.26380369 14:0.34531319 15:0.27215189 16:0.34733939 #
-2 1:0 2:0 3:0 4:0 5:0.037907124 6:0.35570469 7:0.45637584 8:0.49547553 9:0.49473909 10:0.14963855 11:0 13:0.27000001 14:0.21899892 15:0.28865978 16:0.23369063 #
2 1:0 2:0 3:0 4:5.3050397e-05 5:0.11510081 6:0.55847567 7:0.5282523 8:0.71424621 9:0.70139503 10:0.059788287 11:0 12:0.065573767 13:0.1607717 14:0.20165823 15:0.1875 16:0.22845289 #
-2 1:0 2:0 3:0 4:0.00050403224 5:0.13176195 6:0.43692869 7:0.40127972 8:0.80745566 9:0.80551291 10:0.18465075 11:0.010645265 13:0.255079 14:0.28691986 15:0.30272952 16:0.32391867 #
2 1:0 2:0 3:0 4:7.1398819e-05 5:0.079578862 6:0.1137218 7:0.20206767 8:0.68529773 9:0.6696831 10:0.046304584 11:0.0027966476 12:0.057142857 13:0.20125785 14:0.20330642 15:0.22098215 16:0.21975921 #
-2 1:0 2:0 3:0 4:0 5:0.092725396 6:0.16666667 7:0.070512824 8:0.59974998 9:0.60156572 10:0.19262739 11:0.015007505 13:0.28431374 14:0.27503291 15:0.2970297 16:0.2872425 #
2 1:0 2:0 3:0 4:9.7041462e-05 5:0.076567546 6:0.51662052 7:0.48060942 8:0.56627613 9:0.56477994 10:0.056193404 11:0 12:0.057142857 13:0.15047021 14:0.1949129 15:0.18272425 16:0.22360495 #
-2 1:0 2:0 3:0 4:0 5:0.076365195 6:0.36170211 7:0.48510638 8:0.56993359 9:0.56550008 10:0.12971567 11:0.011646468 13:0.28666666 14:0.23610234 15:0.3263889 16:0.26227939 #
2 1:0 2:0 3:0 4:0 5:0.070885919 6:0.63522011 7:0.55849057 8:0.57256579 9:0.57339615 10:0.052150216 11:0.0083450247 13:0.1522388 14:0.20363991 15:0.17532468 16:0.22034393 #
-2 1:0 2:0 3:0 4:0 5:0.048205331 6:0.37375414 7:0.29235882 8:0.62059313 9:0.60390711 10:0.13687795 11:0 12:0.064516127 13:0.18587361 14:0.22135238 15:0.22891566 16:0.25167587 #
2 1:0 2:0 3:0 4:6.5513625e-05 5:0.11158643 6:0.48297429 7:0.44058374 8:0.72517711 9:0.71720916 10:0.064710595 11:0.00098969357 12:0.045454547 13:0.15648855 14:0.18924075 15:0.19654427 16:0.21333133 #
-2 1:0 2:0 3:0 4:4.6413763e-05 5:0.052144133 6:1.7362638 7:1.8791208 8:0.61158377 9:0.61093384 10:0.13011676 11:0.0037382981 12:0.057971016 13:0.3611111 14:0.22978641 15:0.3888889 16:0.25112361 #
2 1:0 2:0 3:0 4:6.3572792e-05 5:0.079383023 6:0.40769231 7:0.33589745 8:0.62238371 9:0.61280018 10:0.050679781 11:0.0016633065 12:0.05479452 13:0.16158536 14:0.173925 15:0.18709677 16:0.19547354 #
-2 1:0 2:0 3:0 4:0 5:0.12023015 6:0.79955292 7:0.7585693 8:0.73951024 9:0.73329508 10:0.211761 11:0.0032636591 12:0.061538462 13:0.14656772 14:0.24883525 15:0.168 16:0.27845728 #
2 1:0 2:0 3:0 4:0 5:0.079273619 6:0.20090806 7:0.10669693 8:0.48519352 9:0.47421417 10:0.048802219 11:0.0050083017 13:0.19262294 14:0.16051358 15:0.24880382 16:0.19253846 #
-2 1:0 2:0 3:0 4:0.00025061838 5:0.15639262 6:0.028469751 7:0.12099644 8:0.79932338 9:0.80446827 10:0.24902804 11:0.0071963752 13:0.25337839 14:0.25222757 15:0.27874565 16:0.26564735 #
2 1:0 3:0 4:0 5:0.028867608 6:0.064516127 7:0.16873449 8:0.60505062 9:0.57929599 10:0.05151714 11:0 12:0.0625 13:0.18131869 14:0.15708452 15:0.21022727 16:0.17781886 #
2 1:0 2:0 3:0 4:0.00026041668 5:0.057869337 6:0.13925926 7:0.054814816 8:0.62284601 9:0.61351705 10:0.04855676 11:0 12:0.038834952 13:0.1971831 14:0.19573829 15:0.21804512 16:0.21102214 #
2 3:0 4:0 5:0.10184371 6:0.57033807 7:0.50490731 8:0.61730009 9:0.61651552 10:0.062338185 11:0.0048030135 12:0.059701491 13:0.13315217 14:0.18119237 15:0.16081871 16:0.20377919 #
-2 1:7.1186537e-06 2:0 3:0 4:0.00014684288 5:0.13854659 6:0.82999998 7:0.82333332 8:0.75509512 9:0.75490069 10:0.19032633 11:0.042955268 12:0.081632651 13:0.12715517 14:0.25903794 15:0.15625 16:0.29462782 #
-2 1:0 2:0 3:0 4:0.00050066755 5:0.032636318 6:0.26379311 7:0.19827586 8:0.62699175 9:0.6242649 10:0.22401819 11:0 13:0.17263843 14:0.19588336 15:0.21403509 16:0.2174968 #
-2 1:8.8214538e-06 2:0 3:0 4:0.00017270898 5:0.074190244 6:0.82447112 7:0.81189251 8:0.74171072 9:0.74331439 10:0.14946495 11:0.014508074 12:0.06666667 13:0.17058824 14:0.28763002 15:0.20357941 16:0.32260984 #
2 1:0 2:0 3:0 4:0.00013464387 5:0.18171856 6:0.77132106 7:0.74749166 8:0.7575323 9:0.75110984 10:0.086333141 11:0.0024087257 13:0.12408759 14:0.1886597 15:0.15886287 16:0.22028901 #
-2 1:0.00031172071 2:0.0028327596 3:0.042424243 4:0.0014732966 5:0.098395437 6:0.31070891 7:0.27450982 8:0.46390718 9:0.46108469 10:0.20782013 11:0.025896432 13:0.16369048 14:0.18644175 15:0.17791411 16:0.2043952 #
2 1:0 2:0 3:0 4:0.00015101177 5:0.14946403 6:0.91890424 7:0.90941143 8:0.65083736 9:0.64706802 10:0.10195596 11:0.001891106 13:0.065878376 14:0.16488755 15:0.084980235 16:0.19875695 #
-2 1:0 2:0 3:0 4:0 5:0.12784602 6:0.89883476 7:0.88400424 8:0.75452775 9:0.74858558 10:0.1812799 11:0.0056085349 12:0.055555556 13:0.10222222 14:0.23086348 15:0.13014828 16:0.27597255 #
-2 1:6.4935489e-06 2:0 3:0 4:0.00014467593 5:0.14016496 6:0.75259256 7:0.74222225 8:0.71709794 9:0.71065336 10:0.18981077 11:0.047210444 12:0.057142857 13:0.13028169 14:0.2272286 15:0.15413533 16:0.25138712 #
2 1:0 2:0 3:0 4:0.00013775399 5:0.04806475 6:0.82618642 7:0.80503142 8:0.56247032 9:0.55724519 10:0.062180337 11:0.0013713138 13:0.13921569 14:0.22869746 15:0.17449665 16:0.26764801 #
-2 1:0 2:0 3:0 4:1.2357121e-05 5:0.079572052 6:1.5166667 7:1.9416667 8:0.54963803 9:0.55017269 10:0.21144494 11:0.010728064 13:0.35955057 14:0.24416101 15:0.375 16:0.25387621 #
-2 1:0 2:0 3:0 4:0.00035558266 5:0.15292707 6:0.60623229 7:0.57790369 8:0.71662748 9:0.71518302 10:0.17069145 11:0.02072233 12:0.079999998 13:0.17613636 14:0.23024316 15:0.20496894 16:0.25751403 #
2 1:0 2:0 3:0 4:0.0001536964 5:0.062203523 6:0.36107194 7:0.28208745 8:0.47636551 9:0.47340101 10:0.054125786 11:0.001844805 13:0.17445482 14:0.18848975 15:0.1986755 16:0.20896159 #
2 1:0 5:0.12592389 6:0.014584346 7:0.052989792 8:0.69812274 9:0.66734797 10:0.072166406 11:0.00083199539 13:0.12749004 14:0.15850736 15:0.15820029 16:0.19841744 #
2 1:0 2:0 3:0 4:4.3607186e-05 5:0.07761848 6:0.83440959 7:0.82426196 8:0.56005615 9:0.56246477 10:0.062005688 11:0 12:0.054054055 13:0.098273575 14:0.18198438 15:0.12158055 16:0.20837855 #
2 1:0 2:0 3:0 4:0 5:0.20200013 6:0.94512141 7:0.93916214 8:0.56099027 9:0.54912311 10:0.072300121 11:0.0035847879 13:0.086816721 14:0.14318487 15:0.11966988 16:0.17925841 #
2 1:0 2:0 3:0 4:0.00013419216 5:0.067802452 6:0.3965798 7:0.45846906 8:0.72129416 9:0.69041181 10:0.075184658 11:0.0015905402 13:0.15306123 14:0.17088151 15:0.18930958 16:0.20364788 #
-2 1:0 2:0 3:0 4:4.2252927e-05 5:0.20537183 6:0.57210779 7:0.51188588 8:0.79981178 9:0.80002135 10:0.19456181 11:0.0071608834 13:0.21904762 14:0.28643337 15:0.24333334 16:0.31070864 #
2 1:0 2:0 3:0 4:6.6203247e-05 5:0.10728434 6:0.76132685 7:0.73624593 8:0.64604586 9:0.64182615 10:0.055765025 11:0 12:0.045454547 13:0.13483146 14:0.20223081 15:0.15970516 16:0.22897263 #
2 1:0 2:0 3:0 4:0.00015392015 5:0.074341573 6:0.84075433 7:0.82137245 8:0.64426464 9:0.63751763 10:0.073612936 11:0 13:0.106414 14:0.20013674 15:0.1298077 16:0.23524258 #
-2 5:0.11613854 6:0.84072024 7:0.8261773 8:0.72974372 9:0.72660315 10:0.22279021 11:0.0090555046 12:0.03539823 13:0.11151079 14:0.22048265 15:0.12934363 16:0.24363153 #
-2 1:0 2:0 3:0 4:0.00017780939 5:0.1182277 6:0.19622642 7:0.11886793 8:0.77754205 9:0.77446091 10:0.21757019 11:0 12:0.036697246 13:0.22340426 14:0.23560624 15:0.24542125 16:0.25052026 #
2 1:0 2:0 3:0 4:2.6662401e-05 5:0.073887885 6:0.67932487 7:0.64029539 8:0.54376787 9:0.53778529 10:0.051731486 11:0.0019741962 12:0.074074075 13:0.10941476 14:0.15587366 15:0.12432432 16:0.1662156 #
0.3759320768131146905943751335144 1:0 2:0 3:0 4:0.00012586532 5:0.046682354 6:0.2928994 7:0.25443786 8:0.65151787 9:0.62843567 10:0.042682905 11:0.0019480523 12:0.078431375 13:0.14563107 14:0.16158327 15:0.15986395 16:0.17767884 #
2 1:0 2:0 3:0 4:0.00012993763 5:0.033967298 6:0.90822262 7:0.89908636 8:0.49366385 9:0.48954248 10:0.057517003 11:0 13:0.094614267 14:0.20054308 15:0.11467116 16:0.2207606 #
-2 5:0.064264566 6:0.46749225 7:0.60526317 8:0.53973114 9:0.54455626 10:0.22613762 11:0 13:0.26086956 14:0.18486495 15:0.27826086 16:0.20256816 #
-2 1:0 2:0.00080906152 3:0 4:7.5250209e-05 5:0.1440881 6:0.66523606 7:0.62875539 8:0.737028 9:0.73700839 10:0.18284547 11:0.031569056 12:0.06779661 13:0.23963134 14:0.33505183 15:0.26442307 16:0.36527318 #
2 1:0 2:0 3:0 4:5.4343396e-05 5:0.11478216 6:0.5777998 7:0.53716552 8:0.67644119 9:0.66079038 10:0.056708224 11:0 12:0.078431375 13:0.12600537 14:0.15456568 15:0.15634218 16:0.17783833 #
2 1:0 2:0 3:0 4:4.4592427e-05 5:0.082716785 6:0.58011049 7:0.52348065 8:0.52422076 9:0.51556146 10:0.056385249 11:0 12:0.033613447 13:0.12569316 14:0.1684408 15:0.15605749 16:0.18929325 #
-2 1:0 2:0 3:0 4:3.2834254e-05 5:0.069079965 6:0.18342152 7:0.12169312 8:0.58568347 9:0.58194178 10:0.20120446 11:0 13:0.28518519 14:0.26920775 15:0.31225297 16:0.28966311 #
-2 1:0 2:0 3:0 4:0.00023418949 5:0.10573588 6:0.89679718 7:0.87473309 8:0.76258165 9:0.75740814 10:0.24083817 11:0.0046598404 12:0.057142857 13:0.092979126 14:0.21639523 15:0.11924686 16:0.25688711 #
-2 1:0 2:0 3:0 4:0.00018409551 5:0.1512896 6:0.86215234 7:0.84280533 8:0.76107264 9:0.76006466 10:0.27885371 11:0.0017014088 13:0.091172211 14:0.21018764 15:0.10510046 16:0.23268576 #
