SVM-light Version V6.02
0 # kernel type
3 # kernel parameter -d 
1 # kernel parameter -g 
1 # kernel parameter -s 
1 # kernel parameter -r 
empty# kernel parameter -u 
16 # highest feature index 
2236 # number of training documents 
448 # number of support vectors plus 1 
-1.1365009 # threshold b, each following line is a SV (starting with alpha*y)
1 1:0 2:0.00070621469 3:0 4:0.00019423022 5:0.26379293 6:0.3899371 7:0.30062893 8:0.8340227 9:0.8376621 10:0.4829911 11:0.029182287 12:0.050632913 13:0.2918919 14:0.35575798 15:0.31609195 16:0.37904903 #
1 1:0 2:0 3:0 4:0.00015905626 5:0.12199255 6:0.011428571 7:0.16571428 8:0.64123309 9:0.65494382 10:0.5068624 11:0.048024017 13:0.39024389 14:0.40337759 15:0.41666666 16:0.42197475 #
-1 5:0.32865298 6:0.022727273 7:0.054545455 8:0.84217966 9:0.85487109 10:0.62410504 11:0.18681601 13:0.5714286 14:0.5744254 15:0.6397059 16:0.61953491 #
1 1:0 2:0 3:0 4:0.00012846866 5:0.0928628 6:0.049107142 7:0.16517857 8:0.5624364 9:0.57038349 10:0.53650111 11:0.014295929 13:0.35333332 14:0.34427199 15:0.38666666 16:0.37915787 #
1 5:0.29859221 6:0.27101967 7:0.19007155 8:0.84070009 9:0.83413434 10:0.61285818 11:0.068378016 12:0.1 13:0.30252102 14:0.33213079 15:0.37359098 16:0.38557416 #
-1 1:0.0011875 2:0.020310633 3:0.07692308 4:0.0040422888 5:0.16819735 6:0.48984468 7:0.4432497 8:0.80662066 9:0.79363179 10:0.44667917 11:0.040730655 13:0.20418848 14:0.25923792 15:0.2419825 16:0.29234597 #
1 1:0 2:0 3:0 4:0.00014736656 5:0.19602987 6:0.027210884 7:0.15419501 8:0.63236749 9:0.63646936 10:0.36564359 11:0.025602242 13:0.33070865 14:0.33120483 15:0.37551022 16:0.35573244 #
-1 6:0.2340824 #
1 1:0 2:0 3:0 4:0.00046468401 5:0.3905049 6:0.1679225 7:0.051668461 8:0.81039906 9:0.81079459 10:0.71448189 11:0.18826158 12:0.078431375 13:0.54178673 14:0.56373453 15:0.57741934 16:0.58598828 #
-1 1:0.00040392976 2:0.010617761 3:0.032967035 4:0.0029032258 5:0.18844298 6:4.8546023 7:4.7259417 8:0.51605809 9:0.49750867 10:0.62821275 11:0.0029216327 13:0.32380953 14:0.17584276 15:0.35844156 16:0.18508241 #
-1 6:0.036890645 #
0.85694373196652406932116718962789 1:0 2:0 3:0 4:0.00018187831 5:0.16619608 6:0.91764706 7:1.2411765 8:0.5880776 9:0.5936166 10:0.50350159 11:0.031028479 13:0.47706422 14:0.3365643 15:0.5 16:0.34945646 #
1 1:0 5:0.57581615 6:0.12381597 7:0.046008117 8:0.85414797 9:0.85698766 10:0.88097572 11:0.23946935 12:0.070175439 13:0.35741445 14:0.37607044 15:0.40083507 16:0.41217759 #
1 1:0 2:0.0013661202 3:0 4:0 5:0.45275933 6:0.46921796 7:0.64226288 8:0.88193029 9:0.88897014 10:0.76757354 11:0.17142114 13:0.53496504 14:0.47116542 15:0.57194245 16:0.49442822 #
-1 1:0.00019872814 2:0.035916824 3:0.1875 4:0.01255887 5:0.019256832 6:0.41723496 7:0.40607563 8:0.60243213 9:0.57857043 10:0.035579178 11:0.0017580618 13:0.090163931 14:0.10063886 15:0.10914455 16:0.11525641 #
1 1:0 2:0 3:0 4:0 5:0.29214704 6:0.022576362 7:0.070385128 8:0.80452645 9:0.80889767 10:0.62957782 11:0.050433822 13:0.52325583 14:0.52182585 15:0.55757576 16:0.54296422 #
-1 5:0.30645397 6:0.92522418 7:0.92392248 8:0.80129486 9:0.80660588 10:0.81099874 11:0.028213363 13:0.088922009 14:0.24474303 15:0.10410642 16:0.26542035 #
-1 1:0.00031172071 2:0.0028327596 3:0.042424243 4:0.0014732966 5:0.098395437 6:0.31070891 7:0.27450982 8:0.46390718 9:0.46108469 10:0.20782013 11:0.025896432 13:0.16369048 14:0.18644175 15:0.17791411 16:0.2043952 #
1 1:0 2:0 3:0 4:4.9073733e-05 5:0.28257421 6:0.20950323 7:0.082073435 8:0.8457911 9:0.8499828 10:0.73387611 11:0.13688752 12:0.049382716 13:0.54509807 14:0.58552921 15:0.5925926 16:0.63146961 #
-1 6:0.13347237 #
-1 1:0.00025949808 2:0.0020218238 3:0.023423424 4:0.001205962 5:0.45959279 6:0.42692438 7:0.38250256 8:0.91771305 9:0.91055894 10:0.89822453 11:0.091757283 13:0.35971943 14:0.42515433 15:0.43468207 16:0.49316829 #
1 1:6.6377261e-06 2:0 3:0 4:0.00014467593 5:0.31111199 6:0.72825253 7:0.69438028 8:0.72938216 9:0.73544663 10:0.6666463 11:0.036430437 12:0.090909094 13:0.17125984 14:0.2771987 15:0.19565217 16:0.30686179 #
-1 5:0.39274725 6:0.089728452 7:0.0094451001 8:0.89302516 9:0.89562744 10:0.71892238 11:0.12644854 13:0.55586594 14:0.56604594 15:0.62275451 16:0.60662287 #
-1 5:0 6:0.4888064 7:0.46338171 8:0.23365045 9:0.23184672 10:0.001735681 11:0 13:0.020008337 14:0.021869773 15:0.020710059 16:0.0244036 #
-1 1:0.00028618381 2:0.0046593407 3:0.054545455 4:0.0022287944 5:0.23489903 6:4.2507291 7:4.6151605 8:0.71833736 9:0.73414439 10:0.52277541 11:0.032153424 13:0.44034091 14:0.23484907 15:0.48447204 16:0.25002503 #
-1 1:0.00024517818 2:0.0082304524 3:0.074074075 4:0.0049835541 5:0.15786378 6:0.025925925 7:0.13611111 8:0.86772478 9:0.87186033 10:0.45719904 11:0.0058889082 13:0.23925234 14:0.24398425 15:0.2790224 16:0.27061045 #
-1 1:0.00085531396 2:0.0064244573 3:0.014285714 4:0.0014425719 5:0.29723856 6:0.65649348 7:0.62207794 8:0.84738487 9:0.84225816 10:0.43470484 11:0.019471984 13:0.14603175 14:0.21853818 15:0.17894737 16:0.25669822 #
1 1:0 2:0 3:0 4:0.00022201907 5:0.28971335 6:0.019498607 7:0.096100278 8:0.7690807 9:0.77966392 10:0.62790978 11:0.10941038 13:0.46964857 14:0.4506084 15:0.5117057 16:0.47363427 #
0.8599882698335949982038073358126 1:0 2:0 3:0 4:0.00029342723 6:2.5593221 #
1 1:0 2:0 3:0 4:0 5:0.2452323 6:0.09390863 7:0.012690355 8:0.78622133 9:0.78853476 10:0.81051582 11:0.077366754 13:0.5 14:0.51010752 15:0.54450262 16:0.54737598 #
-1 1:0.00010668268 2:0.0071919952 3:0.11775878 4:0.0012548271 5:0.2336068 6:0.79842746 7:0.89278054 8:0.87955928 9:0.87015617 10:0.58762592 11:0.023325879 13:0.35365853 14:0.29077801 15:0.44651952 16:0.35345504 #
-1 5:0.34694892 6:0.13861386 7:0.082508251 8:0.87417144 9:0.88088882 10:0.76658732 11:0.16972977 13:0.59442723 14:0.60632402 15:0.62913907 16:0.63655967 #
-1 1:0.0001911315 2:0.0028929606 3:0.010344828 4:0.001153947 5:0.12138196 6:0.0084985839 7:0.014164306 8:0.63300717 9:0.64017832 10:0.50688207 11:0.020472867 13:0.21693122 14:0.241446 15:0.24861878 16:0.26279417 #
1 1:8.6486489e-06 2:0 3:0 4:0.00014387307 5:0.26084232 6:0.78718537 7:0.74828374 8:0.74410254 9:0.74445117 10:0.80232757 11:0.077698506 12:0.08510638 13:0.14733543 14:0.25090319 15:0.17182131 16:0.28604138 #
1 1:0 2:0 3:0 4:6.1489271e-05 5:0.58646536 6:0.2069435 7:0.14635807 8:0.91065323 9:0.90906811 10:0.77986515 11:0.12943652 12:0.083333336 13:0.3444227 14:0.35396585 15:0.39254385 16:0.3858332 #
1 1:0 2:0 3:0 4:0.00023058696 5:0.17039713 6:0.50847459 7:0.44491526 8:0.57039678 9:0.58002615 10:0.71738565 11:0.056893129 12:0.059701491 13:0.31553397 14:0.36727932 15:0.33673468 16:0.38237906 #
-1 1:0.0005857143 2:0.012187088 3:0.008547009 4:0.00036746429 5:0.23675042 6:0.78926176 7:0.7801342 8:0.67944509 9:0.67718023 10:0.28002229 11:0.013055155 13:0.12854758 14:0.24512683 15:0.17617618 16:0.29979223 #
-1 5:0.32995933 6:0.18263473 7:0.32934132 8:0.87131786 9:0.87979829 10:0.79449868 11:0.10596764 13:0.5151515 14:0.43916637 15:0.53797466 16:0.4508158 #
-1 5:0.38958186 6:0.16607773 7:0.07067138 8:0.88474327 9:0.89030057 10:0.7490887 11:0.17530541 13:0.60076046 14:0.61338788 15:0.64227641 16:0.64890486 #
-1 5:0.35151753 6:0.13506493 7:0.079220779 8:0.91771466 9:0.92083818 10:0.78945178 11:0.13194165 13:0.53932583 14:0.57250029 15:0.59021407 16:0.6141578 #
-1 5:0.34385315 6:0.093055554 7:0.037500001 8:0.90535414 9:0.90787476 10:0.7480135 11:0.12190194 13:0.51940298 14:0.54159093 15:0.58585858 16:0.59806526 #
-1 5:0.39919963 6:0.10280374 7:0.0093457941 8:0.86688405 9:0.88935471 10:0.86777508 11:0.17268637 13:0.54320985 14:0.54494923 15:0.57236844 16:0.55614048 #
-1 5:0.39408195 6:0.16408668 7:0.05882353 8:0.85226589 9:0.87414879 10:0.80612421 11:0.17745937 13:0.54802263 14:0.56668365 15:0.59036142 16:0.59576946 #
-1 5:0.38122186 6:0.21621622 7:0.12612613 8:0.83434552 9:0.84395093 10:0.72887385 11:0.17634669 13:0.57894737 14:0.62126076 15:0.56944442 16:0.60876173 #
-1 6:0.098623857 #
1 1:0 2:0 3:0 4:3.0829942e-05 5:0.28135458 6:0.3705036 7:0.27338129 8:0.75407481 9:0.77729988 10:0.72670639 11:0.13637146 13:0.49664429 14:0.57029474 15:0.52142859 16:0.58559501 #
-1 5:0.23764302 6:0.19672132 7:0.18852459 8:0.70819759 9:0.72092265 10:0.72998589 11:0.074535601 13:0.53333336 14:0.60535359 15:0.54545456 16:0.60725451 #
1 1:0 2:0 3:0 4:0.00040735962 5:0.4176192 6:0.17914267 7:0.062699936 8:0.89798993 9:0.90146381 10:0.78455925 11:0.09088365 12:0.079999998 13:0.35754189 14:0.34545279 15:0.41908714 16:0.3891544 #
1 1:0 2:0 3:0 4:0.0001134945 5:0.17349447 6:1.7391304 7:1.9021739 8:0.54604191 9:0.5517031 10:0.51752573 11:0.054554474 12:0.052631579 13:0.54666668 14:0.3904762 15:0.56756759 16:0.40828687 #
1 1:0 2:0 3:0 4:0.0001194014 5:0.30276355 6:0.095971562 7:0.010663508 8:0.87223297 9:0.87415105 10:0.64633644 11:0.080414206 12:0.05479452 13:0.29365081 14:0.30898309 15:0.32786885 16:0.33290976 #
-1 5:0.10872135 6:0.16494845 7:0.082474224 8:0.56891233 9:0.58431309 10:0.40759599 11:0.012508798 13:0.42105263 14:0.4494895 15:0.46666667 16:0.48653364 #
-1 1:0.00078656682 2:0.012560386 3:0.020833334 4:0.0032679739 5:0.25818774 6:0.4123314 7:0.42003852 8:0.85241777 9:0.85160714 10:0.81050986 11:0.03925683 13:0.26905829 14:0.34804767 15:0.30024815 16:0.36818445 #
1 1:4.4923629e-05 2:0 3:0 4:0.00032453093 5:0.42007542 6:0.18938053 7:0.077876106 8:0.84767526 9:0.84221196 10:0.40142193 11:0.13954093 12:0.064516127 13:0.26877472 14:0.26877391 15:0.30125523 16:0.2910808 #
-1 5:0.13016213 6:0.1969697 7:0.3131313 8:0.78076041 9:0.79132181 10:0.65906256 11:0.018625982 13:0.32718894 14:0.30537549 15:0.35323384 16:0.32599002 #
-1 6:0.097308487 #
1 1:0 2:0 3:0 4:6.8641675e-05 5:0.20216347 6:0.11520737 7:0.032258064 8:0.68827838 9:0.68933564 10:0.48810959 11:0.04803475 13:0.41538462 14:0.40903163 15:0.42519686 16:0.40642881 #
1 1:0 2:0.000524109 3:0 4:0.00034019642 5:0.12522213 6:0.84393066 7:1.1156069 8:0.58197379 9:0.58892936 10:0.46072078 11:0.017719595 12:0.046511628 13:0.5181818 14:0.38583812 15:0.5462963 16:0.39364839 #
1 1:0 2:0 3:0 4:2.3339402e-05 5:0.15962745 6:0.035183739 7:0.089132138 8:0.80378616 9:0.79675639 10:0.70321429 11:0.017348323 12:0.093023255 13:0.39553753 14:0.3716141 15:0.47727272 16:0.42572621 #
1 1:0 2:0 3:0 4:2.6748839e-06 5:0.14852214 6:0.60512823 7:0.54871798 8:0.36764041 9:0.43704286 10:0.42607996 11:0.01980295 12:0.07272727 13:0.125 14:0.17826851 15:0.12820514 16:0.1836796 #
1 1:0 2:0 3:0 4:0.00014204545 5:0.19501621 6:0.036809817 7:0.1411043 8:0.64081466 9:0.64558315 10:0.48197761 11:0.038892224 13:0.4649123 14:0.45777509 15:0.48672566 16:0.47429657 #
-1 1:0.00078685087 2:0.0070594624 3:0.045454547 4:0.0043821209 5:0.14213982 6:0.63048017 7:0.60055673 8:0.83300924 9:0.8290484 10:0.54381901 11:0.009654263 13:0.18813559 14:0.26460075 15:0.22456814 16:0.29743275 #
1 1:0 2:0 3:0 4:0 5:0.068217136 6:0.33333334 7:0.31967214 8:0.34460494 9:0.37275136 10:0.23789562 11:0.003809503 13:0.25136611 14:0.28164726 15:0.2793296 16:0.30312496 #
1 1:0 2:0 3:0 4:3.6002304e-05 5:0.36896276 6:0.50089926 7:0.40917265 8:0.84252036 9:0.84195894 10:0.69605446 11:0.16815411 12:0.055555556 13:0.25430211 14:0.34269246 15:0.27515399 16:0.36817634 #
-1 6:0.093229748 #
-1 1:0.022486772 2:0.12244898 3:0.033950616 4:0.00375328 5:0.17462957 6:0.26739928 7:0.35897437 8:0.83603221 9:0.830643 10:0.87040037 11:0.041552123 12:0.45238096 13:0.5 14:0.44389677 15:0.52201259 16:0.46660888 #
1 5:0.17069928 6:0.50749999 7:0.47999999 8:0.67065644 9:0.67738771 10:0.59585756 11:0.046529204 12:0.063492067 13:0.21025641 14:0.27272728 15:0.26486486 16:0.33448851 #
1 1:0 2:0 3:0 4:0.00024006002 5:0.24992499 6:0.74780816 7:0.71686435 8:0.78662544 9:0.7956357 10:0.58384591 11:0.048316851 13:0.18089725 14:0.33133641 15:0.20593081 16:0.36056459 #
1 1:0 2:0 3:0 4:0 5:0.22184397 6:0.39285713 7:0.51428574 8:0.71847022 9:0.71621174 10:0.36336553 11:0.047943145 13:0.47333333 14:0.37206444 15:0.47945204 16:0.37631145 #
-1 5:0.064264566 6:0.46749225 7:0.60526317 8:0.53973114 9:0.54455626 10:0.22613762 11:0 13:0.26086956 14:0.18486495 15:0.27826086 16:0.20256816 #
1 5:0.13866404 6:0.460177 7:0.64601767 8:0.49058193 9:0.49772713 10:0.43873101 11:0.022738367 13:0.37662336 14:0.32935479 15:0.4025974 16:0.3323358 #
1 1:0 2:0 3:0 4:0.00014985418 5:0.12169109 6:0.46808511 7:0.68085104 8:0.52426869 9:0.53033811 10:0.45817152 11:0.054173633 13:0.46808511 14:0.40338066 15:0.47872341 16:0.4102453 #
1 1:0 2:0 3:0 4:0.00013450242 5:0.3302308 6:0.23492064 7:0.15238096 8:0.7340548 9:0.74060559 10:0.66101319 11:0.13213612 13:0.34285715 14:0.37675527 15:0.37426901 16:0.39960995 #
-1 5:0.2819126 6:0.39754817 7:0.34500876 8:0.76686889 9:0.79128629 10:0.6290288 11:0.025155954 13:0.2962963 14:0.35696331 15:0.33976835 16:0.40643725 #
-1 5:0.26236418 6:0.072463766 7:0.0072463769 8:0.76703501 9:0.80682641 10:0.67180914 11:0.096392542 13:0.58227849 14:0.55700344 15:0.63513511 16:0.58915937 #
1 1:0 2:0 3:0 4:4.1020594e-05 5:0.33436456 6:0.646281 7:0.58512396 8:0.59965909 9:0.60328805 10:0.29235196 11:0.043480828 13:0.21678321 14:0.29834598 15:0.22463769 16:0.30992252 #
1 1:0 2:0 3:0 4:0.00014422523 5:0.29673722 6:0.64852607 7:0.61678004 8:0.70603919 9:0.70269066 10:0.4027622 11:0.12722948 12:0.063492067 13:0.17889908 14:0.26547202 15:0.2029703 16:0.28992829 #
1 5:0.10587139 6:0.390681 7:0.33333334 8:0.56475878 9:0.58434039 10:0.58023185 11:0.010049109 12:0.03960396 13:0.25730994 14:0.31997231 15:0.28658536 16:0.336436 #
-0.49699276180309936989942798390985 1:0.005860806 2:0.052083332 3:0.027548209 4:0.0028882576 6:0.053571429 12:0.84210527 #
0.57878678503286096201918553560972 5:0.095285371 6:0.92241377 7:1.1810344 8:0.51761949 9:0.51636535 10:0.46670645 11:0.033503518 12:0.03960396 13:0.38461539 14:0.32036164 15:0.45882353 16:0.34310997 #
-1 5:0.31062469 6:0.1 7:0.034782607 8:0.75869125 9:0.72762406 10:0.60790354 11:0.14881386 13:0.61151081 14:0.61872107 15:0.66165411 16:0.66415566 #
0.87016028012611545960908188135363 1:0 2:0 3:0 4:0.00042076383 5:0.22984877 6:0.85465115 7:0.84011626 8:0.76383895 9:0.76966953 10:0.6378243 11:0.086786531 12:0.088888891 13:0.1024735 14:0.21893184 15:0.11196911 16:0.23263362 #
1 1:6.3789344e-06 2:0 3:0 4:0.00014854426 5:0.22780164 6:0.66174662 7:0.62730628 8:0.75032568 9:0.75451303 10:0.59281844 11:0.036040828 12:0.078431375 13:0.2205438 14:0.31801623 15:0.25901639 16:0.35322809 #
1 1:0 2:0 3:0 4:0.00016687527 5:0.14008296 6:0.30952382 7:0.43452382 8:0.59961265 9:0.60322583 10:0.51469886 11:0.081411198 13:0.42307693 14:0.3784115 15:0.44999999 16:0.39931044 #
1 1:0 2:0 5:0.17811449 6:0.40774488 7:0.3644647 8:0.72230667 9:0.72964829 10:0.63674814 11:0.05519335 12:0.068965517 13:0.38425925 14:0.44724315 15:0.38785046 16:0.44170186 #
-1 5:0.38831818 6:0.07692308 7:0.0059171598 8:0.88172084 9:0.88348132 10:0.83994728 11:0.17496419 13:0.63333333 14:0.58392388 15:0.67123288 16:0.61309904 #
1 1:0 2:0 3:0 4:0.00015624249 5:0.19680066 6:0.030120483 7:0.048192769 8:0.73981363 9:0.75830001 10:0.70866412 11:0.060276568 13:0.41584158 14:0.43008602 15:0.45360824 16:0.45596468 #
-1 1:0.00047474747 2:0.005408654 3:0.13596492 4:0.0026548475 5:0.30252677 6:0.26697353 7:0.39240506 8:0.75727278 9:0.75556284 10:0.54154992 11:0.13127428 13:0.35665914 14:0.34164673 15:0.41396508 16:0.38819817 #
1 1:0 2:0 3:0 4:4.2618478e-05 5:0.22084345 6:0.12462006 7:0.059270516 8:0.84150052 9:0.84576607 10:0.76245403 11:0.078569397 12:0.075757578 13:0.42813456 14:0.47254232 15:0.47468355 16:0.50337839 #
1 1:0 2:0 3:0 4:0.00013368984 5:0.25897238 6:0.236 7:0.14399999 8:0.70675629 9:0.7098431 10:0.58263868 11:0.082878523 13:0.5 14:0.52966738 15:0.52173913 16:0.5396325 #
-1 1:0 2:0 3:0.012626262 4:0.0024923843 6:0.11928934 12:0.84615386 #
1 1:0 2:0.0007183908 3:0 4:0.00019805902 5:0.1651236 6:0.16372795 7:0.12846348 8:0.74956077 9:0.74669409 10:0.53642988 11:0.0598494 12:0.060606062 13:0.42857143 14:0.44140849 15:0.47342995 16:0.46892101 #
-1 1:0.00059232028 2:0.0046863533 3:0.059233449 4:0.0012319264 5:0.23430525 6:0.95556486 7:0.95242089 8:0.86003196 9:0.85693419 10:0.59137255 11:0.013688977 13:0.073914915 14:0.23575132 15:0.096774191 16:0.27628756 #
-1 5:0.17272241 6:0.032258064 7:0 8:0.69575125 9:0.68072945 10:0.3582119 11:0.043796789 13:0.5272727 14:0.5475598 15:0.56730771 16:0.58441627 #
-1 1:0.00038155523 2:0.0022357968 3:0.064285718 4:0.0015183893 5:0.14866547 6:2.2345417 7:2.4434967 8:0.73874247 9:0.73664212 10:0.6712786 11:0.014471245 13:0.43460765 14:0.32194915 15:0.48723406 16:0.35268772 #
-1 5:0.27809435 6:0.036437247 7:0.07692308 8:0.86378407 9:0.87483633 10:0.47060704 11:0.091821402 13:0.57763976 14:0.56829613 15:0.60927153 16:0.57935011 #
-1 1:0.00057295075 2:0.0051879701 3:0.029999999 4:0.0019545429 5:0.15319781 6:0.8770963 7:0.88284618 8:0.45204693 9:0.45341951 10:0.70975548 11:0.041081373 13:0.093724534 14:0.2168607 15:0.10373066 16:0.23131824 #
-1 1:0.0010338589 2:0.015599343 3:0.0075187972 4:0.00059220119 5:0.16765679 6:0.84460694 7:0.84186471 8:0.79992968 9:0.76817065 10:0.54507494 11:0.022970274 13:0.13773796 14:0.29261586 15:0.16862746 16:0.34015751 #
-1 5:0.21542858 6:0.025210084 7:0.1092437 8:0.78972191 9:0.79715395 10:0.83432811 11:0.077498429 13:0.62962961 14:0.60066545 15:0.66250002 16:0.62811023 #
-1 5:0.091044627 6:0.12727273 7:0.12727273 8:0.5440135 9:0.58896816 10:0.66974312 11:0.020646004 13:0.52083331 14:0.50545025 15:0.61363637 16:0.55911285 #
-1 5:0.22566773 6:0.11428571 7:0.13333334 8:0.65227586 9:0.7078774 10:0.66137296 11:0.098028615 13:0.45333335 14:0.45638612 15:0.49315068 16:0.49656352 #
-1 1:0.00050611678 2:0.0045432644 3:0.083333336 4:0.0073563219 5:0.13497414 6:0.2 7:0.15428571 8:0.78872883 9:0.80035758 10:0.58061564 11:0.01343929 13:0.26439792 14:0.31201366 15:0.31355932 16:0.34643546 #
-1 1:0.018907564 2:0.1875 3:0.028070176 4:0.0041682455 5:0.30309394 6:2.5714285 7:2.88322 8:0.88291448 9:0.88217062 10:0.46140215 11:0.059551958 12:0.44444445 13:0.6068182 14:0.35022846 15:0.65121949 16:0.36684963 #
-1 1:0.0013968254 2:0.014619883 3:0.0038461538 4:0.00086465362 5:0.24221973 6:0.82115251 7:0.79444838 8:0.79338318 9:0.79485041 10:0.55689937 11:0.039635595 13:0.13480885 14:0.27616045 15:0.15111111 16:0.29698855 #
-1 5:0.14388862 6:0.14666666 7:0.039999999 8:0.56999946 9:0.62688643 10:0.68272573 11:0.032530002 13:0.40350878 14:0.4174071 15:0.5 16:0.49559462 #
-1 1:0.00043604651 2:0.0060790274 3:0.023076924 4:0.0016315986 5:0.17198879 6:0.86209106 7:0.85760105 8:0.78302318 9:0.77917057 10:0.63207293 11:0.035614155 13:0.13534483 14:0.28754386 15:0.16768293 16:0.33468628 #
-1 1:0.00070284237 2:0.0055139139 3:0.075000003 4:0.0057454756 5:0.16788885 6:0.90417594 7:0.89953601 8:0.8209402 9:0.81685108 10:0.6021598 11:0.0076546031 13:0.088720769 14:0.2202941 15:0.11483654 16:0.2621094 #
-1 5:0.23954368 6:0.090909094 7:0.037878789 8:0.59808105 9:0.58284295 10:0.25368601 11:0.10527092 13:0.50617284 14:0.52329117 15:0.62666667 16:0.59214437 #
-1 1:0.00040799147 2:0.0031775921 3:0.061538462 4:0.0018140232 5:0.19260378 6:0.25361156 7:0.19261637 8:0.65678108 9:0.65996557 10:0.33659494 11:0.057847288 13:0.2857143 14:0.30669832 15:0.31309903 16:0.32360864 #
-1 1:0.0018990504 2:0.022941971 3:0.097222224 4:0.0037601052 5:0.10018377 6:0.26455027 7:0.21957672 8:0.75760537 9:0.74715555 10:0.4991318 11:0.0067691123 13:0.30751708 14:0.33370131 15:0.35294119 16:0.36232954 #
-1 1:0.0018084904 2:0.032196969 3:0.074074075 4:0.0063004033 5:0.19437203 6:0.21266234 7:0.17694806 8:0.82452327 9:0.82258576 10:0.42029336 11:0.027313998 13:0.27181208 14:0.2938168 15:0.32363635 16:0.3414878 #
-1 5:0.22917463 6:0.18055555 7:0.125 8:0.65214062 9:0.64530677 10:0.48320583 11:0.12428864 13:0.37288135 14:0.40505284 15:0.4107143 16:0.43907204 #
1 1:0 2:0 3:0 4:8.2297753e-05 5:0.4125641 6:0.16523464 7:0.060145408 8:0.91819823 9:0.91625303 10:0.72961646 11:0.090129502 12:0.071428575 13:0.37001899 14:0.38868862 15:0.42405063 16:0.42008129 #
-1 5:0.17627662 6:0.19117647 7:0.044117648 8:0.59361351 9:0.67249268 10:0.53823167 11:0.072098412 13:0.46000001 14:0.47527081 15:0.52083331 16:0.52083331 #
1 1:0 2:0 3:0 4:0.00016576679 5:0.33177033 6:0.40686274 7:0.42647058 8:0.74933177 9:0.7586984 10:0.58443266 11:0.12397588 13:0.33858266 14:0.49391457 15:0.37007874 16:0.52966362 #
1 1:0 2:0 3:0 4:0.00055432372 5:0.27863979 6:0.045883942 7:0.080971658 8:0.85528046 9:0.85810322 10:0.56829065 11:0.058247104 12:0.048780486 13:0.44166666 14:0.45408303 15:0.48955223 16:0.49324703 #
-1 1:0.000921659 2:0.01177394 3:0.005050505 4:0.0013360272 5:0.27314746 6:0.27714932 7:0.1979638 8:0.86051136 9:0.8631227 10:0.51761556 11:0.078688614 13:0.27990431 14:0.33358076 15:0.30690536 16:0.36332121 #
1 1:0 2:0 3:0 4:9.0612542e-05 5:0.27252519 6:0.59839815 7:0.54576659 8:0.80228686 9:0.80630714 10:0.62923223 11:0.10962188 13:0.40934065 14:0.54570717 15:0.43390805 16:0.57380033 #
-1 5:0.18232322 6:0.19642857 7:0.071428575 8:0.57835174 9:0.64968616 10:0.73514169 11:0.052185357 13:0.52564102 14:0.54787076 15:0.55844158 16:0.56583846 #
1 1:0 2:0 3:0 4:0.00010451505 5:0.27909279 6:0.58861578 7:0.55498058 8:0.85457039 9:0.85945851 10:0.67118245 11:0.1128096 12:0.07272727 13:0.32777777 14:0.44623151 15:0.35568514 16:0.4705272 #
-1 1:0.0010370918 2:0.0066750105 3:0.020833334 4:0.0019826426 5:0.27544236 6:0.89321148 7:0.8853786 8:0.81840253 9:0.84218395 10:0.83388704 11:0.048937906 13:0.11749788 14:0.27246186 15:0.14285715 16:0.3097069 #
1 1:0 2:0 3:0 4:0.00029980167 5:0.23713562 6:0.53250003 7:0.51499999 8:0.72583812 9:0.73896539 10:0.74682182 11:0.088606745 13:0.39877301 14:0.51519412 15:0.44078946 16:0.54895908 #
-1 5:0.2638 6:0.011764706 7:0.011764706 8:0.6742453 9:0.69993967 10:0.71926326 11:0.067573741 13:0.45901638 14:0.46774194 15:0.5 16:0.50421947 #
-1 5:0.17201562 6:0.2173913 7:0.16304348 8:0.67115605 9:0.67403334 10:0.53386003 11:0.067871913 13:0.59722221 14:0.62855822 15:0.6111111 16:0.65330523 #
1 1:0 2:0 3:0 4:4.2979325e-05 5:0.30444714 6:0.32481202 7:0.2781955 8:0.76090205 9:0.77139139 10:0.57278776 11:0.15510912 12:0.067567565 13:0.29392973 14:0.36352164 15:0.3447099 16:0.41413271 #
1 1:0 2:0 3:0 4:0.00015067503 5:0.22772591 6:0.17460318 7:0.079365082 8:0.71337408 9:0.72337294 10:0.66018736 11:0.086518094 13:0.41242939 14:0.45747045 15:0.4619883 16:0.50697303 #
-1 1:0.00079617836 2:0.0088117486 3:0.021505376 4:0.0017284292 5:0.31313857 6:0.82540399 7:0.81588882 8:0.89725494 9:0.89750504 10:0.8785975 11:0.027518794 13:0.18129331 14:0.35042351 15:0.21769178 16:0.39036423 #
1 1:0 2:0 3:0 4:0.000388663 5:0.26281708 6:0.40199006 7:0.3243781 8:0.84295911 9:0.84693295 10:0.67458487 11:0.096802354 13:0.45124716 14:0.52081501 15:0.5 16:0.56021976 #
-1 5:0.3202318 6:0.08374384 7:0.049261082 8:0.8635928 9:0.85677361 10:0.37094116 11:0.14438236 13:0.55924171 14:0.56482089 15:0.63546801 16:0.63236052 #
-1 5:0.29969418 6:0.17589577 7:0.10749186 8:0.79310668 9:0.76810598 10:0.36249283 11:0.1044052 13:0.52095807 14:0.54400778 15:0.60135138 16:0.59338605 #
1 1:0 2:0 3:0 4:0 5:0.24330281 6:0.30441898 7:0.22422259 8:0.81913435 9:0.81999862 10:0.83153981 11:0.070316613 12:0.039999999 13:0.40063092 14:0.44515345 15:0.44186047 16:0.48387316 #
1 1:0 2:0 3:0 4:0 5:0.16754845 6:0.10769231 7:0.010256411 8:0.57637805 9:0.5773145 10:0.24296652 11:0.0766965 13:0.34558824 14:0.35426524 15:0.36296296 16:0.36987716 #
1 1:0 2:0 3:0 4:0.00016378406 5:0.34656981 6:0.47405902 7:0.41810784 8:0.84000409 9:0.84354907 10:0.57301444 11:0.13759392 13:0.4173913 14:0.50550395 15:0.44968554 16:0.52991319 #
-1 5:0.33105704 6:0.1262136 7:0.038834952 8:0.90762156 9:0.90618771 10:0.57781273 11:0.1352274 13:0.52715653 14:0.53441709 15:0.58781362 16:0.57755429 #
1 1:0 2:0 3:0 4:7.1638373e-05 5:0.22705781 6:0.34084508 7:0.25915492 8:0.76305574 9:0.76641905 10:0.52336013 11:0.022983108 12:0.059701491 13:0.33757961 14:0.35496202 15:0.37583894 16:0.39339194 #
1 1:0 2:0 3:0 4:4.0676863e-05 5:0.34119001 6:0.34044716 7:0.2347561 8:0.88053113 9:0.87949461 10:0.6399883 11:0.099497713 12:0.064935066 13:0.39203355 14:0.46880051 15:0.42247191 16:0.49897927 #
-1 5:0.21183904 6:0.13095239 7:0.095238097 8:0.68992871 9:0.70080274 10:0.51250201 11:0.14406769 13:0.45762712 14:0.45542005 15:0.51785713 16:0.49216208 #
1 1:0 2:0 3:0 4:0.00034002867 5:0.26058355 6:0.36686391 7:0.27810651 8:0.77351314 9:0.77099276 10:0.6331659 11:0.11031532 13:0.4364641 14:0.50538331 15:0.45086706 16:0.51812661 #
-1 5:0.29603082 6:0.12598425 7:0.062992126 8:0.70781469 9:0.72267467 10:0.59339583 11:0.15254785 13:0.44318181 14:0.4990361 15:0.45882353 16:0.49510089 #
1 1:0 2:0 3:0 4:0.00047570508 5:0.19818501 6:0.14201184 7:0.082840234 8:0.77716553 9:0.78152639 10:0.70091754 11:0.065508708 12:0.050632913 13:0.4375 14:0.45621383 15:0.47222221 16:0.48831224 #
-1 1:0.00055794674 2:0.012776413 3:0.076666668 4:0.0024518678 5:0.23092234 6:0.050802138 7:0.0080213901 8:0.80689216 9:0.81094307 10:0.77186435 11:0.078221299 13:0.38987342 14:0.37933642 15:0.43010753 16:0.40820044 #
-1 5:0.1815947 6:0.14070351 7:0.035175879 8:0.72813302 9:0.73467332 10:0.62513322 11:0.081795201 13:0.50806451 14:0.50399953 15:0.57627118 16:0.55990314 #
-1 1:0.0011222593 2:0.0125 3:0.14285715 4:0.0056286552 5:0.24786258 6:0.037630662 7:0.11428571 8:0.83718342 9:0.83458042 10:0.48107746 11:0.021241397 13:0.36000001 14:0.35786697 15:0.42094457 16:0.39864787 #
-1 5:0.27914527 6:0.14492753 7:0.028985508 8:0.68700892 9:0.70003498 10:0.47879633 11:0.16675934 13:0.52542371 14:0.52102679 15:0.55172414 16:0.54245079 #
-1 5:0.34327191 6:0.18292683 7:0.14634146 8:0.70561719 9:0.7090342 10:0.49974898 11:0.15321286 13:0.47761193 14:0.5396077 15:0.5 16:0.56330073 #
-1 1:0.0045561665 2:0.018518519 3:0.023255814 4:0.002422181 6:0.16806723 12:0.84210527 #
1 1:0 2:0 3:0 4:0.00018142235 5:0.17071924 6:0.22689076 7:0.12044818 8:0.742549 9:0.75115031 10:0.73478216 11:0.059282735 13:0.42500001 14:0.47512361 15:0.46560848 16:0.50447404 #
-1 5:0.25128534 6:0.29591838 7:0.19387755 8:0.72591841 9:0.76551402 10:0.5921694 11:0.14491257 13:0.49315068 14:0.54189557 15:0.56164384 16:0.60457772 #
-1 1:0.00044482463 2:0.0068574836 3:0.11111111 4:0.0058265585 5:0.36899164 6:0.45478037 7:0.41472867 8:0.88891631 9:0.90281284 10:0.77448827 11:0.071237437 13:0.30171427 14:0.39017126 15:0.35602096 16:0.43703705 #
-1 5:0.41353667 6:0.14634146 7:0.069319643 8:0.92589653 9:0.92926878 10:0.82123464 11:0.15501606 13:0.57692307 14:0.58893132 15:0.61237782 16:0.61337763 #
1 1:1.2801474e-05 2:0 3:0 4:0.00012492255 5:0.1810509 6:0.38167939 7:0.59541982 8:0.696998 9:0.68523735 10:0.57125258 11:0.05330018 12:0.086956523 13:0.36486486 14:0.28689671 15:0.43478259 16:0.32174474 #
1 1:0 2:0 3:0 4:4.2241325e-05 5:0.17508781 6:0.11879433 7:0.024822695 8:0.80454403 9:0.8040489 10:0.64819068 11:0.018927958 12:0.084745765 13:0.35438597 14:0.36754853 15:0.40959409 16:0.41265082 #
1 1:0 2:0 3:0 4:7.498177e-05 5:0.18128704 6:0.16483517 7:0.091575094 8:0.6706813 9:0.67092627 10:0.36644077 11:0.029793978 13:0.37341774 14:0.37384811 15:0.39473686 16:0.38840038 #
-0.73545823199885873577841266524047 1:0.00472255 2:0.2 3:0.065088756 4:0.0087197777 5:0.031131383 6:0.40201005 7:0.35175881 8:0.48889604 9:0.48829558 10:0.12190443 11:0.0098771807 12:0.92307693 13:0.17467248 14:0.17740496 15:0.19736843 16:0.20277677 #
1 1:0 2:0 3:0 4:0.00013048229 5:0.18873608 6:0.086538464 7:0.22596154 8:0.7014606 9:0.71586746 10:0.56429946 11:0.064418823 13:0.49618322 14:0.45414755 15:0.53435117 16:0.48810422 #
-1 5:0.32297859 6:0.092024542 7:0.024539877 8:0.77039719 9:0.79145223 10:0.40790093 11:0.14543411 13:0.52884614 14:0.55518281 15:0.56701028 16:0.57598728 #
1 1:0 2:0 3:0 4:4.2375126e-05 5:0.26952228 6:0.4385733 7:0.334214 8:0.85059071 9:0.85073203 10:0.63560683 11:0.1225956 12:0.075757578 13:0.3897281 14:0.46640843 15:0.40836012 16:0.48010063 #
-1 1:0.0050151977 2:0.016768293 3:0.023809524 4:0.0026961567 6:0.062717773 12:0.84615386 #
1 1:0 2:0 3:0 4:0.00027210885 5:0.26030648 6:0.029947916 7:0.098958336 8:0.7367112 9:0.74235654 10:0.62359685 11:0.071895361 13:0.40634006 14:0.40734354 15:0.45045045 16:0.44448397 #
-1 5:0.33007851 6:0.10854504 7:0.027713627 8:0.8203184 9:0.82930076 10:0.53406268 11:0.1701154 13:0.48971194 14:0.50436199 15:0.53043479 16:0.53749186 #
1 1:0 3:0 4:0.0001815541 5:0.18666971 6:0.46153846 7:0.46153846 8:0.67169917 9:0.68555754 10:0.72805166 11:0.041671135 12:0.079999998 13:0.34239131 14:0.4260045 15:0.36842105 16:0.44350803 #
1 1:0 2:0.00069444446 3:0 4:0.00020814543 5:0.25362012 6:0.44329897 7:0.56701028 8:0.81849426 9:0.82805604 10:0.49831778 11:0.084364288 12:0.060606062 13:0.5 14:0.43051404 15:0.54705882 16:0.45756769 #
-1 5:0.33717564 6:0.21582733 7:0.10071942 8:0.83301163 9:0.85325521 10:0.79931134 11:0.14313698 13:0.52127659 14:0.53775877 15:0.52747256 16:0.53638816 #
1 1:0 5:0.29762983 6:0.13752277 7:0.024590164 8:0.85518819 9:0.85548735 10:0.67308962 11:0.048634548 12:0.08510638 13:0.38235295 14:0.36515597 15:0.44204852 16:0.41349852 #
-1 5:0.23897606 6:0.15555556 7:0.055555556 8:0.72811693 9:0.73296314 10:0.63928741 11:0.19332886 13:0.515625 14:0.51970112 15:0.53333336 16:0.52466065 #
1 1:0 2:0 3:0 4:1.4250698e-05 5:0.25992006 6:0.37696335 7:0.32460734 8:0.74935389 9:0.74702775 10:0.59947997 11:0.061157662 12:0.057142857 13:0.40437159 14:0.45744422 15:0.43181819 16:0.48074314 #
1 1:0 2:0 3:0 4:0.00030366459 5:0.1717179 6:0.31011826 7:0.27463862 8:0.7217294 9:0.72995263 10:0.56511968 11:0.053092767 13:0.48728815 14:0.49791232 15:0.52654868 16:0.52538759 #
1 1:0 2:0 3:0 4:0.00013347789 5:0.27374864 6:0.38753387 7:0.29268292 8:0.71992528 9:0.72503442 10:0.57408774 11:0.092309251 13:0.42331287 14:0.47229618 15:0.4556962 16:0.4876008 #
1 1:0 2:0 3:0 4:7.1523085e-05 5:0.25932813 6:0.16568047 7:0.30473372 8:0.82370806 9:0.83161563 10:0.64336389 11:0.11162911 12:0.052631579 13:0.44808742 14:0.40872556 15:0.49425286 16:0.43368021 #
-1 5:0.26440731 6:0.050000001 7:0.0625 8:0.76982421 9:0.7886337 10:0.82902038 11:0.13801311 13:0.49180329 14:0.51695395 15:0.53448278 16:0.53915083 #
1 1:0 2:0 3:0 4:0.00013662844 5:0.22736415 6:0.37254903 7:0.32107842 8:0.66109556 9:0.67239219 10:0.53380698 11:0.070866421 13:0.41573033 14:0.45971173 15:0.45086706 16:0.48582339 #
1 1:0 2:0 3:0 4:0.00028462999 5:0.16527364 6:0.10526316 7:0.030701755 8:0.69374508 9:0.69756275 10:0.58930689 11:0.040713653 13:0.45323741 14:0.45714286 15:0.46762589 16:0.47102687 #
-1 5:0.32178745 6:0.22147651 7:0.147651 8:0.81208289 9:0.82824743 10:0.82027382 11:0.15500994 13:0.51162791 14:0.53494233 15:0.54658383 16:0.55886817 #
-1 5:0.38428491 6:0.083025828 7:0.0092250919 8:0.91785604 9:0.9248544 10:0.79332757 11:0.12567437 13:0.58846152 14:0.58696616 15:0.62962961 16:0.61828405 #
-1 1:0.00054555375 2:0.015376458 3:0.010186757 4:0.0019688646 5:0.40242499 6:0.054624122 7:0.0010816657 8:0.90823978 9:0.90829396 10:0.81611484 11:0.23679322 13:0.47092199 14:0.4855046 15:0.52773374 16:0.52857208 #
-1 1:0.0012037751 2:0.0092043877 3:0.071428575 4:0.0071645682 5:0.17476755 6:0.90976489 7:0.90785849 8:0.86363697 9:0.86884451 10:0.70052463 11:0.024459582 13:0.087580763 14:0.22415419 15:0.11817368 16:0.28429466 #
1 5:0.24418399 6:0.52256942 7:0.46527779 8:0.68481147 9:0.6871714 10:0.46909052 11:0.059075784 12:0.034782607 13:0.36423841 14:0.46601987 15:0.39024389 16:0.49005112 #
-1 1:0.00027376981 2:0.0024155991 3:0.014285714 4:0.0014541558 5:0.30860466 6:0.71985477 7:0.70514047 8:0.84500366 9:0.8450197 10:0.61917222 11:0.037521109 13:0.18000001 14:0.28261358 15:0.23476298 16:0.33909577 #
1 1:6.9150556e-06 2:0 3:0 4:0.00014467593 5:0.1655688 6:0.56892776 7:0.57111597 8:0.67968684 9:0.71605289 10:0.76454365 11:0.04853886 12:0.083333336 13:0.28169015 14:0.38439682 15:0.31818181 16:0.41569898 #
-1 1:0.0011871358 2:0.016771488 3:0.042857144 4:0.0031187346 5:0.21037196 6:0.41282302 7:0.36277395 8:0.79778856 9:0.77884901 10:0.41877267 11:0.0090207532 13:0.26750973 14:0.31743437 15:0.311804 16:0.34797835 #
-1 1:0.00017907706 2:0.0033467743 3:0.063636363 4:0.002232143 5:0.16617969 6:0.87568384 7:0.87209958 8:0.78386772 9:0.78003442 10:0.63366026 11:0.02376879 13:0.099337749 14:0.21768339 15:0.12851986 16:0.25863189 #
1 1:0 2:0 3:0 4:0.0007513148 5:0.32135111 6:0.60217983 7:0.56267029 8:0.72359216 9:0.71606159 10:0.50110853 11:0.14729182 12:0.093023255 13:0.26558891 14:0.3207384 15:0.30729166 16:0.35000202 #
-1 1:0.00031298204 2:0.0038098693 3:0.041666668 4:0.0030637255 5:0.24939433 6:0.70651084 7:0.69282138 8:0.83641016 9:0.83530563 10:0.58612984 11:0.022577936 13:0.20063025 14:0.29327363 15:0.2345079 16:0.3244316 #
1 1:0 2:0 3:0 4:0.00012800819 5:0.36918676 6:0.74709302 7:0.67441863 8:0.75369966 9:0.74562311 10:0.59952909 11:0.095114432 12:0.093023255 13:0.16149068 14:0.3089115 15:0.17647059 16:0.32907259 #
-1 1:0.00018872941 2:0.0025406082 3:0.055555556 4:0.00092760409 5:0.23946278 6:0.78118545 7:0.7654537 8:0.84058493 9:0.83923078 10:0.40918776 11:0.035186864 13:0.21844059 14:0.3509855 15:0.25440452 16:0.38993979 #
1 1:0 2:0 3:0 4:4.6568486e-05 5:0.24401543 6:0.29313543 7:0.1781076 8:0.74515921 9:0.75274086 10:0.56131077 11:0.070555203 12:0.079365082 13:0.35504887 14:0.41317368 15:0.38255033 16:0.42987356 #
1 1:0 2:0 3:0 4:0 5:0.24723572 6:0.21789321 7:0.15584415 8:0.81386048 9:0.8149094 10:0.41602203 11:0.063341282 12:0.083333336 13:0.36217949 14:0.36305916 15:0.39333335 16:0.39009598 #
1 1:8.0901564e-06 2:0 3:0 4:0.00015070716 5:0.3195087 6:0.66193181 7:0.6401515 8:0.76020342 9:0.7729131 10:0.65316498 11:0.079104617 12:0.081632651 13:0.20460358 14:0.29758504 15:0.23351648 16:0.33393216 #
-1 5:0.38449705 6:0.063424945 7:0.023255814 8:0.88838935 9:0.90301257 10:0.79197353 11:0.18872775 13:0.56621003 14:0.57718265 15:0.60952383 16:0.60239464 #
-1 1:0.00045572664 2:0.0034013605 3:0.03125 4:0.0022727272 5:0.4322789 6:0.79522496 7:0.77895844 8:0.89656752 9:0.89516479 10:0.61829364 11:0.074206911 13:0.15443242 14:0.30454749 15:0.1875 16:0.34232661 #
1 1:0 2:0 3:0 4:4.376574e-05 5:0.23764364 6:0.43308395 7:0.41645885 8:0.86605948 9:0.86650687 10:0.68626511 11:0.086974546 12:0.043010753 13:0.3434535 14:0.45175993 15:0.37931034 16:0.4895221 #
-1 1:0.00029239766 2:0.018181818 3:0.0087145967 4:0.0016697263 5:0.34537318 6:0.43862522 7:0.43207857 8:0.76557225 9:0.76022345 10:0.72900414 11:0.023149345 13:0.21142857 14:0.27049255 15:0.25635594 16:0.30752289 #
1 1:0 2:0 3:0 4:0.00026694086 5:0.24398273 6:0.68545991 7:0.6439169 8:0.80923456 9:0.81070697 10:0.60174602 11:0.055153396 13:0.21951219 14:0.33857286 15:0.24299066 16:0.36959457 #
1 1:0 2:0 3:0 4:0 5:0.39211395 6:4.0438871 7:4.6551723 8:0.80742019 9:0.80944914 10:0.54846162 11:0.15636909 12:0.064516127 13:0.60159361 14:0.27976474 15:0.67372882 16:0.30748659 #
-1 1:0.0011880012 2:0.020408163 3:0.075000003 4:0.0055555557 5:0.30814117 6:0.72651356 7:0.68632567 8:0.81192476 9:0.81639028 10:0.63422686 11:0.047548998 13:0.18126889 14:0.30852854 15:0.21061644 16:0.3423754 #
-1 1:0.00041191475 2:0.0035731022 3:0.042857144 4:0.0040777619 5:0.15191105 6:0.83776957 7:0.83389491 8:0.80865175 9:0.81151557 10:0.57513827 11:0.03889621 13:0.18384224 14:0.33550581 15:0.2161572 16:0.37077004 #
-1 1:0.00051204587 2:0.005342552 3:0.16666667 4:0.0093390802 5:0.13388306 6:0.42141622 7:0.59758204 8:0.77985877 9:0.77885264 10:0.36792076 11:0.0086600641 13:0.31376517 14:0.27423638 15:0.35384616 16:0.29673448 #
1 1:8.1827702e-06 2:0 3:0 4:0.00015065128 5:0.26089275 6:0.75157517 7:0.73807383 8:0.75127286 9:0.75507438 10:0.77566564 11:0.053545401 12:0.088888891 13:0.20273973 14:0.30621418 15:0.2300885 16:0.34361568 #
-1 1:0.00046381759 2:0.0033988473 3:0.033333335 4:0.0031459224 5:0.16400996 6:0.85817385 7:0.84750551 8:0.72229254 9:0.72620642 10:0.76125526 11:0.021675456 13:0.13197026 14:0.28493884 15:0.16079295 16:0.32087991 #
1 1:0 2:0 3:0 4:0 5:0.31537583 6:0.021582734 7:0.1059516 8:0.85845166 9:0.85683441 10:0.47604302 11:0.049137454 12:0.065573767 13:0.31375581 14:0.33951953 15:0.37563452 16:0.38832617 #
1 1:0 2:0 3:0 4:0.00035697286 5:0.24800152 6:0.53846157 7:0.48290598 8:0.77730292 9:0.78160816 10:0.63047314 11:0.11164844 13:0.38260868 14:0.48781833 15:0.41818181 16:0.51869071 #
1 1:0 3:0 4:0.0012019231 5:0.28959927 6:0.66102999 7:0.64027673 8:0.78202784 9:0.78327507 10:0.80748636 11:0.048600525 12:0.090909094 13:0.23250565 14:0.32964149 15:0.25563911 16:0.35321617 #
1 1:0 2:0 3:0 4:0.00030511059 5:0.36421114 6:0.45905513 7:0.44488189 8:0.8618319 9:0.85274762 10:0.7779724 11:0.088174172 12:0.07272727 13:0.29176471 14:0.36836752 15:0.33155081 16:0.40552336 #
1 1:0 2:0 3:0 4:0.00031330701 5:0.37162039 6:0.66162789 7:0.62558138 8:0.87618113 9:0.88386261 10:0.78082567 11:0.11810886 12:0.06779661 13:0.25949368 14:0.35649252 15:0.27946126 16:0.37722987 #
1 1:0 2:0 3:0 4:0.00010117703 5:0.30120417 6:0.22666667 7:0.057142857 8:0.84723884 9:0.84989083 10:0.71065158 11:0.061317496 12:0.052631579 13:0.34496123 14:0.37306938 15:0.37751004 16:0.4016214 #
-1 1:0.00029911034 2:0.001663722 3:0.064189188 4:0.0012395803 5:0.14904918 6:0.79941648 7:0.78227574 8:0.77656549 9:0.77084821 10:0.56010014 11:0.01377175 13:0.10707804 14:0.23703 15:0.12932791 16:0.26550335 #
-1 1:0.00017054062 2:0.013833992 3:0.069444448 4:0.0039609815 5:0.29372931 6:0.75195175 7:0.72995031 8:0.88188535 9:0.85702068 10:0.55324978 11:0.022943083 13:0.16008538 14:0.27833256 15:0.19756098 16:0.31925908 #
-1 1:0.0004591032 2:0.0042939517 3:0.018181818 4:0.0018916766 5:0.27435118 6:0.82819277 7:0.81662649 8:0.80078864 9:0.80499363 10:0.68909454 11:0.057571106 13:0.15914489 14:0.32006428 15:0.17960289 16:0.34748602 #
-1 1:0.0020180438 2:0.024691358 3:0.0090497741 4:0.0021645022 5:0.30791873 6:0.63240302 7:0.59087813 8:0.89121807 9:0.87385988 10:0.89040112 11:0.056076039 13:0.25360826 14:0.3544139 15:0.3020595 16:0.40930283 #
1 1:0 2:0 3:0 4:0.00010213834 5:0.30107528 6:0.60177976 7:0.5795328 8:0.83289105 9:0.83304119 10:0.64872396 11:0.056216754 12:0.070175439 13:0.30617285 14:0.43621078 15:0.34133333 16:0.46856278 #
1 1:0 2:0 3:0 4:0.00020576132 5:0.30430168 6:0.60162604 7:0.55801922 8:0.86391634 9:0.86657333 10:0.74732763 11:0.08768592 13:0.28174603 14:0.40968588 15:0.32974139 16:0.45944497 #
1 1:8.9174246e-06 2:0 3:0 4:0.00014906547 5:0.2673527 6:0.68166089 7:0.64359862 8:0.77048361 9:0.79878545 10:0.72361195 11:0.052750438 12:0.08510638 13:0.21400778 14:0.31826404 15:0.24894515 16:0.35280672 #
-1 1:0.002129307 2:0.010808029 3:0.11111111 4:0.010557433 5:0.1438476 6:0.52876711 7:0.51050228 8:0.80408895 9:0.80777645 10:0.43639356 11:0.01402681 13:0.22931442 14:0.29291472 15:0.24935065 16:0.317141 #
-1 1:0.00049591128 2:0.0055636186 3:0.055555556 4:0.0054753609 5:0.2756916 6:0.86155838 7:0.85396999 8:0.79766059 9:0.79687917 10:0.53787309 11:0.01655644 13:0.11904762 14:0.26542303 15:0.14228617 16:0.29400691 #
1 5:0.33135554 6:0.61605841 7:0.55474454 8:0.84529001 9:0.84141517 10:0.64476693 11:0.096703067 12:0.079999998 13:0.23026316 14:0.31661278 15:0.2591241 16:0.33804157 #
-1 1:0.0014072848 2:0.008086253 3:0.057692308 4:0.0042159664 5:0.23609956 6:0.72940159 7:0.71465743 8:0.84163052 9:0.850528 10:0.75856614 11:0.038942628 13:0.23445596 14:0.35926309 15:0.26756352 16:0.39562094 #
1 1:6.1753171e-06 2:0 3:0 4:0.00015521982 5:0.2527675 6:0.70548368 7:0.68946397 8:0.79930216 9:0.81120759 10:0.64946622 11:0.034310326 12:0.090909094 13:0.22928709 14:0.34191582 15:0.27872342 16:0.39168224 #
-1 1:0.00071411964 2:0.005850065 3:0.077777781 4:0.0031682027 5:0.16792846 6:0.67693412 7:0.6482808 8:0.84930521 9:0.83969575 10:0.6902383 11:0.01182085 13:0.184375 14:0.29257625 15:0.21331058 16:0.32593 #
1 1:0 2:0 3:0 4:6.8769034e-05 5:0.19784877 6:0.57339823 7:0.50121653 8:0.7703712 9:0.77300942 10:0.67146063 11:0.041281734 12:0.078125 13:0.22810219 14:0.34696501 15:0.24708171 16:0.36698154 #
1 1:0 2:0 3:0 4:0 5:0.19015409 6:0.68614131 7:0.6630435 8:0.70658731 9:0.71304327 10:0.66296482 11:0.062673226 12:0.045977011 13:0.29836065 14:0.43301883 15:0.34999999 16:0.47979301 #
-1 1:0.00095316931 2:0.015077605 3:0.0084507046 4:0.00091907789 5:0.48598504 6:0.87925768 7:0.86163968 8:0.92039776 9:0.91812134 10:0.87788081 11:0.11102471 13:0.13752456 14:0.31188607 15:0.16686252 16:0.34680906 #
-1 1:0.00049529853 2:0.0065359478 3:0.064583331 4:0.00098814233 5:0.39289078 6:0.72415572 7:0.70456302 8:0.8957485 9:0.90307385 10:0.9084546 11:0.044200715 13:0.20064464 14:0.33845854 15:0.24137931 16:0.38192868 #
-1 1:0.0005097565 2:0.0038139536 3:0.074561402 4:0.0011045882 5:0.34035233 6:0.63450569 7:0.59743345 8:0.86422282 9:0.86940235 10:0.7996704 11:0.038316041 13:0.18121547 14:0.27695584 15:0.21905941 16:0.31611982 #
-1 1:0.00055276306 2:0.0046665664 3:0.063636363 4:0.0022604272 5:0.30020249 6:0.80488521 7:0.79370219 8:0.88799095 9:0.88478357 10:0.89219737 11:0.057280965 13:0.18259224 14:0.34060213 15:0.22824858 16:0.39334315 #
1 1:0 2:0 3:0 4:0 5:0.18794124 6:0.44957983 7:0.63445377 8:0.66983891 9:0.67213863 10:0.55556983 11:0.027378436 12:0.057971016 13:0.39628482 14:0.30472469 15:0.44186047 16:0.33425316 #
1 1:0 2:0 3:0 4:0.00069909485 5:0.29715434 6:0.76761168 7:0.74097937 8:0.86922258 9:0.8707816 10:0.59813046 11:0.027482217 12:0.095238097 13:0.18985696 14:0.29385737 15:0.23909774 16:0.34521604 #
1 1:0 2:0 3:0 4:0.0002869509 5:0.17083372 6:0.68000001 7:0.62311113 8:0.74682444 9:0.74957919 10:0.53403056 11:0.047338881 12:0.056338027 13:0.26726058 14:0.40309024 15:0.29368931 16:0.4302156 #
1 1:0 2:0.0052083335 3:0 4:0.00024305689 5:0.2231233 6:0.60416669 7:0.55338544 8:0.78573012 9:0.78960103 10:0.66349918 11:0.050515909 12:0.05882353 13:0.28939828 14:0.40637773 15:0.32537314 16:0.45147058 #
-1 1:0.00089976343 2:0.013431014 3:0.083333336 4:0.0047142855 5:0.18506175 6:0.66242516 7:0.66317368 8:0.78970563 9:0.78840679 10:0.53935039 11:0.051073171 13:0.24912281 14:0.36761653 15:0.29558542 16:0.42501238 #
1 1:0 2:0.00067204301 3:0 4:0.00019601255 5:0.32708669 6:0.35244161 7:0.30148619 8:0.85934108 9:0.86164802 10:0.69424224 11:0.060048483 12:0.056338027 13:0.28101265 14:0.33908153 15:0.30245233 16:0.35660547 #
-1 1:0.00095591543 2:0.017199017 3:0.15000001 4:0.010504202 5:0.26160508 6:0.5192802 7:0.46603012 8:0.87715864 9:0.87258238 10:0.47123086 11:0.015028457 13:0.23847926 14:0.30767044 15:0.28289473 16:0.34601888 #
-1 1:0.00035883757 2:0.0071313549 3:0.070512824 4:0.0020357238 5:0.31945527 6:0.80557615 7:0.79718727 8:0.66463655 9:0.66897011 10:0.47046968 11:0.052200019 13:0.15627466 14:0.30358908 15:0.17896679 16:0.33094624 #
1 5:0.28674158 6:0.42345276 7:0.35939196 8:0.85961831 9:0.86223102 10:0.78744119 11:0.049459573 12:0.08510638 13:0.2992126 14:0.35406765 15:0.34482759 16:0.38511419 #
-1 1:0.00036509676 2:0.011242379 3:0.083333336 4:0.0071919952 5:0.20918483 6:0.73968363 7:0.71767539 8:0.81594807 9:0.81637627 10:0.83310258 11:0.03092465 13:0.2041049 14:0.33089465 15:0.26975477 16:0.40727639 #
1 1:0 2:0 3:0 4:0.00015384231 5:0.21594743 6:0.7703436 7:0.74321878 8:0.6436727 9:0.67502964 10:0.4381074 11:0.02875768 12:0.049382716 13:0.18965517 14:0.31622776 15:0.21904762 16:0.33838168 #
1 1:0 2:0 3:0 4:0.00010754134 5:0.3658672 6:0.72131145 7:1.0655738 8:0.83101141 9:0.83175719 10:0.61109734 11:0.082581855 13:0.39370078 14:0.28116968 15:0.42399999 16:0.30792624 #
1 5:0.31779093 6:0.49092644 7:0.45033428 8:0.8180086 9:0.81805009 10:0.70495677 11:0.026051713 12:0.054054055 13:0.27038628 14:0.33510894 15:0.31259969 16:0.3641676 #
-1 1:0.00098166789 2:0.0082942657 3:0.027777778 4:0.0023758612 5:0.19483821 6:0.4267292 7:0.41852286 8:0.73755944 9:0.73679334 10:0.87549335 11:0.10020459 13:0.28749999 14:0.40757743 15:0.31999999 16:0.44038552 #
-1 1:0.00027020965 2:0.0026814574 3:0.058441557 4:0.0020944148 5:0.19177249 6:0.91133356 7:0.89846265 8:0.78715199 9:0.7829935 10:0.56234747 11:0.030009598 13:0.12513034 14:0.28980246 15:0.1502146 16:0.32900283 #
1 1:0 2:0 3:0 4:2.3298619e-05 5:0.29643273 6:0.29744279 7:0.16823688 8:0.84851712 9:0.84679133 10:0.59960723 11:0.075055979 12:0.054054055 13:0.27164179 14:0.31349361 15:0.3118971 16:0.34787366 #
1 1:0 2:0 3:0 4:0.0015991471 5:0.2277848 6:1.1285714 7:1.4153061 8:0.62771517 9:0.62392038 10:0.59439445 11:0.040866967 12:0.074074075 13:0.4332425 14:0.29239377 15:0.52522254 16:0.34435016 #
1 1:0 2:0 3:0 4:3.6551042e-05 5:0.30907515 6:0.57526368 7:0.53691274 8:0.87288713 9:0.87794852 10:0.64269143 11:0.066236094 13:0.28672987 14:0.38801455 15:0.3316583 16:0.43819255 #
-1 5:0.25385812 6:0.30693069 7:0.18811882 8:0.66431707 9:0.6882602 10:0.60532784 11:0.19830309 13:0.48648649 14:0.53404897 15:0.54166669 16:0.57906604 #
-1 1:0.00088292628 2:0.0055803573 3:0.12169312 4:0.0019941579 5:0.36598641 6:0.91826457 7:0.9073773 8:0.88191992 9:0.87872398 10:0.69795829 11:0.02969823 13:0.11091018 14:0.2814495 15:0.13907285 16:0.32621476 #
1 1:0 2:0 3:0 4:0 5:0.22630668 6:0.22173275 7:0.12041116 8:0.87134993 9:0.87225991 10:0.65097177 11:0.04181667 12:0.070175439 13:0.34770116 14:0.37539062 15:0.3799392 16:0.40055874 #
1 1:0 2:0 3:0 4:2.8426857e-05 5:0.21872477 6:0.2737686 7:0.17640321 8:0.8431918 9:0.84829265 10:0.70359606 11:0.048579261 12:0.075757578 13:0.33093524 14:0.38319767 15:0.37595907 16:0.42222905 #
-1 5:0.27900574 6:0.1659292 7:0.090707965 8:0.69213009 9:0.66972989 10:0.5215711 11:0.1317104 13:0.64245808 14:0.62674129 15:0.69512194 16:0.66535956 #
1 1:0 2:0 3:0 4:0.00035635897 5:0.28375503 6:0.86968523 7:0.85643291 8:0.79204631 9:0.79894567 10:0.55923539 11:0.074576616 12:0.075471699 13:0.15327103 14:0.29822174 15:0.18776371 16:0.33716476 #
1 5:0.37938866 6:0.89339465 7:0.87834448 8:0.85306901 9:0.85013515 10:0.70773405 11:0.084478922 12:0.06666667 13:0.13722628 14:0.29327765 15:0.1638796 16:0.32398862 #
-1 5:0.42147079 6:0.24166666 7:0.10833333 8:0.85885745 9:0.86050004 10:0.79306662 11:0.1380668 13:0.53658539 14:0.57263714 15:0.53086418 16:0.57105368 #
1 5:0.21141554 6:0.14655173 7:0.0057471264 8:0.80043674 9:0.79674101 10:0.60010433 11:0.087799005 12:0.05479452 13:0.36000001 14:0.40856317 15:0.40314135 16:0.43639547 #
-1 1:0.0045955884 2:0.018518519 3:0.023255814 4:0.002422181 6:0.16806723 12:0.84210527 #
-1 5:0.23742458 6:0.13114753 7:0.032786883 8:0.64671111 9:0.66035551 10:0.5294075 11:0.078446455 13:0.56 14:0.59029186 15:0.5714286 16:0.59628481 #
1 1:0 2:0 3:0 4:0.00032463318 5:0.32046685 6:0.87800586 7:0.87155426 8:0.71704578 9:0.72947413 10:0.76020116 11:0.07966876 12:0.068965517 13:0.12920354 14:0.28046 15:0.14770459 16:0.31379887 #
-1 1:0.00036770379 2:0.010699589 3:0.06198347 4:0.0023188405 5:0.29231131 6:0.29624277 7:0.21098267 8:0.85069907 9:0.85343796 10:0.84537542 11:0.07452137 13:0.29268292 14:0.33804342 15:0.33717579 16:0.38224274 #
-1 1:0.00082161324 2:0.0057762749 3:0.035714287 4:0.0032213531 5:0.53059441 6:0.59567451 7:0.54252201 8:0.88507122 9:0.88717663 10:0.72205234 11:0.15375751 13:0.22415669 14:0.32114869 15:0.26826197 16:0.36326656 #
-1 1:0.00025218658 2:0.0021248774 3:0.021551725 4:0.0014774916 5:0.26003823 6:0.40154439 7:0.40218791 8:0.86256135 9:0.86015123 10:0.78884655 11:0.09946128 13:0.36134455 14:0.44740167 15:0.41044775 16:0.49005672 #
1 5:0.29889885 6:0.44444445 7:0.35978836 8:0.81348217 9:0.81472635 10:0.7214821 11:0.088083036 12:0.028776979 13:0.34299517 14:0.4234415 15:0.37948719 16:0.45608681 #
1 1:0 2:0.00067750679 3:0 4:0.00018429557 5:0.24344864 6:0.52196836 7:0.46748683 8:0.87618077 9:0.88021535 10:0.72338825 11:0.060711592 12:0.068965517 13:0.32974911 14:0.42621377 15:0.35955057 16:0.45737627 #
1 1:0 2:0 3:0 4:0.00071556348 5:0.36565551 6:0.45982143 7:0.38474026 8:0.81623048 9:0.81675822 10:0.70285898 11:0.05508006 12:0.070175439 13:0.31707317 14:0.3665235 15:0.37058824 16:0.41094482 #
-1 5:0.19239444 6:0.13636364 7:0.125 8:0.63245553 9:0.68316489 10:0.6823436 11:0.082918502 13:0.49230769 14:0.51176631 15:0.60317463 16:0.61298299 #
1 1:2.9807148e-05 2:0 3:0 4:0.00082599121 5:0.19581614 6:0.37666667 7:0.30777779 8:0.85030478 9:0.85595769 10:0.67416459 11:0.068107434 13:0.3632184 14:0.43301463 15:0.40942928 16:0.46457866 #
1 5:0.22586241 6:0.46910995 7:0.4104712 8:0.81635118 9:0.82105809 10:0.49869651 11:0.099717505 12:0.056338027 13:0.34016395 14:0.42626691 15:0.375 16:0.45952699 #
1 1:0 2:0.00066666666 3:0 4:0.00021640807 5:0.21874608 6:0.44526628 7:0.39349112 8:0.8249374 9:0.83160353 10:0.79528904 11:0.063897021 12:0.065573767 13:0.30434781 14:0.3934648 15:0.33108109 16:0.41543329 #
-1 5:0.27120143 6:0.080808081 7:0.02020202 8:0.69448245 9:0.75218046 10:0.72777766 11:0.10591167 13:0.5714286 14:0.5656383 15:0.55882353 16:0.54688996 #
-1 1:0.00038606726 2:0.010727311 3:0.039999999 4:0.002063185 5:0.28224474 6:0.59213573 7:0.5705474 8:0.87705576 9:0.88611209 10:0.83395183 11:0.062709808 13:0.29636362 14:0.42454809 15:0.35095137 16:0.46975949 #
-1 1:0.00082145643 2:0.021367522 3:0.11111111 4:0.0048247562 5:0.25342259 6:0.58201987 7:0.57092822 8:0.84887695 9:0.85043293 10:0.50548238 11:0.063155867 13:0.2715655 14:0.37485725 15:0.29963899 16:0.39800486 #
1 5:0.26419064 6:0.60506642 7:0.56893688 8:0.77740324 9:0.78663617 10:0.70432401 11:0.028867729 12:0.086956523 13:0.28675401 14:0.36032689 15:0.35581788 16:0.41785046 #
-1 1:0.00058680953 2:0.022544283 3:0.050000001 4:0.0045351475 5:0.28672788 6:0.28092244 7:0.256464 8:0.88375753 9:0.8881548 10:0.58138758 11:0.095414653 13:0.40556368 14:0.46098113 15:0.46310833 16:0.50866908 #
1 1:0 2:0 3:0 4:0.00032602114 5:0.27484649 6:0.51688695 7:0.45521292 8:0.78531855 9:0.79648685 10:0.68899256 11:0.070016012 13:0.30914825 14:0.40960908 15:0.34006733 16:0.43927163 #
-1 1:0.000715476 2:0.0059288535 3:0.071428575 4:0.0056320401 5:0.31719983 6:0.50285715 7:0.48263738 8:0.89960271 9:0.89697373 10:0.90167397 11:0.037501492 13:0.2820513 14:0.36918926 15:0.33138686 16:0.41584927 #
-1 1:0.00039054954 2:0.0054651834 3:0.090909094 4:0.0048363097 5:0.32422194 6:0.72302157 7:0.721223 8:0.82883918 9:0.83055609 10:0.66026849 11:0.06303665 13:0.17230769 14:0.28634709 15:0.20811288 16:0.31921402 #
1 1:0 2:0 3:0 4:8.9841204e-05 5:0.25932664 6:0.24107143 7:0.14285715 8:0.7728129 9:0.77387303 10:0.6160183 11:0.077720083 12:0.052631579 13:0.35164836 14:0.38104689 15:0.37078652 16:0.40391344 #
-1 1:0.00077596045 2:0.0092316857 3:0.10416666 4:0.0050515258 5:0.3982738 6:0.49658313 7:0.67767656 8:0.87258458 9:0.87556738 10:0.57980466 11:0.057464991 13:0.34396356 14:0.28892952 15:0.40193704 16:0.33600003 #
-1 1:0.00090034783 2:0.0094191525 3:0.0625 4:0.0033283699 5:0.32108539 6:0.89139742 7:0.88030362 8:0.85067123 9:0.84704769 10:0.68416142 11:0.039672572 13:0.086911537 14:0.22852027 15:0.10828403 16:0.26746556 #
1 1:0 2:0 3:0 4:0 5:0.2467005 6:0.50615114 7:0.45518455 8:0.77933955 9:0.78427219 10:0.58988249 11:0.061023202 12:0.051948052 13:0.3037037 14:0.39087525 15:0.33464566 16:0.43259379 #
-1 5:0.29001895 6:0.072625697 7:0.011173184 8:0.83049762 9:0.82939231 10:0.67353618 11:0.17308047 13:0.58928573 14:0.55709672 15:0.60714287 16:0.57935846 #
1 1:6.465963e-06 2:0 3:0 4:0.00014854426 5:0.34629712 6:0.80327868 7:0.78343397 8:0.77078444 9:0.7727403 10:0.58165723 11:0.061735395 12:0.083333336 13:0.14004377 14:0.25669453 15:0.16747573 16:0.29257256 #
-1 1:0.00039761903 2:0.0050179213 3:0.050000001 4:0.0038036809 5:0.39930087 6:0.90234965 7:0.8978228 8:0.81895322 9:0.8158592 10:0.57952505 11:0.05119063 13:0.10989867 14:0.26127198 15:0.13471971 16:0.30484694 #
1 1:0 2:0 3:0 4:0 5:0.2153613 6:0.29625779 7:0.2016632 8:0.82901782 9:0.83119148 10:0.69764608 11:0.054294206 12:0.056338027 13:0.31458333 14:0.36629891 15:0.36263737 16:0.40882432 #
1 1:0 2:0 3:0 4:0.00016777912 5:0.2787911 6:0.27888447 7:0.20717132 8:0.82503885 9:0.8286882 10:0.56782264 11:0.045221627 13:0.34025973 14:0.39893162 15:0.3787466 16:0.42904097 #
-1 1:0.0009931539 2:0.0094366195 3:0.06666667 4:0.0037615742 5:0.2866286 6:0.75133687 7:0.74123591 8:0.91262031 9:0.91085172 10:0.72816253 11:0.031534925 13:0.17413355 14:0.3170726 15:0.20676328 16:0.35606632 #
1 1:0 2:0 3:0 4:0.00012001485 5:0.16655964 6:0.55791962 7:0.53191489 8:0.61994803 9:0.62822604 10:0.56677282 11:0.030214721 13:0.30805686 14:0.41910198 15:0.32843137 16:0.44524416 #
-1 5:0.35380307 6:0.066265061 7:0.018072288 8:0.76367933 9:0.76830322 10:0.47464103 11:0.19050814 13:0.54285717 14:0.54976922 15:0.57843137 16:0.58418703 #
1 1:0 2:0 3:0 4:6.8320012e-05 5:0.16500188 6:0.48755491 7:0.39970717 8:0.76042026 9:0.76334149 10:0.58298826 11:0.031973206 12:0.03508772 13:0.32463768 14:0.40472892 15:0.35951662 16:0.43998393 #
-1 1:0.00080781657 2:0.006289308 3:0.13333334 4:0.012400794 5:0.1663263 6:0.9195354 7:0.9182682 8:0.69630224 9:0.69280052 10:0.44276774 11:0.067227148 13:0.077683613 14:0.21062505 15:0.091603056 16:0.23314771 #
1 1:0 2:0 3:0 4:0.00058339053 5:0.29217747 6:0.38566554 7:0.30034131 8:0.8679387 9:0.8705107 10:0.57867861 11:0.074824557 13:0.3659218 14:0.42135477 15:0.39513677 16:0.44794574 #
-1 5:0.3490535 6:0.03586207 7:0.04551724 8:0.86518377 9:0.8651219 10:0.71732438 11:0.13023005 13:0.56273764 14:0.56013334 15:0.63135594 16:0.60619211 #
-1 5:0.27595186 6:0.16826923 7:0.1201923 8:0.76858562 9:0.78632265 10:0.65730834 11:0.11785522 13:0.5703125 14:0.5890162 15:0.59166664 16:0.60971731 #
1 1:7.5152934e-06 2:0 3:0 4:0.00016169455 5:0.32188347 6:0.92039311 7:0.91400492 8:0.76834995 9:0.77365321 10:0.66360223 11:0.040653724 12:0.075471699 13:0.10291859 14:0.24702738 15:0.12765957 16:0.28906572 #
1 1:0.00017507003 2:0 3:0 4:6.6907531e-05 5:0.22520152 6:0.34708393 7:0.27169275 8:0.71493578 9:0.71413761 10:0.72403693 11:0.041701168 12:0.059701491 13:0.28070176 14:0.31769302 15:0.32089552 16:0.35579744 #
-1 1:0.0014981825 2:0.012366738 3:0.10227273 4:0.0039124838 5:0.20723343 6:0.83022147 7:0.81893182 8:0.84546989 9:0.83422214 10:0.60334414 11:0.033551827 13:0.16116248 14:0.29365978 15:0.18251534 16:0.31564209 #
-1 5:0.31454283 6:0.24074075 7:0.1388889 8:0.84491146 9:0.85399026 10:0.68993211 11:0.18144369 13:0.58974361 14:0.61382461 15:0.60000002 16:0.621059 #
1 1:0 2:0 3:0 4:0.00015975717 5:0.31257746 6:0.31051874 7:0.22190201 8:0.90126193 9:0.89760011 10:0.61285663 11:0.04347109 12:0.095238097 13:0.29191321 14:0.31914461 15:0.32026145 16:0.34523311 #
-1 1:0.00032210269 2:0.0056200824 3:0.0625 4:0.0046669906 5:0.34909195 6:0.8864671 7:0.88053524 8:0.91231734 9:0.91227114 10:0.79192495 11:0.070736043 13:0.12487611 14:0.27215916 15:0.15389186 16:0.30696404 #
1 1:0 2:0 3:0 4:0.00027566109 5:0.22048706 6:0.4686411 7:0.44773519 8:0.74411643 9:0.74883962 10:0.65336943 11:0.070107102 13:0.30169493 14:0.40379888 15:0.31914893 16:0.42107597 #
-1 1:0.0008957042 2:0.012387387 3:0.055555556 4:0.0045955884 5:0.26567897 6:0.91300827 7:0.90835524 8:0.79885083 9:0.79512209 10:0.64731508 11:0.09745647 13:0.13132022 14:0.33833387 15:0.14742015 16:0.35803831 #
-1 5:0.31825867 6:0.24444444 7:0.14444445 8:0.77451664 9:0.79710591 10:0.60056281 11:0.12463988 13:0.58730161 14:0.60688365 15:0.59016395 16:0.60523438 #
1 1:0 2:0 3:0 4:0.00030940594 5:0.25395626 6:0.63884431 7:0.576244 8:0.73487324 9:0.73451304 10:0.44015786 11:0.049932621 12:0.057971016 13:0.29477611 14:0.38886544 15:0.30980393 16:0.40943086 #
-1 5:0.22988543 6:0.30769232 7:0.25 8:0.56632787 9:0.59906471 10:0.76597571 11:0.13538259 13:0.46835443 14:0.51240838 15:0.47999999 16:0.52372295 #
-1 1:0.00088559254 2:0.0074605453 3:0.073891625 4:0.0017645253 5:0.34800953 6:0.8834855 7:0.87495035 8:0.85949147 9:0.85793781 10:0.60999012 11:0.029686788 13:0.11813187 14:0.2860747 15:0.14152542 16:0.31986701 #
1 1:0 2:0 3:0 4:0.00031933052 5:0.19876844 6:0.50264549 7:0.42592594 8:0.78978938 9:0.79570591 10:0.65125066 11:0.053303655 13:0.33933935 14:0.43087953 15:0.38311687 16:0.45962089 #
1 1:0 2:0 3:0 4:0.00040255536 5:0.25583136 6:0.72463769 7:0.68888891 8:0.71723676 9:0.71932346 10:0.51615745 11:0.033132169 13:0.20090294 14:0.3152127 15:0.22434367 16:0.33854151 #
1 1:0 2:0 3:0 4:0.00028824221 5:0.23203352 6:0.60852712 7:0.56976742 8:0.85945487 9:0.86675996 10:0.66194475 11:0.063333012 13:0.2918455 14:0.40005538 15:0.32258064 16:0.433788 #
1 1:0 2:0 3:0 4:0.00033844274 5:0.23831517 6:0.90469611 7:0.89848065 8:0.71736562 9:0.72783083 10:0.58079952 11:0.036332183 12:0.083333336 13:0.10738255 14:0.26381642 15:0.12967581 16:0.29592782 #
-1 1:0.00065984821 2:0.008547009 3:0.10714286 4:0.0078492938 5:0.33907306 6:0.76497394 7:0.73480904 8:0.87039179 9:0.87223792 10:0.38727036 11:0.02598531 13:0.16195373 14:0.29534733 15:0.19969513 16:0.33688673 #
1 1:0 2:0 3:0 4:0.00017195084 5:0.23794053 6:0.62288928 7:0.56660414 8:0.74935681 9:0.74698842 10:0.50024569 11:0.089578167 13:0.29237288 14:0.38514444 15:0.31034482 16:0.41143528 #
-1 1:0.00054339948 2:0.0095254015 3:0.096000001 4:0.0021672125 5:0.33123088 6:0.79647595 7:0.78321123 8:0.84737825 9:0.84211236 10:0.62358868 11:0.022376798 13:0.13782816 14:0.25588819 15:0.16478077 16:0.28953326 #
1 1:0 2:0 3:0 4:0.00016223711 5:0.20555556 6:0.38734177 7:0.30886075 8:0.81848776 9:0.82334286 10:0.65711719 11:0.055114686 12:0.039999999 13:0.33495146 14:0.40800568 15:0.36318409 16:0.42468426 #
1 1:0 2:0.004901961 3:0 4:0.00024536074 5:0.24416675 6:0.31225297 7:0.2173913 8:0.77368289 9:0.77386683 10:0.52704054 11:0.046956111 12:0.05952381 13:0.27651516 14:0.33134839 15:0.30522087 16:0.34227985 #
-1 1:0.00088795606 2:0.013726836 3:0.10714286 4:0.0077639753 5:0.30077818 6:0.82289904 7:0.79554427 8:0.85832596 9:0.8614319 10:0.67849249 11:0.025255997 13:0.12648946 14:0.26336607 15:0.15836102 16:0.31042612 #
-1 5:0.32763326 6:0.11538462 7:0.069230773 8:0.72985208 9:0.77283949 10:0.77133924 11:0.12796198 13:0.52222222 14:0.54457891 15:0.54651165 16:0.55968249 #
1 1:0 2:0 3:0 4:0.00018273183 5:0.23243029 6:0.47884941 7:0.40609136 8:0.78677815 9:0.79212403 10:0.58996105 11:0.055618368 12:0.045977011 13:0.29310346 14:0.37369412 15:0.31159419 16:0.39471141 #
-1 1:0.0022381986 2:0.021088436 3:0.083333336 4:0.0066142092 5:0.2535426 6:0.43888572 7:0.39624786 8:0.91094446 9:0.90572822 10:0.78551859 11:0.045378149 13:0.32175228 14:0.40195209 15:0.3581315 16:0.43432033 #
1 1:0 2:0 3:0 4:0.00016714798 5:0.19245324 6:0.68327975 7:0.63665593 8:0.68411815 9:0.69003391 10:0.48034206 11:0.038857076 13:0.23843417 14:0.35379258 15:0.2527881 16:0.36790094 #
-1 5:0.36226022 6:0.082851641 7:0.01734104 8:0.86318278 9:0.86886066 10:0.66930419 11:0.15073888 13:0.57768923 14:0.56604457 15:0.61016947 16:0.60632789 #
-1 1:0.00058520597 2:0.0068421052 3:0.057142857 4:0.0045871558 5:0.39529526 6:0.88719839 7:0.87757045 8:0.88745445 9:0.88031179 10:0.61304158 11:0.080527239 13:0.14754952 14:0.32084543 15:0.19420095 16:0.38065213 #
1 1:0 2:0 3:0 4:0.00022250933 5:0.17547621 6:0.45861298 7:0.4720358 8:0.70561242 9:0.71028072 10:0.53067541 11:0.04914308 13:0.31538463 14:0.43447709 15:0.33603239 16:0.45966628 #
1 1:0 2:0 3:0 4:0 5:0.19934675 6:0.38047138 7:0.28619528 8:0.79676592 9:0.80227518 10:0.54449403 11:0.063561551 12:0.052631579 13:0.32748538 14:0.3897624 15:0.36363637 16:0.41946763 #
1 1:0 2:0 3:0 4:1.8616196e-05 5:0.24137506 6:0.22755417 7:0.13312693 8:0.69326407 9:0.69316286 10:0.52278823 11:0.037572555 13:0.32268369 14:0.33549064 15:0.35099337 16:0.35942325 #
-1 1:0.00038530378 2:0.0072142063 3:0.13076924 4:0.00087643228 5:0.25867191 6:0.93099451 7:0.9266454 8:0.83747667 9:0.85332257 10:0.80445069 11:0.013583544 13:0.086438149 14:0.24617378 15:0.097165994 16:0.26025751 #
0.54596251460271361111153964884579 1:0 2:0 3:0 4:0 5:0.14444473 6:0.085536547 7:0.040435459 8:0.646851 9:0.65225399 10:0.45411789 11:0.026579039 13:0.35737705 14:0.35787314 15:0.39041096 16:0.38325879 #
-1 5:0.31844693 6:0.15189873 7:0.012658228 8:0.7072739 9:0.75656408 10:0.66624129 11:0.15041421 13:0.59322035 14:0.59024328 15:0.59649122 16:0.59132671 #
1 1:0 2:0.0021367522 3:0 4:0.00023390641 5:0.168448 6:0.51890481 7:0.45110822 8:0.77175331 9:0.77420425 10:0.65397924 11:0.03538812 12:0.057142857 13:0.29442972 14:0.38432747 15:0.33426967 16:0.42140332 #
1 1:0 2:0 3:0 4:0.00023570412 5:0.2155937 6:0.45567867 7:0.41551247 8:0.77401662 9:0.77278346 10:0.57891458 11:0.051940542 13:0.29830509 14:0.36463648 15:0.33333334 16:0.4029254 #
-1 1:0.000709354 2:0.0063270605 3:0.16666667 4:0.010416667 5:0.16830987 6:0.66693103 7:0.65107059 8:0.77463859 9:0.7786299 10:0.61435437 11:0.02928457 13:0.18367347 14:0.27207291 15:0.21252796 16:0.3008967 #
1 1:0 2:0 3:0 4:0 5:0.20285498 6:0.4255583 7:0.36476427 8:0.78812212 9:0.79318297 10:0.60500485 11:0.040703874 13:0.32378224 14:0.39182034 15:0.35365853 16:0.41517633 #
-1 5:0.33807045 6:0.15831135 7:0.10026385 8:0.85474277 9:0.85987163 10:0.67446071 11:0.15368256 13:0.56603771 14:0.5762493 15:0.64321607 16:0.64647287 #
-1 5:0.352456 6:0.099650353 7:0.048951048 8:0.87020725 9:0.87964445 10:0.85170633 11:0.14953473 13:0.58536583 14:0.60971075 15:0.61742425 16:0.63702989 #
-1 1:0.0053872052 2:0.02077922 3:0.023391813 4:0.0027144686 6:0.06235012 12:0.85714287 #
-1 5:0.40445158 6:0.068041235 7:0.0041237115 8:0.90328562 9:0.90955925 10:0.78440398 11:0.13367251 13:0.57939917 14:0.56160372 15:0.62616825 16:0.59753585 #
-1 5:0.18913075 6:0.43661973 7:0.3943662 8:0.81395048 9:0.82076341 10:0.45113617 11:0.05315553 12:0.5945946 13:0.34242424 14:0.42621788 15:0.37223974 16:0.45843655 #
1 1:0 2:0 3:0 4:2.8360748e-05 5:0.2333421 6:0.23927765 7:0.10609481 8:0.7654798 9:0.7657215 10:0.65324593 11:0.085860342 13:0.38938054 14:0.42854878 15:0.43192488 16:0.4647176 #
-1 1:0.00038231956 2:0.0069404282 3:0.050000001 4:0.0035860091 5:0.35718399 6:0.69377989 7:0.67344499 8:0.92846519 9:0.92556679 10:0.8247115 11:0.097980671 13:0.26163393 14:0.41305369 15:0.29341316 16:0.44257799 #
-1 1:0.00046642387 2:0.0084292209 3:0.13333334 4:0.011322464 5:0.28574282 6:0.9230383 7:0.92069602 8:0.89997745 9:0.892187 10:0.79904842 11:0.029596353 13:0.094420604 14:0.24712981 15:0.11575092 16:0.2801643 #
1 5:0.32572219 6:0.18858041 7:0.11943426 8:0.86592835 9:0.86546898 10:0.61782461 11:0.029819002 12:0.083333336 13:0.38483965 14:0.38391778 15:0.43108973 16:0.42012382 #
1 1:0 2:0 5:0.35721746 6:0.72780633 7:0.68011737 8:0.85870409 9:0.85840243 10:0.65862304 11:0.059505295 12:0.0625 13:0.20558882 14:0.32078606 15:0.23362446 16:0.35005474 #
-1 1:0.00067255151 2:0.0051759835 3:0.11428571 4:0.0072514294 5:0.23110922 6:0.79620427 7:0.78490734 8:0.80368555 9:0.80658108 10:0.75700045 11:0.054289892 13:0.18757613 14:0.32962462 15:0.21388888 16:0.35940522 #
1 1:0 2:0 3:0 4:0.00030108725 5:0.26107949 6:0.39351198 7:0.33850494 8:0.80298817 9:0.80492359 10:0.58603048 11:0.053423572 13:0.37058824 14:0.44409418 15:0.41666666 16:0.48010045 #
-1 5:0.41047943 6:0.1295972 7:0.012259195 8:0.87817454 9:0.87733614 10:0.64681566 11:0.1456238 13:0.56837606 14:0.56390542 15:0.5925926 16:0.57678729 #
-1 5:0.36018488 6:0.14021164 7:0.082010582 8:0.86475378 9:0.8704474 10:0.69154024 11:0.14473727 13:0.57692307 14:0.60322148 15:0.61363637 16:0.63184911 #
1 1:4.0963459e-05 2:0 3:0 4:0.00028730129 5:0.091885462 6:0.8886894 7:0.89587075 8:0.49958059 9:0.50108796 10:0.65420812 11:0.017055919 12:0.08510638 13:0.087719299 14:0.22715543 15:0.095693782 16:0.24082406 #
-1 1:0.00058555225 2:0.021621622 3:0.10769231 4:0.003700658 5:0.33570617 6:0.7661221 7:0.73918027 8:0.90657294 9:0.90382791 10:0.58224654 11:0.025776759 13:0.18166091 14:0.32054037 15:0.20874752 16:0.3460826 #
-1 1:0.0047592386 2:0.022058824 3:0.030769231 4:0.0026483526 6:0.062240664 12:0.84210527 #
1 1:0 2:0 3:0 4:0.00036109774 5:0.22652845 6:0.35555556 7:0.27407408 8:0.80308539 9:0.80609268 10:0.63737851 11:0.091505222 13:0.3649289 14:0.41820097 15:0.40703517 16:0.44300011 #
-1 1:0.00061426457 2:0.0068530701 3:0.125 4:0.0077963769 5:0.33678612 6:0.84027779 7:0.82738096 8:0.85356581 9:0.84661955 10:0.58412552 11:0.028366972 13:0.12994012 14:0.24968453 15:0.16867469 16:0.29437825 #
-1 5:0.41997832 6:0.19645494 7:0.10635155 8:0.94020778 9:0.94307411 10:0.74218512 11:0.19409299 13:0.5615142 14:0.58648682 15:0.6082474 16:0.62008005 #
1 1:0 2:0 3:0 4:0.00021475118 5:0.2320544 6:0.36056644 7:0.29084969 8:0.77413452 9:0.77601343 10:0.61552495 11:0.082179211 13:0.40170941 14:0.46662647 15:0.42433235 16:0.48309708 #
1 1:0 2:0 3:0 4:6.9415524e-05 5:0.26966351 6:0.16345347 7:0.27074602 8:0.84236383 9:0.83794111 10:0.68315673 11:0.028748948 12:0.090909094 13:0.43982494 14:0.4015201 15:0.49757281 16:0.43746331 #
-1 5:0.45441625 6:0.17046688 7:0.058631923 8:0.92328596 9:0.92735314 10:0.75750142 11:0.17052764 13:0.5520581 14:0.5770793 15:0.58441556 16:0.60860842 #
1 1:7.0674873e-06 2:0 3:0 4:0.00015288766 5:0.30618832 6:0.59889096 7:0.5813309 8:0.8469283 9:0.84022641 10:0.70244825 11:0.044632975 12:0.088888891 13:0.21645021 14:0.31427255 15:0.23953488 16:0.33564559 #
1 1:0 2:0 3:0 4:0.00013266999 5:0.26120397 6:0.12332439 7:0.30294907 8:0.81830525 9:0.82174748 10:0.61000377 11:0.094605841 12:0.057971016 13:0.35643566 14:0.34474424 15:0.39195979 16:0.36618507 #
-1 1:0.00042483956 2:0.0079223607 3:0.03409091 4:0.0022921863 5:0.40426925 6:0.68938071 7:0.66258979 8:0.92428643 9:0.92295462 10:0.86929703 11:0.11563449 13:0.29378173 14:0.43139255 15:0.33333334 16:0.466993 #
1 5:0.28633714 6:0.78181821 7:0.7612648 8:0.80361289 9:0.79786956 10:0.55153304 11:0.078382775 12:0.075471699 13:0.18415418 14:0.32556862 15:0.22434367 16:0.37247664 #
-1 1:0.00069033285 2:0.0031846159 3:0.041666668 4:0.0034591195 5:0.42584956 6:0.7988447 7:0.78083587 8:0.892784 9:0.89438504 10:0.73941135 11:0.11927187 13:0.21611375 14:0.39576849 15:0.24728851 16:0.43136814 #
1 1:7.48503e-06 2:0 3:0 4:0.00015129508 5:0.27968088 6:0.78012049 7:0.76606429 8:0.82141685 9:0.82028133 10:0.65495294 11:0.082243964 12:0.1 13:0.1521197 14:0.27658182 15:0.17886178 16:0.31496134 #
1 1:0 2:0 3:0 4:0.00017799929 5:0.38642409 6:0.75628078 7:0.73556072 8:0.90381718 9:0.90222508 10:0.49204922 11:0.043489784 12:0.068965517 13:0.17103235 14:0.29294443 15:0.21107267 16:0.3417367 #
1 1:6.3426019e-06 2:0 3:0 4:0.0001516781 5:0.28302872 6:0.65781713 7:0.6238938 8:0.83688104 9:0.83849645 10:0.75300896 11:0.033741295 12:0.078431375 13:0.22857143 14:0.33749959 15:0.24714829 16:0.35565886 #
-1 1:0.00038590172 2:0.0092753619 3:0.07692308 4:0.0041243653 5:0.41817781 6:0.77403569 7:0.74496257 8:0.88392919 9:0.88460124 10:0.62979347 11:0.052931726 13:0.18482344 14:0.33193162 15:0.21648626 16:0.37279865 #
1 1:0 2:0 3:0 4:0 5:0.1940258 6:0.49382716 7:0.3888889 8:0.69741237 9:0.69986004 10:0.69124377 11:0.027242068 13:0.36464089 14:0.44783086 15:0.38728324 16:0.48349309 #
-1 1:0.0052677789 2:0.017857144 3:0.026936026 4:0.0028997515 6:0.076363638 12:0.86666667 #
-1 1:0.000146616 2:0.0011162589 3:0.03125 4:0.00074257428 5:0.46597931 6:0.62219226 7:0.60182691 8:0.92889929 9:0.92636687 10:0.88317943 11:0.10877173 13:0.26718405 14:0.3836287 15:0.32091504 16:0.43597192 #
-1 1:0.001311571 2:0.012820513 3:0.06666667 4:0.0051703164 5:0.38836959 6:0.37971014 7:0.33043477 8:0.76167297 9:0.76590544 10:0.40870818 11:0.18553226 13:0.34523809 14:0.40148622 15:0.35220125 16:0.40290377 #
-1 1:0.00038053712 2:0.0053154146 3:0.1038961 4:0.0044444446 5:0.28994262 6:0.89435649 7:0.89280796 8:0.89336032 9:0.89836514 10:0.8237446 11:0.10887409 13:0.16541865 14:0.35271409 15:0.19787408 16:0.39558646 #
1 1:0 2:0 3:0 4:7.0746377e-05 5:0.33553606 6:0.33271605 7:0.26234567 8:0.92379731 9:0.92534173 10:0.5403834 11:0.027955718 12:0.063492067 13:0.27884614 14:0.33265075 15:0.32751092 16:0.37078467 #
1 1:0 2:0 3:0 4:0.00035977692 5:0.29335007 6:0.68947369 7:0.64736843 8:0.79551363 9:0.78881472 10:0.58806145 11:0.060171999 12:0.081632651 13:0.24017467 14:0.30717149 15:0.26511627 16:0.33707753 #
-1 1:0.0016514228 2:0.01978022 3:0.036458332 4:0.0030245297 5:0.38833192 6:0.54481369 7:0.51359516 8:0.87691522 9:0.88060164 10:0.73009878 11:0.17205532 13:0.36585367 14:0.47327796 15:0.40476191 16:0.51334769 #
-1 1:0.00071428571 2:0.019056261 3:0.039999999 4:0.0030221816 5:0.38201559 6:0.79801172 7:0.78309989 8:0.88118565 9:0.88493925 10:0.73182231 11:0.28324005 13:0.16557162 14:0.30125719 15:0.21279761 16:0.37023282 #
1 5:0.27057892 6:0.73137462 7:0.70094436 8:0.8407042 9:0.8403852 10:0.61749923 11:0.063947432 12:0.088888891 13:0.18765432 14:0.31980306 15:0.22950819 16:0.36338109 #
-1 1:0.0011061947 2:0.010576923 3:0.12857144 4:0.0023148148 5:0.3484548 6:0.85685307 7:0.84787017 8:0.88475472 9:0.89111251 10:0.70006442 11:0.031731386 13:0.11815812 14:0.25183144 15:0.14799589 16:0.29675522 #
1 1:0 2:0 3:0 4:8.8922367e-05 5:0.21595664 6:0.24397163 7:0.11914894 8:0.73508185 9:0.74280709 10:0.65850794 11:0.022021882 12:0.041666668 13:0.35294119 14:0.3838439 15:0.39867109 16:0.42650107 #
1 5:0.28886789 6:0.67724288 7:0.64715534 8:0.89342093 9:0.89574236 10:0.62146145 11:0.080765709 12:0.08510638 13:0.22368421 14:0.32770675 15:0.26363635 16:0.36432621 #
1 1:0 2:0 3:0 4:0.00018133609 5:0.13420334 6:0.31027254 7:0.24318658 8:0.69518077 9:0.69982749 10:0.52723283 11:0.033821613 13:0.37301588 14:0.4341813 15:0.39075631 16:0.45183977 #
-1 5:0.37189317 6:0.075862072 7:0.048275862 8:0.82356101 9:0.834234 10:0.67925549 11:0.18746755 13:0.5869565 14:0.60970414 15:0.62790698 16:0.6242879 #
-1 1:0.0013020312 2:0.0079686316 3:0.1 4:0.0057624113 5:0.24052104 6:0.61877394 7:0.57183909 8:0.71742243 9:0.72692609 10:0.84196109 11:0.067065023 13:0.23255815 14:0.35192567 15:0.27083334 16:0.40280315 #
-1 1:0.0019546913 2:0.013785395 3:0.11111111 4:0.011003521 5:0.32054135 6:0.76023394 7:0.74534822 8:0.79605329 9:0.78237015 10:0.55186903 11:0.089353412 13:0.18181819 14:0.32740805 15:0.21553399 16:0.36974332 #
-1 1:0.0028661243 2:0.05882353 3:0.030303031 4:0.0041417507 5:0.17515624 6:0.10596026 7:0.25496688 8:0.80994093 9:0.80521405 10:0.42563966 11:0.039844029 12:0.82352942 13:0.25988701 14:0.2413782 15:0.30952382 16:0.27884543 #
1 5:0.24686235 6:0.86410987 7:0.860322 8:0.76069599 9:0.75702757 10:0.68021685 11:0.032248396 12:0.095238097 13:0.14893617 14:0.30022752 15:0.17894737 16:0.34205854 #
-1 1:0.00079649541 2:0.028340081 3:0.16666667 4:0.015024038 5:0.18241408 6:0.68845069 7:0.66929579 8:0.78500849 9:0.78412575 10:0.51595181 11:0.028411182 13:0.20325203 14:0.3456063 15:0.23726347 16:0.38058668 #
1 1:0 2:0 3:0 4:0.00018853696 5:0.40974319 6:0.62555718 7:0.91827637 8:0.88829839 9:0.88532412 10:0.58024663 11:0.098990113 12:0.052631579 13:0.30259365 14:0.25353372 15:0.36307693 16:0.29012251 #
1 1:0 2:0 3:0 4:5.4475131e-05 5:0.26487538 6:0.54859334 7:0.47953963 8:0.77302831 9:0.76848084 10:0.60644066 11:0.016552033 12:0.070422538 13:0.21971831 14:0.2953276 15:0.24924012 16:0.32797375 #
-1 5:0.22786635 6:0.034482758 7:0.034482758 8:0.63836914 9:0.66472387 10:0.66916054 11:0.14765432 13:0.54929578 14:0.55719972 15:0.5714286 16:0.58408165 #
1 1:0 2:0 3:0 4:0.00030727324 5:0.21985815 6:0.43171114 7:0.37519622 8:0.80197954 9:0.80519867 10:0.62697095 11:0.074287027 13:0.37201366 14:0.44500539 15:0.39855072 16:0.46819109 #
-1 5:0.32111016 6:0.23913044 7:0.20652173 8:0.83628678 9:0.85838509 10:0.70984805 11:0.13614582 13:0.56060606 14:0.62598634 15:0.60317463 16:0.66391373 #
1 1:0 2:0 3:0 4:0.00035752193 5:0.17389636 6:0.17957747 7:0.056338027 8:0.68743402 9:0.69245815 10:0.67426342 11:0.056726672 12:0.07692308 13:0.26612905 14:0.24442433 15:0.27272728 16:0.25354627 #
-1 5:0.33944395 6:0.10763889 7:0.069444448 8:0.83294064 9:0.84307331 10:0.78956127 11:0.14113006 13:0.55421686 14:0.58695245 15:0.58823532 16:0.61938012 #
1 1:0 2:0 3:0 4:0.00024188051 5:0.21272135 6:0.16011237 7:0.0084269661 8:0.65685719 9:0.66530806 10:0.50972331 11:0.058480531 13:0.41717792 14:0.40618119 15:0.44155845 16:0.42276001 #
-1 5:0.28515667 6:0.071428575 7:0.023809524 8:0.65470874 9:0.71746272 10:0.4636772 11:0.18499891 13:0.59836066 14:0.60162604 15:0.61403507 16:0.60871869 #
-1 5:0.2659725 6:0.11 7:0.039999999 8:0.72575456 9:0.7377333 10:0.70209169 11:0.16283473 13:0.58536583 14:0.62104976 15:0.5925926 16:0.62421948 #
1 1:0 2:0 3:0 4:0.00038143675 5:0.16883087 6:0.49863762 7:0.46866485 8:0.67537874 9:0.68814325 10:0.62636507 11:0.030815782 13:0.36410257 14:0.46753246 15:0.40983605 16:0.51699555 #
1 1:0 2:0 3:0 4:0 5:0.2732493 6:0.80469817 7:0.78148049 8:0.86670935 9:0.86658454 10:0.59718335 11:0.062157575 12:0.041666668 13:0.2246203 14:0.39907268 15:0.25622776 16:0.43332431 #
1 1:0 3:0 4:0.0014925373 5:0.27990028 6:0.41659233 7:0.59589654 8:0.82153231 9:0.82427311 10:0.56878084 11:0.051594447 12:0.075471699 13:0.41914892 14:0.36503869 15:0.47465438 16:0.40268338 #
-1 5:0.32824397 6:0.17924528 7:0.056603774 8:0.76237625 9:0.75700933 10:0.53534019 11:0.1798775 13:0.57831323 14:0.60435957 15:0.63291138 16:0.65840787 #
1 1:0 2:0 3:0 4:0.00014392631 5:0.19384591 6:0.079710148 7:0.014492754 8:0.70954263 9:0.70761544 10:0.45892158 11:0.063939668 13:0.39766082 14:0.41501236 15:0.41818181 16:0.43007562 #
-1 1:0.00058960845 2:0.0036073374 3:0.041666668 4:0.0035552683 5:0.36002213 6:0.25122669 7:0.35525024 8:0.86741799 9:0.88713068 10:0.93494397 11:0.15243983 13:0.44650206 14:0.42069367 15:0.50328225 16:0.46602169 #
-1 1:0.0020192503 2:0.012595591 3:0.11111111 4:0.010146104 5:0.29172033 6:0.58547485 7:0.54413408 8:0.843355 9:0.84834313 10:0.84433156 11:0.072210334 13:0.2846154 14:0.40354922 15:0.30898875 16:0.43333963 #
1 1:0 2:0 3:0 4:0 5:0.13974077 6:0.12087912 7:0 8:0.65614098 9:0.66222191 10:0.4644371 11:0.036150482 13:0.44339624 14:0.4167144 15:0.45192307 16:0.42071748 #
1 1:0 2:0 3:0 4:3.6161135e-05 5:0.18968102 6:0.28897339 7:0.24714829 8:0.7478047 9:0.7452684 10:0.39242592 11:0.056003761 12:0.067567565 13:0.40000001 14:0.4669925 15:0.41104296 16:0.4790605 #
1 1:0 2:0 3:0 4:0.00012980271 5:0.13428317 6:0.43023255 7:0.34302327 8:0.63294882 9:0.63890344 10:0.50765896 11:0.033875201 13:0.39130434 14:0.45060006 15:0.42372882 16:0.4747501 #
1 1:0 2:0 3:0 4:0.0003969922 5:0.2491482 6:0.094240837 7:0.29319373 8:0.8137126 9:0.81930208 10:0.64680922 11:0.0415597 13:0.40686274 14:0.38584036 15:0.45685279 16:0.42466059 #
-1 5:0.24309684 6:0.17094018 7:0.17094018 8:0.63016325 9:0.62791747 10:0.60204989 11:0.16792564 13:0.54761904 14:0.61316985 15:0.57499999 16:0.64286953 #
1 1:0 2:0 3:0 4:0.00016105005 5:0.1497447 6:0.2878412 7:0.23821341 8:0.7153213 9:0.71947074 10:0.56574273 11:0.04376496 13:0.45054945 14:0.45605084 15:0.48295453 16:0.48023364 #
1 5:0.16191751 6:0.41216215 7:0.36148649 8:0.70730293 9:0.70906985 10:0.57648897 11:0.023375718 13:0.37575758 14:0.44089377 15:0.39024389 16:0.45812562 #
1 1:0 2:0 3:0 4:0.00012987856 5:0.19669838 6:0.16582915 7:0.38190955 8:0.6779474 9:0.68374169 10:0.54749846 11:0.05484543 13:0.46363637 14:0.38808244 15:0.48148149 16:0.40320984 #
1 1:0 2:0 3:0 4:0.00016315297 5:0.28459921 6:0.068690099 7:0.0047923322 8:0.77379465 9:0.77107728 10:0.41373345 11:0.025843253 13:0.35880399 14:0.37122327 15:0.39655173 16:0.38923833 #
-1 5:0.3642464 6:0.079908676 7:0.0045662099 8:0.90426028 9:0.91164559 10:0.79443455 11:0.20163913 13:0.53639847 14:0.56785089 15:0.60569108 16:0.61194193 #
-1 1:0.0018399777 2:0.014955134 3:0.16666667 4:0.010551948 5:0.25948134 6:0.78071928 7:0.76473528 8:0.85224199 9:0.86585462 10:0.69112432 11:0.043118712 13:0.16969697 14:0.32488027 15:0.1961057 16:0.35371912 #
1 1:0 2:0 3:0 4:4.8225309e-05 5:0.16059312 6:0.34057972 7:0.29710144 8:0.63811988 9:0.64271617 10:0.39683759 11:0.033592176 13:0.37142858 14:0.41233495 15:0.40350878 16:0.44917077 #
-1 5:0.38136747 6:0.093607306 7:0.01369863 8:0.86272621 9:0.87170535 10:0.71934664 11:0.15061036 13:0.61643833 14:0.60676742 15:0.67464113 16:0.64734089 #
1 1:0 2:0 3:0 4:0.00013101514 5:0.22351864 6:0.4419643 7:0.6026786 8:0.72073936 9:0.7368626 10:0.49670595 11:0.058160674 13:0.51200002 14:0.42085958 15:0.53719008 16:0.43211553 #
1 1:0 2:0.0012437811 3:0 4:0 5:0.23485261 6:0.63421053 7:0.56842107 8:0.81641906 9:0.81877625 10:0.67316222 11:0.061906163 13:0.24705882 14:0.36715141 15:0.29113925 16:0.40915164 #
-1 1:0.00086912169 2:0.0037441212 3:0.061728396 4:0.0016175815 5:0.51457268 6:0.93176663 7:0.92463535 8:0.82806706 9:0.82648176 10:0.686818 11:0.14120711 13:0.082991801 14:0.24108884 15:0.10555903 16:0.27378052 #
1 1:0 2:0 3:0 4:0.00017021093 5:0.18651772 6:0.15920398 7:0.0099502485 8:0.71841335 9:0.72323084 10:0.47977087 11:0.053348701 13:0.3898305 14:0.39662799 15:0.41379312 16:0.41379312 #
1 1:0 2:0 3:0 4:0.00032244009 5:0.20525634 6:0.7009967 7:0.68106312 8:0.73084122 9:0.73500091 10:0.69643277 11:0.025946861 12:0.071428575 13:0.21203439 14:0.31021944 15:0.24921136 16:0.3464779 #
-1 1:0.00037716873 2:0.0086755352 3:0.09375 4:0.0059031877 5:0.45619452 6:0.64983976 7:0.61939102 8:0.91196585 9:0.90845358 10:0.70710957 11:0.06569504 13:0.23483483 14:0.35904929 15:0.28974739 16:0.4116036 #
1 5:0.14708272 6:0.17874396 7:0.30917874 8:0.65550184 9:0.66053939 10:0.58159763 11:0.044280745 12:0.057971016 13:0.37410071 14:0.3520028 15:0.4074074 16:0.38021562 #
1 1:8.2778033e-06 2:0 3:0 4:0.00015760797 5:0.29114449 6:0.69774014 7:0.6581921 8:0.73949063 9:0.73852712 10:0.37272105 11:0.061812848 12:0.063492067 13:0.19135803 14:0.28252256 15:0.2147651 16:0.30474809 #
-1 5:0.41755015 6:0.042459738 7:0.14055637 8:0.91305166 9:0.91515815 10:0.74213248 11:0.20395289 13:0.59444445 14:0.55841845 15:0.63905323 16:0.59416497 #
1 1:0 2:0 3:0 4:0.00015507606 5:0.15529589 6:0.0054644807 7:0.10382514 8:0.72334522 9:0.72307318 10:0.56965131 11:0.054161862 13:0.41322315 14:0.39887595 15:0.41176471 16:0.39245236 #
-1 1:0.0060748579 2:0.024691358 3:0.03125 4:0.0034719948 6:0.078167118 12:0.85000002 #
-1 1:0.0028395061 2:0.11111111 3:0.039999999 4:0.005676487 5:0.1176741 6:0.63089007 7:0.61780107 8:0.76456708 9:0.76877046 10:0.4609597 11:0.0046446361 12:0.83783782 13:0.25125629 14:0.35882965 15:0.27659574 16:0.37188423 #
1 1:0 2:0 3:0 4:0.00023181537 5:0.26080766 6:0.40728477 7:0.64569539 8:0.75545537 9:0.75744802 10:0.52309316 11:0.10594375 13:0.39583334 14:0.31811556 15:0.43165466 16:0.33340022 #
1 1:0 2:0 3:0 4:0.00013061793 5:0.21879056 6:0.28455284 7:0.18157181 8:0.72092187 9:0.72226423 10:0.39281997 11:0.026336031 13:0.36453202 14:0.40240377 15:0.40721649 16:0.43247598 #
1 1:0 2:0 3:0 4:0 5:0.15060769 6:0.40842491 7:0.36630037 8:0.70018381 9:0.70343864 10:0.55937594 11:0.051803626 13:0.36466166 14:0.42198282 15:0.38306451 16:0.43422928 #
1 1:0 2:0 3:0 4:0.00070664246 5:0.27437568 6:0.50816458 7:0.48073155 8:0.81612211 9:0.81881118 10:0.59214514 11:0.034367356 13:0.28021979 14:0.35187137 15:0.34077078 16:0.39495972 #
-1 5:0.3592999 6:0.077821009 7:0.046692606 8:0.85302132 9:0.88185042 10:0.81557852 11:0.20724966 13:0.57861638 14:0.57326663 15:0.64516127 16:0.62912995 #
1 1:0 2:0 3:0 4:0.001201121 5:0.20569161 6:0.37782806 7:0.33484164 8:0.72918892 9:0.74718857 10:0.57140136 11:0.047036786 12:0.086956523 13:0.26495728 14:0.29035285 15:0.32389936 16:0.33018926 #
-1 1:0.0015976331 2:0.013616558 3:0.16666667 4:0.010030864 5:0.20308238 6:0.74285716 7:0.72619045 8:0.749798 9:0.76542598 10:0.77398086 11:0.034182008 13:0.22770701 14:0.38492024 15:0.24731183 16:0.40703183 #
-1 1:0.0012235148 2:0.0077881622 3:0.15000001 4:0.010884354 5:0.2567094 6:0.40381896 7:0.37270156 8:0.8619867 9:0.867428 10:0.78015876 11:0.094518997 13:0.32894737 14:0.39066184 15:0.36938775 16:0.42857796 #
-1 1:0.0013043479 2:0.012662338 3:0.16666667 4:0.01069079 5:0.26781791 6:0.5419274 7:0.65832293 8:0.75671107 9:0.76626092 10:0.64516336 11:0.026014093 13:0.36883116 14:0.35958883 15:0.42608696 16:0.4033457 #
1 1:0 2:0 3:0 4:3.5253222e-05 5:0.24810176 6:0.77931035 7:0.75862068 8:0.67178077 9:0.65203691 10:0.50740051 11:0.051772017 13:0.16528925 14:0.28527996 15:0.17621145 16:0.29498813 #
1 1:0 2:0 3:0 4:0 5:0.10454065 6:0.43636364 7:0.40606061 8:0.53415591 9:0.54836154 10:0.51019955 11:0.017600834 12:0.03508772 13:0.28723404 14:0.3495394 15:0.30769232 16:0.36406645 #
1 5:0.23657762 6:0.72153324 7:0.945885 8:0.78316492 9:0.78546041 10:0.70853776 11:0.042312235 12:0.03773585 13:0.45614034 14:0.36456066 15:0.5191257 16:0.40991518 #
1 1:0 2:0 3:0 4:8.8090201e-05 5:0.19514741 6:0.20899472 7:0.11640212 8:0.74944586 9:0.7536689 10:0.41056117 11:0.05410751 13:0.32743362 14:0.3741104 15:0.36486486 16:0.39968944 #
1 1:0 2:0 3:0 4:0.00026730026 5:0.21611519 6:0.64179105 7:0.59275055 8:0.76262051 9:0.77648109 10:0.57396448 11:0.049568161 13:0.25714287 14:0.39982781 15:0.27510917 16:0.41020808 #
1 1:0 2:0.00068306009 3:0 4:0.00013128058 5:0.20729521 6:0.25203252 7:0.38414633 8:0.769934 9:0.77299428 10:0.48944905 11:0.036356263 12:0.045977011 13:0.41319445 14:0.40014777 15:0.46014494 16:0.41704175 #
1 1:9.376201e-06 2:0 3:0 4:0.00014524328 5:0.18141508 6:0.46064141 7:0.40233237 8:0.71792215 9:0.74899799 10:0.59599972 11:0.014529796 12:0.07692308 13:0.29113925 14:0.35860547 15:0.33557048 16:0.40263054 #
-1 5:0.41651529 6:0.12612613 7:0.021621622 8:0.91387165 9:0.91628152 10:0.76681417 11:0.17421934 13:0.59285712 14:0.60553634 15:0.67424244 16:0.6594221 #
1 1:0 2:0 3:0 4:0.00024853664 5:0.1280261 6:0.51963049 7:0.46420324 8:0.63172179 9:0.63965738 10:0.53130299 11:0.02902497 13:0.30666667 14:0.39685866 15:0.34418604 16:0.43275595 #
-1 5:0.35856858 6:0.19852941 7:0.11764706 8:0.77049237 9:0.79001534 10:0.59744465 11:0.18798016 13:0.5777778 14:0.60903126 15:0.57471263 16:0.60696417 #
-1 1:0.00068494456 2:0.007542857 3:0.095238097 4:0.0073702829 5:0.46304771 6:0.68647325 7:0.65641385 8:0.92255932 9:0.92098194 10:0.79816741 11:0.080457702 13:0.26615554 14:0.40937096 15:0.32253885 16:0.46907714 #
1 1:0 3:0 4:0 5:0.20609148 6:0.42493299 7:0.3686327 8:0.74883622 9:0.7482512 10:0.58428431 11:0.0094197541 12:0.10526316 13:0.26726726 14:0.31368822 15:0.33887044 16:0.37484297 #
-0.33744834268965195889222741243429 5:0.30735371 6:0.04109589 7:0.04109589 8:0.73496282 9:0.75309086 10:0.84436822 11:0.16262312 13:0.55789477 14:0.56995583 15:0.63736266 16:0.630472 #
1 1:0 2:0 3:0 4:1.7069944e-05 5:0.12440964 6:0.44702843 7:0.35917312 8:0.61956292 9:0.62216479 10:0.51187354 11:0.03637398 13:0.32499999 14:0.37037188 15:0.34020618 16:0.38819501 #
-1 1:0.00073593075 2:0.022774328 3:0.083333336 4:0.0067090397 5:0.37594262 6:0.44181818 7:0.43272728 8:0.89103681 9:0.8961882 10:0.87262613 11:0.099263199 13:0.37300435 14:0.46975896 15:0.41435564 16:0.50665408 #
1 1:0 2:0 3:0 4:0.00021235931 5:0.23176463 6:0.61204821 7:0.56265062 8:0.79455382 9:0.80875438 10:0.63555682 11:0.030737963 13:0.28296703 14:0.38705203 15:0.31104651 16:0.40391454 #
1 1:0 2:0 3:0 4:6.7476387e-05 5:0.20251867 6:0.25438598 7:0.43274853 8:0.81586313 9:0.82103997 10:0.70925826 11:0.018030252 12:0.090909094 13:0.41558442 14:0.37368703 15:0.46853146 16:0.40277851 #
-0.14194224507033226245766854844987 1:0.0095785437 3:0.034171809 4:0.0033443305 5:0.33166248 6:0.25888324 7:0.47715735 8:0.86612004 9:0.864546 10:0.51764947 11:0.092513308 12:0.48780489 13:0.60526317 14:0.48730829 15:0.61261261 16:0.48789728 #
