SVM-light Version V6.02
0 # kernel type
3 # kernel parameter -d 
1 # kernel parameter -g 
1 # kernel parameter -s 
1 # kernel parameter -r 
empty# kernel parameter -u 
32 # highest feature index 
1231 # number of training documents 
4 # number of support vectors plus 1 
-0.99997953 # threshold b, each following line is a SV (starting with alpha*y)
-0.00010000000000000000479217360238593 1:0.0050403224 2:0.0099667776 3:0.053719006 4:0.0018386062 5:0.54124117 6:2.452666 7:3.1360173 8:0.85880804 9:0.86090153 10:0.78293639 11:0.1252283 12:0.29333332 13:0.68488747 14:0.43393844 15:0.73333335 16:0.4585219 #
9.3723150374415078881287777257114e-05 1:0.0084033618 2:0 3:0.29138514 4:0.0033365351 5:0.52692342 6:0.024590164 7:0.30122951 8:0.83603334 9:0.83698404 10:0.67491668 11:0.24007978 12:0.83333331 13:0.60465115 14:0.47013101 15:0.67283952 16:0.5136255 #
6.2768496255220150798273537340322e-06 5:0.026588224 6:38.266666 7:46.833332 8:0.27501187 9:0.27040166 10:0.019823749 11:0 12:0.0089285718 13:0.32142857 14:0.090913728 15:0.35714287 16:0.10768262 #
