SVM-light Version V6.02
0 # kernel type
3 # kernel parameter -d 
1 # kernel parameter -g 
1 # kernel parameter -s 
1 # kernel parameter -r 
empty# kernel parameter -u 
32 # highest feature index 
1231 # number of training documents 
110 # number of support vectors plus 1 
-0.76758349 # threshold b, each following line is a SV (starting with alpha*y)
1 1:1.507e-05 2:0 3:0 4:7.4678879e-05 5:0.11304662 6:0.62621361 7:0.5006935 8:0.65804505 9:0.64208138 10:0.096915618 11:0.0010701671 13:0.14990859 14:0.19445023 15:0.19066937 16:0.23199695 #
-1 1:0.0007369197 2:0.030303031 3:0.083333336 4:0.0051020407 5:0.3369101 6:0.85942858 7:1.4411429 8:0.83063811 9:0.83280671 10:0.31503224 11:0.052420914 12:0.024390243 13:0.30843374 14:0.23760609 15:0.34243175 16:0.25853351 #
-1 1:0.0006940313 2:0.021568628 3:0.1 4:0.010204081 5:0.16398135 6:0.012704174 7:0.26497278 8:0.8375572 9:0.83623952 10:0.36635095 11:0.0091426168 12:0.023255814 13:0.26351351 14:0.24092451 15:0.28719723 16:0.25590482 #
1 1:0 2:0 3:0 4:1.2596045e-05 5:0.044226043 6:0.63722026 7:0.46643108 8:0.6333304 9:0.62290424 10:0.095369801 11:0.0070152124 12:0.015151516 13:0.14723927 14:0.16645592 15:0.17845118 16:0.19334698 #
-0.62394958879694650821789991823607 9:0.10278443 10:0.10278443 11:0.062234797 12:0.062234797 13:0.16195191 14:0.16195191 15:0.67741972 16:0.67741972 17:0.67749476 18:0.67749476 19:0.40170911 20:0.40170911 21:0.0029849999 22:0.0029849999 23:0.18181819 24:0.061538462 25:0.30769232 26:0.30769232 27:0.25539991 28:0.25539991 29:0.34419551 30:0.34419551 31:0.27593023 32:0.27593023 #
0.063302564187388471461659378292097 5:0.026588224 6:38.266666 7:46.833332 8:0.27501187 9:0.27040166 10:0.019823749 11:0 12:0.0089285718 13:0.32142857 14:0.090913728 15:0.35714287 16:0.10768262 #
1 1:2.2688599e-05 2:0 3:0 4:0.00045518207 5:0.15445752 6:0.40658435 7:0.20699589 8:0.7872017 9:0.7742179 10:0.16099964 11:0.0071130688 12:0.0625 13:0.25647667 14:0.27472949 15:0.33042213 16:0.32411444 #
-1 1:0.0023096821 2:0.032763533 3:0.33333334 4:0.025390625 5:0.21668944 6:0.75 7:0.6875 8:0.76971364 9:0.76672715 10:0.16236903 11:0.019827561 12:0.023809524 13:0.14973262 14:0.25866747 15:0.16573034 16:0.26912877 #
-1 1:0.0011494253 2:0.021867115 3:0.041666668 4:0.0023967552 5:0 6:0.99669117 7:0.99558824 8:0.30171466 9:0.30125216 10:0.042141568 11:0 12:0.024390243 13:0.0049652434 14:0.055707064 15:0.0053879311 16:0.058029793 #
1 5:0.091430053 6:0.013173653 7:0.18083832 8:0.67894191 9:0.67351097 10:0.11852678 11:0.0011478341 13:0.14357683 14:0.15473875 15:0.1530343 16:0.16577046 #
-1 1:0.00088313216 2:0.0194508 3:0.075000003 4:0.0046835272 5:0.12326915 6:0.87096775 7:0.85388994 8:0.63363653 9:0.63109827 10:0.25408915 11:0.0087379301 12:0.023809524 13:0.072761193 14:0.18632515 15:0.0815534 16:0.19728966 #
-1 1:0.0015763103 2:0.027777778 3:0.13333334 4:0.0061538462 5:0.018750703 6:0.92390013 7:0.89655173 8:0.33161941 9:0.31265703 10:0.0095885163 11:0 12:0.037037037 13:0.058064517 14:0.14661437 15:0.066433564 16:0.15432371 #
-1 1:2.9342724e-05 2:0 3:0 4:7.5714554e-05 5:0.075949259 6:0.23146944 7:0.071521454 8:0.73282713 9:0.73642331 10:0.18423553 11:0.0062418524 13:0.22250639 14:0.24399771 15:0.26595744 16:0.26631182 #
1 5:0.17123622 6:0.18058252 7:0.5708738 8:0.72400033 9:0.71231157 10:0.099363118 11:0 13:0.13357401 14:0.14969623 15:0.16287878 16:0.17488347 #
-1 1:0.0023208424 2:0.020155039 3:0.09375 4:0.0055783428 5:0.071044944 6:0.9773519 7:0.97038329 8:0.45107812 9:0.45192531 10:0.077309743 11:0.019852318 12:0.034482758 13:0.023985241 14:0.13161562 15:0.025145067 16:0.13476026 #
-0.042160139059859602639335207641125 1:0.00023963134 2:0.005357143 3:0.039999999 4:0.0018851508 5:0.26838273 6:0.94316977 7:0.91140133 8:0.80623078 9:0.7998929 10:0.31676078 11:0.016980391 12:0.025 13:0.053435113 14:0.16765463 15:0.065975495 16:0.18994828 #
1 5:0.21577947 6:0.44805655 7:0.29681978 8:0.80585665 9:0.78813362 10:0.07270705 11:0.005899224 13:0.10308183 14:0.15789314 15:0.126021 16:0.18492338 #
1 5:0.11893577 6:0.51934427 7:0.34885246 8:0.7713716 9:0.75064528 10:0.1621099 11:0 13:0.1234375 14:0.18883154 15:0.14188035 16:0.21200666 #
1 1:2.6702983e-05 2:0 3:0 4:4.280089e-05 5:0.081774056 6:0.77947295 7:0.72746187 8:0.68781859 9:0.67610204 10:0.081266634 11:0.0014844019 13:0.10786106 14:0.18177599 15:0.13590264 16:0.2053168 #
-1 1:4.9982507e-05 2:0 3:0.00031289112 4:8.1767692e-05 5:0.083424859 6:0.5625 7:0.38541666 8:0.64862013 9:0.65018368 10:0.19307086 11:0.0051336759 13:0.1878453 14:0.23883136 15:0.19444445 16:0.24221598 #
-1 1:0.0037945863 2:0.022580646 3:0.16666667 4:0.010551948 5:0.025700234 6:0.97150612 7:0.96472186 8:0.542099 9:0.54701108 10:0.18732068 11:0.010240399 12:0.035714287 13:0.031331591 14:0.13710928 15:0.035714287 16:0.15236235 #
1 1:0 3:0 4:4.8731044e-06 5:0.11407706 6:0.077163711 7:0.21584985 8:0.67730272 9:0.6562171 10:0.098423019 11:0.0009368324 12:0.0089285718 13:0.15367483 14:0.18158093 15:0.16507177 16:0.19484997 #
1 1:0 3:0 4:0.00020968128 5:0.065428667 6:0.33187774 7:0.054585151 8:0.7235449 9:0.72479939 10:0.13133465 11:0.0024052085 12:0.12121212 13:0.16605166 14:0.20525618 15:0.2 16:0.22803509 #
-1 1:0.0012323944 2:0.046875 3:0.075000003 4:0.0047519216 5:0.021208093 6:0.5142349 7:0.30604982 8:0.48506004 9:0.4796375 10:0.16869491 11:0.004009828 12:0.025 13:0.13109756 14:0.17365044 15:0.14790997 16:0.18173727 #
-1 1:0.00022395859 2:0.0079501914 3:0.018181818 4:0.00065173849 5:0.15257591 6:0.89306277 7:0.88538527 8:0.46201649 9:0.46031523 10:0.17745072 11:0.041587971 12:0.027027028 13:0.068965517 14:0.17562224 15:0.084727466 16:0.19808979 #
1 5:0.13513659 6:0.12305516 7:0.1513437 8:0.72929138 9:0.72223765 10:0.11806967 11:0.0039651957 13:0.15126051 14:0.17010996 15:0.16231884 16:0.18416668 #
1 1:0 2:0 3:0 4:3.5766147e-06 5:0.039586663 6:0.90236384 7:0.87872559 8:0.53523868 9:0.51750487 10:0.055002868 11:0 13:0.077881619 14:0.1670247 15:0.099650353 16:0.19860747 #
1 1:0 2:0 3:0 4:0 5:0.10154337 6:0.65964615 7:0.5758214 8:0.73316777 9:0.71280211 10:0.091893934 11:0.0058631711 12:0.074074075 13:0.14205816 14:0.199057 15:0.16243654 16:0.21963838 #
1 1:0 3:0 4:2.3789133e-05 5:0.013121076 6:7.1848741 7:8.0252104 8:0.28451684 9:0.28126326 10:0.013330021 11:0 12:0.0089285718 13:0.17045455 14:0.1137894 15:0.19540229 16:0.12123697 #
-1 1:0.0018768597 2:0.021594685 3:0.071428575 4:0.0029438406 5:0.153852 6:0.91078669 7:0.89375508 8:0.66795957 9:0.66751903 10:0.24053909 11:0.037963111 12:0.028571429 13:0.078299776 14:0.19509974 15:0.086448595 16:0.20651387 #
-1 1:0.00012431535 2:0.04010025 3:0.33333334 4:0.025390625 5:0.14290923 6:0.84850013 7:0.85391986 8:0.84431803 9:0.83035815 10:0.071976759 11:0.022196235 12:0.02631579 13:0.044915557 14:0.096665345 15:0.052552551 16:0.1076401 #
1 1:0 2:0 3:0 4:5.4043099e-05 5:0.047231086 6:0.81652731 7:0.74422038 8:0.58102649 9:0.57351732 10:0.071153037 11:0.0009861401 13:0.10260586 14:0.15567891 15:0.13863216 16:0.19623694 #
-1 1:0 2:0 3:0 4:0.00014788524 5:0.18532677 6:0.0057379664 7:0.28020403 8:0.73781306 9:0.73845834 10:0.30532342 11:0.046799209 12:0.071428575 13:0.43306011 14:0.36240906 15:0.51857585 16:0.41330254 #
1 1:0 2:0 3:0 4:0 5:0.20037504 6:0.5260455 7:0.3712399 8:0.76917392 9:0.74916333 10:0.070314862 11:0.0019244046 12:0.088888891 13:0.14990513 14:0.17789905 15:0.17473684 16:0.20269541 #
-1 1:0 2:0 3:0 4:0.00025201612 5:0.1583586 6:0.44509518 7:0.29282576 8:0.77930713 9:0.77589309 10:0.22345896 11:0.021920746 12:0.083333336 13:0.23939393 14:0.28885776 15:0.28896105 16:0.33222836 #
1 5:0.10638166 6:0.033450704 7:0.20246479 8:0.59642124 9:0.59131962 10:0.093746044 11:0.006337529 13:0.11785714 14:0.13683572 15:0.13688213 16:0.15466464 #
1 1:0 3:0 4:9.4206312e-05 5:0.068229161 6:0.55808383 7:0.39281437 8:0.6142866 9:0.59923607 10:0.12911834 11:0.0048266021 12:0.0089285718 13:0.14861462 14:0.22372323 15:0.16622691 16:0.24462561 #
-1 1:0.00055991043 2:0.043749999 3:0.044444446 4:0.0034877232 5:0.24484622 6:0.96746278 7:0.95846313 8:0.78042436 9:0.77597809 10:0.16521552 11:0.022034578 12:0.034482758 13:0.043057997 14:0.16261818 15:0.051909894 16:0.18429795 #
1 5:0.013745727 6:1.4819278 7:1.9698795 8:0.54834348 9:0.54722095 10:0.15491629 11:0 13:0.24607331 14:0.18772843 15:0.25274727 16:0.18972339 #
1 5:0.01760266 6:0.26142132 7:0.61421317 8:0.61349791 9:0.60386908 10:0.11701994 11:0.0021834269 13:0.15126051 14:0.16977553 15:0.18141593 16:0.18429247 #
1 5:0.19407509 6:0.86243194 7:0.81016332 8:0.81461543 9:0.80079406 10:0.18171725 11:0.0032885233 13:0.15183246 14:0.18497387 15:0.21348314 16:0.23549008 #
1 5:0.057763897 6:0.060433295 7:0.12428734 8:0.59115767 9:0.58800364 10:0.099146038 11:0 13:0.14395887 14:0.16108964 15:0.16343491 16:0.17278147 #
-1 1:0 2:0 3:0 4:0.00020811654 5:0.26730955 6:0.32459018 7:0.65081966 8:0.81824243 9:0.81922179 10:0.29837734 11:0.045375351 12:0.074074075 13:0.41843972 14:0.33345863 15:0.4576923 16:0.35548529 #
-1 1:0.0018527668 2:0.022029897 3:0.07692308 4:0.0042098444 5:0.15042913 6:0.8172043 7:0.76612902 8:0.80999386 9:0.80544668 10:0.21372542 11:0.0034254612 12:0.041666668 13:0.11538462 14:0.19955704 15:0.12149533 16:0.20660965 #
1 5:0.13736562 6:1.1757215 7:1.8089983 8:0.80003011 9:0.78317422 10:0.20457742 11:0.011307329 13:0.33402923 14:0.23977251 15:0.39954853 16:0.27680284 #
-1 1:0.00023970037 2:0.0069419071 3:0.017730497 4:0.00059427368 5:0.096787326 6:0.88945794 7:0.86683738 8:0.17632723 9:0.17852657 10:0.15606472 11:0.012702947 12:0.030303031 13:0.041619796 14:0.11239148 15:0.048309177 16:0.11706721 #
-1 1:0.00016451052 2:0.012426901 3:0.035294119 4:0.0025311986 5:0.032928269 6:0.85273576 7:0.85157162 8:0.40709847 9:0.40725291 10:0.19461706 11:0.0060090702 12:0.028571429 13:0.070962481 14:0.18376979 15:0.086720869 16:0.20877609 #
1 5:0.18901132 6:0.63710779 7:1.1336972 8:0.77436215 9:0.76267517 10:0.13993397 11:0.014839964 13:0.19491525 14:0.18498509 15:0.22781065 16:0.21262607 #
1 1:0 2:0 3:0 4:4.386478e-05 5:0.033434328 6:0.35146898 7:0.10010882 8:0.50179619 9:0.50065523 10:0.078043789 11:0.0012495529 12:0.013333334 13:0.20578778 14:0.18628739 15:0.24912281 16:0.21241876 #
-1 1:0.00059346342 2:0.014100609 3:0.075000003 4:0.0055149416 5:0.21358527 6:0.044417769 7:0.27130851 8:0.81838089 9:0.81682801 10:0.32463399 11:0.019105706 12:0.03125 13:0.28199053 14:0.26294878 15:0.32070708 16:0.28399482 #
-1 1:0.000483635 2:0.0089076422 3:0.037142858 4:0.00067081524 5:0.053196419 6:0.98955435 7:0.98711699 8:0.4151296 9:0.4301236 10:0.24336308 11:0.01532522 12:0.024390243 13:0.015426497 14:0.10453278 15:0.016949153 16:0.10957029 #
-1 1:9.4465759e-05 2:0.0069264071 3:0.0087412586 4:0.0011485746 5:0.34040329 6:1.3471742 7:2.2422144 8:0.75467843 9:0.76046866 10:0.30735639 11:0.039349969 12:0.023809524 13:0.38024691 14:0.26181838 15:0.42894736 16:0.28397903 #
1 1:0 3:0 4:0.00013568522 5:0.051837765 6:0.35658914 7:0.24186046 8:0.5421719 9:0.53016883 10:0.070608452 11:0 12:0.0089285718 13:0.16091955 14:0.21705954 15:0.18575852 16:0.2415646 #
1 1:0 2:0 3:0 4:0 5:0.11411282 6:0.52639633 7:0.37796479 8:0.72900927 9:0.71564591 10:0.10170262 11:0.0011158379 13:0.13051471 14:0.1622328 15:0.15490197 16:0.1843702 #
-1 1:0 2:0 3:0 4:0.00034317089 5:0.14167884 6:0.49512196 7:0.35731706 8:0.80601615 9:0.80556124 10:0.32460758 11:0.022274712 12:0.074074075 13:0.26502731 14:0.32109147 15:0.29885057 16:0.34574589 #
1 5:0.078471914 6:0.71731162 7:0.62647659 8:0.55718005 9:0.52662033 10:0.076132007 11:0.0013665676 13:0.11919504 14:0.14565039 15:0.17105263 16:0.19092889 #
1 1:0 3:0 4:6.0808758e-05 5:0.044933766 6:0.42857143 7:0.31486881 8:0.52582163 9:0.52700818 10:0.067906491 11:0 12:0.0089285718 13:0.14750542 14:0.20302901 15:0.17249417 16:0.23405887 #
1 5:0.13333753 6:0.72045743 7:1.3087674 8:0.76938558 9:0.75267661 10:0.12963682 11:0.0013862604 13:0.19483568 14:0.2043429 15:0.23 16:0.23754297 #
1 1:0 2:0 3:0 4:1.8175209e-05 5:0.017038789 6:0.76715845 7:0.72289932 8:0.43159595 9:0.425127 10:0.037097648 11:0 12:0.08510638 13:0.10452962 14:0.16305855 15:0.121673 16:0.17755733 #
-1 1:0.0012698412 2:0.016903313 3:0.090909094 4:0.0051100631 5:0.28707513 6:0.91417551 7:0.88556737 8:0.87250531 9:0.86867619 10:0.26574317 11:0.079464644 12:0.027777778 13:0.098347105 14:0.25673375 15:0.1132917 16:0.2751846 #
-1 1:0.00079149706 2:0.010542636 3:0.046153847 4:0.0036711891 5:0.065471455 6:0.87578946 7:0.8463158 8:0.6103304 9:0.62080568 10:0.32284573 11:0.017219281 12:0.033333335 13:0.076604553 14:0.17534511 15:0.088744588 16:0.19074926 #
1 1:0 2:0 3:0 4:0.00023028209 5:0.086794473 6:0.21378092 7:0.55477029 8:0.68597496 9:0.6765824 10:0.11673908 11:0 12:0.043478262 13:0.20125785 14:0.18247259 15:0.23948219 16:0.21344092 #
1 1:0 3:0 4:7.6074553e-05 5:0.014719916 6:0.28676471 7:0.088235296 8:0.53588456 9:0.52707231 10:0.076228939 11:0 12:0.0089285718 13:0.15420561 14:0.19190367 15:0.16915423 16:0.19984792 #
-1 1:0.00053126895 2:0.013221154 3:0.03125 4:0.0016547862 5:0.10440528 6:0.99339271 7:0.99109453 8:0.64461529 9:0.63751256 10:0.094125658 11:0 12:0.033333335 13:0.014855356 14:0.1118034 15:0.018041236 16:0.12310418 #
1 5:0.087541819 6:2.2005649 7:3.2062147 8:0.60863692 9:0.58944702 10:0.13637571 11:0.0048798644 12:0.0089285718 13:0.3474026 14:0.23375298 15:0.40138409 16:0.25864521 #
-1 1:0.0001250739 2:0.0038314175 3:0.1 4:0.006663335 5:0.078982189 6:0.89157218 7:0.87826514 8:0.63274348 9:0.62907857 10:0.073118024 11:0.0062680957 12:0.016666668 13:0.087882824 14:0.20501442 15:0.098124102 16:0.22398373 #
1 1:0 2:0 3:0 4:0 5:0.08574111 6:0.55812323 7:0.42436975 8:0.66751575 9:0.64997673 10:0.083637848 11:0.0010126781 12:0.074074075 13:0.13397129 14:0.18632789 15:0.16230367 16:0.21163656 #
-1 1:0.001 2:0.011934012 3:0.050000001 4:0.0028609154 5:0.044668347 6:0.95848161 7:0.94899172 8:0.59113461 9:0.58327442 10:0.17700575 11:0 12:0.022222223 13:0.035051547 14:0.13437581 15:0.036016949 16:0.13832572 #
1 1:1.6521279e-05 2:0 3:0 4:7.9360354e-05 5:0.12589152 6:0.65040648 7:0.5087108 8:0.61618525 9:0.60858613 10:0.078795113 11:0.0016463945 13:0.14985591 14:0.19056371 15:0.18095239 16:0.21316046 #
-1 1:0.0004517432 2:0.016129032 3:0.1 4:0.0070546735 5:0.20955677 6:0.6708464 7:0.85788924 8:0.66783518 9:0.66265815 10:0.19799817 11:0.040023591 12:0.022727273 13:0.30958903 14:0.26248538 15:0.33522728 16:0.272681 #
-1 1:0.00083014049 2:0.014230769 3:0.088888891 4:0.0028534371 5:0.051015373 6:0.96330845 7:0.95708954 8:0.64687687 9:0.64712346 10:0.16290285 11:0.0037666988 12:0.035714287 13:0.048458152 14:0.19064 15:0.051321927 16:0.19619237 #
-1 1:0.00079090463 2:0.012507445 3:0.011363637 4:0.00084284728 5:0.18614237 6:0.96472859 7:0.95921743 8:0.68541962 9:0.68621892 10:0.19974729 11:0.0086390972 12:0.033333335 13:0.041478131 14:0.15689783 15:0.047736626 16:0.16982602 #
1 1:0 3:0 4:9.7228971e-05 5:0.016198672 6:0.48711658 7:0.34846625 8:0.60957533 9:0.60701048 10:0.094142132 11:0 12:0.0089285718 13:0.10199005 14:0.14905418 15:0.11873351 16:0.16681777 #
1 1:0 3:0 4:0.00011263798 5:0.063336827 6:0.33870968 7:0.091397852 8:0.62638515 9:0.60194176 10:0.092498891 11:0.0060630315 12:0.0089285718 13:0.17028986 14:0.20813769 15:0.1923077 16:0.23440361 #
-1 1:0.0011961722 2:0.022794118 3:0.125 4:0.0071271928 5:0.085969262 6:0.92403692 7:0.89744979 8:0.65150291 9:0.64979303 10:0.18743238 11:0.0057873446 12:0.029411765 13:0.05944518 14:0.15318355 15:0.061452515 16:0.15468812 #
1 1:0 3:0 4:5.3792362e-05 5:0.095484436 6:0.33069083 7:0.200453 8:0.60735977 9:0.60217506 10:0.078507438 11:0 12:0.0089285718 13:0.098086126 14:0.13865198 15:0.1122449 16:0.15121078 #
-1 1:0.00030593318 2:0.014204546 3:0.025 4:0.002561213 5:0.21460304 6:0.79396987 7:1.361809 8:0.680287 9:0.67822498 10:0.2747601 11:0.026314467 12:0.023809524 13:0.29807693 14:0.21914539 15:0.32894737 16:0.23592256 #
-1 1:0.002119642 2:0.024801588 3:0.1 4:0.005930657 5:0.036195863 6:0.9158383 7:0.89264411 8:0.59585118 9:0.59305537 10:0.22911648 11:0.0050259032 12:0.021739131 13:0.062600322 14:0.15105277 15:0.080645159 16:0.18770541 #
-1 1:0.0013848589 2:0.022556391 3:0.16666667 4:0.015943877 5:0.17328477 6:0.7798658 7:0.70738256 8:0.76430809 9:0.76497626 10:0.2134371 11:0.014687851 12:0.02631579 13:0.10909091 14:0.19049686 15:0.12533334 16:0.21205406 #
1 5:0.098983862 6:0.026595745 7:0.2109929 8:0.6136716 9:0.61445314 10:0.085592657 11:0 13:0.10616438 14:0.12996425 15:0.12720849 16:0.14909932 #
-1 1:0.0024414062 2:0.032763533 3:0.125 4:0.006052928 5:0.14553975 6:0.92705166 7:0.89969605 8:0.76543844 9:0.76157755 10:0.19955091 11:0.011895774 12:0.03846154 13:0.053533189 14:0.148121 15:0.059907835 16:0.15979514 #
1 1:0 3:0 4:4.9007594e-05 5:0.034210086 6:0.34850299 7:0.22035928 8:0.61096334 9:0.58633465 10:0.094236165 11:0.0039735655 12:0.0089285718 13:0.15617129 14:0.2090064 15:0.176781 16:0.23471236 #
-1 1:0.0012157277 2:0.021419829 3:0.05882353 4:0.0027542373 5:0.080174282 6:0.97712415 7:0.97058821 8:0.51865458 9:0.54376996 10:0.22410159 11:0 12:0.020833334 13:0.032332562 14:0.14681636 15:0.034739453 16:0.15218291 #
0.53284225986643818373522663023323 1:0 2:0 3:0 4:0.00023854962 5:0.050482888 6:0.70724189 7:0.62557781 8:0.62313873 9:0.61468059 10:0.073539443 11:0 12:0.013157895 13:0.10815047 14:0.17378075 15:0.1362862 16:0.20477845 #
1 5:0.11648691 6:0.52739727 7:0.3321918 8:0.63778359 9:0.62935436 10:0.083519079 11:0 13:0.10204082 14:0.1006445 15:0.13872832 16:0.12444257 #
-1 1:0.00033789023 2:0.011176471 3:0.0078947367 4:0.0006959681 5:0.13708612 6:0.98840731 7:0.98748517 8:0.54436088 9:0.54653084 10:0.24345887 11:0.0040440448 12:0.03125 13:0.01745283 14:0.098914921 15:0.020485176 16:0.10943468 #
-1 1:0.0003847921 2:0.008201058 3:0.014285714 4:0.00067259936 5:0.11781649 6:0.96169919 7:0.95160168 8:0.55292201 9:0.54605204 10:0.25366157 11:0.010909542 12:0.027027028 13:0.048094373 14:0.17431967 15:0.054835495 16:0.1883661 #
1 1:0 2:0 3:0 4:9.7243159e-05 5:0.054878257 6:0.56752658 7:0.44688922 8:0.64935815 9:0.63962948 10:0.089650519 11:0.00098763232 12:0.0093457941 13:0.10350877 14:0.15658857 15:0.13207547 16:0.18857037 #
0.075562789461500301513297017663717 1:0 2:0 3:0.0004664179 4:2.3308665e-05 5:0.043277733 6:0.34221312 7:0.23770492 8:0.42681047 9:0.42387581 10:0.029756635 11:0 12:0.16666667 13:0.10465116 14:0.085948475 15:0.11111111 16:0.089087084 #
-1 1:0.0012540659 2:0.013605442 3:0.083333336 4:0.0019864608 5:0.131221 6:0.90359479 7:0.8594771 8:0.56840342 9:0.56396925 10:0.21849881 11:0.034893159 12:0.030303031 13:0.1021021 14:0.2311001 15:0.10658307 16:0.23983541 #
1 5:0.17453124 6:0.49002492 7:0.3117207 8:0.75591451 9:0.72258192 10:0.12423918 11:0 13:0.11403508 14:0.1518227 15:0.13043478 16:0.17025131 #
-1 1:0.00075339025 2:0.045454547 3:0.11111111 4:0.0068855933 5:0.087138683 6:0.92034549 7:0.90163147 8:0.6367048 9:0.63374114 10:0.25033927 11:0.016751759 12:0.024390243 13:0.087336242 14:0.19516028 15:0.096273296 16:0.20574969 #
1 1:0 2:0 3:0 4:1.8459948e-05 5:0.11946261 6:0.84551448 7:0.79363716 8:0.74339414 9:0.72836375 10:0.12070954 11:0.0026778309 13:0.10899654 14:0.20698917 15:0.13927856 16:0.24111676 #
-1 1:0.0011328235 2:0.013205829 3:0.075000003 4:0.0029492455 5:0.15972777 6:0.9762277 7:0.97309977 8:0.59757197 9:0.5952577 10:0.23918331 11:0.0022643392 12:0.032258064 13:0.0322841 14:0.14432065 15:0.036412079 16:0.15517396 #
1 5:0.25587586 6:0.90257496 7:0.87711376 8:0.74486464 9:0.72439063 10:0.059024602 11:0.0055800211 13:0.079279967 14:0.18623146 15:0.095302016 16:0.21430372 #
-1 1:0.00015336247 2:0.0025575447 3:0.037500001 4:0.0025531915 5:0.16023503 6:0.98684996 7:0.98306435 8:0.66522515 9:0.66428798 10:0.29564428 11:0.011867288 12:0.028571429 13:0.022530328 14:0.12101535 15:0.025789812 16:0.13336445 #
-1 1:0.0011684399 2:0.013157895 3:0.044117648 4:0.0025862069 5:0.045169938 6:0.91983122 7:0.89943743 8:0.72300082 9:0.72285765 10:0.34369081 11:0 12:0.033333335 13:0.069020867 14:0.18182746 15:0.075250834 16:0.18879919 #
1 1:1.5494506e-05 2:0 3:0 4:8.6203399e-05 5:0.10733023 6:0.76555026 7:0.68682033 8:0.72148955 9:0.713229 10:0.11621919 11:0.002521669 13:0.11785298 14:0.18992124 15:0.15106952 16:0.22641517 #
-1 1:0 2:0 3:0 4:8.3784093e-05 5:0.19825484 6:0.051282052 7:0.33076924 8:0.80722821 9:0.80276692 10:0.36656728 11:0.031041667 12:0.05882353 13:0.39846742 14:0.3231366 15:0.40663901 16:0.32686102 #
1 1:0 3:0 4:7.905138e-05 5:0.12393528 6:0.88838267 7:1.5763098 8:0.684443 9:0.68044537 10:0.13112575 11:0.0073336568 12:0.0089285718 13:0.18067227 14:0.15467364 15:0.21212122 16:0.1766721 #
1 5:0.14197512 6:0.60226232 7:0.47538978 8:0.74033207 9:0.72112662 10:0.080788933 11:0.00048026434 13:0.085850559 14:0.16923262 15:0.10607357 16:0.20179628 #
-1 5:0.15573561 6:0.4834308 7:0.78752434 8:0.8640272 9:0.86625481 10:0.4099403 11:0.026574241 12:0.0625 13:0.43648207 14:0.35813582 15:0.49152541 16:0.38255379 #
-1 1:0.0010542803 2:0.023848685 3:0.0072115385 4:0.00039135231 5:0.20380408 6:0.96369636 7:0.9471947 8:0.48640105 9:0.49595147 10:0.23139189 11:0.068274006 12:0.041666668 13:0.056047197 14:0.21517402 15:0.063829787 16:0.24141121 #
1 1:0 2:0 3:0 4:2.0459311e-05 5:0.13387328 6:0.74588364 7:0.68660814 8:0.80905265 9:0.80020726 10:0.099061519 11:0.0072824941 12:0.074074075 13:0.13477537 14:0.17571893 15:0.16853933 16:0.20584027 #
-1 1:0 2:0 3:0 4:0.00026881721 5:0.22793339 6:0.34285715 7:0.13376623 8:0.78880805 9:0.78626913 10:0.35872284 11:0.022350704 12:0.074074075 13:0.27777779 14:0.28405797 15:0.31874999 16:0.31726629 #
1 1:0 2:0 3:0 4:3.626184e-06 5:0.042979218 6:0.78211719 7:0.72404933 8:0.53773761 9:0.51706403 10:0.070179202 11:0.0010150532 13:0.12616822 14:0.19165413 15:0.16258742 16:0.2222922 #
-0.7310670309544089473519079547259 1:0.00047976972 2:0.009214744 3:0.044444446 4:0.0035511365 5:0.095330134 6:0.84493876 7:0.84880722 8:0.33369809 9:0.33485487 10:0.26309922 11:0.013232662 12:0.033333335 13:0.059380379 14:0.14371203 15:0.065839693 16:0.15033858 #
0.52863706035114110814987498088158 1:0 2:0 3:0 4:8.4119725e-05 5:0.072767779 6:1.7027258 7:2.237649 8:0.7763626 9:0.77273059 10:0.14947967 11:0.0043849698 12:0.010752688 13:0.2742857 14:0.23072426 15:0.32515338 16:0.26630476 #
-0.80316791505525264582843192329165 1:8.0482248e-05 2:0.013468013 3:0.022857143 4:0.0012282304 5:0.023066761 6:0.65084076 7:0.80909991 8:0.49383578 9:0.49288812 10:0.37334129 11:0.0043339096 12:0.014492754 13:0.15730338 14:0.14176199 15:0.17349398 16:0.1427507 #
