SVM-light Version V6.02
0 # kernel type
3 # kernel parameter -d 
1 # kernel parameter -g 
1 # kernel parameter -s 
1 # kernel parameter -r 
empty# kernel parameter -u 
16 # highest feature index 
1760 # number of training documents 
177 # number of support vectors plus 1 
-1.060077 # threshold b, each following line is a SV (starting with alpha*y)
-0.01 6:0.11884655 #
0.01 3:0 4:0.0011055832 5:0.023840765 6:0.53154874 7:0.46462715 8:0.10814054 9:0.10696349 10:0.024839841 11:0 13:0.10328639 14:0.12226751 15:0.11111111 16:0.13140498 #
-0.01 5:0.12051634 6:4.8148255 7:4.6057296 8:0.30563515 9:0.3057349 10:0.17893803 11:0.061758041 13:0.59802538 14:0.3355267 15:0.63859111 16:0.36236438 #
0.01 3:0 4:0.0011454754 5:0.0031163236 6:0.035211269 7:0.07394366 8:0.035495158 9:0.035841435 10:0.0048865313 11:0 13:0.05109489 14:0.045600913 15:0.059259258 16:0.053280082 #
-0.01 6:0.0090503059 #
0.01 3:0 4:0.027777778 5:0.027416676 6:0.086092718 7:0 8:0.11073118 9:0.1098851 10:0.0098674791 11:0 13:0.08387097 14:0.08497458 15:0.084967323 16:0.085812785 #
-0.01 5:0 6:0.88695651 7:0.88695651 8:0.15704398 9:0.15614401 10:0.0047786403 11:0 12:0.44 13:0.043478262 14:0.12038586 15:0.043956045 16:0.12104551 #
0.01 3:0 4:0.0011514105 5:0.043661233 6:0.057993729 7:0.0094043883 8:0.21111107 9:0.20992547 10:0.037578221 11:0 13:0.15178572 14:0.12248296 15:0.16666667 16:0.13443321 #
-0.01 5:0.15427265 6:4.3573909 7:4.1599703 8:0.29543072 9:0.29648575 10:0.2053737 11:0.073690467 13:0.57179487 14:0.32945448 15:0.60924369 16:0.35550109 #
0.01 3:0 4:0.0011574074 5:0.015678661 6:0.17102396 7:0.10893247 8:0.10069449 9:0.099754602 10:0.036713321 11:0 13:0.1462585 14:0.13913673 15:0.15570934 16:0.14683241 #
0.01 3:0 4:0.0011574074 5:0.036480457 6:0.44579288 7:0.36893204 8:0.12634179 9:0.12570944 10:0.040123098 11:0 13:0.16231884 14:0.16489498 15:0.19104478 16:0.18080972 #
-0.01 6:0.032920431 #
0.01 3:0 4:0.0011574074 5:0.037297159 6:0.42119566 7:0.35461956 8:0.16168571 9:0.16104484 10:0.048645802 11:0 13:0.15873016 14:0.158104 15:0.16872428 16:0.16701476 #
-0.01 6:0.033820137 #
0.01 3:0 4:0.0011574074 5:0.012638236 6:0.072192512 7:0.018716577 8:0.090228342 9:0.089174718 10:0.050457161 11:0 13:0.12418301 14:0.10728301 15:0.125 16:0.10952146 #
-0.01 6:0.066285327 #
-0.01 5:0.399721 6:2.1771903 7:2.1876132 8:0.56639862 9:0.56648821 10:0.24228097 11:0.22505823 13:0.59777778 14:0.35294777 15:0.65122378 16:0.39072061 #
0.01 3:0 4:0.0011574074 5:0.009916069 6:0.11213518 7:0.053763442 8:0.076451913 9:0.076105021 10:0.028026726 11:0 13:0.12446352 14:0.10950571 15:0.1277533 16:0.11441734 #
0.01 3:0 4:0.001214329 5:0.035728376 6:0.60494882 7:0.56143343 8:0.32816899 9:0.32251978 10:0.02552106 11:0.0061164652 13:0.11940298 14:0.13771453 15:0.13975155 16:0.15492943 #
-0.01 6:0.073817037 #
0.01 3:0 4:0.0011454754 5:0.040655922 6:0.72808319 7:0.70579493 8:0.18866874 9:0.18558143 10:0.041517932 11:0.0022080166 13:0.12462006 14:0.14506929 15:0.13650794 16:0.15574192 #
-0.01 6:0.078373015 #
0.01 3:0 4:0.0015873016 5:0.015924988 6:0.032478634 7:0.034188036 8:0.087420963 9:0.087016381 10:0.017073482 11:0 13:0.099547513 14:0.091602281 15:0.11926606 16:0.11159518 #
-0.01 5:0.10296277 6:0.48218152 7:0.45953259 8:0.12072914 9:0.12421406 10:0.067524083 11:0.1939313 13:0.47063556 14:0.51976573 15:0.46868947 16:0.53339058 #
-0.01 6:0.08843074 #
0.01 3:0 4:0.0011514105 5:0.003237959 6:0.080882356 7:0.040441178 8:0.06659434 9:0.06816636 10:0.013416809 11:0 13:0.065693431 14:0.062782213 15:0.073529415 16:0.070966616 #
0.01 3:0 4:0.0011514105 5:0.017545156 6:0.13380282 7:0.056338027 8:0.11075742 9:0.11086641 10:0.0082663754 11:0 13:0.072992697 14:0.068623662 15:0.081481479 16:0.077043734 #
-0.01 6:0.12522936 #
0.01 3:0 4:0.0011574074 5:0.019589759 6:0.56138331 7:0.52853024 8:0.10490611 9:0.10327131 10:0.045010924 11:0.0015504342 13:0.15144767 14:0.17666194 15:0.16666667 16:0.19215378 #
0.01 3:0 4:0.0011574074 5:0.029209988 6:0.72262192 7:0.69544363 8:0.13382471 9:0.13358662 10:0.12753479 11:0 13:0.15245478 14:0.21274456 15:0.16438356 16:0.22318871 #
-0.01 6:0.25242719 #
0.01 3:0 4:0.0011574074 5:0.02887016 6:0.12867647 7:0.044117648 8:0.15914552 9:0.15914322 10:0.011053075 11:0 13:0.087591238 14:0.085733972 15:0.095588237 16:0.094212793 #
-0.01 6:0.30775347 #
0.01 3:0 4:0.0015015015 5:0.016650578 6:0.12969284 7:0.071672358 8:0.1144132 9:0.11343356 10:0.007436018 11:0 13:0.084507041 14:0.079364106 15:0.085714288 16:0.080940783 #
-0.01 1:0.015151516 2:0.041666668 3:0.16666667 4:0.014994233 5:0.62766606 6:0.26068377 7:0.12606838 8:0.96436834 9:0.96565849 10:0.63590598 11:0.20087133 12:0.20588236 13:0.56561923 14:0.61197472 15:0.58708417 16:0.62561125 #
0.01 3:0 4:0.0011514105 5:0.0037386378 6:0.13333334 7:0.039999999 8:0.14212108 9:0.14053093 10:0.0059460183 11:0 13:0.059999999 14:0.052223295 15:0.060810812 16:0.053529721 #
-0.01 6:0.36544585 #
0.01 3:0 4:0.0011947431 5:0.019951377 6:0.35714287 7:0.27891156 8:0.27121359 9:0.26914656 10:0.028656244 11:0 13:0.11403508 14:0.11921256 15:0.11818182 16:0.12067597 #
-0.01 6:0.63455445 #
0.01 3:0 4:0.0011574074 5:0.028404048 6:0.15608466 7:0.055555556 8:0.20052135 9:0.19960973 10:0.0066255587 11:0 13:0.085526317 14:0.071252398 15:0.086666666 16:0.072389983 #
-0.01 5:0.0038582727 6:0.091787443 7:0.014492754 8:0.044827688 9:0.043713249 10:0.001152438 11:0 12:0.44 13:0.074468084 14:0.062370859 15:0.076086953 16:0.064759322 #
0.01 3:0 4:0.027777778 5:0.024329916 6:0.30706075 7:0.24958949 8:0.10325799 9:0.1027975 10:0.017587328 11:0 13:0.11814346 14:0.11715891 15:0.12227074 16:0.12147763 #
-0.01 5:0.68335408 6:0.32180452 7:0.24360903 8:0.85629463 9:0.8584587 10:0.70705795 11:0.44694155 13:0.46105918 14:0.51427966 15:0.47468355 16:0.52945721 #
0.01 3:0 4:0.0011574074 5:0.021034507 6:0.1147541 7:0.072131149 8:0.13574374 9:0.13533328 10:0.0085944496 11:0 13:0.079470202 14:0.083738141 15:0.080536909 16:0.084609911 #
-0.01 5:0.32536355 6:0.054054055 7:0.10810811 8:0.68899065 9:0.71165216 10:0.66924363 11:0.18302666 12:0.44 13:0.53488374 14:0.53802091 15:0.5714286 16:0.5714286 #
0.01 3:0 4:0.0013149244 5:0.0030659849 6:0.064406782 7:0.074576274 8:0.28684637 9:0.28002456 10:0.0045149005 11:0 13:0.062937066 14:0.052310552 15:0.063380279 16:0.053405173 #
-0.01 5:0.35252145 6:0.079136692 7:0.17266187 8:0.71850681 9:0.73363626 10:0.55618727 11:0.25749576 12:0.44 13:0.5714286 14:0.5623613 15:0.59615386 16:0.58500981 #
0.01 5:0.067284741 6:0.77673668 7:0.74636513 8:0.24679017 9:0.24716714 10:0.05416546 11:0 12:0.052631579 13:0.091541134 14:0.14706445 15:0.11568123 16:0.17296693 #
-0.01 5:0.40450472 6:0.085858583 7:0.13636364 8:0.71300489 9:0.72499812 10:0.53704625 11:0.25086743 12:0.44 13:0.56551725 14:0.56758052 15:0.59154928 16:0.58338958 #
-0.01 5:0.75120246 6:0.49819493 7:0.41696751 8:0.76245224 9:0.76590097 10:0.7410717 11:0.59718984 13:0.38235295 14:0.46898907 15:0.40806046 16:0.51217633 #
0.01 3:0 4:0.0011574074 5:0.020559296 6:0.14285715 7:0.1015873 8:0.15334488 9:0.15288143 10:0.0096525606 11:0 13:0.09375 14:0.10168615 15:0.094936706 16:0.102706 #
-0.01 5:0.32754859 6:0.10666667 7:0.12666667 8:0.64896947 9:0.64911592 10:0.49930301 11:0.18057878 12:0.44 13:0.65517241 14:0.64149296 15:0.68468469 16:0.65850866 #
0.01 3:0 4:0.0011396011 5:0.028336003 6:0.22442244 7:0.19471948 8:0.18067729 9:0.1803862 10:0.0083636232 11:0 13:0.087248325 14:0.090989217 15:0.087837838 16:0.091631129 #
-0.01 5:0.32167479 6:0.052631579 7:0.15789473 8:0.61762351 9:0.63661271 10:0.63708323 11:0.15742423 12:0.44 13:0.66037738 14:0.6574356 15:0.67307693 16:0.66669691 #
0.01 3:0 4:0.0011574074 5:0.035406668 6:0.48617512 7:0.40552995 8:0.25262219 9:0.24392202 10:0.026463412 11:0 13:0.11464968 14:0.13373445 15:0.12337662 16:0.14246306 #
-0.01 5:0.36643884 6:0.081818178 7:0.16363636 8:0.61369348 9:0.63768166 10:0.63342345 11:0.20823744 12:0.44 13:0.62921351 14:0.65562886 15:0.64772725 16:0.66695184 #
0.01 3:0 4:0.0011514105 5:0.070273757 6:0.50453418 7:0.47897774 8:0.23190576 9:0.23094366 10:0.039322145 11:0 13:0.12742382 14:0.13847335 15:0.14705883 16:0.14882007 #
-0.01 5:0.71155995 6:0.35192308 7:0.32884616 8:0.7164461 9:0.7178812 10:0.81436998 11:0.44243473 13:0.55555558 14:0.60062498 15:0.57062149 16:0.61779767 #
-0.01 5:0.41979015 6:0.15533981 7:0.2038835 8:0.71135998 9:0.72517419 10:0.62824869 11:0.23086317 12:0.44 13:0.6025641 14:0.58768368 15:0.64935064 16:0.63311434 #
0.01 3:0 4:0.0015325671 5:0.0057677841 6:0.071138211 7:0.1300813 8:0.084067576 9:0.084236406 10:0.012650484 11:0 13:0.098522164 14:0.10027322 15:0.11 16:0.10786387 #
-0.01 5:0.4107919 6:0.17777778 7:0.15555556 8:0.682769 9:0.68897599 10:0.54270446 11:0.23956771 12:0.44 13:0.64935064 14:0.65795171 15:0.66233766 16:0.67111075 #
0.01 3:0 4:0.0011574074 5:0.0065486184 6:0.33068782 7:0.29894179 8:0.27496803 9:0.27315256 10:0.016627682 11:0 13:0.065789476 14:0.072610818 15:0.07333333 16:0.074845523 #
-0.01 5:0.40849862 6:0.12025317 7:0.1392405 8:0.7642644 9:0.77088296 10:0.50458884 11:0.22204027 12:0.44 13:0.62393165 14:0.62661523 15:0.64102566 16:0.64657575 #
0.01 5:0.051193517 6:0.72396547 7:0.69349706 8:0.26519716 9:0.26309752 10:0.039420351 11:0 12:0.052631579 13:0.10386152 14:0.16557391 15:0.12556054 16:0.18211791 #
0.01 3:0 4:0.0011454754 5:0.01506188 6:0.057142857 7:0.11746032 8:0.11542101 9:0.11209384 10:0.0044246106 11:0 13:0.084848486 14:0.077260859 15:0.086419754 16:0.079381615 #
-0.01 5:0.66364849 6:0.30066445 7:0.2807309 8:0.72052109 9:0.72267431 10:0.76954949 11:0.39985031 13:0.5794872 14:0.6065284 15:0.60209423 16:0.63082159 #
-0.01 5:0.40063059 6:0.11333334 7:0.2 8:0.70757371 9:0.72700197 10:0.66271526 11:0.22715043 12:0.44 13:0.6111111 14:0.59329218 15:0.64150941 16:0.61589557 #
0.01 3:0 4:0.001214329 5:0.030658662 6:0.81480002 7:0.79439998 8:0.33633232 9:0.33143711 10:0.053741604 11:0 13:0.099025972 14:0.1502431 15:0.12847222 16:0.19048896 #
-0.01 5:0.40328431 6:0.055944055 7:0.16083916 8:0.72555578 9:0.73737651 10:0.58493072 11:0.2524699 12:0.44 13:0.62616825 14:0.61478239 15:0.63106793 16:0.61345327 #
0.01 3:0 4:0.0011947431 5:0.018784925 6:0.16666667 7:0.30864197 8:0.2059706 9:0.20526175 10:0.014272752 11:0.0041303276 13:0.081632651 14:0.0713984 15:0.089041099 16:0.07406716 #
0.01 3:0 4:0.0011514105 5:0.018221013 6:0.1875 7:0.12867647 8:0.11928546 9:0.11958249 10:0.008640849 11:0 13:0.080291972 14:0.078316122 15:0.088235296 16:0.086351052 #
-0.01 5:0.65480071 6:0.017241379 7:0.01231527 8:0.84121108 9:0.84181726 10:0.5938887 11:0.39672968 13:0.5529412 14:0.53440154 15:0.55621302 16:0.54045308 #
-0.01 5:0.33588254 6:0.079646021 7:0.14159292 8:0.67506719 9:0.68472636 10:0.64337826 11:0.20494772 12:0.44 13:0.65432101 14:0.65455747 15:0.66666669 16:0.66258913 #
0.01 3:0 4:0.0011574074 5:0.018712342 6:0.66339624 7:0.61056602 8:0.25896803 9:0.25024435 10:0.028307155 11:0.0016121694 13:0.1127451 14:0.14609139 15:0.12307692 16:0.15992007 #
-0.01 5:0.36309871 6:0.13265306 7:0.12244898 8:0.7533468 9:0.77841049 10:0.64552718 11:0.18102513 12:0.44 13:0.58666664 14:0.5913654 15:0.64827585 16:0.64385074 #
0.01 3:0 4:0.0011574074 5:0.012814027 6:0.046195652 7:0.21195652 8:0.096175566 9:0.095613085 10:0.069696866 11:0 13:0.083333336 14:0.064180516 15:0.084415585 16:0.065860152 #
0.01 3:0 4:0.0011514105 5:0.042510707 6:0.89212471 7:0.9007383 8:0.38603675 9:0.38568991 10:0.10378253 11:0 13:0.063694268 14:0.14122322 15:0.077181205 16:0.16400146 #
-0.01 5:0.4009766 6:0.020408163 7:0.091836736 8:0.72423828 9:0.73122901 10:0.57163161 11:0.23544876 12:0.44 13:0.61538464 14:0.64970511 15:0.62820512 16:0.65844518 #
-0.01 5:0.38366765 6:0.11219512 7:0.12682927 8:0.74225771 9:0.7508111 10:0.65941101 11:0.16738427 12:0.44 13:0.61935484 14:0.61344671 15:0.64705884 16:0.64080691 #
0.01 3:0 4:0.0012012012 5:0.003176172 6:0.23225807 7:0.18064517 8:0.10790149 9:0.10816738 10:0.0056138113 11:0 13:0.094339624 14:0.10314944 15:0.095541403 16:0.10499527 #
0.01 3:0 4:0.0011574074 5:0.024420995 6:0.42163008 7:0.36990595 8:0.10905091 9:0.10758924 10:0.026414214 11:0.0029429081 13:0.125 14:0.12975684 15:0.14351852 16:0.14351852 #
-0.01 5:0.40294895 6:0.057377048 7:0.081967212 8:0.70491201 9:0.70478225 10:0.66375452 11:0.23969859 12:0.44 13:0.61702126 14:0.62369198 15:0.62365592 16:0.630472 #
-0.01 5:0.36963567 6:0.11724138 7:0.17931035 8:0.69126105 9:0.70127219 10:0.74006802 11:0.21866407 12:0.44 13:0.64347827 14:0.6352458 15:0.65486723 16:0.64634365 #
0.01 3:0 4:0.0011574074 5:0.028639546 6:0.63915855 7:0.5825243 8:0.26376083 9:0.25488698 10:0.023851473 11:0 13:0.10144927 14:0.12088025 15:0.11343284 16:0.13660142 #
-0.01 5:0.4113273 6:0.027210884 7:0.10204082 8:0.61058551 9:0.61258662 10:0.65852636 11:0.25589964 12:0.44 13:0.66363639 14:0.67275506 15:0.67889911 16:0.67889911 #
0.01 3:0 4:0.0011454754 5:0.016105743 6:0.4165982 7:0.38537386 8:0.089589745 9:0.088942505 10:0.028995752 11:0.0007967361 13:0.13029316 14:0.13703555 15:0.14715719 16:0.14968151 #
-0.01 5:0.34972292 6:0.089385472 7:0.1396648 8:0.7885679 9:0.80611598 10:0.71629173 11:0.16315167 12:0.44 13:0.60526317 14:0.59097511 15:0.6339286 16:0.60739249 #
0.01 3:0 4:0.0011574074 5:0.029187197 6:0.56241429 7:0.51028806 8:0.21173654 9:0.21123204 10:0.02527253 11:0 13:0.10743801 14:0.11293891 15:0.12340426 16:0.12901637 #
-0.01 5:0.629565 6:0.042780749 7:0.050802138 8:0.82936329 9:0.82992899 10:0.7645511 11:0.36733276 13:0.56849313 14:0.53154916 15:0.5724138 16:0.53823531 #
0.01 3:0 4:0.0012626263 5:0.031199919 6:0.33967391 7:0.29891303 8:0.14960249 9:0.14893641 10:0.0089041153 11:0 13:0.089743592 14:0.089743592 15:0.090909094 16:0.091205694 #
-0.01 5:0.3758747 6:0.030120483 7:0.15662651 8:0.73639637 9:0.75389439 10:0.66044277 11:0.2262748 12:0.44 13:0.61240309 14:0.61365396 15:0.66666669 16:0.64846963 #
0.01 3:0 4:0.0011947431 5:0.015657095 6:0.35973597 7:0.53465348 8:0.20471303 9:0.20396404 10:0.014566521 11:0 13:0.10738255 14:0.089411788 15:0.12162162 16:0.097774118 #
-0.01 5:0.38223454 6:0.16149068 7:0.22981367 8:0.77506906 9:0.77242875 10:0.62396085 11:0.23126355 12:0.44 13:0.66666669 14:0.65351611 15:0.68907565 16:0.66966116 #
0.01 3:0 4:0.0011947431 5:0.04237045 6:0.64204544 7:0.59848487 8:0.28299886 9:0.28119579 10:0.038126241 11:0 13:0.080838323 14:0.10221429 15:0.094043888 16:0.11563377 #
-0.01 5:0.40342116 6:0.059602648 7:0.11258278 8:0.73213106 9:0.74266183 10:0.58590418 11:0.24914354 12:0.44 13:0.65289259 14:0.6557377 15:0.66942149 16:0.67220497 #
0.01 3:0 4:0.001001001 5:0.013010998 6:0.22580644 7:0.30967742 8:0.10596342 9:0.10527731 10:0.0087335501 11:0 13:0.10691824 14:0.088704236 15:0.10828026 16:0.090050511 #
-0.01 5:0.38901377 6:0.038167939 7:0.11450382 8:0.71130526 9:0.71454996 10:0.62798566 11:0.216251 12:0.44 13:0.65625 14:0.6703645 15:0.66315788 16:0.68132997 #
0.01 5:0.084374055 6:0.90083385 7:0.88864654 8:0.33468732 9:0.33636409 10:0.085639909 11:0.00089371571 12:0.052631579 13:0.072923698 14:0.13976923 15:0.093848579 16:0.1662634 #
-0.01 5:0.35709491 6:0.10596026 7:0.14569536 8:0.78031254 9:0.78179801 10:0.65453023 11:0.19010542 12:0.44 13:0.65765768 14:0.63785267 15:0.66363639 16:0.6434778 #
0.01 3:0 4:0.0011574074 5:0.017746571 6:0.24067797 7:0.21355931 8:0.11767853 9:0.11658509 10:0.0095960097 11:0 13:0.07692308 14:0.075358376 15:0.077464789 16:0.076135963 #
-0.01 5:0.75412852 6:0.046743594 7:0.14756504 8:0.71934968 9:0.72442645 10:0.76643384 11:0.4685435 13:0.608522 14:0.54718322 15:0.64339781 16:0.58504742 #
0.01 3:0 4:0.027777778 5:0.024406986 6:0.41059601 7:0.37086093 8:0.15003866 9:0.14962389 10:0.012763807 11:0 13:0.096774191 14:0.10776318 15:0.098039217 16:0.10890171 #
-0.01 5:0.41432616 6:0.12903225 7:0.2 8:0.68616116 9:0.68350673 10:0.73729664 11:0.26592213 12:0.44 13:0.66393441 14:0.66122997 15:0.66942149 16:0.6639567 #
0.01 3:0 4:0.0011574074 5:0.021446541 6:0.47783253 7:0.42364532 8:0.12759794 9:0.12945668 10:0.035270859 11:0 13:0.10970464 14:0.12223578 15:0.12663755 16:0.13550811 #
-0.01 5:0.38376129 6:0.085470088 7:0.14529915 8:0.70907861 9:0.73712128 10:0.79338372 11:0.21276158 12:0.44 13:0.58426964 14:0.60343671 15:0.66292137 16:0.6666773 #
0.01 3:0 4:0.0011947431 5:0.02031406 6:0.36423841 7:0.53973508 8:0.19172987 9:0.19209439 10:0.014291172 11:0 13:0.1038961 14:0.087957837 15:0.11764706 16:0.096163228 #
-0.01 5:0.61324829 6:0.11307421 7:0.083038867 8:0.8089574 9:0.80844593 10:0.79549998 11:0.386455 13:0.59278351 14:0.57460254 15:0.60526317 16:0.58700979 #
0.01 3:0 4:0.0014430014 5:0.01343633 6:0.40488657 7:0.39441535 8:0.087042354 9:0.086927101 10:0.012998154 11:0 13:0.13157895 14:0.13951467 15:0.13368984 16:0.1414689 #
-0.01 5:0.36897644 6:0.02631579 7:0.14035088 8:0.71330851 9:0.73079813 10:0.75399202 11:0.16543102 12:0.44 13:0.63043481 14:0.65205592 15:0.65168542 16:0.66684288 #
0.01 3:0 4:0.0011757789 5:0.0027094402 6:0.0098360656 7:0.10163935 8:0.066007674 9:0.066027388 10:0.0042945966 11:0 13:0.046357617 14:0.040689424 15:0.053691275 16:0.047672283 #
-0.01 5:0.4091078 6:0.034482758 7:0 8:0.73856282 9:0.74911702 10:0.60945022 11:0.2462348 12:0.44 13:0.62222224 14:0.64406121 15:0.64444447 16:0.6710698 #
0.01 5:0.094261914 6:0.9790234 7:0.97724831 8:0.40504932 9:0.40371564 10:0.098497063 11:0.0037378212 12:0.052631579 13:0.03814593 14:0.12956956 15:0.054550592 16:0.16264355 #
-0.01 5:0.66325033 6:0.054054055 7:0.083783783 8:0.87291163 9:0.87365484 10:0.67918152 11:0.46283206 13:0.58064514 14:0.54031891 15:0.59477127 16:0.55454826 #
0.01 5:0.11054228 6:0.97407275 7:0.97247273 8:0.3902944 9:0.38539234 10:0.094261952 11:0.0022733223 12:0.052631579 13:0.035722736 14:0.12549475 15:0.048906438 16:0.15285549 #
-0.01 5:0.43589222 6:0.0071428572 7:0.078571431 8:0.78533274 9:0.79030758 10:0.4415549 11:0.2821601 12:0.44 13:0.66666669 14:0.67949587 15:0.68627453 16:0.68627453 #
0.01 5:0.0548154 6:0.92700452 7:0.91943556 8:0.33143422 9:0.33108285 10:0.090421811 11:0.0025428745 12:0.052631579 13:0.068872385 14:0.14957327 15:0.092271291 16:0.1866145 #
-0.01 5:0.35825408 6:0.025477707 7:0.14649682 8:0.71725225 9:0.7231952 10:0.76876163 11:0.22532028 12:0.44 13:0.62601626 14:0.63379318 15:0.66115701 16:0.66390616 #
0.01 5:0.085561492 6:0.98442382 7:0.98294872 8:0.39241332 9:0.39067334 10:0.085004903 11:0.0040458622 12:0.052631579 13:0.031936128 14:0.12763028 15:0.047484454 16:0.16388988 #
-0.01 5:0.35931793 6:0.01775148 7:0.17751479 8:0.8077513 9:0.81569856 10:0.64054602 11:0.21080895 12:0.44 13:0.63157892 14:0.63436741 15:0.66371679 16:0.66667324 #
0.01 5:0.077937149 6:0.9897818 7:0.98858184 8:0.46163768 9:0.45820442 10:0.070209488 11:0.0021892358 12:0.053333335 13:0.017979655 14:0.086787879 15:0.026731471 16:0.11185975 #
-0.01 5:0.39972818 6:0.1010101 7:0.15151516 8:0.73854715 9:0.74393803 10:0.64569545 11:0.24228546 12:0.44 13:0.67532468 14:0.66254133 15:0.6883117 16:0.67528254 #
0.01 3:0 4:0.0011574074 5:0.022643674 6:0.81283712 7:0.79449838 8:0.12960614 9:0.12974498 10:0.16312747 11:0 13:0.12970711 14:0.20402455 15:0.14128035 16:0.21369693 #
-0.01 5:0.33885363 6:0.11409396 7:0.19463088 8:0.68900055 9:0.71075952 10:0.75530791 11:0.18518594 12:0.44 13:0.68965518 14:0.68646532 15:0.69298244 16:0.68698251 #
0.01 3:0 4:0.0011574074 5:0.021745555 6:0.65250546 7:0.6111111 8:0.24033827 9:0.23920737 10:0.036981735 11:0 13:0.10544217 14:0.1221704 15:0.11072665 16:0.12837541 #
-0.01 5:0.46795878 6:0.15267175 7:0.1221374 8:0.74432188 9:0.74467862 10:0.6308443 11:0.32952657 12:0.44 13:0.64220184 14:0.65431994 15:0.6574074 16:0.66673279 #
0.01 5:0.072151102 6:0.9947961 7:0.99443132 8:0.46633384 9:0.45899233 10:0.072841436 11:0.0040345266 12:0.053333335 13:0.015101773 14:0.086322077 15:0.020943871 16:0.10408188 #
-0.01 5:0.45120147 6:0.046052631 7:0.019736841 8:0.78127247 9:0.78191388 10:0.66717368 11:0.25316459 12:0.44 13:0.60185188 14:0.62235874 15:0.61682242 16:0.63487959 #
0.01 3:0 4:0.0011574074 5:0.024275564 6:0.54081631 7:0.48979592 8:0.12936306 9:0.12979501 10:0.057711869 11:0 13:0.11403508 14:0.12942533 15:0.12727273 16:0.14564382 #
-0.01 5:0.38454026 6:0.04587156 7:0.13761468 8:0.75686181 9:0.77156222 10:0.62440223 11:0.20370138 12:0.44 13:0.6785714 14:0.66312784 15:0.68674701 16:0.67077392 #
0.01 5:0.025707344 6:0.82405347 7:0.80549371 8:0.31088224 9:0.30942932 10:0.040133853 11:0 12:0.053333335 13:0.076566122 14:0.12734887 15:0.088383839 16:0.13776112 #
-0.01 5:0.40058288 6:0.064516127 7:0.16935484 8:0.72823209 9:0.73018116 10:0.66401786 11:0.21177317 12:0.44 13:0.68965518 14:0.6779452 15:0.68965518 16:0.67806351 #
0.01 3:0 4:0.0012077295 5:0.0040438464 6:0.3245033 7:0.35099337 8:0.1495164 9:0.14732002 10:0.0077012372 11:0 13:0.084415585 14:0.092956796 15:0.084967323 16:0.094764367 #
-0.01 5:0.43616498 6:0.051948052 7:0.15584415 8:0.78062749 9:0.78729779 10:0.75350821 11:0.26739353 12:0.44 13:0.61403507 14:0.60099679 15:0.625 16:0.60890287 #
0.01 3:0 4:0.0011574074 5:0.053321224 6:0.87227416 7:0.9283489 8:0.3615374 9:0.36230725 10:0.037591387 11:0 13:0.060851928 14:0.14485656 15:0.067510545 16:0.15758003 #
-0.01 5:0.41959137 6:0.086092718 7:0.1589404 8:0.69361234 9:0.70147347 10:0.66853398 11:0.27796933 12:0.44 13:0.6859504 14:0.6888026 15:0.69491524 16:0.6919893 #
0.01 3:0 4:0.0011514105 5:0.023949185 6:0.38715279 7:0.30208334 8:0.092529617 9:0.092293337 10:0.018172296 11:0 13:0.092105262 14:0.098463826 15:0.11111111 16:0.11501092 #
-0.01 5:0.71841538 6:0.040511727 7:0.055437099 8:0.83913487 9:0.839414 10:0.72653854 11:0.48022047 13:0.597561 14:0.53578317 15:0.6111111 16:0.54863012 #
0.01 3:0 4:0.0011514105 5:0.061558947 6:0.50570345 7:0.46863118 8:0.11180267 9:0.11018717 10:0.033751965 11:0.0036718454 13:0.10610932 14:0.10914942 15:0.13043478 16:0.13087322 #
-0.01 5:0.46666667 6:0.14130434 7:0.18478261 8:0.71296191 9:0.73710984 10:0.64041197 11:0.2712445 12:0.44 13:0.67567569 14:0.69972855 15:0.67567569 16:0.70485485 #
0.01 3:0 4:0.001214329 5:0.016883003 6:0.77425873 7:0.74460918 8:0.26050237 9:0.25724033 10:0.059777323 11:0 13:0.092731826 14:0.13041873 15:0.11052632 16:0.14903365 #
-0.01 5:0.42424244 6:0.0625 7:0.0625 8:0.7407788 9:0.74203187 10:0.65745628 11:0.24521811 12:0.44 13:0.64705884 14:0.67047417 15:0.65346533 16:0.67378515 #
0.01 3:0 4:0.0012077295 5:0.0080109024 6:0.38666666 7:0.35333332 8:0.16502292 9:0.16198802 10:0.008639154 11:0 13:0.07333333 14:0.080983117 15:0.074324325 16:0.083237842 #
-0.01 5:0.44674936 6:0.21875 7:0.15625 8:0.76547265 9:0.77297509 10:0.65365559 11:0.24216445 12:0.44 13:0.68055558 14:0.66680557 15:0.69014084 16:0.67600679 #
0.01 3:0 4:0.00099206355 5:0.0049193683 6:0.53015876 7:0.52380955 8:0.19129245 9:0.19096179 10:0.022380007 11:0 13:0.09375 14:0.11058147 15:0.094936706 16:0.1122596 #
-0.01 5:0.42481744 6:0.053763442 7:0.11827957 8:0.74654192 9:0.74579996 10:0.62357122 11:0.21972555 12:0.44 13:0.67605633 14:0.67134511 15:0.6857143 16:0.68086821 #
0.01 3:0 4:0.027777778 5:0.031631354 6:0.49040139 7:0.43455496 8:0.11177459 9:0.11047248 10:0.02387213 11:0 13:0.11052632 14:0.11387175 15:0.11229946 16:0.11778067 #
-0.01 5:0.44019499 6:0.063492067 7:0.08730159 8:0.68513894 9:0.68789965 10:0.6334874 11:0.2999118 12:0.44 13:0.67307693 14:0.69337523 15:0.69306928 16:0.70359755 #
0.01 5:0.078776106 6:0.99449956 7:0.99407458 8:0.45997143 9:0.46156093 10:0.076948531 11:0.0024156254 12:0.053333335 13:0.012419606 14:0.070244148 15:0.017524024 16:0.086562298 #
-0.01 5:0.44131747 6:0.065693431 7:0.14598539 8:0.74353188 9:0.75020701 10:0.7105251 11:0.28508085 12:0.44 13:0.63725489 14:0.64359587 15:0.64999998 16:0.65659916 #
0.01 5:0.09324611 6:0.98735499 7:0.98667413 8:0.38873535 9:0.38435504 10:0.083281934 11:0.0019558768 12:0.052631579 13:0.024950756 14:0.099894449 15:0.037140463 16:0.13258559 #
-0.01 5:0.41993627 6:0 7:0.095419846 8:0.82404357 9:0.82588834 10:0.5859552 11:0.24811117 12:0.44 13:0.63483149 14:0.64393997 15:0.64406782 16:0.65336215 #
0.01 5:0.036351334 6:0.86340016 7:0.85152191 8:0.33102798 9:0.32983464 10:0.027539322 11:0 12:0.053333335 13:0.069605567 14:0.12673919 15:0.075757578 16:0.13325045 #
-0.01 5:0.63512701 6:0.027027028 7:0.059459459 8:0.8808825 9:0.88177806 10:0.72713679 11:0.38678297 13:0.60509557 14:0.56355262 15:0.61038959 16:0.5709672 #
0.01 5:0.095361605 6:0.96546704 7:0.96092474 8:0.28168887 9:0.28070402 10:0.076488823 11:0.008639466 12:0.052631579 13:0.05575468 14:0.15644915 15:0.07541766 16:0.1906023 #
-0.01 5:0.40001512 6:0 7:0.0234375 8:0.70862257 9:0.71612906 10:0.75597626 11:0.23352961 12:0.44 13:0.63636363 14:0.65306896 15:0.63636363 16:0.66012937 #
0.01 5:0.10841724 6:0.98781705 7:0.98609048 8:0.37305999 9:0.37159377 10:0.084979698 11:0.0035290238 12:0.052631579 13:0.026045086 14:0.10282886 15:0.038257468 16:0.13466957 #
-0.01 5:0.5542717 6:0.061870504 7:0.035971224 8:0.81347728 9:0.81527424 10:0.81909931 11:0.27867851 13:0.62068963 14:0.60452694 15:0.64824122 16:0.63103509 #
0.01 3:0 4:0.0011574074 5:0.029428655 6:0.61837655 7:0.60428411 8:0.094828762 9:0.09488637 10:0.048263367 11:0.0026429051 13:0.13013698 14:0.16215594 15:0.14797136 16:0.17202985 #
-0.01 5:0.43826932 6:0.04587156 7:0.13761468 8:0.68534285 9:0.70209235 10:0.73359346 11:0.27888456 12:0.44 13:0.65909094 14:0.66286796 15:0.67816091 16:0.68609291 #
0.01 3:0 4:0.0011514105 5:0.030777551 6:0.5721519 7:0.53037977 8:0.13439664 9:0.1277021 10:0.017553521 11:0 13:0.12030075 14:0.13507281 15:0.12260536 16:0.13902141 #
-0.01 5:0.39194703 6:0.026086956 7:0.086956523 8:0.76027441 9:0.76441425 10:0.74645329 11:0.24641643 12:0.44 13:0.64044946 14:0.64776909 15:0.63636363 16:0.64372069 #
0.01 3:0 4:0.027777778 5:0.030060746 6:0.47395834 7:0.42534721 8:0.099462509 9:0.098689407 10:0.024948323 11:0 13:0.1008772 14:0.10970347 15:0.11555555 16:0.12256517 #
-0.01 5:0.40192583 6:0.088435374 7:0.12244898 8:0.7540192 9:0.75700647 10:0.63713884 11:0.26385143 12:0.44 13:0.68141592 14:0.67842066 15:0.6964286 16:0.69334018 #
0.01 3:0 4:0.0011396011 5:0.012880952 6:0.14098361 7:0.29508197 8:0.09462107 9:0.093468308 10:0.0032855275 11:0 13:0.059602648 14:0.054684829 15:0.073825501 16:0.061891586 #
-0.01 5:0.39320824 6:0.08176101 7:0.13836478 8:0.76466942 9:0.765912 10:0.71542245 11:0.26592213 12:0.44 13:0.65853661 14:0.64303946 15:0.68032789 16:0.66419131 #
0.01 5:0.018545344 6:0.85077953 7:0.84038603 8:0.35532868 9:0.35478815 10:0.020100204 11:0 12:0.053333335 13:0.060324825 14:0.10436466 15:0.06818182 16:0.11306676 #
-0.01 5:0.62364042 6:0.06967213 7:0.045081966 8:0.86156785 9:0.86415833 10:0.7959373 11:0.32490066 13:0.59776539 14:0.57419103 15:0.61849713 16:0.59489447 #
0.01 3:0 4:0.0011454754 5:0.013401407 6:0.33333334 7:0.30691057 8:0.094150022 9:0.093049459 10:0.0071345763 11:0 13:0.08374384 14:0.089181423 15:0.085000001 16:0.090353981 #
-0.01 5:0.49913719 6:0.030075189 7:0.097744361 8:0.75825894 9:0.76476401 10:0.54211164 11:0.33926034 12:0.44 13:0.68367344 14:0.66365916 15:0.68367344 16:0.66687304 #
0.01 3:0 4:0.027777778 5:0.0099027697 6:0.50406504 7:0.50813007 8:0.11196972 9:0.11081557 10:0.013632592 11:0 13:0.1182266 14:0.12843962 15:0.12 16:0.13093074 #
-0.01 5:0.38057533 6:0.063953489 7:0.063953489 8:0.75768358 9:0.78051633 10:0.76846039 11:0.20825267 12:0.44 13:0.61016947 14:0.62402278 15:0.6695652 16:0.67546457 #
0.01 5:0.037860312 6:0.99562466 7:0.99527466 8:0.48670459 9:0.48122546 10:0.049004827 11:0.00069949328 12:0.053333335 13:0.011088933 14:0.069809474 15:0.016958734 16:0.092083476 #
-0.01 5:0.39759257 6:0.049689442 7:0.13664596 8:0.7348817 9:0.74756491 10:0.80856019 11:0.22549194 12:0.44 13:0.63636363 14:0.63116872 15:0.66386557 16:0.66109365 #
0.01 3:0 4:0.0011514105 5:0.0047096517 6:0.52580643 7:0.48064515 8:0.12706533 9:0.12695886 10:0.012411934 11:0 13:0.10691824 14:0.12156199 15:0.10828026 16:0.12233382 #
-0.0092794514356630414 5:0.41621187 6:0.039682541 7:0.095238097 8:0.76799786 9:0.76862383 10:0.61755544 11:0.20507579 12:0.44 13:0.68041235 14:0.67693198 15:0.69791669 16:0.69075835 #
0.0092794514356630223 3:0 4:0.0011111111 5:0.026051203 6:0.57843137 7:0.54248369 8:0.11923571 9:0.12000059 10:0.02551889 11:0.0018274513 13:0.10544217 14:0.12826192 15:0.12110727 16:0.1424118 #
