SVM-light Version V6.02
0 # kernel type
3 # kernel parameter -d 
1 # kernel parameter -g 
1 # kernel parameter -s 
1 # kernel parameter -r 
empty# kernel parameter -u 
16 # highest feature index 
1392 # number of training documents 
204 # number of support vectors plus 1 
-2.2031388 # threshold b, each following line is a SV (starting with alpha*y)
-2 1:0.0059559261 2:0.011904762 3:0.0625 4:0.0061721937 5:0.38589197 6:0.073732719 7:0.041474655 8:0.78561366 9:0.79635346 10:0.87623948 11:0.23210089 12:0.85365856 13:0.58955222 14:0.56674892 15:0.60629922 16:0.57953739 #
-1.7605107841421698822159669362009 1:0.021276595 2:0.25 3:0.5 4:0.069444448 5:0.67657024 6:0.1496761 7:0.0051142178 8:0.97511679 9:0.97591549 10:0.91010332 11:0.36344135 12:0.14341085 13:0.58015269 14:0.59449196 15:0.65250963 16:0.65461928 #
-2 1:0.0015135327 2:0.04296875 3:0.09490741 4:0.0021416505 12:0.23232323 #
2 1:0.041322313 3:0.12244898 4:0.013223141 5:0.53612626 6:0.21793416 7:0.05448354 8:0.94235808 9:0.94688267 10:0.90062875 11:0.26354483 12:0.9464286 13:0.67368424 14:0.69164592 15:0.71910113 16:0.72627693 #
-2 1:0.0013550136 2:0.039999999 3:0.12401434 4:0.0011686288 5:0.7630232 6:0.2827225 7:0.085514836 8:0.97355026 9:0.97534502 10:0.92742264 11:0.53899527 12:0.26530612 13:0.77685952 14:0.78679162 15:0.80603451 16:0.811297 #
2 1:0.047499999 3:0.12244898 4:0.013223141 5:0.31998742 6:0.17176871 7:0.064625852 8:0.83135432 9:0.83370382 10:0.72721827 11:0.1289639 12:0.9464286 13:0.47882736 14:0.49184561 15:0.53355706 16:0.54559022 #
2 5:0.72623962 6:0.17167722 7:0.14161393 8:0.94433725 9:0.94542581 10:0.86038935 11:0.47420004 12:0.68421054 13:0.73909247 14:0.74961734 15:0.77044028 16:0.76484859 #
-2 5:0.734869 6:0.026392963 7:0.14727925 8:0.9352603 9:0.93894118 10:0.80334347 11:0.45184726 12:0.90909094 13:0.71246457 14:0.65129268 15:0.75275588 16:0.69034719 #
2 1:0.024691358 3:0.12244898 4:0.013223141 5:0.52204013 6:0.19117647 7:0.030462185 8:0.93849254 9:0.94166827 10:0.74445951 11:0.27907896 12:0.9464286 13:0.64079821 14:0.6518842 15:0.68105513 16:0.68187326 #
-2 1:0.006828852 2:0.035714287 3:0.05882353 4:0.0058777863 5:0.48947826 6:0.14155251 7:0.04109589 8:0.86664265 9:0.87815964 10:0.71898466 11:0.36899734 12:0.85000002 13:0.63157892 14:0.65808874 15:0.64666665 16:0.6741966 #
-2 1:0.0067554889 2:0.040123455 3:0.08024691 4:0.0053560175 5:0.011364194 6:0.17766498 7:0.015228426 8:0.12776348 9:0.12896189 10:0.023359925 11:0.0056744497 12:0.84615386 13:0.089622639 14:0.092390828 15:0.11004785 16:0.1111163 #
-2 1:0.0040854807 2:0 3:0.086363636 4:0.001154037 5:0.80601466 6:0.22164682 7:0.10564474 8:0.977575 9:0.97910076 10:0.97714949 11:0.53293222 12:0.40000001 13:0.7491228 14:0.72639883 15:0.80341882 16:0.76887274 #
-2 1:0.0032840723 2:0.035 3:0.047325104 4:0.00054986018 5:0.67785698 6:0.10403083 7:0.064908125 8:0.9728803 9:0.97506571 10:0.87383038 11:0.20076445 12:0.16666667 13:0.61780506 14:0.60339671 15:0.68625754 16:0.65347427 #
2 1:0.039525691 3:0.12244898 4:0.013223141 5:0.11541125 6:0.12299465 7:0.085561499 8:0.46376494 9:0.50605297 10:0.50124842 11:0.039104756 12:0.9464286 13:0.41269842 14:0.39890236 15:0.43801653 16:0.41315567 #
-2 1:0.0058422592 2:0.020833334 3:0.03846154 4:0.003947258 5:0.19550908 6:0.08130081 7:0.12466124 8:0.78035408 9:0.79876953 10:0.53866506 11:0.069046967 12:0.83333331 13:0.47804877 14:0.46583861 15:0.54166669 16:0.51916999 #
2 1:0.0022988506 2:0.013227513 3:0.03846154 4:0.0037433156 5:0.66936773 7:0.16661751 8:0.95193857 9:0.95461124 10:0.94481421 11:0.42308697 13:0.75340599 14:0.69108617 15:0.78995436 16:0.7167756 #
-2 1:0.014925373 2:0.071428575 3:0.5 4:0.069444448 5:0.79153645 6:0.24740741 7:0.12691358 8:0.98377186 9:0.98382914 10:0.93014413 11:0.49777398 12:0.25694445 13:0.76297575 14:0.79414892 15:0.79918033 16:0.82225066 #
-2 1:0.039999999 2:0.078125 3:0.18131869 4:0.0085043991 5:0.33201841 6:0.03267974 7:0.03267974 8:0.77764493 9:0.79197508 10:0.53147441 11:0.19843134 12:0.20547946 13:0.5247525 14:0.51963282 15:0.58585858 16:0.58292192 #
-2 1:0.0047592386 2:0.022058824 3:0.030769231 4:0.0026483526 5:0.2837846 6:0.0373444 7:0.186722 8:0.71744478 9:0.72046548 10:0.70260328 11:0.11449286 12:0.84210527 13:0.55151516 14:0.54175305 15:0.57763976 16:0.56716806 #
2 1:0.036363635 2:0.078125 3:0.147929 4:0.0094444444 5:0.56073767 6:0.18124738 7:0.15320218 8:0.96850157 9:0.96951228 10:0.92584765 11:0.35465193 12:0.18072289 13:0.67557251 14:0.68185359 15:0.72815531 16:0.72866082 #
-2 5:0.67454565 6:0.17982587 7:0.099069349 8:0.95731622 9:0.95828235 10:0.91519159 11:0.39480647 12:0.89285713 13:0.7196691 14:0.73511308 15:0.75639713 16:0.76991242 #
2 5:0.59264791 6:0.0072669825 7:0.075829387 8:0.89221829 9:0.89858413 10:0.65055287 11:0.37168294 12:0.66101694 13:0.8018868 14:0.77296436 15:0.83630472 16:0.79838574 #
-2 1:0.0073313783 2:0.052083332 3:0.0625 4:0.0063763396 5:0.22888301 6:0.14379086 7:0.11111111 8:0.79762405 9:0.81184357 10:0.75407743 11:0.059958853 12:0.83333331 13:0.5 14:0.50002712 15:0.55248618 16:0.54648072 #
2 5:0.76441824 6:0.19047619 7:0.075187966 8:0.90224874 9:0.90680319 10:0.91037714 11:0.41722426 12:0.074074075 13:0.65820312 14:0.62301195 15:0.72747749 16:0.67877519 #
2 5:0.64788008 6:0.15120171 7:0.091572866 8:0.94795978 9:0.95021951 10:0.80433738 11:0.39568111 12:0.66666669 13:0.72048998 14:0.72934347 15:0.74703556 16:0.75050443 #
-2 1:0.0017612524 2:0.050000001 3:0.097959183 4:0.0022482683 5:0.33909336 6:0.24760294 7:0.075014099 8:0.85456866 9:0.85894573 10:0.73788267 11:0.064324349 12:0.23469388 13:0.5006485 14:0.50661182 15:0.56223774 16:0.54786754 #
-2 1:0.039999999 2:0.078125 3:0.17346939 4:0.0091373287 5:0.3084372 6:0.11643836 7:0.061643835 8:0.76799589 9:0.79288554 10:0.75188351 11:0.16093485 12:0.31914893 13:0.52439022 14:0.50054169 15:0.55128205 16:0.52198923 #
-2 1:0.0023431866 2:0.043956045 3:0.069731407 4:0.0010469436 5:0.4608843 6:0.16796267 7:0.015033696 8:0.87254006 9:0.87445235 10:0.78484184 11:0.096468553 12:0.18548387 13:0.5321101 14:0.55401343 15:0.60329932 16:0.60568297 #
2 1:0.021551725 3:0.12244898 4:0.013223141 5:0.4763478 6:0.15068494 7:0.020547945 8:0.90783447 9:0.9106499 10:0.78225034 11:0.2488362 12:0.9464286 13:0.63157892 14:0.65643698 15:0.67755103 16:0.69477963 #
2 1:0.038961038 3:0.12244898 4:0.013223141 5:0.41865698 6:0.25082508 7:0.062706269 8:0.91821373 9:0.92332721 10:0.78449738 11:0.20469348 12:0.9464286 13:0.65949821 14:0.65953761 15:0.69411767 16:0.68741101 #
2 1:0.033333335 3:0.12244898 4:0.013223141 5:0.44956115 6:0.15535098 7:0.037974682 8:0.8548274 9:0.85787481 10:0.77108669 11:0.29235736 12:0.9464286 13:0.64883721 14:0.6741842 15:0.67396593 16:0.69635147 #
-2 5:0.63752717 6:0.15597345 7:0.10840708 8:0.86223876 9:0.86929637 10:0.24983934 11:0.44249085 12:0.86792451 13:0.80058652 14:0.79196042 15:0.82298136 16:0.81541938 #
2 5:0.64029205 6:0.075757578 7:0.0247669 8:0.94969052 9:0.94966066 10:0.83788884 11:0.35267371 13:0.61839706 14:0.63562089 15:0.64083767 16:0.65939623 #
2 1:0.036363635 3:0.12244898 4:0.013223141 5:0.34497043 6:0.088362068 7:0.14439656 8:0.88523281 9:0.88898951 10:0.61908656 11:0.1492123 12:0.9464286 13:0.61924684 14:0.595806 15:0.68000001 16:0.64510465 #
2 1:0.045112781 3:0.12244898 4:0.013223141 5:0.57558817 6:0.23031203 7:0.054977711 8:0.93604809 9:0.93871737 10:0.8904286 11:0.3293578 12:0.9464286 13:0.63157892 14:0.63462842 15:0.67808217 16:0.66786784 #
-2 1:0.0057814992 2:0.026515152 3:0.039999999 4:0.0043149069 5:0.37959737 6:0.24161074 7:0.03691275 8:0.82469076 9:0.83199972 10:0.66813087 11:0.13361618 12:0.83333331 13:0.45054945 14:0.47776654 15:0.48275861 16:0.50822359 #
-2 1:0.0062770564 2:0.024242423 3:0.070588239 4:0.0058346521 5:0.31939077 6:0.081447966 7:0.12217195 8:0.76494592 9:0.7989229 10:0.70055771 11:0.15454429 12:0.83333331 13:0.56521738 14:0.5426839 15:0.60740739 16:0.57816774 #
-2 1:0.0073313783 2:0.038961038 3:0.071428575 4:0.0071050641 5:0.49290743 6:0.13114753 7:0.016393442 8:0.87270582 9:0.88132036 10:0.84009504 11:0.30900106 12:0.84210527 13:0.60273975 14:0.62650347 15:0.63942307 16:0.65703249 #
2 5:0.69471782 6:0.20943668 7:0.10038517 8:0.93463033 9:0.93625301 10:0.85842693 11:0.35715973 12:0.059701491 13:0.66120219 14:0.6622079 15:0.71221864 16:0.71050727 #
-2 1:0.0054131052 2:0 3:0.12833333 4:0.0024287794 5:0.80217367 6:0.17801857 7:0.069272444 8:0.97264224 9:0.97544843 10:0.97250867 11:0.58707315 12:0.40000001 13:0.75396824 14:0.75909871 15:0.79058826 16:0.79058826 #
2 1:0.034722224 3:0.12244898 4:0.013223141 5:0.53536487 6:0.23224044 7:0.016393442 8:0.88419801 9:0.89392543 10:0.83643901 11:0.34147176 12:0.9464286 13:0.55121952 14:0.57434696 15:0.60512823 16:0.60983747 #
2 1:0.037807185 3:0.12244898 4:0.013223141 5:0.19437884 6:0.09367089 7:0.086075947 8:0.79421681 9:0.79822183 10:0.62517297 11:0.040552538 12:0.9464286 13:0.4556962 14:0.45551094 15:0.47577092 16:0.47265789 #
-2 1:0.0060616867 2:0.037037037 3:0.045454547 4:0.0038860103 5:0.28736475 6:0.18560606 7:0.049242426 8:0.84038246 9:0.84723723 10:0.64603895 11:0.13643816 12:0.85365856 13:0.44374999 14:0.44860032 15:0.46451613 16:0.46602187 #
2 1:0.029585799 3:0.12244898 4:0.013223141 5:0.43967652 6:0.17647059 7:0.0022624435 8:0.89780444 9:0.90155768 10:0.82662356 11:0.19183154 12:0.9464286 13:0.59322035 14:0.6076436 15:0.63839287 16:0.64126205 #
-2 1:0.0041628121 2:0.050000001 3:0.095935725 4:0.00079633243 5:0.46637878 6:0.17712082 7:0.0017994859 8:0.9080919 9:0.9075399 10:0.65230316 11:0.084711693 12:0.16428572 13:0.56821591 14:0.56676048 15:0.64568967 16:0.62002969 #
2 5:0.63206142 6:0.037355371 7:0.092561983 8:0.94677013 9:0.94962448 10:0.83012843 11:0.37445483 12:0.75 13:0.63903284 14:0.57526547 15:0.65742576 16:0.59477103 #
2 1:0.022592152 3:0.12244898 4:0.013223141 5:0.32091272 6:0.1528822 7:0.067669176 8:0.86478472 9:0.86835504 10:0.59535736 11:0.12256268 12:0.9464286 13:0.52742618 14:0.52073228 15:0.55793989 16:0.55321151 #
2 5:0.66188425 6:0.20345002 7:0.098680876 8:0.91184717 9:0.90990621 10:0.70336711 11:0.32008642 12:0.06779661 13:0.68222892 14:0.66193932 15:0.73857403 16:0.70519966 #
-2 1:0.0067500495 2:0.04524887 3:0.059999999 4:0.0050123185 5:0.34924313 6:0.022304833 7:0.08178439 8:0.80218434 9:0.80768746 10:0.65189397 11:0.17856841 12:0.85000002 13:0.50847459 14:0.52129877 15:0.53846157 16:0.53846157 #
2 5:0.68921155 6:0.16750804 7:0.073887102 8:0.89799541 9:0.9042058 10:0.90078378 11:0.36174953 12:0.068965517 13:0.66132265 14:0.64589733 15:0.73607749 16:0.6989817 #
-2 1:0.002565857 2:0.041666668 3:0.06427221 4:0.00076752517 5:0.63856971 6:0.10476191 7:0.055555556 8:0.97338951 9:0.97492898 10:0.78360122 11:0.19479464 12:0.16666667 13:0.63461536 14:0.6107986 15:0.68800724 16:0.65038854 #
2 1:0.037549406 3:0.12244898 4:0.013223141 5:0.14926836 6:0.03125 7:0.15972222 8:0.67024761 9:0.67488736 10:0.63136083 11:0.059171259 12:0.9464286 13:0.43575418 14:0.40918535 15:0.47619048 16:0.44199571 #
2 1:0.045351475 3:0.12244898 4:0.013223141 5:0.46726578 6:0.15866797 7:0.035259549 8:0.92760706 9:0.92909056 10:0.75481761 11:0.19693078 12:0.9464286 13:0.61555076 14:0.61524397 15:0.65887851 16:0.64762759 #
-2 1:0.0061728396 2:0.041522492 3:0.10049796 4:0.00084925687 5:0.55028254 6:0.21079473 7:0.029324267 8:0.93593627 9:0.93661833 10:0.83049709 11:0.11664656 12:0.18548387 13:0.57673019 14:0.60459834 15:0.63526833 16:0.65265632 #
2 1:0.041322313 2:0.015625 3:0.18333334 4:0.01048951 5:0.47640771 6:0.062434964 7:0.021331945 8:0.92867512 9:0.93308079 10:0.8994621 11:0.20637032 12:0.1388889 13:0.56018519 14:0.5868665 15:0.60149437 16:0.62784958 #
2 1:0.036231883 3:0.12244898 4:0.013223141 5:0.53732949 6:0.26848248 7:0.10505836 8:0.85840774 9:0.86924297 10:0.89340532 11:0.26580697 12:0.9464286 13:0.67832166 14:0.68801248 15:0.69503546 16:0.71031278 #
-2 1:0.0048840051 2:0 3:0.14822134 4:0.0026606119 5:0.77218384 6:0.18459606 7:0.061532021 8:0.95998478 9:0.9632284 10:0.97873461 11:0.53761888 12:0.40000001 13:0.71041667 14:0.72469676 15:0.75429976 16:0.76470441 #
2 5:0.70400959 6:0.045836516 7:0.19327731 8:0.91505647 9:0.91770059 10:0.85056305 11:0.4053314 12:0.045977011 13:0.63085938 14:0.57080442 15:0.68663597 16:0.62017691 #
-2 1:0.0050600884 2:0 3:0.12615384 4:0.0023273437 5:0.79085344 6:0.1714939 7:0.073551826 8:0.9651463 9:0.9671154 10:0.97159451 11:0.55357409 12:0.40000001 13:0.75 14:0.7519685 15:0.79342723 16:0.78427553 #
2 5:0.65623027 6:0.28349411 7:0.17122187 8:0.88344467 9:0.88472939 10:0.82124275 11:0.40199903 12:0.065573767 13:0.67755103 14:0.64637142 15:0.74651164 16:0.70363611 #
1.7900512064572922099614515900612 1:0.034420289 3:0.12244898 4:0.013223141 5:0.51890457 6:0.30291262 7:0.12427185 8:0.93504697 9:0.937666 10:0.69648826 11:0.25675282 12:0.9464286 13:0.639485 14:0.65100092 15:0.67117119 16:0.66668171 #
-0.41753232744849810842424631118774 1:0.0060331826 2:0.052083332 3:0.041666668 4:0.0042413571 5:0.46492535 6:0.12169312 7:0.047619049 8:0.85039651 9:0.87418491 10:0.86022353 11:0.29284921 12:0.84210527 13:0.59200001 14:0.62305599 15:0.60683763 16:0.63754743 #
-2 1:0.0060748579 2:0.024691358 3:0.03125 4:0.0034719948 5:0.24211867 6:0.19407009 7:0.008086253 8:0.84129804 9:0.86537254 10:0.90490156 11:0.0621121 12:0.85000002 13:0.50218338 14:0.530092 15:0.53669727 16:0.54552716 #
2 1:0.045351475 3:0.1388889 4:0.015595463 5:0.40590754 6:0.28366762 7:0.077363893 8:0.86476338 9:0.86881715 10:0.70695835 11:0.19068079 12:0.9464286 13:0.55623102 14:0.58485782 15:0.61341852 16:0.63509345 #
-2 1:0.0050151977 2:0.016768293 3:0.023809524 4:0.0026961567 5:0.31270868 6:0 7:0.25087109 8:0.81035662 9:0.82429624 10:0.72553217 11:0.1284339 12:0.84615386 13:0.54395604 14:0.52988172 15:0.62427747 16:0.58800822 #
1.3066032160163558728527277708054 1:0.036363635 2:0.078125 3:0.16666667 4:0.010355029 5:0.40426266 6:0.11291413 7:0.025693037 8:0.91923809 9:0.92147171 10:0.80464965 11:0.12077513 12:0.15463917 13:0.48063126 14:0.47397822 15:0.5137195 16:0.49838114 #
-2 1:0.023255814 2:0.2 3:0.5 4:0.069444448 5:0.74172658 6:0.20025228 7:0.022075055 8:0.97309452 9:0.97402412 10:0.93200529 11:0.29405317 12:0.14341085 13:0.62113661 14:0.63922095 15:0.68608797 16:0.69481772 #
-2 1:0.0056189639 2:0.025078369 3:0.03125 4:0.0032197635 5:0.38663 6:0.11374407 7:0.19905214 8:0.85749608 9:0.87201345 10:0.7707395 11:0.1629988 12:0.83333331 13:0.59842521 14:0.54521275 15:0.66393441 16:0.60280138 #
-2 1:0.039999999 2:0.078125 3:0.15625 4:0.0077551021 5:0.33612913 6:0.074257426 7:0.07920792 8:0.84018177 9:0.84750664 10:0.56502545 11:0.18060783 12:0.53571427 13:0.5726496 14:0.56079221 15:0.62280703 16:0.61215997 #
2 1:0.032000002 3:0.1388889 4:0.015595463 5:0.47357652 6:0.21343873 7:0.040843215 8:0.8802557 9:0.88294107 10:0.80425537 11:0.19867532 12:0.9464286 13:0.62241888 14:0.6438719 15:0.66770184 16:0.68493569 #
-2 5:0.52704293 6:0.20091848 7:0.13777268 8:0.94802105 9:0.94979739 10:0.96756423 11:0.30197006 12:0.87719297 13:0.72368419 14:0.74558884 15:0.75071633 16:0.76969653 #
2 1:0.041322313 3:0.12244898 4:0.013223141 5:0.32673973 6:0.0065075923 7:0.24728851 8:0.85976708 9:0.86590958 10:0.61957991 11:0.14602095 12:0.9464286 13:0.64315355 14:0.58286911 15:0.70044053 16:0.62621725 #
-2 1:0.0064935065 2:0.030303031 3:0.05882353 4:0.0058777863 5:0.27173695 6:0.05540897 7:0.1530343 8:0.85061753 9:0.85911381 10:0.70651436 11:0.076664954 12:0.84615386 13:0.51091701 14:0.50230753 15:0.56422019 16:0.5445891 #
2 5:0.57690376 6:0.12892096 7:0.081869513 8:0.92744011 9:0.92983496 10:0.78273112 11:0.34373385 12:0.68421054 13:0.66046 14:0.64724535 15:0.69493669 16:0.66878158 #
2 1:0.037807185 3:0.12244898 4:0.013223141 5:0.23332112 6:0.16053511 7:0.070234112 8:0.7787829 9:0.78061277 10:0.66242951 11:0.082187444 12:0.9464286 13:0.44134077 14:0.45774403 15:0.48502994 16:0.48796067 #
2 1:0.020811655 3:0.12244898 4:0.013223141 5:0.22587997 6:0.20634921 7:0.063492067 8:0.69104528 9:0.70677489 10:0.63949406 11:0.056927506 12:0.9464286 13:0.58510637 14:0.59375 15:0.6111111 16:0.59796739 #
2 5:0.65176576 6:0.2240676 7:0.18648018 8:0.93479627 9:0.93250847 10:0.75998288 11:0.45962903 12:0.62295079 13:0.64451158 14:0.66102743 15:0.67502987 16:0.68492097 #
-2 1:0.0061835749 2:0.022624435 3:0.059090909 4:0.004980843 5:0.29021367 6:0.10411622 7:0.13559322 8:0.86085153 9:0.87163633 10:0.60786039 11:0.12026563 12:0.84615386 13:0.59292036 14:0.55569202 15:0.63207549 16:0.59160137 #
-2 1:0.0061605722 2:0.032407407 3:0.050000001 4:0.0050123185 5:0.25959471 6:0.088319086 7:0.13390313 8:0.84522551 9:0.85273194 10:0.73233479 11:0.09212254 12:0.85000002 13:0.55607474 14:0.55911404 15:0.59803921 16:0.58803546 #
2 1:0.036363635 2:0.015625 3:0.18333334 4:0.01048951 5:0.41492429 6:0.092039801 7:0.0037313432 8:0.92814249 9:0.93018633 10:0.80749255 11:0.15663666 12:0.14705883 13:0.52335167 14:0.54556179 15:0.55604076 16:0.57385892 #
2 1:0.05859375 3:0.12244898 4:0.013223141 5:0.31641647 6:0.21414913 7:0.063097514 8:0.86359453 9:0.86798769 10:0.77270144 11:0.15175696 12:0.9464286 13:0.56854838 14:0.57374793 15:0.63043481 16:0.62105477 #
2 1:0.047368422 3:0.12244898 4:0.013223141 5:0.3012186 6:0.1754386 7:0.074960127 8:0.74168575 9:0.7513504 10:0.64963299 11:0.17860208 12:0.9464286 13:0.61245674 14:0.59655684 15:0.64944649 16:0.62565744 #
-2 1:0.014925373 2:0.2 3:0.5 4:0.069444448 5:0.69757229 6:0.11419536 7:0.080815181 8:0.97707993 9:0.97747052 10:0.86010987 11:0.30392453 12:0.14341085 13:0.67695475 14:0.68617696 15:0.73391092 16:0.72675061 #
2 1:0.021403091 3:0.12244898 4:0.013223141 5:0.42192319 6:0.15695067 7:0.11210762 8:0.88515902 9:0.89287525 10:0.6581279 11:0.24258226 12:0.9464286 13:0.61643833 14:0.60217172 15:0.66206896 16:0.64452761 #
-2 1:0.0049975011 2:0.050000001 3:0.03125 4:0.0032295748 5:0.2787872 6:0.17507419 7:0.011869436 8:0.82668525 9:0.84532088 10:0.65748489 11:0.14317873 12:0.84210527 13:0.48826292 14:0.4964886 15:0.53768843 16:0.53634256 #
2 1:0 2:0 3:0.1388889 4:0.015802469 5:0.3520793 6:0.22105263 7:0.057894737 8:0.87932199 9:0.88890988 10:0.85711986 11:0.14865305 12:0.9464286 13:0.5714286 14:0.60522729 15:0.65964913 16:0.6764735 #
-2 1:0.0045955884 2:0.018518519 3:0.023255814 4:0.002422181 5:0.36233547 6:0.13025211 7:0.029411765 8:0.84799242 9:0.8722567 10:0.76553512 11:0.16129717 12:0.84210527 13:0.50359714 14:0.49832231 15:0.56617647 16:0.56205875 #
-2 5:0.5952543 6:0.19507042 7:0.070422538 8:0.94414747 9:0.94512403 10:0.93177193 11:0.32917255 12:0.73214287 13:0.7672956 14:0.75321811 15:0.80465114 16:0.78137487 #
2 1:0.041322313 3:0.1388889 4:0.015595463 5:0.29603904 6:0.10492846 7:0.11605723 8:0.6950748 9:0.70268601 10:0.6482476 11:0.12213179 12:0.9464286 13:0.49833888 14:0.48232597 15:0.53633219 16:0.51453859 #
-2 1:0.0061116964 2:0.03125 3:0.047619049 4:0.0048159929 5:0.23229672 6:0.06666667 7:0.10476191 8:0.80849332 9:0.83648884 10:0.58205843 11:0.081825718 12:0.83783782 13:0.5690608 14:0.55441594 15:0.61988306 16:0.59436244 #
-2 1:0.0066889632 2:0.018181818 3:0.06666667 4:0.0066060079 5:0.36727515 6:0.10638298 7:0.051063828 8:0.83852822 9:0.8584699 10:0.7701506 11:0.13954093 12:0.85365856 13:0.5109489 14:0.51235956 15:0.53846157 16:0.52073765 #
-2 1:0.0056561087 2:0.050000001 3:0.03846154 4:0.003947258 5:0.35470524 6:0.20065789 7:0.042763159 8:0.84474224 9:0.85899782 10:0.64143527 11:0.20331749 12:0.84615386 13:0.51595747 14:0.543872 15:0.54802263 16:0.56419194 #
2 5:0.56345683 6:0.14056122 7:0.028061224 8:0.90902501 9:0.91135442 10:0.79605156 11:0.26291853 12:0.061538462 13:0.66356385 14:0.63787353 15:0.72602737 16:0.69742209 #
2 1:0.04112554 3:0.12244898 4:0.013223141 5:0.18894207 6:0.010526316 7:0.23684211 8:0.72711122 9:0.7440415 10:0.50043708 11:0.039024629 12:0.9464286 13:0.43382353 14:0.43542731 15:0.46153846 16:0.46332392 #
2 1:0.041407868 3:0.12244898 4:0.013223141 5:0.24196665 6:0.24414715 7:0.0033444816 8:0.659145 9:0.6709336 10:0.6862148 11:0.1289151 12:0.9464286 13:0.53723407 14:0.55851382 15:0.57923496 16:0.59064156 #
2 1:0.038548753 3:0.12244898 4:0.013223141 5:0.50697911 6:0.11596639 7:0.10252101 8:0.87661582 9:0.88037485 10:0.71687365 11:0.21568319 12:0.9464286 13:0.60122699 14:0.59223276 15:0.65714288 16:0.63533109 #
-2 1:0.0053872052 2:0.02077922 3:0.023391813 4:0.0027144686 5:0.27446231 6:0.09592326 7:0.069544367 8:0.86146402 9:0.87014043 10:0.7601921 11:0.12152667 12:0.85714287 13:0.54789275 14:0.58376187 15:0.61065573 16:0.61960822 #
-2 1:0.0069444445 2:0.039215688 3:0.050000001 4:0.0050437762 5:0.44104844 6:0.15142857 7:0.022857143 8:0.89929163 9:0.91268313 10:0.81190223 11:0.25603965 12:0.84210527 13:0.67136151 14:0.67431903 15:0.70243901 16:0.69568467 #
2 1:0.034420289 3:0.12244898 4:0.013223141 5:0.43080324 6:0.090000004 7:0.18000001 8:0.90039808 9:0.90193552 10:0.75665683 11:0.15713674 12:0.9464286 13:0.60368663 14:0.5825606 15:0.64761907 16:0.61748052 #
-2 1:0.0045561665 2:0.018518519 3:0.023255814 4:0.002422181 5:0.36233547 6:0.13025211 7:0.029411765 8:0.84799242 9:0.8722567 10:0.76553512 11:0.16129717 12:0.84210527 13:0.50359714 14:0.49832231 15:0.56617647 16:0.56205875 #
-2 1:0.0063199713 2:0.026960785 3:0.045454547 4:0.0045556491 5:0.38181865 6:0.17785235 7:0.087248325 8:0.83136201 9:0.83453315 10:0.57430357 11:0.20131463 12:0.85000002 13:0.56149733 14:0.58667362 15:0.61452514 16:0.62690532 #
2 1:0.035273369 3:0.1388889 4:0.015595463 5:0.35324669 6:0.20297556 7:0.004250797 8:0.83989578 9:0.84700757 10:0.64131743 11:0.17449938 12:0.9464286 13:0.59813082 14:0.59259439 15:0.65473145 16:0.63860261 #
2 1:0.045351475 3:0.1388889 4:0.015595463 5:0.40415889 6:0.17743702 7:0.032858707 8:0.88668197 9:0.88910544 10:0.70165449 11:0.19648083 12:0.9464286 13:0.62030905 14:0.62295121 15:0.65011823 16:0.64935112 #
2 1:0.043290045 3:0.12244898 4:0.013223141 5:0.37269938 6:0.12068965 7:0.1637931 8:0.75153196 9:0.76889259 10:0.67810273 11:0.097534291 12:0.9464286 13:0.48026314 14:0.48208725 15:0.50694442 16:0.50174487 #
2 1:0.037807185 3:0.12244898 4:0.013223141 5:0.4080371 6:0.23473054 7:0.069461077 8:0.9210605 9:0.92464966 10:0.74603713 11:0.21346883 12:0.9464286 13:0.63476068 14:0.65149456 15:0.68073881 16:0.69462341 #
2 5:0.55044544 6:0.095695481 7:0.1807186 8:0.93547809 9:0.93314672 10:0.7836886 11:0.23754042 12:0.78846157 13:0.63946587 14:0.5965367 15:0.67636985 16:0.62451863 #
2 1:0.034965035 3:0.11904762 4:0.013043478 5:0.43912116 6:0.10730253 7:0.11773472 8:0.88703179 9:0.89137846 10:0.73189229 11:0.20171066 12:0.9464286 13:0.58383232 14:0.57971847 15:0.64984226 16:0.62201309 #
-2 1:0.006763285 2:0.032142859 3:0.071428575 4:0.0047685835 5:0.31899863 6:0.019138755 7:0.19138756 8:0.88554621 9:0.88810796 10:0.68734878 11:0.12921968 12:0.84615386 13:0.58203125 14:0.57748961 15:0.61382115 16:0.60526997 #
2 1:0.035916824 3:0.12244898 4:0.013223141 5:0.45819476 6:0.1534196 7:0.051756006 8:0.91185957 9:0.91599476 10:0.79468811 11:0.17720462 12:0.9464286 13:0.60661763 14:0.59827685 15:0.6423077 16:0.62568325 #
-2 1:0.0063381721 2:0.028340081 3:0.059999999 4:0.0050123185 5:0.44110265 6:0.10617284 7:0.10123457 8:0.87952906 9:0.89809728 10:0.7519961 11:0.16496216 12:0.85000002 13:0.58371043 14:0.57103521 15:0.65853661 16:0.62858725 #
2 1:0.037807185 3:0.12244898 4:0.013223141 5:0.27823919 6:0.13978495 7:0.026881721 8:0.72804135 9:0.74404359 10:0.58483654 11:0.11955598 12:0.9464286 13:0.51999998 14:0.53176278 15:0.53278691 16:0.55116421 #
-2 1:0.0071348939 2:0.042735044 3:0.06666667 4:0.0066060079 5:0.2800318 6:0.11830986 7:0.070422538 8:0.84123492 9:0.85030288 10:0.6287418 11:0.098540403 12:0.84615386 13:0.56603771 14:0.57749027 15:0.61576355 16:0.61425245 #
-2 1:0.006095238 2:0.029999999 3:0.034632035 4:0.0041527622 5:0.35410711 6:0.12867647 7:0.036764707 8:0.82483381 9:0.83464193 10:0.67657936 11:0.17467415 12:0.84210527 13:0.50625002 14:0.51576406 15:0.57236844 16:0.57426053 #
-2 1:0.0063820421 2:0.035714287 3:0.052631579 4:0.0054454873 5:0.33966744 6:0.17431192 7:0.0061162082 8:0.83593142 9:0.84314692 10:0.67244262 11:0.1448908 12:0.84615386 13:0.56020945 14:0.56920809 15:0.60439563 16:0.60274202 #
-2 1:0.0056338026 2:0.011204482 3:0.090909094 4:0.0057916776 5:0.47998512 6:0.1025641 7:0.12820514 8:0.86244941 9:0.87106305 10:0.84270114 11:0.2180385 12:0.83333331 13:0.60000002 14:0.5741505 15:0.63157892 16:0.59471357 #
2 1:0.0015325671 2:0.047337279 3:0.12777779 4:0.0033898305 5:0.29242042 6:0.17614166 7:0 8:0.84902239 9:0.85566056 10:0.71666414 11:0.11169255 12:0.16083916 13:0.51171172 14:0.52554142 15:0.55000001 16:0.55266345 #
2 1:0.018365473 3:0.12244898 4:0.013223141 5:0.4367165 6:0.057803467 7:0.24277456 8:0.88920373 9:0.89375812 10:0.65242815 11:0.18651219 12:0.9464286 13:0.58620691 14:0.5935744 15:0.64655173 16:0.63834989 #
-2 1:0.0073529412 2:0.042735044 3:0.06666667 4:0.0066060079 5:0.3762967 6:0.24358974 7:0.051282052 8:0.83263189 9:0.84522855 10:0.69941813 11:0.20552154 12:0.83333331 13:0.56497175 14:0.61149949 15:0.61176473 16:0.6427595 #
2 1:0.032608695 3:0.12244898 4:0.013223141 5:0.29378611 6:0.0062305294 7:0.21651091 8:0.87107426 9:0.87905473 10:0.74239737 11:0.10802572 12:0.94594592 13:0.50447762 14:0.48111069 15:0.59477127 16:0.54911518 #
-2 1:0.0071361503 2:0.040624999 3:0.1 4:0.0049494598 5:0.33456141 6:0.092838198 7:0.12732096 8:0.87108243 9:0.8744486 10:0.67871588 11:0.13518797 12:0.83333331 13:0.57487923 14:0.56201893 15:0.63350785 16:0.60273647 #
2 1:0.043181818 3:0.12244898 4:0.013223141 5:0.36654082 6:0.22209026 7:0.048693586 8:0.88012332 9:0.88485438 10:0.7580691 11:0.218086 12:0.9464286 13:0.56594723 14:0.5979026 15:0.61012655 16:0.63732976 #
-2 1:0.0056114551 2:0.020833334 3:0.049242426 4:0.0043437583 5:0.34551165 6:0.09259259 7:0.046296295 8:0.85409188 9:0.86760271 10:0.74548244 11:0.14287515 12:0.84210527 13:0.58088237 14:0.56182212 15:0.59848487 16:0.58113378 #
-2 1:0.0071313549 2:0.043749999 3:0.052631579 4:0.00528169 5:0.33850864 6:0.054176074 7:0.15575621 8:0.89694685 9:0.90964645 10:0.83325374 11:0.11103914 12:0.85365856 13:0.56779659 14:0.54644161 15:0.61574072 16:0.57697529 #
-2 1:0.0060439561 2:0.028985508 3:0.064393938 4:0.0041973395 5:0.35088685 6:0.12426036 7:0.044378698 8:0.8399018 9:0.84545618 10:0.69631875 11:0.16108833 12:0.83333331 13:0.5539906 14:0.56075376 15:0.60000002 16:0.6014688 #
-2 1:0.0067340066 2:0.037433155 3:0.05882353 4:0.0059718308 5:0.29582477 6:0.092 7:0.16 8:0.82437247 9:0.82872152 10:0.78359032 11:0.11389928 12:0.83333331 13:0.62237763 14:0.5901134 15:0.63768119 16:0.60561609 #
-2 1:0.0061776061 2:0.018099548 3:0.070588239 4:0.0058346521 5:0.35319689 6:0.06845966 7:0.06845966 8:0.85729831 9:0.8576715 10:0.78837562 11:0.15147588 12:0.84615386 13:0.58928573 14:0.57839757 15:0.61320752 16:0.59522909 #
2 1:0.032051284 3:0.12244898 4:0.013223141 5:0.2611306 6:0.091954023 7:0.068965517 8:0.71320516 9:0.71699637 10:0.4856084 11:0.1061765 12:0.9464286 13:0.48275861 14:0.47151145 15:0.5 16:0.49651563 #
2 1:0.0392562 3:0.12244898 4:0.013223141 5:0.25961989 6:0.10994764 7:0.10209424 8:0.75703543 9:0.78353167 10:0.66462272 11:0.1270836 12:0.9464286 13:0.50270271 14:0.49415252 15:0.54838711 16:0.53150958 #
2 1:0.055363324 3:0.12244898 4:0.013223141 5:0.30983251 6:0.2090909 7:0.018181818 8:0.76682985 9:0.78392631 10:0.77689505 11:0.13638952 12:0.9464286 13:0.56353593 14:0.56198561 15:0.57714283 16:0.57879895 #
2 5:0.43229333 6:0.012646222 7:0.030034777 8:0.92933154 9:0.92409164 10:0.72087336 11:0.16665512 12:0.7647059 13:0.45992365 14:0.47032413 15:0.50109893 16:0.50359541 #
2 1:0.041407868 3:0.12244898 4:0.013223141 5:0.18261297 6:0.20763724 7:0.033412889 8:0.6772148 9:0.69061589 10:0.6210621 11:0.085315451 12:0.9464286 13:0.48085105 14:0.49471632 15:0.5 16:0.50235295 #
-2 1:0.0073613985 2:0.044444446 3:0.055555556 4:0.0055707376 5:0.26498491 6:0.11587983 7:0.060085837 8:0.76397789 9:0.7855705 10:0.67629725 11:0.13806279 12:0.83333331 13:0.4967742 14:0.52179611 15:0.55782312 16:0.567559 #
2 5:0.57562613 6:0.21839564 7:0.12305754 8:0.89553744 9:0.90601897 10:0.9036063 11:0.29377329 12:0.070175439 13:0.63620073 14:0.63557917 15:0.70416665 16:0.6934154 #
-2 1:0.0068150843 2:0.0390625 3:0.045454547 4:0.0046337377 5:0.34531641 6:0.090909094 7:0.064171121 8:0.84312916 9:0.85324043 10:0.63797212 11:0.19807991 12:0.84615386 13:0.52336448 14:0.52919585 15:0.57416266 16:0.5660944 #
2 1:0.027434843 3:0.12244898 4:0.013223141 5:0.38519445 6:0.1009772 7:0.11726385 8:0.88785917 9:0.8951031 10:0.6514802 11:0.14831908 12:0.9464286 13:0.61413044 14:0.60746306 15:0.64245808 16:0.62358338 #
-2 1:0.0060541308 2:0.043749999 3:0.077272728 4:0.004980843 5:0.48893222 6:0.2238806 7:0.10447761 8:0.8922441 9:0.89903849 10:0.76306272 11:0.30639732 12:0.85714287 13:0.57608694 14:0.64647746 15:0.59340662 16:0.65804744 #
2 5:0.37119561 6:0.0043777362 7:0.06660413 8:0.83586359 9:0.84210873 10:0.50894016 11:0.13602833 12:0.609375 13:0.53834587 14:0.50716424 15:0.58378381 16:0.53985381 #
-2 1:0.0059292577 2:0.023809524 3:0.037190083 4:0.0039983164 5:0.50703549 6:0.1755102 7:0.036734693 8:0.88467389 9:0.88642061 10:0.6476869 11:0.34587443 12:0.85365856 13:0.62068963 14:0.63424259 15:0.62857145 16:0.63774812 #
2 5:0.53531122 6:0.24049258 7:0.22600508 8:0.87585175 9:0.87883621 10:0.75229353 11:0.28268695 12:0.66666669 13:0.68102443 14:0.67932159 15:0.71311474 16:0.69304925 #
-2 1:0.0073653199 2:0.040485829 3:0.077272728 4:0.004980843 5:0.33866805 6:0.12566845 7:0.050802138 8:0.87785822 9:0.88122058 10:0.73415118 11:0.15197827 12:0.83333331 13:0.57407409 14:0.56891978 15:0.63054186 16:0.61269271 #
2 1:0.044736844 3:0.1388889 4:0.015595463 5:0.33829933 6:0.15232974 7:0.0035842294 8:0.91635144 9:0.91920513 10:0.73656106 11:0.12070766 12:0.9464286 13:0.59057969 14:0.5681268 15:0.62692308 16:0.59566855 #
-2 1:0.0068933824 2:0.028571429 3:0.0625 4:0.0061983471 5:0.42675376 6:0.22525597 7:0.017064847 8:0.88292956 9:0.89287829 10:0.84515071 11:0.23710452 12:0.84615386 13:0.60451978 14:0.61410642 15:0.63855422 16:0.6347419 #
-2 1:0.007147362 2:0.050000001 3:0.052631579 4:0.0052594044 5:0.28199017 6:0.025 7:0.21666667 8:0.77633703 9:0.7986697 10:0.66203994 11:0.11102868 12:0.84210527 13:0.58411217 14:0.56337523 15:0.66990292 16:0.60688812 #
-2 1:0.0052677789 2:0.017857144 3:0.026936026 4:0.0028997515 5:0.41921875 6:0.16727273 7:0.036363635 8:0.86620027 9:0.86853379 10:0.7139771 11:0.28395042 12:0.86666667 13:0.57627118 14:0.60469091 15:0.60479039 16:0.6277653 #
2 5:0.41915655 6:0.032946344 7:0.082208976 8:0.8395896 9:0.8416152 10:0.49694335 11:0.16583788 12:0.73076922 13:0.55820894 14:0.53582597 15:0.59240067 16:0.56701726 #
2 1:0.037807185 3:0.12244898 4:0.013223141 5:0.43027666 6:0.28361857 7:0.11246943 8:0.89177459 9:0.89931881 10:0.85115999 11:0.25905049 12:0.9464286 13:0.52777779 14:0.55975115 15:0.58048779 16:0.59366578 #
-2 1:0.0059259259 2:0.025575448 3:0.0625 4:0.0041752425 5:0.37207016 6:0.14525139 7:0.019553073 8:0.8643356 9:0.87114853 10:0.7640515 11:0.19941178 12:0.85365856 13:0.5714286 14:0.56942594 15:0.62926829 16:0.62622094 #
2 1:0.038961038 3:0.12244898 4:0.013223141 5:0.35143614 6:0.22740525 7:0.052478135 8:0.85169345 9:0.86034411 10:0.69558543 11:0.18359831 12:0.9464286 13:0.58397931 14:0.59592545 15:0.63988918 16:0.63463694 #
-2 1:0.0070869992 2:0.052083332 3:0.0625 4:0.0062691742 5:0.31688419 6:0.098765433 7:0.098765433 8:0.79933226 9:0.81047738 10:0.73258191 11:0.1278936 12:0.85000002 13:0.53513515 14:0.52341425 15:0.58988762 16:0.56503904 #
-2 1:0.0061544571 2:0.015625 3:0.075000003 4:0.0061721937 5:0.47304976 6:0.12860893 7:0.015748031 8:0.90743476 9:0.92062634 10:0.74260753 11:0.28951716 12:0.84615386 13:0.61777776 14:0.64596862 15:0.66824645 16:0.67795515 #
2 1:0.0056703859 2:0.025568182 3:0.10294118 4:0.002274204 5:0.49385998 6:0.18686402 7:0.03654024 8:0.91336077 9:0.91547668 10:0.85668725 11:0.17728464 12:0.21698113 13:0.59977949 14:0.61214334 15:0.6582734 16:0.65051961 #
2 1:0.0018351685 2:0.04296875 3:0.10294118 4:0.00255947 5:0.46500778 6:0.21326165 7:0.040621266 8:0.91006577 9:0.91507065 10:0.8538835 11:0.14400792 12:0.22330096 13:0.56955379 14:0.57363534 15:0.62607449 16:0.61430597 #
0.80370642301954831054899841547012 5:0.56749034 6:0.10071942 7:0.19568345 8:0.85704452 9:0.8565163 10:0.81068808 11:0.26988226 12:0.070175439 13:0.58126724 14:0.53128117 15:0.63030303 16:0.56616724 #
2 1:0.041407868 3:0.1388889 4:0.015595463 5:0.30999953 6:0.15681818 7:0.059090909 8:0.83797646 9:0.84498626 10:0.72843009 11:0.11565974 12:0.9464286 13:0.55776894 14:0.55472559 15:0.58995813 16:0.58150387 #
2 1:0.037878789 3:0.1388889 4:0.015595463 5:0.42665291 6:0.22593583 7:0.04812834 8:0.92077655 9:0.92456883 10:0.75024366 11:0.21258338 12:0.9464286 13:0.5799458 14:0.60947376 15:0.62202382 16:0.64039367 #
-2 1:0.0069444445 2:0.040485829 3:0.047619049 4:0.0049459301 5:0.31371051 6:0.1072797 7:0.057471264 8:0.84134066 9:0.85928571 10:0.80697656 11:0.10115389 12:0.83333331 13:0.52830189 14:0.54265428 15:0.5945946 16:0.5945946 #
2 1:0.049861494 3:0.12244898 4:0.013223141 5:0.37834752 6:0.056320399 7:0.14267835 8:0.92286456 9:0.92434913 10:0.72634619 11:0.1284526 12:0.9464286 13:0.57734805 14:0.5585072 15:0.62941176 16:0.59693688 #
-2 1:0.0073529412 2:0.048484847 3:0.065656565 4:0.0054935766 5:0.33886749 6:0.1 7:0.053333335 8:0.81575161 9:0.83085924 10:0.68617088 11:0.15392447 12:0.84210527 13:0.59340662 14:0.57630342 15:0.61931819 16:0.60082692 #
-2 1:0.0060457205 2:0.029999999 3:0.03846154 4:0.003928836 5:0.4450759 6:0.14687499 7:0.0093750004 8:0.87730926 9:0.89156204 10:0.801368 11:0.19190061 12:0.84210527 13:0.57446808 14:0.58201873 15:0.63687152 16:0.63687152 #
2 5:0.57970649 6:0.0718707 7:0.10832187 8:0.9366467 9:0.9360655 10:0.76954311 11:0.24387123 12:0.064516127 13:0.66449511 14:0.61054242 15:0.71017277 16:0.64684922 #
2 5:0.43111825 6:0.18343195 7:0.12623274 8:0.84338856 9:0.86573094 10:0.86052972 11:0.25910544 12:0.068965517 13:0.578125 14:0.61492616 15:0.60905349 16:0.6445086 #
-2 1:0.0064102565 2:0.027210884 3:0.03846154 4:0.003928836 5:0.392129 6:0.21221864 7:0.11575563 8:0.86178517 9:0.87635958 10:0.84796774 11:0.23001818 12:0.85714287 13:0.60540539 14:0.63952082 15:0.67613637 16:0.69620413 #
2 1:0.039583333 3:0.12244898 4:0.013223141 5:0.35460496 6:0.059585493 7:0.16321243 8:0.79638702 9:0.80215162 10:0.63758212 11:0.13340002 12:0.9464286 13:0.53153151 14:0.50298804 15:0.58411217 16:0.551566 #
-2 1:0.0075811418 2:0.051282052 3:0.06666667 4:0.0066060079 5:0.27234721 6:0.10133334 7:0.13600001 8:0.8286041 9:0.83702248 10:0.66709501 11:0.15697542 12:0.84210527 13:0.60995853 14:0.61570537 15:0.6695652 16:0.6541062 #
2 1:0.044321328 3:0.1388889 4:0.015595463 5:0.39285013 6:0.23796034 7:0.048158642 8:0.86487329 9:0.87977552 10:0.75804466 11:0.17675661 12:0.9464286 13:0.61142856 14:0.59657633 15:0.64457834 16:0.61223876 #
-2 1:0.0065520066 2:0.029629629 3:0.054545455 4:0.0045818123 5:0.40843269 6:0.19081272 7:0.063604243 8:0.82065362 9:0.82478011 10:0.67210764 11:0.27076709 12:0.85365856 13:0.64534885 14:0.66911191 15:0.66871166 16:0.6902191 #
-2 1:0.0058399173 2:0.030092593 3:0.04137931 4:0.0035228087 5:0.40371802 6:0.11304348 7:0.14782609 8:0.88362575 9:0.88828337 10:0.76291537 11:0.24291596 12:0.83333331 13:0.61860466 14:0.61681968 15:0.6682927 16:0.65408885 #
2 1:0.047091413 3:0.12244898 4:0.013223141 5:0.33879879 6:0.2070626 7:0.044943821 8:0.84629524 9:0.85843325 10:0.71749192 11:0.12096881 12:0.9464286 13:0.57096773 14:0.57551742 15:0.59790212 16:0.5947907 #
-2 1:0.0073575783 2:0.042105265 3:0.059090909 4:0.0050824927 5:0.3206799 6:0.11413044 7:0.097826086 8:0.81678343 9:0.83049536 10:0.87163377 11:0.16140693 12:0.83333331 13:0.5688889 14:0.57142997 15:0.61722487 16:0.61284214 #
2 1:0.045000002 3:0.12244898 4:0.013223141 5:0.35488802 6:0.040816326 7:0.22448979 8:0.82352072 9:0.82287639 10:0.60758388 11:0.22344738 12:0.9464286 13:0.46601942 14:0.43862036 15:0.53684211 16:0.49006754 #
-2 1:0.0071348939 2:0.048484847 3:0.049382716 4:0.0055555557 5:0.30914202 6:0.056047197 7:0.15339233 8:0.82984501 9:0.83898342 10:0.74168205 11:0.14643405 12:0.84210527 13:0.59241706 14:0.59179914 15:0.65853661 16:0.64154917 #
-2 1:0.0073529412 2:0.050000001 3:0.05882353 4:0.005859375 5:0.38160834 6:0.072796933 7:0.068965517 8:0.84982121 9:0.86098021 10:0.71897906 11:0.20198479 12:0.84615386 13:0.60795456 14:0.60623473 15:0.61176473 16:0.62096471 #
1.3676576636124764263513498008251 1:0.034420289 3:0.12244898 4:0.013223141 5:0.4417114 6:0.36371604 7:0.20858896 8:0.87576431 9:0.88084942 10:0.8350082 11:0.26401168 12:0.9464286 13:0.58513188 14:0.63439143 15:0.61696661 16:0.65896028 #
-2 1:0.0069444445 2:0.036363635 3:0.05882353 4:0.0058346521 5:0.44880688 6:0.19949494 7:0.058080807 8:0.87755758 9:0.88714743 10:0.78864819 11:0.29109317 12:0.85365856 13:0.67105263 14:0.67679119 15:0.69124424 16:0.68808061 #
-2 1:0.0053802007 2:0.043956045 3:0.034482758 4:0.0035525321 5:0.42007765 6:0.22869955 7:0.049327355 8:0.83622694 9:0.87153512 10:0.87929142 11:0.27036902 12:0.85365856 13:0.59722221 14:0.6199643 15:0.63768119 16:0.65201288 #
-2 1:0.0063820421 2:0.025252525 3:0.047619049 4:0.0048159929 5:0.49131724 6:0.095238097 7:0.098639458 8:0.89343131 9:0.91596061 10:0.85080111 11:0.26480779 12:0.83333331 13:0.57309943 14:0.60626006 15:0.6981132 16:0.70031893 #
-2 1:0.0061919503 2:0.020833334 3:0.045454547 4:0.0045818123 5:0.4906598 6:0.12137203 7:0.029023746 8:0.91070217 9:0.91422009 10:0.81963068 11:0.30258405 12:0.85365856 13:0.63716817 14:0.64884913 15:0.66037738 16:0.66669691 #
2 1:0.035916824 3:0.1388889 4:0.015595463 5:0.25548917 6:0.17592593 7:0.037037037 8:0.82038021 9:0.82323319 10:0.67800993 11:0.10268504 12:0.9464286 13:0.51366121 14:0.51630437 15:0.5443787 16:0.53650016 #
2 5:0.43113542 6:0.051470589 7:0.15021008 8:0.87762666 9:0.85410184 10:0.52762026 11:0.1695987 12:0.73584908 13:0.52572346 14:0.48892403 15:0.55904061 16:0.52481401 #
-2 1:0.0071644043 2:0.032000002 3:0.079999998 4:0.0040181098 5:0.43151778 6:0.054945055 7:0.047619049 8:0.86730039 9:0.87538981 10:0.76671267 11:0.26960531 12:0.85000002 13:0.60674155 14:0.63635927 15:0.63005781 16:0.65515411 #
2 1:0.040476192 3:0.12244898 4:0.013223141 5:0.21887058 6:0.026642984 7:0.19893429 8:0.79836619 9:0.80220068 10:0.59285825 11:0.11445611 12:0.9464286 13:0.46096656 14:0.43718356 15:0.52459013 16:0.48285732 #
-2 1:0.016666668 2:0.33333334 3:0.5 4:0.069444448 5:0.63150555 6:0.1987797 7:0.062620424 8:0.95428401 9:0.95305395 10:0.68934178 11:0.30220062 12:0.13857678 13:0.57123286 14:0.57762831 15:0.61562502 16:0.61275941 #
-2 1:0.0058479533 2:0.027777778 3:0.062200956 4:0.0052246605 5:0.35997945 6:0.020618556 7:0.2242268 8:0.85991383 9:0.8638519 10:0.74077815 11:0.18078305 12:0.83333331 13:0.69270831 14:0.65781975 15:0.72432435 16:0.68641269 #
2 5:0.39523658 6:0.055823568 7:0.16333564 8:0.87194061 9:0.87600631 10:0.69164962 11:0.1834264 12:0.068965517 13:0.58937198 14:0.56147408 15:0.67134833 16:0.61808509 #
-2 1:0.016666668 2:0.25 3:0.5 4:0.069444448 5:0.51283729 6:0.16518937 7:0.044319097 8:0.96164662 9:0.96677494 10:0.90541291 11:0.21861957 12:0.17977528 13:0.59036142 14:0.61951602 15:0.66143495 16:0.67362833 #
-2 1:0.0069124424 2:0.03125 3:0.050000001 4:0.0050750459 5:0.47717282 6:0.17320262 7:0.029411765 8:0.9009614 9:0.90441656 10:0.77904361 11:0.23864824 12:0.85714287 13:0.67553192 14:0.6956225 15:0.7175141 16:0.72576171 #
-2 1:0.0071348939 2:0.042735044 3:0.06666667 4:0.0066060079 5:0.49691468 6:0.083123423 7:0.078085646 8:0.91014528 9:0.91479927 10:0.77428305 11:0.30324405 12:0.84210527 13:0.64347827 14:0.63019156 15:0.66818184 16:0.65207869 #
-2 1:0.0053940667 2:0.019117648 3:0.037694015 4:0.0025155772 5:0.54277164 6:0.17168675 7:0.0060240962 8:0.92116654 9:0.92601746 10:0.84506691 11:0.31818959 12:0.85000002 13:0.68269229 14:0.68917465 15:0.71356785 16:0.70824927 #
2 5:0.52142024 6:0.14136386 7:0.022399204 8:0.90000856 9:0.90816635 10:0.67177325 11:0.17470996 12:0.065573767 13:0.65384614 14:0.62253177 15:0.72357726 16:0.67581511 #
2 1:0.031746034 3:0.12244898 4:0.013223141 5:0.3169235 6:0.16511628 7:0.0046511628 8:0.85339868 9:0.86754709 10:0.66928452 11:0.092153102 12:0.9464286 13:0.49803922 14:0.50193048 15:0.55284554 16:0.54194021 #
2 1:0.034722224 3:0.12244898 4:0.013223141 5:0.34071618 6:0.20198676 7:0.066225164 8:0.79752088 9:0.8195706 10:0.74955893 11:0.16848801 12:0.9464286 13:0.48148149 14:0.47739586 15:0.51282054 16:0.50795954 #
-2 1:0.0071428572 2:0.03167421 3:0.0625 4:0.0061721937 5:0.41727671 6:0.02538071 7:0.068527922 8:0.87215102 9:0.88095051 10:0.76562655 11:0.22582395 12:0.85365856 13:0.58798283 14:0.59702712 15:0.63380283 16:0.63084799 #
2 1:0.0057471264 2:0.038781162 3:0.027323326 4:0.00043970975 5:0.41863057 6:0.18337476 7:0.014636841 8:0.90559298 9:0.90688872 10:0.79282051 11:0.093387127 12:0.18699187 13:0.52985072 14:0.56621331 15:0.59983498 16:0.616597 #
2 1:0.047499999 3:0.12244898 4:0.013223141 5:0.37754521 6:0.23728813 7:0.079903148 8:0.8182078 9:0.82952893 10:0.83447218 11:0.16684799 12:0.9464286 13:0.49289098 14:0.51318139 15:0.53061223 16:0.53334033 #
-2 1:0.005860806 2:0.052083332 3:0.027548209 4:0.0028882576 5:0.42225975 6:0.14732143 7:0.0625 8:0.8497988 9:0.85450035 10:0.79574001 11:0.29408586 12:0.84210527 13:0.57615894 14:0.62095356 15:0.59722221 16:0.63845742 #
2 5:0.57445419 6:0.21599741 7:0.14443006 8:0.9092325 9:0.91163832 10:0.86795461 11:0.29862785 12:0.064516127 13:0.63172042 14:0.63155377 15:0.70032054 16:0.6835472 #
2 1:0.047499999 3:0.12244898 4:0.013223141 5:0.1977208 6:0.142 7:0.079999998 8:0.69952595 9:0.70999068 10:0.48985404 11:0.083430894 12:0.9464286 13:0.45833334 14:0.45761442 15:0.51229507 16:0.49438405 #
1.0098827241547496669227257370949 5:0.50735551 6:0.14378758 7:0.05511022 8:0.8992269 9:0.89265001 10:0.75470257 11:0.22069806 12:0.075471699 13:0.56659621 14:0.55988365 15:0.65394402 16:0.62157309 #
-2 1:0.0064045545 2:0.028124999 3:0.13360325 4:0.0051556746 5:0.34257036 6:0.037037037 7:0.16460906 8:0.8105579 9:0.81898218 10:0.76302946 11:0.20457031 12:0.85000002 13:0.65217394 14:0.619533 15:0.6855346 16:0.64791483 #
1.282460748833955221925862133503 1:0.032986112 3:0.12244898 4:0.013223141 5:0.19436771 6:0.052854124 7:0.10570825 8:0.80518645 9:0.81875014 10:0.63157928 11:0.031297129 12:0.9464286 13:0.39917696 14:0.38543442 15:0.46956521 16:0.43663546 #
-2 1:0.0057971017 2:0.048484847 3:0.03125 4:0.0032051282 5:0.35880673 6:0.020920502 7:0.14225942 8:0.85306233 9:0.8633734 10:0.80583245 11:0.19813217 12:0.84210527 13:0.61073828 14:0.60594356 15:0.63829786 16:0.61680019 #
-1.3823266865103960299165919423103 1:0.0073313783 2:0.050000001 3:0.06666667 4:0.0066609979 5:0.30691722 6:0.043478262 7:0.11180124 8:0.72757566 9:0.74610215 10:0.72581506 11:0.15892713 12:0.84210527 13:0.60952383 14:0.57158458 15:0.64999998 16:0.59837347 #
2 1:0.022959184 3:0.12244898 4:0.013223141 5:0.28857437 6:0.20273349 7:0.022779044 8:0.86905503 9:0.87110507 10:0.63782877 11:0.10878632 12:0.9464286 13:0.50420171 14:0.50107849 15:0.55411255 16:0.54249465 #
