SVM-light Version V6.02
0 # kernel type
3 # kernel parameter -d 
1 # kernel parameter -g 
1 # kernel parameter -s 
1 # kernel parameter -r 
empty# kernel parameter -u 
16 # highest feature index 
2236 # number of training documents 
432 # number of support vectors plus 1 
-1.5189318 # threshold b, each following line is a SV (starting with alpha*y)
2 1:0 2:0 3:0.1875 4:0.015190972 5:0.33327445 6:0.1375839 7:0.03691275 8:0.61243922 9:0.62293738 10:0.7187019 11:0.19732608 12:0.33333334 13:0.60683763 14:0.6134454 15:0.65765768 16:0.64894658 #
-2 5:0.36226022 6:0.082851641 7:0.01734104 8:0.86318278 9:0.86886066 10:0.66930419 11:0.15073888 13:0.57768923 14:0.56604457 15:0.61016947 16:0.60632789 #
-2 1:0.0032407406 2:0.06666667 3:0.55716556 4:0.00086154632 5:0.2572124 6:7.0079999 7:8.0319996 8:0.72790891 9:0.72347343 10:0.29240015 11:0.11101154 12:0.3548387 13:0.81481481 14:0.32314527 15:0.83544302 16:0.33375502 #
2 1:0 2:0 3:0 4:0.00012235354 5:0.14133762 6:0.27868852 7:0.16721311 8:0.63036329 9:0.63191897 10:0.41988495 11:0.011900827 13:0.32934132 14:0.36200541 15:0.34969324 16:0.36823273 #
2 1:0.046296295 2:0 3:0.18181819 4:0.0052226814 5:0.50624686 6:0.11408816 7:0.079083838 8:0.75522846 9:0.77970761 10:0.74775457 11:0.2467645 12:0.31746033 13:0.55000001 14:0.53379548 15:0.58785248 16:0.55456692 #
2 1:0 2:0 3:0 4:0.00029342723 6:2.5593221 #
2 1:0 2:0 3:0 4:8.8090201e-05 5:0.19514741 6:0.20899472 7:0.11640212 8:0.74944586 9:0.7536689 10:0.41056117 11:0.05410751 13:0.32743362 14:0.3741104 15:0.36486486 16:0.39968944 #
-2 6:0.2340824 #
-2 5:0 6:0.4888064 7:0.46338171 8:0.23365045 9:0.23184672 10:0.001735681 11:0 13:0.020008337 14:0.021869773 15:0.020710059 16:0.0244036 #
2 1:0.053333335 2:0 3:0.14222223 4:0.0037962962 5:0.70917577 6:0.14639905 7:0.13931523 8:0.83050197 9:0.83974737 10:0.86605477 11:0.48657879 12:0.33898306 13:0.71296299 14:0.695319 15:0.74603176 16:0.74018043 #
2 1:0.079999998 2:0 3:0.1875 4:0.015190972 5:0.20556819 6:0.0084745763 7:0.093220338 8:0.47674888 9:0.48404288 10:0.72894031 11:0.10029762 12:0.32258064 13:0.60759491 14:0.59222424 15:0.72000003 16:0.67237866 #
-2 5:0.66257793 6:0.1194426 7:0.0092899799 8:0.96709061 9:0.96728367 10:0.79914558 11:0.23041159 13:0.62639111 14:0.63108552 15:0.65694684 16:0.65470469 #
2 1:0 2:0 3:0 4:0.00013368984 5:0.25897238 6:0.236 7:0.14399999 8:0.70675629 9:0.7098431 10:0.58263868 11:0.082878523 13:0.5 14:0.52966738 15:0.52173913 16:0.5396325 #
-2 5:0.8223511 6:0.44096065 7:0.17811875 8:0.82768357 9:0.85523796 10:0.99683797 11:0.64640206 13:0.46212122 14:0.43790933 15:0.48461539 16:0.45886493 #
-2 1:0.0064045545 2:0.028124999 3:0.13360325 4:0.0051556746 6:0.037037037 12:0.85000002 #
2 1:0 2:0 3:0 4:0.00011004213 5:0.12305681 6:0.0064935065 7:0.1525974 8:0.67896223 9:0.68305558 10:0.24484916 11:0.015668286 13:0.31843576 14:0.33716381 15:0.34911242 16:0.35439432 #
-2 1:0.0056338026 2:0.0084033618 3:0.090909094 4:0.0057916776 6:0.16666667 12:0.83333331 #
2 1:0 2:0 3:0 4:0.00014985418 5:0.12169109 6:0.46808511 7:0.68085104 8:0.52426869 9:0.53033811 10:0.45817152 11:0.054173633 13:0.46808511 14:0.40338066 15:0.47872341 16:0.4102453 #
-2 5:0.48791355 6:0.14536741 7:0.038338657 8:0.91447937 9:0.91339862 10:0.81391847 11:0.23538999 13:0.63354039 14:0.65131211 15:0.66557378 16:0.67109728 #
-2 5:0.31825867 6:0.24444444 7:0.14444445 8:0.77451664 9:0.79710591 10:0.60056281 11:0.12463988 13:0.58730161 14:0.60688365 15:0.59016395 16:0.60523438 #
-2 1:0.0038314175 2:0.022222223 3:0.65781331 4:0.0010830078 5:0.16038896 6:0.018796992 7:0.0075187972 8:0.87202209 9:0.86918497 10:0.66152459 11:0.043509759 12:0.26506025 13:0.49253732 14:0.47295266 15:0.54838711 16:0.50538421 #
2 1:0 2:0 3:0 4:0.00022201907 5:0.28971335 6:0.019498607 7:0.096100278 8:0.7690807 9:0.77966392 10:0.62790978 11:0.10941038 13:0.46964857 14:0.4506084 15:0.5117057 16:0.47363427 #
-2 1:0.018907564 2:0.1875 3:0.028070176 4:0.0041682455 5:0.30309394 6:2.5714285 7:2.88322 8:0.88291448 9:0.88217062 10:0.46140215 11:0.059551958 12:0.44444445 13:0.6068182 14:0.35022846 15:0.65121949 16:0.36684963 #
2 3:0 4:5.7510926e-05 5:0.095037937 6:0.11555555 7:0.031111112 8:0.66501105 9:0.66660702 10:0.44999605 11:0.014925558 13:0.32885906 14:0.33222774 15:0.3586207 16:0.35986376 #
2 1:0 2:0 3:0 4:0.00047570508 5:0.19818501 6:0.14201184 7:0.082840234 8:0.77716553 9:0.78152639 10:0.70091754 11:0.065508708 12:0.050632913 13:0.4375 14:0.45621383 15:0.47222221 16:0.48831224 #
-2 1:0.00042617961 2:0.0083333338 3:0.59172416 4:0.0021968214 5:0.4261598 6:0.19277108 7:0.075301208 8:0.90218508 9:0.90790182 10:0.64753747 11:0.16178036 12:0.13076924 13:0.55050504 14:0.58722407 15:0.59685862 16:0.6114381 #
2 1:0.034023669 2:0 3:0.27210885 4:0.0026927437 5:0.79175615 6:0.11986153 7:0.1354392 8:0.82439876 9:0.82867175 10:0.96103495 11:0.5724473 12:0.33898306 13:0.74489796 14:0.71931034 15:0.77611941 16:0.74252385 #
-2 6:0.13347237 #
-2 5:0.4799256 6:0.073170729 7:0.054878049 8:0.8400811 9:0.8647508 10:0.82502174 11:0.24784596 13:0.625 14:0.6527912 15:0.66666669 16:0.69006556 #
2 1:0 2:0 3:0 4:2.9137529e-05 5:0.1373063 6:0.19934641 7:0.20152505 8:0.66655868 9:0.66740841 10:0.38511857 11:0.0014475434 12:0.050632913 13:0.31463414 14:0.31942573 15:0.34020618 16:0.33803511 #
-2 5:0.2659725 6:0.11 7:0.039999999 8:0.72575456 9:0.7377333 10:0.70209169 11:0.16283473 13:0.58536583 14:0.62104976 15:0.5925926 16:0.62421948 #
2 1:0 2:0 3:0 4:0.00015624249 5:0.19680066 6:0.030120483 7:0.048192769 8:0.73981363 9:0.75830001 10:0.70866412 11:0.060276568 13:0.41584158 14:0.43008602 15:0.45360824 16:0.45596468 #
-2 5:0.88800573 6:0.20701228 7:0.08511854 8:0.99286503 9:0.99233931 10:0.89999765 11:0.45609653 13:0.68153775 14:0.69127798 15:0.75 16:0.74381137 #
-2 6:0.098623857 #
-2 5:0.31844693 6:0.15189873 7:0.012658228 8:0.7072739 9:0.75656408 10:0.66624129 11:0.15041421 13:0.59322035 14:0.59024328 15:0.59649122 16:0.59132671 #
2 1:0 2:0 3:0 4:0.00018133609 5:0.13420334 6:0.31027254 7:0.24318658 8:0.69518077 9:0.69982749 10:0.52723283 11:0.033821613 13:0.37301588 14:0.4341813 15:0.39075631 16:0.45183977 #
-2 1:0.016447369 2:0.15000001 3:0.037151702 4:0.0064102565 5:0.40342632 6:0.19787234 7:0.10212766 8:0.85308564 9:0.85675627 10:0.58748764 11:0.10264917 12:0.36734694 13:0.43548387 14:0.44711381 15:0.47435898 16:0.46645245 #
-2 5:0.46305346 6:0.057220709 7:0.013623978 8:0.87712389 9:0.88886935 10:0.8570469 11:0.2219281 13:0.62380952 14:0.64096552 15:0.67500001 16:0.69072008 #
-2 5:0.4371244 6:0.041666668 7:0.0041666669 8:0.91280782 9:0.9183991 10:0.78948569 11:0.23252033 13:0.64516127 14:0.64402413 15:0.69999999 16:0.67237145 #
2 1:0 2:0 3:0 4:0.00012530456 5:0.12145539 6:0.3097643 7:0.20875421 8:0.62832391 9:0.62499487 10:0.4541274 11:0.024315624 13:0.31325302 14:0.36109608 15:0.33128834 16:0.37680328 #
-2 5:0.31062469 6:0.1 7:0.034782607 8:0.75869125 9:0.72762406 10:0.60790354 11:0.14881386 13:0.61151081 14:0.61872107 15:0.66165411 16:0.66415566 #
-2 5:0.5061391 6:0.052718285 7:0.021416804 8:0.90130949 9:0.91444278 10:0.82662165 11:0.24292247 13:0.59848487 14:0.61766374 15:0.68354428 16:0.66420782 #
2 1:0.041522492 2:0 3:0.27160493 4:0.006430041 5:0.66749108 6:0.12595005 7:0.1237785 8:0.85582763 9:0.85956848 10:0.97350013 11:0.36103633 12:0.33333334 13:0.75793654 14:0.73088402 15:0.77922076 16:0.75203955 #
2 1:0.024305556 2:0 3:0.23140496 4:0.0052226814 5:0.6441015 6:0.1038961 7:0.10870611 8:0.78036374 9:0.78921646 10:0.90825599 11:0.39341864 12:0.32786885 13:0.70499998 14:0.67604309 15:0.7744807 16:0.7431646 #
2 1:0 2:0.00068306009 3:0 4:0.00013128058 5:0.20729521 6:0.25203252 7:0.38414633 8:0.769934 9:0.77299428 10:0.48944905 11:0.036356263 12:0.045977011 13:0.41319445 14:0.40014777 15:0.46014494 16:0.41704175 #
2 1:0.048484847 2:0 3:0.171875 4:0.0072699655 5:0.48157725 6:0.16551724 7:0.08275862 8:0.78888488 9:0.79807615 10:0.47666734 11:0.30081582 12:0.33898306 13:0.67289722 14:0.65478903 15:0.69902915 16:0.68265617 #
-2 5:0.90177417 6:0.0016820858 7:0.1783011 8:0.94911051 9:0.96289599 10:0.98492807 11:0.84805804 13:0.37362638 14:0.36958706 15:0.41111112 16:0.40442592 #
2 5:0.24418399 6:0.52256942 7:0.46527779 8:0.68481147 9:0.6871714 10:0.46909052 11:0.059075784 12:0.034782607 13:0.36423841 14:0.46601987 15:0.39024389 16:0.49005112 #
2 5:0.0593521 6:0.14675768 7:0.075085327 8:0.67411774 9:0.68119067 10:0.26168668 11:0.0040604807 12:0.051948052 13:0.25531915 14:0.27895519 15:0.27717391 16:0.2875168 #
2 1:0.029748283 2:0 3:0.12037037 4:0.0020961934 5:0.70511621 6:0.0042052143 7:0.040370058 8:0.75996262 9:0.77890021 10:0.96357757 11:0.52570963 12:0.33898306 13:0.729927 14:0.69499356 15:0.77350426 16:0.72961336 #
-2 5:0.92431074 6:0.21459553 7:0.10722666 8:0.99529207 9:0.99481928 10:0.91251582 11:0.49257654 13:0.69022202 14:0.67613304 15:0.75386411 16:0.72329199 #
-2 5:0.4925487 6:0.13760218 7:0.061307903 8:0.89297473 9:0.89785492 10:0.78206974 11:0.19909243 13:0.65467626 14:0.65249866 15:0.68965518 16:0.68443042 #
-2 5:0.22988543 6:0.30769232 7:0.25 8:0.56632787 9:0.59906471 10:0.76597571 11:0.13538259 13:0.46835443 14:0.51240838 15:0.47999999 16:0.52372295 #
-2 5:0.2819126 6:0.39754817 7:0.34500876 8:0.76686889 9:0.79128629 10:0.6290288 11:0.025155954 13:0.2962963 14:0.35696331 15:0.33976835 16:0.40643725 #
2 1:0.057142857 2:0 3:0.13333334 4:0.0099537037 5:0.30377766 6:0.13513513 7:0.10810811 8:0.63964993 9:0.64823109 10:0.43220913 11:0.1693335 12:0.33333334 13:0.64999998 14:0.6010322 15:0.68000001 16:0.61065805 #
2 1:0 2:0 3:0 4:0.0002374357 5:0.038821042 6:0.26183844 7:0.1643454 8:0.64079642 9:0.63594729 10:0.28353518 11:0.0032900791 12:0.032000002 13:0.30285713 14:0.3000741 15:0.32716051 16:0.3129909 #
2 1:0 2:0 3:0 4:0.00018142235 5:0.17071924 6:0.22689076 7:0.12044818 8:0.742549 9:0.75115031 10:0.73478216 11:0.059282735 13:0.42500001 14:0.47512361 15:0.46560848 16:0.50447404 #
-2 5:0.17272241 6:0.032258064 7:0 8:0.69575125 9:0.68072945 10:0.3582119 11:0.043796789 13:0.5272727 14:0.5475598 15:0.56730771 16:0.58441627 #
-0.14266392795989446540261269547045 1:0.018633541 2:0.1 3:0.046783626 4:0.0065416833 5:0.44876361 6:0.29205176 7:0.15896489 8:0.9352954 9:0.93716627 10:0.62412059 11:0.09542726 12:0.53658539 13:0.44528303 14:0.47522649 15:0.49011856 16:0.50962824 #
2 1:0 2:0 3:0.0015037594 4:0.0010860484 5:0.49465799 6:0.082660332 7:0.10403801 8:0.82127726 9:0.82773596 10:0.94453347 11:0.35692638 12:0.33898306 13:0.65588236 14:0.62950724 15:0.7006579 16:0.66845101 #
-2 1:0.022486772 2:0.12244898 3:0.033950616 4:0.00375328 5:0.17462957 6:0.26739928 7:0.35897437 8:0.83603221 9:0.830643 10:0.87040037 11:0.041552123 12:0.45238096 13:0.5 14:0.44389677 15:0.52201259 16:0.46660888 #
2 1:0 2:0 3:0 4:0.00030292539 5:0.16516219 6:0.16777408 7:0.021594685 8:0.72338355 9:0.72821993 10:0.67281151 11:0.017324358 13:0.34256056 14:0.33306679 15:0.40671641 16:0.38441336 #
-2 6:0.097308487 #
2 1:0.020917678 2:0 3:0.13648649 4:0.0014029655 5:0.85413587 6:0.11171733 7:0.13808781 8:0.77312124 9:0.77942985 10:0.97680169 11:0.56648892 12:0.32786885 13:0.70817846 14:0.71068382 15:0.75768322 16:0.74459618 #
2 1:0 2:0.00056306308 3:0 4:0.00039147603 5:0.10272473 6:0.27450982 7:0.23039216 8:0.60028625 9:0.62343419 10:0.23926264 11:0.026294176 12:0.053333335 13:0.27131784 14:0.29571843 15:0.30081302 16:0.31523916 #
-2 1:0.0029985008 2:0.035714287 3:0.66990721 4:0.0010926171 5:0.2601496 6:0.44604316 7:0.528777 8:0.77427447 9:0.78968537 10:0.68869817 11:0.085525393 12:0.27160493 13:0.44999999 14:0.42544752 15:0.46710527 16:0.44430572 #
-2 1:0.0009150327 2:0.01010101 3:0.14453125 4:0.0080115367 5:0.16821869 6:1.2835821 7:1.4626865 8:0.76891333 9:0.77773482 10:0.47247866 11:0.019080048 12:0.97619045 13:0.40000001 14:0.28228575 15:0.44565219 16:0.30150318 #
-2 1:0.0044929394 2:0.074074075 3:0.51980609 4:0.0012008181 5:0.34263235 6:0.33018869 7:0.21383648 8:0.8564229 9:0.86198217 10:0.72922462 11:0.15515375 12:0.3548387 13:0.5 14:0.54941851 15:0.52688169 16:0.58093011 #
2 1:0.018023256 2:0 3:0.36328125 4:0.0035536024 5:0.66618162 6:0.17504917 7:0.17167744 8:0.76375359 9:0.77515125 10:0.93487692 11:0.42335376 12:0.33333334 13:0.73076922 14:0.70188415 15:0.77672958 16:0.74037093 #
-0.62432453084391004161091132118599 1:0.0073575783 2:0.042105265 3:0.059090909 4:0.0050824927 6:0.0054347827 12:0.83333331 #
-2 6:0.093229748 #
2 1:0 2:0 3:0 4:0 5:0.21884 6:0.1184466 7:0.044660196 8:0.77767497 9:0.77550644 10:0.28596008 11:0.020180641 13:0.30662021 14:0.33140245 15:0.32971016 16:0.34782517 #
1.0113299390632164431735873222351 1:0 2:0 3:0 4:2.2889581e-05 5:0.079533011 6:0.24844721 7:0.14906833 8:0.62922043 9:0.6453253 10:0.38914523 11:0.023495652 12:0.038834952 13:0.26168224 14:0.29188845 15:0.29807693 16:0.33166939 #
2 1:0 2:0 3:0 4:3.2834254e-05 5:0.069079965 6:0.18342152 7:0.12169312 8:0.58568347 9:0.58194178 10:0.20120446 11:0 13:0.28518519 14:0.26920775 15:0.31225297 16:0.28966311 #
2 5:0.16191751 6:0.41216215 7:0.36148649 8:0.70730293 9:0.70906985 10:0.57648897 11:0.023375718 13:0.37575758 14:0.44089377 15:0.39024389 16:0.45812562 #
2 1:0.0041152262 2:0 3:0.18934911 4:0.0043967785 5:0.78609997 6:0.10003547 7:0.12699538 8:0.71962839 9:0.73713088 10:0.97418255 11:0.48353273 12:0.31746033 13:0.64506173 14:0.64011902 15:0.71209013 16:0.70174104 #
-2 1:0.0095785437 3:0.034171809 4:0.0033443305 5:0.33166248 6:0.25888324 7:0.47715735 8:0.86612004 9:0.864546 10:0.51764947 11:0.092513308 12:0.48780489 13:0.60526317 14:0.48730829 15:0.61261261 16:0.48789728 #
2 1:0 2:0.00069444446 3:0 4:0.00020814543 5:0.25362012 6:0.44329897 7:0.56701028 8:0.81849426 9:0.82805604 10:0.49831778 11:0.084364288 12:0.060606062 13:0.5 14:0.43051404 15:0.54705882 16:0.45756769 #
-2 5:0.55167603 6:0.13095239 7:0.10154062 8:0.94606227 9:0.95040041 10:0.98854566 11:0.53477985 13:0.28915662 14:0.27464917 15:0.32911393 16:0.31361741 #
-2 5:0.56192237 6:0.17227723 7:0.099009901 8:0.91719311 9:0.93633819 10:0.90721297 11:0.24883591 13:0.56444442 14:0.59314895 15:0.62318838 16:0.63880956 #
2 1:0.027459955 2:0 3:0.25757575 4:0.0047874581 5:0.60087758 6:0.090361446 7:0.19277108 8:0.83430201 9:0.83600461 10:0.85200262 11:0.48002383 12:0.33898306 13:0.61206895 14:0.61092681 15:0.64545453 16:0.62854016 #
2 1:0 2:0.00088417332 3:0 4:0.00016256503 5:0.10669844 6:0.25418061 7:0.18394649 8:0.66948444 9:0.67017496 10:0.39855012 11:0.02972942 13:0.33152175 14:0.36851919 15:0.36158192 16:0.39018589 #
2 1:0 2:0 3:0 4:0.0012053034 5:0.128565 6:0.077753782 7:0.047516197 8:0.66785073 9:0.66982043 10:0.4053762 11:0.0025268968 12:0.090909094 13:0.31627908 14:0.27957457 15:0.34146342 16:0.29643989 #
2 1:0.0017670074 2:0.022222223 3:0.11111111 4:0.010702055 5:0.58586466 6:0.08510638 7:0.20141844 8:0.91211051 9:0.91892731 10:0.89572102 11:0.2754989 13:0.61261261 14:0.59716886 15:0.63836479 16:0.61736643 #
2 1:0 2:0 3:0 4:4.2007981e-05 5:0.12249829 6:0.21984436 7:0.12062257 8:0.71243924 9:0.71277022 10:0.45370704 11:0.004486606 13:0.32793522 14:0.35688463 15:0.35864979 16:0.37655249 #
-2 5:0.48374659 6:0.18120806 7:0.055928413 8:0.91425371 9:0.92220247 10:0.83507627 11:0.21660554 13:0.55660379 14:0.56471997 15:0.57635468 16:0.58506584 #
-2 5:0.51086444 6:0.10952381 7:0.042857144 8:0.88882691 9:0.88541669 10:0.80071366 11:0.30574101 13:0.64351851 14:0.64367986 15:0.69458127 16:0.69118476 #
-2 5:0.37189317 6:0.075862072 7:0.048275862 8:0.82356101 9:0.834234 10:0.67925549 11:0.18746755 13:0.5869565 14:0.60970414 15:0.62790698 16:0.6242879 #
2 1:0.013888889 2:0 3:0.15359478 4:0.0031545025 5:0.73678333 6:0.16190477 7:0.23544973 8:0.74912959 9:0.76246607 10:0.97156441 11:0.52281553 12:0.33898306 13:0.72148544 14:0.73115724 15:0.77575755 16:0.77109832 #
2 1:0.046218488 2:0 3:0.10267857 4:0.0035652281 5:0.73336452 6:0.26674235 7:0.21906924 8:0.85781866 9:0.86736506 10:0.97038668 11:0.45782208 12:0.33898306 13:0.66375548 14:0.67862737 15:0.7150259 16:0.71875978 #
2 3:0 4:5.4653767e-05 5:0.13616569 6:0.06530612 7:0.26938775 8:0.57374549 9:0.57169235 10:0.28623208 11:0.015720036 13:0.3537415 14:0.32838905 15:0.36805555 16:0.33676767 #
-2 5:0.32325408 6:0.27272728 7:0.14141414 8:0.77535826 9:0.79049003 10:0.82252926 11:0.1673419 13:0.61428571 14:0.6578899 15:0.60869563 16:0.64738083 #
-2 5:0.3263956 6:0.21212122 7:0.11111111 8:0.75608641 9:0.82252383 10:0.83576208 11:0.19661896 13:0.52702701 14:0.56670725 15:0.62857145 16:0.6733467 #
2 1:0.0065406975 2:0 3:0.088953488 4:0.0011708656 5:0.67544568 6:1.0731232 7:1.1036724 8:0.78282517 9:0.78519249 10:0.78802907 11:0.35923028 12:0.32786885 13:0.66125542 14:0.50422013 15:0.70394737 16:0.53969419 #
2 1:0.018595042 2:0 3:0.057692308 4:0.0021675706 5:0.80003208 6:0.15312901 7:0.17423917 8:0.77145356 9:0.7738502 10:0.84638053 11:0.50303918 12:0.32786885 13:0.64558142 14:0.64334434 15:0.72162485 16:0.70658934 #
2 1:0 2:0 3:0 4:2.3339402e-05 5:0.15962745 6:0.035183739 7:0.089132138 8:0.80378616 9:0.79675639 10:0.70321429 11:0.017348323 12:0.093023255 13:0.39553753 14:0.3716141 15:0.47727272 16:0.42572621 #
2 1:0.079999998 2:0 3:0.16 4:0.011944445 5:0.45407248 6:0.11409396 7:0.093959734 8:0.80476248 9:0.81733185 10:0.76319098 11:0.22773431 12:0.33333334 13:0.60759491 14:0.5724436 15:0.66233766 16:0.62311065 #
2 1:0.036956523 2:0 3:0.1388889 4:0.0031507201 5:0.49413404 6:0.15692821 7:0.10767946 8:0.79562193 9:0.79633683 10:0.80343419 11:0.26650983 12:0.33898306 13:0.59880239 14:0.58285362 15:0.63758391 16:0.62411594 #
-2 5:0.37876576 6:0.18666667 7:0.13333334 8:0.74157637 9:0.76917511 10:0.70431799 11:0.21066621 13:0.58181816 14:0.63060355 15:0.66666669 16:0.68599433 #
2 1:0 2:0.0092592593 3:0 4:0.0001214993 5:0.12141398 6:0.11197916 7:0.059895832 8:0.76411098 9:0.76728749 10:0.44172573 11:0.026238287 12:0.03539823 13:0.32653061 14:0.3232488 15:0.33333334 16:0.32991445 #
2 1:0.00096899224 2:0 3:0 4:0.0017734598 5:0.067061909 6:0.14553314 7:0.05907781 8:0.59738135 9:0.58839703 10:0.041003101 11:0.0016220777 12:0.1 13:0.19571866 14:0.20122045 15:0.2192691 16:0.21502478 #
2 1:0 2:0 3:0.12244898 4:0.0083616776 5:0.47298282 6:0.19678715 7:0.13253012 8:0.71986037 9:0.71941471 10:0.63846767 11:0.27392712 12:0.33898306 13:0.62068963 14:0.6352458 15:0.67289722 16:0.66669524 #
0.52557666106247324933065101504326 1:0 2:0 3:0 4:0 5:0.22630668 6:0.22173275 7:0.12041116 8:0.87134993 9:0.87225991 10:0.65097177 11:0.04181667 12:0.070175439 13:0.34770116 14:0.37539062 15:0.3799392 16:0.40055874 #
2 1:0 2:0 3:0 4:0 5:0.081548214 6:0.35123041 7:0.2147651 8:0.59795392 9:0.60178441 10:0.24791321 11:0.0055694967 13:0.2920354 14:0.31366339 15:0.31481481 16:0.33133304 #
2 1:0 2:0 3:0 4:0.00010117703 5:0.30120417 6:0.22666667 7:0.057142857 8:0.84723884 9:0.84989083 10:0.71065158 11:0.061317496 12:0.052631579 13:0.34496123 14:0.37306938 15:0.37751004 16:0.4016214 #
-2 5:0.47692093 6:0.26415095 7:0.17924528 8:0.78847146 9:0.82942128 10:0.87076181 11:0.26442021 13:0.58666664 14:0.64523172 15:0.6056338 16:0.6481021 #
2 1:0.00054555375 2:0.015376458 3:0.010186757 4:0.0019688646 5:0.40242499 6:0.054624122 7:0.0010816657 8:0.90823978 9:0.90829396 10:0.81611484 11:0.23679322 13:0.47092199 14:0.4855046 15:0.52773374 16:0.52857208 #
2 1:0.021177687 2:0 3:0.13111727 4:0.00098107115 5:0.61643147 6:0.09259259 7:0.093958713 8:0.77124119 9:0.77801991 10:0.71996975 11:0.47728455 12:0.32786885 13:0.63378376 14:0.6198197 15:0.68122977 16:0.66070133 #
-2 5:0.54357702 6:0.0099667776 7:0.076411963 8:0.88564479 9:0.90295631 10:0.90143538 11:0.19264451 13:0.5847953 14:0.58992487 15:0.63580245 16:0.61884469 #
2 1:0.016917294 2:0 3:0.060975611 4:0.0012510779 5:0.76493335 6:0.054456379 7:0.10457886 8:0.7129823 9:0.72269303 10:0.93696964 11:0.52964211 12:0.32786885 13:0.66260868 14:0.6655305 15:0.71396649 16:0.70689344 #
2 1:0 2:0 3:0 4:0.00014736656 5:0.19602987 6:0.027210884 7:0.15419501 8:0.63236749 9:0.63646936 10:0.36564359 11:0.025602242 13:0.33070865 14:0.33120483 15:0.37551022 16:0.35573244 #
2 1:0.040816326 2:0 3:0.065789476 4:0.0028326022 5:0.67793638 6:0.20406279 7:0.22622345 8:0.75127786 9:0.76255155 10:0.95870054 11:0.50222367 12:0.33333334 13:0.71481484 14:0.73753661 15:0.77021277 16:0.79066443 #
-2 5:0.87294251 6:0.17433535 7:0.091025144 8:0.98868567 9:0.98805994 10:0.94529521 11:0.56811911 13:0.66356277 14:0.65386981 15:0.7225374 16:0.70563567 #
-2 5:0.43432727 6:0.21538462 7:0.1 8:0.8318463 9:0.87420684 10:0.91638535 11:0.21447611 13:0.61904764 14:0.63915396 15:0.71249998 16:0.7169953 #
1.2454074238047798672823773813434 1:0.031746034 2:0 3:0.34710744 4:0.0052226814 5:0.54898947 6:0.13849463 7:0.079569891 8:0.68088305 9:0.69990224 10:0.91167992 11:0.26294541 12:0.32258064 13:0.69320387 14:0.64887995 15:0.72930646 16:0.6821084 #
-2 5:0.38136747 6:0.093607306 7:0.01369863 8:0.86272621 9:0.87170535 10:0.71934664 11:0.15061036 13:0.61643833 14:0.60676742 15:0.67464113 16:0.64734089 #
2 1:0.018742191 2:0 3:0.11753087 4:0.0012448559 5:0.69915539 6:0.093892694 7:0.11815068 8:0.8045643 9:0.80948752 10:0.96285903 11:0.38005683 12:0.33333334 13:0.66857964 14:0.66951114 15:0.7241993 16:0.71909922 #
2 1:0 2:0 3:0 4:8.2297753e-05 5:0.4125641 6:0.16523464 7:0.060145408 8:0.91819823 9:0.91625303 10:0.72961646 11:0.090129502 12:0.071428575 13:0.37001899 14:0.38868862 15:0.42405063 16:0.42008129 #
2 1:0 2:0 3:0 4:0 5:0.092725396 6:0.16666667 7:0.070512824 8:0.59974998 9:0.60156572 10:0.19262739 11:0.015007505 13:0.28431374 14:0.27503291 15:0.2970297 16:0.2872425 #
2 1:0 2:0 3:0 4:2.8360748e-05 5:0.2333421 6:0.23927765 7:0.10609481 8:0.7654798 9:0.7657215 10:0.65324593 11:0.085860342 13:0.38938054 14:0.42854878 15:0.43192488 16:0.4647176 #
2 1:0 2:0 3:0 4:0 5:0.23089443 6:0.062052507 7:0.16945107 8:0.79215062 9:0.7931354 10:0.41504252 11:0.0097406674 13:0.45161289 14:0.42810449 15:0.47368422 16:0.43750095 #
-2 5:0.38215414 6:0.14855877 7:0.048780486 8:0.85432386 9:0.83949578 10:0.75617957 11:0.20068729 13:0.60683763 14:0.61855799 15:0.66666669 16:0.65783626 #
2 1:0 2:0 3:0 4:0 5:0.29214704 6:0.022576362 7:0.070385128 8:0.80452645 9:0.80889767 10:0.62957782 11:0.050433822 13:0.52325583 14:0.52182585 15:0.55757576 16:0.54296422 #
-2 5:0.5552448 6:0.23041475 7:0.12995392 8:0.94218403 9:0.94163764 10:0.78787303 11:0.20906138 13:0.60869563 14:0.64171171 15:0.6416862 16:0.66717243 #
-2 5:0.38428491 6:0.083025828 7:0.0092250919 8:0.91785604 9:0.9248544 10:0.79332757 11:0.12567437 13:0.58846152 14:0.58696616 15:0.62962961 16:0.61828405 #
2 1:0.00054869684 2:0.013550135 3:0.045454547 4:0.0046883617 5:0.54903758 6:0.1827451 7:0.089803919 8:0.8621667 9:0.86698425 10:0.6929453 11:0.23003517 13:0.60837698 14:0.65067577 15:0.66666669 16:0.7047677 #
2 1:0 2:0 3:0 4:4.9073733e-05 5:0.28257421 6:0.20950323 7:0.082073435 8:0.8457911 9:0.8499828 10:0.73387611 11:0.13688752 12:0.049382716 13:0.54509807 14:0.58552921 15:0.5925926 16:0.63146961 #
2 1:0 2:0 3:0 4:4.6568486e-05 5:0.24401543 6:0.29313543 7:0.1781076 8:0.74515921 9:0.75274086 10:0.56131077 11:0.070555203 12:0.079365082 13:0.35504887 14:0.41317368 15:0.38255033 16:0.42987356 #
2 1:0.081632651 2:0 3:0.12244898 4:0.0083616776 5:0.738967 6:0.27433628 7:0.24778761 8:0.79803401 9:0.80504066 10:0.96726304 11:0.60911202 12:0.33898306 13:0.70535713 14:0.75636804 15:0.70642203 16:0.75668597 #
-2 5:0.31372792 6:0.19685039 7:0.13385826 8:0.80689812 9:0.82902956 10:0.87812281 11:0.20723386 13:0.58333331 14:0.63930058 15:0.58227849 16:0.62760997 #
2 1:0 2:0 3:0 4:3.0829942e-05 5:0.28135458 6:0.3705036 7:0.27338129 8:0.75407481 9:0.77729988 10:0.72670639 11:0.13637146 13:0.49664429 14:0.57029474 15:0.52142859 16:0.58559501 #
2 1:0 2:0 3:0 4:0.00046468401 5:0.3905049 6:0.1679225 7:0.051668461 8:0.81039906 9:0.81079459 10:0.71448189 11:0.18826158 12:0.078431375 13:0.54178673 14:0.56373453 15:0.57741934 16:0.58598828 #
-2 1:0.0066807312 2:0.035326086 3:0.090909094 4:0.0046296297 6:0.022922637 12:0.84210527 #
-2 1:0.00043785575 2:0.0083333338 3:0.56821591 4:0.0022028077 5:0.36535051 6:0.14068441 7:0.11977186 8:0.91814613 9:0.92228258 10:0.64224499 11:0.13638039 12:0.12230216 13:0.51839465 14:0.56371588 15:0.55172414 16:0.58722019 #
-2 1:0.0067873304 2:0.026666667 3:0.079999998 4:0.0040181098 6:0.13919415 12:0.85000002 #
-2 1:0.0021913806 2:0.07692308 3:0.034482758 4:0.004811387 5:0.41348523 6:0.7483871 7:0.69838709 8:0.88291007 9:0.87783086 10:0.49255851 11:0.098702699 12:0.83783782 13:0.18315789 14:0.29920059 15:0.20935412 16:0.33825207 #
2 1:0.055555556 2:0 3:0.1875 4:0.015190972 5:0.38596296 6:0.066473991 7:0.06936416 8:0.62137645 9:0.61355084 10:0.65886617 11:0.25854826 12:0.32258064 13:0.66197181 14:0.65523475 15:0.765625 16:0.74004954 #
2 1:0.038781162 2:0 3:0.12890625 4:0.0035536024 5:0.65102267 6:0.046511628 7:0.052540913 8:0.77558535 9:0.78995913 10:0.84306639 11:0.38922921 12:0.33333334 13:0.68070173 14:0.62406802 15:0.70588237 16:0.64863288 #
-2 6:0.036890645 #
2 1:0.023460411 2:0 3:0.091111109 4:0.0018518518 5:0.7704854 6:0.13939925 7:0.10731992 8:0.79300761 9:0.8033486 10:0.96081054 11:0.4092111 12:0.32786885 13:0.6880734 14:0.66334027 15:0.72321427 16:0.696374 #
-2 1:0.0038314175 2:0.047619049 3:0.6780318 4:0.001114461 5:0.16860855 6:0.16249999 7:0.06666667 8:0.7933718 9:0.80028641 10:0.4408274 11:0.056446638 12:0.2972973 13:0.41059601 14:0.43342242 15:0.4513889 16:0.46619245 #
-2 5:0.88192683 6:0.016045846 7:0.14842407 8:0.93652767 9:0.94456965 10:0.99982649 11:0.8122375 13:0.44186047 14:0.42720905 15:0.4642857 16:0.45361105 #
2 1:0 2:0 3:0 4:0.00013215277 5:0.14015961 6:0.20754717 7:0.33333334 8:0.72615075 9:0.73410368 10:0.44199336 11:0.0096096117 12:0.03305785 13:0.52095807 14:0.43924466 15:0.54320985 16:0.44081625 #
-2 5:0.43363169 6:0.14141414 7:0.074074075 8:0.91954976 9:0.91726452 10:0.86610842 11:0.16292948 13:0.58565736 14:0.60947168 15:0.6111111 16:0.63754213 #
2 1:0.029136317 2:0 3:0.098765433 4:0.0020861912 5:0.7823292 6:0.12730153 7:0.12037221 8:0.81101811 9:0.82083178 10:0.9590432 11:0.43532994 12:0.32786885 13:0.64757162 14:0.65434688 15:0.69378698 16:0.69276297 #
-2 1:0.00043392016 2:0.0083333338 3:0.57894737 4:0.0022394799 5:0.27992222 6:0.16587678 7:0.12085308 8:0.85961413 9:0.86506712 10:0.59210461 11:0.15180399 12:0.12977099 13:0.46610171 14:0.50388134 15:0.50666666 16:0.52197015 #
-2 5:0.43100539 6:0.058659218 7:0.012569833 8:0.89945525 9:0.90853149 10:0.77283478 11:0.19638704 13:0.60778445 14:0.62132627 15:0.70476192 16:0.70032942 #
-2 5:0.56215769 6:0.17775294 7:0.09446618 8:0.93666303 9:0.93718565 10:0.6910153 11:0.23687923 13:0.62176168 14:0.64063984 15:0.66022098 16:0.66953343 #
-2 5:0.42147079 6:0.24166666 7:0.10833333 8:0.85885745 9:0.86050004 10:0.79306662 11:0.1380668 13:0.53658539 14:0.57263714 15:0.53086418 16:0.57105368 #
-2 5:0.23764302 6:0.19672132 7:0.18852459 8:0.70819759 9:0.72092265 10:0.72998589 11:0.074535601 13:0.53333336 14:0.60535359 15:0.54545456 16:0.60725451 #
-2 5:0.64592022 6:0.016505407 7:0.10358566 8:0.95762706 9:0.96092159 10:0.91620797 11:0.64208704 13:0.35106382 14:0.33867982 15:0.37777779 16:0.36389139 #
2 1:0.053333335 2:0 3:0.15234375 4:0.0035536024 5:0.67201853 6:0.095124848 7:0.1296076 8:0.81576103 9:0.82479036 10:0.97627926 11:0.43245721 12:0.32258064 13:0.66023165 14:0.67456776 15:0.7368421 16:0.74339193 #
-2 5:0.33195308 6:0.2 7:0.12857144 8:0.6948176 9:0.7448191 10:0.75098634 11:0.18411492 13:0.54545456 14:0.58584493 15:0.58823532 16:0.61275554 #
2 1:0 2:0 3:0 4:4.2618478e-05 5:0.22084345 6:0.12462006 7:0.059270516 8:0.84150052 9:0.84576607 10:0.76245403 11:0.078569397 12:0.075757578 13:0.42813456 14:0.47254232 15:0.47468355 16:0.50337839 #
2 1:0.053333335 2:0 3:0.24793388 4:0.0052226814 5:0.58946627 6:0.10891938 7:0.11835334 8:0.79987788 9:0.81169492 10:0.93990117 11:0.31328496 12:0.32258064 13:0.62732917 14:0.62729865 15:0.68531471 16:0.67363894 #
-2 5:0.30735371 6:0.04109589 7:0.04109589 8:0.73496282 9:0.75309086 10:0.84436822 11:0.16262312 13:0.55789477 14:0.56995583 15:0.63736266 16:0.630472 #
2 1:0 2:0 3:0 4:0 5:0.2452323 6:0.09390863 7:0.012690355 8:0.78622133 9:0.78853476 10:0.81051582 11:0.077366754 13:0.5 14:0.51010752 15:0.54450262 16:0.54737598 #
-2 5:0.36018488 6:0.14021164 7:0.082010582 8:0.86475378 9:0.8704474 10:0.69154024 11:0.14473727 13:0.57692307 14:0.60322148 15:0.61363637 16:0.63184911 #
-2 1:0.0010351967 2:0.01010101 3:0.11080332 4:0.007201646 5:0.4946793 6:0.25193799 7:0.12596899 8:0.93364495 9:0.938088 10:0.7543456 11:0.241466 12:0.25373134 13:0.62116039 14:0.6617499 15:0.66545457 16:0.6937843 #
2 1:0.055555556 2:0 3:0.1875 4:0.015190972 5:0.68477684 6:0.14981273 7:0.17977528 8:0.82041436 9:0.83285969 10:0.91331732 11:0.4655515 12:0.32258064 13:0.69230771 14:0.70479387 15:0.73737371 16:0.74493676 #
2 1:0 5:0.57581615 6:0.12381597 7:0.046008117 8:0.85414797 9:0.85698766 10:0.88097572 11:0.23946935 12:0.070175439 13:0.35741445 14:0.37607044 15:0.40083507 16:0.41217759 #
-2 5:0.32178745 6:0.22147651 7:0.147651 8:0.81208289 9:0.82824743 10:0.82027382 11:0.15500994 13:0.51162791 14:0.53494233 15:0.54658383 16:0.55886817 #
-2 5:0.43886673 6:0.1826923 7:0.03846154 8:0.78834593 9:0.80828488 10:0.78029436 11:0.21353707 13:0.53521127 14:0.57008773 15:0.56716418 16:0.59440339 #
2 1:0.037807185 2:0 3:0.15916955 4:0.0033400615 5:0.70494419 6:0.10309734 7:0.1380531 8:0.75766057 9:0.77577746 10:0.9756825 11:0.39721096 12:0.31746033 13:0.6613546 14:0.65625751 15:0.72576833 16:0.71323252 #
-2 5:0.31454283 6:0.24074075 7:0.1388889 8:0.84491146 9:0.85399026 10:0.68993211 11:0.18144369 13:0.58974361 14:0.61382461 15:0.60000002 16:0.621059 #
-2 5:0.49265894 6:0.064000003 7:0.071999997 8:0.8294127 9:0.84449822 10:0.72418612 11:0.24310376 13:0.65853661 14:0.65853661 15:0.6883117 16:0.68388522 #
-2 5:0.43206221 6:0.071428575 7:0.015873017 8:0.7957083 9:0.82536834 10:0.74565393 11:0.28521672 13:0.60714287 14:0.61973369 15:0.64885497 16:0.64639252 #
2 1:0 2:0 3:0 4:0.000388663 5:0.26281708 6:0.40199006 7:0.3243781 8:0.84295911 9:0.84693295 10:0.67458487 11:0.096802354 13:0.45124716 14:0.52081501 15:0.5 16:0.56021976 #
2 1:0.014417532 2:0 3:0.23684211 4:0.0017018458 5:0.64719433 6:0.2446281 7:0.27052343 8:0.78608966 9:0.79119736 10:0.90151459 11:0.38895386 12:0.32258064 13:0.55123675 14:0.60562748 15:0.60000002 16:0.64786643 #
-2 5:0.39856729 6:0.057291668 7:0.041666668 8:0.82162458 9:0.84930259 10:0.80636531 11:0.22300233 13:0.5703125 14:0.57814264 15:0.60330576 16:0.60835445 #
-2 5:0.56686884 6:0.12345679 7:0.033509701 8:0.93638372 9:0.94231164 10:0.8650021 11:0.33204174 13:0.6703704 14:0.66097963 15:0.71259844 16:0.69373614 #
-2 5:0.39919963 6:0.10280374 7:0.0093457941 8:0.86688405 9:0.88935471 10:0.86777508 11:0.17268637 13:0.54320985 14:0.54494923 15:0.57236844 16:0.55614048 #
-2 5:0.39408195 6:0.16408668 7:0.05882353 8:0.85226589 9:0.87414879 10:0.80612421 11:0.17745937 13:0.54802263 14:0.56668365 15:0.59036142 16:0.59576946 #
-2 5:0.46097171 6:0.068840578 7:0.032608695 8:0.89357501 9:0.89770859 10:0.79072911 11:0.21772149 13:0.57785469 14:0.59062004 15:0.59925091 16:0.60726422 #
2 1:0 2:0 3:0 4:9.0612542e-05 5:0.27252519 6:0.59839815 7:0.54576659 8:0.80228686 9:0.80630714 10:0.62923223 11:0.10962188 13:0.40934065 14:0.54570717 15:0.43390805 16:0.57380033 #
2 1:0.025641026 2:0 3:0.3125 4:0.015190972 5:0.79191422 6:0.22339974 7:0.22000848 8:0.82572782 9:0.83510554 10:0.93822241 11:0.54231143 12:0.32258064 13:0.69950742 14:0.69337457 15:0.74928772 16:0.73078394 #
2 1:0 2:0 3:0 4:0.00030366459 5:0.1717179 6:0.31011826 7:0.27463862 8:0.7217294 9:0.72995263 10:0.56511968 11:0.053092767 13:0.48728815 14:0.49791232 15:0.52654868 16:0.52538759 #
-2 5:0.5237295 6:0.084915087 7:0.045954045 8:0.85168499 9:0.8505733 10:0.86564505 11:0.28155613 13:0.61616164 14:0.62680423 15:0.63732392 16:0.64649457 #
2 1:0 2:0 3:0 4:4.2375126e-05 5:0.26952228 6:0.4385733 7:0.334214 8:0.85059071 9:0.85073203 10:0.63560683 11:0.1225956 12:0.075757578 13:0.3897281 14:0.46640843 15:0.40836012 16:0.48010063 #
-2 5:0.36177638 6:0.125 7:0.12771739 8:0.821904 9:0.85010827 10:0.81020385 11:0.16709602 13:0.58937198 14:0.6020056 15:0.64321607 16:0.66531444 #
-2 5:0.45441625 6:0.17046688 7:0.058631923 8:0.92328596 9:0.92735314 10:0.75750142 11:0.17052764 13:0.5520581 14:0.5770793 15:0.58441556 16:0.60860842 #
2 1:0.056122448 2:0 3:0.1322314 4:0.0052226814 5:0.67893654 6:0.12217438 7:0.12217438 8:0.73629153 9:0.75179833 10:0.9535681 11:0.41166708 12:0.31746033 13:0.63817096 14:0.65358889 15:0.71226418 16:0.70810127 #
-2 5:0.352456 6:0.099650353 7:0.048951048 8:0.87020725 9:0.87964445 10:0.85170633 11:0.14953473 13:0.58536583 14:0.60971075 15:0.61742425 16:0.63702989 #
2 1:0 2:0 3:0 4:0.00055432372 5:0.27863979 6:0.045883942 7:0.080971658 8:0.85528046 9:0.85810322 10:0.56829065 11:0.058247104 12:0.048780486 13:0.44166666 14:0.45408303 15:0.48955223 16:0.49324703 #
-2 5:0.41707078 6:0.036072146 7:0.048096191 8:0.88996869 9:0.90196556 10:0.93655735 11:0.1621915 13:0.57414448 14:0.58627576 15:0.60483873 16:0.61102962 #
2 1:0.00036223134 2:0.018200202 3:0.027777778 4:0.0031373398 5:0.47624919 6:0.21793863 7:0.098347761 8:0.85057288 9:0.85345858 10:0.69783682 11:0.19442776 13:0.44802868 14:0.50369501 15:0.49409449 16:0.54146659 #
2 1:0 2:0 3:0 4:0.00034002867 5:0.26058355 6:0.36686391 7:0.27810651 8:0.77351314 9:0.77099276 10:0.6331659 11:0.11031532 13:0.4364641 14:0.50538331 15:0.45086706 16:0.51812661 #
-2 5:0.44508687 6:0.17948718 7:0.13675214 8:0.84049237 9:0.86232448 10:0.83654249 11:0.22274977 13:0.57647061 14:0.65352398 15:0.5925926 16:0.66151857 #
-2 5:0.35851169 6:0.083333336 7:0 8:0.79181981 9:0.81908315 10:0.87463939 11:0.14425744 13:0.6179775 14:0.65996635 15:0.64367819 16:0.67979991 #
2 1:0 2:0 3:0 4:0.00016378406 5:0.34656981 6:0.47405902 7:0.41810784 8:0.84000409 9:0.84354907 10:0.57301444 11:0.13759392 13:0.4173913 14:0.50550395 15:0.44968554 16:0.52991319 #
2 1:0.029411765 2:0 3:0.031764038 4:0.0013038067 5:0.71063989 6:0.11697303 7:0.10766292 8:0.70092267 9:0.72915429 10:0.88672864 11:0.37457788 12:0.31746033 13:0.59386975 14:0.56070215 15:0.65798044 16:0.59894657 #
2 1:0 2:0 3:0 4:4.0676863e-05 5:0.34119001 6:0.34044716 7:0.2347561 8:0.88053113 9:0.87949461 10:0.6399883 11:0.099497713 12:0.064935066 13:0.39203355 14:0.46880051 15:0.42247191 16:0.49897927 #
-2 5:0.3592999 6:0.077821009 7:0.046692606 8:0.85302132 9:0.88185042 10:0.81557852 11:0.20724966 13:0.57861638 14:0.57326663 15:0.64516127 16:0.62912995 #
2 1:0.030769231 2:0 3:0.18209876 4:0.0031507201 5:0.58211571 6:0.17382888 7:0.15602013 8:0.75120491 9:0.74238223 10:0.61891377 11:0.30898425 12:0.32786885 13:0.66547406 14:0.65444493 15:0.71157897 16:0.70060277 #
-2 5:0.39553705 6:0.20224719 7:0.056179777 8:0.76682544 9:0.78707594 10:0.62968725 11:0.31378582 13:0.54411763 14:0.58572549 15:0.58208954 16:0.62029916 #
2 1:0.02020202 2:0 3:0.26989618 4:0.0033400615 5:0.61571038 6:0.076617651 7:0.092058823 8:0.70814198 9:0.71623516 10:0.76122081 11:0.29047787 12:0.32786885 13:0.68976897 14:0.66050345 15:0.72739363 16:0.69278926 #
-2 5:0.41353667 6:0.14634146 7:0.069319643 8:0.92589653 9:0.92926878 10:0.82123464 11:0.15501606 13:0.57692307 14:0.58893132 15:0.61237782 16:0.61337763 #
-2 5:0.3732515 6:0.060975611 7:0.012195121 8:0.85525632 9:0.8603794 10:0.83179504 11:0.16547506 13:0.62162161 14:0.63897842 15:0.6703704 16:0.65946931 #
2 1:0.079999998 2:0 3:0.16 4:0.011944445 5:0.5593667 6:0.075060531 7:0.024213076 8:0.76575792 9:0.77392638 10:0.77753323 11:0.36861518 12:0.32258064 13:0.52023119 14:0.50329864 15:0.6100629 16:0.57497197 #
2 1:0 2:0 3:0 4:0.00028462999 5:0.16527364 6:0.10526316 7:0.030701755 8:0.69374508 9:0.69756275 10:0.58930689 11:0.040713653 13:0.45323741 14:0.45714286 15:0.46762589 16:0.47102687 #
-2 5:0.59101802 6:0.17927171 7:0.085434176 8:0.93653613 9:0.93861043 10:0.78790718 11:0.25312677 13:0.58974361 14:0.6132831 15:0.60856271 16:0.62705243 #
-2 1:0.0065068495 2:0.036931816 3:0.083333336 4:0.0041752425 6:0.0234375 12:0.84210527 #
2 1:0 2:0.0007183908 3:0 4:0.00019805902 5:0.1651236 6:0.16372795 7:0.12846348 8:0.74956077 9:0.74669409 10:0.53642988 11:0.0598494 12:0.060606062 13:0.42857143 14:0.44140849 15:0.47342995 16:0.46892101 #
-2 1:0.0071361503 2:0.040624999 3:0.1 4:0.0049494598 6:0.066312999 12:0.83333331 #
-2 1:0.0044871797 2:0.06666667 3:0.5086019 4:0.0011291372 5:0.36532134 6:0.17553191 7:0.10638298 8:0.87225181 9:0.87739807 10:0.66365045 11:0.21075638 12:0.3548387 13:0.55288464 14:0.5736289 15:0.58536583 16:0.59263778 #
-2 5:0.064264566 6:0.46749225 7:0.60526317 8:0.53973114 9:0.54455626 10:0.22613762 11:0 13:0.26086956 14:0.18486495 15:0.27826086 16:0.20256816 #
2 1:2.5306204e-05 2:0 3:0 4:6.0192615e-05 5:0.11134044 6:0.22175732 7:0.33472803 8:0.73127526 9:0.73527396 10:0.54662293 11:0.047218565 12:0.06779661 13:0.46753246 14:0.4209159 15:0.47682118 16:0.42962304 #
-2 1:0.00062637019 2:0.0083333338 3:0.24363637 4:0.0027006173 5:0.34527811 6:0.15183246 7:0.13874346 8:0.87059265 9:0.87257612 10:0.62425917 11:0.14103061 12:0.13492064 13:0.50943398 14:0.53759849 15:0.52912623 16:0.5524106 #
-2 5:0.41651529 6:0.12612613 7:0.021621622 8:0.91387165 9:0.91628152 10:0.76681417 11:0.17421934 13:0.59285712 14:0.60553634 15:0.67424244 16:0.6594221 #
2 1:0.055555556 2:0 3:0.16 4:0.011944445 5:0.42203191 6:0.04255319 7:0.018237082 8:0.61004883 9:0.61306971 10:0.62979233 11:0.21437107 12:0.32258064 13:0.625 14:0.61224002 15:0.708134 16:0.67067266 #
2 1:0 2:0 3:0 4:0 5:0.10883407 6:0.079825833 7:0.16835994 8:0.66725856 9:0.67138195 10:0.34899125 11:0.0030901125 12:0.030303031 13:0.35103244 14:0.3287971 15:0.38601825 16:0.3531909 #
-2 5:0.14388862 6:0.14666666 7:0.039999999 8:0.56999946 9:0.62688643 10:0.68272573 11:0.032530002 13:0.40350878 14:0.4174071 15:0.5 16:0.49559462 #
-2 5:0.76710194 6:0.15330318 7:0.12081963 8:0.97103363 9:0.97124332 10:0.91986668 11:0.45935813 13:0.72226441 14:0.70235652 15:0.77582318 16:0.74909979 #
-2 1:0.013636364 2:0.052631579 3:0.27272728 4:0.0095070424 5:0.15731503 6:0.18487395 7:0.44957983 8:0.79153877 9:0.7910049 10:0.27725655 11:0.018424738 12:0.5 13:0.20422535 14:0.17844211 15:0.24626866 16:0.21248354 #
-2 1:0.0015197569 2:0.027272727 3:0.37412587 4:0.0049636285 5:0.32947868 6:0.072519086 7:0.072519086 8:0.89832944 9:0.90123415 10:0.60346848 11:0.15069121 12:0.18518518 13:0.61971831 14:0.58020437 15:0.64233577 16:0.5981276 #
2 1:0 2:0 3:0 4:7.1523085e-05 5:0.25932813 6:0.16568047 7:0.30473372 8:0.82370806 9:0.83161563 10:0.64336389 11:0.11162911 12:0.052631579 13:0.44808742 14:0.40872556 15:0.49425286 16:0.43368021 #
-2 5:0.13016213 6:0.1969697 7:0.3131313 8:0.78076041 9:0.79132181 10:0.65906256 11:0.018625982 13:0.32718894 14:0.30537549 15:0.35323384 16:0.32599002 #
-2 5:0.2638 6:0.011764706 7:0.011764706 8:0.6742453 9:0.69993967 10:0.71926326 11:0.067573741 13:0.45901638 14:0.46774194 15:0.5 16:0.50421947 #
-2 5:0.22917463 6:0.18055555 7:0.125 8:0.65214062 9:0.64530677 10:0.48320583 11:0.12428864 13:0.37288135 14:0.40505284 15:0.4107143 16:0.43907204 #
2 1:0 2:0 3:0 4:0.00016105005 5:0.1497447 6:0.2878412 7:0.23821341 8:0.7153213 9:0.71947074 10:0.56574273 11:0.04376496 13:0.45054945 14:0.45605084 15:0.48295453 16:0.48023364 #
2 1:0 2:0 3:0 4:0.00013048229 5:0.18873608 6:0.086538464 7:0.22596154 8:0.7014606 9:0.71586746 10:0.56429946 11:0.064418823 13:0.49618322 14:0.45414755 15:0.53435117 16:0.48810422 #
-2 5:0.2974177 6:0.17948718 7:0.12820514 8:0.6749171 9:0.69742429 10:0.6387009 11:0.19313571 13:0.51764709 14:0.5694657 15:0.597561 16:0.62903279 #
-2 5:0.10872135 6:0.16494845 7:0.082474224 8:0.56891233 9:0.58431309 10:0.40759599 11:0.012508798 13:0.42105263 14:0.4494895 15:0.46666667 16:0.48653364 #
-2 5:0.23954368 6:0.090909094 7:0.037878789 8:0.59808105 9:0.58284295 10:0.25368601 11:0.10527092 13:0.50617284 14:0.52329117 15:0.62666667 16:0.59214437 #
-2 5:0.17627662 6:0.19117647 7:0.044117648 8:0.59361351 9:0.67249268 10:0.53823167 11:0.072098412 13:0.46000001 14:0.47527081 15:0.52083331 16:0.52083331 #
2 1:0 2:0 3:0 4:0 5:0.14444473 6:0.085536547 7:0.040435459 8:0.646851 9:0.65225399 10:0.45411789 11:0.026579039 13:0.35737705 14:0.35787314 15:0.39041096 16:0.38325879 #
2 1:0.0011361289 2:0.048951048 3:0.088888891 4:0.0053951591 5:0.40968701 6:0.016029593 7:0.21208385 8:0.8113085 9:0.81233764 10:0.81585145 11:0.14617704 13:0.54353565 14:0.53080332 15:0.60806918 16:0.57356864 #
-2 5:0.34034851 6:0.21100917 7:0.1559633 8:0.75531834 9:0.78343469 10:0.70653749 11:0.22703831 13:0.53846157 14:0.56438154 15:0.58666664 16:0.60725766 #
-2 5:0.22566773 6:0.11428571 7:0.13333334 8:0.65227586 9:0.7078774 10:0.66137296 11:0.098028615 13:0.45333335 14:0.45638612 15:0.49315068 16:0.49656352 #
-2 5:0.29603082 6:0.12598425 7:0.062992126 8:0.70781469 9:0.72267467 10:0.59339583 11:0.15254785 13:0.44318181 14:0.4990361 15:0.45882353 16:0.49510089 #
2 1:0 2:0 3:0 4:0.00015067503 5:0.22772591 6:0.17460318 7:0.079365082 8:0.71337408 9:0.72337294 10:0.66018736 11:0.086518094 13:0.41242939 14:0.45747045 15:0.4619883 16:0.50697303 #
-2 5:0.34327191 6:0.18292683 7:0.14634146 8:0.70561719 9:0.7090342 10:0.49974898 11:0.15321286 13:0.47761193 14:0.5396077 15:0.5 16:0.56330073 #
2 1:0 2:0 3:0 4:0.00021475118 5:0.2320544 6:0.36056644 7:0.29084969 8:0.77413452 9:0.77601343 10:0.61552495 11:0.082179211 13:0.40170941 14:0.46662647 15:0.42433235 16:0.48309708 #
-2 5:0.21183904 6:0.13095239 7:0.095238097 8:0.68992871 9:0.70080274 10:0.51250201 11:0.14406769 13:0.45762712 14:0.45542005 15:0.51785713 16:0.49216208 #
-2 1:0.006828852 2:0.03409091 3:0.05882353 4:0.0059718308 6:0.016000001 12:0.83333331 #
2 1:0 2:0 3:0 4:0.00027210885 5:0.26030648 6:0.029947916 7:0.098958336 8:0.7367112 9:0.74235654 10:0.62359685 11:0.071895361 13:0.40634006 14:0.40734354 15:0.45045045 16:0.44448397 #
-2 5:0.29969418 6:0.17589577 7:0.10749186 8:0.79310668 9:0.76810598 10:0.36249283 11:0.1044052 13:0.52095807 14:0.54400778 15:0.60135138 16:0.59338605 #
2 1:0 2:0 3:0 4:0.00013347789 5:0.27374864 6:0.38753387 7:0.29268292 8:0.71992528 9:0.72503442 10:0.57408774 11:0.092309251 13:0.42331287 14:0.47229618 15:0.4556962 16:0.4876008 #
2 1:0 2:0 3:0 4:1.4250698e-05 5:0.25992006 6:0.37696335 7:0.32460734 8:0.74935389 9:0.74702775 10:0.59947997 11:0.061157662 12:0.057142857 13:0.40437159 14:0.45744422 15:0.43181819 16:0.48074314 #
-2 5:0.65306926 6:0.06888441 7:0.10483871 8:0.93863386 9:0.94633925 10:0.72111815 11:0.52770621 13:0.33333334 14:0.3220306 15:0.35772356 16:0.34662867 #
2 1:0 2:0 3:0.1875 4:0.015190972 5:0.50677907 6:0.16245487 7:0.13718411 8:0.70409614 9:0.70156592 10:0.74657756 11:0.34531507 12:0.33333334 13:0.61538464 14:0.63811183 15:0.66393441 16:0.67225128 #
-2 1:0.0061776061 2:0.018099548 3:0.070588239 4:0.0058346521 6:0.036674816 12:0.84615386 #
2 1:0 2:0 3:0 4:0.00023510051 5:0.066460148 6:0.1281337 7:0.083565459 8:0.67057472 9:0.68458253 10:0.2484825 11:0.0094871176 12:0.03305785 13:0.38797814 14:0.37353733 15:0.42613637 16:0.39388672 #
-2 5:0.32995933 6:0.18263473 7:0.32934132 8:0.87131786 9:0.87979829 10:0.79449868 11:0.10596764 13:0.5151515 14:0.43916637 15:0.53797466 16:0.4508158 #
2 1:5.214852e-05 2:0 3:0 4:0 5:0.16530873 6:0.1519337 7:0.046961326 8:0.7927084 9:0.79018152 10:0.48935971 11:0.021646218 12:0.037037037 13:0.31578946 14:0.33251053 15:0.3480663 16:0.35297579 #
-2 1:0.0062770564 2:0.024242423 3:0.070588239 4:0.0058346521 6:0.0045248871 12:0.83333331 #
0.23588565999767752145999111235142 1:0 2:0 3:0 4:0 5:0.15060769 6:0.40842491 7:0.36630037 8:0.70018381 9:0.70343864 10:0.55937594 11:0.051803626 13:0.36466166 14:0.42198282 15:0.38306451 16:0.43422928 #
2 1:0.052380953 2:0 3:0.14583333 4:0.0047743055 5:0.64382702 6:0.21560846 7:0.13624339 8:0.82176387 9:0.82826692 10:0.90249372 11:0.43521553 12:0.33898306 13:0.61386138 14:0.61167932 15:0.65263158 16:0.65092087 #
2 1:0 2:0 3:0 4:0.00013075313 5:0.075889923 6:0.11976048 7:0.2754491 8:0.50160605 9:0.5062269 10:0.29252794 11:0.0058811321 13:0.33333334 14:0.30656767 15:0.35789475 16:0.31843919 #
-2 5:0.26440731 6:0.050000001 7:0.0625 8:0.76982421 9:0.7886337 10:0.82902038 11:0.13801311 13:0.49180329 14:0.51695395 15:0.53448278 16:0.53915083 #
-2 1:0.0073653199 2:0.040485829 3:0.077272728 4:0.004980843 6:0.10962567 12:0.83333331 #
2 1:0.056122448 2:0 3:0.096938774 4:0.0040745465 5:0.68442297 6:0.17480136 7:0.098751418 8:0.82778203 9:0.83670807 10:0.93085676 11:0.37116221 12:0.33898306 13:0.62295079 14:0.60504562 15:0.67464113 16:0.63758492 #
-2 5:0.33717564 6:0.21582733 7:0.10071942 8:0.83301163 9:0.85325521 10:0.79931134 11:0.14313698 13:0.52127659 14:0.53775877 15:0.52747256 16:0.53638816 #
2 1:0 2:0 3:0 4:6.5009364e-05 5:0.04215258 6:0.072916664 7:0.015625 8:0.62274003 9:0.61948997 10:0.22827077 11:0.0061360085 12:0.05479452 13:0.33333334 14:0.32826608 15:0.34862384 16:0.32818431 #
-2 5:0.32763326 6:0.11538462 7:0.069230773 8:0.72985208 9:0.77283949 10:0.77133924 11:0.12796198 13:0.52222222 14:0.54457891 15:0.54651165 16:0.55968249 #
2 1:0.057142857 2:0 3:0.13333334 4:0.0099537037 5:0.36825532 6:0.25082508 7:0.24422443 8:0.61204219 9:0.62065768 10:0.61275905 11:0.23879234 12:0.33333334 13:0.51219511 14:0.54660815 15:0.52136755 16:0.55567169 #
2 1:0.015086207 2:0 3:0.10544217 4:0.0026455026 5:0.63164657 6:0.11729186 7:0.11033852 8:0.72742969 9:0.73882663 10:0.81586379 11:0.29948506 12:0.32786885 13:0.56373936 14:0.56941426 15:0.60532153 16:0.60565734 #
2 1:0.055555556 2:0 3:0.1875 4:0.015190972 5:0.27436513 6:0.087048829 7:0.027600849 8:0.56072378 9:0.55504006 10:0.73586655 11:0.1617597 12:0.32258064 13:0.64772725 14:0.61585444 15:0.70552146 16:0.66952187 #
2 1:0 2:0 3:0 4:0.00015507606 5:0.15529589 6:0.0054644807 7:0.10382514 8:0.72334522 9:0.72307318 10:0.56965131 11:0.054161862 13:0.41322315 14:0.39887595 15:0.41176471 16:0.39245236 #
-2 1:0.00053623412 2:0.0083333338 3:0.24764891 4:0.0023521506 5:0.41973236 6:0.0046189376 7:0.043879908 8:0.90276486 9:0.90711039 10:0.69066119 11:0.23788093 12:0.12878788 13:0.59336102 14:0.62243468 15:0.64502162 16:0.65502256 #
2 1:0.047619049 2:0 3:0.088541664 4:0.0035807292 5:0.62079817 6:0.36666667 7:0.33240741 8:0.84189218 9:0.8426103 10:0.92555892 11:0.35380325 12:0.33898306 13:0.58631921 14:0.61764508 15:0.63503647 16:0.65956426 #
-2 5:0.55693251 6:0.19152047 7:0.10526316 8:0.94565785 9:0.94899595 10:0.74675292 11:0.23726331 13:0.61976045 14:0.64366668 15:0.64536738 16:0.66030353 #
2 1:0 2:0 3:0 4:0.00012688745 5:0.14031203 6:0.0084745763 7:0.14406779 8:0.74830729 9:0.75596005 10:0.48020977 11:0.038589772 12:0.051282052 13:0.38942307 14:0.3760317 15:0.41176471 16:0.39207843 #
2 1:0 2:0 3:0 4:0.00013620192 5:0.10117789 6:0.33179724 7:0.27649769 8:0.66686392 9:0.67133516 10:0.41065684 11:0.018382436 13:0.37593985 14:0.40558022 15:0.39694658 16:0.42551538 #
2 5:0.21141554 6:0.14655173 7:0.0057471264 8:0.80043674 9:0.79674101 10:0.60010433 11:0.087799005 12:0.05479452 13:0.36000001 14:0.40856317 15:0.40314135 16:0.43639547 #
-2 5:0.17201562 6:0.2173913 7:0.16304348 8:0.67115605 9:0.67403334 10:0.53386003 11:0.067871913 13:0.59722221 14:0.62855822 15:0.6111111 16:0.65330523 #
-2 1:0.0023113906 2:0.090909094 3:0.030303031 4:0.0042603551 5:0.24737245 6:0.58759123 7:0.90145987 8:0.78880638 9:0.7886104 10:0.68160236 11:0.08864513 12:0.83333331 13:0.5 14:0.38071558 15:0.53284669 16:0.39524183 #
-2 5:0.33007851 6:0.10854504 7:0.027713627 8:0.8203184 9:0.82930076 10:0.53406268 11:0.1701154 13:0.48971194 14:0.50436199 15:0.53043479 16:0.53749186 #
2 1:0 2:0 3:0.22222222 4:0.020833334 5:0.55598307 6:0.34146342 7:0.28658536 8:0.74170792 9:0.76588452 10:0.85447866 11:0.37900457 12:0.33898306 13:0.62790698 14:0.67690647 15:0.67500001 16:0.72160536 #
-2 5:0.25128534 6:0.29591838 7:0.19387755 8:0.72591841 9:0.76551402 10:0.5921694 11:0.14491257 13:0.49315068 14:0.54189557 15:0.56164384 16:0.60457772 #
2 1:0 2:0 3:0.1875 4:0.015190972 5:0.4622429 6:0.10465116 7:0.019379845 8:0.70320582 9:0.71097583 10:0.75773823 11:0.22578655 12:0.33333334 13:0.616 14:0.60253668 15:0.67768598 16:0.65889496 #
-2 5:0.3422111 6:0.1375 7:0.15000001 8:0.6047079 9:0.64068162 10:0.68319547 11:0.23276575 13:0.48387095 14:0.51847583 15:0.50877196 16:0.53786772 #
-2 5:0.53301203 6:0.1125 7:0.075000003 8:0.9312185 9:0.93160886 10:0.77921623 11:0.22396094 13:0.64848483 14:0.68996602 15:0.68354428 16:0.70625961 #
2 1:0 2:0 3:0 4:0 5:0.032513097 6:0.18895966 7:0.038216561 8:0.36135918 9:0.35468063 10:0.031027222 11:0 13:0.19318181 14:0.16577676 15:0.20858896 16:0.17636715 #
-2 1:0.0066075465 2:0.03050109 3:0.074074075 4:0.00390625 6:0.13172042 12:0.84210527 #
2 1:0.040816326 2:0 3:0.16 4:0.011944445 5:0.53996807 6:0.115625 7:0.15000001 8:0.80881107 9:0.81603467 10:0.91596103 11:0.22724925 12:0.32786885 13:0.64583331 14:0.68203741 15:0.69924814 16:0.72127706 #
-2 5:0.48018163 6:0.11058075 7:0.035003979 8:0.92510819 9:0.92759478 10:0.79418892 11:0.16600125 13:0.61297542 14:0.60177362 15:0.65601963 16:0.62809098 #
-2 5:0.34385315 6:0.093055554 7:0.037500001 8:0.90535414 9:0.90787476 10:0.7480135 11:0.12190194 13:0.51940298 14:0.54159093 15:0.58585858 16:0.59806526 #
-2 5:0.19239444 6:0.13636364 7:0.125 8:0.63245553 9:0.68316489 10:0.6823436 11:0.082918502 13:0.49230769 14:0.51176631 15:0.60317463 16:0.61298299 #
2 1:0 2:0 3:0 4:0 5:0.13974077 6:0.12087912 7:0 8:0.65614098 9:0.66222191 10:0.4644371 11:0.036150482 13:0.44339624 14:0.4167144 15:0.45192307 16:0.42071748 #
2 1:0.048442908 2:0 3:0.19444445 4:0.0098379627 5:0.6753903 6:0.084185205 7:0.11966326 8:0.78287262 9:0.79505634 10:0.95840514 11:0.3644515 12:0.32786885 13:0.64285713 14:0.66509265 15:0.70814478 16:0.72473121 #
-2 5:0.33105704 6:0.1262136 7:0.038834952 8:0.90762156 9:0.90618771 10:0.57781273 11:0.1352274 13:0.52715653 14:0.53441709 15:0.58781362 16:0.57755429 #
-2 5:0.091044627 6:0.12727273 7:0.12727273 8:0.5440135 9:0.58896816 10:0.66974312 11:0.020646004 13:0.52083331 14:0.50545025 15:0.61363637 16:0.55911285 #
2 1:0 2:0 3:0 4:0.00017738884 5:0.10225521 6:0.12957746 7:0.0028169013 8:0.75587833 9:0.7594288 10:0.34713164 11:0.013017236 12:0.051282052 13:0.2838428 14:0.31180853 15:0.31506848 16:0.33475429 #
2 1:0.079999998 2:0 3:0.19444445 4:0.0098379627 5:0.44633284 6:0.14806378 7:0.17084283 8:0.60667551 9:0.61915201 10:0.96857446 11:0.25376138 12:0.32258064 13:0.6785714 14:0.69934988 15:0.71140939 16:0.73131281 #
-2 5:0.3202318 6:0.08374384 7:0.049261082 8:0.8635928 9:0.85677361 10:0.37094116 11:0.14438236 13:0.55924171 14:0.56482089 15:0.63546801 16:0.63236052 #
2 1:0.04296875 2:0 3:0.1736111 4:0.0047743055 5:0.46411964 6:0.16348357 7:0.13750955 8:0.74604267 9:0.74710041 10:0.75923312 11:0.29798847 12:0.33333334 13:0.60629922 14:0.57508773 15:0.63636363 16:0.59526366 #
2 1:0 2:0 3:0 4:0.00014392631 5:0.19384591 6:0.079710148 7:0.014492754 8:0.70954263 9:0.70761544 10:0.45892158 11:0.063939668 13:0.39766082 14:0.41501236 15:0.41818181 16:0.43007562 #
-2 5:0.47522563 6:0.11787819 7:0.029469548 8:0.92612636 9:0.93143046 10:0.79941201 11:0.23421943 13:0.67647058 14:0.67216605 15:0.7098214 16:0.6915397 #
2 1:0 2:0 3:0 4:0.00024188051 5:0.21272135 6:0.16011237 7:0.0084269661 8:0.65685719 9:0.66530806 10:0.50972331 11:0.058480531 13:0.41717792 14:0.40618119 15:0.44155845 16:0.42276001 #
2 1:0 2:0 3:0 4:0.00012880159 5:0.058236353 6:0.19067797 7:0.06779661 8:0.60325229 9:0.61888802 10:0.31111249 11:0.0098667126 13:0.38059703 14:0.37795523 15:0.42424244 16:0.40338954 #
-2 5:0.40445158 6:0.068041235 7:0.0041237115 8:0.90328562 9:0.90955925 10:0.78440398 11:0.13367251 13:0.57939917 14:0.56160372 15:0.62616825 16:0.59753585 #
2 1:0 2:0 3:0 4:0.00012980271 5:0.13428317 6:0.43023255 7:0.34302327 8:0.63294882 9:0.63890344 10:0.50765896 11:0.033875201 13:0.39130434 14:0.45060006 15:0.42372882 16:0.4747501 #
-2 5:0.39274725 6:0.089728452 7:0.0094451001 8:0.89302516 9:0.89562744 10:0.71892238 11:0.12644854 13:0.55586594 14:0.56604594 15:0.62275451 16:0.60662287 #
-2 5:0.18232322 6:0.19642857 7:0.071428575 8:0.57835174 9:0.64968616 10:0.73514169 11:0.052185357 13:0.52564102 14:0.54787076 15:0.55844158 16:0.56583846 #
2 1:0 2:0 3:0 4:3.6161135e-05 5:0.18968102 6:0.28897339 7:0.24714829 8:0.7478047 9:0.7452684 10:0.39242592 11:0.056003761 12:0.067567565 13:0.40000001 14:0.4669925 15:0.41104296 16:0.4790605 #
-2 1:0.0067500495 2:0.04524887 3:0.077272728 4:0.004980843 6:0.12720849 12:0.84210527 #
-2 5:0.41997832 6:0.19645494 7:0.10635155 8:0.94020778 9:0.94307411 10:0.74218512 11:0.19409299 13:0.5615142 14:0.58648682 15:0.6082474 16:0.62008005 #
-2 5:0.32297859 6:0.092024542 7:0.024539877 8:0.77039719 9:0.79145223 10:0.40790093 11:0.14543411 13:0.52884614 14:0.55518281 15:0.56701028 16:0.57598728 #
-2 5:0.41047943 6:0.1295972 7:0.012259195 8:0.87817454 9:0.87733614 10:0.64681566 11:0.1456238 13:0.56837606 14:0.56390542 15:0.5925926 16:0.57678729 #
2 1:0 2:0 3:0 4:0.00014204545 5:0.19501621 6:0.036809817 7:0.1411043 8:0.64081466 9:0.64558315 10:0.48197761 11:0.038892224 13:0.4649123 14:0.45777509 15:0.48672566 16:0.47429657 #
-2 1:0.0073313783 2:0.038961038 3:0.071428575 4:0.0071050641 6:0.049180329 12:0.84210527 #
-2 5:0.41755015 6:0.042459738 7:0.14055637 8:0.91305166 9:0.91515815 10:0.74213248 11:0.20395289 13:0.59444445 14:0.55841845 15:0.63905323 16:0.59416497 #
-2 5:0.25385812 6:0.30693069 7:0.18811882 8:0.66431707 9:0.6882602 10:0.60532784 11:0.19830309 13:0.48648649 14:0.53404897 15:0.54166669 16:0.57906604 #
2 1:0 2:0 3:0 4:0.00029980167 5:0.23713562 6:0.53250003 7:0.51499999 8:0.72583812 9:0.73896539 10:0.74682182 11:0.088606745 13:0.39877301 14:0.51519412 15:0.44078946 16:0.54895908 #
2 1:0 2:0 3:0 4:0 5:0.16754845 6:0.10769231 7:0.010256411 8:0.57637805 9:0.5773145 10:0.24296652 11:0.0766965 13:0.34558824 14:0.35426524 15:0.36296296 16:0.36987716 #
2 1:0 2:0 3:0 4:0.00017021093 5:0.18651772 6:0.15920398 7:0.0099502485 8:0.71841335 9:0.72323084 10:0.47977087 11:0.053348701 13:0.3898305 14:0.39662799 15:0.41379312 16:0.41379312 #
2 1:0.079999998 2:0 3:0.1875 4:0.015190972 5:0.47708705 6:0.098666668 7:0.010666667 8:0.61260831 9:0.63448095 10:0.85047781 11:0.28492385 12:0.32258064 13:0.61235952 14:0.59904581 15:0.64848483 16:0.63515186 #
2 1:0 2:0 3:0 4:6.8641675e-05 5:0.20216347 6:0.11520737 7:0.032258064 8:0.68827838 9:0.68933564 10:0.48810959 11:0.04803475 13:0.41538462 14:0.40903163 15:0.42519686 16:0.40642881 #
2 1:0 2:0 3:0 4:0.00078492938 5:0.12145371 6:0.04945055 7:0.15384616 8:0.6010446 9:0.5996114 10:0.30474609 11:0.017966971 12:0.071428575 13:0.31451613 14:0.31139958 15:0.32499999 16:0.3122499 #
-2 5:0.27809435 6:0.036437247 7:0.07692308 8:0.86378407 9:0.87483633 10:0.47060704 11:0.091821402 13:0.57763976 14:0.56829613 15:0.60927153 16:0.57935011 #
2 5:0.15540357 6:0 7:0.25806451 8:0.72623307 9:0.72779715 10:0.43068376 11:0.018408762 12:0.075471699 13:0.39849624 14:0.38082024 15:0.42307693 16:0.3912634 #
2 1:4.4931705e-05 2:0 3:0 4:0 5:0.10558404 6:0.1693989 7:0.079234973 8:0.70628291 9:0.70808178 10:0.31239471 11:0.024838733 12:0.037500001 13:0.36686391 14:0.33808181 15:0.38036808 16:0.34865591 #
2 1:0 2:0 3:0 4:7.6535871e-05 5:0.14242123 6:0.19929454 7:0.11463845 8:0.74807131 9:0.75013113 10:0.31388578 11:0.051027346 12:0.042105265 13:0.34931508 14:0.37220716 15:0.38709676 16:0.39569998 #
-2 5:0.35151753 6:0.13506493 7:0.079220779 8:0.91771466 9:0.92083818 10:0.78945178 11:0.13194165 13:0.53932583 14:0.57250029 15:0.59021407 16:0.6141578 #
2 1:0.079999998 2:0 3:0.1388889 4:0.0098379627 5:0.35801375 6:0.14741036 7:0.095617533 8:0.63650721 9:0.65706891 10:0.75620812 11:0.16326874 12:0.33333334 13:0.5462963 14:0.56226569 15:0.58653843 16:0.5922609 #
-2 5:0.27914527 6:0.14492753 7:0.028985508 8:0.68700892 9:0.70003498 10:0.47879633 11:0.16675934 13:0.52542371 14:0.52102679 15:0.55172414 16:0.54245079 #
-2 5:0.1815947 6:0.14070351 7:0.035175879 8:0.72813302 9:0.73467332 10:0.62513322 11:0.081795201 13:0.50806451 14:0.50399953 15:0.57627118 16:0.55990314 #
2 1:0.0625 2:0 3:0.234375 4:0.0072699655 5:0.72654051 6:0.25513196 7:0.26246333 8:0.84272969 9:0.85033834 10:0.94307113 11:0.43941924 12:0.33898306 13:0.69230771 14:0.71951002 15:0.74374998 16:0.75565076 #
-2 5:0.51261801 6:0.15689981 7:0.069943286 8:0.92565644 9:0.92698318 10:0.72721124 11:0.25261223 13:0.59925091 14:0.62881422 15:0.63562751 16:0.65869939 #
2 1:0 2:0 3:0 4:0.00015905626 5:0.12199255 6:0.011428571 7:0.16571428 8:0.64123309 9:0.65494382 10:0.5068624 11:0.048024017 13:0.39024389 14:0.40337759 15:0.41666666 16:0.42197475 #
2 1:0 2:0 3:0 4:8.6550113e-05 5:0.18348686 6:0.17021276 7:0.084042557 8:0.79613757 9:0.79648143 10:0.46552143 11:0.029431043 13:0.38676846 14:0.39025015 15:0.42587602 16:0.41273528 #
-2 5:0.23897606 6:0.15555556 7:0.055555556 8:0.72811693 9:0.73296314 10:0.63928741 11:0.19332886 13:0.515625 14:0.51970112 15:0.53333336 16:0.52466065 #
2 1:0.079999998 2:0 3:0.1875 4:0.015190972 5:0.38525781 6:0 7:0.028901733 8:0.55951583 9:0.57597178 10:0.79924673 11:0.20277876 12:0.32258064 13:0.61386138 14:0.59207809 15:0.7157895 16:0.6744585 #
-2 5:0.33944395 6:0.10763889 7:0.069444448 8:0.83294064 9:0.84307331 10:0.78956127 11:0.14113006 13:0.55421686 14:0.58695245 15:0.58823532 16:0.61938012 #
-2 5:0.35380307 6:0.066265061 7:0.018072288 8:0.76367933 9:0.76830322 10:0.47464103 11:0.19050814 13:0.54285717 14:0.54976922 15:0.57843137 16:0.58418703 #
2 1:0 2:0 3:0 4:0.00013662844 5:0.22736415 6:0.37254903 7:0.32107842 8:0.66109556 9:0.67239219 10:0.53380698 11:0.070866421 13:0.41573033 14:0.45971173 15:0.45086706 16:0.48582339 #
-2 5:0.23742458 6:0.13114753 7:0.032786883 8:0.64671111 9:0.66035551 10:0.5294075 11:0.078446455 13:0.56 14:0.59029186 15:0.5714286 16:0.59628481 #
-2 5:0.27120143 6:0.080808081 7:0.02020202 8:0.69448245 9:0.75218046 10:0.72777766 11:0.10591167 13:0.5714286 14:0.5656383 15:0.55882353 16:0.54688996 #
-2 1:0.0066889632 2:0.018181818 3:0.06666667 4:0.0066060079 6:0.1319149 12:0.85365856 #
-2 1:0.0035937501 2:0.11111111 3:0.039999999 4:0.0058673471 5:0.27706039 6:0.7369439 7:0.70986462 8:0.84131545 9:0.85295779 10:0.53055221 11:0.063358121 12:0.85000002 13:0.2375 14:0.35569099 15:0.27173913 16:0.38962749 #
2 1:0 2:0 3:0 4:0.00013061793 5:0.21879056 6:0.28455284 7:0.18157181 8:0.72092187 9:0.72226423 10:0.39281997 11:0.026336031 13:0.36453202 14:0.40240377 15:0.40721649 16:0.43247598 #
-2 1:0.0059559261 2:0.011904762 3:0.0625 4:0.0061721937 6:0.01843318 12:0.85365856 #
-2 5:0.45811665 6:0.071884982 7:0.044728436 8:0.92320651 9:0.92380619 10:0.80639881 11:0.20135176 13:0.60815048 14:0.60584068 15:0.67808217 16:0.65389639 #
2 1:0 2:0 5:0.095971487 6:0.17791411 7:0.10429448 8:0.6514923 9:0.6560427 10:0.27414316 11:0.023273302 12:0.043010753 13:0.31132075 14:0.32076898 15:0.33663365 16:0.33174285 #
-2 1:0.0062770564 2:0.026041666 3:0.06666667 4:0.0055321143 6:0.048951048 12:0.84615386 #
-2 5:0.32111016 6:0.23913044 7:0.20652173 8:0.83628678 9:0.85838509 10:0.70984805 11:0.13614582 13:0.56060606 14:0.62598634 15:0.60317463 16:0.66391373 #
2 1:0 2:0 3:0 4:4.2241325e-05 5:0.17508781 6:0.11879433 7:0.024822695 8:0.80454403 9:0.8040489 10:0.64819068 11:0.018927958 12:0.084745765 13:0.35438597 14:0.36754853 15:0.40959409 16:0.41265082 #
2 1:0.053333335 2:0 3:0.15000001 4:0.0057638888 5:0.70755541 6:0.17653167 7:0.17808931 8:0.78123534 9:0.80842429 10:0.96838975 11:0.32728717 12:0.31746033 13:0.64389235 14:0.64245701 15:0.7157107 16:0.69685036 #
-2 5:0.3490535 6:0.03586207 7:0.04551724 8:0.86518377 9:0.8651219 10:0.71732438 11:0.13023005 13:0.56273764 14:0.56013334 15:0.63135594 16:0.60619211 #
2 1:0.079999998 2:0 3:0.1875 4:0.015190972 5:0.30676788 6:0.032258064 7:0.02764977 8:0.57502455 9:0.59054798 10:0.74457711 11:0.14684059 12:0.32258064 13:0.56842107 14:0.56545275 15:0.58426964 16:0.58426964 #
-2 5:0.38449705 6:0.063424945 7:0.023255814 8:0.88838935 9:0.90301257 10:0.79197353 11:0.18872775 13:0.56621003 14:0.57718265 15:0.60952383 16:0.60239464 #
2 1:0 2:0.00075757573 3:0 4:1.3313097e-05 5:0.1944391 6:0.092409238 7:0.0099009899 8:0.8270402 9:0.83259672 10:0.53647065 11:0.048061203 12:0.057971016 13:0.35632184 14:0.36116126 15:0.39024389 16:0.37670529 #
-2 5:0.41538829 6:0.14017095 7:0.07692308 8:0.91604006 9:0.92005914 10:0.80195212 11:0.18786614 13:0.58633095 14:0.61913031 15:0.61153847 16:0.64052528 #
-2 5:0.3642464 6:0.079908676 7:0.0045662099 8:0.90426028 9:0.91164559 10:0.79443455 11:0.20163913 13:0.53639847 14:0.56785089 15:0.60569108 16:0.61194193 #
-2 5:0.38122186 6:0.21621622 7:0.12612613 8:0.83434552 9:0.84395093 10:0.72887385 11:0.17634669 13:0.57894737 14:0.62126076 15:0.56944442 16:0.60876173 #
2 1:0 5:0.29762983 6:0.13752277 7:0.024590164 8:0.85518819 9:0.85548735 10:0.67308962 11:0.048634548 12:0.08510638 13:0.38235295 14:0.36515597 15:0.44204852 16:0.41349852 #
2 1:0.079999998 2:0 3:0.1875 4:0.015190972 5:0.67908949 6:0.12998267 7:0.10225303 8:0.67024171 9:0.67332512 10:0.79533559 11:0.55900753 12:0.32258064 13:0.56185567 14:0.58071959 15:0.58563536 16:0.60251594 #
2 1:0 2:0 3:0 4:0 5:0.24330281 6:0.30441898 7:0.22422259 8:0.81913435 9:0.81999862 10:0.83153981 11:0.070316613 12:0.039999999 13:0.40063092 14:0.44515345 15:0.44186047 16:0.48387316 #
-2 5:0.41581395 6:0.1434263 7:0.053784862 8:0.8813197 9:0.89024734 10:0.85351366 11:0.17074414 13:0.60311282 14:0.61927199 15:0.64876032 16:0.64876032 #
-2 5:0.46858349 6:0.13107823 7:0.0063424949 8:0.90227562 9:0.90762174 10:0.82707483 11:0.20408762 13:0.59523809 14:0.60501075 15:0.64529914 16:0.6268205 #
2 1:0.056122448 2:0 3:0.18181819 4:0.0052226814 5:0.49458304 6:0.12279226 7:0.069806561 8:0.72767574 9:0.75353169 10:0.69180292 11:0.23444684 12:0.31746033 13:0.54985756 14:0.5381701 15:0.62962961 16:0.59108293 #
-2 5:0.50641048 6:0.13829787 7:0.060790274 8:0.93729848 9:0.9425593 10:0.84090495 11:0.24959335 13:0.62135923 14:0.63670862 15:0.65423727 16:0.66329288 #
2 1:0 2:0 3:0 4:7.498177e-05 5:0.18128704 6:0.16483517 7:0.091575094 8:0.6706813 9:0.67092627 10:0.36644077 11:0.029793978 13:0.37341774 14:0.37384811 15:0.39473686 16:0.38840038 #
-2 5:0.38831818 6:0.07692308 7:0.0059171598 8:0.88172084 9:0.88348132 10:0.83994728 11:0.17496419 13:0.63333333 14:0.58392388 15:0.67123288 16:0.61309904 #
2 1:0 2:0 5:0.17811449 6:0.40774488 7:0.3644647 8:0.72230667 9:0.72964829 10:0.63674814 11:0.05519335 12:0.068965517 13:0.38425925 14:0.44724315 15:0.38785046 16:0.44170186 #
-2 5:0.45032841 6:0.12865497 7:0.011695907 8:0.90654886 9:0.92000622 10:0.75603241 11:0.16703951 13:0.59398496 14:0.61352146 15:0.61507934 16:0.62895983 #
-2 1:0.0061274511 2:0.015625 3:0.06666667 4:0.0065789474 6:0.10927153 12:0.85365856 #
-2 5:0.33807045 6:0.15831135 7:0.10026385 8:0.85474277 9:0.85987163 10:0.67446071 11:0.15368256 13:0.56603771 14:0.5762493 15:0.64321607 16:0.64647287 #
2 1:0 2:0 3:0 4:4.8225309e-05 5:0.16059312 6:0.34057972 7:0.29710144 8:0.63811988 9:0.64271617 10:0.39683759 11:0.033592176 13:0.37142858 14:0.41233495 15:0.40350878 16:0.44917077 #
2 1:8.3718442e-06 2:0 3:0 4:0.00013784664 5:0.082484089 6:0.087628864 7:0.010309278 8:0.599994 9:0.60307127 10:0.41032344 11:0 12:0.093023255 13:0.23684211 14:0.24478021 15:0.28440368 16:0.27568901 #
-2 5:0.47570664 6:0.16313213 7:0.039151713 8:0.90267175 9:0.90275121 10:0.80048126 11:0.20817195 13:0.59692305 14:0.61581749 15:0.64401293 16:0.65251511 #
2 1:0.013333334 2:0.012987013 3:0.1875 4:0.015190972 5:0.59799826 6:0.26520813 7:0.23052295 8:0.67601752 9:0.68495953 10:0.72521681 11:0.38501459 12:0.32258064 13:0.5071283 14:0.5217604 15:0.57244658 16:0.57041782 #
-2 5:0.26236418 6:0.072463766 7:0.0072463769 8:0.76703501 9:0.80682641 10:0.67180914 11:0.096392542 13:0.58227849 14:0.55700344 15:0.63513511 16:0.58915937 #
2 5:0.11152 6:0.10723192 7:0.047381546 8:0.72962838 9:0.73670143 10:0.78522313 11:0.0058313003 13:0.36574075 14:0.38252503 15:0.41747573 16:0.4215889 #
-2 5:0.34694892 6:0.13861386 7:0.082508251 8:0.87417144 9:0.88088882 10:0.76658732 11:0.16972977 13:0.59442723 14:0.60632402 15:0.62913907 16:0.63655967 #
-2 5:0.32865298 6:0.022727273 7:0.054545455 8:0.84217966 9:0.85487109 10:0.62410504 11:0.18681601 13:0.5714286 14:0.5744254 15:0.6397059 16:0.61953491 #
-2 5:0.27595186 6:0.16826923 7:0.1201923 8:0.76858562 9:0.78632265 10:0.65730834 11:0.11785522 13:0.5703125 14:0.5890162 15:0.59166664 16:0.60971731 #
2 1:0 2:0 3:0 4:0 5:0.24723572 6:0.21789321 7:0.15584415 8:0.81386048 9:0.8149094 10:0.41602203 11:0.063341282 12:0.083333336 13:0.36217949 14:0.36305916 15:0.39333335 16:0.39009598 #
-2 5:0.45227036 6:0.14049587 7:0.052341599 8:0.9345417 9:0.93526 10:0.83398223 11:0.23421602 13:0.62068963 14:0.64856911 15:0.63492066 16:0.65241486 #
2 1:9.749725e-06 2:0 3:0 4:0.00018662287 5:0.098459423 6:0.2345679 7:0.16666667 8:0.74006855 9:0.73793066 10:0.35749897 11:0.018411493 12:0.047619049 13:0.32380953 14:0.3644647 15:0.34313726 16:0.37154236 #
-2 1:0.0028395061 2:0.11111111 3:0.039999999 4:0.005676487 5:0.1176741 6:0.63089007 7:0.61780107 8:0.76456708 9:0.76877046 10:0.4609597 11:0.0046446361 12:0.83783782 13:0.25125629 14:0.35882965 15:0.27659574 16:0.37188423 #
2 1:0.074074075 2:0 3:0.203125 4:0.0072699655 5:0.53849685 6:0.11353032 7:0.059097979 8:0.76015842 9:0.763017 10:0.79916233 11:0.23170488 12:0.33333334 13:0.60869563 14:0.58879209 15:0.67261904 16:0.64446342 #
-2 5:0.21542858 6:0.025210084 7:0.1092437 8:0.78972191 9:0.79715395 10:0.83432811 11:0.077498429 13:0.62962961 14:0.60066545 15:0.66250002 16:0.62811023 #
2 1:0 2:0 3:0 4:6.9415524e-05 5:0.26966351 6:0.16345347 7:0.27074602 8:0.84236383 9:0.83794111 10:0.68315673 11:0.028748948 12:0.090909094 13:0.43982494 14:0.4015201 15:0.49757281 16:0.43746331 #
2 1:0 2:0 3:0 4:0.00016315297 5:0.28459921 6:0.068690099 7:0.0047923322 8:0.77379465 9:0.77107728 10:0.41373345 11:0.025843253 13:0.35880399 14:0.37122327 15:0.39655173 16:0.38923833 #
-2 5:0.22786635 6:0.034482758 7:0.034482758 8:0.63836914 9:0.66472387 10:0.66916054 11:0.14765432 13:0.54929578 14:0.55719972 15:0.5714286 16:0.58408165 #
2 1:0 2:0 3:0 4:8.9841204e-05 5:0.25932664 6:0.24107143 7:0.14285715 8:0.7728129 9:0.77387303 10:0.6160183 11:0.077720083 12:0.052631579 13:0.35164836 14:0.38104689 15:0.37078652 16:0.40391344 #
-2 1:0.0028661243 2:0.05882353 3:0.030303031 4:0.0041417507 5:0.17515624 6:0.10596026 7:0.25496688 8:0.80994093 9:0.80521405 10:0.42563966 11:0.039844029 12:0.82352942 13:0.25988701 14:0.2413782 15:0.30952382 16:0.27884543 #
2 1:0 2:0 3:0 4:8.8922367e-05 5:0.21595664 6:0.24397163 7:0.11914894 8:0.73508185 9:0.74280709 10:0.65850794 11:0.022021882 12:0.041666668 13:0.35294119 14:0.3838439 15:0.39867109 16:0.42650107 #
-2 5:0.24309684 6:0.17094018 7:0.17094018 8:0.63016325 9:0.62791747 10:0.60204989 11:0.16792564 13:0.54761904 14:0.61316985 15:0.57499999 16:0.64286953 #
2 1:0 2:0 3:0 4:0.00012846866 5:0.0928628 6:0.049107142 7:0.16517857 8:0.5624364 9:0.57038349 10:0.53650111 11:0.014295929 13:0.35333332 14:0.34427199 15:0.38666666 16:0.37915787 #
2 1:0 2:0 3:0 4:0.0001659292 5:0.15563256 6:0.16129032 7:0.014336918 8:0.70703262 9:0.70758981 10:0.45230761 11:0.016632915 13:0.33333334 14:0.32346553 15:0.36000001 16:0.34118497 #
2 1:0.0625 2:0 3:0.234375 4:0.0072699655 5:0.62109852 6:0.14050494 7:0.15477498 8:0.7781769 9:0.79341155 10:0.92684835 11:0.37495548 12:0.32258064 13:0.63241106 14:0.64431405 15:0.68468469 16:0.68314779 #
-2 5:0.42349216 6:0.068965517 7:0.017241379 8:0.87134159 9:0.87134159 10:0.65342569 11:0.25884145 13:0.62162161 14:0.60162854 15:0.62162161 16:0.60162854 #
-2 5:0.54219031 6:0.045205478 7:0.021917809 8:0.94171858 9:0.94371057 10:0.88784105 11:0.2485411 13:0.6761905 14:0.6799587 15:0.69014084 16:0.67486775 #
2 1:0 2:0 3:0 4:0 5:0.068217136 6:0.33333334 7:0.31967214 8:0.34460494 9:0.37275136 10:0.23789562 11:0.003809503 13:0.25136611 14:0.28164726 15:0.2793296 16:0.30312496 #
-2 5:0.47003216 6:0.14260249 7:0.051693406 8:0.9363966 9:0.93794781 10:0.79508364 11:0.19869459 13:0.62897527 14:0.64776015 15:0.66287881 16:0.67315662 #
-2 5:0.38958186 6:0.16607773 7:0.07067138 8:0.88474327 9:0.89030057 10:0.7490887 11:0.17530541 13:0.60076046 14:0.61338788 15:0.64227641 16:0.64890486 #
2 1:0.031746034 2:0 3:0.18421052 4:0.0029848928 5:0.68394297 6:0.14805654 7:0.17915194 8:0.76514506 9:0.78530514 10:0.96924835 11:0.38677895 12:0.32786885 13:0.60461539 14:0.61212194 15:0.66913122 16:0.66913122 #
-2 5:0.35856858 6:0.19852941 7:0.11764706 8:0.77049237 9:0.79001534 10:0.59744465 11:0.18798016 13:0.5777778 14:0.60903126 15:0.57471263 16:0.60696417 #
-2 1:0.0066636028 2:0.020833334 3:0.06666667 4:0.0066060079 6:0.072499998 12:0.85365856 #
2 1:0 2:0 3:0 4:2.8228653e-05 5:0.15500547 6:0.050802138 7:0.10695187 8:0.74197489 9:0.74634922 10:0.35267937 11:0.01968281 13:0.37640449 14:0.33734128 15:0.40828404 16:0.35866061 #
-2 5:0.29001895 6:0.072625697 7:0.011173184 8:0.83049762 9:0.82939231 10:0.67353618 11:0.17308047 13:0.58928573 14:0.55709672 15:0.60714287 16:0.57935846 #
2 1:0.046218488 2:0 3:0.18181819 4:0.0044191917 5:0.72371143 6:0.26377219 7:0.27824464 8:0.78458112 9:0.79643691 10:0.95889091 11:0.40421909 12:0.31746033 13:0.61381072 14:0.66183579 15:0.66865671 16:0.71014559 #
2 1:0.056122448 2:0 3:0.18934911 4:0.0043967785 5:0.59987974 6:0.10580456 7:0.096987508 8:0.75281042 9:0.7645005 10:0.92207068 11:0.28959265 12:0.31746033 13:0.64174455 14:0.60805738 15:0.6838488 16:0.64808816 #
2 1:0 2:0 3:0 4:0.00013445361 5:0.099189952 6:0.28605202 7:0.21513002 8:0.6789133 9:0.67366421 10:0.35699058 11:0.014427386 13:0.33628318 14:0.37475753 15:0.36320755 16:0.38986468 #
-2 1:0.0060439561 2:0.028985508 3:0.064393938 4:0.0041973395 6:0.11242604 12:0.83333331 #
2 1:0.056122448 2:0 3:0.17283951 4:0.006430041 5:0.73874253 6:0.14079422 7:0.0967509 8:0.81948763 9:0.83548856 10:0.94584769 11:0.36523142 12:0.31746033 13:0.56105608 14:0.56362534 15:0.63320464 16:0.61008716 #
-2 5:0.60864842 6:0.072222225 7:0.022222223 8:0.85692859 9:0.86467057 10:0.88154888 11:0.37278587 13:0.67391306 14:0.62572837 15:0.71111113 16:0.66151857 #
2 1:0 2:0 3:0 4:0.00017780939 5:0.13434796 6:0.17598344 7:0.12836438 8:0.7864601 9:0.78433698 10:0.32967597 11:0.010092647 12:0.034482758 13:0.33905581 14:0.34115216 15:0.34955752 16:0.348021 #
-2 5:0.48359025 6:0.083850935 7:0.055900622 8:0.9492895 9:0.95482814 10:0.80935729 11:0.25752744 13:0.64670658 14:0.66681403 15:0.68354428 16:0.69236457 #
2 1:0 2:0 3:0 4:0.00019363557 5:0.16398086 6:0.033415843 7:0.087871291 8:0.82545286 9:0.82634902 10:0.50838542 11:0.0079380432 12:0.061538462 13:0.35677084 14:0.35214815 15:0.39889196 16:0.37989831 #
2 1:0 2:0 3:0 4:0.00016687527 5:0.14008296 6:0.30952382 7:0.43452382 8:0.59961265 9:0.60322583 10:0.51469886 11:0.081411198 13:0.42307693 14:0.3784115 15:0.44999999 16:0.39931044 #
-2 5:0.46474409 6:0.1871345 7:0.011695907 8:0.88208491 9:0.89102113 10:0.82303655 11:0.21090387 13:0.62280703 14:0.65220177 15:0.66666669 16:0.66986412 #
2 1:0 2:0 3:0 4:0.00018418919 5:0.12777828 6:0.36458334 7:0.265625 8:0.72771204 9:0.7329334 10:0.39576387 11:0.028482199 12:0.034782607 13:0.32231405 14:0.37154695 15:0.34999999 16:0.38729835 #
-2 5:0.3855063 6:0.051771116 7:0.013623978 8:0.80894977 9:0.81265944 10:0.59288824 11:0.1904785 13:0.58375633 14:0.58734363 15:0.63440859 16:0.63440859 #
2 5:0.32572219 6:0.18858041 7:0.11943426 8:0.86592835 9:0.86546898 10:0.61782461 11:0.029819002 12:0.083333336 13:0.38483965 14:0.38391778 15:0.43108973 16:0.42012382 #
2 1:0 2:0 3:0 4:0 5:0.22370535 6:0.21910828 7:0.10828026 8:0.75224376 9:0.75559533 10:0.38279086 11:0.014938423 13:0.34666666 14:0.36654225 15:0.36363637 16:0.37728086 #
2 1:0.074074075 2:0 3:0.3125 4:0.015190972 5:0.67446256 6:0.15308642 7:0.13950618 8:0.80297917 9:0.81137997 10:0.78173548 11:0.48698416 12:0.32258064 13:0.68461537 14:0.70397633 15:0.74222225 16:0.75060916 #
-2 5:0.56194961 6:0.18981482 7:0.050925925 8:0.93416101 9:0.93462449 10:0.80107737 11:0.3199957 13:0.65158373 14:0.6764043 15:0.66203701 16:0.68800908 #
2 1:0 2:0 3:0 4:0.00024803638 5:0.19858709 6:0.093050651 7:0.037691403 8:0.79954416 9:0.79996842 10:0.62971622 11:0.026132787 13:0.3727034 14:0.37647092 15:0.41573033 16:0.41227067 #
-2 1:0.0041125542 2:0.088888891 3:0.01242236 4:0.0020680148 5:0.43760839 6:0.22416534 7:0.17647059 8:0.92662376 9:0.92851871 10:0.77451658 11:0.2144369 12:0.20238096 13:0.53968257 14:0.59232217 15:0.57785469 16:0.62379473 #
2 1:0 2:0 3:0 4:0 5:0.153393 6:0.22891566 7:0.32931727 8:0.66607428 9:0.6645813 10:0.28999627 11:0.015841614 13:0.40666667 14:0.36042982 15:0.41496599 16:0.36215335 #
2 1:0.079999998 2:0 3:0.23999999 4:0.011944445 5:0.19912285 6:0.13921113 7:0.025522042 8:0.45955983 9:0.47285339 10:0.77629733 11:0.13076259 12:0.32258064 13:0.54314721 14:0.54592085 15:0.61452514 16:0.59963536 #
-2 5:0.5181585 6:0.15138593 7:0.049040511 8:0.92272776 9:0.93188059 10:0.88797647 11:0.27328947 13:0.68444443 14:0.67549706 15:0.71090049 16:0.70425642 #
2 1:0 2:0 3:0 4:0.0001173709 6:0.96202081 #
-2 5:0.18913075 6:0.43661973 7:0.3943662 8:0.81395048 9:0.82076341 10:0.45113617 11:0.05315553 12:0.5945946 13:0.34242424 14:0.42621788 15:0.37223974 16:0.45843655 #
2 5:0.18959431 6:0.16282052 7:0.10897436 8:0.85846025 9:0.85699809 10:0.41221514 11:0.016789902 12:0.086956523 13:0.32012194 14:0.32708573 15:0.37096775 16:0.36684901 #
2 1:0 2:0 3:0 4:0.00012987856 5:0.19669838 6:0.16582915 7:0.38190955 8:0.6779474 9:0.68374169 10:0.54749846 11:0.05484543 13:0.46363637 14:0.38808244 15:0.48148149 16:0.40320984 #
2 1:0 2:0 3:0 4:2.4174735e-05 5:0.10081339 6:0.22 7:0.12 8:0.63663322 9:0.63569099 10:0.29896566 11:0.024906775 12:0.04040404 13:0.28421053 14:0.27840969 15:0.28723404 16:0.28131106 #
2 5:0.15944679 6:0.055555556 7:0.098765433 8:0.74700731 9:0.74402452 10:0.49226812 11:0.0062026912 13:0.37078652 14:0.3451502 15:0.40909091 16:0.37099603 #
2 1:0 2:0 3:0 4:0.00038143675 5:0.16883087 6:0.49863762 7:0.46866485 8:0.67537874 9:0.68814325 10:0.62636507 11:0.030815782 13:0.36410257 14:0.46753246 15:0.40983605 16:0.51699555 #
-2 1:0.012919896 3:0.038482387 4:0.0036374105 5:0.31583104 6:0.24932249 7:0.200542 8:0.83344984 9:0.83652842 10:0.67168862 11:0.086829871 12:0.48780489 13:0.4832536 14:0.51503807 15:0.50505048 16:0.53266895 #
-2 5:0.32824397 6:0.17924528 7:0.056603774 8:0.76237625 9:0.75700933 10:0.53534019 11:0.1798775 13:0.57831323 14:0.60435957 15:0.63291138 16:0.65840787 #
-2 5:0.49184194 6:0.17757009 7:0.10280374 8:0.8595528 9:0.88552064 10:0.83623827 11:0.27359423 13:0.67123288 14:0.68546557 15:0.67605633 16:0.69594461 #
-2 5:0.30949223 6:0.17142858 7:0.11428571 8:0.63665503 9:0.68579715 10:0.62994242 11:0.20053104 13:0.57999998 14:0.60012001 15:0.6122449 16:0.6122449 #
-2 1:0.0061835749 2:0.024291499 3:0.063157894 4:0.0052594044 6:0.12852664 12:0.83783782 #
2 5:0.14708272 6:0.17874396 7:0.30917874 8:0.65550184 9:0.66053939 10:0.58159763 11:0.044280745 12:0.057971016 13:0.37410071 14:0.3520028 15:0.4074074 16:0.38021562 #
-2 1:0.0059259259 2:0.025575448 3:0.0625 4:0.0041752425 6:0.025139665 12:0.85365856 #
1.7487882351071277753362664952874 1:0.0425 2:0 3:0.31 4:0.0057638888 5:0.83569854 6:0.13677686 7:0.15867768 8:0.75678754 9:0.77491021 10:0.98834336 11:0.56225437 12:0.31746033 13:0.6570881 14:0.65169173 15:0.71624714 16:0.69659865 #
