SVM-light Version V6.02
0 # kernel type
3 # kernel parameter -d 
1 # kernel parameter -g 
1 # kernel parameter -s 
1 # kernel parameter -r 
empty# kernel parameter -u 
16 # highest feature index 
2236 # number of training documents 
862 # number of support vectors plus 1 
-1.7857647 # threshold b, each following line is a SV (starting with alpha*y)
-2 1:0 2:0 3:0 4:3.4933684e-05 5:0.096721284 6:1.1782945 7:1.5736434 8:0.6444636 9:0.6491183 10:0.2266387 11:0 12:0.070422538 13:0.32653061 14:0.25342104 15:0.33684212 16:0.25033638 #
2 1:0.0042666667 2:0.1 3:0.03125 4:0.0043951739 5:0.47385767 6:0.1507732 7:0.036082473 8:0.89762479 9:0.89787352 10:0.73348165 11:0.078356564 12:0.86956519 13:0.31831831 14:0.32593733 15:0.34726688 16:0.33019033 #
-2 1:0 5:0.57581615 6:0.12381597 7:0.046008117 8:0.85414797 9:0.85698766 10:0.88097572 11:0.23946935 12:0.070175439 13:0.35741445 14:0.37607044 15:0.40083507 16:0.41217759 #
2 5:0.10077511 6:0.32418951 7:0.4713217 8:0.75314409 9:0.74131525 10:0.055476151 11:0 12:0.051948052 13:0.2173913 14:0.18384123 15:0.23857868 16:0.20047612 #
2 5:0.4925487 6:0.13760218 7:0.061307903 8:0.89297473 9:0.89785492 10:0.78206974 11:0.19909243 13:0.65467626 14:0.65249866 15:0.68965518 16:0.68443042 #
-2 1:0 2:0 3:0 4:5.99657e-05 5:0.10827604 6:0.45411766 7:0.3882353 8:0.78591388 9:0.79118741 10:0.34792903 11:0.013590592 12:0.072463766 13:0.25213677 14:0.32565194 15:0.29596412 16:0.34617659 #
2 5:0.029746326 6:3.771605 7:4.4382715 8:0.5600546 9:0.55615449 10:0.025868637 11:0 12:0.078431375 13:0.19101124 14:0.10833644 15:0.21590909 16:0.11674251 #
2 1:0 2:0 3:0 4:0 5:0.0055720899 6:1.3468208 7:1.8612716 8:0.34351575 9:0.33434612 10:0.021066967 11:0 13:0.20792079 14:0.13689281 15:0.22105263 16:0.14526004 #
2 5:0.21542858 6:0.025210084 7:0.1092437 8:0.78972191 9:0.79715395 10:0.83432811 11:0.077498429 13:0.62962961 14:0.60066545 15:0.66250002 16:0.62811023 #
2 5:0.036748815 6:0.98930484 7:1.2299465 8:0.60321158 9:0.58287233 10:0.024826901 11:0 13:0.24576271 14:0.17977937 15:0.25641027 16:0.18827751 #
2 5:0.46305346 6:0.057220709 7:0.013623978 8:0.87712389 9:0.88886935 10:0.8570469 11:0.2219281 13:0.62380952 14:0.64096552 15:0.67500001 16:0.69072008 #
-2 1:0 2:0 3:0 4:0.00042076383 5:0.22984877 6:0.85465115 7:0.84011626 8:0.76383895 9:0.76966953 10:0.6378243 11:0.086786531 12:0.088888891 13:0.1024735 14:0.21893184 15:0.11196911 16:0.23263362 #
2 5:0.47453013 6:0.014925373 7:0.0074626864 8:0.94729197 9:0.95252991 10:0.92466897 11:0.19047748 13:0.74271846 14:0.72294271 15:0.76804125 16:0.74898016 #
-2 1:0 2:0 3:0 4:0.00046468401 5:0.3905049 6:0.1679225 7:0.051668461 8:0.81039906 9:0.81079459 10:0.71448189 11:0.18826158 12:0.078431375 13:0.54178673 14:0.56373453 15:0.57741934 16:0.58598828 #
-2 1:0 2:0 3:0 4:4.9073733e-05 5:0.28257421 6:0.20950323 7:0.082073435 8:0.8457911 9:0.8499828 10:0.73387611 11:0.13688752 12:0.049382716 13:0.54509807 14:0.58552921 15:0.5925926 16:0.63146961 #
2 1:0 2:0 3:0 4:5.4788517e-05 5:0.033633396 6:1.4137931 7:1.5375253 8:0.61469322 9:0.58531713 10:0.021057222 11:0 13:0.15087719 14:0.14706099 15:0.17582418 16:0.17392331 #
2 1:0 2:0 3:0 4:3.0502219e-05 5:0.094020367 6:0.92676973 7:0.92270136 8:0.68176669 9:0.67731893 10:0.070953958 11:0.0021143209 12:0.044943821 13:0.060810812 14:0.15806198 15:0.071146242 16:0.17108944 #
-2 1:0 2:0 3:0 4:0 5:0.14444473 6:0.085536547 7:0.040435459 8:0.646851 9:0.65225399 10:0.45411789 11:0.026579039 13:0.35737705 14:0.35787314 15:0.39041096 16:0.38325879 #
2 1:0 2:0 3:0 4:8.0860351e-05 5:0.12650259 6:0.7820285 7:0.76067615 8:0.65187633 9:0.64979404 10:0.08178895 11:0.0031299249 12:0.061538462 13:0.10841837 14:0.18519203 15:0.13872832 16:0.20965096 #
-2 1:0 3:0 4:0.00027073859 5:0.10322059 6:0.18489583 7:0.080729164 8:0.6663571 9:0.66369063 10:0.090865344 11:0.013535856 12:0.064516127 13:0.2029703 14:0.22134387 15:0.23195876 16:0.24081048 #
-2 1:0 2:0 3:0 4:0 5:0.023499183 6:0.032697547 7:0.095367849 8:0.64071244 9:0.63535327 10:0.098715037 11:0 13:0.19730942 14:0.20914494 15:0.23004694 16:0.23681448 #
2 1:0.000715476 2:0.0059288535 3:0.071428575 4:0.0056320401 5:0.31719983 6:0.50285715 7:0.48263738 8:0.89960271 9:0.89697373 10:0.90167397 11:0.037501492 13:0.2820513 14:0.36918926 15:0.33138686 16:0.41584927 #
-2 1:0 2:0 3:0 4:6.1489271e-05 5:0.58646536 6:0.2069435 7:0.14635807 8:0.91065323 9:0.90906811 10:0.77986515 11:0.12943652 12:0.083333336 13:0.3444227 14:0.35396585 15:0.39254385 16:0.3858332 #
-2 5:0.20598795 6:0.74169743 7:0.71494466 8:0.80916315 9:0.8073864 10:0.43960258 11:0.028570548 12:0.05479452 13:0.19308943 14:0.3355782 15:0.20302376 16:0.34536424 #
-2 1:0 2:0 5:0.35721746 6:0.72780633 7:0.68011737 8:0.85870409 9:0.85840243 10:0.65862304 11:0.059505295 12:0.0625 13:0.20558882 14:0.32078606 15:0.23362446 16:0.35005474 #
2 1:0 2:0 3:0 4:0.00026919713 5:0.082609974 6:0.025839793 7:0.094315246 8:0.76787728 9:0.75386035 10:0.044876184 11:0.0014752344 13:0.1974026 14:0.21558252 15:0.23822714 16:0.24878882 #
-1.3148835864471521972518530674279 1:0 2:0 3:0 4:0.00012235354 5:0.14133762 6:0.27868852 7:0.16721311 8:0.63036329 9:0.63191897 10:0.41988495 11:0.011900827 13:0.32934132 14:0.36200541 15:0.34969324 16:0.36823273 #
2 1:0.00078656682 2:0.012560386 3:0.020833334 4:0.0032679739 5:0.25818774 6:0.4123314 7:0.42003852 8:0.85241777 9:0.85160714 10:0.81050986 11:0.03925683 13:0.26905829 14:0.34804767 15:0.30024815 16:0.36818445 #
2 1:0.00038590172 2:0.0092753619 3:0.07692308 4:0.0041243653 5:0.41817781 6:0.77403569 7:0.74496257 8:0.88392919 9:0.88460124 10:0.62979347 11:0.052931726 13:0.18482344 14:0.33193162 15:0.21648626 16:0.37279865 #
2 1:0.00058680953 2:0.022544283 3:0.050000001 4:0.0045351475 5:0.28672788 6:0.28092244 7:0.256464 8:0.88375753 9:0.8881548 10:0.58138758 11:0.095414653 13:0.40556368 14:0.46098113 15:0.46310833 16:0.50866908 #
2 1:0.00028618381 2:0.0046593407 3:0.054545455 4:0.0022287944 5:0.23489903 6:4.2507291 7:4.6151605 8:0.71833736 9:0.73414439 10:0.52277541 11:0.032153424 13:0.44034091 14:0.23484907 15:0.48447204 16:0.25002503 #
2 1:0.0001911315 2:0.0028929606 3:0.010344828 4:0.001153947 5:0.12138196 6:0.0084985839 7:0.014164306 8:0.63300717 9:0.64017832 10:0.50688207 11:0.020472867 13:0.21693122 14:0.241446 15:0.24861878 16:0.26279417 #
2 5:0.13016213 6:0.1969697 7:0.3131313 8:0.78076041 9:0.79132181 10:0.65906256 11:0.018625982 13:0.32718894 14:0.30537549 15:0.35323384 16:0.32599002 #
-2 1:0 2:0 3:0 4:2.6638672e-05 5:0.016675007 6:0.16194332 7:0.20242915 8:0.51618963 9:0.51423907 10:0.10961927 11:0 13:0.19512194 14:0.19148542 15:0.20987654 16:0.20078662 #
-2 1:0 2:0 3:0 4:2.6748839e-06 5:0.14852214 6:0.60512823 7:0.54871798 8:0.36764041 9:0.43704286 10:0.42607996 11:0.01980295 12:0.07272727 13:0.125 14:0.17826851 15:0.12820514 16:0.1836796 #
-2 1:0 2:0 3:0 4:0.00031635174 5:0.17271772 6:0.5905512 7:0.52362204 8:0.73374361 9:0.73662138 10:0.46876165 11:0.029635355 13:0.24175824 14:0.33030465 15:0.26331362 16:0.35212815 #
-2 1:0 2:0 3:0 4:0.00016576679 5:0.33177033 6:0.40686274 7:0.42647058 8:0.74933177 9:0.7586984 10:0.58443266 11:0.12397588 13:0.33858266 14:0.49391457 15:0.37007874 16:0.52966362 #
2 1:0 2:0 3:0 4:0 5:0.038498268 6:0.24609375 7:0.30078125 8:0.61866206 9:0.61285722 10:0.031590205 11:0.0040348503 13:0.16483517 14:0.16581334 15:0.17514125 16:0.17177744 #
-0.16438998692120776468073017895222 1:6.6067652e-05 2:0 3:0 4:0.00041608876 5:0.10553518 6:0.28350514 7:0.18041237 8:0.70999998 9:0.70288622 10:0.38563663 11:0.0066660084 13:0.24905661 14:0.28491318 15:0.31275719 16:0.32721558 #
2 1:0.00058960845 2:0.0036073374 3:0.041666668 4:0.0035552683 5:0.36002213 6:0.25122669 7:0.35525024 8:0.86741799 9:0.88713068 10:0.93494397 11:0.15243983 13:0.44650206 14:0.42069367 15:0.50328225 16:0.46602169 #
2 5:0.39919963 6:0.10280374 7:0.0093457941 8:0.86688405 9:0.88935471 10:0.86777508 11:0.17268637 13:0.54320985 14:0.54494923 15:0.57236844 16:0.55614048 #
2 1:0.00038155523 2:0.0022357968 3:0.064285718 4:0.0015183893 5:0.14866547 6:2.2345417 7:2.4434967 8:0.73874247 9:0.73664212 10:0.6712786 11:0.014471245 13:0.43460765 14:0.32194915 15:0.48723406 16:0.35268772 #
2 1:0 2:0 3:0 4:0.00011633955 5:0.046232946 6:4.1152072 7:4.9400921 8:0.59848374 9:0.59074926 10:0.035451625 11:0 12:0.036697246 13:0.36170211 14:0.2053764 15:0.41726619 16:0.22548471 #
2 1:0 2:0 3:0 4:0.00012254903 5:0.047172558 6:0.069986545 7:0.19919246 8:0.6509921 9:0.64014226 10:0.065017112 11:0.0013861442 12:0.0625 13:0.24709302 14:0.23982921 15:0.27190334 16:0.2625514 #
2 1:0.0027774423 2:0.11111111 3:0.032258064 4:0.0043309596 5:0.25545892 6:0.30478591 7:0.20906802 8:0.8131122 9:0.80673683 10:0.53823489 11:0.027465077 12:0.85000002 13:0.27093595 14:0.29305318 15:0.296875 16:0.31185278 #
-2 1:0 2:0 3:0 4:0.00046620046 5:0.051245004 6:6.4615383 7:6.6923075 8:0.43631893 9:0.46232143 10:0.37778664 11:0 13:0.53846157 14:0.24846467 15:0.58974361 16:0.26860654 #
2 1:0.0011875 2:0.020310633 3:0.07692308 4:0.0040422888 5:0.16819735 6:0.48984468 7:0.4432497 8:0.80662066 9:0.79363179 10:0.44667917 11:0.040730655 13:0.20418848 14:0.25923792 15:0.2419825 16:0.29234597 #
2 1:0.00042483956 2:0.0079223607 3:0.03409091 4:0.0022921863 5:0.40426925 6:0.68938071 7:0.66258979 8:0.92428643 9:0.92295462 10:0.86929703 11:0.11563449 13:0.29378173 14:0.43139255 15:0.33333334 16:0.466993 #
2 5:0.41755015 6:0.042459738 7:0.14055637 8:0.91305166 9:0.91515815 10:0.74213248 11:0.20395289 13:0.59444445 14:0.55841845 15:0.63905323 16:0.59416497 #
2 5:0.35151753 6:0.13506493 7:0.079220779 8:0.91771466 9:0.92083818 10:0.78945178 11:0.13194165 13:0.53932583 14:0.57250029 15:0.59021407 16:0.6141578 #
-2 1:4.4923629e-05 2:0 3:0 4:0.00032453093 5:0.42007542 6:0.18938053 7:0.077876106 8:0.84767526 9:0.84221196 10:0.40142193 11:0.13954093 12:0.064516127 13:0.26877472 14:0.26877391 15:0.30125523 16:0.2910808 #
-2 1:0 2:0.00050505053 3:0 4:0.00036972738 5:0.084348232 6:1.9743589 7:2.1538463 8:0.60803121 9:0.60437 10:0.31978825 11:0.0164696 12:0.053333335 13:0.60869563 14:0.32440129 15:0.62686568 16:0.32781503 #
2 1:0.00071411964 2:0.005850065 3:0.077777781 4:0.0031682027 5:0.16792846 6:0.67693412 7:0.6482808 8:0.84930521 9:0.83969575 10:0.6902383 11:0.01182085 13:0.184375 14:0.29257625 15:0.21331058 16:0.32593 #
-2 5:0.37938866 6:0.89339465 7:0.87834448 8:0.85306901 9:0.85013515 10:0.70773405 11:0.084478922 12:0.06666667 13:0.13722628 14:0.29327765 15:0.1638796 16:0.32398862 #
-2 1:0 2:0 3:0 4:0.00036801508 5:0.2151709 6:0.69749999 7:0.67250001 8:0.72069407 9:0.69672322 10:0.052035291 11:0.0024565205 12:0.068965517 13:0.15060242 14:0.23129787 15:0.17171717 16:0.25283179 #
-2 5:0.23644497 6:0.41386139 7:0.39009902 8:0.82360327 9:0.81587458 10:0.50025654 11:0.032781992 12:0.068965517 13:0.2388664 14:0.29934216 15:0.2532751 16:0.30491704 #
-2 1:6.2275808e-06 2:0 3:0 4:0.00014312295 5:0.062501222 6:0.72673559 7:0.704579 8:0.52719975 9:0.5100562 10:0.079015285 11:0 12:0.07272727 13:0.15714286 14:0.23425475 15:0.16730037 16:0.24563763 #
2 1:0 2:0 3:0 4:0.00011462386 5:0.071011201 6:2.5209582 7:2.7664671 8:0.63765186 9:0.62917727 10:0.046527404 11:0 12:0.03809524 13:0.31339031 14:0.19991387 15:0.33827892 16:0.21846618 #
-2 1:0 2:0 3:0 4:0 5:0.068217136 6:0.33333334 7:0.31967214 8:0.34460494 9:0.37275136 10:0.23789562 11:0.003809503 13:0.25136611 14:0.28164726 15:0.2793296 16:0.30312496 #
-2 1:0 2:0 3:0 4:8.2297753e-05 5:0.4125641 6:0.16523464 7:0.060145408 8:0.91819823 9:0.91625303 10:0.72961646 11:0.090129502 12:0.071428575 13:0.37001899 14:0.38868862 15:0.42405063 16:0.42008129 #
-2 1:0 2:0 3:0 4:2.9137529e-05 5:0.1373063 6:0.19934641 7:0.20152505 8:0.66655868 9:0.66740841 10:0.38511857 11:0.0014475434 12:0.050632913 13:0.31463414 14:0.31942573 15:0.34020618 16:0.33803511 #
-2 5:0.087806486 6:0.16091955 7:0.059386972 8:0.73139679 9:0.72657472 10:0.1338919 11:0.0022471966 12:0.055555556 13:0.17266187 14:0.18531233 15:0.19548872 16:0.20245881 #
-2 5:0.27057892 6:0.73137462 7:0.70094436 8:0.8407042 9:0.8403852 10:0.61749923 11:0.063947432 12:0.088888891 13:0.18765432 14:0.31980306 15:0.22950819 16:0.36338109 #
2 1:0 2:0 3:0 4:3.0292014e-05 5:0.02364799 6:1.9082569 7:1.793578 8:0.64265364 9:0.62318397 10:0.030939406 11:0 13:0.1496063 14:0.13139708 15:0.17886178 16:0.15831436 #
-2 1:0 2:0 3:0 4:0.00031330701 5:0.37162039 6:0.66162789 7:0.62558138 8:0.87618113 9:0.88386261 10:0.78082567 11:0.11810886 12:0.06779661 13:0.25949368 14:0.35649252 15:0.27946126 16:0.37722987 #
-2 1:2.3654642e-05 2:0 3:0 4:0.0001815541 5:0.049104638 6:0.58536583 7:0.55487806 8:0.39071542 9:0.4024086 10:0.2593976 11:0.012098348 12:0.047619049 13:0.10784314 14:0.15264656 15:0.14285715 16:0.18257418 #
2 5:0.48374659 6:0.18120806 7:0.055928413 8:0.91425371 9:0.92220247 10:0.83507627 11:0.21660554 13:0.55660379 14:0.56471997 15:0.57635468 16:0.58506584 #
-2 1:0 2:0 3:0 4:0.0007513148 5:0.32135111 6:0.60217983 7:0.56267029 8:0.72359216 9:0.71606159 10:0.50110853 11:0.14729182 12:0.093023255 13:0.26558891 14:0.3207384 15:0.30729166 16:0.35000202 #
-2 1:0 2:0 3:0 4:6.5009364e-05 5:0.04215258 6:0.072916664 7:0.015625 8:0.62274003 9:0.61948997 10:0.22827077 11:0.0061360085 12:0.05479452 13:0.33333334 14:0.32826608 15:0.34862384 16:0.32818431 #
-2 1:0 2:0 3:0 4:3.0829942e-05 5:0.28135458 6:0.3705036 7:0.27338129 8:0.75407481 9:0.77729988 10:0.72670639 11:0.13637146 13:0.49664429 14:0.57029474 15:0.52142859 16:0.58559501 #
-2 1:0 2:0 3:0 4:0 5:0.16754845 6:0.10769231 7:0.010256411 8:0.57637805 9:0.5773145 10:0.24296652 11:0.0766965 13:0.34558824 14:0.35426524 15:0.36296296 16:0.36987716 #
-2 1:0 2:0 3:0 4:0.0001134945 5:0.17349447 6:1.7391304 7:1.9021739 8:0.54604191 9:0.5517031 10:0.51752573 11:0.054554474 12:0.052631579 13:0.54666668 14:0.3904762 15:0.56756759 16:0.40828687 #
2 5:0.30645397 6:0.92522418 7:0.92392248 8:0.80129486 9:0.80660588 10:0.81099874 11:0.028213363 13:0.088922009 14:0.24474303 15:0.10410642 16:0.26542035 #
2 5:0.46474409 6:0.1871345 7:0.011695907 8:0.88208491 9:0.89102113 10:0.82303655 11:0.21090387 13:0.62280703 14:0.65220177 15:0.66666669 16:0.66986412 #
2 1:0 2:0 3:0 4:0 5:0.0095007941 6:0.10177706 7:0.13408723 8:0.47867247 9:0.45877683 10:0.022471204 11:0 13:0.23952095 14:0.17495631 15:0.2631579 16:0.18857858 #
2 1:0.0026577504 2:0.05882353 3:0.025641026 4:0.0035131699 5:0.24180821 6:0.047457628 7:0.18983051 8:0.81642514 9:0.81133741 10:0.67816979 11:0.025030611 12:0.82352942 13:0.33557048 14:0.3276183 15:0.37857142 16:0.35412115 #
-2 1:0 2:0.00081699347 3:0 4:0.00031222124 5:0.2127174 6:0.55606407 7:0.51945078 8:0.86035043 9:0.85943484 10:0.50432467 11:0.044381175 12:0.065573767 13:0.23690774 14:0.31640291 15:0.25130889 16:0.33040258 #
2 1:0 2:0 3:0 4:9.6365642e-05 5:0.031129355 6:0.92371601 7:0.91616315 8:0.58254528 9:0.5790109 10:0.029186724 11:0 13:0.048327137 14:0.13210399 15:0.053892214 16:0.14417696 #
2 5:0.18232322 6:0.19642857 7:0.071428575 8:0.57835174 9:0.64968616 10:0.73514169 11:0.052185357 13:0.52564102 14:0.54787076 15:0.55844158 16:0.56583846 #
2 1:0 2:0 3:0 4:8.5792723e-05 5:0.076165237 6:0.63492066 7:0.59462762 8:0.69493824 9:0.68207341 10:0.034914814 11:0.002216124 13:0.12345679 14:0.15769231 15:0.12662338 16:0.15713547 #
2 5:0.27900574 6:0.1659292 7:0.090707965 8:0.69213009 9:0.66972989 10:0.5215711 11:0.1317104 13:0.64245808 14:0.62674129 15:0.69512194 16:0.66535956 #
2 5:0.41651529 6:0.12612613 7:0.021621622 8:0.91387165 9:0.91628152 10:0.76681417 11:0.17421934 13:0.59285712 14:0.60553634 15:0.67424244 16:0.6594221 #
-2 1:0 2:0 3:0 4:0.00036109774 5:0.22652845 6:0.35555556 7:0.27407408 8:0.80308539 9:0.80609268 10:0.63737851 11:0.091505222 13:0.3649289 14:0.41820097 15:0.40703517 16:0.44300011 #
2 5:0.36177638 6:0.125 7:0.12771739 8:0.821904 9:0.85010827 10:0.81020385 11:0.16709602 13:0.58937198 14:0.6020056 15:0.64321607 16:0.66531444 #
2 1:0.00065530802 2:0 3:0 4:2.4070865e-05 5:0.071100414 6:0.704023 7:0.87643677 8:0.66704148 9:0.66239762 10:0.041421171 11:0.0083664069 13:0.13023256 14:0.15426625 15:0.15789473 16:0.16516732 #
2 5:0.3490535 6:0.03586207 7:0.04551724 8:0.86518377 9:0.8651219 10:0.71732438 11:0.13023005 13:0.56273764 14:0.56013334 15:0.63135594 16:0.60619211 #
2 5:0.032240741 6:0.45822784 7:0.42531645 8:0.56484658 9:0.55932313 10:0.01508315 11:0 13:0.11616161 14:0.15801683 15:0.12631579 16:0.17239885 #
-2 1:0 2:0.0013661202 3:0 4:0 5:0.45275933 6:0.46921796 7:0.64226288 8:0.88193029 9:0.88897014 10:0.76757354 11:0.17142114 13:0.53496504 14:0.47116542 15:0.57194245 16:0.49442822 #
2 5:0.26236418 6:0.072463766 7:0.0072463769 8:0.76703501 9:0.80682641 10:0.67180914 11:0.096392542 13:0.58227849 14:0.55700344 15:0.63513511 16:0.58915937 #
2 5:0.041031949 6:0.29365081 7:0.45238096 8:0.66613698 9:0.649131 10:0.011338244 11:0.0019690534 13:0.12077295 14:0.11934024 15:0.13333334 16:0.13231938 #
2 1:0 2:0 3:0 4:0.00024801589 5:0.026736796 6:0.67042255 7:0.83943659 8:0.71728724 9:0.69794792 10:0.03188834 11:0 13:0.12663755 14:0.13715942 15:0.14155251 16:0.15157339 #
-2 1:0 2:0 3:0 4:0 5:0.099212319 6:0.77565217 7:0.75652176 8:0.50755477 9:0.52298182 10:0.26077357 11:0.0040041665 13:0.15438597 14:0.28565228 15:0.18248175 16:0.31322271 #
2 5:0.21183904 6:0.13095239 7:0.095238097 8:0.68992871 9:0.70080274 10:0.51250201 11:0.14406769 13:0.45762712 14:0.45542005 15:0.51785713 16:0.49216208 #
-2 1:0 2:0 3:0 4:0.00040255536 5:0.25583136 6:0.72463769 7:0.68888891 8:0.71723676 9:0.71932346 10:0.51615745 11:0.033132169 13:0.20090294 14:0.3152127 15:0.22434367 16:0.33854151 #
2 1:0.00079617836 2:0.0088117486 3:0.021505376 4:0.0017284292 5:0.31313857 6:0.82540399 7:0.81588882 8:0.89725494 9:0.89750504 10:0.8785975 11:0.027518794 13:0.18129331 14:0.35042351 15:0.21769178 16:0.39036423 #
2 1:0.00024517818 2:0.0082304524 3:0.074074075 4:0.0049835541 5:0.15786378 6:0.025925925 7:0.13611111 8:0.86772478 9:0.87186033 10:0.45719904 11:0.0058889082 13:0.23925234 14:0.24398425 15:0.2790224 16:0.27061045 #
-2 1:0 2:0 3:0 4:0.00040735962 5:0.4176192 6:0.17914267 7:0.062699936 8:0.89798993 9:0.90146381 10:0.78455925 11:0.09088365 12:0.079999998 13:0.35754189 14:0.34545279 15:0.41908714 16:0.3891544 #
-2 1:0 2:0 3:0 4:3.6002304e-05 5:0.36896276 6:0.50089926 7:0.40917265 8:0.84252036 9:0.84195894 10:0.69605446 11:0.16815411 12:0.055555556 13:0.25430211 14:0.34269246 15:0.27515399 16:0.36817634 #
2 1:0.00058520597 2:0.0068421052 3:0.057142857 4:0.0045871558 5:0.39529526 6:0.88719839 7:0.87757045 8:0.88745445 9:0.88031179 10:0.61304158 11:0.080527239 13:0.14754952 14:0.32084543 15:0.19420095 16:0.38065213 #
2 1:0.012919896 3:0.038482387 4:0.0036374105 5:0.31583104 6:0.24932249 7:0.200542 8:0.83344984 9:0.83652842 10:0.67168862 11:0.086829871 12:0.48780489 13:0.4832536 14:0.51503807 15:0.50505048 16:0.53266895 #
2 5:0.025753267 6:0.97506237 7:1.1246883 8:0.56533778 9:0.54760516 10:0.016594492 11:0 13:0.16666667 14:0.14550024 15:0.19417475 16:0.16898258 #
-2 1:0 2:0 3:0 4:7.6952674e-05 5:0.22057934 6:0.522686 7:0.45644283 8:0.87770826 9:0.87112248 10:0.46085313 11:0.01510133 12:0.083333336 13:0.23480085 14:0.30335325 15:0.27616927 16:0.3460314 #
2 5:0.41707078 6:0.036072146 7:0.048096191 8:0.88996869 9:0.90196556 10:0.93655735 11:0.1621915 13:0.57414448 14:0.58627576 15:0.60483873 16:0.61102962 #
-2 1:0 2:0 3:0 4:0.00013368984 5:0.25897238 6:0.236 7:0.14399999 8:0.70675629 9:0.7098431 10:0.58263868 11:0.082878523 13:0.5 14:0.52966738 15:0.52173913 16:0.5396325 #
2 1:0.00046381759 2:0.0033988473 3:0.033333335 4:0.0031459224 5:0.16400996 6:0.85817385 7:0.84750551 8:0.72229254 9:0.72620642 10:0.76125526 11:0.021675456 13:0.13197026 14:0.28493884 15:0.16079295 16:0.32087991 #
2 1:0.0020180438 2:0.024691358 3:0.0090497741 4:0.0021645022 5:0.30791873 6:0.63240302 7:0.59087813 8:0.89121807 9:0.87385988 10:0.89040112 11:0.056076039 13:0.25360826 14:0.3544139 15:0.3020595 16:0.40930283 #
2 5:0.17201562 6:0.2173913 7:0.16304348 8:0.67115605 9:0.67403334 10:0.53386003 11:0.067871913 13:0.59722221 14:0.62855822 15:0.6111111 16:0.65330523 #
2 1:0.00039761903 2:0.0050179213 3:0.050000001 4:0.0038036809 5:0.39930087 6:0.90234965 7:0.8978228 8:0.81895322 9:0.8158592 10:0.57952505 11:0.05119063 13:0.10989867 14:0.26127198 15:0.13471971 16:0.30484694 #
2 1:0 3:0 4:0.00010307153 5:0.057800978 6:0.49885845 7:0.48059362 8:0.64871848 9:0.64725637 10:0.042105488 11:0 12:0.056338027 13:0.1002331 14:0.14109704 15:0.12470024 16:0.1693874 #
2 1:0.0010370918 2:0.0066750105 3:0.020833334 4:0.0019826426 5:0.27544236 6:0.89321148 7:0.8853786 8:0.81840253 9:0.84218395 10:0.83388704 11:0.048937906 13:0.11749788 14:0.27246186 15:0.14285715 16:0.3097069 #
2 5:0.076708153 6:0.015296367 7:0.12810707 8:0.68572503 9:0.67499733 10:0.025794188 11:0 12:0.034482758 13:0.15671642 14:0.14787632 15:0.1634981 16:0.15874077 #
-2 1:0 2:0 3:0 4:0.00013347789 5:0.27374864 6:0.38753387 7:0.29268292 8:0.71992528 9:0.72503442 10:0.57408774 11:0.092309251 13:0.42331287 14:0.47229618 15:0.4556962 16:0.4876008 #
-2 1:0 2:0 3:0 4:0.00013662844 5:0.22736415 6:0.37254903 7:0.32107842 8:0.66109556 9:0.67239219 10:0.53380698 11:0.070866421 13:0.41573033 14:0.45971173 15:0.45086706 16:0.48582339 #
2 1:0 2:0 3:0 4:8.0128208e-05 5:0.034610849 6:0.97486317 7:0.97349519 8:0.65970564 9:0.64873004 10:0.026701454 11:0.0010371391 12:0.053333335 13:0.028548123 14:0.097990476 15:0.039039038 16:0.11764827 #
2 1:0 2:0 5:0.0024407019 6:0.3120729 7:0.38952163 8:0.68711388 9:0.68247133 10:0.010697001 11:0 13:0.078703701 14:0.11698567 15:0.093457945 16:0.12693872 #
2 1:0 2:0 3:0 4:7.4738418e-05 5:0.039225399 6:0.135436 7:0.12615955 8:0.58745784 9:0.57231289 10:0.023104802 11:0 13:0.11742424 14:0.15216069 15:0.13899614 16:0.17207162 #
-2 5:0.11309937 6:0.89369297 7:0.88456964 8:0.76343817 9:0.75595564 10:0.14353085 11:0 12:0.063492067 13:0.077594571 14:0.19794042 15:0.096500531 16:0.23000194 #
-2 1:0 2:0 3:0 4:0.0001115845 5:0.25528345 6:0.037383176 7:0.12616822 8:0.70969009 9:0.7108472 10:0.26973432 11:0.02326645 13:0.29583332 14:0.28881067 15:0.36681223 16:0.34425074 #
-2 1:0 2:0 3:0 4:0 5:0.39211395 6:4.0438871 7:4.6551723 8:0.80742019 9:0.80944914 10:0.54846162 11:0.15636909 12:0.064516127 13:0.60159361 14:0.27976474 15:0.67372882 16:0.30748659 #
2 5:0.091044627 6:0.12727273 7:0.12727273 8:0.5440135 9:0.58896816 10:0.66974312 11:0.020646004 13:0.52083331 14:0.50545025 15:0.61363637 16:0.55911285 #
-2 5:0.17837976 6:0.84628236 7:0.83792818 8:0.74618816 9:0.72310483 10:0.15333492 11:0.022664843 12:0.070175439 13:0.11872146 14:0.23690267 15:0.13647643 16:0.26610756 #
-2 1:0 2:0 3:0 4:4.1020594e-05 5:0.33436456 6:0.646281 7:0.58512396 8:0.59965909 9:0.60328805 10:0.29235196 11:0.043480828 13:0.21678321 14:0.29834598 15:0.22463769 16:0.30992252 #
2 5:0.14388862 6:0.14666666 7:0.039999999 8:0.56999946 9:0.62688643 10:0.68272573 11:0.032530002 13:0.40350878 14:0.4174071 15:0.5 16:0.49559462 #
2 5:0.54357702 6:0.0099667776 7:0.076411963 8:0.88564479 9:0.90295631 10:0.90143538 11:0.19264451 13:0.5847953 14:0.58992487 15:0.63580245 16:0.61884469 #
2 1:0.00057295075 2:0.0051879701 3:0.029999999 4:0.0019545429 5:0.15319781 6:0.8770963 7:0.88284618 8:0.45204693 9:0.45341951 10:0.70975548 11:0.041081373 13:0.093724534 14:0.2168607 15:0.10373066 16:0.23131824 #
-2 1:0 2:0 3:0 4:0.00012020134 5:0.11206423 6:0.60598505 7:0.58104736 8:0.75389862 9:0.75407702 10:0.34320337 11:0.0083282739 12:0.050632913 13:0.17874396 14:0.25217375 15:0.1928934 16:0.26807135 #
-2 1:0 2:0 3:0 4:0.00082706765 5:0.25776282 6:7.3722944 7:8.5064936 8:0.53685886 9:0.53946871 10:0.40703973 11:0.053467963 13:0.30656934 14:0.13510861 15:0.34328359 16:0.15261267 #
-2 1:0 2:0 3:0 4:0 5:0.076365195 6:0.36170211 7:0.48510638 8:0.56993359 9:0.56550008 10:0.12971567 11:0.011646468 13:0.28666666 14:0.23610234 15:0.3263889 16:0.26227939 #
-2 1:0 2:0 3:0 4:0.00012880159 5:0.058236353 6:0.19067797 7:0.06779661 8:0.60325229 9:0.61888802 10:0.31111249 11:0.0098667126 13:0.38059703 14:0.37795523 15:0.42424244 16:0.40338954 #
2 1:0 2:0 3:0.0032467532 4:4.5949018e-05 5:0.040039442 6:0.1037415 7:0.18197279 8:0.7356866 9:0.72636312 10:0.022069106 11:0 13:0.14137931 14:0.13720655 15:0.15467626 16:0.14718951 #
-2 1:0 2:0 3:0 4:0.00020066506 5:0.050486166 6:1.7625 7:1.8125 8:0.53948849 9:0.54704118 10:0.27351776 11:0 12:0.065573767 13:0.4528302 14:0.2776283 15:0.46153846 16:0.28968272 #
-2 1:0 2:0 3:0 4:0.0001194014 5:0.30276355 6:0.095971562 7:0.010663508 8:0.87223297 9:0.87415105 10:0.64633644 11:0.080414206 12:0.05479452 13:0.29365081 14:0.30898309 15:0.32786885 16:0.33290976 #
2 1:0 2:0 3:0 4:0 5:0.042933878 6:0.17886178 7:0.42682928 8:0.5596171 9:0.55952179 10:0.042366624 11:0 13:0.17647059 14:0.15914744 15:0.18791947 16:0.16426596 #
-2 1:0 2:0 3:0 4:0.00022201907 5:0.28971335 6:0.019498607 7:0.096100278 8:0.7690807 9:0.77966392 10:0.62790978 11:0.10941038 13:0.46964857 14:0.4506084 15:0.5117057 16:0.47363427 #
-2 1:0 2:0 3:0 4:0.00013450242 5:0.3302308 6:0.23492064 7:0.15238096 8:0.7340548 9:0.74060559 10:0.66101319 11:0.13213612 13:0.34285715 14:0.37675527 15:0.37426901 16:0.39960995 #
-2 1:0 2:0 3:0 4:0 5:0.19934675 6:0.38047138 7:0.28619528 8:0.79676592 9:0.80227518 10:0.54449403 11:0.063561551 12:0.052631579 13:0.32748538 14:0.3897624 15:0.36363637 16:0.41946763 #
2 1:0 2:0 3:0 4:2.8830076e-05 5:0.038144846 6:2.5126581 7:3.079114 8:0.62148821 9:0.6103738 10:0.024448549 11:0 12:0.034188036 13:0.25414366 14:0.15219365 15:0.27840909 16:0.16929193 #
-2 1:0 2:0 3:0 4:0 5:0.037907124 6:0.35570469 7:0.45637584 8:0.49547553 9:0.49473909 10:0.14963855 11:0 13:0.27000001 14:0.21899892 15:0.28865978 16:0.23369063 #
-2 1:0 2:0 3:0 4:0 5:0.092725396 6:0.16666667 7:0.070512824 8:0.59974998 9:0.60156572 10:0.19262739 11:0.015007505 13:0.28431374 14:0.27503291 15:0.2970297 16:0.2872425 #
-2 1:0 2:0 3:0 4:4.6413763e-05 5:0.052144133 6:1.7362638 7:1.8791208 8:0.61158377 9:0.61093384 10:0.13011676 11:0.0037382981 12:0.057971016 13:0.3611111 14:0.22978641 15:0.3888889 16:0.25112361 #
2 1:0.00025949808 2:0.0020218238 3:0.023423424 4:0.001205962 5:0.45959279 6:0.42692438 7:0.38250256 8:0.91771305 9:0.91055894 10:0.89822453 11:0.091757283 13:0.35971943 14:0.42515433 15:0.43468207 16:0.49316829 #
-2 1:0 2:0 3:0 4:0.00011004213 5:0.12305681 6:0.0064935065 7:0.1525974 8:0.67896223 9:0.68305558 10:0.24484916 11:0.015668286 13:0.31843576 14:0.33716381 15:0.34911242 16:0.35439432 #
2 1:0.00049529853 2:0.0065359478 3:0.064583331 4:0.00098814233 5:0.39289078 6:0.72415572 7:0.70456302 8:0.8957485 9:0.90307385 10:0.9084546 11:0.044200715 13:0.20064464 14:0.33845854 15:0.24137931 16:0.38192868 #
2 1:0 5:0.037068177 6:0.67019403 7:0.8888889 8:0.54966819 9:0.54182565 10:0.038940467 11:0.0014110113 13:0.19629629 14:0.14941736 15:0.21343873 16:0.16487339 #
2 1:0 2:0 3:0 4:0 5:0.0078282831 6:1.3461539 7:1.5769231 8:0.52958858 9:0.52164155 10:0.019000702 11:0 12:0.032258064 13:0.20588236 14:0.13421887 15:0.20792079 16:0.13689281 #
-2 1:7.48503e-06 2:0 3:0 4:0.00015129508 5:0.27968088 6:0.78012049 7:0.76606429 8:0.82141685 9:0.82028133 10:0.65495294 11:0.082243964 12:0.1 13:0.1521197 14:0.27658182 15:0.17886178 16:0.31496134 #
2 1:0 2:0 3:0 4:0.0005268199 5:0.045762733 6:0.81265205 7:0.7948094 8:0.54913998 9:0.54691625 10:0.035872508 11:0 13:0.056569342 14:0.12559643 15:0.068093382 16:0.1364525 #
-2 1:0 2:0 3:0 4:0 5:0.41405746 6:0.70646632 7:0.65763348 8:0.90689182 9:0.90633804 10:0.36374414 11:0.030156605 13:0.16244726 14:0.25583142 15:0.20111288 16:0.29618713 #
2 1:0 2:0 3:0 4:0.00019389045 5:0.050483316 6:0.86236393 7:0.84447902 8:0.62570608 9:0.61766326 10:0.022424351 11:0 13:0.075242721 14:0.13972467 15:0.085333332 16:0.14721398 #
2 5:0.31454283 6:0.24074075 7:0.1388889 8:0.84491146 9:0.85399026 10:0.68993211 11:0.18144369 13:0.58974361 14:0.61382461 15:0.60000002 16:0.621059 #
2 1:0 2:0 3:0 4:0.00024718678 5:0.06396804 6:0.81077003 7:0.79667842 8:0.63065934 9:0.61998314 10:0.038690608 11:0.0010260885 13:0.097001761 14:0.14920659 15:0.11290322 16:0.16264781 #
-2 1:0 2:0 3:0 4:0.00023654442 5:0.12897712 6:0.50874406 7:0.46422893 8:0.74838203 9:0.75135458 10:0.41735205 11:0.031642254 13:0.25301206 14:0.32436544 15:0.27018633 16:0.34368834 #
2 1:0 2:0 3:0 4:0.00016626762 5:0 6:0.095022626 7:0.022624435 8:0.61702138 9:0.60657191 10:0.030672126 11:0 13:0.093525179 14:0.10282224 15:0.094890513 16:0.10638241 #
-2 1:0 2:0 3:0 4:1.7909593e-05 5:0.16406044 6:0.43494424 7:0.366171 8:0.80482972 9:0.80813557 10:0.392526 11:0.013192842 12:0.04040404 13:0.25874126 14:0.30477482 15:0.28 16:0.32272992 #
-2 1:3.4340661e-05 2:0 3:0 4:8.17127e-05 5:0.087653145 6:1.2625 7:1.65 8:0.6500271 9:0.64844215 10:0.28416136 11:0.029833188 12:0.059701491 13:0.375 14:0.27296993 15:0.39655173 16:0.27860886 #
2 5:0.32995933 6:0.18263473 7:0.32934132 8:0.87131786 9:0.87979829 10:0.79449868 11:0.10596764 13:0.5151515 14:0.43916637 15:0.53797466 16:0.4508158 #
2 5:0.2819126 6:0.39754817 7:0.34500876 8:0.76686889 9:0.79128629 10:0.6290288 11:0.025155954 13:0.2962963 14:0.35696331 15:0.33976835 16:0.40643725 #
2 1:0 5:0.084814385 6:0.0063761957 7:0.1381509 8:0.71889395 9:0.71086842 10:0.058424782 11:0 13:0.17422435 14:0.16726848 15:0.20351759 16:0.19717894 #
2 5:0.38428491 6:0.083025828 7:0.0092250919 8:0.91785604 9:0.9248544 10:0.79332757 11:0.12567437 13:0.58846152 14:0.58696616 15:0.62962961 16:0.61828405 #
2 5:0.27809435 6:0.036437247 7:0.07692308 8:0.86378407 9:0.87483633 10:0.47060704 11:0.091821402 13:0.57763976 14:0.56829613 15:0.60927153 16:0.57935011 #
2 1:0 2:0 3:0 4:0 5:0.12571397 6:1.184265 7:1.4492754 8:0.78216547 9:0.77888471 10:0.045387402 11:0 12:0.034482758 13:0.24034335 14:0.17180002 15:0.25221238 16:0.1789359 #
-2 1:0 2:0 3:0 4:0.00050066755 5:0.032636318 6:0.26379311 7:0.19827586 8:0.62699175 9:0.6242649 10:0.22401819 11:0 13:0.17263843 14:0.19588336 15:0.21403509 16:0.2174968 #
2 5:0.10872135 6:0.16494845 7:0.082474224 8:0.56891233 9:0.58431309 10:0.40759599 11:0.012508798 13:0.42105263 14:0.4494895 15:0.46666667 16:0.48653364 #
2 5:0.352456 6:0.099650353 7:0.048951048 8:0.87020725 9:0.87964445 10:0.85170633 11:0.14953473 13:0.58536583 14:0.60971075 15:0.61742425 16:0.63702989 #
2 1:0 2:0 3:0 4:0.0011396011 5:0.027116308 6:0.7701422 7:0.76303315 8:0.60503948 9:0.58442122 10:0.023141949 11:0 13:0.10816777 14:0.16444434 15:0.117506 16:0.17500447 #
2 5:0.43363169 6:0.14141414 7:0.074074075 8:0.91954976 9:0.91726452 10:0.86610842 11:0.16292948 13:0.58565736 14:0.60947168 15:0.6111111 16:0.63754213 #
-2 1:0 2:0 3:0 4:4.2979325e-05 5:0.30444714 6:0.32481202 7:0.2781955 8:0.76090205 9:0.77139139 10:0.57278776 11:0.15510912 12:0.067567565 13:0.29392973 14:0.36352164 15:0.3447099 16:0.41413271 #
-2 1:0 2:0 3:0 4:0.00017685456 5:0.22727761 6:0.89252335 7:0.87694705 8:0.71927351 9:0.72095215 10:0.29780704 11:0.029269425 13:0.088932805 14:0.21655034 15:0.1123348 16:0.25515315 #
-2 1:0 2:0 3:0 4:0.00012800819 5:0.36918676 6:0.74709302 7:0.67441863 8:0.75369966 9:0.74562311 10:0.59952909 11:0.095114432 12:0.093023255 13:0.16149068 14:0.3089115 15:0.17647059 16:0.32907259 #
-2 1:0 2:0 3:0 4:0.00014422523 5:0.29673722 6:0.64852607 7:0.61678004 8:0.70603919 9:0.70269066 10:0.4027622 11:0.12722948 12:0.063492067 13:0.17889908 14:0.26547202 15:0.2029703 16:0.28992829 #
2 1:0 2:0 3:0 4:3.587058e-05 5:0.076883771 6:0.097872339 7:0.22021277 8:0.75005311 9:0.72904956 10:0.038866099 11:0 13:0.18575063 14:0.17854199 15:0.21832883 16:0.21052885 #
2 1:0 2:0 3:0 4:1.158856e-05 5:0.028950732 6:0.12598425 7:0.20866142 8:0.68547159 9:0.67539769 10:0.029258845 11:0 12:0.04587156 13:0.13375796 14:0.13793713 15:0.15333334 16:0.15083994 #
2 1:0 2:0 3:0 4:8.8472087e-05 5:0.038613975 6:0.16867469 7:0.23407917 8:0.70936477 9:0.69982862 10:0.044231392 11:0.0016938233 13:0.20748299 14:0.20036481 15:0.22261484 16:0.21201669 #
-2 1:0 2:0 3:0 4:0 5:0.048205331 6:0.37375414 7:0.29235882 8:0.62059313 9:0.60390711 10:0.13687795 11:0 12:0.064516127 13:0.18587361 14:0.22135238 15:0.22891566 16:0.25167587 #
-2 1:0 2:0 3:0 4:6.0543684e-05 5:0.086097777 6:0.38524589 7:0.50409836 8:0.66341108 9:0.67749459 10:0.14787717 11:0 12:0.048192769 13:0.21472393 14:0.21501723 15:0.26875001 16:0.24533406 #
2 5:0.49740729 6:0.12939002 7:0.011090573 8:0.91377848 9:0.91181988 10:0.78531373 11:0.1578586 12:0.51020408 13:0.62876254 14:0.63333684 15:0.66083914 16:0.65740025 #
-2 1:0 2:0 3:0 4:0.00055432372 5:0.27863979 6:0.045883942 7:0.080971658 8:0.85528046 9:0.85810322 10:0.56829065 11:0.058247104 12:0.048780486 13:0.44166666 14:0.45408303 15:0.48955223 16:0.49324703 #
-2 1:0 2:0 3:0 4:7.6628356e-05 5:0.058913771 6:2.7727273 7:3.028409 8:0.62979192 9:0.63655865 10:0.29874 11:0.0095223226 12:0.052631579 13:0.46551725 14:0.28672144 15:0.52173913 16:0.31083494 #
-2 1:0 2:0 3:0 4:0.00010451505 5:0.27909279 6:0.58861578 7:0.55498058 8:0.85457039 9:0.85945851 10:0.67118245 11:0.1128096 12:0.07272727 13:0.32777777 14:0.44623151 15:0.35568514 16:0.4705272 #
-2 1:0 2:0 3:0 4:0.00023510051 5:0.066460148 6:0.1281337 7:0.083565459 8:0.67057472 9:0.68458253 10:0.2484825 11:0.0094871176 12:0.03305785 13:0.38797814 14:0.37353733 15:0.42613637 16:0.39388672 #
-2 1:0 2:0 3:0 4:0.00078492938 5:0.12145371 6:0.04945055 7:0.15384616 8:0.6010446 9:0.5996114 10:0.30474609 11:0.017966971 12:0.071428575 13:0.31451613 14:0.31139958 15:0.32499999 16:0.3122499 #
-2 1:0 2:0 3:0 4:0.00027081923 5:0.11946399 6:1.1724138 7:1.453202 8:0.62548316 9:0.63726646 10:0.31285965 11:0.02477554 12:0.045977011 13:0.39455783 14:0.29818246 15:0.45833334 16:0.33471933 #
2 1:0.0012037751 2:0.0092043877 3:0.071428575 4:0.0071645682 5:0.17476755 6:0.90976489 7:0.90785849 8:0.86363697 9:0.86884451 10:0.70052463 11:0.024459582 13:0.087580763 14:0.22415419 15:0.11817368 16:0.28429466 #
2 1:0.00038530378 2:0.0072142063 3:0.13076924 4:0.00087643228 5:0.25867191 6:0.93099451 7:0.9266454 8:0.83747667 9:0.85332257 10:0.80445069 11:0.013583544 13:0.086438149 14:0.24617378 15:0.097165994 16:0.26025751 #
-2 1:0 2:0 3:0 4:0.00040004001 5:0.080343537 6:0.76605505 7:0.73165137 8:0.63370657 9:0.63993615 10:0.33700123 11:0.010681146 12:0.036363635 13:0.175 14:0.31046021 15:0.19396552 16:0.32625833 #
2 1:0 2:0 3:0 4:0.00025479618 5:0.036507659 6:0.81944442 7:0.8075397 8:0.60840386 9:0.58932668 10:0.02701338 11:0 13:0.074157305 14:0.13510372 15:0.085574575 16:0.14732175 #
-2 5:0.11613854 6:0.84072024 7:0.8261773 8:0.72974372 9:0.72660315 10:0.22279021 11:0.0090555046 12:0.03539823 13:0.11151079 14:0.22048265 15:0.12934363 16:0.24363153 #
2 5:0.018934138 6:0.66283524 7:0.73563218 8:0.61524338 9:0.60356885 10:0.012746392 11:0 12:0.057971016 13:0.14838709 14:0.12051138 15:0.147651 16:0.12178884 #
-2 1:7.3260071e-06 2:0 3:0 4:0.00015250544 5:0.13567121 6:0.93180132 7:0.92624164 8:0.72047693 9:0.71941704 10:0.28197536 11:0.0031865116 12:0.088888891 13:0.062363237 14:0.17149934 15:0.076433122 16:0.19468108 #
-2 1:0 2:0 3:0 4:0.000375848 5:0.17383023 6:0.93082708 7:0.92330825 8:0.66459703 9:0.66732323 10:0.23191749 11:0.028667826 12:0.093023255 13:0.084444441 14:0.22750005 15:0.097972974 16:0.2498886 #
2 5:0.17272241 6:0.032258064 7:0 8:0.69575125 9:0.68072945 10:0.3582119 11:0.043796789 13:0.5272727 14:0.5475598 15:0.56730771 16:0.58441627 #
-2 1:2.4529043e-05 2:0 3:0 4:7.4178475e-05 5:0.1149017 6:0.68947369 7:0.93684208 8:0.69066256 9:0.68318743 10:0.20968682 11:0.030046793 13:0.3140496 14:0.24550386 15:0.31355932 16:0.24645863 #
2 5:0.055930838 6:0.23015873 7:0.14814815 8:0.72873151 9:0.71522939 10:0.020670695 11:0 12:0.028776979 13:0.11594203 14:0.13255933 15:0.12820514 16:0.14022611 #
2 1:0 2:0 3:0 4:9.4867661e-05 5:0.034083199 6:0.38554215 7:0.32013768 8:0.70753968 9:0.69769776 10:0.046790104 11:0.0023621197 13:0.17346939 14:0.22038469 15:0.20141342 16:0.24264108 #
-2 1:0 2:0 3:0 4:0 5:0.045830112 6:0.53043479 7:0.49217391 8:0.66960967 9:0.66847879 10:0.29636562 11:0 12:0.040816326 13:0.18772563 14:0.24695016 15:0.22180451 16:0.27038631 #
-2 1:8.3005461e-06 2:0 3:0 4:0.0001654503 5:0.083858117 6:0.86902285 7:0.86382538 8:0.76917154 9:0.77742028 10:0.1075011 11:0.010490921 12:0.07272727 13:0.10213777 14:0.23950538 15:0.12911393 16:0.27511355 #
2 1:0 2:0 3:0 4:5.412427e-05 5:0.076908775 6:0.93020236 7:0.92319667 8:0.62430066 9:0.62332994 10:0.052336764 11:0.0041136267 13:0.052044611 14:0.13840914 15:0.065240644 16:0.1567352 #
-2 1:3.5265904e-05 2:0 3:0 4:0.00012368584 5:0.070770696 6:0.35593221 7:0.53107345 8:0.57494724 9:0.59522313 10:0.31899142 11:0 12:0.053333335 13:0.35714287 14:0.33410764 15:0.37704918 16:0.33669153 #
-2 1:0 2:0 3:0 4:0 5:0.079721898 6:0.91570437 7:0.90877599 8:0.56155872 9:0.56973106 10:0.32240778 11:0 13:0.092219017 14:0.21642876 15:0.0990991 16:0.22966562 #
-2 1:0 2:0 3:0 4:0.00015299878 5:0.068752386 6:0.75 7:0.875 8:0.44765264 9:0.44690758 10:0.37982145 11:0.0070186239 13:0.36170211 14:0.29223603 15:0.37234041 16:0.30294231 #
2 5:0.34385315 6:0.093055554 7:0.037500001 8:0.90535414 9:0.90787476 10:0.7480135 11:0.12190194 13:0.51940298 14:0.54159093 15:0.58585858 16:0.59806526 #
-2 1:0 2:0 3:0 4:0 5:0.12741463 6:0.81240547 7:0.80030257 8:0.56562841 9:0.56910497 10:0.23887989 11:0 13:0.15909091 14:0.28952044 15:0.1701389 16:0.3026768 #
-2 3:0 4:5.4653767e-05 5:0.13616569 6:0.06530612 7:0.26938775 8:0.57374549 9:0.57169235 10:0.28623208 11:0.015720036 13:0.3537415 14:0.32838905 15:0.36805555 16:0.33676767 #
2 1:0 2:0 3:0 4:0.00035193565 5:0.10509273 6:0.20675105 7:0.37834036 8:0.75499254 9:0.74701965 10:0.063730478 11:0 12:0.036036037 13:0.18205805 14:0.1743907 15:0.19337016 16:0.18702009 #
2 5:0.18913075 6:0.43661973 7:0.3943662 8:0.81395048 9:0.82076341 10:0.45113617 11:0.05315553 12:0.5945946 13:0.34242424 14:0.42621788 15:0.37223974 16:0.45843655 #
-2 1:0 2:0 3:0 4:0.00036170855 5:0.13623047 6:0.83236152 7:0.82215744 8:0.70772219 9:0.68805218 10:0.22068422 11:0.040890306 12:0.086956523 13:0.15753424 14:0.29910517 15:0.17100371 16:0.31756628 #
-2 1:6.4935489e-06 2:0 3:0 4:0.00014467593 5:0.14016496 6:0.75259256 7:0.74222225 8:0.71709794 9:0.71065336 10:0.18981077 11:0.047210444 12:0.057142857 13:0.13028169 14:0.2272286 15:0.15413533 16:0.25138712 #
2 5:0.35851169 6:0.083333336 7:0 8:0.79181981 9:0.81908315 10:0.87463939 11:0.14425744 13:0.6179775 14:0.65996635 15:0.64367819 16:0.67979991 #
-2 1:0 2:0 3:0 4:0 5:0.092693612 6:0.3943662 7:0.5 8:0.67672884 9:0.67091447 10:0.20092091 11:0.007187923 12:0.060606062 13:0.22171946 14:0.18674247 15:0.26066351 16:0.20326225 #
-2 1:0 2:0.00068306009 3:0 4:0.00013128058 5:0.20729521 6:0.25203252 7:0.38414633 8:0.769934 9:0.77299428 10:0.48944905 11:0.036356263 12:0.045977011 13:0.41319445 14:0.40014777 15:0.46014494 16:0.41704175 #
-2 1:0 2:0 3:0 4:3.2834254e-05 5:0.069079965 6:0.18342152 7:0.12169312 8:0.58568347 9:0.58194178 10:0.20120446 11:0 13:0.28518519 14:0.26920775 15:0.31225297 16:0.28966311 #
-2 1:0 2:0 3:0 4:0 5:0.13706994 6:0.65130568 7:0.61597544 8:0.662193 9:0.66645855 10:0.39306495 11:0.0055185277 13:0.19453925 14:0.27346933 15:0.2241993 16:0.30584326 #
-2 1:0 2:0.00034578147 3:0 4:5.1835679e-05 5:0.13437314 6:0.53835022 7:0.46599132 8:0.77269834 9:0.77029449 10:0.25644243 11:0.0065707052 12:0.051948052 13:0.18302387 14:0.25918278 15:0.21008404 16:0.28949979 #
-2 1:0 2:0 3:0 4:0.00013075313 5:0.075889923 6:0.11976048 7:0.2754491 8:0.50160605 9:0.5062269 10:0.29252794 11:0.0058811321 13:0.33333334 14:0.30656767 15:0.35789475 16:0.31843919 #
2 1:0.00038606726 2:0.010727311 3:0.039999999 4:0.002063185 5:0.28224474 6:0.59213573 7:0.5705474 8:0.87705576 9:0.88611209 10:0.83395183 11:0.062709808 13:0.29636362 14:0.42454809 15:0.35095137 16:0.46975949 #
2 1:0.022486772 2:0.12244898 3:0.033950616 4:0.00375328 5:0.17462957 6:0.26739928 7:0.35897437 8:0.83603221 9:0.830643 10:0.87040037 11:0.041552123 12:0.45238096 13:0.5 14:0.44389677 15:0.52201259 16:0.46660888 #
2 1:0 2:0 3:0 4:0.0001206033 5:0.05231829 6:1.7205882 7:2.1593137 8:0.64250451 9:0.63157767 10:0.05980774 11:0.0024215756 12:0.037037037 13:0.2977528 14:0.18183735 15:0.34104046 16:0.20560113 #
-2 1:1.5757958e-05 2:0 3:0 4:0.0002022007 5:0.073264495 6:0.80064309 7:0.79099679 8:0.5677287 9:0.56949478 10:0.36254421 11:0.017282529 12:0.070175439 13:0.10714286 14:0.20465632 15:0.125 16:0.22140372 #
-2 1:0 2:0 3:0 4:5.6511544e-05 5:0.084369577 6:2.9268293 7:3.5 8:0.65539581 9:0.65370303 10:0.32986724 11:0 12:0.012658228 13:0.43103448 14:0.24492361 15:0.46551725 16:0.26207417 #
2 1:0 3:0 4:0.00010438413 5:0.067138262 6:0.76069731 7:0.70839936 8:0.64871222 9:0.64605421 10:0.037878454 11:0 13:0.080808081 14:0.13159034 15:0.096774191 16:0.15273996 #
-2 1:0 2:0 3:0 4:0.00029835006 5:0.083428159 6:0.91150445 7:1.1769911 8:0.52528429 9:0.51156217 10:0.3134917 11:0.006661783 12:0.057971016 13:0.35294119 14:0.25167927 15:0.37878788 16:0.26387522 #
2 1:0 2:0 3:0 4:0.00030332056 5:0.011801985 6:0.61381072 7:0.65728903 8:0.64268523 9:0.63599145 10:0.018360648 11:0 13:0.070422538 14:0.12062384 15:0.075987846 16:0.12797144 #
-2 1:0 2:0 3:0 4:2.4174735e-05 5:0.10081339 6:0.22 7:0.12 8:0.63663322 9:0.63569099 10:0.29896566 11:0.024906775 12:0.04040404 13:0.28421053 14:0.27840969 15:0.28723404 16:0.28131106 #
2 1:0 2:0 3:0 4:0 5:0.0396934 6:0.66975307 7:0.8611111 8:0.66460019 9:0.65918738 10:0.036018591 11:0 12:0.04040404 13:0.1878453 14:0.14303239 15:0.23121387 16:0.17027135 #
-2 1:0 2:0 3:0 4:0.00035558266 5:0.15292707 6:0.60623229 7:0.57790369 8:0.71662748 9:0.71518302 10:0.17069145 11:0.02072233 12:0.079999998 13:0.17613636 14:0.23024316 15:0.20496894 16:0.25751403 #
2 5:0.19239444 6:0.13636364 7:0.125 8:0.63245553 9:0.68316489 10:0.6823436 11:0.082918502 13:0.49230769 14:0.51176631 15:0.60317463 16:0.61298299 #
2 5:0.1815947 6:0.14070351 7:0.035175879 8:0.72813302 9:0.73467332 10:0.62513322 11:0.081795201 13:0.50806451 14:0.50399953 15:0.57627118 16:0.55990314 #
-2 1:0 2:0 3:0 4:0.00012985326 5:0.12970825 6:0.68917018 7:0.65682137 8:0.75593251 9:0.75506473 10:0.20875333 11:0.018273959 12:0.036036037 13:0.16886544 14:0.27071926 15:0.1878453 16:0.28894082 #
2 1:0 2:0 3:0 4:2.8830076e-05 5:0.092917889 6:0.13145539 7:0.0086071985 8:0.75072068 9:0.73741579 10:0.053104375 11:0 12:0.03773585 13:0.12076584 14:0.15311317 15:0.15348837 16:0.17867009 #
-2 1:0 2:0 3:0 4:1.3361125e-05 5:0.046562277 6:0.97959185 7:1.1224489 8:0.54378891 9:0.54569966 10:0.33424458 11:0.0079979524 12:0.032258064 13:0.41666666 14:0.32069728 15:0.44285715 16:0.3340874 #
2 5:0.23764302 6:0.19672132 7:0.18852459 8:0.70819759 9:0.72092265 10:0.72998589 11:0.074535601 13:0.53333336 14:0.60535359 15:0.54545456 16:0.60725451 #
-2 1:0 2:0.00080906152 3:0 4:7.5250209e-05 5:0.1440881 6:0.66523606 7:0.62875539 8:0.737028 9:0.73700839 10:0.18284547 11:0.031569056 12:0.06779661 13:0.23963134 14:0.33505183 15:0.26442307 16:0.36527318 #
-2 1:0 2:0 3:0 4:6.0052847e-05 5:0.24993078 6:0.26258206 7:0.3522976 8:0.81126869 9:0.81424248 10:0.4961153 11:0.02193892 13:0.39810428 14:0.34222275 15:0.44607842 16:0.37094992 #
-2 1:0 2:0 3:0 4:0 5:0.080374636 6:0.4273743 7:0.37150839 8:0.47143403 9:0.47607362 10:0.30546963 11:0.0039796759 13:0.23316061 14:0.2887378 15:0.26111111 16:0.30262807 #
2 5:0.27595186 6:0.16826923 7:0.1201923 8:0.76858562 9:0.78632265 10:0.65730834 11:0.11785522 13:0.5703125 14:0.5890162 15:0.59166664 16:0.60971731 #
2 1:9.4553707e-06 2:0 3:0 4:0.00018218841 5:0 6:0.41860464 7:0.48837209 8:0.55701005 9:0.55756581 10:0.013844155 11:0 12:0.059701491 13:0.12087912 14:0.11307207 15:0.13186814 16:0.1245548 #
-2 1:0 2:0.0083333338 3:0 4:0.00017381983 5:0.094156958 6:0.8119266 7:0.96330273 8:0.66598111 9:0.66912544 10:0.29561558 11:0.023029109 12:0.047619049 13:0.37007874 14:0.30444345 15:0.4105691 16:0.33209315 #
-2 1:0 2:0 3:0 4:0 5:0.13073748 6:0.039772727 7:0.085227273 8:0.64911616 9:0.65658957 10:0.30552784 11:0 12:0.055555556 13:0.25203252 14:0.2606515 15:0.28099173 16:0.29076827 #
-2 1:0 2:0 3:0 4:0.00013361692 5:0.078459427 6:0.52234638 7:0.45251396 8:0.51795632 9:0.52686745 10:0.35478979 11:0.01698824 13:0.22872341 14:0.28400102 15:0.26519337 16:0.3230145 #
2 1:0 2:0 3:0 4:0.00059523812 5:0.022678377 6:0.77464789 7:0.88732392 8:0.69942218 9:0.68049681 10:0.040117033 11:0 13:0.14410481 14:0.13602841 15:0.14611872 16:0.14166088 #
2 5:0.2638 6:0.011764706 7:0.011764706 8:0.6742453 9:0.69993967 10:0.71926326 11:0.067573741 13:0.45901638 14:0.46774194 15:0.5 16:0.50421947 #
-2 1:7.1186537e-06 2:0 3:0 4:0.00014684288 5:0.13854659 6:0.82999998 7:0.82333332 8:0.75509512 9:0.75490069 10:0.19032633 11:0.042955268 12:0.081632651 13:0.12715517 14:0.25903794 15:0.15625 16:0.29462782 #
-2 1:0 2:0 3:0 4:0.00025061838 5:0.15639262 6:0.028469751 7:0.12099644 8:0.79932338 9:0.80446827 10:0.24902804 11:0.0071963752 13:0.25337839 14:0.25222757 15:0.27874565 16:0.26564735 #
2 5:0.32111016 6:0.23913044 7:0.20652173 8:0.83628678 9:0.85838509 10:0.70984805 11:0.13614582 13:0.56060606 14:0.62598634 15:0.60317463 16:0.66391373 #
-2 1:0 2:0 3:0 4:2.6393582e-05 5:0.19511603 6:0.40224358 7:0.34615386 8:0.73398685 9:0.74943787 10:0.49638417 11:0.035727106 13:0.29874215 14:0.36230367 15:0.32247558 16:0.38180706 #
-2 1:0 2:0 3:0 4:1.2357121e-05 5:0.079572052 6:1.5166667 7:1.9416667 8:0.54963803 9:0.55017269 10:0.21144494 11:0.010728064 13:0.35955057 14:0.24416101 15:0.375 16:0.25387621 #
-2 1:0 2:0 5:0.095971487 6:0.17791411 7:0.10429448 8:0.6514923 9:0.6560427 10:0.27414316 11:0.023273302 12:0.043010753 13:0.31132075 14:0.32076898 15:0.33663365 16:0.33174285 #
2 1:0.0010338589 2:0.015599343 3:0.0075187972 4:0.00059220119 5:0.16765679 6:0.84460694 7:0.84186471 8:0.79992968 9:0.76817065 10:0.54507494 11:0.022970274 13:0.13773796 14:0.29261586 15:0.16862746 16:0.34015751 #
-2 1:0 2:0 3:0 4:0.00015493897 5:0.2149605 6:0.36781609 7:0.32439336 8:0.72887939 9:0.73064262 10:0.33205345 11:0.0067329765 13:0.26426426 14:0.30496415 15:0.29022083 16:0.32358479 #
-2 5:0.12029576 6:0.35747662 7:0.4906542 8:0.76886809 9:0.76599908 10:0.36601838 11:0.00199598 13:0.25114155 14:0.21548027 15:0.28019324 16:0.23921238 #
-2 1:0 2:0 3:0 4:3.6671678e-05 5:0.028325906 6:0.16949153 7:0.22457626 8:0.56059694 9:0.56767589 10:0.27325815 11:0.004227886 12:0.071428575 13:0.23809524 14:0.22821774 15:0.26206896 16:0.25852734 #
2 1:0 3:0 4:0 5:0.028867608 6:0.064516127 7:0.16873449 8:0.60505062 9:0.57929599 10:0.05151714 11:0 12:0.0625 13:0.18131869 14:0.15708452 15:0.21022727 16:0.17781886 #
2 1:0 2:0 3:0 4:1.1466575e-05 5:0.0058652037 6:0.07272727 7:0.13636364 8:0.58761382 9:0.5711785 10:0.022163477 11:0 12:0.043859649 13:0.14361702 14:0.14315099 15:0.16483517 16:0.15493587 #
-2 1:0 2:0 3:0 4:0.00017119937 5:0.13816991 6:0.17083947 7:0.18998528 8:0.66200405 9:0.66218144 10:0.27225828 11:0.016283184 12:0.05882353 13:0.27795526 14:0.28855675 15:0.30434781 16:0.30537084 #
2 1:0 2:0 3:0 4:0 5:0.011385389 6:1.1944444 7:1.2777778 8:0.56397611 9:0.5558725 10:0.11380227 11:0 13:0.18435754 14:0.15838815 15:0.22839506 16:0.19423175 #
-2 1:0 2:0 3:0 4:4.208754e-05 5:0.077636316 6:0.21951219 7:0.12195122 8:0.63170087 9:0.62205398 10:0.25654688 11:0.012106029 13:0.22797927 14:0.26122537 15:0.23913044 16:0.26937655 #
2 5:0.043690138 6:0.64876956 7:0.62639821 8:0.71419609 9:0.70771736 10:0.019132497 11:0 12:0.048543688 13:0.084070794 14:0.13143679 15:0.09259259 16:0.13676833 #
-2 1:7.8048779e-06 2:0 3:0 4:0.00014467593 5:0.15706944 6:0.7012012 7:0.67867869 8:0.75242025 9:0.74814916 10:0.30235744 11:0.021866459 12:0.083333336 13:0.17350158 14:0.2762982 15:0.19594595 16:0.3039692 #
2 1:0 2:0 3:0 4:2.9117167e-05 5:0.05677022 6:0.65620327 7:0.68011957 8:0.74490124 9:0.73359013 10:0.061011259 11:0 13:0.16207951 14:0.16616093 15:0.1791531 16:0.18626632 #
-2 5:0.0593521 6:0.14675768 7:0.075085327 8:0.67411774 9:0.68119067 10:0.26168668 11:0.0040604807 12:0.051948052 13:0.25531915 14:0.27895519 15:0.27717391 16:0.2875168 #
2 1:0 2:0 3:0 4:1.3005254e-05 5:0.015383832 6:0.66281754 7:0.64780599 8:0.58966929 9:0.58839923 10:0.026788784 11:0 12:0.048076924 13:0.11815562 14:0.17031813 15:0.12312312 16:0.17762405 #
-2 1:0 2:0 3:0 4:0.00013266999 5:0.26120397 6:0.12332439 7:0.30294907 8:0.81830525 9:0.82174748 10:0.61000377 11:0.094605841 12:0.057971016 13:0.35643566 14:0.34474424 15:0.39195979 16:0.36618507 #
-2 1:0 2:0 3:0 4:6.2320825e-05 5:0.1046908 6:0.10208817 7:0.0023201855 8:0.77909422 9:0.77465284 10:0.26736885 11:0.0050837784 13:0.21600001 14:0.22973524 15:0.23430963 16:0.24878326 #
2 5:0.33105704 6:0.1262136 7:0.038834952 8:0.90762156 9:0.90618771 10:0.57781273 11:0.1352274 13:0.52715653 14:0.53441709 15:0.58781362 16:0.57755429 #
-2 1:0 2:0 3:0 4:0.00016378406 5:0.34656981 6:0.47405902 7:0.41810784 8:0.84000409 9:0.84354907 10:0.57301444 11:0.13759392 13:0.4173913 14:0.50550395 15:0.44968554 16:0.52991319 #
2 1:0 2:0 3:0 4:5.4525626e-05 5:0.072686754 6:0.93075645 7:0.92435378 8:0.67885149 9:0.66977024 10:0.042360555 11:0 12:0.06779661 13:0.055752214 14:0.14434159 15:0.071721308 16:0.1642921 #
-2 1:0 2:0 3:0 4:0.00018853696 5:0.40974319 6:0.62555718 7:0.91827637 8:0.88829839 9:0.88532412 10:0.58024663 11:0.098990113 12:0.052631579 13:0.30259365 14:0.25353372 15:0.36307693 16:0.29012251 #
2 1:1.684551e-05 2:0 3:0 4:6.5404158e-05 5:0.010875277 6:0.67375886 7:0.62647754 8:0.67157269 9:0.66965026 10:0.019206302 11:0 12:0.078431375 13:0.1042654 14:0.16744219 15:0.1127451 16:0.17166092 #
2 1:0 2:0 3:0 4:2.6912105e-05 5:0.043291863 6:0.88607597 7:1 8:0.69057983 9:0.67176169 10:0.031424511 11:0 13:0.13494809 14:0.12836164 15:0.18050541 16:0.16364968 #
-2 1:4.4931705e-05 2:0 3:0 4:0 5:0.10558404 6:0.1693989 7:0.079234973 8:0.70628291 9:0.70808178 10:0.31239471 11:0.024838733 12:0.037500001 13:0.36686391 14:0.33808181 15:0.38036808 16:0.34865591 #
-2 1:0 2:0 3:0 4:7.644383e-05 5:0.046820734 6:0.61417323 7:0.5774278 8:0.54817009 9:0.56781065 10:0.33491674 11:0 13:0.098712444 14:0.16227268 15:0.12962963 16:0.19051588 #
-2 1:0 2:0 3:0 4:0 5:0.091923885 6:0.625323 7:0.59948319 8:0.60690939 9:0.60136425 10:0.20163821 11:0.0047065206 12:0.045977011 13:0.12365592 14:0.16457987 15:0.12568305 16:0.1667192 #
2 5:0.41581395 6:0.1434263 7:0.053784862 8:0.8813197 9:0.89024734 10:0.85351366 11:0.17074414 13:0.60311282 14:0.61927199 15:0.64876032 16:0.64876032 #
2 5:0.41353667 6:0.14634146 7:0.069319643 8:0.92589653 9:0.92926878 10:0.82123464 11:0.15501606 13:0.57692307 14:0.58893132 15:0.61237782 16:0.61337763 #
2 1:0.00070284237 2:0.0055139139 3:0.075000003 4:0.0057454756 5:0.16788885 6:0.90417594 7:0.89953601 8:0.8209402 9:0.81685108 10:0.6021598 11:0.0076546031 13:0.088720769 14:0.2202941 15:0.11483654 16:0.2621094 #
-2 1:0 2:0 3:0 4:0.00011035841 5:0.19112419 6:0.18556701 7:0.14639175 8:0.70932382 9:0.70453525 10:0.31970221 11:0.038070451 13:0.31983805 14:0.3285982 15:0.34583333 16:0.35250598 #
-2 1:0 2:0 3:0 4:0 5:0.12103759 6:0.61198735 7:0.56466877 8:0.66454715 9:0.6608265 10:0.16049354 11:0.010914306 13:0.26380369 14:0.34531319 15:0.27215189 16:0.34733939 #
2 5:0.26440731 6:0.050000001 7:0.0625 8:0.76982421 9:0.7886337 10:0.82902038 11:0.13801311 13:0.49180329 14:0.51695395 15:0.53448278 16:0.53915083 #
2 1:0 2:0 3:0 4:0.00010180283 5:0.081594303 6:0.76497698 7:0.75921661 8:0.62288713 9:0.61763996 10:0.048607092 11:0 12:0.048780486 13:0.088167056 14:0.17129004 15:0.095693782 16:0.18404865 #
2 1:0 2:0 3:0 4:9.4813688e-05 5:0.010775918 6:0.90479499 7:0.90479499 8:0.57233363 9:0.56095737 10:0.021445991 11:0 12:0.065573767 13:0.047709923 14:0.10976321 15:0.056155507 16:0.12462895 #
2 1:0 2:0 3:0 4:1.1716187e-05 5:0.061710414 6:0.87634408 7:0.86881721 8:0.71931946 9:0.70701897 10:0.024953006 11:0 12:0.043478262 13:0.058375634 14:0.12874703 15:0.061662197 16:0.13484229 #
-2 1:0 2:0 3:0 4:1.2832358e-05 5:0.089458875 6:0.55492955 7:0.48450705 8:0.61160189 9:0.60913175 10:0.38142782 11:0.04291885 13:0.20975609 14:0.27302274 15:0.22 16:0.28520963 #
2 5:0.27120143 6:0.080808081 7:0.02020202 8:0.69448245 9:0.75218046 10:0.72777766 11:0.10591167 13:0.5714286 14:0.5656383 15:0.55882353 16:0.54688996 #
-2 1:0 2:0 3:0 4:0.00053022272 5:0.15403441 6:0.28709289 7:0.25693607 8:0.75496674 9:0.71605843 10:0.17671563 11:0.018244121 13:0.18644068 14:0.22070681 15:0.22251309 16:0.24861455 #
2 1:0 2:0 3:0 4:0 5:0.074011192 6:1.1606426 7:1.3333334 8:0.64311856 9:0.63863128 10:0.036457103 11:0 12:0.03539823 13:0.23333333 14:0.16775061 15:0.24489796 16:0.175882 #
2 5:0.034851339 6:1.2542373 7:1.3220339 8:0.6063422 9:0.59416872 10:0.020435486 11:0 12:0.03960396 13:0.24418604 14:0.18307303 15:0.24705882 16:0.19047669 #
2 1:0 5:0.12592389 6:0.014584346 7:0.052989792 8:0.69812274 9:0.66734797 10:0.072166406 11:0.00083199539 13:0.12749004 14:0.15850736 15:0.15820029 16:0.19841744 #
-2 1:0 2:0 3:0 4:0.00037202382 5:0.1872974 6:0.4891775 7:0.43578643 8:0.71845853 9:0.72430176 10:0.3067559 11:0.029464871 13:0.26366559 14:0.30521047 15:0.2781457 16:0.31734511 #
2 1:0 2:0 3:0 4:7.5647542e-05 5:0.054443553 6:0.76488096 7:0.94345236 8:0.67058462 9:0.6574471 10:0.01725572 11:0 13:0.12637363 14:0.12301385 15:0.13483146 16:0.1301621 #
-2 1:0 2:0 3:0 4:0.00044079436 5:0.16769235 6:0.95272148 7:0.95629716 8:0.62209243 9:0.62957019 10:0.43624398 11:0.030001018 12:0.061538462 13:0.067867033 14:0.20781749 15:0.081469648 16:0.23229381 #
-2 5:0.047613539 6:0.50847459 7:0.66101694 8:0.56741071 9:0.57477343 10:0.32505319 11:0.0075592897 13:0.41860464 14:0.33917016 15:0.42352942 16:0.34246907 #
2 1:0.00059232028 2:0.0046863533 3:0.059233449 4:0.0012319264 5:0.23430525 6:0.95556486 7:0.95242089 8:0.86003196 9:0.85693419 10:0.59137255 11:0.013688977 13:0.073914915 14:0.23575132 15:0.096774191 16:0.27628756 #
-2 1:6.1425062e-06 2:0 3:0 4:0.00014387307 5:0.20592031 6:0.93585175 7:0.9337135 8:0.72056788 9:0.7217766 10:0.36550209 11:0.040125798 12:0.063492067 13:0.080645159 14:0.22051883 15:0.099270076 16:0.24885729 #
-2 1:0 2:0 3:0 4:0 5:0.081548214 6:0.35123041 7:0.2147651 8:0.59795392 9:0.60178441 10:0.24791321 11:0.0055694967 13:0.2920354 14:0.31366339 15:0.31481481 16:0.33133304 #
-2 1:0 2:0 3:0 4:0.00047143866 5:0.096904807 6:0.23007247 7:0.29891303 8:0.59513879 9:0.58590055 10:0.32045755 11:0.0072420998 12:0.083333336 13:0.28404668 14:0.24916272 15:0.32217574 16:0.2819775 #
2 1:0.00043604651 2:0.0060790274 3:0.023076924 4:0.0016315986 5:0.17198879 6:0.86209106 7:0.85760105 8:0.78302318 9:0.77917057 10:0.63207293 11:0.035614155 13:0.13534483 14:0.28754386 15:0.16768293 16:0.33468628 #
2 1:0.0009931539 2:0.0094366195 3:0.06666667 4:0.0037615742 5:0.2866286 6:0.75133687 7:0.74123591 8:0.91262031 9:0.91085172 10:0.72816253 11:0.031534925 13:0.17413355 14:0.3170726 15:0.20676328 16:0.35606632 #
2 1:0 2:0 3:0 4:0.00027830788 5:0.047602002 6:1.3782383 7:1.4905008 8:0.67159617 9:0.66225284 10:0.035704102 11:0 13:0.15957446 14:0.13045838 15:0.19557196 16:0.15635374 #
-2 1:0 2:0 3:0 4:0.00024159592 5:0.19821544 6:0.9447059 7:0.9329412 8:0.69226986 9:0.69061643 10:0.42807043 11:0.040834073 12:0.07272727 13:0.078809105 14:0.22666976 15:0.095419846 16:0.26106903 #
-2 1:0 2:0 3:0 4:7.8440469e-05 5:0.17867073 6:0.13602941 7:0.071691178 8:0.67456329 9:0.67617697 10:0.34630686 11:0.0082056504 13:0.30035335 14:0.31010452 15:0.32129964 16:0.32129964 #
2 1:0 2:0 3:0 4:0.00077972712 5:0.026666667 6:0.78181821 7:0.77685952 8:0.64346641 9:0.63658732 10:0.020194197 11:0.00421682 13:0.053511705 14:0.098082013 15:0.057761732 16:0.1030672 #
2 1:0.0028395061 2:0.11111111 3:0.039999999 4:0.005676487 5:0.1176741 6:0.63089007 7:0.61780107 8:0.76456708 9:0.76877046 10:0.4609597 11:0.0046446361 12:0.83783782 13:0.25125629 14:0.35882965 15:0.27659574 16:0.37188423 #
-2 5:0.1871421 6:0.79190749 7:0.77745664 8:0.67758447 9:0.66504711 10:0.39349374 11:0.034549374 12:0.074074075 13:0.12459017 14:0.23600663 15:0.13937283 16:0.25916716 #
2 1:0 2:0 3:0 4:6.8198868e-05 5:0.09187261 6:0.19352351 7:0.15805705 8:0.7363705 9:0.71939588 10:0.045338318 11:0 13:0.19955157 14:0.1961402 15:0.2256532 16:0.21753716 #
2 1:0 2:0 3:0 4:0.00015294646 5:0.022271965 6:0.66482913 7:0.63285559 8:0.63765728 9:0.63379139 10:0.048610773 11:0 13:0.11398964 14:0.16853549 15:0.13714285 16:0.18762314 #
-2 1:0 2:0.00056306308 3:0 4:0.00039147603 5:0.10272473 6:0.27450982 7:0.23039216 8:0.60028625 9:0.62343419 10:0.23926264 11:0.026294176 12:0.053333335 13:0.27131784 14:0.29571843 15:0.30081302 16:0.31523916 #
-2 1:0 2:0 3:0 4:0.00016483202 5:0.10464333 6:0.722372 7:0.6981132 8:0.58967096 9:0.58171874 10:0.28053817 11:0.011894652 13:0.17258883 14:0.26979008 15:0.18617021 16:0.28018835 #
2 5:0.33717564 6:0.21582733 7:0.10071942 8:0.83301163 9:0.85325521 10:0.79931134 11:0.14313698 13:0.52127659 14:0.53775877 15:0.52747256 16:0.53638816 #
2 5:0.32763326 6:0.11538462 7:0.069230773 8:0.72985208 9:0.77283949 10:0.77133924 11:0.12796198 13:0.52222222 14:0.54457891 15:0.54651165 16:0.55968249 #
-2 1:0 2:0 3:0 4:8.6523905e-05 5:0.06418702 6:0.72531646 7:0.70886075 8:0.72699809 9:0.72550094 10:0.26724267 11:0 13:0.11886305 14:0.19675271 15:0.15235457 16:0.23557034 #
-2 1:0 2:0 3:0 4:0.00034545068 5:0.081844918 6:0.83630472 7:0.82658023 8:0.69806087 9:0.70157093 10:0.33388418 11:0.014011962 12:0.057142857 13:0.10469314 14:0.20639162 15:0.12156863 16:0.22567099 #
-2 1:0 2:0 3:0 4:2.7655376e-05 5:0.1871962 6:0.51223022 7:0.48776978 8:0.73036069 9:0.72784978 10:0.29444417 11:0.018627333 13:0.24561404 14:0.31879991 15:0.26524389 16:0.34138918 #
-2 1:0 2:0 3:0 4:0.00052110472 5:0.079722919 6:0.34015346 7:0.29411766 8:0.74373055 9:0.74308163 10:0.30820572 11:0 12:0.041237112 13:0.23963134 14:0.27612406 15:0.25471699 16:0.28872463 #
0.23141186289665682807026314549148 5:0.2974177 6:0.17948718 7:0.12820514 8:0.6749171 9:0.69742429 10:0.6387009 11:0.19313571 13:0.51764709 14:0.5694657 15:0.597561 16:0.62903279 #
2 1:0 2:0 3:0 4:4.3607186e-05 5:0.07761848 6:0.83440959 7:0.82426196 8:0.56005615 9:0.56246477 10:0.062005688 11:0 12:0.054054055 13:0.098273575 14:0.18198438 15:0.12158055 16:0.20837855 #
2 1:0.014492754 2:0.12 3:0.03888889 4:0.0060656606 5:0.37069899 6:0.24913494 7:0.1366782 8:0.90958643 9:0.91286349 10:0.64320767 11:0.10432991 12:0.46808511 13:0.5147059 14:0.53755301 15:0.5546875 16:0.56356305 #
2 1:0 2:0 3:0 4:0.00016630633 5:0.065963656 6:0.75523889 7:0.71248955 8:0.55669153 9:0.55040735 10:0.046714731 11:0 13:0.12691467 14:0.20780833 15:0.15291262 16:0.23804961 #
-2 3:0 4:0 5:0.071428575 6:0.16913946 7:0.34718102 8:0.58481044 9:0.58479643 10:0.26827061 11:0.0054183831 12:0.059701491 13:0.28723404 14:0.27680993 15:0.32044199 16:0.29539213 #
2 1:0.00055276306 2:0.0046665664 3:0.063636363 4:0.0022604272 5:0.30020249 6:0.80488521 7:0.79370219 8:0.88799095 9:0.88478357 10:0.89219737 11:0.057280965 13:0.18259224 14:0.34060213 15:0.22824858 16:0.39334315 #
-2 1:0 2:0 3:0 4:0.00035503914 5:0.12099445 6:0.78185326 7:0.76447874 8:0.67011279 9:0.66788548 10:0.37927109 11:0.009792868 12:0.059701491 13:0.14403293 14:0.24851829 15:0.16371681 16:0.26853931 #
2 5:0.22786635 6:0.034482758 7:0.034482758 8:0.63836914 9:0.66472387 10:0.66916054 11:0.14765432 13:0.54929578 14:0.55719972 15:0.5714286 16:0.58408165 #
-2 1:0 2:0 3:0 4:4.2252927e-05 5:0.20537183 6:0.57210779 7:0.51188588 8:0.79981178 9:0.80002135 10:0.19456181 11:0.0071608834 13:0.21904762 14:0.28643337 15:0.24333334 16:0.31070864 #
-2 1:0 2:0 3:0 4:0.00035222637 5:0.20844249 6:0.59060401 7:0.5704698 8:0.67017561 9:0.66521883 10:0.35028714 11:0.007941762 12:0.074074075 13:0.19270833 14:0.26183906 15:0.22346368 16:0.29602841 #
-2 1:0 2:0 3:0 4:3.070923e-05 5:0.15299378 6:0.76827371 7:0.7340591 8:0.80117989 9:0.79922628 10:0.2850194 11:0.0015634125 13:0.11149826 14:0.20163979 15:0.13232514 16:0.22621995 #
2 5:0.23742458 6:0.13114753 7:0.032786883 8:0.64671111 9:0.66035551 10:0.5294075 11:0.078446455 13:0.56 14:0.59029186 15:0.5714286 16:0.59628481 #
2 5:0.17627662 6:0.19117647 7:0.044117648 8:0.59361351 9:0.67249268 10:0.53823167 11:0.072098412 13:0.46000001 14:0.47527081 15:0.52083331 16:0.52083331 #
2 1:0 2:0 3:0 4:0.00070028013 5:0.052356739 6:0.77030814 7:0.76190478 8:0.68791217 9:0.67686105 10:0.022954939 11:0 13:0.061919503 14:0.12264883 15:0.076411963 16:0.13601375 #
2 5:0.085152663 6:0.10906515 7:0.090651557 8:0.72476113 9:0.70670742 10:0.041271515 11:0.0013494773 13:0.11246201 14:0.13557531 15:0.14696486 16:0.17411381 #
-2 1:0 2:0 3:0 4:2.5407278e-05 5:0.063591547 6:0.22314049 7:0.31955922 8:0.60567188 9:0.60777944 10:0.31245571 11:0 12:0.05882353 13:0.34210527 14:0.28956282 15:0.35754189 16:0.29496846 #
-2 1:0 2:0 3:0 4:0.00016923338 5:0.13892885 6:0.80715704 7:0.80318093 8:0.63525385 9:0.64223915 10:0.32484493 11:0.030036066 12:0.034482758 13:0.19354838 14:0.31679398 15:0.21327014 16:0.3442142 #
-2 1:0 2:0 3:0 4:0.0002980213 5:0.10227392 6:0.20824742 7:0.15876289 8:0.71647733 9:0.71558994 10:0.31788728 11:0.016869919 12:0.056338027 13:0.27826086 14:0.2791203 15:0.29545453 16:0.29022485 #
-2 1:0 2:0 3:0 4:0.0001958608 5:0.11178689 6:0.67666668 7:0.70666665 8:0.7078625 9:0.70427269 10:0.23307154 11:0.0030640701 12:0.060606062 13:0.30769232 14:0.24979588 15:0.32203391 16:0.25378489 #
-2 1:6.8689337e-06 2:0 3:0 4:0.00014387307 5:0.17368822 6:0.72262776 7:0.70802921 8:0.74149209 9:0.74465984 10:0.32313612 11:0.025434921 12:0.075471699 13:0.18181819 14:0.28191665 15:0.21052632 16:0.31404608 #
2 1:0 2:0 3:0 4:0.00013419216 5:0.067802452 6:0.3965798 7:0.45846906 8:0.72129416 9:0.69041181 10:0.075184658 11:0.0015905402 13:0.15306123 14:0.17088151 15:0.18930958 16:0.20364788 #
-2 1:0 2:0 3:0 4:0.00017780939 5:0.1182277 6:0.19622642 7:0.11886793 8:0.77754205 9:0.77446091 10:0.21757019 11:0 12:0.036697246 13:0.22340426 14:0.23560624 15:0.24542125 16:0.25052026 #
-2 1:0 2:0 3:0 4:0 5:0.12784602 6:0.89883476 7:0.88400424 8:0.75452775 9:0.74858558 10:0.1812799 11:0.0056085349 12:0.055555556 13:0.10222222 14:0.23086348 15:0.13014828 16:0.27597255 #
2 5:0.22566773 6:0.11428571 7:0.13333334 8:0.65227586 9:0.7078774 10:0.66137296 11:0.098028615 13:0.45333335 14:0.45638612 15:0.49315068 16:0.49656352 #
-2 1:0 2:0 3:0 4:2.2889581e-05 5:0.079533011 6:0.24844721 7:0.14906833 8:0.62922043 9:0.6453253 10:0.38914523 11:0.023495652 12:0.038834952 13:0.26168224 14:0.29188845 15:0.29807693 16:0.33166939 #
2 1:0 2:0 3:0 4:0 5:0.0096649565 6:0.46666667 7:0.42399999 8:0.6353209 9:0.62536234 10:0.049182251 11:0 13:0.070539422 14:0.1136584 15:0.086956523 16:0.12631439 #
2 5:0.031781025 6:0.17491749 7:0.24422443 8:0.6455996 9:0.62670141 10:0.026857292 11:0 12:0.033898305 13:0.14035088 14:0.12695214 15:0.14457831 16:0.13204764 #
2 1:0 2:0 3:0 4:4.7429781e-05 5:0.013333334 6:0.72097051 7:0.71750432 8:0.62435728 9:0.61588091 10:0.027171148 11:0 13:0.065068491 14:0.11457227 15:0.078853048 16:0.1310569 #
-2 1:0 2:0 3:0 4:8.6275322e-06 5:0.15235591 6:0.82702953 7:0.80350554 8:0.65371352 9:0.65070432 10:0.28980175 11:0.011663666 12:0.02919708 13:0.1434263 14:0.2674824 15:0.17629179 16:0.30912787 #
-2 1:3.4674063e-05 2:0 3:0 4:0.00013421275 5:0.089760773 6:0.17336683 7:0.062814072 8:0.72019875 9:0.72854137 10:0.3290529 11:0.0052859578 12:0.06779661 13:0.21428572 14:0.24572107 15:0.23144105 16:0.26475191 #
-2 1:0 2:0 3:0 4:0.00027631095 5:0.14723359 6:0.76643598 7:0.716263 8:0.66377693 9:0.66474301 10:0.310891 11:0.017826246 13:0.1732852 14:0.28957102 15:0.18796992 16:0.30207208 #
-2 1:0 2:0 3:0 4:0 5:0.086663924 6:0.27338129 7:0.40647483 8:0.69872802 9:0.69311082 10:0.25801539 11:0.010193355 12:0.042105265 13:0.32653061 14:0.26999974 15:0.33333334 16:0.27937213 #
2 1:0.00050611678 2:0.0045432644 3:0.083333336 4:0.0073563219 5:0.13497414 6:0.2 7:0.15428571 8:0.78872883 9:0.80035758 10:0.58061564 11:0.01343929 13:0.26439792 14:0.31201366 15:0.31355932 16:0.34643546 #
2 1:0.000921659 2:0.01177394 3:0.005050505 4:0.0013360272 5:0.27314746 6:0.27714932 7:0.1979638 8:0.86051136 9:0.8631227 10:0.51761556 11:0.078688614 13:0.27990431 14:0.33358076 15:0.30690536 16:0.36332121 #
2 1:0.0011871358 2:0.016771488 3:0.042857144 4:0.0031187346 5:0.21037196 6:0.41282302 7:0.36277395 8:0.79778856 9:0.77884901 10:0.41877267 11:0.0090207532 13:0.26750973 14:0.31743437 15:0.311804 16:0.34797835 #
-2 1:0 2:0 3:0 4:0.00014646382 5:0.13894564 6:0.62919706 7:0.59270072 8:0.76978368 9:0.76596022 10:0.29786217 11:0.026980164 12:0.057971016 13:0.19407895 14:0.26665351 15:0.22627737 16:0.29611227 #
-2 1:0 2:0 3:0 4:7.4847099e-05 5:0.12480615 6:0.37078652 7:0.2883895 8:0.6838147 9:0.68650353 10:0.34664121 11:0.0142 13:0.26896551 14:0.30615777 15:0.31159419 16:0.33276391 #
2 1:0.0015625 2:0 3:0 4:0 5:0.016481014 6:0.17307693 7:0.16758242 8:0.53154087 9:0.50512505 10:0.02361656 11:0 13:0.084507041 14:0.12556534 15:0.095959596 16:0.12874331 #
2 1:0 2:0 3:0 4:7.1398819e-05 5:0.079578862 6:0.1137218 7:0.20206767 8:0.68529773 9:0.6696831 10:0.046304584 11:0.0027966476 12:0.057142857 13:0.20125785 14:0.20330642 15:0.22098215 16:0.21975921 #
-2 1:0 2:0 3:0 4:0 5:0.12810253 6:0.185 7:0.345 8:0.71617657 9:0.71286333 10:0.29239327 11:0.01914599 13:0.3203125 14:0.28964141 15:0.33333334 16:0.2950404 #
-2 1:0 2:0 3:0 4:0.00023418949 5:0.10573588 6:0.89679718 7:0.87473309 8:0.76258165 9:0.75740814 10:0.24083817 11:0.0046598404 12:0.057142857 13:0.092979126 14:0.21639523 15:0.11924686 16:0.25688711 #
-2 1:0 2:0 3:0 4:0.00018409551 5:0.1512896 6:0.86215234 7:0.84280533 8:0.76107264 9:0.76006466 10:0.27885371 11:0.0017014088 13:0.091172211 14:0.21018764 15:0.10510046 16:0.23268576 #
2 5:0.32178745 6:0.22147651 7:0.147651 8:0.81208289 9:0.82824743 10:0.82027382 11:0.15500994 13:0.51162791 14:0.53494233 15:0.54658383 16:0.55886817 #
-2 1:0 2:0 3:0 4:0.00013481086 5:0.13096337 6:0.51421189 7:0.47803617 8:0.64362216 9:0.65625608 10:0.31977654 11:0.014343088 13:0.26493508 14:0.33570051 15:0.28254849 16:0.34725428 #
2 1:0 2:0 3:0 4:6.9910515e-05 5:0.071897678 6:0.085714288 7:0.15238096 8:0.69538128 9:0.67952216 10:0.031376313 11:0 13:0.12403101 14:0.13948421 15:0.13654618 16:0.15927723 #
2 1:0 2:0 3:0 4:0.00010822511 5:0.04073441 6:0.60290557 7:0.58837771 8:0.65156424 9:0.6399433 10:0.017752532 11:0 13:0.066371679 14:0.10673072 15:0.083333336 16:0.12565617 #
2 1:0 2:0 3:0 4:4.0423638e-05 5:0.062006544 6:0.091555558 7:0.10488889 8:0.65395761 9:0.63157958 10:0.037675977 11:0 13:0.12249443 14:0.15954873 15:0.14805825 16:0.19083384 #
2 1:0 2:0 3:0 4:0.00047732698 5:0.046353564 6:0.11702128 7:0.18794326 8:0.65802646 9:0.6405772 10:0.025181776 11:0.0017249996 13:0.11929824 14:0.13255465 15:0.1402214 16:0.15122409 #
-2 1:5.820383e-05 2:0 3:0 4:2.5698353e-05 5:0.099737324 6:0.40408164 7:0.37959182 8:0.67296541 9:0.67132241 10:0.25489962 11:0.0028139111 13:0.19392523 14:0.24453643 15:0.22738387 16:0.27780882 #
-2 1:6.7849969e-06 2:0 3:0 4:0.00014467593 5:0.079855494 6:0.22413793 7:0.17816092 8:0.72998756 9:0.7315377 10:0.23087882 11:0.0078953998 12:0.063492067 13:0.24590164 14:0.25664473 15:0.25714287 16:0.26644015 #
2 1:0.00036770379 2:0.010699589 3:0.06198347 4:0.0023188405 5:0.29231131 6:0.29624277 7:0.21098267 8:0.85069907 9:0.85343796 10:0.84537542 11:0.07452137 13:0.29268292 14:0.33804342 15:0.33717579 16:0.38224274 #
2 5:0.31825867 6:0.24444444 7:0.14444445 8:0.77451664 9:0.79710591 10:0.60056281 11:0.12463988 13:0.58730161 14:0.60688365 15:0.59016395 16:0.60523438 #
2 1:0 2:0 3:0 4:0 5:0.035489179 6:0.58808291 7:0.8134715 8:0.53233075 9:0.51424176 10:0.025031218 11:0 13:0.25742576 14:0.20056199 15:0.2827225 16:0.21607435 #
-1.5881560952170730161014944314957 1:0 2:0 3:0 4:0.00017430187 5:0.13570325 6:0.61550635 7:0.55379748 8:0.62397957 9:0.62258667 10:0.42431802 11:0.0052354229 13:0.17375886 14:0.2278503 15:0.17883211 16:0.2332963 #
2 1:8.7413355e-06 2:0 3:0 4:7.8146368e-05 5:0.041314732 6:0.76256156 7:0.73793101 8:0.65947747 9:0.65928531 10:0.041469403 11:0 12:0.057971016 13:0.086854458 14:0.15541954 15:0.1075 16:0.18642864 #
-2 1:0 2:0 3:0 4:0 5:0.10416735 6:0.39789474 7:0.33052632 8:0.66693747 9:0.66730475 10:0.27636588 11:0.0086614816 13:0.28991598 14:0.32819763 15:0.32608697 16:0.35690016 #
2 1:0 2:0 5:0.040714707 6:0.33128834 7:0.41717792 8:0.57377601 9:0.56562716 10:0.04800282 11:0 12:0.04255319 13:0.18867925 14:0.1613218 15:0.1980198 16:0.16700333 #
-2 1:0 2:0 3:0 4:0.00034191931 5:0.044712234 6:0.65753424 7:0.82191783 8:0.62120664 9:0.61826074 10:0.30377555 11:0 12:0.063492067 13:0.22818792 14:0.2012084 15:0.26027396 16:0.22127455 #
-2 1:0 2:0 3:0 4:0 5:0.12023015 6:0.79955292 7:0.7585693 8:0.73951024 9:0.73329508 10:0.211761 11:0.0032636591 12:0.061538462 13:0.14656772 14:0.24883525 15:0.168 16:0.27845728 #
2 5:0.38958186 6:0.16607773 7:0.07067138 8:0.88474327 9:0.89030057 10:0.7490887 11:0.17530541 13:0.60076046 14:0.61338788 15:0.64227641 16:0.64890486 #
-2 1:0 2:0 3:0 4:0.00023140114 5:0.11501969 6:0.41549295 7:0.35915494 8:0.64382905 9:0.6467995 10:0.28691211 11:0.0095589887 12:0.050632913 13:0.27272728 14:0.35794473 15:0.29444444 16:0.3766546 #
2 1:0 2:0 3:0 4:1.6662223e-05 5:0.047870222 6:0.689834 7:0.65560168 8:0.6062876 9:0.60025936 10:0.030242404 11:0 13:0.076566122 14:0.1166252 15:0.083538085 16:0.11916994 #
2 1:0 2:0 3:0 4:0.00029629629 5:0.065447718 6:0.73983741 7:0.71725386 8:0.68652284 9:0.67350459 10:0.0541691 11:0 13:0.072124757 14:0.1301696 15:0.094142258 16:0.156486 #
-2 1:0 2:0 3:0 4:6.854401e-05 5:0.13427503 6:0.38152012 7:0.28464979 8:0.79672474 9:0.79205602 10:0.25625244 11:0.0115216 12:0.028571429 13:0.22186495 14:0.25687683 15:0.2551724 16:0.28969532 #
-2 1:0 2:0 3:0 4:0.00050403224 5:0.13176195 6:0.43692869 7:0.40127972 8:0.80745566 9:0.80551291 10:0.18465075 11:0.010645265 13:0.255079 14:0.28691986 15:0.30272952 16:0.32391867 #
2 5:0.016761215 6:0.5242424 7:0.4939394 8:0.62923056 9:0.62639433 10:0.025476681 11:0 12:0.043859649 13:0.11170213 14:0.15164925 15:0.12087912 16:0.1638964 #
-2 5:0.085642673 6:0.48367953 7:0.44807121 8:0.69015044 9:0.69156915 10:0.27127168 11:0.0045597972 13:0.15420561 14:0.2177145 15:0.1745283 16:0.22820385 #
-2 1:0 2:0 3:0 4:4.1806019e-05 5:0.14799221 6:0.5645439 7:0.51462996 8:0.64896965 9:0.65038973 10:0.32012308 11:0.0027069077 13:0.20689656 14:0.27671015 15:0.23550725 16:0.30551806 #
2 5:0.22988543 6:0.30769232 7:0.25 8:0.56632787 9:0.59906471 10:0.76597571 11:0.13538259 13:0.46835443 14:0.51240838 15:0.47999999 16:0.52372295 #
2 1:0 2:0 3:0 4:1.1592859e-05 5:0.075716615 6:0.63765544 7:0.6287744 8:0.70872027 9:0.69766754 10:0.030714957 11:0 12:0.040650405 13:0.11742424 14:0.1741683 15:0.12350598 16:0.18407111 #
-2 1:0 2:0 3:0 4:0.0002374357 5:0.038821042 6:0.26183844 7:0.1643454 8:0.64079642 9:0.63594729 10:0.28353518 11:0.0032900791 12:0.032000002 13:0.30285713 14:0.3000741 15:0.32716051 16:0.3129909 #
-2 1:0 2:0 3:0 4:4.6008743e-05 5:0.09801513 6:0.503268 7:0.44281045 8:0.68343258 9:0.68209177 10:0.28957993 11:0.009515021 13:0.23282443 14:0.27869585 15:0.25403225 16:0.29022706 #
2 1:0.00055794674 2:0.012776413 3:0.076666668 4:0.0024518678 5:0.23092234 6:0.050802138 7:0.0080213901 8:0.80689216 9:0.81094307 10:0.77186435 11:0.078221299 13:0.38987342 14:0.37933642 15:0.43010753 16:0.40820044 #
-2 1:0 2:0 3:0 4:0.00021032864 5:0.15698449 6:0.45688689 7:0.38521835 8:0.71675563 9:0.71669573 10:0.35104507 11:0.0015752349 13:0.20725389 14:0.24874493 15:0.23287672 16:0.27486652 #
2 1:0.0018990504 2:0.022941971 3:0.097222224 4:0.0037601052 5:0.10018377 6:0.26455027 7:0.21957672 8:0.75760537 9:0.74715555 10:0.4991318 11:0.0067691123 13:0.30751708 14:0.33370131 15:0.35294119 16:0.36232954 #
2 1:0 5:0.023150714 6:0.62456143 7:0.60175437 8:0.60040283 9:0.61774981 10:0.024816243 11:0 13:0.081967212 14:0.1356011 15:0.10460251 16:0.1601183 #
-2 1:0 2:0 3:0 4:3.1565658e-05 5:0.098598592 6:0.48589343 7:0.46708465 8:0.66829985 9:0.67632747 10:0.28026631 11:0.019510571 13:0.22905028 14:0.30049735 15:0.24137931 16:0.31682101 #
2 1:0 2:0 3:0 4:0.00014190174 5:0.086168379 6:0.7472325 7:0.72832102 8:0.66181147 9:0.65462363 10:0.066333413 11:0.0018911602 13:0.11288181 14:0.18204004 15:0.14741641 16:0.22399399 #
-2 1:0 2:0 3:0 4:0 5:0.14447789 6:0.65918654 7:0.5834502 8:0.75257254 9:0.75175202 10:0.30916831 11:0.016219398 12:0.060606062 13:0.16957606 14:0.26394388 15:0.19060053 16:0.2903899 #
2 1:0 2:0 3:0 4:3.1661602e-05 5:0.031900454 6:0.50260419 7:0.4296875 8:0.62445229 9:0.62633628 10:0.050853424 11:0 12:0.034482758 13:0.13636364 14:0.17020097 15:0.15897436 16:0.1910634 #
-2 1:2.2614202e-05 2:0 3:0 4:0.00023474179 5:0.13661586 6:0.73427814 7:0.7085917 8:0.70631897 9:0.70780998 10:0.25466645 11:0.0053401412 12:0.055555556 13:0.16221374 14:0.27381003 15:0.17330678 16:0.28096402 #
2 1:0 2:0 3:0 4:1.158856e-05 5:0.039000731 6:0.59895831 7:0.55208331 8:0.67205232 9:0.6648702 10:0.034853484 11:0 12:0.043478262 13:0.089403972 14:0.12479421 15:0.1010453 16:0.13884661 #
-2 1:0 2:0.00065616798 3:0 4:0.00015470297 5:0.10974896 6:0.59446448 7:0.52948254 8:0.75651717 9:0.75192064 10:0.24151824 11:0.0019837755 12:0.068965517 13:0.15201901 14:0.22906277 15:0.17661692 16:0.24553514 #
-2 1:0 2:0 3:0 4:0.00025691089 5:0.084490433 6:0.31213874 7:0.26011559 8:0.62825811 9:0.62837744 10:0.36103243 11:0.0077498425 13:0.26086956 14:0.29166105 15:0.27927929 16:0.31365982 #
2 1:1.7798346e-05 2:0 3:0 4:9.661416e-05 5:0.05115588 6:0.68567455 7:0.64255911 8:0.67727727 9:0.66983593 10:0.04005263 11:0 12:0.05479452 13:0.082066871 14:0.12844577 15:0.091482647 16:0.13915797 #
2 5:0.25128534 6:0.29591838 7:0.19387755 8:0.72591841 9:0.76551402 10:0.5921694 11:0.14491257 13:0.49315068 14:0.54189557 15:0.56164384 16:0.60457772 #
2 1:0 2:0 3:0 4:1.1466575e-05 5:0.0082112849 6:0.54242426 7:0.4969697 8:0.61813337 9:0.60940164 10:0.022347277 11:0 12:0.043859649 13:0.095744684 14:0.13329311 15:0.10439561 16:0.1444961 #
-2 1:8.8214538e-06 2:0 3:0 4:0.00017270898 5:0.074190244 6:0.82447112 7:0.81189251 8:0.74171072 9:0.74331439 10:0.14946495 11:0.014508074 12:0.06666667 13:0.17058824 14:0.28763002 15:0.20357941 16:0.32260984 #
2 1:0 2:0 3:0 4:0.00012183236 5:0.05773728 6:0.1010453 7:0.14285715 8:0.67500681 9:0.65724093 10:0.02976713 11:0.001507848 13:0.13559322 14:0.15231796 15:0.14539006 16:0.16313055 #
-2 1:0 2:0 3:0 4:0 5:0.073550649 6:0.28181818 7:0.19848485 8:0.67568189 9:0.65862179 10:0.28884664 11:0.0054816124 13:0.21407625 14:0.2520684 15:0.24600638 16:0.28035611 #
2 1:0 2:0 3:0 4:0.0011494253 5:0.058636863 6:0.55934519 7:0.56070942 8:0.66173071 9:0.63112301 10:0.027733976 11:0.0023411179 13:0.091836736 14:0.15393834 15:0.10869565 16:0.17814589 #
-2 1:0 2:0 3:0 4:0.00020032052 5:0.081512146 6:0.88672769 7:0.87643021 8:0.55159372 9:0.56112683 10:0.32690874 11:0.0036684715 13:0.12064343 14:0.27270725 15:0.12676056 16:0.27953547 #
2 1:0 2:0 3:0 4:1.2127092e-05 5:0.018245513 6:0.096969694 7:0.024242423 8:0.63824975 9:0.63371021 10:0.028832555 11:0 12:0.043859649 13:0.12765957 14:0.13156661 15:0.14285715 16:0.14568627 #
-2 1:0 2:0 3:0 4:0.00034671658 5:0.15752827 6:0.67671007 7:0.62052119 8:0.79098594 9:0.78591251 10:0.27444026 11:0.0080146324 12:0.05479452 13:0.17755102 14:0.2696279 15:0.19821826 16:0.28915161 #
2 1:0 2:0 3:0 4:0 5:0.026813187 6:0.73729473 7:0.71931195 8:0.5714426 9:0.5582481 10:0.034778919 11:0 12:0.065573767 13:0.11764706 14:0.19129872 15:0.14545454 16:0.2190548 #
-2 1:0 2:0 3:0 4:3.2514334e-05 5:0.11673697 6:1.6450893 7:1.8549107 8:0.73621136 9:0.73510009 10:0.33336729 11:0.0031080903 12:0.10810811 13:0.35537189 14:0.26284426 15:0.4159292 16:0.29378155 #
-2 1:0 2:0 3:0 4:0.00010303436 5:0.10025372 6:0.42345276 7:0.3436482 8:0.72430021 9:0.72289062 10:0.2862559 11:0.0045701424 12:0.035714287 13:0.2754491 14:0.32730454 15:0.2962963 16:0.3501505 #
2 1:0 2:0 3:0 4:0 5:0.047257226 6:0.068571426 7:0.039999999 8:0.60072351 9:0.57431287 10:0.044865802 11:0.0030906771 13:0.15492958 14:0.18374352 15:0.16585366 16:0.1999827 #
-2 1:0 2:0 3:0 4:0 5:0.14226502 6:0.66225165 7:0.62417221 8:0.73203492 9:0.73959881 10:0.29978478 11:0.0060192724 13:0.18065694 14:0.27427366 15:0.19729207 16:0.28543448 #
-2 1:0 2:0 3:0 4:0 5:0.10883407 6:0.079825833 7:0.16835994 8:0.66725856 9:0.67138195 10:0.34899125 11:0.0030901125 12:0.030303031 13:0.35103244 14:0.3287971 15:0.38601825 16:0.3531909 #
2 1:0.0018084904 2:0.032196969 3:0.074074075 4:0.0063004033 5:0.19437203 6:0.21266234 7:0.17694806 8:0.82452327 9:0.82258576 10:0.42029336 11:0.027313998 13:0.27181208 14:0.2938168 15:0.32363635 16:0.3414878 #
2 1:0 2:0 3:0 4:5.7025547e-05 5:0.059814796 6:0.69629627 7:0.65925926 8:0.67427671 9:0.67177933 10:0.03842403 11:0 12:0.057971016 13:0.11971831 14:0.17380963 15:0.13909775 16:0.18523169 #
-2 1:0 2:0 3:0 4:0.00013616421 5:0.12616643 6:0.5780105 7:0.55602092 8:0.76633924 9:0.75972408 10:0.26863113 11:0.0017147841 13:0.2 14:0.28443161 15:0.21212122 16:0.29421195 #
2 5:0.24309684 6:0.17094018 7:0.17094018 8:0.63016325 9:0.62791747 10:0.60204989 11:0.16792564 13:0.54761904 14:0.61316985 15:0.57499999 16:0.64286953 #
-2 1:0 2:0 3:0 4:2.9105304e-05 5:0.10109024 6:0.47661871 7:0.39928058 8:0.68379015 9:0.67434192 10:0.36618021 11:0.0079149064 12:0.086206898 13:0.22761194 14:0.27696389 15:0.244 16:0.29502702 #
-2 1:0 2:0 3:0 4:5.3347558e-05 5:0.10274778 6:0.63934427 7:0.60304451 8:0.77257526 9:0.77254874 10:0.27001509 11:0.0063675758 13:0.23275863 14:0.29543948 15:0.25993884 16:0.32514113 #
2 1:0 2:0 3:0 4:1.2694866e-05 5:0.065900326 6:0.74890512 7:0.72262776 8:0.64585888 9:0.64407015 10:0.03463272 11:0 12:0.039370079 13:0.092409238 14:0.15065525 15:0.10034602 16:0.15977052 #
-2 1:0 2:0.00064102566 3:0 4:0.0002007226 5:0.16302322 6:0.41329011 7:0.37925446 8:0.80508244 9:0.79677939 10:0.30162865 11:0.029307466 12:0.061538462 13:0.30000001 14:0.35771644 15:0.32508835 16:0.38383678 #
-2 1:0 2:0 3:0 4:0 5:0.067676336 6:0.55707765 7:0.5 8:0.65025568 9:0.64931226 10:0.31520489 11:0 13:0.18309858 14:0.23548056 15:0.21287128 16:0.25848329 #
-2 1:0 2:0 3:0 4:0.00017799929 5:0.38642409 6:0.75628078 7:0.73556072 8:0.90381718 9:0.90222508 10:0.49204922 11:0.043489784 12:0.068965517 13:0.17103235 14:0.29294443 15:0.21107267 16:0.3417367 #
-2 1:0 2:0 3:0 4:4.460383e-06 5:0.12967405 6:0.80920058 7:0.79336351 8:0.67588878 9:0.67519015 10:0.33564886 11:0.016397715 13:0.17181467 14:0.30755079 15:0.19096509 16:0.33526632 #
-2 1:0 2:0 3:0 4:0.00011711472 5:0.084904008 6:0.81051344 7:0.80440098 8:0.65126234 9:0.65884084 10:0.32521734 11:0.012838528 12:0.0625 13:0.17378917 14:0.29847145 15:0.18153846 16:0.30386546 #
2 5:0.29603082 6:0.12598425 7:0.062992126 8:0.70781469 9:0.72267467 10:0.59339583 11:0.15254785 13:0.44318181 14:0.4990361 15:0.45882353 16:0.49510089 #
2 1:0 2:0 3:0 4:1.8522178e-05 5:0.077290006 6:0.82655829 7:0.99186993 8:0.62467742 9:0.61352956 10:0.044913612 11:0 12:0.035714287 13:0.2392638 14:0.17683196 15:0.25316456 16:0.18654558 #
2 1:0 2:0 3:0 4:0.00021715526 5:0.041335538 6:0.65714288 7:0.62738097 8:0.60831463 9:0.60219753 10:0.034658056 11:0.0021454981 13:0.079881653 14:0.11626071 15:0.096273296 16:0.13134414 #
-2 1:0 2:0 3:0 4:6.6508073e-05 5:0.19021232 6:1.45 7:1.6900001 8:0.7062394 9:0.71122497 10:0.39411557 11:0.054631323 12:0.047058824 13:0.58823532 14:0.3363364 15:0.63725489 16:0.36973619 #
2 1:0.00036509676 2:0.011242379 3:0.083333336 4:0.0071919952 5:0.20918483 6:0.73968363 7:0.71767539 8:0.81594807 9:0.81637627 10:0.83310258 11:0.03092465 13:0.2041049 14:0.33089465 15:0.26975477 16:0.40727639 #
-2 1:0 2:0 3:0 4:0.00014985418 5:0.12169109 6:0.46808511 7:0.68085104 8:0.52426869 9:0.53033811 10:0.45817152 11:0.054173633 13:0.46808511 14:0.40338066 15:0.47872341 16:0.4102453 #
-2 3:0 4:0 5:0.11359236 6:1.2148438 7:1.4023438 8:0.70882487 9:0.70696896 10:0.28476256 11:0.013852861 13:0.30769232 14:0.24483256 15:0.33333334 16:0.26041523 #
2 1:0.00098166789 2:0.0082942657 3:0.027777778 4:0.0023758612 5:0.19483821 6:0.4267292 7:0.41852286 8:0.73755944 9:0.73679334 10:0.87549335 11:0.10020459 13:0.28749999 14:0.40757743 15:0.31999999 16:0.44038552 #
-2 1:0 2:0.0019841271 3:0 4:8.4676874e-05 5:0.1983635 6:1.4924623 7:1.8743719 8:0.66953641 9:0.67468715 10:0.45911771 11:0.071490653 12:0.053333335 13:0.42735043 14:0.28209105 15:0.45217392 16:0.29565027 #
-2 1:8.2778033e-06 2:0 3:0 4:0.00015760797 5:0.29114449 6:0.69774014 7:0.6581921 8:0.73949063 9:0.73852712 10:0.37272105 11:0.061812848 12:0.063492067 13:0.19135803 14:0.28252256 15:0.2147651 16:0.30474809 #
-2 1:0 2:0 3:0 4:0.00010754134 5:0.3658672 6:0.72131145 7:1.0655738 8:0.83101141 9:0.83175719 10:0.61109734 11:0.082581855 13:0.39370078 14:0.28116968 15:0.42399999 16:0.30792624 #
2 1:0.0014072848 2:0.008086253 3:0.057692308 4:0.0042159664 5:0.23609956 6:0.72940159 7:0.71465743 8:0.84163052 9:0.850528 10:0.75856614 11:0.038942628 13:0.23445596 14:0.35926309 15:0.26756352 16:0.39562094 #
2 1:0.00041191475 2:0.0035731022 3:0.042857144 4:0.0040777619 5:0.15191105 6:0.83776957 7:0.83389491 8:0.80865175 9:0.81151557 10:0.57513827 11:0.03889621 13:0.18384224 14:0.33550581 15:0.2161572 16:0.37077004 #
2 1:0.00078685087 2:0.0070594624 3:0.045454547 4:0.0043821209 5:0.14213982 6:0.63048017 7:0.60055673 8:0.83300924 9:0.8290484 10:0.54381901 11:0.009654263 13:0.18813559 14:0.26460075 15:0.22456814 16:0.29743275 #
-2 1:0 2:0 3:0 4:0 5:0.20348209 6:0.27960527 7:0.4506579 8:0.78879118 9:0.79924107 10:0.3771452 11:0.04134978 13:0.37096775 14:0.34114385 15:0.41666666 16:0.36544085 #
2 5:0.40937588 6:0.11370263 7:0.017492712 8:0.88526392 9:0.89560795 10:0.87545013 11:0.19933555 13:0.68556702 14:0.68860978 15:0.73446327 16:0.72035706 #
-2 1:0 2:0 3:0 4:0 5:0.21884 6:0.1184466 7:0.044660196 8:0.77767497 9:0.77550644 10:0.28596008 11:0.020180641 13:0.30662021 14:0.33140245 15:0.32971016 16:0.34782517 #
-2 1:0 2:0 3:0 4:0.00023181537 5:0.26080766 6:0.40728477 7:0.64569539 8:0.75545537 9:0.75744802 10:0.52309316 11:0.10594375 13:0.39583334 14:0.31811556 15:0.43165466 16:0.33340022 #
2 5:0.3732515 6:0.060975611 7:0.012195121 8:0.85525632 9:0.8603794 10:0.83179504 11:0.16547506 13:0.62162161 14:0.63897842 15:0.6703704 16:0.65946931 #
-2 1:0 2:0 3:0 4:0 5:0.24723572 6:0.21789321 7:0.15584415 8:0.81386048 9:0.8149094 10:0.41602203 11:0.063341282 12:0.083333336 13:0.36217949 14:0.36305916 15:0.39333335 16:0.39009598 #
-2 1:0 2:0.00069444446 3:0 4:0.00020814543 5:0.25362012 6:0.44329897 7:0.56701028 8:0.81849426 9:0.82805604 10:0.49831778 11:0.084364288 12:0.060606062 13:0.5 14:0.43051404 15:0.54705882 16:0.45756769 #
2 1:7.2733619e-06 2:0 3:0 4:0.00017621428 5:0.027704582 6:0.0087719299 7:0.12719299 8:0.6007455 9:0.5940727 10:0.019407984 11:0.0047273003 12:0.061538462 13:0.16546762 14:0.16256954 15:0.17266187 16:0.17391761 #
-2 1:0 2:0 3:0 4:0.00016687527 5:0.14008296 6:0.30952382 7:0.43452382 8:0.59961265 9:0.60322583 10:0.51469886 11:0.081411198 13:0.42307693 14:0.3784115 15:0.44999999 16:0.39931044 #
2 1:0 2:0 3:0 4:0.00014581511 5:0.054749168 6:0.59497207 7:0.67877096 8:0.69464445 9:0.69346994 10:0.045722056 11:0 12:0.042105265 13:0.18134715 14:0.14018066 15:0.19892474 16:0.15334623 #
2 5:0.30735371 6:0.04109589 7:0.04109589 8:0.73496282 9:0.75309086 10:0.84436822 11:0.16262312 13:0.55789477 14:0.56995583 15:0.63736266 16:0.630472 #
-2 1:0 2:0 3:0 4:7.498177e-05 5:0.18128704 6:0.16483517 7:0.091575094 8:0.6706813 9:0.67092627 10:0.36644077 11:0.029793978 13:0.37341774 14:0.37384811 15:0.39473686 16:0.38840038 #
-2 1:0 2:0 3:0 4:0.00014736656 5:0.19602987 6:0.027210884 7:0.15419501 8:0.63236749 9:0.63646936 10:0.36564359 11:0.025602242 13:0.33070865 14:0.33120483 15:0.37551022 16:0.35573244 #
2 5:0.33944395 6:0.10763889 7:0.069444448 8:0.83294064 9:0.84307331 10:0.78956127 11:0.14113006 13:0.55421686 14:0.58695245 15:0.58823532 16:0.61938012 #
2 1:0.00025218658 2:0.0021248774 3:0.021551725 4:0.0014774916 5:0.26003823 6:0.40154439 7:0.40218791 8:0.86256135 9:0.86015123 10:0.78884655 11:0.09946128 13:0.36134455 14:0.44740167 15:0.41044775 16:0.49005672 #
-2 1:0 2:0 3:0 4:2.4337058e-05 5:0.18223651 6:2.5929649 7:3.1356783 8:0.77655572 9:0.77186513 10:0.50267553 11:0.035632625 12:0.057971016 13:0.35245901 14:0.19154529 15:0.40000001 16:0.21693046 #
2 5:0.39274725 6:0.089728452 7:0.0094451001 8:0.89302516 9:0.89562744 10:0.71892238 11:0.12644854 13:0.55586594 14:0.56604594 15:0.62275451 16:0.60662287 #
2 1:0 2:0 3:0 4:0 5:0.038950142 6:2.5673575 7:2.7357514 8:0.5539819 9:0.52679873 10:0.069078818 11:0 13:0.21238938 14:0.15193428 15:0.27014217 16:0.19056831 #
-2 1:0 2:0 3:0 4:0 5:0.22184397 6:0.39285713 7:0.51428574 8:0.71847022 9:0.71621174 10:0.36336553 11:0.047943145 13:0.47333333 14:0.37206444 15:0.47945204 16:0.37631145 #
-2 1:0 2:0 3:0 4:0 5:0.153393 6:0.22891566 7:0.32931727 8:0.66607428 9:0.6645813 10:0.28999627 11:0.015841614 13:0.40666667 14:0.36042982 15:0.41496599 16:0.36215335 #
2 5:0.064264566 6:0.46749225 7:0.60526317 8:0.53973114 9:0.54455626 10:0.22613762 11:0 13:0.26086956 14:0.18486495 15:0.27826086 16:0.20256816 #
-2 1:0 2:0 3:0 4:0 5:0.14808418 6:0.4375 7:0.59615386 8:0.74764752 9:0.7423709 10:0.28530416 11:0.0088086072 13:0.33587787 14:0.26655409 15:0.34615386 16:0.27907816 #
-2 5:0.13866404 6:0.460177 7:0.64601767 8:0.49058193 9:0.49772713 10:0.43873101 11:0.022738367 13:0.37662336 14:0.32935479 15:0.4025974 16:0.3323358 #
-2 1:0 2:0 3:0 4:0.00013101514 5:0.22351864 6:0.4419643 7:0.6026786 8:0.72073936 9:0.7368626 10:0.49670595 11:0.058160674 13:0.51200002 14:0.42085958 15:0.53719008 16:0.43211553 #
-2 1:0 2:0 3:0 4:0.00012725365 5:0.079559892 6:1.2987804 7:1.4756098 8:0.57695258 9:0.57648373 10:0.3576234 11:0.013093074 13:0.37719297 14:0.28869218 15:0.40707964 16:0.29512051 #
2 5:0.40445158 6:0.068041235 7:0.0041237115 8:0.90328562 9:0.90955925 10:0.78440398 11:0.13367251 13:0.57939917 14:0.56160372 15:0.62616825 16:0.59753585 #
2 1:0.0020415878 2:0.07692308 3:0.034482758 4:0.004811387 5:0.37581357 6:0.097165994 7:0.2834008 8:0.83276099 9:0.83509374 10:0.67577708 11:0.075635098 12:0.8125 13:0.37442923 14:0.32514694 15:0.41314554 16:0.3559196 #
2 1:0 2:0 3:0 4:0.00020920503 5:0.054508429 6:0.13017751 7:0.2514793 8:0.61996114 9:0.60670537 10:0.023982532 11:0 13:0.1147541 14:0.11644287 15:0.13793103 16:0.13599098 #
-2 1:0 2:0 3:0 4:4.0183237e-05 5:0.17251284 6:0.52997601 7:0.66666669 8:0.65999323 9:0.66348863 10:0.4542149 11:0.030198207 13:0.41276595 14:0.33928534 15:0.44594595 16:0.35566899 #
2 1:0 2:0 3:0 4:0.00013939224 5:0.091094851 6:0.64988011 7:0.76738608 8:0.73587066 9:0.72775525 10:0.035831247 11:0 12:0.035714287 13:0.17094018 14:0.14915013 15:0.19383261 16:0.16299985 #
2 5:0.29001895 6:0.072625697 7:0.011173184 8:0.83049762 9:0.82939231 10:0.67353618 11:0.17308047 13:0.58928573 14:0.55709672 15:0.60714287 16:0.57935846 #
-2 1:0.00043252597 2:0 3:0 4:1.2075545e-05 5:0.22289026 6:0.63448274 7:0.87241381 8:0.71641731 9:0.71804261 10:0.42105645 11:0.01950716 13:0.36170211 14:0.28460202 15:0.40437159 16:0.31848952 #
2 1:0 2:0 3:0 4:3.3898305e-05 5:0.062303856 6:0.67830688 7:0.67513227 8:0.67909974 9:0.63452905 10:0.04705834 11:0.00089073862 13:0.16666667 14:0.16363834 15:0.22400001 16:0.2109082 #
2 5:0.38136747 6:0.093607306 7:0.01369863 8:0.86272621 9:0.87170535 10:0.71934664 11:0.15061036 13:0.61643833 14:0.60676742 15:0.67464113 16:0.64734089 #
-2 1:0 2:0 3:0 4:0.00028449504 5:0.14662613 6:0.625 7:0.7734375 8:0.6652897 9:0.66733027 10:0.38904816 11:0.020359699 13:0.45679012 14:0.33384749 15:0.46835443 16:0.33654448 #
2 5:0.36018488 6:0.14021164 7:0.082010582 8:0.86475378 9:0.8704474 10:0.69154024 11:0.14473727 13:0.57692307 14:0.60322148 15:0.61363637 16:0.63184911 #
-2 1:0 2:0 3:0 4:0.00035714285 5:0.16442008 6:0.59086078 7:0.54729015 8:0.72501791 9:0.72777283 10:0.42250359 11:0.012508579 13:0.22434367 14:0.30543342 15:0.25628141 16:0.33567163 #
-2 1:0 2:0 3:0 4:0.00013061793 5:0.21879056 6:0.28455284 7:0.18157181 8:0.72092187 9:0.72226423 10:0.39281997 11:0.026336031 13:0.36453202 14:0.40240377 15:0.40721649 16:0.43247598 #
2 1:0 5:0.048298422 6:2.8269231 7:3.1177886 8:0.60500479 9:0.59900492 10:0.036464233 11:0 12:0.038834952 13:0.30733946 14:0.17493629 15:0.35238096 16:0.1999854 #
2 1:0 2:0 3:0 4:9.3508439e-05 5:0.05404254 6:0.81276596 7:0.79787236 8:0.69135225 9:0.68432033 10:0.034976818 11:0 13:0.078880407 14:0.14099798 15:0.083557948 16:0.14753711 #
2 1:0.0023113906 2:0.090909094 3:0.030303031 4:0.0042603551 5:0.24737245 6:0.58759123 7:0.90145987 8:0.78880638 9:0.7886104 10:0.68160236 11:0.08864513 12:0.83333331 13:0.5 14:0.38071558 15:0.53284669 16:0.39524183 #
2 1:0.0095785437 3:0.034171809 4:0.0033443305 5:0.33166248 6:0.25888324 7:0.47715735 8:0.86612004 9:0.864546 10:0.51764947 11:0.092513308 12:0.48780489 13:0.60526317 14:0.48730829 15:0.61261261 16:0.48789728 #
-2 1:6.465963e-06 2:0 3:0 4:0.00014854426 5:0.34629712 6:0.80327868 7:0.78343397 8:0.77078444 9:0.7727403 10:0.58165723 11:0.061735395 12:0.083333336 13:0.14004377 14:0.25669453 15:0.16747573 16:0.29257256 #
-2 1:0 2:0 3:0 4:0.00035635897 5:0.28375503 6:0.86968523 7:0.85643291 8:0.79204631 9:0.79894567 10:0.55923539 11:0.074576616 12:0.075471699 13:0.15327103 14:0.29822174 15:0.18776371 16:0.33716476 #
2 1:0.00029239766 2:0.018181818 3:0.0087145967 4:0.0016697263 5:0.34537318 6:0.43862522 7:0.43207857 8:0.76557225 9:0.76022345 10:0.72900414 11:0.023149345 13:0.21142857 14:0.27049255 15:0.25635594 16:0.30752289 #
-2 1:0 2:0 3:0 4:4.2375126e-05 5:0.26952228 6:0.4385733 7:0.334214 8:0.85059071 9:0.85073203 10:0.63560683 11:0.1225956 12:0.075757578 13:0.3897281 14:0.46640843 15:0.40836012 16:0.48010063 #
-2 1:0 2:0 3:0 4:6.0135906e-05 5:0.26736677 6:2.6117826 7:3.0770392 8:0.80084413 9:0.80257803 10:0.47197855 11:0.033898033 12:0.14583333 13:0.55084747 14:0.30585667 15:0.61860466 16:0.32967383 #
2 1:0.00031298204 2:0.0038098693 3:0.041666668 4:0.0030637255 5:0.24939433 6:0.70651084 7:0.69282138 8:0.83641016 9:0.83530563 10:0.58612984 11:0.022577936 13:0.20063025 14:0.29327363 15:0.2345079 16:0.3244316 #
-2 5:0.22586241 6:0.46910995 7:0.4104712 8:0.81635118 9:0.82105809 10:0.49869651 11:0.099717505 12:0.056338027 13:0.34016395 14:0.42626691 15:0.375 16:0.45952699 #
-2 5:0.24418399 6:0.52256942 7:0.46527779 8:0.68481147 9:0.6871714 10:0.46909052 11:0.059075784 12:0.034782607 13:0.36423841 14:0.46601987 15:0.39024389 16:0.49005112 #
2 1:0 2:0 3:0 4:6.4516127e-05 5:0.10278769 6:2.3980424 7:2.7373574 8:0.76423728 9:0.75587857 10:0.043301303 11:0.00086790352 13:0.22499999 14:0.16966663 15:0.25806451 16:0.1867447 #
2 1:0 3:0 4:0.0010526315 5:0.025244053 6:2.2408164 7:2.6510205 8:0.66074789 9:0.65465957 10:0.044647254 11:0 12:0.036363635 13:0.23247233 14:0.1493632 15:0.25 16:0.16541821 #
2 1:0.0004591032 2:0.0042939517 3:0.018181818 4:0.0018916766 5:0.27435118 6:0.82819277 7:0.81662649 8:0.80078864 9:0.80499363 10:0.68909454 11:0.057571106 13:0.15914489 14:0.32006428 15:0.17960289 16:0.34748602 #
-2 1:0 2:0.00047281323 3:0 4:0.00015082274 5:0.26347509 6:0.51587301 7:0.45464852 8:0.85964423 9:0.85721701 10:0.35451964 11:0.033703867 12:0.050632913 13:0.23555556 14:0.31291726 15:0.24597701 16:0.32978544 #
2 5:0.0039240136 6:0.85897434 7:1.0256411 8:0.45899907 9:0.4519324 10:0.021000158 11:0 12:0.040322579 13:0.23529412 14:0.17861772 15:0.24752475 16:0.19249572 #
-2 1:0 2:0 3:0 4:5.2542535e-05 5:0.2133671 6:0.56852794 7:0.51438242 8:0.77846801 9:0.77700061 10:0.34865654 11:0.048294008 12:0.090909094 13:0.19444445 14:0.27018771 15:0.21348314 16:0.29069528 #
-2 1:0 2:0 3:0 4:0.00018565965 5:0.12968566 6:0.38933763 7:0.37641358 8:0.72853839 9:0.73088431 10:0.39025778 11:0.015766846 13:0.27083334 14:0.30987534 15:0.28308824 16:0.31767234 #
-2 1:0 2:0 3:0 4:1.103631e-05 5:0.25980991 6:0.40856481 7:0.31018519 8:0.83742511 9:0.84009326 10:0.44680059 11:0.010675645 12:0.044444446 13:0.25480768 14:0.32191828 15:0.29048842 16:0.34932327 #
-2 1:0 2:0 3:0 4:0.00012112403 5:0.25631508 6:0.91945064 7:0.91425389 8:0.75425422 9:0.7557317 10:0.30582532 11:0.018463552 12:0.04255319 13:0.12915601 14:0.30825812 15:0.15509601 16:0.33864978 #
2 1:0.00027376981 2:0.0024155991 3:0.014285714 4:0.0014541558 5:0.30860466 6:0.71985477 7:0.70514047 8:0.84500366 9:0.8450197 10:0.61917222 11:0.037521109 13:0.18000001 14:0.28261358 15:0.23476298 16:0.33909577 #
-2 1:0 2:0 3:0 4:0 5:0.31537583 6:0.021582734 7:0.1059516 8:0.85845166 9:0.85683441 10:0.47604302 11:0.049137454 12:0.065573767 13:0.31375581 14:0.33951953 15:0.37563452 16:0.38832617 #
-2 5:0.33135554 6:0.61605841 7:0.55474454 8:0.84529001 9:0.84141517 10:0.64476693 11:0.096703067 12:0.079999998 13:0.23026316 14:0.31661278 15:0.2591241 16:0.33804157 #
-2 1:7.1174882e-06 2:0 3:0 4:0.00015466468 5:0.2397829 6:0.73219812 7:0.71671826 8:0.73951763 9:0.74096733 10:0.39286932 11:0.045861971 12:0.08510638 13:0.1696113 14:0.28108975 15:0.19083969 16:0.30290237 #
2 1:0.0013968254 2:0.014619883 3:0.0038461538 4:0.00086465362 5:0.24221973 6:0.82115251 7:0.79444838 8:0.79338318 9:0.79485041 10:0.55689937 11:0.039635595 13:0.13480885 14:0.27616045 15:0.15111111 16:0.29698855 #
-2 1:1.1356023e-05 2:0 3:0 4:0.00014387307 5:0.27443999 6:0.78640777 7:0.75404531 8:0.80131137 9:0.80184495 10:0.38563749 11:0.038035199 12:0.051948052 13:0.15280899 14:0.256699 15:0.18673219 16:0.3006537 #
-2 1:0 2:0 3:0 4:0.00011114668 5:0.19189279 6:0.82779884 7:0.80502844 8:0.72283751 9:0.72090793 10:0.40544239 11:0.058652669 12:0.041666668 13:0.15049227 14:0.26746443 15:0.17764166 16:0.30604836 #
2 5:0.05361611 6:1.8810811 7:2.1108108 8:0.67703199 9:0.66652858 10:0.036427189 11:0 12:0.030769231 13:0.2914573 14:0.18813862 15:0.30851063 16:0.19680135 #
2 1:0.00010668268 2:0.0071919952 3:0.11775878 4:0.0012548271 5:0.2336068 6:0.79842746 7:0.89278054 8:0.87955928 9:0.87015617 10:0.58762592 11:0.023325879 13:0.35365853 14:0.29077801 15:0.44651952 16:0.35345504 #
2 1:0.002129307 2:0.010808029 3:0.11111111 4:0.010557433 5:0.1438476 6:0.52876711 7:0.51050228 8:0.80408895 9:0.80777645 10:0.43639356 11:0.01402681 13:0.22931442 14:0.29291472 15:0.24935065 16:0.317141 #
-2 1:0 2:0.0010548523 3:0 4:2.1157304e-05 5:0.31200233 6:0.7493003 7:0.71371454 8:0.887631 9:0.88350379 10:0.40023512 11:0.030577093 12:0.060606062 13:0.18456376 14:0.30834517 15:0.22556391 16:0.34405193 #
2 1:0.00089976343 2:0.013431014 3:0.083333336 4:0.0047142855 5:0.18506175 6:0.66242516 7:0.66317368 8:0.78970563 9:0.78840679 10:0.53935039 11:0.051073171 13:0.24912281 14:0.36761653 15:0.29558542 16:0.42501238 #
-2 1:0 2:0 3:0 4:7.6535871e-05 5:0.14242123 6:0.19929454 7:0.11463845 8:0.74807131 9:0.75013113 10:0.31388578 11:0.051027346 12:0.042105265 13:0.34931508 14:0.37220716 15:0.38709676 16:0.39569998 #
-2 1:0 2:0 3:0 4:0 5:0.15939623 6:1.0578035 7:1.4277457 8:0.66064543 9:0.65096736 10:0.36459669 11:0.045680132 12:0.051948052 13:0.50458717 14:0.34812218 15:0.51851851 16:0.3608475 #
-2 1:0 2:0 3:0 4:0.0002052526 5:0.18606082 6:2.075 7:2.4681818 8:0.758636 9:0.7535311 10:0.34647653 11:0.011753234 13:0.34322035 14:0.21056123 15:0.40888888 16:0.24187505 #
-2 1:8.0290329e-06 2:0 3:0 4:0.00015132663 5:0.20172368 6:0.82854098 7:0.81150162 8:0.73975009 9:0.73465979 10:0.4096427 11:0.040470243 12:0.063492067 13:0.14366198 14:0.27204353 15:0.1552795 16:0.28291515 #
2 1:0.00018872941 2:0.0025406082 3:0.055555556 4:0.00092760409 5:0.23946278 6:0.78118545 7:0.7654537 8:0.84058493 9:0.83923078 10:0.40918776 11:0.035186864 13:0.21844059 14:0.3509855 15:0.25440452 16:0.38993979 #
-2 1:0 2:0 3:0 4:3.5253222e-05 5:0.24810176 6:0.77931035 7:0.75862068 8:0.67178077 9:0.65203691 10:0.50740051 11:0.051772017 13:0.16528925 14:0.28527996 15:0.17621145 16:0.29498813 #
2 1:0.0028661243 2:0.05882353 3:0.030303031 4:0.0041417507 5:0.17515624 6:0.10596026 7:0.25496688 8:0.80994093 9:0.80521405 10:0.42563966 11:0.039844029 12:0.82352942 13:0.25988701 14:0.2413782 15:0.30952382 16:0.27884543 #
-2 1:0 2:0 3:0 4:0.00032496548 5:0.18098396 6:0.72970641 7:0.69170982 8:0.74837095 9:0.7441107 10:0.36246496 11:0.028671419 12:0.060606062 13:0.16666667 14:0.26770979 15:0.19908467 16:0.30849123 #
2 1:0 2:0 3:0 4:6.1637082e-05 5:0.046565879 6:0.15618661 7:0.22718053 8:0.61034566 9:0.59905392 10:0.025210202 11:0 13:0.14385965 14:0.17771024 15:0.15018316 16:0.1834328 #
2 5:0.07441663 6:0.69148934 7:0.6638298 8:0.68547058 9:0.66860855 10:0.036650736 11:0 13:0.10941476 14:0.16303676 15:0.11859838 16:0.17676957 #
-2 1:0 2:0 3:0 4:0 5:0.18887375 6:0.72450805 7:0.69588554 8:0.75594574 9:0.76265073 10:0.3266958 11:0.021925421 12:0.061538462 13:0.17647059 14:0.29210016 15:0.19347319 16:0.30379096 #
-2 1:0 2:0 3:0 4:4.4082964e-05 5:0.099366598 6:0.65005302 7:0.60551429 8:0.79264098 9:0.78886437 10:0.31922889 11:0.017095752 12:0.0625 13:0.15869565 14:0.26070708 15:0.17701149 16:0.27441433 #
2 1:0.013416816 3:0.03888889 4:0.0035998281 5:0.35656434 6:0.17113402 7:0.074226804 8:0.88736469 9:0.89232695 10:0.63685817 11:0.125227 12:0.48780489 13:0.4957265 14:0.49685201 15:0.54824561 16:0.54467392 #
-2 5:0.17926478 6:0.62872928 7:0.60331494 8:0.80084008 9:0.79903531 10:0.34770316 11:0.015055718 13:0.21026894 14:0.30008921 15:0.23884514 16:0.33471721 #
2 1:0 2:0 3:0 4:7.6080338e-05 5:0.033123303 6:0.22773723 7:0.30656934 8:0.61359471 9:0.60555577 10:0.041645683 11:0.0013539772 13:0.17424242 14:0.14715344 15:0.19838056 16:0.16015039 #
2 1:0 2:0 3:0 4:0.00017805739 5:0.054126639 6:0.96747965 7:1.1747967 8:0.59383702 9:0.58571863 10:0.046103708 11:0 13:0.22222222 14:0.16584404 15:0.24832214 16:0.17768964 #
1.5912348368299866763209138298407 1:0 2:0 3:0 4:0.0003644315 5:0.040028378 6:5.1964288 7:5.7678571 8:0.59505105 9:0.58558387 10:0.02574412 11:0 13:0.30666667 14:0.15786663 15:0.31999999 16:0.16975869 #
-2 1:0 2:0.00077160494 3:0 4:0.00024062817 5:0.14227046 6:2.927835 7:3.6391752 8:0.62870204 9:0.64212251 10:0.40965161 11:0.015646236 12:0.0625 13:0.56578946 14:0.32920265 15:0.60273975 16:0.34878919 #
-2 5:0.089928642 6:0.9060443 7:0.90005982 8:0.72034824 9:0.71317583 10:0.29417282 11:0.0042522978 12:0.075471699 13:0.088566825 14:0.23367482 15:0.10990991 16:0.26023501 #
2 1:0 2:0 3:0 4:0.00010618417 5:0.048563685 6:0.57918966 7:0.64917129 8:0.66739821 9:0.63864654 10:0.047188453 11:0 13:0.13445379 14:0.14582743 15:0.16018307 16:0.16999708 #
-2 1:0 2:0 3:0 4:0.00011690438 5:0.1600024 6:1.373913 7:1.6217391 8:0.67397398 9:0.67451048 10:0.30924344 11:0.0074602771 12:0.029850746 13:0.45412844 14:0.29471645 15:0.50710899 16:0.32682157 #
-2 1:0 2:0 3:0 4:0.00010964913 5:0.15396711 6:0.53162396 7:0.49230769 8:0.66213369 9:0.66863686 10:0.41458246 11:0.028145239 12:0.033613447 13:0.29218107 14:0.3304292 15:0.31739131 16:0.35389391 #
2 1:0.00038231956 2:0.0069404282 3:0.050000001 4:0.0035860091 5:0.35718399 6:0.69377989 7:0.67344499 8:0.92846519 9:0.92556679 10:0.8247115 11:0.097980671 13:0.26163393 14:0.41305369 15:0.29341316 16:0.44257799 #
-2 1:0 2:0 3:0 4:0 5:0.056716148 6:0.79636365 7:0.78727275 8:0.55674452 9:0.56264186 10:0.30499363 11:0 13:0.14885496 14:0.27073416 15:0.17254902 16:0.3061541 #
2 1:0 2:0 3:0 4:0 5:0.069353506 6:0.27272728 7:0.29313543 8:0.71675342 9:0.68527275 10:0.028594799 11:0 13:0.14772727 14:0.15742473 15:0.168 16:0.17908861 #
2 5:0.32325408 6:0.27272728 7:0.14141414 8:0.77535826 9:0.79049003 10:0.82252926 11:0.1673419 13:0.61428571 14:0.6578899 15:0.60869563 16:0.64738083 #
2 1:0.00040392976 2:0.010617761 3:0.032967035 4:0.0029032258 5:0.18844298 6:4.8546023 7:4.7259417 8:0.51605809 9:0.49750867 10:0.62821275 11:0.0029216327 13:0.32380953 14:0.17584276 15:0.35844156 16:0.18508241 #
2 1:0.0022381986 2:0.021088436 3:0.083333336 4:0.0066142092 5:0.2535426 6:0.43888572 7:0.39624786 8:0.91094446 9:0.90572822 10:0.78551859 11:0.045378149 13:0.32175228 14:0.40195209 15:0.3581315 16:0.43432033 #
2 1:0 2:0 3:0 4:1.4042183e-05 5:0.015198692 6:0.19166666 7:0.32499999 8:0.48052993 9:0.47782472 10:0.018611368 11:0 12:0.039215688 13:0.14606741 14:0.13447876 15:0.14772727 16:0.13588932 #
2 1:0.00017907706 2:0.0033467743 3:0.063636363 4:0.002232143 5:0.16617969 6:0.87568384 7:0.87209958 8:0.78386772 9:0.78003442 10:0.63366026 11:0.02376879 13:0.099337749 14:0.21768339 15:0.12851986 16:0.25863189 #
-2 1:0 2:0 3:0 4:0.00014376079 5:0.089471355 6:0.43670887 7:0.61392403 8:0.68107581 9:0.67963856 10:0.32609567 11:0.011266935 12:0.034188036 13:0.37016574 14:0.30591527 15:0.41477272 16:0.33995065 #
2 5:0.42147079 6:0.24166666 7:0.10833333 8:0.85885745 9:0.86050004 10:0.79306662 11:0.1380668 13:0.53658539 14:0.57263714 15:0.53086418 16:0.57105368 #
-2 1:0 2:0 3:0 4:0 5:0.22215277 6:0.42871386 7:0.38285145 8:0.78843236 9:0.78010833 10:0.37302801 11:0.02162561 13:0.22247706 14:0.26228902 15:0.25925925 16:0.28986067 #
2 1:0 2:0 3:0 4:0.00012993763 5:0.033967298 6:0.90822262 7:0.89908636 8:0.49366385 9:0.48954248 10:0.057517003 11:0 13:0.094614267 14:0.20054308 15:0.11467116 16:0.2207606 #
