SVM-light Version V6.02
0 # kernel type
3 # kernel parameter -d 
1 # kernel parameter -g 
1 # kernel parameter -s 
1 # kernel parameter -r 
empty# kernel parameter -u 
192 # highest feature index 
384 # number of training documents 
2 # number of support vectors plus 1 
-1 # threshold b, each following line is a SV (starting with alpha*y)
2.0719629204052477511247373720477e-19 13:0.1008556 14:0.1008556 15:0.1008556 16:9.4405146 17:9.4405146 18:9.4405146 19:9.5819931 20:9.5819931 21:9.5819931 22:0.59308785 23:0.59308785 24:0.59308785 25:0.58400494 26:0.58400494 27:0.58400494 28:0.071695171 29:0.071695171 30:0.071695171 31:0.0042704274 32:0.0042704274 33:0.0042704274 37:0.33689839 38:0.33689839 39:0.33689839 40:0.15384504 41:0.15384504 42:0.15384504 43:0.39444444 44:0.39444444 45:0.39444444 46:0.18045664 47:0.18045664 48:0.18045664 #
