SVM-light Version V6.02
0 # kernel type
3 # kernel parameter -d 
1 # kernel parameter -g 
1 # kernel parameter -s 
1 # kernel parameter -r 
empty# kernel parameter -u 
16 # highest feature index 
1760 # number of training documents 
46 # number of support vectors plus 1 
-0.9998531 # threshold b, each following line is a SV (starting with alpha*y)
-0.0001 6:0.11884655 #
0.0001 5:0.598364 6:0.12152778 7:0.0069444445 8:0.89546186 9:0.90254474 10:0.81899512 11:0.35811278 12:0.43421054 13:0.69550174 14:0.72885001 15:0.72161174 16:0.74373519 #
-0.0001 1:0.015151516 2:0.041666668 3:0.16666667 4:0.014994233 5:0.770778 6:0.25955734 7:0.11569417 8:0.98333573 9:0.98317486 10:0.88647902 11:0.26543283 12:0.20588236 13:0.59788358 14:0.63555723 15:0.63225061 16:0.66508037 #
0.0001 3:0 4:0.0011454754 5:0.0028662239 6:0.27659574 7:0.44255319 8:0.019088637 9:0.018939072 10:0.0050840457 11:0 13:0.039370079 14:0.033348899 15:0.039682541 16:0.034063298 #
-0.0001 5:0.41305044 6:0.069590762 7:0.19114667 8:0.78795886 9:0.7883206 10:0.82123971 11:0.12722333 12:0.56521738 13:0.70172203 14:0.63210195 15:0.72000003 16:0.64511752 #
0.0001 3:0 4:0.0013149244 5:0.0030659849 6:0.064406782 7:0.074576274 8:0.28684637 9:0.28002456 10:0.0045149005 11:0 13:0.062937066 14:0.052310552 15:0.063380279 16:0.053405173 #
-0.0001 6:0.63455445 #
0.0001 5:0.75112569 6:0.047619049 7:0 8:0.89521217 9:0.89633095 10:0.86707145 11:0.59824818 12:0.43421054 13:0.84036142 14:0.8564133 15:0.84664536 16:0.86050302 #
-0.0001 5:0.82706273 6:0.27371037 7:0.25531387 8:0.78042203 9:0.78078139 10:0.86997956 11:0.36092246 12:0.29411766 13:0.62724727 14:0.59914476 15:0.6996904 16:0.66001511 #
0.0001 3:0 4:0.0015015015 5:0.016650578 6:0.12969284 7:0.071672358 8:0.1144132 9:0.11343356 10:0.007436018 11:0 13:0.084507041 14:0.079364106 15:0.085714288 16:0.080940783 #
8.451234812774788e-007 3:0 4:0.0015873016 5:0.015924988 6:0.032478634 7:0.034188036 8:0.087420963 9:0.087016381 10:0.017073482 11:0 13:0.099547513 14:0.091602281 15:0.11926606 16:0.11159518 #
0.0001 3:0 4:0.0011396011 5:0.00073336984 6:0.92728692 7:0.92064112 8:0.059658486 9:0.059654541 10:0.0016215777 11:0 13:0.024344569 14:0.050092731 15:0.028355388 16:0.054160096 #
-0.0001 6:0.36544585 #
-0.0001 6:0.30775347 #
-0.0001 1:0.015151516 2:0.041666668 3:0.16666667 4:0.014994233 5:0.71341807 6:0.23577236 7:0.11852803 8:0.97616249 9:0.97603285 10:0.84863538 11:0.25680551 12:0.20588236 13:0.60509557 14:0.6313259 15:0.64697611 16:0.657224 #
0.0001 3:0 4:0.0011454754 5:0.0031163236 6:0.035211269 7:0.07394366 8:0.035495158 9:0.035841435 10:0.0048865313 11:0 13:0.05109489 14:0.045600913 15:0.059259258 16:0.053280082 #
-0.0001 6:0.0090503059 #
0.0001 1:0 2:0 3:0 4:0.0015686274 5:0.78929061 6:0.034192488 7:0.024702771 8:0.9023751 9:0.90425342 10:0.89417404 11:0.39534727 13:0.67504317 14:0.67461264 15:0.71223384 16:0.69816935 #
-0.0001 1:0.015151516 2:0.041666668 3:0.16666667 4:0.014994233 5:0.76560783 6:0.24499361 7:0.10907541 8:0.97800076 9:0.97629344 10:0.85846829 11:0.27191904 12:0.20588236 13:0.59774435 14:0.63754672 15:0.62328768 16:0.65850806 #
0.0001 5:0.0038582727 6:0.091787443 7:0.014492754 8:0.044827688 9:0.043713249 10:0.001152438 11:0 12:0.44 13:0.074468084 14:0.062370859 15:0.076086953 16:0.064759322 #
-0.0001 6:0.032920431 #
0.0001 5:0.85109872 6:0.17451236 7:0.076723017 8:0.88015211 9:0.88357216 10:0.92250574 11:0.63355577 13:0.62630206 14:0.59234685 15:0.68118197 16:0.64507329 #
-0.0001 1:0.015151516 2:0.041666668 3:0.16666667 4:0.014994233 5:0.73366672 6:0.24489796 7:0.11670918 8:0.98032653 9:0.98100203 10:0.8838827 11:0.26698956 12:0.20588236 13:0.58638746 14:0.63629901 15:0.62121212 16:0.65772814 #
0.0001 3:0 4:0.0011514105 5:0.003237959 6:0.080882356 7:0.040441178 8:0.06659434 9:0.06816636 10:0.013416809 11:0 13:0.065693431 14:0.062782213 15:0.073529415 16:0.070966616 #
-0.0001 6:0.033820137 #
0.0001 5:0.64240694 6:0.081836328 7:0.029940119 8:0.87100911 9:0.87260175 10:0.79406059 11:0.33751711 13:0.59139782 14:0.57319659 15:0.61202186 16:0.59595549 #
-0.0001 1:0.015151516 2:0.041666668 3:0.16666667 4:0.014994233 5:0.66688144 6:0.24355179 7:0.13319239 8:0.96668375 9:0.96599197 10:0.77861559 11:0.17648488 12:0.20588236 13:0.58164483 14:0.62001705 15:0.60802072 16:0.63576764 #
0.0001 3:0 4:0.0011514105 5:0.0037386378 6:0.13333334 7:0.039999999 8:0.14212108 9:0.14053093 10:0.0059460183 11:0 13:0.059999999 14:0.052223295 15:0.060810812 16:0.053529721 #
-0.0001 6:0.066285327 #
0.0001 5:0.58690238 6:0.10858144 7:0.0070052538 8:0.86181736 9:0.86638224 10:0.85295379 11:0.29970166 12:0.43421054 13:0.65625 14:0.68425459 15:0.67637539 16:0.69818103 #
-0.0001 1:0.015151516 2:0.041666668 3:0.16666667 4:0.014994233 5:0.65857673 6:0.22279203 7:0.12079772 8:0.97081035 9:0.96988851 10:0.83505249 11:0.20203972 12:0.20588236 13:0.56194693 14:0.59551454 15:0.60064411 16:0.62204778 #
0.0001 3:0 4:0.0011757789 5:0.0027094402 6:0.0098360656 7:0.10163935 8:0.066007674 9:0.066027388 10:0.0042945966 11:0 13:0.046357617 14:0.040689424 15:0.053691275 16:0.047672283 #
-0.0001 6:0.073817037 #
0.0001 5:0.62364042 6:0.06967213 7:0.045081966 8:0.86156785 9:0.86415833 10:0.7959373 11:0.32490066 13:0.59776539 14:0.57419103 15:0.61849713 16:0.59489447 #
-0.0001 1:0.015151516 2:0.041666668 3:0.16666667 4:0.014994233 5:0.62766606 6:0.26068377 7:0.12606838 8:0.96436834 9:0.96565849 10:0.63590598 11:0.20087133 12:0.20588236 13:0.56561923 14:0.61197472 15:0.58708417 16:0.62561125 #
0.0001 3:0 4:0.0011055832 5:0.0041000484 6:0.31617647 7:0.23161764 8:0.093945868 9:0.094524622 10:0.0062733795 11:0 13:0.043795619 14:0.044617373 15:0.051470589 16:0.05368755 #
-0.0001 6:0.078373015 #
0.0001 5:0.52727485 6:0.11278196 7:0.0060150377 8:0.87546301 9:0.87865138 10:0.78074914 11:0.26683834 12:0.43421054 13:0.66666669 14:0.69775188 15:0.69376695 16:0.71542162 #
-0.0001 6:0.08843074 #
0.0001 3:0 4:0.0011514105 5:0.017545156 6:0.13380282 7:0.056338027 8:0.11075742 9:0.11086641 10:0.0082663754 11:0 13:0.072992697 14:0.068623662 15:0.081481479 16:0.077043734 #
-0.0001 6:0.12522936 #
0.0001 3:0 4:0.027777778 5:0.027416676 6:0.086092718 7:0 8:0.11073118 9:0.1098851 10:0.0098674791 11:0 13:0.08387097 14:0.08497458 15:0.084967323 16:0.085812785 #
-0.0001 6:0.25242719 #
0.0001 3:0 4:0.027777778 5:0.0035271887 6:0.27848101 7:0.39662448 8:0.052948743 9:0.051528219 10:0.0028158396 11:0 13:0.03875969 14:0.030451031 15:0.039370079 16:0.031372789 #
0.0001 3:0 4:0.0011574074 5:0.02887016 6:0.12867647 7:0.044117648 8:0.15914552 9:0.15914322 10:0.011053075 11:0 13:0.087591238 14:0.085733972 15:0.095588237 16:0.094212793 #
