SVM-light Version V6.02
0 # kernel type
3 # kernel parameter -d 
1 # kernel parameter -g 
1 # kernel parameter -s 
1 # kernel parameter -r 
empty# kernel parameter -u 
192 # highest feature index 
384 # number of training documents 
55 # number of support vectors plus 1 
-1.1221553 # threshold b, each following line is a SV (starting with alpha*y)
-0.5 1:0 2:0 3:0 4:4.7344001e-05 5:0.25380969 6:0.36559141 7:0.38853046 8:0.86671996 9:0.86759293 10:0.51672947 11:0.024939222 12:0.059701491 13:0.26917511 14:0.35352135 15:0.29907975 16:0.38279766 #
-0.5 5:0 6:0.87646008 7:0.87478596 8:0.00020814402 9:0.00020404042 10:1.2487508e-09 11:0 13:0.00037383178 14:0.00061356911 15:0.00037383178 16:0.0006593088 #
0.43627267323137225440987663205306 5:0.20206183 6:4.7859035 7:4.0607047 8:0.82483637 9:0.8117379 10:0.11102073 11:0.0062431935 13:0.26403061 14:0.20788696 15:0.32995659 16:0.26193377 #
0.5 1:0 2:0 3:0 4:0.00050179212 5:0.34334865 6:0.34375739 7:0.17533235 8:0.81970423 9:0.80931062 10:0.21898118 11:0.012962966 12:0.078431375 13:0.20325203 14:0.26312324 15:0.25524476 16:0.319309 #
0.5 5:0.036130115 6:0.11267605 7:0.16619718 8:0.58733612 9:0.58372939 10:0.076326743 11:0 13:0.16246499 14:0.1871835 15:0.19512194 16:0.20895849 #
0.5 5:0.35542977 6:0.99007386 7:0.9906975 8:0.45800427 9:0.45701224 10:0.11691689 11:0.023584714 13:0.037609436 14:0.14454806 15:0.035695065 16:0.14367788 #
0.5 5:0.086095743 6:0.96007681 7:0.96212924 8:0.60581541 9:0.59346384 10:0.10953942 11:0.0038858112 13:0.032775693 14:0.10470577 15:0.042809643 16:0.12826909 #
-0.5 5:0.68523413 6:0.76428872 7:0.77426529 8:0.068410039 9:0.069752708 10:0.080219023 11:0.62426484 13:0.062315851 14:0.20835218 15:0.059661619 16:0.20639841 #
-0.5 1:0.00033141847 2:0.010625738 3:0.041666668 4:0.0040561096 5:0.32426035 6:0.96949351 7:0.96985841 8:0.83195859 9:0.82796597 10:0.39215505 11:0.040440716 12:0.5 13:0.048149262 14:0.17697786 15:0.059878092 16:0.20285657 #
-0.5 1:0.010285715 2:0.037878789 3:0.0069444445 4:0.0055017606 12:0.38235295 #
0.5 5:0.29736823 6:1.785154 7:1.4360659 8:0.84020287 9:0.82870233 10:0.19706431 11:0.0091749271 12:0.078431375 13:0.23615576 14:0.24338438 15:0.28676152 16:0.2948845 #
-0.5 1:0.00061349693 2:0.0055361306 3:0.021428572 4:0.0022662592 5:0.30667129 6:0.96627474 7:0.96740127 8:0.83322901 9:0.82872075 10:0.49407357 11:0.030697405 12:0.56 13:0.048589781 14:0.18522048 15:0.059672132 16:0.21097285 #
-0.5 5:0.50703764 6:5.5648174 7:4.8998814 8:0.89101255 9:0.88566768 10:0.48630279 11:0.13404983 13:0.77263683 14:0.42509007 15:0.79852128 16:0.43903491 #
0.5 9:0.1018525 10:0.1018525 11:0.94140625 12:0.94140625 13:0.9435249 14:0.9435249 15:0.56695873 16:0.56695873 17:0.55172175 18:0.55172175 19:0.088448711 20:0.088448711 21:0.0034004524 22:0.0034004524 25:0.038921133 26:0.038921133 27:0.10544161 28:0.10544161 29:0.053615961 30:0.053615961 31:0.13182579 32:0.13182579 #
0.01218587946398463905950393382227 1:0 2:0 3:0 4:0 5:0.13285521 6:0.99971604 7:0.99972159 8:0.31901932 9:0.31673247 10:0.038511958 11:0.006884879 13:0.0034919467 14:0.050318748 15:0.0039404891 16:0.054799408 #
0.5 5:0.040798683 6:0.41690141 7:0.42816901 8:0.58731651 9:0.58419538 10:0.076227076 11:0 13:0.13165267 14:0.19427183 15:0.16158536 16:0.21873206 #
0.5 5:0.036967956 6:0.024767801 7:0.083591335 8:0.5401572 9:0.53637832 10:0.058546636 11:0 12:0.050000001 13:0.18855219 14:0.19832633 15:0.21582733 16:0.21278736 #
-0.5 1:0.00075921911 2:0.0073397779 3:0.055172414 4:0.00091124477 5:0.68603557 6:0.91094077 7:0.91141558 8:0.79343688 9:0.79272228 10:0.50181544 11:0.56023544 13:0.10823909 14:0.27236867 15:0.12519416 16:0.29673395 #
-0.5 1:0.00034602077 2:0.012626262 3:0.024 4:0.0025118289 5:0.14258839 6:0.95292902 7:0.95971918 8:0.6201269 9:0.62072551 10:0.27230462 11:0.034069512 12:0.53846157 13:0.05027933 14:0.17340761 15:0.057604641 16:0.188227 #
-0.5 1:0.00972973 2:0.037878789 3:0.0062500001 4:0.0050301813 5:0.16459851 6:0.21630435 7:0.26304349 8:0.6837613 9:0.67873567 10:0.15483841 11:0.0041959723 12:0.43333334 13:0.12334802 14:0.15829132 15:0.14153132 16:0.17283921 #
0.5 5:0.26023832 6:0.29526421 7:0.31863555 8:0.7138055 9:0.70329297 10:0.20656399 11:0.0097323367 13:0.14046974 14:0.17975622 15:0.19493008 16:0.22404379 #
-0.5 1:0.00027121505 2:0.014610389 3:0.013043478 4:0.0013681632 5:0.29877222 6:0.9802624 7:0.9811995 8:0.73139369 9:0.73483622 10:0.27129576 11:0.049400888 12:0.63636363 13:0.035810646 14:0.15915377 15:0.047420222 16:0.19039199 #
0.5 5:0.075802073 6:0.5106383 7:0.52009457 8:0.53355098 9:0.51854289 10:0.055268787 11:0 12:0.040816326 13:0.10169491 14:0.14847375 15:0.12615384 16:0.16998698 #
0.034451162445359020947144301771914 9:0.12414081 10:0.12414081 11:9.6781359 12:9.6781359 13:9.3240147 14:9.3240147 15:0.62307864 16:0.62307864 17:0.61320728 18:0.61320728 19:0.099990301 20:0.099990301 21:0.0030422553 22:0.0030422553 25:0.23589002 26:0.23589002 27:0.11919224 28:0.11919224 29:0.2791411 30:0.2791411 31:0.1398389 32:0.1398389 #
0.5 5:0.2491834 6:0.46067858 7:0.4122377 8:0.77644306 9:0.7636404 10:0.19543122 11:0.0078630289 13:0.17256163 14:0.17288403 15:0.22552824 16:0.21307462 #
-0.5 1:0.00040616549 2:0.0050392672 3:0.018726591 4:0.00043016818 5:0.25117615 6:0.96661085 7:0.96819663 8:0.68426067 9:0.68211365 10:0.58104968 11:0.07414937 13:0.07209447 14:0.2498202 15:0.080276817 16:0.26510391 #
0.5 5:0.11658994 6:0.95921612 7:0.96001059 8:0.52673829 9:0.51688319 10:0.069085896 11:0.0037174874 13:0.033117104 14:0.10506681 15:0.042809643 16:0.12803045 #
-0.5 1:7.3482282e-05 2:0.0044068131 3:0.003888597 4:0.00010304456 5:0.22518183 6:0.89917058 7:0.91078281 8:0.33745322 9:0.33690664 10:0.15414318 11:0.32030541 13:0.082907312 14:0.1928245 15:0.098630831 16:0.21500181 #
-0.5 5:0.057607986 6:0.46784756 7:0.59681237 8:0.25518578 9:0.25675073 10:0.050488293 11:0.03567579 13:0.72406721 14:0.67309731 15:0.78504676 16:0.70727926 #
0.5 5:0.22814575 6:0.42571503 7:0.33613613 8:0.67750764 9:0.66764188 10:0.18532032 11:0.0053206901 13:0.18402185 14:0.16081826 15:0.2364921 16:0.20471247 #
0.5 1:0 2:0 3:0 4:0 5:0 6:0 7:0.00022346369 8:0.00022346369 9:0.16487266 10:0.16487266 11:0.99959207 12:0.99959207 13:0.99960679 14:0.99960679 15:0.34124023 16:0.34124023 17:0.3374885 18:0.3374885 19:0.058551826 20:0.058551826 21:0.002974065 22:0.002974065 25:0.0047283298 26:0.0047283298 27:0.056769375 28:0.056769375 29:0.005459019 30:0.005459019 31:0.062412981 32:0.062412981 #
0.5 1:0 2:0 3:0 4:0.00025201612 5:0.25107089 6:2.1985359 7:1.7976351 8:0.81732249 9:0.80479705 10:0.14448944 11:0.0053364132 13:0.25088653 14:0.23388228 15:0.29774436 16:0.28398517 #
-0.5 1:0 2:0 3:0 4:5.6084202e-05 5:0.16169699 6:0.23529412 7:0.12352941 8:0.45804569 9:0.47273636 10:0.39216113 11:0.065277196 12:0.04255319 13:0.32843137 14:0.33751991 15:0.34170854 16:0.35156325 #
0.5 5:0.16050716 6:0.71140093 7:0.72629768 8:0.68132037 9:0.67133015 10:0.10658415 11:0.0030916063 13:0.090815976 14:0.13291204 15:0.13050707 16:0.17747745 #
-0.5 1:0.00022492128 2:0.018099548 3:0.018181818 4:0.0019000486 5:0.11377106 6:0.93864566 7:0.94319046 8:0.55466729 9:0.55179256 10:0.26261669 11:0.015061673 12:0.51851851 13:0.052605458 14:0.16107143 15:0.063626125 16:0.18036856 #
0.5 5:0.17005141 6:2.0344265 7:1.9337951 8:0.79531527 9:0.78054625 10:0.10146992 11:0.0048288233 13:0.18813775 14:0.14632902 15:0.24819103 16:0.18101749 #
-0.5 5:0.16596648 6:0.17426273 7:0.19034852 8:0.73727071 9:0.74317062 10:0.60462683 11:0.023922222 12:0.031496063 13:0.29781422 14:0.3469536 15:0.32378224 16:0.36879888 #
0.017142428879499644472916841664301 1:0 2:0 3:0 4:0 5:0 6:0 7:0 8:0 9:0 10:0.00013391263 11:0.00013391263 12:0.00013391263 13:0.10797583 14:0.10797583 15:0.10797583 16:12.96411 17:12.96411 18:12.96411 19:11.213864 20:11.213864 21:11.213864 22:0.65868032 23:0.65868032 24:0.65868032 25:0.64799017 26:0.64799017 27:0.64799017 28:0.08346615 29:0.08346615 30:0.08346615 31:0.0020554627 32:0.0020554627 33:0.0020554627 34:0.033898305 35:0.033898305 36:0.033898305 37:0.37386805 38:0.37386805 39:0.37386805 40:0.20618372 41:0.20618372 42:0.20618372 43:0.45244956 44:0.45244956 45:0.45244956 46:0.2545251 47:0.2545251 48:0.2545251 #
-0.5 1:0 2:0 3:0 4:5.6003584e-05 5:0.15426031 6:0.15765765 7:0.0990991 8:0.63299692 9:0.63773358 10:0.44071168 11:0.046283543 13:0.36820084 14:0.36118445 15:0.39148936 16:0.37363198 #
-0.5 1:0.00045098539 2:0.0077805077 3:0.0042016809 4:0.00025566458 5:0.22453155 6:0.91707844 7:0.91936845 8:0.59937364 9:0.60263366 10:0.4281598 11:0.032827556 13:0.13230605 14:0.29130611 15:0.14591777 16:0.30824703 #
0.46651452757558331541076768189669 5:0.063294917 6:0.17270789 7:0.2260128 8:0.69759667 9:0.68158019 10:0.062686227 11:0.0026838635 12:0.065573767 13:0.19047619 14:0.22353087 15:0.21245421 16:0.24024133 #
-0.498581294639587724315532568653 1:0.010285715 2:0.010285715 3:0.037878789 4:0.037878789 5:0.0062500001 6:0.0062500001 7:0.0050301813 8:0.0050301813 9:0.39902154 10:0.39902154 11:0.096354164 12:0.096354164 13:0.046875 14:0.046875 15:0.77594727 16:0.77594727 17:0.78333825 18:0.78333825 19:0.6455943 20:0.6455943 21:0.21850252 22:0.21850252 23:0.41935483 24:0.06666667 25:0.5350877 26:0.5350877 27:0.56089914 28:0.56089914 29:0.56422019 30:0.56422019 31:0.59353149 32:0.59353149 #
-0.5 5:0.20545265 6:0.16720258 7:0.1414791 8:0.73663187 9:0.74177903 10:0.47291976 11:0.052148536 12:0.048780486 13:0.31016043 14:0.30814546 15:0.33888888 16:0.3316001 #
-0.5 1:0.0010033321 2:0.0063247862 3:0.071428575 4:0.0024148005 5:0.26199615 6:0.93436533 7:0.93733746 8:0.60380226 9:0.60368103 10:0.47660947 11:0.056303173 13:0.11384153 14:0.27757353 15:0.14011976 16:0.31284931 #
0.5 5:0.097992599 6:0.40517241 7:0.41666666 8:0.69640446 9:0.68968445 10:0.080822095 11:0 12:0.040816326 13:0.10869565 14:0.16096799 15:0.12146892 16:0.17082062 #
0.5 5:0.083522975 6:0.9721266 7:0.97576803 8:0.64932781 9:0.62333232 10:0.12504213 11:0 13:0.023898942 14:0.089455143 15:0.032418951 16:0.11329576 #
-0.5 1:0.00041254127 2:0.0072930073 3:0.017142856 4:0.0019740164 5:0.23451072 6:0.9683246 7:0.97024435 8:0.83651316 9:0.83282936 10:0.4215292 11:0.021005249 12:0.56 13:0.0474732 14:0.19713472 15:0.05619951 16:0.21697493 #
0.5 1:0 2:0 3:0 4:0.00010936432 5:0.13044871 6:0.99972206 7:0.99973631 8:0.40722939 9:0.40488976 10:0.075624675 11:0.0050494606 13:0.0038093964 14:0.055493269 15:0.0042672614 16:0.059454359 #
0.5 1:0 2:0 3:0 4:8.2815735e-05 5:0.23364197 6:0.99563158 7:0.99602979 8:0.6218099 9:0.609254 10:0.052043132 11:0.018064879 13:0.018061217 14:0.1032378 15:0.019702446 16:0.11036459 #
-0.5 5:0.25052562 6:0.96661085 7:0.96819663 8:0.68411428 9:0.68196583 10:0.58045244 11:0.077290274 13:0.072049692 14:0.24974261 15:0.080249049 16:0.26505804 #
0.5 5:0.23501557 6:0.99799073 7:0.99809444 8:0.4827069 9:0.48157009 10:0.065864533 11:0.0060269292 13:0.01456927 14:0.094447374 15:0.01651161 16:0.10441253 #
0.01317853942077639242680398012908 17:0.16634253 18:0.16634253 19:0.16634253 20:0.16634253 21:3.6217809 22:3.6217809 23:3.6217809 24:3.6217809 25:3.4685075 26:3.4685075 27:3.4685075 28:3.4685075 29:0.73070848 30:0.73070848 31:0.73070848 32:0.73070848 33:0.71859497 34:0.71859497 35:0.71859497 36:0.71859497 37:0.095642649 38:0.095642649 39:0.095642649 40:0.095642649 41:0.0023843874 42:0.0023843874 43:0.0023843874 44:0.0023843874 49:0.21788773 50:0.21788773 51:0.21788773 52:0.21788773 53:0.13183664 54:0.13183664 55:0.13183664 56:0.13183664 57:0.27377221 58:0.27377221 59:0.27377221 60:0.27377221 61:0.16615972 62:0.16615972 63:0.16615972 64:0.16615972 #
-0.074646031160056414144321479398059 1:0.00012151009 2:0.0023496239 3:0.021012006 4:0.00040407397 5:0.36389828 6:0.77629226 7:0.78721291 8:0.67678589 9:0.68231791 10:0.63862187 11:0.084892265 13:0.20025873 14:0.36566791 15:0.22403733 16:0.38935241 #
0.093482114783090708431956272761454 17:0.1401076 18:0.1401076 19:0.1401076 20:0.1401076 21:0.88135594 22:0.88135594 23:0.88135594 24:0.88135594 25:0.88612288 26:0.88612288 27:0.88612288 28:0.88612288 29:0.65256113 30:0.65256113 31:0.65256113 32:0.65256113 33:0.64020914 34:0.64020914 35:0.64020914 36:0.64020914 37:0.077872351 38:0.077872351 39:0.077872351 40:0.077872351 41:0.002196721 42:0.002196721 43:0.002196721 44:0.002196721 49:0.052236259 50:0.052236259 51:0.052236259 52:0.052236259 53:0.11238321 54:0.11238321 55:0.11238321 56:0.11238321 57:0.075228594 58:0.075228594 59:0.075228594 60:0.075228594 61:0.15114982 62:0.15114982 63:0.15114982 64:0.15114982 #
