SVM-light Version V6.02
0 # kernel type
3 # kernel parameter -d 
1 # kernel parameter -g 
1 # kernel parameter -s 
1 # kernel parameter -r 
empty# kernel parameter -u 
16 # highest feature index 
2236 # number of training documents 
789 # number of support vectors plus 1 
-0.72781052 # threshold b, each following line is a SV (starting with alpha*y)
-2 1:0 2:0 3:0 4:3.4933684e-05 5:0.096721284 6:1.1782945 7:1.5736434 8:0.6444636 9:0.6491183 10:0.2266387 11:0 12:0.070422538 13:0.32653061 14:0.25342104 15:0.33684212 16:0.25033638 #
2 1:0.0042666667 2:0.1 3:0.03125 4:0.0043951739 5:0.47385767 6:0.1507732 7:0.036082473 8:0.89762479 9:0.89787352 10:0.73348165 11:0.078356564 12:0.86956519 13:0.31831831 14:0.32593733 15:0.34726688 16:0.33019033 #
-2 1:0.029748283 2:0 3:0.12037037 4:0.0020961934 5:0.70511621 6:0.0042052143 7:0.040370058 8:0.75996262 9:0.77890021 10:0.96357757 11:0.52570963 12:0.33898306 13:0.729927 14:0.69499356 15:0.77350426 16:0.72961336 #
2 1:0.014492754 2:0.12 3:0.03888889 4:0.0060656606 5:0.37069899 6:0.24913494 7:0.1366782 8:0.90958643 9:0.91286349 10:0.64320767 11:0.10432991 12:0.46808511 13:0.5147059 14:0.53755301 15:0.5546875 16:0.56356305 #
-2 1:0 2:0 3:0 4:0 5:0.10883407 6:0.079825833 7:0.16835994 8:0.66725856 9:0.67138195 10:0.34899125 11:0.0030901125 12:0.030303031 13:0.35103244 14:0.3287971 15:0.38601825 16:0.3531909 #
2 1:0 2:0 3:0 4:0.00034083164 6:0.0330033 #
-2 5:0.087806486 6:0.16091955 7:0.059386972 8:0.73139679 9:0.72657472 10:0.1338919 11:0.0022471966 12:0.055555556 13:0.17266187 14:0.18531233 15:0.19548872 16:0.20245881 #
-2 1:0 2:0 3:0 4:0.00016923338 5:0.13892885 6:0.80715704 7:0.80318093 8:0.63525385 9:0.64223915 10:0.32484493 11:0.030036066 12:0.034482758 13:0.19354838 14:0.31679398 15:0.21327014 16:0.3442142 #
2 1:0 2:0 3:0 4:0.00015151515 5:0.029449221 6:0.68038744 7:0.67312348 8:0.52210516 9:0.52590328 10:0.017656503 11:0 13:0.07079646 14:0.1196027 15:0.074074075 16:0.11671683 #
-2 1:0.034023669 2:0 3:0.27210885 4:0.0026927437 5:0.79175615 6:0.11986153 7:0.1354392 8:0.82439876 9:0.82867175 10:0.96103495 11:0.5724473 12:0.33898306 13:0.74489796 14:0.71931034 15:0.77611941 16:0.74252385 #
2 1:0 2:0 3:0 4:0 5:0.0055720899 6:1.3468208 7:1.8612716 8:0.34351575 9:0.33434612 10:0.021066967 11:0 13:0.20792079 14:0.13689281 15:0.22105263 16:0.14526004 #
2 1:0 2:0 3:0 4:1.1716187e-05 5:0.061710414 6:0.87634408 7:0.86881721 8:0.71931946 9:0.70701897 10:0.024953006 11:0 12:0.043478262 13:0.058375634 14:0.12874703 15:0.061662197 16:0.13484229 #
2 5:0.33717564 6:0.21582733 7:0.10071942 8:0.83301163 9:0.85325521 10:0.79931134 11:0.14313698 13:0.52127659 14:0.53775877 15:0.52747256 16:0.53638816 #
2 5:0.21542858 6:0.025210084 7:0.1092437 8:0.78972191 9:0.79715395 10:0.83432811 11:0.077498429 13:0.62962961 14:0.60066545 15:0.66250002 16:0.62811023 #
-2 1:0.079999998 2:0 3:0.16 4:0.011944445 5:0.5593667 6:0.075060531 7:0.024213076 8:0.76575792 9:0.77392638 10:0.77753323 11:0.36861518 12:0.32258064 13:0.52023119 14:0.50329864 15:0.6100629 16:0.57497197 #
2 1:0.00062637019 2:0.0083333338 3:0.24363637 4:0.0027006173 5:0.34527811 6:0.15183246 7:0.13874346 8:0.87059265 9:0.87257612 10:0.62425917 11:0.14103061 12:0.13492064 13:0.50943398 14:0.53759849 15:0.52912623 16:0.5524106 #
2 1:0 2:0 3:0 4:5.412427e-05 5:0.098699056 6:0.87099642 7:0.84386122 8:0.60610765 9:0.60553396 10:0.11817671 11:0.0050635994 13:0.11352041 14:0.22657378 15:0.13294798 16:0.25044796 #
-2 5:0.089928642 6:0.9060443 7:0.90005982 8:0.72034824 9:0.71317583 10:0.29417282 11:0.0042522978 12:0.075471699 13:0.088566825 14:0.23367482 15:0.10990991 16:0.26023501 #
-2 1:0 2:0 3:0 4:2.6638672e-05 5:0.016675007 6:0.16194332 7:0.20242915 8:0.51618963 9:0.51423907 10:0.10961927 11:0 13:0.19512194 14:0.19148542 15:0.20987654 16:0.20078662 #
-2 1:0.00019872814 2:0.035916824 3:0.1875 4:0.01255887 5:0.019256832 6:0.41723496 7:0.40607563 8:0.60243213 9:0.57857043 10:0.035579178 11:0.0017580618 13:0.090163931 14:0.10063886 15:0.10914455 16:0.11525641 #
2 5:0.36534083 6:0.092024542 7:0.012269938 8:0.78779244 9:0.79531807 10:0.71350724 11:0.22857726 13:0.65420562 14:0.6574074 15:0.6732673 16:0.66995889 #
2 5:0.32995933 6:0.18263473 7:0.32934132 8:0.87131786 9:0.87979829 10:0.79449868 11:0.10596764 13:0.5151515 14:0.43916637 15:0.53797466 16:0.4508158 #
-2 5:0.15540357 6:0 7:0.25806451 8:0.72623307 9:0.72779715 10:0.43068376 11:0.018408762 12:0.075471699 13:0.39849624 14:0.38082024 15:0.42307693 16:0.3912634 #
2 5:0.47570664 6:0.16313213 7:0.039151713 8:0.90267175 9:0.90275121 10:0.80048126 11:0.20817195 13:0.59692305 14:0.61581749 15:0.64401293 16:0.65251511 #
-2 1:0.0010025062 2:0.0084730806 3:0.054545455 4:0.0041135335 5:0.5954836 6:0.87967914 7:0.87727273 8:0.86877191 9:0.868366 10:0.79298484 11:0.39973938 13:0.14207651 14:0.32801208 15:0.17196056 16:0.37304688 #
2 1:0.0038314175 2:0.022222223 3:0.65781331 4:0.0010830078 5:0.16038896 6:0.018796992 7:0.0075187972 8:0.87202209 9:0.86918497 10:0.66152459 11:0.043509759 12:0.26506025 13:0.49253732 14:0.47295266 15:0.54838711 16:0.50538421 #
2 1:0.00043392016 2:0.0083333338 3:0.57894737 4:0.0022394799 5:0.27992222 6:0.16587678 7:0.12085308 8:0.85961413 9:0.86506712 10:0.59210461 11:0.15180399 12:0.12977099 13:0.46610171 14:0.50388134 15:0.50666666 16:0.52197015 #
2 1:0.0015197569 2:0.027272727 3:0.37412587 4:0.0049636285 5:0.32947868 6:0.072519086 7:0.072519086 8:0.89832944 9:0.90123415 10:0.60346848 11:0.15069121 12:0.18518518 13:0.61971831 14:0.58020437 15:0.64233577 16:0.5981276 #
2 1:0 2:0 3:0 4:0.00029629629 5:0.065447718 6:0.73983741 7:0.71725386 8:0.68652284 9:0.67350459 10:0.0541691 11:0 13:0.072124757 14:0.1301696 15:0.094142258 16:0.156486 #
2 5:0.48374659 6:0.18120806 7:0.055928413 8:0.91425371 9:0.92220247 10:0.83507627 11:0.21660554 13:0.55660379 14:0.56471997 15:0.57635468 16:0.58506584 #
-2 1:0 2:0 3:0 4:0 5:0.023499183 6:0.032697547 7:0.095367849 8:0.64071244 9:0.63535327 10:0.098715037 11:0 13:0.19730942 14:0.20914494 15:0.23004694 16:0.23681448 #
2 1:0 2:0 3:0 4:0 5:0.075260386 6:0.067321181 7:0.026647966 8:0.69778347 9:0.68717909 10:0.030264206 11:0.001412762 13:0.077306733 14:0.10355263 15:0.086161882 16:0.11266539 #
-2 1:0 2:0 3:0 4:2.9137529e-05 5:0.1373063 6:0.19934641 7:0.20152505 8:0.66655868 9:0.66740841 10:0.38511857 11:0.0014475434 12:0.050632913 13:0.31463414 14:0.31942573 15:0.34020618 16:0.33803511 #
2 1:1.0884709e-05 2:0 3:0 4:0.00029360704 5:0.16523917 6:0.87417221 7:0.86341059 8:0.7266683 9:0.71293813 10:0.023038564 11:0 12:0.06666667 13:0.031021899 14:0.07226 15:0.034816246 16:0.079562724 #
2 1:0 2:0 3:0 4:0.00010596543 5:0.064674616 6:0.80022198 7:0.79356271 8:0.65320915 9:0.64896321 10:0.019398995 11:0 13:0.053908356 14:0.10334425 15:0.06779661 16:0.12217894 #
2 5:0.55167603 6:0.13095239 7:0.10154062 8:0.94606227 9:0.95040041 10:0.98854566 11:0.53477985 13:0.28915662 14:0.27464917 15:0.32911393 16:0.31361741 #
-2 1:0 2:0 3:0.1875 4:0.015190972 5:0.33327445 6:0.1375839 7:0.03691275 8:0.61243922 9:0.62293738 10:0.7187019 11:0.19732608 12:0.33333334 13:0.60683763 14:0.6134454 15:0.65765768 16:0.64894658 #
-2 1:0.074074075 2:0 3:0.3125 4:0.015190972 5:0.67446256 6:0.15308642 7:0.13950618 8:0.80297917 9:0.81137997 10:0.78173548 11:0.48698416 12:0.32258064 13:0.68461537 14:0.70397633 15:0.74222225 16:0.75060916 #
-2 1:0.048484847 2:0 3:0.171875 4:0.0072699655 5:0.48157725 6:0.16551724 7:0.08275862 8:0.78888488 9:0.79807615 10:0.47666734 11:0.30081582 12:0.33898306 13:0.67289722 14:0.65478903 15:0.69902915 16:0.68265617 #
2 1:0.022486772 2:0.12244898 3:0.033950616 4:0.00375328 5:0.17462957 6:0.26739928 7:0.35897437 8:0.83603221 9:0.830643 10:0.87040037 11:0.041552123 12:0.45238096 13:0.5 14:0.44389677 15:0.52201259 16:0.46660888 #
2 5:0.13016213 6:0.1969697 7:0.3131313 8:0.78076041 9:0.79132181 10:0.65906256 11:0.018625982 13:0.32718894 14:0.30537549 15:0.35323384 16:0.32599002 #
2 5:0.64592022 6:0.016505407 7:0.10358566 8:0.95762706 9:0.96092159 10:0.91620797 11:0.64208704 13:0.35106382 14:0.33867982 15:0.37777779 16:0.36389139 #
-2 1:0.029136317 2:0 3:0.098765433 4:0.0020861912 5:0.7823292 6:0.12730153 7:0.12037221 8:0.81101811 9:0.82083178 10:0.9590432 11:0.43532994 12:0.32786885 13:0.64757162 14:0.65434688 15:0.69378698 16:0.69276297 #
2 1:0.0010717717 2:0.01010101 3:0.1025 4:0.0068370989 5:0.40098315 6:0.22070312 7:0.17773438 8:0.92059183 9:0.92808247 10:0.68881202 11:0.16437124 12:0.84210527 13:0.54545456 14:0.59179276 15:0.59230769 16:0.62301731 #
2 1:0.0054437872 2:0.11111111 3:0.039999999 4:0.0058673471 5:0.31681281 6:0.082397006 7:0.011235955 8:0.8524583 9:0.8597725 10:0.6694774 11:0.15939417 12:0.86956519 13:0.48648649 14:0.47728732 15:0.53191489 16:0.51400012 #
-2 5:0.17457879 6:0.17647059 7:0.10392157 8:0.79492521 9:0.79961497 10:0.34100795 11:0.0070196614 13:0.2614108 14:0.26177236 15:0.3004292 16:0.2960155 #
-2 1:0 2:0 3:0 4:0 5:0.086663924 6:0.27338129 7:0.40647483 8:0.69872802 9:0.69311082 10:0.25801539 11:0.010193355 12:0.042105265 13:0.32653061 14:0.26999974 15:0.33333334 16:0.27937213 #
-2 1:0 3:0 4:0.00027073859 5:0.10322059 6:0.18489583 7:0.080729164 8:0.6663571 9:0.66369063 10:0.090865344 11:0.013535856 12:0.064516127 13:0.2029703 14:0.22134387 15:0.23195876 16:0.24081048 #
-2 1:0 2:0 3:0 4:0 5:0.41405746 6:0.70646632 7:0.65763348 8:0.90689182 9:0.90633804 10:0.36374414 11:0.030156605 13:0.16244726 14:0.25583142 15:0.20111288 16:0.29618713 #
2 5:0.32126981 6:0.15000001 7:0.06666667 8:0.73275632 9:0.73882723 10:0.81968594 11:0.19166297 13:0.64583331 14:0.65972382 15:0.70212764 16:0.71756089 #
2 1:0.0038314175 2:0.047619049 3:0.6780318 4:0.001114461 5:0.16860855 6:0.16249999 7:0.06666667 8:0.7933718 9:0.80028641 10:0.4408274 11:0.056446638 12:0.2972973 13:0.41059601 14:0.43342242 15:0.4513889 16:0.46619245 #
2 5:0.65482628 6:0.0092592593 7:0.0069444445 8:0.95515639 9:0.95448053 10:0.9697693 11:0.3804284 13:0.802935 14:0.78992915 15:0.83105022 16:0.81359118 #
-2 1:8.2778033e-06 2:0 3:0 4:0.00015760797 5:0.29114449 6:0.69774014 7:0.6581921 8:0.73949063 9:0.73852712 10:0.37272105 11:0.061812848 12:0.063492067 13:0.19135803 14:0.28252256 15:0.2147651 16:0.30474809 #
2 1:0.0027960527 2:0.11111111 3:0.015202703 4:0.0033647236 5:0.29422075 6:0.14642857 7:0.21428572 8:0.83601046 9:0.83694136 10:0.66903675 11:0.11845089 12:0.92307693 13:0.5443787 14:0.47551829 15:0.57228917 16:0.50169837 #
-2 1:0 2:0 3:0 4:0.0002980213 5:0.10227392 6:0.20824742 7:0.15876289 8:0.71647733 9:0.71558994 10:0.31788728 11:0.016869919 12:0.056338027 13:0.27826086 14:0.2791203 15:0.29545453 16:0.29022485 #
2 1:0.0048022601 2:0.023809524 3:0.061904762 4:0.00591907 5:0.43890411 6:0.12690355 7:0.02538071 8:0.85056722 9:0.86153853 10:0.79671317 11:0.30861679 12:0.42857143 13:0.63333333 14:0.65567058 15:0.65811968 16:0.67264944 #
-2 1:0 2:0 3:0 4:4.1612569e-05 5:0.17716093 6:0.43405277 7:0.35251799 8:0.74413162 9:0.7503143 10:0.36008349 11:0.012816629 13:0.25641027 14:0.32209641 15:0.2863436 16:0.34764826 #
2 5:0.42147079 6:0.24166666 7:0.10833333 8:0.85885745 9:0.86050004 10:0.79306662 11:0.1380668 13:0.53658539 14:0.57263714 15:0.53086418 16:0.57105368 #
-2 1:0.053333335 2:0 3:0.36734694 4:0.0083616776 5:0.72629523 6:0.17360115 7:0.16642755 8:0.88030791 9:0.88871992 10:0.99008673 11:0.54968792 12:0.32258064 13:0.72058821 14:0.72994643 15:0.7723577 16:0.77871466 #
2 1:0 2:0 3:0 4:0.00010822511 5:0.04073441 6:0.60290557 7:0.58837771 8:0.65156424 9:0.6399433 10:0.017752532 11:0 13:0.066371679 14:0.10673072 15:0.083333336 16:0.12565617 #
-2 1:0 2:0 3:0 4:0.00032496548 5:0.18098396 6:0.72970641 7:0.69170982 8:0.74837095 9:0.7441107 10:0.36246496 11:0.028671419 12:0.060606062 13:0.16666667 14:0.26770979 15:0.19908467 16:0.30849123 #
-2 1:0 2:0 3:0 4:0.00027745886 5:0.12669051 6:0.65906209 7:0.61850446 8:0.74128401 9:0.74444604 10:0.35536554 11:0.016324602 13:0.18000001 14:0.27208826 15:0.1953125 16:0.28849569 #
2 5:0.50854152 6:0.043971632 7:0.08510638 8:0.92156118 9:0.92397773 10:0.77895111 11:0.25971404 12:0.47169811 13:0.65135133 14:0.63422573 15:0.69252872 16:0.66099131 #
2 1:0.0044929394 2:0.074074075 3:0.51980609 4:0.0012008181 5:0.34263235 6:0.33018869 7:0.21383648 8:0.8564229 9:0.86198217 10:0.72922462 11:0.15515375 12:0.3548387 13:0.5 14:0.54941851 15:0.52688169 16:0.58093011 #
2 1:0 2:0 3:0 4:0 5:0.010423455 6:2.1387284 7:2.4508669 8:0.29675579 9:0.29126576 10:0.026267132 11:0 13:0.16831683 14:0.097989626 15:0.18947369 16:0.10920127 #
2 5:0.65714729 6:0.0096916296 7:0.043171804 8:0.94801307 9:0.95426196 10:0.97733796 11:0.41226602 13:0.78552973 14:0.76773995 15:0.80056179 16:0.78210568 #
2 1:0.0011462048 2:0.0083333338 3:0.09297052 4:0.0058710561 5:0.45332387 6:0.23428571 7:0.17428571 8:0.94262195 9:0.94444817 10:0.74295086 11:0.16869023 12:0.84210527 13:0.55114824 14:0.58028066 15:0.6013363 16:0.62175024 #
2 5:0.41707078 6:0.036072146 7:0.048096191 8:0.88996869 9:0.90196556 10:0.93655735 11:0.1621915 13:0.57414448 14:0.58627576 15:0.60483873 16:0.61102962 #
2 5:0.39408195 6:0.16408668 7:0.05882353 8:0.85226589 9:0.87414879 10:0.80612421 11:0.17745937 13:0.54802263 14:0.56668365 15:0.59036142 16:0.59576946 #
2 5:0.54357702 6:0.0099667776 7:0.076411963 8:0.88564479 9:0.90295631 10:0.90143538 11:0.19264451 13:0.5847953 14:0.58992487 15:0.63580245 16:0.61884469 #
-2 1:0 2:0 3:0 4:0.00025691089 5:0.084490433 6:0.31213874 7:0.26011559 8:0.62825811 9:0.62837744 10:0.36103243 11:0.0077498425 13:0.26086956 14:0.29166105 15:0.27927929 16:0.31365982 #
2 1:0.0029985008 2:0.035714287 3:0.66990721 4:0.0010926171 5:0.2601496 6:0.44604316 7:0.528777 8:0.77427447 9:0.78968537 10:0.68869817 11:0.085525393 12:0.27160493 13:0.44999999 14:0.42544752 15:0.46710527 16:0.44430572 #
-2 5:0.17926478 6:0.62872928 7:0.60331494 8:0.80084008 9:0.79903531 10:0.34770316 11:0.015055718 13:0.21026894 14:0.30008921 15:0.23884514 16:0.33471721 #
-2 1:0.040816326 2:0 3:0.33057851 4:0.0052226814 5:0.70124048 6:0.20678514 7:0.16639742 8:0.88023776 9:0.88617247 10:0.94787902 11:0.46675047 12:0.33898306 13:0.62874252 14:0.63837159 15:0.68421054 16:0.7005313 #
2 5:0.2819126 6:0.39754817 7:0.34500876 8:0.76686889 9:0.79128629 10:0.6290288 11:0.025155954 13:0.2962963 14:0.35696331 15:0.33976835 16:0.40643725 #
2 6:0.036890645 #
-2 1:0 2:0 3:0 4:0.00016687527 5:0.14008296 6:0.30952382 7:0.43452382 8:0.59961265 9:0.60322583 10:0.51469886 11:0.081411198 13:0.42307693 14:0.3784115 15:0.44999999 16:0.39931044 #
2 5:0.56192237 6:0.17227723 7:0.099009901 8:0.91719311 9:0.93633819 10:0.90721297 11:0.24883591 13:0.56444442 14:0.59314895 15:0.62318838 16:0.63880956 #
-2 1:0.057142857 2:0 3:0.13333334 4:0.0099537037 5:0.30377766 6:0.13513513 7:0.10810811 8:0.63964993 9:0.64823109 10:0.43220913 11:0.1693335 12:0.33333334 13:0.64999998 14:0.6010322 15:0.68000001 16:0.61065805 #
-2 1:0.021177687 2:0 3:0.13111727 4:0.00098107115 5:0.61643147 6:0.09259259 7:0.093958713 8:0.77124119 9:0.77801991 10:0.71996975 11:0.47728455 12:0.32786885 13:0.63378376 14:0.6198197 15:0.68122977 16:0.66070133 #
2 5:0.43363169 6:0.14141414 7:0.074074075 8:0.91954976 9:0.91726452 10:0.86610842 11:0.16292948 13:0.58565736 14:0.60947168 15:0.6111111 16:0.63754213 #
2 1:0.0021913806 2:0.07692308 3:0.034482758 4:0.004811387 5:0.41348523 6:0.7483871 7:0.69838709 8:0.88291007 9:0.87783086 10:0.49255851 11:0.098702699 12:0.83783782 13:0.18315789 14:0.29920059 15:0.20935412 16:0.33825207 #
2 5:0.39919963 6:0.10280374 7:0.0093457941 8:0.86688405 9:0.88935471 10:0.86777508 11:0.17268637 13:0.54320985 14:0.54494923 15:0.57236844 16:0.55614048 #
-2 1:0.055555556 2:0 3:0.1875 4:0.015190972 5:0.38596296 6:0.066473991 7:0.06936416 8:0.62137645 9:0.61355084 10:0.65886617 11:0.25854826 12:0.32258064 13:0.66197181 14:0.65523475 15:0.765625 16:0.74004954 #
2 5:0.55476332 6:0.1331058 7:0.013651877 8:0.93873119 9:0.94345647 10:0.84363139 11:0.25498816 12:0.53191489 13:0.6025641 14:0.62151873 15:0.66000003 16:0.66000003 #
2 5:0.33944395 6:0.10763889 7:0.069444448 8:0.83294064 9:0.84307331 10:0.78956127 11:0.14113006 13:0.55421686 14:0.58695245 15:0.58823532 16:0.61938012 #
-2 1:0 2:0 3:0 4:0.00011690438 5:0.1600024 6:1.373913 7:1.6217391 8:0.67397398 9:0.67451048 10:0.30924344 11:0.0074602771 12:0.029850746 13:0.45412844 14:0.29471645 15:0.50710899 16:0.32682157 #
2 5:0.44508687 6:0.17948718 7:0.13675214 8:0.84049237 9:0.86232448 10:0.83654249 11:0.22274977 13:0.57647061 14:0.65352398 15:0.5925926 16:0.66151857 #
-2 1:0 2:0 3:0 4:6.5009364e-05 5:0.04215258 6:0.072916664 7:0.015625 8:0.62274003 9:0.61948997 10:0.22827077 11:0.0061360085 12:0.05479452 13:0.33333334 14:0.32826608 15:0.34862384 16:0.32818431 #
-2 1:0 2:0 3:0 4:0.00017780939 5:0.13434796 6:0.17598344 7:0.12836438 8:0.7864601 9:0.78433698 10:0.32967597 11:0.010092647 12:0.034482758 13:0.33905581 14:0.34115216 15:0.34955752 16:0.348021 #
-2 1:0.081632651 2:0 3:0.12244898 4:0.0083616776 5:0.738967 6:0.27433628 7:0.24778761 8:0.79803401 9:0.80504066 10:0.96726304 11:0.60911202 12:0.33898306 13:0.70535713 14:0.75636804 15:0.70642203 16:0.75668597 #
-2 1:0 2:0 3:0 4:0 5:0.068217136 6:0.33333334 7:0.31967214 8:0.34460494 9:0.37275136 10:0.23789562 11:0.003809503 13:0.25136611 14:0.28164726 15:0.2793296 16:0.30312496 #
-2 1:0 2:0 3:0 4:0.00046620046 5:0.051245004 6:6.4615383 7:6.6923075 8:0.43631893 9:0.46232143 10:0.37778664 11:0 13:0.53846157 14:0.24846467 15:0.58974361 16:0.26860654 #
2 5:0.2638 6:0.011764706 7:0.011764706 8:0.6742453 9:0.69993967 10:0.71926326 11:0.067573741 13:0.45901638 14:0.46774194 15:0.5 16:0.50421947 #
-2 1:0 2:0 3:0 4:3.2834254e-05 5:0.069079965 6:0.18342152 7:0.12169312 8:0.58568347 9:0.58194178 10:0.20120446 11:0 13:0.28518519 14:0.26920775 15:0.31225297 16:0.28966311 #
-2 1:0 2:0 3:0 4:0.00037202382 5:0.1872974 6:0.4891775 7:0.43578643 8:0.71845853 9:0.72430176 10:0.3067559 11:0.029464871 13:0.26366559 14:0.30521047 15:0.2781457 16:0.31734511 #
2 5:0.14388862 6:0.14666666 7:0.039999999 8:0.56999946 9:0.62688643 10:0.68272573 11:0.032530002 13:0.40350878 14:0.4174071 15:0.5 16:0.49559462 #
-2 1:0 2:0 3:0 4:0 5:0.037907124 6:0.35570469 7:0.45637584 8:0.49547553 9:0.49473909 10:0.14963855 11:0 13:0.27000001 14:0.21899892 15:0.28865978 16:0.23369063 #
-2 1:0 2:0 3:0.0015037594 4:0.0010860484 5:0.49465799 6:0.082660332 7:0.10403801 8:0.82127726 9:0.82773596 10:0.94453347 11:0.35692638 12:0.33898306 13:0.65588236 14:0.62950724 15:0.7006579 16:0.66845101 #
2 1:1.0890043e-05 2:0 3:0 4:8.9055124e-05 5:0.071047708 6:0.87783253 7:0.8669951 8:0.6699636 9:0.66710466 10:0.029794892 11:0 12:0.047619049 13:0.056338027 14:0.12466566 15:0.0625 16:0.13401407 #
2 5:0.10872135 6:0.16494845 7:0.082474224 8:0.56891233 9:0.58431309 10:0.40759599 11:0.012508798 13:0.42105263 14:0.4494895 15:0.46666667 16:0.48653364 #
-2 1:0 2:0 3:0 4:0.00028449504 5:0.14662613 6:0.625 7:0.7734375 8:0.6652897 9:0.66733027 10:0.38904816 11:0.020359699 13:0.45679012 14:0.33384749 15:0.46835443 16:0.33654448 #
-2 1:0 2:0 3:0 4:0.00023510051 5:0.066460148 6:0.1281337 7:0.083565459 8:0.67057472 9:0.68458253 10:0.2484825 11:0.0094871176 12:0.03305785 13:0.38797814 14:0.37353733 15:0.42613637 16:0.39388672 #
-2 1:0 2:0 3:0 4:4.9073733e-05 5:0.28257421 6:0.20950323 7:0.082073435 8:0.8457911 9:0.8499828 10:0.73387611 11:0.13688752 12:0.049382716 13:0.54509807 14:0.58552921 15:0.5925926 16:0.63146961 #
-2 1:0 2:0 3:0 4:0.00060760725 5:0.11373917 6:0.35336193 7:0.31330472 8:0.79635286 9:0.79918128 10:0.36057752 11:0.033704892 13:0.33248082 14:0.40020683 15:0.37467018 16:0.43055415 #
-2 1:0 2:0 3:0 4:0 5:0.048205331 6:0.37375414 7:0.29235882 8:0.62059313 9:0.60390711 10:0.13687795 11:0 12:0.064516127 13:0.18587361 14:0.22135238 15:0.22891566 16:0.25167587 #
-2 1:0.013888889 2:0 3:0.15359478 4:0.0031545025 5:0.73678333 6:0.16190477 7:0.23544973 8:0.74912959 9:0.76246607 10:0.97156441 11:0.52281553 12:0.33898306 13:0.72148544 14:0.73115724 15:0.77575755 16:0.77109832 #
2 1:0 2:0 3:0 4:0 5:0.1690882 6:0.91598958 7:0.90640235 8:0.61085165 9:0.59571582 10:0.065349959 11:0.0003719551 13:0.082251079 14:0.14974603 15:0.10657895 16:0.17750187 #
-2 1:0 2:0 3:0 4:0.00014211377 5:0.17907594 6:0.28218696 7:0.26455027 8:0.76980519 9:0.770625 10:0.38657135 11:0.03280209 13:0.30069929 14:0.33499965 15:0.33576643 16:0.36889231 #
-2 1:0.040816326 2:0 3:0.065789476 4:0.0028326022 5:0.67793638 6:0.20406279 7:0.22622345 8:0.75127786 9:0.76255155 10:0.95870054 11:0.50222367 12:0.33333334 13:0.71481484 14:0.73753661 15:0.77021277 16:0.79066443 #
2 1:0 2:0 3:0 4:0.00068537332 5:0.056618892 6:0.91858792 7:0.91570604 8:0.56466991 9:0.55511069 10:0.020110693 11:0 13:0.04536489 14:0.12122569 15:0.050108932 16:0.12831354 #
2 5:0.22917463 6:0.18055555 7:0.125 8:0.65214062 9:0.64530677 10:0.48320583 11:0.12428864 13:0.37288135 14:0.40505284 15:0.4107143 16:0.43907204 #
-2 1:0 2:0 3:0 4:0.00050066755 5:0.032636318 6:0.26379311 7:0.19827586 8:0.62699175 9:0.6242649 10:0.22401819 11:0 13:0.17263843 14:0.19588336 15:0.21403509 16:0.2174968 #
-2 1:0 2:0 3:0 4:0.00017780939 5:0.1182277 6:0.19622642 7:0.11886793 8:0.77754205 9:0.77446091 10:0.21757019 11:0 12:0.036697246 13:0.22340426 14:0.23560624 15:0.24542125 16:0.25052026 #
2 5:0.22566773 6:0.11428571 7:0.13333334 8:0.65227586 9:0.7078774 10:0.66137296 11:0.098028615 13:0.45333335 14:0.45638612 15:0.49315068 16:0.49656352 #
-2 1:6.2275808e-06 2:0 3:0 4:0.00014312295 5:0.062501222 6:0.72673559 7:0.704579 8:0.52719975 9:0.5100562 10:0.079015285 11:0 12:0.07272727 13:0.15714286 14:0.23425475 15:0.16730037 16:0.24563763 #
2 1:0.0095785437 3:0.034171809 4:0.0033443305 5:0.33166248 6:0.25888324 7:0.47715735 8:0.86612004 9:0.864546 10:0.51764947 11:0.092513308 12:0.48780489 13:0.60526317 14:0.48730829 15:0.61261261 16:0.48789728 #
-2 1:0.020917678 2:0 3:0.13648649 4:0.0014029655 5:0.85413587 6:0.11171733 7:0.13808781 8:0.77312124 9:0.77942985 10:0.97680169 11:0.56648892 12:0.32786885 13:0.70817846 14:0.71068382 15:0.75768322 16:0.74459618 #
2 5:0.29603082 6:0.12598425 7:0.062992126 8:0.70781469 9:0.72267467 10:0.59339583 11:0.15254785 13:0.44318181 14:0.4990361 15:0.45882353 16:0.49510089 #
-2 1:0 2:0 3:0 4:6.2320825e-05 5:0.1046908 6:0.10208817 7:0.0023201855 8:0.77909422 9:0.77465284 10:0.26736885 11:0.0050837784 13:0.21600001 14:0.22973524 15:0.23430963 16:0.24878326 #
2 5:0.43886673 6:0.1826923 7:0.03846154 8:0.78834593 9:0.80828488 10:0.78029436 11:0.21353707 13:0.53521127 14:0.57008773 15:0.56716418 16:0.59440339 #
-2 1:6.7849969e-06 2:0 3:0 4:0.00014467593 5:0.079855494 6:0.22413793 7:0.17816092 8:0.72998756 9:0.7315377 10:0.23087882 11:0.0078953998 12:0.063492067 13:0.24590164 14:0.25664473 15:0.25714287 16:0.26644015 #
2 5:0.17627662 6:0.19117647 7:0.044117648 8:0.59361351 9:0.67249268 10:0.53823167 11:0.072098412 13:0.46000001 14:0.47527081 15:0.52083331 16:0.52083331 #
2 5:0.25385812 6:0.30693069 7:0.18811882 8:0.66431707 9:0.6882602 10:0.60532784 11:0.19830309 13:0.48648649 14:0.53404897 15:0.54166669 16:0.57906604 #
-2 1:0 2:0 3:0 4:0.00052110472 5:0.079722919 6:0.34015346 7:0.29411766 8:0.74373055 9:0.74308163 10:0.30820572 11:0 12:0.041237112 13:0.23963134 14:0.27612406 15:0.25471699 16:0.28872463 #
2 1:0 2:0 3:0 4:7.7671917e-05 5:0.12845255 6:0.92252195 7:0.91060227 8:0.67037129 9:0.66387576 10:0.052918158 11:0.005839074 12:0.056338027 13:0.059787851 14:0.14186168 15:0.070960701 16:0.15663424 #
2 1:7.4059813e-06 2:0 3:0 4:7.7090663e-05 5:0.088960014 6:0.78728604 7:0.76405871 8:0.65566599 9:0.64297366 10:0.035700805 11:0 12:0.090909094 13:0.056980059 14:0.098273277 15:0.06769231 16:0.11479997 #
-2 1:0.0425 2:0 3:0.31 4:0.0057638888 5:0.83569854 6:0.13677686 7:0.15867768 8:0.75678754 9:0.77491021 10:0.98834336 11:0.56225437 12:0.31746033 13:0.6570881 14:0.65169173 15:0.71624714 16:0.69659865 #
2 5:0.22988543 6:0.30769232 7:0.25 8:0.56632787 9:0.59906471 10:0.76597571 11:0.13538259 13:0.46835443 14:0.51240838 15:0.47999999 16:0.52372295 #
2 5:0.43206221 6:0.071428575 7:0.015873017 8:0.7957083 9:0.82536834 10:0.74565393 11:0.28521672 13:0.60714287 14:0.61973369 15:0.64885497 16:0.64639252 #
2 6:0.093229748 #
-2 1:0.00054869684 2:0.013550135 3:0.045454547 4:0.0046883617 5:0.54903758 6:0.1827451 7:0.089803919 8:0.8621667 9:0.86698425 10:0.6929453 11:0.23003517 13:0.60837698 14:0.65067577 15:0.66666669 16:0.7047677 #
2 1:0 2:0 3:0 4:0.00015294646 5:0.022271965 6:0.66482913 7:0.63285559 8:0.63765728 9:0.63379139 10:0.048610773 11:0 13:0.11398964 14:0.16853549 15:0.13714285 16:0.18762314 #
-2 1:0 2:0 3:0 4:4.2375126e-05 5:0.26952228 6:0.4385733 7:0.334214 8:0.85059071 9:0.85073203 10:0.63560683 11:0.1225956 12:0.075757578 13:0.3897281 14:0.46640843 15:0.40836012 16:0.48010063 #
-2 1:0 2:0 3:0 4:5.99657e-05 5:0.10827604 6:0.45411766 7:0.3882353 8:0.78591388 9:0.79118741 10:0.34792903 11:0.013590592 12:0.072463766 13:0.25213677 14:0.32565194 15:0.29596412 16:0.34617659 #
-2 1:0 2:0 3:0 4:0.00013215277 5:0.14015961 6:0.20754717 7:0.33333334 8:0.72615075 9:0.73410368 10:0.44199336 11:0.0096096117 12:0.03305785 13:0.52095807 14:0.43924466 15:0.54320985 16:0.44081625 #
2 1:0 2:0 3:0 4:0.00070382882 5:0.032240834 6:0.82786071 7:0.82288557 8:0.57769477 9:0.56904078 10:0.030419126 11:0 13:0.058956917 14:0.1175148 15:0.073529415 16:0.14358176 #
2 5:0.34327191 6:0.18292683 7:0.14634146 8:0.70561719 9:0.7090342 10:0.49974898 11:0.15321286 13:0.47761193 14:0.5396077 15:0.5 16:0.56330073 #
2 1:0 2:0 3:0 4:0 5:0.017407436 6:0.93360996 7:0.93153524 8:0.54232246 9:0.53547341 10:0.032024685 11:0 13:0.040485829 14:0.11981742 15:0.050974514 16:0.13651316 #
0.43388386395054112654179334640503 1:0 2:0 3:0 4:0.00011084516 5:0.028678712 6:0.8629989 7:0.84681767 8:0.45425695 9:0.44642729 10:0.032840125 11:0 13:0.069948189 14:0.14680424 15:0.079889804 16:0.16225697 #
2 1:0.013416816 3:0.03888889 4:0.0035998281 5:0.35656434 6:0.17113402 7:0.074226804 8:0.88736469 9:0.89232695 10:0.63685817 11:0.125227 12:0.48780489 13:0.4957265 14:0.49685201 15:0.54824561 16:0.54467392 #
2 5:0.47020158 6:0.125 7:0.079999998 8:0.86922938 9:0.88029784 10:0.8203761 11:0.27319419 13:0.69999999 14:0.7191065 15:0.73275864 16:0.74242181 #
2 5:0.38958186 6:0.16607773 7:0.07067138 8:0.88474327 9:0.89030057 10:0.7490887 11:0.17530541 13:0.60076046 14:0.61338788 15:0.64227641 16:0.64890486 #
-2 1:6.6067652e-05 2:0 3:0 4:0.00041608876 5:0.10553518 6:0.28350514 7:0.18041237 8:0.70999998 9:0.70288622 10:0.38563663 11:0.0066660084 13:0.24905661 14:0.28491318 15:0.31275719 16:0.32721558 #
2 5:0.21183904 6:0.13095239 7:0.095238097 8:0.68992871 9:0.70080274 10:0.51250201 11:0.14406769 13:0.45762712 14:0.45542005 15:0.51785713 16:0.49216208 #
-2 1:0 2:0.00077160494 3:0 4:0.00024062817 5:0.14227046 6:2.927835 7:3.6391752 8:0.62870204 9:0.64212251 10:0.40965161 11:0.015646236 12:0.0625 13:0.56578946 14:0.32920265 15:0.60273975 16:0.34878919 #
2 1:0.016447369 2:0.15000001 3:0.037151702 4:0.0064102565 5:0.40342632 6:0.19787234 7:0.10212766 8:0.85308564 9:0.85675627 10:0.58748764 11:0.10264917 12:0.36734694 13:0.43548387 14:0.44711381 15:0.47435898 16:0.46645245 #
-2 1:0.023460411 2:0 3:0.091111109 4:0.0018518518 5:0.7704854 6:0.13939925 7:0.10731992 8:0.79300761 9:0.8033486 10:0.96081054 11:0.4092111 12:0.32786885 13:0.6880734 14:0.66334027 15:0.72321427 16:0.696374 #
2 1:0 2:0 3:0 4:0.0002725955 5:0.031578947 6:0.19469027 7:0.45132744 8:0.52232593 9:0.48228309 10:0.012534953 11:0 13:0.11764706 14:0.095590979 15:0.13636364 16:0.10915709 #
2 1:0.018633541 2:0.1 3:0.046783626 4:0.0065416833 5:0.44876361 6:0.29205176 7:0.15896489 8:0.9352954 9:0.93716627 10:0.62412059 11:0.09542726 12:0.53658539 13:0.44528303 14:0.47522649 15:0.49011856 16:0.50962824 #
-2 1:0.0625 2:0 3:0.234375 4:0.0072699655 5:0.72654051 6:0.25513196 7:0.26246333 8:0.84272969 9:0.85033834 10:0.94307113 11:0.43941924 12:0.33898306 13:0.69230771 14:0.71951002 15:0.74374998 16:0.75565076 #
2 5:0.33007851 6:0.10854504 7:0.027713627 8:0.8203184 9:0.82930076 10:0.53406268 11:0.1701154 13:0.48971194 14:0.50436199 15:0.53043479 16:0.53749186 #
-2 1:0 2:0 3:0 4:0.00047143866 5:0.096904807 6:0.23007247 7:0.29891303 8:0.59513879 9:0.58590055 10:0.32045755 11:0.0072420998 12:0.083333336 13:0.28404668 14:0.24916272 15:0.32217574 16:0.2819775 #
2 1:0.013636364 2:0.052631579 3:0.27272728 4:0.0095070424 5:0.15731503 6:0.18487395 7:0.44957983 8:0.79153877 9:0.7910049 10:0.27725655 11:0.018424738 12:0.5 13:0.20422535 14:0.17844211 15:0.24626866 16:0.21248354 #
-2 1:1.1356023e-05 2:0 3:0 4:0.00014387307 5:0.27443999 6:0.78640777 7:0.75404531 8:0.80131137 9:0.80184495 10:0.38563749 11:0.038035199 12:0.051948052 13:0.15280899 14:0.256699 15:0.18673219 16:0.3006537 #
2 1:0.0026577504 2:0.05882353 3:0.025641026 4:0.0035131699 5:0.24180821 6:0.047457628 7:0.18983051 8:0.81642514 9:0.81133741 10:0.67816979 11:0.025030611 12:0.82352942 13:0.33557048 14:0.3276183 15:0.37857142 16:0.35412115 #
-2 1:0.046218488 2:0 3:0.10267857 4:0.0035652281 5:0.73336452 6:0.26674235 7:0.21906924 8:0.85781866 9:0.86736506 10:0.97038668 11:0.45782208 12:0.33898306 13:0.66375548 14:0.67862737 15:0.7150259 16:0.71875978 #
-2 1:0 2:0 3:0 4:0 5:0.073550649 6:0.28181818 7:0.19848485 8:0.67568189 9:0.65862179 10:0.28884664 11:0.0054816124 13:0.21407625 14:0.2520684 15:0.24600638 16:0.28035611 #
2 5:0.58136541 6:0.032258064 7:0.076751947 8:0.9521848 9:0.95237136 10:0.95690739 11:0.38069463 13:0.81793481 14:0.81502515 15:0.84272999 16:0.8304981 #
-2 1:0.036956523 2:0 3:0.1388889 4:0.0031507201 5:0.49413404 6:0.15692821 7:0.10767946 8:0.79562193 9:0.79633683 10:0.80343419 11:0.26650983 12:0.33898306 13:0.59880239 14:0.58285362 15:0.63758391 16:0.62411594 #
-2 1:0.00013873474 2:0 3:0 4:0.00017020035 5:0.14185162 6:0.38683128 7:0.28806585 8:0.64398599 9:0.64995968 10:0.41409171 11:0.040131647 13:0.26174498 14:0.33566719 15:0.2986111 16:0.36197132 #
-2 1:0 2:0 3:0 4:0 5:0.22215277 6:0.42871386 7:0.38285145 8:0.78843236 9:0.78010833 10:0.37302801 11:0.02162561 13:0.22247706 14:0.26228902 15:0.25925925 16:0.28986067 #
-2 1:0 2:0 3:0 4:4.208754e-05 5:0.077636316 6:0.21951219 7:0.12195122 8:0.63170087 9:0.62205398 10:0.25654688 11:0.012106029 13:0.22797927 14:0.26122537 15:0.23913044 16:0.26937655 #
2 5:0.55693251 6:0.19152047 7:0.10526316 8:0.94565785 9:0.94899595 10:0.74675292 11:0.23726331 13:0.61976045 14:0.64366668 15:0.64536738 16:0.66030353 #
-0.36963702208527138282079249620438 1:0 2:0 3:0 4:0.00023181537 5:0.26080766 6:0.40728477 7:0.64569539 8:0.75545537 9:0.75744802 10:0.52309316 11:0.10594375 13:0.39583334 14:0.31811556 15:0.43165466 16:0.33340022 #
2 1:0 2:0 3:0 4:8.0860351e-05 5:0.12650259 6:0.7820285 7:0.76067615 8:0.65187633 9:0.64979404 10:0.08178895 11:0.0031299249 12:0.061538462 13:0.10841837 14:0.18519203 15:0.13872832 16:0.20965096 #
2 5:0.15349935 6:8.8024693 7:10.04321 8:0.75299758 9:0.74993944 10:0.050630029 11:0.0018064791 12:0.075471699 13:0.28089887 14:0.11236013 15:0.32954547 16:0.12589197 #
2 5:0.41581395 6:0.1434263 7:0.053784862 8:0.8813197 9:0.89024734 10:0.85351366 11:0.17074414 13:0.60311282 14:0.61927199 15:0.64876032 16:0.64876032 #
-2 1:0.030769231 2:0 3:0.18209876 4:0.0031507201 5:0.58211571 6:0.17382888 7:0.15602013 8:0.75120491 9:0.74238223 10:0.61891377 11:0.30898425 12:0.32786885 13:0.66547406 14:0.65444493 15:0.71157897 16:0.70060277 #
2 5:0.352456 6:0.099650353 7:0.048951048 8:0.87020725 9:0.87964445 10:0.85170633 11:0.14953473 13:0.58536583 14:0.60971075 15:0.61742425 16:0.63702989 #
-2 1:0 2:0 3:0 4:0.00053022272 5:0.15403441 6:0.28709289 7:0.25693607 8:0.75496674 9:0.71605843 10:0.17671563 11:0.018244121 13:0.18644068 14:0.22070681 15:0.22251309 16:0.24861455 #
2 5:0.26440731 6:0.050000001 7:0.0625 8:0.76982421 9:0.7886337 10:0.82902038 11:0.13801311 13:0.49180329 14:0.51695395 15:0.53448278 16:0.53915083 #
2 6:0.097308487 #
2 1:0 2:0 3:0 4:0.00025542785 5:0.071061596 6:0.9001264 7:0.89380533 8:0.5059495 9:0.50833082 10:0.036963433 11:0 12:0.050632913 13:0.05319149 14:0.12186418 15:0.072115384 16:0.14563793 #
-2 1:0 2:0 3:0 4:0 5:0.18054667 6:0.64606744 7:0.62921351 8:0.65874404 9:0.66369915 10:0.42887983 11:0.048638701 13:0.21761657 14:0.31349394 15:0.22994652 16:0.3278338 #
2 5:0.33195308 6:0.2 7:0.12857144 8:0.6948176 9:0.7448191 10:0.75098634 11:0.18411492 13:0.54545456 14:0.58584493 15:0.58823532 16:0.61275554 #
2 1:0.0010351967 2:0.01010101 3:0.11080332 4:0.007201646 5:0.4946793 6:0.25193799 7:0.12596899 8:0.93364495 9:0.938088 10:0.7543456 11:0.241466 12:0.25373134 13:0.62116039 14:0.6617499 15:0.66545457 16:0.6937843 #
2 1:0 2:0 3:0 4:0 5:0.069569767 6:3.1621621 7:3.7621622 8:0.48289251 9:0.48184153 10:0.025065973 11:0 13:0.2375 14:0.10868683 15:0.26666668 16:0.12137943 #
-2 1:0 2:0 3:0 4:3.6413952e-05 5:0.096653327 6:0.62978721 7:0.61063832 8:0.77004719 9:0.77357984 10:0.30739015 11:0.0037516651 12:0.048780486 13:0.17131475 14:0.2727294 15:0.19421488 16:0.29207763 #
-2 1:0 2:0 3:0.22222222 4:0.020833334 5:0.55598307 6:0.34146342 7:0.28658536 8:0.74170792 9:0.76588452 10:0.85447866 11:0.37900457 12:0.33898306 13:0.62790698 14:0.67690647 15:0.67500001 16:0.72160536 #
2 5:0.47692093 6:0.26415095 7:0.17924528 8:0.78847146 9:0.82942128 10:0.87076181 11:0.26442021 13:0.58666664 14:0.64523172 15:0.6056338 16:0.6481021 #
2 1:0.0035937501 2:0.11111111 3:0.039999999 4:0.0058673471 5:0.27706039 6:0.7369439 7:0.70986462 8:0.84131545 9:0.85295779 10:0.53055221 11:0.063358121 12:0.85000002 13:0.2375 14:0.35569099 15:0.27173913 16:0.38962749 #
2 1:0 2:0 3:0 4:0.00013159626 5:0.10945873 6:0.8487286 7:0.83679295 8:0.53954893 9:0.52496344 10:0.064724572 11:0.0027879404 13:0.087360598 14:0.16448197 15:0.11016043 16:0.19415481 #
-2 1:0.055555556 2:0 3:0.16 4:0.011944445 5:0.42203191 6:0.04255319 7:0.018237082 8:0.61004883 9:0.61306971 10:0.62979233 11:0.21437107 12:0.32258064 13:0.625 14:0.61224002 15:0.708134 16:0.67067266 #
-2 1:0 2:0 3:0 4:0.00040004001 5:0.080343537 6:0.76605505 7:0.73165137 8:0.63370657 9:0.63993615 10:0.33700123 11:0.010681146 12:0.036363635 13:0.175 14:0.31046021 15:0.19396552 16:0.32625833 #
2 1:0.0009150327 2:0.01010101 3:0.14453125 4:0.0080115367 5:0.16821869 6:1.2835821 7:1.4626865 8:0.76891333 9:0.77773482 10:0.47247866 11:0.019080048 12:0.97619045 13:0.40000001 14:0.28228575 15:0.44565219 16:0.30150318 #
2 5:0.32178745 6:0.22147651 7:0.147651 8:0.81208289 9:0.82824743 10:0.82027382 11:0.15500994 13:0.51162791 14:0.53494233 15:0.54658383 16:0.55886817 #
2 5:0.32763326 6:0.11538462 7:0.069230773 8:0.72985208 9:0.77283949 10:0.77133924 11:0.12796198 13:0.52222222 14:0.54457891 15:0.54651165 16:0.55968249 #
2 5:0.56502903 6:0.12420382 7:0.0079617836 8:0.94510025 9:0.9424032 10:0.8274073 11:0.31590301 13:0.69055372 14:0.68462777 15:0.73170733 16:0.71448827 #
-2 1:0.056122448 2:0 3:0.1322314 4:0.0052226814 5:0.67893654 6:0.12217438 7:0.12217438 8:0.73629153 9:0.75179833 10:0.9535681 11:0.41166708 12:0.31746033 13:0.63817096 14:0.65358889 15:0.71226418 16:0.70810127 #
-2 1:0 2:0 3:0 4:0.00030366459 5:0.1717179 6:0.31011826 7:0.27463862 8:0.7217294 9:0.72995263 10:0.56511968 11:0.053092767 13:0.48728815 14:0.49791232 15:0.52654868 16:0.52538759 #
-2 1:0.015086207 2:0 3:0.10544217 4:0.0026455026 5:0.63164657 6:0.11729186 7:0.11033852 8:0.72742969 9:0.73882663 10:0.81586379 11:0.29948506 12:0.32786885 13:0.56373936 14:0.56941426 15:0.60532153 16:0.60565734 #
2 1:0 2:0 3:0 4:9.8199074e-05 5:0.0418249 6:0.76022726 7:0.73750001 8:0.57698649 9:0.57196951 10:0.032655083 11:0 12:0.047058824 13:0.052873563 14:0.11525944 15:0.067307696 16:0.12584555 #
2 1:0 2:0 3:0 4:0.00014581511 5:0.054749168 6:0.59497207 7:0.67877096 8:0.69464445 9:0.69346994 10:0.045722056 11:0 12:0.042105265 13:0.18134715 14:0.14018066 15:0.19892474 16:0.15334623 #
-2 1:0 2:0 3:0 4:4.0294959e-05 5:0.21233454 6:0.33730632 7:0.26340881 8:0.78304011 9:0.78509539 10:0.45552763 11:0.012028784 13:0.33243969 14:0.3789027 15:0.3611111 16:0.40800694 #
2 1:0 2:0 3:0 4:0.00015153237 5:0.068541273 6:0.83141762 7:0.83652616 8:0.6280815 9:0.61728597 10:0.020712376 11:0 13:0.059347183 14:0.12257489 15:0.064615384 16:0.13105816 #
-2 1:0 2:0 3:0.12244898 4:0.0083616776 5:0.47298282 6:0.19678715 7:0.13253012 8:0.71986037 9:0.71941471 10:0.63846767 11:0.27392712 12:0.33898306 13:0.62068963 14:0.6352458 15:0.67289722 16:0.66669524 #
2 5:0.5237295 6:0.084915087 7:0.045954045 8:0.85168499 9:0.8505733 10:0.86564505 11:0.28155613 13:0.61616164 14:0.62680423 15:0.63732392 16:0.64649457 #
-2 1:0 2:0 3:0 4:0.00013368984 5:0.25897238 6:0.236 7:0.14399999 8:0.70675629 9:0.7098431 10:0.58263868 11:0.082878523 13:0.5 14:0.52966738 15:0.52173913 16:0.5396325 #
-2 1:0 2:0 3:0 4:0.00046468401 5:0.3905049 6:0.1679225 7:0.051668461 8:0.81039906 9:0.81079459 10:0.71448189 11:0.18826158 12:0.078431375 13:0.54178673 14:0.56373453 15:0.57741934 16:0.58598828 #
2 1:0 2:0 3:0 4:0 5:0.023113376 6:0.46095717 7:0.4282116 8:0.47422695 9:0.48171648 10:0.031301294 11:0 13:0.082608692 14:0.12721318 15:0.095454544 16:0.14018704 #
-2 1:0 2:0 3:0 4:0 5:0.067676336 6:0.55707765 7:0.5 8:0.65025568 9:0.64931226 10:0.31520489 11:0 13:0.18309858 14:0.23548056 15:0.21287128 16:0.25848329 #
-2 1:0 2:0 3:0.1875 4:0.015190972 5:0.50677907 6:0.16245487 7:0.13718411 8:0.70409614 9:0.70156592 10:0.74657756 11:0.34531507 12:0.33333334 13:0.61538464 14:0.63811183 15:0.66393441 16:0.67225128 #
-1.9996986093738087220117449760437 1:0 2:0 3:0 4:0 5:0.24181373 6:0.54921257 7:0.5 8:0.80869675 9:0.80698693 10:0.44532049 11:0.026544515 12:0.057142857 13:0.24789916 14:0.34227002 15:0.28260869 16:0.36751917 #
2 5:0.27120143 6:0.080808081 7:0.02020202 8:0.69448245 9:0.75218046 10:0.72777766 11:0.10591167 13:0.5714286 14:0.5656383 15:0.55882353 16:0.54688996 #
2 1:0.0020415878 2:0.07692308 3:0.034482758 4:0.004811387 5:0.37581357 6:0.097165994 7:0.2834008 8:0.83276099 9:0.83509374 10:0.67577708 11:0.075635098 12:0.8125 13:0.37442923 14:0.32514694 15:0.41314554 16:0.3559196 #
-2 1:6.8041095e-06 2:0 3:0 4:0.00015352898 5:0.12411791 6:0.72903728 7:0.70885092 8:0.72004664 9:0.71877486 10:0.3552227 11:0.013046579 12:0.081632651 13:0.18574513 14:0.28795201 15:0.21531101 16:0.31049624 #
2 1:0.0041125542 2:0.088888891 3:0.01242236 4:0.0020680148 5:0.43760839 6:0.22416534 7:0.17647059 8:0.92662376 9:0.92851871 10:0.77451658 11:0.2144369 12:0.20238096 13:0.53968257 14:0.59232217 15:0.57785469 16:0.62379473 #
-2 1:0.053333335 2:0 3:0.14222223 4:0.0037962962 5:0.70917577 6:0.14639905 7:0.13931523 8:0.83050197 9:0.83974737 10:0.86605477 11:0.48657879 12:0.33898306 13:0.71296299 14:0.695319 15:0.74603176 16:0.74018043 #
-2 1:0 2:0.00088417332 3:0 4:0.00016256503 5:0.10669844 6:0.25418061 7:0.18394649 8:0.66948444 9:0.67017496 10:0.39855012 11:0.02972942 13:0.33152175 14:0.36851919 15:0.36158192 16:0.39018589 #
2 5:0.064264566 6:0.46749225 7:0.60526317 8:0.53973114 9:0.54455626 10:0.22613762 11:0 13:0.26086956 14:0.18486495 15:0.27826086 16:0.20256816 #
2 5:0.18913075 6:0.43661973 7:0.3943662 8:0.81395048 9:0.82076341 10:0.45113617 11:0.05315553 12:0.5945946 13:0.34242424 14:0.42621788 15:0.37223974 16:0.45843655 #
-2 1:0.047619049 2:0 3:0.088541664 4:0.0035807292 5:0.62079817 6:0.36666667 7:0.33240741 8:0.84189218 9:0.8426103 10:0.92555892 11:0.35380325 12:0.33898306 13:0.58631921 14:0.61764508 15:0.63503647 16:0.65956426 #
-2 1:0 2:0 3:0 4:4.5697572e-05 5:0.2017903 6:0.79633403 7:0.98167008 8:0.79257029 9:0.79534864 10:0.43019801 11:0.016205093 12:0.031746034 13:0.39463601 14:0.3199676 15:0.43700787 16:0.33984545 #
-2 1:0.018742191 2:0 3:0.11753087 4:0.0012448559 5:0.69915539 6:0.093892694 7:0.11815068 8:0.8045643 9:0.80948752 10:0.96285903 11:0.38005683 12:0.33333334 13:0.66857964 14:0.66951114 15:0.7241993 16:0.71909922 #
2 5:0.3422111 6:0.1375 7:0.15000001 8:0.6047079 9:0.64068162 10:0.68319547 11:0.23276575 13:0.48387095 14:0.51847583 15:0.50877196 16:0.53786772 #
-2 1:0.055555556 2:0 3:0.1875 4:0.015190972 5:0.68477684 6:0.14981273 7:0.17977528 8:0.82041436 9:0.83285969 10:0.91331732 11:0.4655515 12:0.32258064 13:0.69230771 14:0.70479387 15:0.73737371 16:0.74493676 #
2 5:0.23897606 6:0.15555556 7:0.055555556 8:0.72811693 9:0.73296314 10:0.63928741 11:0.19332886 13:0.515625 14:0.51970112 15:0.53333336 16:0.52466065 #
2 1:1.7798346e-05 2:0 3:0 4:9.661416e-05 5:0.05115588 6:0.68567455 7:0.64255911 8:0.67727727 9:0.66983593 10:0.04005263 11:0 12:0.05479452 13:0.082066871 14:0.12844577 15:0.091482647 16:0.13915797 #
2 5:0.4371244 6:0.041666668 7:0.0041666669 8:0.91280782 9:0.9183991 10:0.78948569 11:0.23252033 13:0.64516127 14:0.64402413 15:0.69999999 16:0.67237145 #
-2 1:0 2:0 3:0 4:0.00036801508 5:0.2151709 6:0.69749999 7:0.67250001 8:0.72069407 9:0.69672322 10:0.052035291 11:0.0024565205 12:0.068965517 13:0.15060242 14:0.23129787 15:0.17171717 16:0.25283179 #
2 1:0.00042617961 2:0.0083333338 3:0.59172416 4:0.0021968214 5:0.4261598 6:0.19277108 7:0.075301208 8:0.90218508 9:0.90790182 10:0.64753747 11:0.16178036 12:0.13076924 13:0.55050504 14:0.58722407 15:0.59685862 16:0.6114381 #
-2 1:8.3005461e-06 2:0 3:0 4:0.0001654503 5:0.083858117 6:0.86902285 7:0.86382538 8:0.76917154 9:0.77742028 10:0.1075011 11:0.010490921 12:0.07272727 13:0.10213777 14:0.23950538 15:0.12911393 16:0.27511355 #
-2 1:7.1186537e-06 2:0 3:0 4:0.00014684288 5:0.13854659 6:0.82999998 7:0.82333332 8:0.75509512 9:0.75490069 10:0.19032633 11:0.042955268 12:0.081632651 13:0.12715517 14:0.25903794 15:0.15625 16:0.29462782 #
2 1:0.0032407406 2:0.06666667 3:0.55716556 4:0.00086154632 5:0.2572124 6:7.0079999 7:8.0319996 8:0.72790891 9:0.72347343 10:0.29240015 11:0.11101154 12:0.3548387 13:0.81481481 14:0.32314527 15:0.83544302 16:0.33375502 #
2 1:0.00043785575 2:0.0083333338 3:0.56821591 4:0.0022028077 5:0.36535051 6:0.14068441 7:0.11977186 8:0.91814613 9:0.92228258 10:0.64224499 11:0.13638039 12:0.12230216 13:0.51839465 14:0.56371588 15:0.55172414 16:0.58722019 #
2 5:0.47453013 6:0.014925373 7:0.0074626864 8:0.94729197 9:0.95252991 10:0.92466897 11:0.19047748 13:0.74271846 14:0.72294271 15:0.76804125 16:0.74898016 #
-2 1:0 2:0 3:0 4:0.00015536092 5:0.23793133 6:0.2604284 7:0.19165727 8:0.83689475 9:0.83723366 10:0.40843001 11:0.0094184419 13:0.27293578 14:0.31718498 15:0.29647058 16:0.33695984 #
-2 1:0 2:0 3:0 4:4.6413763e-05 5:0.052144133 6:1.7362638 7:1.8791208 8:0.61158377 9:0.61093384 10:0.13011676 11:0.0037382981 12:0.057971016 13:0.3611111 14:0.22978641 15:0.3888889 16:0.25112361 #
2 5:0.30735371 6:0.04109589 7:0.04109589 8:0.73496282 9:0.75309086 10:0.84436822 11:0.16262312 13:0.55789477 14:0.56995583 15:0.63736266 16:0.630472 #
-2 1:0 2:0 3:0 4:0 5:0.12103759 6:0.61198735 7:0.56466877 8:0.66454715 9:0.6608265 10:0.16049354 11:0.010914306 13:0.26380369 14:0.34531319 15:0.27215189 16:0.34733939 #
2 1:0.0044871797 2:0.06666667 3:0.5086019 4:0.0011291372 5:0.36532134 6:0.17553191 7:0.10638298 8:0.87225181 9:0.87739807 10:0.66365045 11:0.21075638 12:0.3548387 13:0.55288464 14:0.5736289 15:0.58536583 16:0.59263778 #
-2 1:0 2:0 3:0 4:0.00020066506 5:0.050486166 6:1.7625 7:1.8125 8:0.53948849 9:0.54704118 10:0.27351776 11:0 12:0.065573767 13:0.4528302 14:0.2776283 15:0.46153846 16:0.28968272 #
2 5:0.34385315 6:0.093055554 7:0.037500001 8:0.90535414 9:0.90787476 10:0.7480135 11:0.12190194 13:0.51940298 14:0.54159093 15:0.58585858 16:0.59806526 #
-2 1:0 2:0 3:0 4:0.00013616421 5:0.12616643 6:0.5780105 7:0.55602092 8:0.76633924 9:0.75972408 10:0.26863113 11:0.0017147841 13:0.2 14:0.28443161 15:0.21212122 16:0.29421195 #
-2 1:2.3654642e-05 2:0 3:0 4:0.0001815541 5:0.049104638 6:0.58536583 7:0.55487806 8:0.39071542 9:0.4024086 10:0.2593976 11:0.012098348 12:0.047619049 13:0.10784314 14:0.15264656 15:0.14285715 16:0.18257418 #
2 5:0.3592999 6:0.077821009 7:0.046692606 8:0.85302132 9:0.88185042 10:0.81557852 11:0.20724966 13:0.57861638 14:0.57326663 15:0.64516127 16:0.62912995 #
2 5:0.35851169 6:0.083333336 7:0 8:0.79181981 9:0.81908315 10:0.87463939 11:0.14425744 13:0.6179775 14:0.65996635 15:0.64367819 16:0.67979991 #
2 1:0 2:0 3:0 4:0.00021990105 5:0.075614393 6:0.90178573 7:0.88749999 8:0.54385012 9:0.53795379 10:0.030622391 11:0.0019729584 13:0.050974514 14:0.12330014 15:0.058430716 16:0.13573541 #
-2 1:0 2:0 3:0 4:0.00027081923 5:0.11946399 6:1.1724138 7:1.453202 8:0.62548316 9:0.63726646 10:0.31285965 11:0.02477554 12:0.045977011 13:0.39455783 14:0.29818246 15:0.45833334 16:0.33471933 #
2 1:0.012919896 3:0.038482387 4:0.0036374105 5:0.31583104 6:0.24932249 7:0.200542 8:0.83344984 9:0.83652842 10:0.67168862 11:0.086829871 12:0.48780489 13:0.4832536 14:0.51503807 15:0.50505048 16:0.53266895 #
-2 1:8.8214538e-06 2:0 3:0 4:0.00017270898 5:0.074190244 6:0.82447112 7:0.81189251 8:0.74171072 9:0.74331439 10:0.14946495 11:0.014508074 12:0.06666667 13:0.17058824 14:0.28763002 15:0.20357941 16:0.32260984 #
2 5:0.031781025 6:0.17491749 7:0.24422443 8:0.6455996 9:0.62670141 10:0.026857292 11:0 12:0.033898305 13:0.14035088 14:0.12695214 15:0.14457831 16:0.13204764 #
2 5:0.091044627 6:0.12727273 7:0.12727273 8:0.5440135 9:0.58896816 10:0.66974312 11:0.020646004 13:0.52083331 14:0.50545025 15:0.61363637 16:0.55911285 #
-2 1:0 2:0 3:0 4:7.6628356e-05 5:0.058913771 6:2.7727273 7:3.028409 8:0.62979192 9:0.63655865 10:0.29874 11:0.0095223226 12:0.052631579 13:0.46551725 14:0.28672144 15:0.52173913 16:0.31083494 #
2 1:0 2:0 3:0 4:0.00012318305 5:0.086175293 6:1.1791614 7:1.2757306 8:0.69223452 9:0.66328293 10:0.060448326 11:0 13:0.15538847 14:0.15446934 15:0.18421052 16:0.18230155 #
2 5:0.23764302 6:0.19672132 7:0.18852459 8:0.70819759 9:0.72092265 10:0.72998589 11:0.074535601 13:0.53333336 14:0.60535359 15:0.54545456 16:0.60725451 #
2 5:0.45811665 6:0.071884982 7:0.044728436 8:0.92320651 9:0.92380619 10:0.80639881 11:0.20135176 13:0.60815048 14:0.60584068 15:0.67808217 16:0.65389639 #
2 5:0.19239444 6:0.13636364 7:0.125 8:0.63245553 9:0.68316489 10:0.6823436 11:0.082918502 13:0.49230769 14:0.51176631 15:0.60317463 16:0.61298299 #
-2 5:0.12082609 6:0.74074072 7:0.73219371 8:0.6943723 9:0.69708657 10:0.38194475 11:0.030534625 12:0.071428575 13:0.18530351 14:0.30237159 15:0.19865319 16:0.31122974 #
2 1:0 2:0 3:0.0032467532 4:4.5949018e-05 5:0.040039442 6:0.1037415 7:0.18197279 8:0.7356866 9:0.72636312 10:0.022069106 11:0 13:0.14137931 14:0.13720655 15:0.15467626 16:0.14718951 #
-2 1:0 2:0 3:0 4:0.00036170855 5:0.13623047 6:0.83236152 7:0.82215744 8:0.70772219 9:0.68805218 10:0.22068422 11:0.040890306 12:0.086956523 13:0.15753424 14:0.29910517 15:0.17100371 16:0.31756628 #
2 5:0.5950622 6:0.041155867 7:0.013134851 8:0.94058585 9:0.94329822 10:0.97920805 11:0.33572111 13:0.76744187 14:0.75717092 15:0.79500002 16:0.78238785 #
2 1:0 2:0 3:0 4:0 5:0.074805766 6:0.95553041 7:0.95025438 8:0.4299593 9:0.42908671 10:0.051245261 11:0.0055808951 13:0.039999999 14:0.11682538 15:0.062569834 16:0.14891827 #
-2 1:0 2:0 3:0 4:0.00016378406 5:0.34656981 6:0.47405902 7:0.41810784 8:0.84000409 9:0.84354907 10:0.57301444 11:0.13759392 13:0.4173913 14:0.50550395 15:0.44968554 16:0.52991319 #
-2 1:0 2:0.0083333338 3:0 4:0.00017381983 5:0.094156958 6:0.8119266 7:0.96330273 8:0.66598111 9:0.66912544 10:0.29561558 11:0.023029109 12:0.047619049 13:0.37007874 14:0.30444345 15:0.4105691 16:0.33209315 #
2 5:0.43432727 6:0.21538462 7:0.1 8:0.8318463 9:0.87420684 10:0.91638535 11:0.21447611 13:0.61904764 14:0.63915396 15:0.71249998 16:0.7169953 #
-2 1:0 2:0.00069444446 3:0 4:0.00020814543 5:0.25362012 6:0.44329897 7:0.56701028 8:0.81849426 9:0.82805604 10:0.49831778 11:0.084364288 12:0.060606062 13:0.5 14:0.43051404 15:0.54705882 16:0.45756769 #
2 5:0.18232322 6:0.19642857 7:0.071428575 8:0.57835174 9:0.64968616 10:0.73514169 11:0.052185357 13:0.52564102 14:0.54787076 15:0.55844158 16:0.56583846 #
-2 1:0 2:0 3:0 4:3.2514334e-05 5:0.11673697 6:1.6450893 7:1.8549107 8:0.73621136 9:0.73510009 10:0.33336729 11:0.0031080903 12:0.10810811 13:0.35537189 14:0.26284426 15:0.4159292 16:0.29378155 #
2 1:0 2:0 3:0 4:0 5:0.059440441 6:0.9567647 7:0.9497059 8:0.48887077 9:0.47647884 10:0.034504753 11:0.00053235947 13:0.055005502 14:0.12497523 15:0.074468084 16:0.15481195 #
-2 1:0 2:0 3:0 4:4.3005202e-05 5:0.19926561 6:0.19290465 7:0.28159645 8:0.79592121 9:0.79919475 10:0.40922478 11:0.0084962277 13:0.37444934 14:0.33387548 15:0.39819005 16:0.35125893 #
-2 1:0 2:0 3:0 4:0.00011114668 5:0.19189279 6:0.82779884 7:0.80502844 8:0.72283751 9:0.72090793 10:0.40544239 11:0.058652669 12:0.041666668 13:0.15049227 14:0.26746443 15:0.17764166 16:0.30604836 #
-2 1:0 2:0 3:0 4:0.000375848 5:0.17383023 6:0.93082708 7:0.92330825 8:0.66459703 9:0.66732323 10:0.23191749 11:0.028667826 12:0.093023255 13:0.084444441 14:0.22750005 15:0.097972974 16:0.2498886 #
-2 1:0 2:0 3:0 4:1.2357121e-05 5:0.079572052 6:1.5166667 7:1.9416667 8:0.54963803 9:0.55017269 10:0.21144494 11:0.010728064 13:0.35955057 14:0.24416101 15:0.375 16:0.25387621 #
2 1:0 2:0 3:0 4:0.00011608146 5:0.11904678 6:0.7624861 7:0.73140955 8:0.68909186 9:0.68973005 10:0.045815807 11:0 13:0.078167118 14:0.12574886 15:0.096045196 16:0.14854103 #
-2 1:3.4340661e-05 2:0 3:0 4:8.17127e-05 5:0.087653145 6:1.2625 7:1.65 8:0.6500271 9:0.64844215 10:0.28416136 11:0.029833188 12:0.059701491 13:0.375 14:0.27296993 15:0.39655173 16:0.27860886 #
-2 3:0 4:0 5:0.11359236 6:1.2148438 7:1.4023438 8:0.70882487 9:0.70696896 10:0.28476256 11:0.013852861 13:0.30769232 14:0.24483256 15:0.33333334 16:0.26041523 #
-2 1:0 2:0 3:0 4:0 5:0.12741463 6:0.81240547 7:0.80030257 8:0.56562841 9:0.56910497 10:0.23887989 11:0 13:0.15909091 14:0.28952044 15:0.1701389 16:0.3026768 #
-2 1:7.3260071e-06 2:0 3:0 4:0.00015250544 5:0.13567121 6:0.93180132 7:0.92624164 8:0.72047693 9:0.71941704 10:0.28197536 11:0.0031865116 12:0.088888891 13:0.062363237 14:0.17149934 15:0.076433122 16:0.19468108 #
-2 1:0 2:0 3:0 4:0 5:0.099212319 6:0.77565217 7:0.75652176 8:0.50755477 9:0.52298182 10:0.26077357 11:0.0040041665 13:0.15438597 14:0.28565228 15:0.18248175 16:0.31322271 #
2 5:0.35151753 6:0.13506493 7:0.079220779 8:0.91771466 9:0.92083818 10:0.78945178 11:0.13194165 13:0.53932583 14:0.57250029 15:0.59021407 16:0.6141578 #
2 5:0.22786635 6:0.034482758 7:0.034482758 8:0.63836914 9:0.66472387 10:0.66916054 11:0.14765432 13:0.54929578 14:0.55719972 15:0.5714286 16:0.58408165 #
2 1:0 2:0 3:0 4:9.9260746e-05 5:0.063096926 6:0.89627957 7:0.87824124 8:0.61572558 9:0.61139292 10:0.04314059 11:0 12:0.052631579 13:0.048165139 14:0.1169123 15:0.049411766 16:0.12004901 #
2 5:0.3263956 6:0.21212122 7:0.11111111 8:0.75608641 9:0.82252383 10:0.83576208 11:0.19661896 13:0.52702701 14:0.56670725 15:0.62857145 16:0.6733467 #
-2 1:0 2:0 3:0 4:0.00023418949 5:0.10573588 6:0.89679718 7:0.87473309 8:0.76258165 9:0.75740814 10:0.24083817 11:0.0046598404 12:0.057142857 13:0.092979126 14:0.21639523 15:0.11924686 16:0.25688711 #
-2 1:0 2:0 3:0 4:0.0002052526 5:0.18606082 6:2.075 7:2.4681818 8:0.758636 9:0.7535311 10:0.34647653 11:0.011753234 13:0.34322035 14:0.21056123 15:0.40888888 16:0.24187505 #
-2 1:0 2:0 3:0 4:0.00020032052 5:0.081512146 6:0.88672769 7:0.87643021 8:0.55159372 9:0.56112683 10:0.32690874 11:0.0036684715 13:0.12064343 14:0.27270725 15:0.12676056 16:0.27953547 #
2 5:0.31372792 6:0.19685039 7:0.13385826 8:0.80689812 9:0.82902956 10:0.87812281 11:0.20723386 13:0.58333331 14:0.63930058 15:0.58227849 16:0.62760997 #
2 5:0.36177638 6:0.125 7:0.12771739 8:0.821904 9:0.85010827 10:0.81020385 11:0.16709602 13:0.58937198 14:0.6020056 15:0.64321607 16:0.66531444 #
2 1:0 2:0 3:0 4:7.6080338e-05 5:0.033123303 6:0.22773723 7:0.30656934 8:0.61359471 9:0.60555577 10:0.041645683 11:0.0013539772 13:0.17424242 14:0.14715344 15:0.19838056 16:0.16015039 #
2 1:0 2:0 3:0 4:9.8199074e-05 5:0.081928432 6:0.80227274 7:0.78068179 8:0.71585029 9:0.70754105 10:0.051048059 11:0 12:0.047058824 13:0.059770115 14:0.11903632 15:0.069711536 16:0.13375564 #
-2 1:0.018595042 2:0 3:0.057692308 4:0.0021675706 5:0.80003208 6:0.15312901 7:0.17423917 8:0.77145356 9:0.7738502 10:0.84638053 11:0.50303918 12:0.32786885 13:0.64558142 14:0.64334434 15:0.72162485 16:0.70658934 #
2 6:0.098623857 #
-2 1:0 2:0 3:0 4:0 5:0.092725396 6:0.16666667 7:0.070512824 8:0.59974998 9:0.60156572 10:0.19262739 11:0.015007505 13:0.28431374 14:0.27503291 15:0.2970297 16:0.2872425 #
-2 1:0 2:0 3:0 4:0 5:0.076365195 6:0.36170211 7:0.48510638 8:0.56993359 9:0.56550008 10:0.12971567 11:0.011646468 13:0.28666666 14:0.23610234 15:0.3263889 16:0.26227939 #
2 5:0.54219031 6:0.045205478 7:0.021917809 8:0.94171858 9:0.94371057 10:0.88784105 11:0.2485411 13:0.6761905 14:0.6799587 15:0.69014084 16:0.67486775 #
2 1:0.0064045545 2:0.028124999 3:0.13360325 4:0.0051556746 6:0.037037037 12:0.85000002 #
-2 1:0 2:0 3:0 4:0 5:0.16754845 6:0.10769231 7:0.010256411 8:0.57637805 9:0.5773145 10:0.24296652 11:0.0766965 13:0.34558824 14:0.35426524 15:0.36296296 16:0.36987716 #
-2 1:0.016917294 2:0 3:0.060975611 4:0.0012510779 5:0.76493335 6:0.054456379 7:0.10457886 8:0.7129823 9:0.72269303 10:0.93696964 11:0.52964211 12:0.32786885 13:0.66260868 14:0.6655305 15:0.71396649 16:0.70689344 #
2 1:0.00053623412 2:0.0083333338 3:0.24764891 4:0.0023521506 5:0.41973236 6:0.0046189376 7:0.043879908 8:0.90276486 9:0.90711039 10:0.69066119 11:0.23788093 12:0.12878788 13:0.59336102 14:0.62243468 15:0.64502162 16:0.65502256 #
2 6:0.13347237 #
2 5:0.66257793 6:0.1194426 7:0.0092899799 8:0.96709061 9:0.96728367 10:0.79914558 11:0.23041159 13:0.62639111 14:0.63108552 15:0.65694684 16:0.65470469 #
-2 1:0 2:0 3:0 4:7.6535871e-05 5:0.14242123 6:0.19929454 7:0.11463845 8:0.74807131 9:0.75013113 10:0.31388578 11:0.051027346 12:0.042105265 13:0.34931508 14:0.37220716 15:0.38709676 16:0.39569998 #
-2 1:0 2:0 3:0 4:3.6161135e-05 5:0.18968102 6:0.28897339 7:0.24714829 8:0.7478047 9:0.7452684 10:0.39242592 11:0.056003761 12:0.067567565 13:0.40000001 14:0.4669925 15:0.41104296 16:0.4790605 #
-2 1:0 2:0 3:0 4:0 5:0.13974077 6:0.12087912 7:0 8:0.65614098 9:0.66222191 10:0.4644371 11:0.036150482 13:0.44339624 14:0.4167144 15:0.45192307 16:0.42071748 #
2 5:0.41353667 6:0.14634146 7:0.069319643 8:0.92589653 9:0.92926878 10:0.82123464 11:0.15501606 13:0.57692307 14:0.58893132 15:0.61237782 16:0.61337763 #
2 5:0.5061391 6:0.052718285 7:0.021416804 8:0.90130949 9:0.91444278 10:0.82662165 11:0.24292247 13:0.59848487 14:0.61766374 15:0.68354428 16:0.66420782 #
-2 1:0.025641026 2:0 3:0.3125 4:0.015190972 5:0.79191422 6:0.22339974 7:0.22000848 8:0.82572782 9:0.83510554 10:0.93822241 11:0.54231143 12:0.32258064 13:0.69950742 14:0.69337457 15:0.74928772 16:0.73078394 #
-2 1:0.038781162 2:0 3:0.12890625 4:0.0035536024 5:0.65102267 6:0.046511628 7:0.052540913 8:0.77558535 9:0.78995913 10:0.84306639 11:0.38922921 12:0.33333334 13:0.68070173 14:0.62406802 15:0.70588237 16:0.64863288 #
2 1:0 5:0.037068177 6:0.67019403 7:0.8888889 8:0.54966819 9:0.54182565 10:0.038940467 11:0.0014110113 13:0.19629629 14:0.14941736 15:0.21343873 16:0.16487339 #
-2 1:0 2:0 3:0.1875 4:0.015190972 5:0.4622429 6:0.10465116 7:0.019379845 8:0.70320582 9:0.71097583 10:0.75773823 11:0.22578655 12:0.33333334 13:0.616 14:0.60253668 15:0.67768598 16:0.65889496 #
2 1:0.0066807312 2:0.035326086 3:0.090909094 4:0.0046296297 6:0.022922637 12:0.84210527 #
2 5:0.55846936 6:0.070598751 7:0.069705091 8:0.93406343 9:0.93491846 10:0.94031286 11:0.33101439 13:0.76119405 14:0.72850281 15:0.81743872 16:0.77433085 #
2 5:0 6:0.4888064 7:0.46338171 8:0.23365045 9:0.23184672 10:0.001735681 11:0 13:0.020008337 14:0.021869773 15:0.020710059 16:0.0244036 #
2 5:0.40445158 6:0.068041235 7:0.0041237115 8:0.90328562 9:0.90955925 10:0.78440398 11:0.13367251 13:0.57939917 14:0.56160372 15:0.62616825 16:0.59753585 #
-2 1:0.00036223134 2:0.018200202 3:0.027777778 4:0.0031373398 5:0.47624919 6:0.21793863 7:0.098347761 8:0.85057288 9:0.85345858 10:0.69783682 11:0.19442776 13:0.44802868 14:0.50369501 15:0.49409449 16:0.54146659 #
-2 1:0.0041152262 2:0 3:0.18934911 4:0.0043967785 5:0.78609997 6:0.10003547 7:0.12699538 8:0.71962839 9:0.73713088 10:0.97418255 11:0.48353273 12:0.31746033 13:0.64506173 14:0.64011902 15:0.71209013 16:0.70174104 #
2 5:0.38831818 6:0.07692308 7:0.0059171598 8:0.88172084 9:0.88348132 10:0.83994728 11:0.17496419 13:0.63333333 14:0.58392388 15:0.67123288 16:0.61309904 #
2 1:0 2:0 3:0 4:0.00014854426 5:0.044027124 6:0.84858388 7:0.83769065 8:0.59060228 9:0.57832921 10:0.025438704 11:0 12:0.068965517 13:0.053658538 14:0.10705628 15:0.05927835 16:0.11561439 #
2 1:0 2:0 3:0 4:0.00025479618 5:0.036507659 6:0.81944442 7:0.8075397 8:0.60840386 9:0.58932668 10:0.02701338 11:0 13:0.074157305 14:0.13510372 15:0.085574575 16:0.14732175 #
-2 1:0.04296875 2:0 3:0.1736111 4:0.0047743055 5:0.46411964 6:0.16348357 7:0.13750955 8:0.74604267 9:0.74710041 10:0.75923312 11:0.29798847 12:0.33333334 13:0.60629922 14:0.57508773 15:0.63636363 16:0.59526366 #
2 5:0.60864842 6:0.072222225 7:0.022222223 8:0.85692859 9:0.86467057 10:0.88154888 11:0.37278587 13:0.67391306 14:0.62572837 15:0.71111113 16:0.66151857 #
-2 1:0.00091514754 2:0.032036614 3:0.11904762 4:0.0090361442 5:0.57088929 6:0.21536525 7:0.15113351 8:0.93826509 9:0.93977535 10:0.8416456 11:0.32472271 13:0.5380435 14:0.58033216 15:0.55752212 16:0.59867108 #
2 5:0.59101802 6:0.17927171 7:0.085434176 8:0.93653613 9:0.93861043 10:0.78790718 11:0.25312677 13:0.58974361 14:0.6132831 15:0.60856271 16:0.62705243 #
-2 1:0.029411765 2:0 3:0.031764038 4:0.0013038067 5:0.71063989 6:0.11697303 7:0.10766292 8:0.70092267 9:0.72915429 10:0.88672864 11:0.37457788 12:0.31746033 13:0.59386975 14:0.56070215 15:0.65798044 16:0.59894657 #
-2 1:0 2:0.00050505053 3:0 4:0.00036972738 5:0.084348232 6:1.9743589 7:2.1538463 8:0.60803121 9:0.60437 10:0.31978825 11:0.0164696 12:0.053333335 13:0.60869563 14:0.32440129 15:0.62686568 16:0.32781503 #
-2 1:0 2:0 3:0 4:0.00012880159 5:0.058236353 6:0.19067797 7:0.06779661 8:0.60325229 9:0.61888802 10:0.31111249 11:0.0098667126 13:0.38059703 14:0.37795523 15:0.42424244 16:0.40338954 #
-2 1:0 2:0.00080906152 3:0 4:7.5250209e-05 5:0.1440881 6:0.66523606 7:0.62875539 8:0.737028 9:0.73700839 10:0.18284547 11:0.031569056 12:0.06779661 13:0.23963134 14:0.33505183 15:0.26442307 16:0.36527318 #
2 1:0 2:0 3:0 4:0 5:0.06378945 6:0.93706423 7:0.92274356 8:0.43012226 9:0.42709589 10:0.032997206 11:0 13:0.044347826 14:0.11119593 15:0.063687153 16:0.14201267 #
-2 1:0 2:0 3:0 4:0 5:0.081548214 6:0.35123041 7:0.2147651 8:0.59795392 9:0.60178441 10:0.24791321 11:0.0055694967 13:0.2920354 14:0.31366339 15:0.31481481 16:0.33133304 #
2 1:0 2:0 3:0 4:2.9117167e-05 5:0.05677022 6:0.65620327 7:0.68011957 8:0.74490124 9:0.73359013 10:0.061011259 11:0 13:0.16207951 14:0.16616093 15:0.1791531 16:0.18626632 #
-2 1:0 2:0 3:0 4:0.0002374357 5:0.038821042 6:0.26183844 7:0.1643454 8:0.64079642 9:0.63594729 10:0.28353518 11:0.0032900791 12:0.032000002 13:0.30285713 14:0.3000741 15:0.32716051 16:0.3129909 #
2 1:0 2:0 3:0 4:3.0879448e-05 5:0.062231041 6:0.97999316 7:0.9774282 8:0.63274938 9:0.62280029 10:0.037904989 11:0.0010847985 12:0.056338027 13:0.03752039 14:0.13485219 15:0.048048049 16:0.1534071 #
0.51985704354791550940717570483685 1:0.0071361503 2:0.040624999 3:0.1 4:0.0049494598 6:0.066312999 12:0.83333331 #
-2 1:0 2:0.00056306308 3:0 4:0.00039147603 5:0.10272473 6:0.27450982 7:0.23039216 8:0.60028625 9:0.62343419 10:0.23926264 11:0.026294176 12:0.053333335 13:0.27131784 14:0.29571843 15:0.30081302 16:0.31523916 #
-2 1:0 2:0 3:0 4:0.00034002867 5:0.26058355 6:0.36686391 7:0.27810651 8:0.77351314 9:0.77099276 10:0.6331659 11:0.11031532 13:0.4364641 14:0.50538331 15:0.45086706 16:0.51812661 #
-2 1:0 2:0 3:0 4:0.0001134945 5:0.17349447 6:1.7391304 7:1.9021739 8:0.54604191 9:0.5517031 10:0.51752573 11:0.054554474 12:0.052631579 13:0.54666668 14:0.3904762 15:0.56756759 16:0.40828687 #
-2 1:4.4931705e-05 2:0 3:0 4:0 5:0.10558404 6:0.1693989 7:0.079234973 8:0.70628291 9:0.70808178 10:0.31239471 11:0.024838733 12:0.037500001 13:0.36686391 14:0.33808181 15:0.38036808 16:0.34865591 #
-2 1:0 2:0 5:0.095971487 6:0.17791411 7:0.10429448 8:0.6514923 9:0.6560427 10:0.27414316 11:0.023273302 12:0.043010753 13:0.31132075 14:0.32076898 15:0.33663365 16:0.33174285 #
2 1:0 2:0 3:0 4:0.00022563177 5:0.091926113 6:0.74698794 7:0.74578315 8:0.61122167 9:0.57993454 10:0.033154096 11:0 13:0.068681322 14:0.13373765 15:0.075581394 16:0.14859326 #
-2 1:0 2:0 3:0 4:0.00013347789 5:0.27374864 6:0.38753387 7:0.29268292 8:0.71992528 9:0.72503442 10:0.57408774 11:0.092309251 13:0.42331287 14:0.47229618 15:0.4556962 16:0.4876008 #
-2 5:0.24418399 6:0.52256942 7:0.46527779 8:0.68481147 9:0.6871714 10:0.46909052 11:0.059075784 12:0.034782607 13:0.36423841 14:0.46601987 15:0.39024389 16:0.49005112 #
-2 1:0 2:0 3:0 4:0 5:0.080374636 6:0.4273743 7:0.37150839 8:0.47143403 9:0.47607362 10:0.30546963 11:0.0039796759 13:0.23316061 14:0.2887378 15:0.26111111 16:0.30262807 #
-2 1:0.057142857 2:0 3:0.13333334 4:0.0099537037 5:0.36825532 6:0.25082508 7:0.24422443 8:0.61204219 9:0.62065768 10:0.61275905 11:0.23879234 12:0.33333334 13:0.51219511 14:0.54660815 15:0.52136755 16:0.55567169 #
-2 1:0 2:0 3:0 4:0 5:0.39211395 6:4.0438871 7:4.6551723 8:0.80742019 9:0.80944914 10:0.54846162 11:0.15636909 12:0.064516127 13:0.60159361 14:0.27976474 15:0.67372882 16:0.30748659 #
-2 1:0 2:0 3:0 4:0.00024188051 5:0.21272135 6:0.16011237 7:0.0084269661 8:0.65685719 9:0.66530806 10:0.50972331 11:0.058480531 13:0.41717792 14:0.40618119 15:0.44155845 16:0.42276001 #
-2 1:0 2:0 3:0 4:4.1020594e-05 5:0.33436456 6:0.646281 7:0.58512396 8:0.59965909 9:0.60328805 10:0.29235196 11:0.043480828 13:0.21678321 14:0.29834598 15:0.22463769 16:0.30992252 #
2 5:0.41538829 6:0.14017095 7:0.07692308 8:0.91604006 9:0.92005914 10:0.80195212 11:0.18786614 13:0.58633095 14:0.61913031 15:0.61153847 16:0.64052528 #
-2 1:0.0065406975 2:0 3:0.088953488 4:0.0011708656 5:0.67544568 6:1.0731232 7:1.1036724 8:0.78282517 9:0.78519249 10:0.78802907 11:0.35923028 12:0.32786885 13:0.66125542 14:0.50422013 15:0.70394737 16:0.53969419 #
2 1:0 2:0 3:0 4:4.8879952e-05 5:0.11864433 6:0.77803206 7:0.75743705 8:0.79342961 9:0.78010416 10:0.029802077 11:0.0027709762 13:0.067024127 14:0.11624513 15:0.076056339 16:0.13136393 #
2 5:0.38428491 6:0.083025828 7:0.0092250919 8:0.91785604 9:0.9248544 10:0.79332757 11:0.12567437 13:0.58846152 14:0.58696616 15:0.62962961 16:0.61828405 #
2 1:0 2:0 3:0 4:0 5:0.0396934 6:0.66975307 7:0.8611111 8:0.66460019 9:0.65918738 10:0.036018591 11:0 12:0.04040404 13:0.1878453 14:0.14303239 15:0.23121387 16:0.17027135 #
-2 5:0.17837976 6:0.84628236 7:0.83792818 8:0.74618816 9:0.72310483 10:0.15333492 11:0.022664843 12:0.070175439 13:0.11872146 14:0.23690267 15:0.13647643 16:0.26610756 #
-2 1:0.056122448 2:0 3:0.096938774 4:0.0040745465 5:0.68442297 6:0.17480136 7:0.098751418 8:0.82778203 9:0.83670807 10:0.93085676 11:0.37116221 12:0.33898306 13:0.62295079 14:0.60504562 15:0.67464113 16:0.63758492 #
-2 1:0 2:0 3:0 4:6.6508073e-05 5:0.19021232 6:1.45 7:1.6900001 8:0.7062394 9:0.71122497 10:0.39411557 11:0.054631323 12:0.047058824 13:0.58823532 14:0.3363364 15:0.63725489 16:0.36973619 #
2 5:0.3490535 6:0.03586207 7:0.04551724 8:0.86518377 9:0.8651219 10:0.71732438 11:0.13023005 13:0.56273764 14:0.56013334 15:0.63135594 16:0.60619211 #
2 1:0 2:0 3:0 4:8.7719302e-05 5:0.037744891 6:0.81097561 7:1.1036586 8:0.46492603 9:0.45237499 10:0.06698072 11:0 13:0.1744186 14:0.12577777 15:0.21250001 16:0.14127478 #
-2 5:0.0593521 6:0.14675768 7:0.075085327 8:0.67411774 9:0.68119067 10:0.26168668 11:0.0040604807 12:0.051948052 13:0.25531915 14:0.27895519 15:0.27717391 16:0.2875168 #
2 5:0.61268288 6:0.033398822 7:0.051080551 8:0.94634563 9:0.94861341 10:0.96999729 11:0.37013298 13:0.77979273 14:0.77495885 15:0.80446929 16:0.79454398 #
-2 1:0.079999998 2:0 3:0.1875 4:0.015190972 5:0.67908949 6:0.12998267 7:0.10225303 8:0.67024171 9:0.67332512 10:0.79533559 11:0.55900753 12:0.32258064 13:0.56185567 14:0.58071959 15:0.58563536 16:0.60251594 #
2 1:0 5:0.084814385 6:0.0063761957 7:0.1381509 8:0.71889395 9:0.71086842 10:0.058424782 11:0 13:0.17422435 14:0.16726848 15:0.20351759 16:0.19717894 #
-2 5:0.11309937 6:0.89369297 7:0.88456964 8:0.76343817 9:0.75595564 10:0.14353085 11:0 12:0.063492067 13:0.077594571 14:0.19794042 15:0.096500531 16:0.23000194 #
-2 1:0 2:0 3:0 4:0.00014392631 5:0.19384591 6:0.079710148 7:0.014492754 8:0.70954263 9:0.70761544 10:0.45892158 11:0.063939668 13:0.39766082 14:0.41501236 15:0.41818181 16:0.43007562 #
2 1:0 2:0 3:0 4:1.123015e-05 5:0.15538241 6:0.40909091 7:0.66666669 8:0.62639219 9:0.62109244 10:0.014972825 11:0 12:0.044642858 13:0.12087912 14:0.10994504 15:0.12222222 16:0.11315579 #
-2 1:0 2:0 3:0 4:0 5:0.21884 6:0.1184466 7:0.044660196 8:0.77767497 9:0.77550644 10:0.28596008 11:0.020180641 13:0.30662021 14:0.33140245 15:0.32971016 16:0.34782517 #
-2 1:0 2:0 3:0 4:0.00050403224 5:0.13176195 6:0.43692869 7:0.40127972 8:0.80745566 9:0.80551291 10:0.18465075 11:0.010645265 13:0.255079 14:0.28691986 15:0.30272952 16:0.32391867 #
2 5:0.3732515 6:0.060975611 7:0.012195121 8:0.85525632 9:0.8603794 10:0.83179504 11:0.16547506 13:0.62162161 14:0.63897842 15:0.6703704 16:0.65946931 #
2 5:0.48018163 6:0.11058075 7:0.035003979 8:0.92510819 9:0.92759478 10:0.79418892 11:0.16600125 13:0.61297542 14:0.60177362 15:0.65601963 16:0.62809098 #
2 5:0.3642464 6:0.079908676 7:0.0045662099 8:0.90426028 9:0.91164559 10:0.79443455 11:0.20163913 13:0.53639847 14:0.56785089 15:0.60569108 16:0.61194193 #
2 1:0 2:0 3:0 4:0 5:0.11964691 6:0.77236015 7:0.78103501 8:0.70198202 9:0.6879065 10:0.034453131 11:0.0023619568 13:0.049323019 14:0.10181995 15:0.063973062 16:0.12758863 #
2 5:0.45441625 6:0.17046688 7:0.058631923 8:0.92328596 9:0.92735314 10:0.75750142 11:0.17052764 13:0.5520581 14:0.5770793 15:0.58441556 16:0.60860842 #
2 1:0 2:0 3:0 4:0.00020920503 5:0.054508429 6:0.13017751 7:0.2514793 8:0.61996114 9:0.60670537 10:0.023982532 11:0 13:0.1147541 14:0.11644287 15:0.13793103 16:0.13599098 #
-2 1:0 2:0 3:0 4:1.7420693e-05 5:0.21459424 6:0.36213234 7:0.2665441 8:0.86957335 9:0.87354219 10:0.40192199 11:0.0092508616 12:0.043478262 13:0.25565612 14:0.29847422 15:0.31175059 16:0.34678507 #
2 5:0.1815947 6:0.14070351 7:0.035175879 8:0.72813302 9:0.73467332 10:0.62513322 11:0.081795201 13:0.50806451 14:0.50399953 15:0.57627118 16:0.55990314 #
2 1:0 2:0 3:0 4:0 5:0.057815082 6:16.681318 7:18.824175 8:0.60293984 9:0.58866876 10:0.023043524 11:0 12:0.11428571 13:0.33064517 14:0.10591415 15:0.375 16:0.12204133 #
-2 1:0.052380953 2:0 3:0.14583333 4:0.0047743055 5:0.64382702 6:0.21560846 7:0.13624339 8:0.82176387 9:0.82826692 10:0.90249372 11:0.43521553 12:0.33898306 13:0.61386138 14:0.61167932 15:0.65263158 16:0.65092087 #
-2 1:0 2:0 3:0 4:0.00014204545 5:0.19501621 6:0.036809817 7:0.1411043 8:0.64081466 9:0.64558315 10:0.48197761 11:0.038892224 13:0.4649123 14:0.45777509 15:0.48672566 16:0.47429657 #
2 5:0.41755015 6:0.042459738 7:0.14055637 8:0.91305166 9:0.91515815 10:0.74213248 11:0.20395289 13:0.59444445 14:0.55841845 15:0.63905323 16:0.59416497 #
2 1:0 2:0 3:0 4:5.1695617e-05 5:0.1301253 6:0.79061782 7:0.78032035 8:0.73822355 9:0.73194402 10:0.025798306 11:0.0059798816 13:0.050938338 14:0.09646783 15:0.053521127 16:0.099847995 #
2 5:0.40937588 6:0.11370263 7:0.017492712 8:0.88526392 9:0.89560795 10:0.87545013 11:0.19933555 13:0.68556702 14:0.68860978 15:0.73446327 16:0.72035706 #
2 1:0 2:0 3:0 4:0.00015101177 5:0.14946403 6:0.91890424 7:0.90941143 8:0.65083736 9:0.64706802 10:0.10195596 11:0.001891106 13:0.065878376 14:0.16488755 15:0.084980235 16:0.19875695 #
2 5:0.39274725 6:0.089728452 7:0.0094451001 8:0.89302516 9:0.89562744 10:0.71892238 11:0.12644854 13:0.55586594 14:0.56604594 15:0.62275451 16:0.60662287 #
-2 1:0 2:0 3:0 4:0 5:0.31537583 6:0.021582734 7:0.1059516 8:0.85845166 9:0.85683441 10:0.47604302 11:0.049137454 12:0.065573767 13:0.31375581 14:0.33951953 15:0.37563452 16:0.38832617 #
2 5:0.38449705 6:0.063424945 7:0.023255814 8:0.88838935 9:0.90301257 10:0.79197353 11:0.18872775 13:0.56621003 14:0.57718265 15:0.60952383 16:0.60239464 #
-2 1:0 2:0 3:0 4:4.2252927e-05 5:0.20537183 6:0.57210779 7:0.51188588 8:0.79981178 9:0.80002135 10:0.19456181 11:0.0071608834 13:0.21904762 14:0.28643337 15:0.24333334 16:0.31070864 #
2 1:0.0011897037 2:0.01010101 3:0.13148789 4:0.0078089633 5:0.41305375 6:0.23481782 7:0.17813765 8:0.9252485 9:0.92780381 10:0.67902416 11:0.2000569 12:0.84210527 13:0.56296295 14:0.60300428 15:0.58620691 16:0.62043059 #
-2 1:0 2:0 3:0 4:1.2209118e-05 5:0.18446662 6:0.66243905 7:0.62829268 8:0.80450195 9:0.80434734 10:0.40723914 11:0.033427764 12:0.064516127 13:0.19477911 14:0.30507669 15:0.21935484 16:0.33960402 #
-2 1:0 2:0 3:0 4:1.2832358e-05 5:0.089458875 6:0.55492955 7:0.48450705 8:0.61160189 9:0.60913175 10:0.38142782 11:0.04291885 13:0.20975609 14:0.27302274 15:0.22 16:0.28520963 #
-2 1:0 2:0 3:0 4:0.00013075313 5:0.075889923 6:0.11976048 7:0.2754491 8:0.50160605 9:0.5062269 10:0.29252794 11:0.0058811321 13:0.33333334 14:0.30656767 15:0.35789475 16:0.31843919 #
-2 1:0 2:0 3:0 4:1.3361125e-05 5:0.046562277 6:0.97959185 7:1.1224489 8:0.54378891 9:0.54569966 10:0.33424458 11:0.0079979524 12:0.032258064 13:0.41666666 14:0.32069728 15:0.44285715 16:0.3340874 #
-2 1:0 2:0 3:0 4:0.00078492938 5:0.12145371 6:0.04945055 7:0.15384616 8:0.6010446 9:0.5996114 10:0.30474609 11:0.017966971 12:0.071428575 13:0.31451613 14:0.31139958 15:0.32499999 16:0.3122499 #
2 5:0.46858349 6:0.13107823 7:0.0063424949 8:0.90227562 9:0.90762174 10:0.82707483 11:0.20408762 13:0.59523809 14:0.60501075 15:0.64529914 16:0.6268205 #
-2 1:0 2:0 3:0 4:0 5:0.094176322 6:0.625 7:0.59375 8:0.66634375 9:0.67026597 10:0.37754229 11:0.009349674 13:0.23232323 14:0.31752089 15:0.25128207 16:0.34243971 #
2 5:0.26236418 6:0.072463766 7:0.0072463769 8:0.76703501 9:0.80682641 10:0.67180914 11:0.096392542 13:0.58227849 14:0.55700344 15:0.63513511 16:0.58915937 #
-2 1:0 2:0 3:0 4:0.00035558266 5:0.15292707 6:0.60623229 7:0.57790369 8:0.71662748 9:0.71518302 10:0.17069145 11:0.02072233 12:0.079999998 13:0.17613636 14:0.23024316 15:0.20496894 16:0.25751403 #
-2 1:0.053333335 2:0 3:0.15234375 4:0.0035536024 5:0.67201853 6:0.095124848 7:0.1296076 8:0.81576103 9:0.82479036 10:0.97627926 11:0.43245721 12:0.32258064 13:0.66023165 14:0.67456776 15:0.7368421 16:0.74339193 #
-2 1:0 2:0 3:0 4:0.00011004213 5:0.12305681 6:0.0064935065 7:0.1525974 8:0.67896223 9:0.68305558 10:0.24484916 11:0.015668286 13:0.31843576 14:0.33716381 15:0.34911242 16:0.35439432 #
-2 1:0 2:0.00064102566 3:0 4:0.0002007226 5:0.16302322 6:0.41329011 7:0.37925446 8:0.80508244 9:0.79677939 10:0.30162865 11:0.029307466 12:0.061538462 13:0.30000001 14:0.35771644 15:0.32508835 16:0.38383678 #
2 1:0 5:0.12592389 6:0.014584346 7:0.052989792 8:0.69812274 9:0.66734797 10:0.072166406 11:0.00083199539 13:0.12749004 14:0.15850736 15:0.15820029 16:0.19841744 #
-2 1:0 2:0 3:0 4:6.8641675e-05 5:0.20216347 6:0.11520737 7:0.032258064 8:0.68827838 9:0.68933564 10:0.48810959 11:0.04803475 13:0.41538462 14:0.40903163 15:0.42519686 16:0.40642881 #
2 1:0.0023113906 2:0.090909094 3:0.030303031 4:0.0042603551 5:0.24737245 6:0.58759123 7:0.90145987 8:0.78880638 9:0.7886104 10:0.68160236 11:0.08864513 12:0.83333331 13:0.5 14:0.38071558 15:0.53284669 16:0.39524183 #
2 5:0.46097171 6:0.068840578 7:0.032608695 8:0.89357501 9:0.89770859 10:0.79072911 11:0.21772149 13:0.57785469 14:0.59062004 15:0.59925091 16:0.60726422 #
-2 1:0 2:0 3:0 4:0 5:0.15939623 6:1.0578035 7:1.4277457 8:0.66064543 9:0.65096736 10:0.36459669 11:0.045680132 12:0.051948052 13:0.50458717 14:0.34812218 15:0.51851851 16:0.3608475 #
-2 1:0.013333334 2:0.012987013 3:0.1875 4:0.015190972 5:0.59799826 6:0.26520813 7:0.23052295 8:0.67601752 9:0.68495953 10:0.72521681 11:0.38501459 12:0.32258064 13:0.5071283 14:0.5217604 15:0.57244658 16:0.57041782 #
2 5:0.45032841 6:0.12865497 7:0.011695907 8:0.90654886 9:0.92000622 10:0.75603241 11:0.16703951 13:0.59398496 14:0.61352146 15:0.61507934 16:0.62895983 #
-2 1:0.037807185 2:0 3:0.15916955 4:0.0033400615 5:0.70494419 6:0.10309734 7:0.1380531 8:0.75766057 9:0.77577746 10:0.9756825 11:0.39721096 12:0.31746033 13:0.6613546 14:0.65625751 15:0.72576833 16:0.71323252 #
2 5:0.46305346 6:0.057220709 7:0.013623978 8:0.87712389 9:0.88886935 10:0.8570469 11:0.2219281 13:0.62380952 14:0.64096552 15:0.67500001 16:0.69072008 #
-2 1:0 2:0 3:0 4:0 5:0.24723572 6:0.21789321 7:0.15584415 8:0.81386048 9:0.8149094 10:0.41602203 11:0.063341282 12:0.083333336 13:0.36217949 14:0.36305916 15:0.39333335 16:0.39009598 #
-2 1:0 2:0 3:0 4:6.0135906e-05 5:0.26736677 6:2.6117826 7:3.0770392 8:0.80084413 9:0.80257803 10:0.47197855 11:0.033898033 12:0.14583333 13:0.55084747 14:0.30585667 15:0.61860466 16:0.32967383 #
-2 1:0 2:0 3:0 4:0.00017738884 5:0.10225521 6:0.12957746 7:0.0028169013 8:0.75587833 9:0.7594288 10:0.34713164 11:0.013017236 12:0.051282052 13:0.2838428 14:0.31180853 15:0.31506848 16:0.33475429 #
2 5:0.39856729 6:0.057291668 7:0.041666668 8:0.82162458 9:0.84930259 10:0.80636531 11:0.22300233 13:0.5703125 14:0.57814264 15:0.60330576 16:0.60835445 #
-2 1:0 2:0.0007183908 3:0 4:0.00019805902 5:0.1651236 6:0.16372795 7:0.12846348 8:0.74956077 9:0.74669409 10:0.53642988 11:0.0598494 12:0.060606062 13:0.42857143 14:0.44140849 15:0.47342995 16:0.46892101 #
-2 1:0 2:0 3:0 4:9.0612542e-05 5:0.27252519 6:0.59839815 7:0.54576659 8:0.80228686 9:0.80630714 10:0.62923223 11:0.10962188 13:0.40934065 14:0.54570717 15:0.43390805 16:0.57380033 #
2 5:0.32111016 6:0.23913044 7:0.20652173 8:0.83628678 9:0.85838509 10:0.70984805 11:0.13614582 13:0.56060606 14:0.62598634 15:0.60317463 16:0.66391373 #
-2 1:0 2:0.00062656641 3:0 4:0.00013153444 5:0.16318707 6:0.53621346 7:0.4498094 8:0.82311606 9:0.82605118 10:0.4318279 11:0.033811536 12:0.060606062 13:0.23558897 14:0.33707389 15:0.26578948 16:0.36821118 #
2 5:0.41997832 6:0.19645494 7:0.10635155 8:0.94020778 9:0.94307411 10:0.74218512 11:0.19409299 13:0.5615142 14:0.58648682 15:0.6082474 16:0.62008005 #
-2 1:0.024305556 2:0 3:0.23140496 4:0.0052226814 5:0.6441015 6:0.1038961 7:0.10870611 8:0.78036374 9:0.78921646 10:0.90825599 11:0.39341864 12:0.32786885 13:0.70499998 14:0.67604309 15:0.7744807 16:0.7431646 #
2 1:8.7413355e-06 2:0 3:0 4:7.8146368e-05 5:0.041314732 6:0.76256156 7:0.73793101 8:0.65947747 9:0.65928531 10:0.041469403 11:0 12:0.057971016 13:0.086854458 14:0.15541954 15:0.1075 16:0.18642864 #
-2 1:0.046218488 2:0 3:0.18181819 4:0.0044191917 5:0.72371143 6:0.26377219 7:0.27824464 8:0.78458112 9:0.79643691 10:0.95889091 11:0.40421909 12:0.31746033 13:0.61381072 14:0.66183579 15:0.66865671 16:0.71014559 #
2 1:0.0028661243 2:0.05882353 3:0.030303031 4:0.0041417507 5:0.17515624 6:0.10596026 7:0.25496688 8:0.80994093 9:0.80521405 10:0.42563966 11:0.039844029 12:0.82352942 13:0.25988701 14:0.2413782 15:0.30952382 16:0.27884543 #
2 5:0.34694892 6:0.13861386 7:0.082508251 8:0.87417144 9:0.88088882 10:0.76658732 11:0.16972977 13:0.59442723 14:0.60632402 15:0.62913907 16:0.63655967 #
2 5:0.38136747 6:0.093607306 7:0.01369863 8:0.86272621 9:0.87170535 10:0.71934664 11:0.15061036 13:0.61643833 14:0.60676742 15:0.67464113 16:0.64734089 #
2 5:0.38215414 6:0.14855877 7:0.048780486 8:0.85432386 9:0.83949578 10:0.75617957 11:0.20068729 13:0.60683763 14:0.61855799 15:0.66666669 16:0.65783626 #
2 5:0.4799256 6:0.073170729 7:0.054878049 8:0.8400811 9:0.8647508 10:0.82502174 11:0.24784596 13:0.625 14:0.6527912 15:0.66666669 16:0.69006556 #
-2 1:0 2:0 3:0 4:0 5:0.18430008 6:0.39318886 7:0.29618162 8:0.85340214 9:0.85583222 10:0.36536828 11:0.014987322 12:0.051282052 13:0.21730383 14:0.27812988 15:0.26849896 16:0.32592723 #
-2 1:0 2:0.00068306009 3:0 4:0.00013128058 5:0.20729521 6:0.25203252 7:0.38414633 8:0.769934 9:0.77299428 10:0.48944905 11:0.036356263 12:0.045977011 13:0.41319445 14:0.40014777 15:0.46014494 16:0.41704175 #
-2 1:0 2:0 3:0 4:1.59724e-05 5:0.13190351 6:0.3285968 7:0.27531084 8:0.74510556 9:0.75573713 10:0.41541392 11:0.0096441275 12:0.05479452 13:0.31226766 14:0.3444688 15:0.32824427 16:0.3542065 #
-2 5:0.22586241 6:0.46910995 7:0.4104712 8:0.81635118 9:0.82105809 10:0.49869651 11:0.099717505 12:0.056338027 13:0.34016395 14:0.42626691 15:0.375 16:0.45952699 #
-2 1:0 2:0 3:0 4:3.070923e-05 5:0.15299378 6:0.76827371 7:0.7340591 8:0.80117989 9:0.79922628 10:0.2850194 11:0.0015634125 13:0.11149826 14:0.20163979 15:0.13232514 16:0.22621995 #
2 1:0 2:0 3:0 4:4.2838608e-05 5:0.021714516 6:0.24267782 7:0.15062761 8:0.55281729 9:0.55477893 10:0.048048366 11:0 12:0.083333336 13:0.11038961 14:0.13002506 15:0.12582782 16:0.14878298 #
2 5:0.32325408 6:0.27272728 7:0.14141414 8:0.77535826 9:0.79049003 10:0.82252926 11:0.1673419 13:0.61428571 14:0.6578899 15:0.60869563 16:0.64738083 #
-2 1:0 2:0 3:0 4:1.7909593e-05 5:0.16406044 6:0.43494424 7:0.366171 8:0.80482972 9:0.80813557 10:0.392526 11:0.013192842 12:0.04040404 13:0.25874126 14:0.30477482 15:0.28 16:0.32272992 #
-2 1:0 2:0 3:0 4:0.00023654442 5:0.12897712 6:0.50874406 7:0.46422893 8:0.74838203 9:0.75135458 10:0.41735205 11:0.031642254 13:0.25301206 14:0.32436544 15:0.27018633 16:0.34368834 #
-2 1:0 2:0 3:0 4:0.00023140114 5:0.11501969 6:0.41549295 7:0.35915494 8:0.64382905 9:0.6467995 10:0.28691211 11:0.0095589887 12:0.050632913 13:0.27272728 14:0.35794473 15:0.29444444 16:0.3766546 #
2 5:0.5552448 6:0.23041475 7:0.12995392 8:0.94218403 9:0.94163764 10:0.78787303 11:0.20906138 13:0.60869563 14:0.64171171 15:0.6416862 16:0.66717243 #
-2 1:0 2:0 3:0 4:0.00021032864 5:0.15698449 6:0.45688689 7:0.38521835 8:0.71675563 9:0.71669573 10:0.35104507 11:0.0015752349 13:0.20725389 14:0.24874493 15:0.23287672 16:0.27486652 #
2 1:0 2:0 3:0 4:4.8253234e-05 5:0 6:1.6370559 7:1.6091371 8:0.11465106 9:0.11352421 10:0.0053381259 11:0 13:0.023584906 14:0.018818282 15:0.028708134 16:0.024123052 #
2 1:0 2:0 3:0 4:3.0955918e-05 5:0.094222359 6:0.029620852 7:0.027251184 8:0.62748986 9:0.6028955 10:0.033858951 11:0 13:0.1005291 14:0.12373765 15:0.12568305 16:0.15684958 #
-2 1:0 2:0 3:0 4:0.00012980271 5:0.13428317 6:0.43023255 7:0.34302327 8:0.63294882 9:0.63890344 10:0.50765896 11:0.033875201 13:0.39130434 14:0.45060006 15:0.42372882 16:0.4747501 #
2 1:0 2:0 3:0 4:6.1561193e-05 5:0.12692949 6:0.97012097 7:0.96869814 8:0.64707786 9:0.63893121 10:0.032508429 11:0.001374084 13:0.030088495 14:0.10488134 15:0.035860654 16:0.11680172 #
-2 1:0 2:0 3:0 4:0 5:0.10416735 6:0.39789474 7:0.33052632 8:0.66693747 9:0.66730475 10:0.27636588 11:0.0086614816 13:0.28991598 14:0.32819763 15:0.32608697 16:0.35690016 #
-2 1:0 2:0 3:0 4:0.00010303436 5:0.10025372 6:0.42345276 7:0.3436482 8:0.72430021 9:0.72289062 10:0.2862559 11:0.0045701424 12:0.035714287 13:0.2754491 14:0.32730454 15:0.2962963 16:0.3501505 #
2 5:0.6035257 6:0.036503363 7:0.0028818443 8:0.95268428 9:0.95517516 10:0.97212589 11:0.40867561 13:0.76658475 14:0.74966252 15:0.80266666 16:0.77912891 #
2 1:0 2:0 3:0 4:0 5:0.017209474 6:0.30523917 7:0.41002277 8:0.4154658 9:0.40356582 10:0.052855562 11:0 13:0.19642857 14:0.13868974 15:0.22818792 16:0.15474381 #
-2 1:0 2:0 3:0 4:2.4174735e-05 5:0.10081339 6:0.22 7:0.12 8:0.63663322 9:0.63569099 10:0.29896566 11:0.024906775 12:0.04040404 13:0.28421053 14:0.27840969 15:0.28723404 16:0.28131106 #
2 1:0 2:0 3:0 4:0.00030481245 5:0.082426384 6:0.92068273 7:0.90813255 8:0.58300984 9:0.57771641 10:0.031386953 11:0 13:0.05882353 14:0.12472624 15:0.073469386 16:0.14908399 #
2 5:0.43100539 6:0.058659218 7:0.012569833 8:0.89945525 9:0.90853149 10:0.77283478 11:0.19638704 13:0.60778445 14:0.62132627 15:0.70476192 16:0.70032942 #
2 1:0 2:0 3:0 4:7.6080338e-05 5:0.054928333 6:0.93620813 7:0.9258731 8:0.60645497 9:0.59367186 10:0.028391698 11:0 13:0.053349875 14:0.1337959 15:0.072992697 16:0.1638156 #
2 5:0.41651529 6:0.12612613 7:0.021621622 8:0.91387165 9:0.91628152 10:0.76681417 11:0.17421934 13:0.59285712 14:0.60553634 15:0.67424244 16:0.6594221 #
2 1:0 2:0 5:0.0024407019 6:0.3120729 7:0.38952163 8:0.68711388 9:0.68247133 10:0.010697001 11:0 13:0.078703701 14:0.11698567 15:0.093457945 16:0.12693872 #
2 5:0.36018488 6:0.14021164 7:0.082010582 8:0.86475378 9:0.8704474 10:0.69154024 11:0.14473727 13:0.57692307 14:0.60322148 15:0.61363637 16:0.63184911 #
2 1:0 2:0 3:0 4:0.00035193565 5:0.10509273 6:0.20675105 7:0.37834036 8:0.75499254 9:0.74701965 10:0.063730478 11:0 12:0.036036037 13:0.18205805 14:0.1743907 15:0.19337016 16:0.18702009 #
2 1:0 2:0 3:0 4:0.00024801589 5:0.026736796 6:0.67042255 7:0.83943659 8:0.71728724 9:0.69794792 10:0.03188834 11:0 13:0.12663755 14:0.13715942 15:0.14155251 16:0.15157339 #
2 5:0.27595186 6:0.16826923 7:0.1201923 8:0.76858562 9:0.78632265 10:0.65730834 11:0.11785522 13:0.5703125 14:0.5890162 15:0.59166664 16:0.60971731 #
2 5:0.52111113 6:0.062557496 7:0.042318307 8:0.92390627 9:0.91979361 10:0.92208165 11:0.34194249 13:0.77984083 14:0.76344466 15:0.81976742 16:0.79583579 #
2 1:0 2:0 3:0 4:0 5:0.12406265 6:0.60065842 7:0.60850847 8:0.71728987 9:0.692954 10:0.063362077 11:0.0035558187 13:0.076205291 14:0.16366874 15:0.098230086 16:0.19160442 #
2 1:0 2:0 3:0 4:0.00021164022 5:0.085214451 6:0.49322492 7:0.51400179 8:0.66583884 9:0.64629316 10:0.039058879 11:0 13:0.081871346 14:0.12047562 15:0.10251046 16:0.14842762 #
2 1:0 2:0 3:0 4:0.00016626762 5:0 6:0.095022626 7:0.022624435 8:0.61702138 9:0.60657191 10:0.030672126 11:0 13:0.093525179 14:0.10282224 15:0.094890513 16:0.10638241 #
2 1:0 2:0 3:0 4:0 5:0.011385389 6:1.1944444 7:1.2777778 8:0.56397611 9:0.5558725 10:0.11380227 11:0 13:0.18435754 14:0.15838815 15:0.22839506 16:0.19423175 #
2 5:0.2659725 6:0.11 7:0.039999999 8:0.72575456 9:0.7377333 10:0.70209169 11:0.16283473 13:0.58536583 14:0.62104976 15:0.5925926 16:0.62421948 #
-2 1:4.4923629e-05 2:0 3:0 4:0.00032453093 5:0.42007542 6:0.18938053 7:0.077876106 8:0.84767526 9:0.84221196 10:0.40142193 11:0.13954093 12:0.064516127 13:0.26877472 14:0.26877391 15:0.30125523 16:0.2910808 #
-2 1:0 2:0 3:0 4:0 5:0.22184397 6:0.39285713 7:0.51428574 8:0.71847022 9:0.71621174 10:0.36336553 11:0.047943145 13:0.47333333 14:0.37206444 15:0.47945204 16:0.37631145 #
2 1:0 2:0 3:0 4:4.5357232e-05 5:0.077939652 6:0.73401165 7:0.72093022 8:0.64008784 9:0.63893163 10:0.026023474 11:0 13:0.053254437 14:0.096005805 15:0.059190031 16:0.10500283 #
2 1:0 2:0 3:0 4:0 5:0.0096649565 6:0.46666667 7:0.42399999 8:0.6353209 9:0.62536234 10:0.049182251 11:0 13:0.070539422 14:0.1136584 15:0.086956523 16:0.12631439 #
2 1:0 2:0 3:0 4:8.0128208e-05 5:0.034610849 6:0.97486317 7:0.97349519 8:0.65970564 9:0.64873004 10:0.026701454 11:0.0010371391 12:0.053333335 13:0.028548123 14:0.097990476 15:0.039039038 16:0.11764827 #
-2 1:6.4935489e-06 2:0 3:0 4:0.00014467593 5:0.14016496 6:0.75259256 7:0.74222225 8:0.71709794 9:0.71065336 10:0.18981077 11:0.047210444 12:0.057142857 13:0.13028169 14:0.2272286 15:0.15413533 16:0.25138712 #
2 5:0.45227036 6:0.14049587 7:0.052341599 8:0.9345417 9:0.93526 10:0.83398223 11:0.23421602 13:0.62068963 14:0.64856911 15:0.63492066 16:0.65241486 #
-2 1:0 2:0 3:0 4:0.00018565965 5:0.12968566 6:0.38933763 7:0.37641358 8:0.72853839 9:0.73088431 10:0.39025778 11:0.015766846 13:0.27083334 14:0.30987534 15:0.28308824 16:0.31767234 #
-2 1:0 2:0 3:0 4:2.5407278e-05 5:0.063591547 6:0.22314049 7:0.31955922 8:0.60567188 9:0.60777944 10:0.31245571 11:0 12:0.05882353 13:0.34210527 14:0.28956282 15:0.35754189 16:0.29496846 #
2 5:0.47003216 6:0.14260249 7:0.051693406 8:0.9363966 9:0.93794781 10:0.79508364 11:0.19869459 13:0.62897527 14:0.64776015 15:0.66287881 16:0.67315662 #
-2 1:0 2:0 3:0 4:0 5:0.20158896 6:0.36764705 7:0.29411766 8:0.77554852 9:0.7760908 10:0.37990636 11:0.017670171 13:0.2735849 14:0.31706852 15:0.30463576 16:0.34388259 #
-2 1:0 2:0 3:0 4:4.8225309e-05 5:0.16059312 6:0.34057972 7:0.29710144 8:0.63811988 9:0.64271617 10:0.39683759 11:0.033592176 13:0.37142858 14:0.41233495 15:0.40350878 16:0.44917077 #
2 5:0.50641048 6:0.13829787 7:0.060790274 8:0.93729848 9:0.9425593 10:0.84090495 11:0.24959335 13:0.62135923 14:0.63670862 15:0.65423727 16:0.66329288 #
-2 1:0 2:0 3:0 4:7.498177e-05 5:0.18128704 6:0.16483517 7:0.091575094 8:0.6706813 9:0.67092627 10:0.36644077 11:0.029793978 13:0.37341774 14:0.37384811 15:0.39473686 16:0.38840038 #
2 5:0.36226022 6:0.082851641 7:0.01734104 8:0.86318278 9:0.86886066 10:0.66930419 11:0.15073888 13:0.57768923 14:0.56604457 15:0.61016947 16:0.60632789 #
-2 1:0 2:0 3:0 4:0.00012985326 5:0.12970825 6:0.68917018 7:0.65682137 8:0.75593251 9:0.75506473 10:0.20875333 11:0.018273959 12:0.036036037 13:0.16886544 14:0.27071926 15:0.1878453 16:0.28894082 #
-2 1:0 2:0 3:0 4:0 5:0.153393 6:0.22891566 7:0.32931727 8:0.66607428 9:0.6645813 10:0.28999627 11:0.015841614 13:0.40666667 14:0.36042982 15:0.41496599 16:0.36215335 #
2 5:0.5181585 6:0.15138593 7:0.049040511 8:0.92272776 9:0.93188059 10:0.88797647 11:0.27328947 13:0.68444443 14:0.67549706 15:0.71090049 16:0.70425642 #
-2 1:0 2:0 3:0 4:0 5:0.12784602 6:0.89883476 7:0.88400424 8:0.75452775 9:0.74858558 10:0.1812799 11:0.0056085349 12:0.055555556 13:0.10222222 14:0.23086348 15:0.13014828 16:0.27597255 #
-2 1:0 2:0 3:0 4:0.00017021093 5:0.18651772 6:0.15920398 7:0.0099502485 8:0.71841335 9:0.72323084 10:0.47977087 11:0.053348701 13:0.3898305 14:0.39662799 15:0.41379312 16:0.41379312 #
-2 1:0 2:0 3:0 4:0.00013662844 5:0.22736415 6:0.37254903 7:0.32107842 8:0.66109556 9:0.67239219 10:0.53380698 11:0.070866421 13:0.41573033 14:0.45971173 15:0.45086706 16:0.48582339 #
2 5:0.041031949 6:0.29365081 7:0.45238096 8:0.66613698 9:0.649131 10:0.011338244 11:0.0019690534 13:0.12077295 14:0.11934024 15:0.13333334 16:0.13231938 #
2 5:0.61088425 6:0.02359882 7:0.00073746312 8:0.95618314 9:0.95477146 10:0.95752931 11:0.36030701 13:0.80794704 14:0.77714628 15:0.83333331 16:0.79883552 #
-2 1:0 2:0 3:0 4:0.00016315297 5:0.28459921 6:0.068690099 7:0.0047923322 8:0.77379465 9:0.77107728 10:0.41373345 11:0.025843253 13:0.35880399 14:0.37122327 15:0.39655173 16:0.38923833 #
-2 1:0.001311571 2:0.012820513 3:0.06666667 4:0.0051703164 5:0.38836959 6:0.37971014 7:0.33043477 8:0.76167297 9:0.76590544 10:0.40870818 11:0.18553226 13:0.34523809 14:0.40148622 15:0.35220125 16:0.40290377 #
-2 1:0 2:0 3:0 4:0.00017119937 5:0.13816991 6:0.17083947 7:0.18998528 8:0.66200405 9:0.66218144 10:0.27225828 11:0.016283184 12:0.05882353 13:0.27795526 14:0.28855675 15:0.30434781 16:0.30537084 #
-2 1:0 2:0 3:0 4:6.0543684e-05 5:0.086097777 6:0.38524589 7:0.50409836 8:0.66341108 9:0.67749459 10:0.14787717 11:0 12:0.048192769 13:0.21472393 14:0.21501723 15:0.26875001 16:0.24533406 #
2 5:0.085152663 6:0.10906515 7:0.090651557 8:0.72476113 9:0.70670742 10:0.041271515 11:0.0013494773 13:0.11246201 14:0.13557531 15:0.14696486 16:0.17411381 #
1.0987463061258040397660806775093 1:0 2:0 3:0 4:0.00054112554 5:0.068154953 6:4.5875707 7:5.3333335 8:0.64361775 9:0.64321113 10:0.022451442 11:0 12:0.043478262 13:0.23728813 14:0.12686379 15:0.26495728 16:0.13853097 #
2 5:0.46474409 6:0.1871345 7:0.011695907 8:0.88208491 9:0.89102113 10:0.82303655 11:0.21090387 13:0.62280703 14:0.65220177 15:0.66666669 16:0.66986412 #
2 5:0.33807045 6:0.15831135 7:0.10026385 8:0.85474277 9:0.85987163 10:0.67446071 11:0.15368256 13:0.56603771 14:0.5762493 15:0.64321607 16:0.64647287 #
-2 5:0.047613539 6:0.50847459 7:0.66101694 8:0.56741071 9:0.57477343 10:0.32505319 11:0.0075592897 13:0.41860464 14:0.33917016 15:0.42352942 16:0.34246907 #
-2 1:0 2:0 3:0 4:0.00013061793 5:0.21879056 6:0.28455284 7:0.18157181 8:0.72092187 9:0.72226423 10:0.39281997 11:0.026336031 13:0.36453202 14:0.40240377 15:0.40721649 16:0.43247598 #
2 1:0 2:0 3:0 4:0.00016130821 5:0.11133893 6:0.31065759 7:0.42857143 8:0.64977545 9:0.63426143 10:0.041890632 11:0 13:0.15137614 14:0.12705243 15:0.16831683 16:0.13457355 #
-2 1:0 2:0 3:0 4:0 5:0.12023015 6:0.79955292 7:0.7585693 8:0.73951024 9:0.73329508 10:0.211761 11:0.0032636591 12:0.061538462 13:0.14656772 14:0.24883525 15:0.168 16:0.27845728 #
-2 1:0 2:0 3:0 4:0.00011035841 5:0.19112419 6:0.18556701 7:0.14639175 8:0.70932382 9:0.70453525 10:0.31970221 11:0.038070451 13:0.31983805 14:0.3285982 15:0.34583333 16:0.35250598 #
-2 1:0 2:0 3:0 4:0.0001958608 5:0.11178689 6:0.67666668 7:0.70666665 8:0.7078625 9:0.70427269 10:0.23307154 11:0.0030640701 12:0.060606062 13:0.30769232 14:0.24979588 15:0.32203391 16:0.25378489 #
2 1:0 5:0.15425131 6:0.71171612 7:0.68254739 8:0.66004384 9:0.64778459 10:0.069247268 11:0 13:0.066401064 14:0.1287813 15:0.079825833 16:0.15161298 #
-2 5:0.11613854 6:0.84072024 7:0.8261773 8:0.72974372 9:0.72660315 10:0.22279021 11:0.0090555046 12:0.03539823 13:0.11151079 14:0.22048265 15:0.12934363 16:0.24363153 #
-2 1:0 2:0 3:0 4:6.854401e-05 5:0.13427503 6:0.38152012 7:0.28464979 8:0.79672474 9:0.79205602 10:0.25625244 11:0.0115216 12:0.028571429 13:0.22186495 14:0.25687683 15:0.2551724 16:0.28969532 #
-2 1:0.017219387 2:0 3:0.15789473 4:0.0014213775 5:0.70424211 6:0.57155198 7:0.55542761 8:0.79918891 9:0.80668861 10:0.94330245 11:0.54119885 12:0.33898306 13:0.39702761 14:0.46843845 15:0.43414634 16:0.49530509 #
-2 1:0 2:0 3:0 4:0.00016576679 5:0.33177033 6:0.40686274 7:0.42647058 8:0.74933177 9:0.7586984 10:0.58443266 11:0.12397588 13:0.33858266 14:0.49391457 15:0.37007874 16:0.52966362 #
2 1:0 2:0 3:0 4:0.00030332056 5:0.011801985 6:0.61381072 7:0.65728903 8:0.64268523 9:0.63599145 10:0.018360648 11:0 13:0.070422538 14:0.12062384 15:0.075987846 16:0.12797144 #
2 1:0 2:0 3:0 4:3.4073873e-05 5:0.053734116 6:0.92302632 7:0.91315788 8:0.63594383 9:0.63039607 10:0.037224747 11:0 12:0.056338027 13:0.064575642 14:0.15943538 15:0.076458752 16:0.17218383 #
-2 1:0 2:0 3:0 4:0.0001115845 5:0.25528345 6:0.037383176 7:0.12616822 8:0.70969009 9:0.7108472 10:0.26973432 11:0.02326645 13:0.29583332 14:0.28881067 15:0.36681223 16:0.34425074 #
-2 1:0 2:0 3:0 4:0.00014985418 5:0.12169109 6:0.46808511 7:0.68085104 8:0.52426869 9:0.53033811 10:0.45817152 11:0.054173633 13:0.46808511 14:0.40338066 15:0.47872341 16:0.4102453 #
2 1:0 2:0 3:0 4:7.6080338e-05 5:0.041944347 6:0.95759088 7:0.95367068 8:0.6433683 9:0.62918347 10:0.023824498 11:0.0016330258 13:0.031017371 14:0.098124385 15:0.03941606 16:0.11189457 #
-2 1:0.02020202 2:0 3:0.26989618 4:0.0033400615 5:0.61571038 6:0.076617651 7:0.092058823 8:0.70814198 9:0.71623516 10:0.76122081 11:0.29047787 12:0.32786885 13:0.68976897 14:0.66050345 15:0.72739363 16:0.69278926 #
-2 1:0.027459955 2:0 3:0.25757575 4:0.0047874581 5:0.60087758 6:0.090361446 7:0.19277108 8:0.83430201 9:0.83600461 10:0.85200262 11:0.48002383 12:0.33898306 13:0.61206895 14:0.61092681 15:0.64545453 16:0.62854016 #
-2 1:0.00031172071 2:0.0028327596 3:0.042424243 4:0.0014732966 5:0.098395437 6:0.31070891 7:0.27450982 8:0.46390718 9:0.46108469 10:0.20782013 11:0.025896432 13:0.16369048 14:0.18644175 15:0.17791411 16:0.2043952 #
-2 1:2.4529043e-05 2:0 3:0 4:7.4178475e-05 5:0.1149017 6:0.68947369 7:0.93684208 8:0.69066256 9:0.68318743 10:0.20968682 11:0.030046793 13:0.3140496 14:0.24550386 15:0.31355932 16:0.24645863 #
-2 1:0 2:0 3:0 4:0 5:0.092693612 6:0.3943662 7:0.5 8:0.67672884 9:0.67091447 10:0.20092091 11:0.007187923 12:0.060606062 13:0.22171946 14:0.18674247 15:0.26066351 16:0.20326225 #
2 5:0.38122186 6:0.21621622 7:0.12612613 8:0.83434552 9:0.84395093 10:0.72887385 11:0.17634669 13:0.57894737 14:0.62126076 15:0.56944442 16:0.60876173 #
2 5:0.4925487 6:0.13760218 7:0.061307903 8:0.89297473 9:0.89785492 10:0.78206974 11:0.19909243 13:0.65467626 14:0.65249866 15:0.68965518 16:0.68443042 #
2 5:0.48791355 6:0.14536741 7:0.038338657 8:0.91447937 9:0.91339862 10:0.81391847 11:0.23538999 13:0.63354039 14:0.65131211 15:0.66557378 16:0.67109728 #
-2 1:0.019138755 2:0 3:0.17901234 4:0.0030864198 5:0.54776394 6:1.0362538 7:0.88519639 8:0.758865 9:0.74919921 10:0.77878684 11:0.24341218 12:0.32786885 13:0.73148149 14:0.51486981 15:0.78723407 16:0.54940063 #
2 1:0.0027774423 2:0.11111111 3:0.032258064 4:0.0043309596 5:0.25545892 6:0.30478591 7:0.20906802 8:0.8131122 9:0.80673683 10:0.53823489 11:0.027465077 12:0.85000002 13:0.27093595 14:0.29305318 15:0.296875 16:0.31185278 #
2 1:0 2:0 3:0 4:0.00013419216 5:0.067802452 6:0.3965798 7:0.45846906 8:0.72129416 9:0.69041181 10:0.075184658 11:0.0015905402 13:0.15306123 14:0.17088151 15:0.18930958 16:0.20364788 #
-2 1:0 2:0 3:0 4:0 5:0.091923885 6:0.625323 7:0.59948319 8:0.60690939 9:0.60136425 10:0.20163821 11:0.0047065206 12:0.045977011 13:0.12365592 14:0.16457987 15:0.12568305 16:0.1667192 #
-2 1:0 2:0 3:0 4:8.8090201e-05 5:0.19514741 6:0.20899472 7:0.11640212 8:0.74944586 9:0.7536689 10:0.41056117 11:0.05410751 13:0.32743362 14:0.3741104 15:0.36486486 16:0.39968944 #
2 1:7.7698869e-06 2:0 3:0 4:0.00013616557 5:0.029216198 6:0.083832338 7:0.21556886 8:0.44556913 9:0.44365576 10:0.017602017 11:0 12:0.03960396 13:0.11111111 14:0.10493337 15:0.1368421 16:0.12834226 #
2 1:0 2:0 3:0 4:6.9910515e-05 5:0.071897678 6:0.085714288 7:0.15238096 8:0.69538128 9:0.67952216 10:0.031376313 11:0 13:0.12403101 14:0.13948421 15:0.13654618 16:0.15927723 #
2 5:0.29001895 6:0.072625697 7:0.011173184 8:0.83049762 9:0.82939231 10:0.67353618 11:0.17308047 13:0.58928573 14:0.55709672 15:0.60714287 16:0.57935846 #
2 1:0 2:0 3:0 4:7.5647542e-05 5:0.054443553 6:0.76488096 7:0.94345236 8:0.67058462 9:0.6574471 10:0.01725572 11:0 13:0.12637363 14:0.12301385 15:0.13483146 16:0.1301621 #
2 1:0 2:0 3:0 4:0 5:0.042933878 6:0.17886178 7:0.42682928 8:0.5596171 9:0.55952179 10:0.042366624 11:0 13:0.17647059 14:0.15914744 15:0.18791947 16:0.16426596 #
2 1:0 2:0 3:0 4:0 5:0.12452661 6:0.62403101 7:0.91085273 8:0.49138024 9:0.48751727 10:0.029205794 11:0 13:0.16 14:0.11694107 15:0.18181819 16:0.13576885 #
2 1:0 2:0 3:0 4:0 5:0.02077435 6:0.38315219 7:0.37771741 8:0.4463523 9:0.43830469 10:0.016727133 11:0 13:0.071111113 14:0.10881351 15:0.086124405 16:0.12268198 #
2 1:0.0027173914 2:0.11111111 3:0.032258064 4:0.0043309596 5:0.38738537 6:0.32827586 7:0.19586207 8:0.88545763 9:0.88611674 10:0.61104536 11:0.080527008 12:0.83333331 13:0.30000001 14:0.33912042 15:0.31874999 16:0.35093221 #
2 1:0 2:0 3:0 4:1.2531328e-05 5:0.12393662 6:0.94565415 7:0.93687099 8:0.52333272 9:0.51800197 10:0.072675273 11:0.0012757821 13:0.050991502 14:0.126059 15:0.06984479 16:0.15591863 #
-2 1:0 2:0.00034578147 3:0 4:5.1835679e-05 5:0.13437314 6:0.53835022 7:0.46599132 8:0.77269834 9:0.77029449 10:0.25644243 11:0.0065707052 12:0.051948052 13:0.18302387 14:0.25918278 15:0.21008404 16:0.28949979 #
-2 1:0 2:0 3:0 4:0 5:0.23089443 6:0.062052507 7:0.16945107 8:0.79215062 9:0.7931354 10:0.41504252 11:0.0097406674 13:0.45161289 14:0.42810449 15:0.47368422 16:0.43750095 #
-2 1:0 2:0 3:0 4:0.00013101514 5:0.22351864 6:0.4419643 7:0.6026786 8:0.72073936 9:0.7368626 10:0.49670595 11:0.058160674 13:0.51200002 14:0.42085958 15:0.53719008 16:0.43211553 #
-2 1:3.5265904e-05 2:0 3:0 4:0.00012368584 5:0.070770696 6:0.35593221 7:0.53107345 8:0.57494724 9:0.59522313 10:0.31899142 11:0 12:0.053333335 13:0.35714287 14:0.33410764 15:0.37704918 16:0.33669153 #
2 5:0.48359025 6:0.083850935 7:0.055900622 8:0.9492895 9:0.95482814 10:0.80935729 11:0.25752744 13:0.64670658 14:0.66681403 15:0.68354428 16:0.69236457 #
2 1:0 3:0 4:0.0010526315 5:0.025244053 6:2.2408164 7:2.6510205 8:0.66074789 9:0.65465957 10:0.044647254 11:0 12:0.036363635 13:0.23247233 14:0.1493632 15:0.25 16:0.16541821 #
-2 1:2.2614202e-05 2:0 3:0 4:0.00023474179 5:0.13661586 6:0.73427814 7:0.7085917 8:0.70631897 9:0.70780998 10:0.25466645 11:0.0053401412 12:0.055555556 13:0.16221374 14:0.27381003 15:0.17330678 16:0.28096402 #
-2 1:0 2:0 3:0 4:2.8228653e-05 5:0.15500547 6:0.050802138 7:0.10695187 8:0.74197489 9:0.74634922 10:0.35267937 11:0.01968281 13:0.37640449 14:0.33734128 15:0.40828404 16:0.35866061 #
-2 1:0 2:0 3:0 4:0.00013445361 5:0.099189952 6:0.28605202 7:0.21513002 8:0.6789133 9:0.67366421 10:0.35699058 11:0.014427386 13:0.33628318 14:0.37475753 15:0.36320755 16:0.38986468 #
2 1:0 2:0 3:0 4:0.00059523812 5:0.022678377 6:0.77464789 7:0.88732392 8:0.69942218 9:0.68049681 10:0.040117033 11:0 13:0.14410481 14:0.13602841 15:0.14611872 16:0.14166088 #
-2 3:0 4:5.4653767e-05 5:0.13616569 6:0.06530612 7:0.26938775 8:0.57374549 9:0.57169235 10:0.28623208 11:0.015720036 13:0.3537415 14:0.32838905 15:0.36805555 16:0.33676767 #
-2 1:0 2:0.00065616798 3:0 4:0.00015470297 5:0.10974896 6:0.59446448 7:0.52948254 8:0.75651717 9:0.75192064 10:0.24151824 11:0.0019837755 12:0.068965517 13:0.15201901 14:0.22906277 15:0.17661692 16:0.24553514 #
-2 1:0 2:0 3:0 4:3.1565658e-05 5:0.098598592 6:0.48589343 7:0.46708465 8:0.66829985 9:0.67632747 10:0.28026631 11:0.019510571 13:0.22905028 14:0.30049735 15:0.24137931 16:0.31682101 #
2 5:0.52383721 6:0.17757009 7:0.084112152 8:0.85331291 9:0.8800624 10:0.89710593 11:0.29967529 13:0.65822786 14:0.72014147 15:0.68493152 16:0.75549734 #
2 5:0.47522563 6:0.11787819 7:0.029469548 8:0.92612636 9:0.93143046 10:0.79941201 11:0.23421943 13:0.67647058 14:0.67216605 15:0.7098214 16:0.6915397 #
-2 1:0 3:0 4:0.00031806616 5:0.21241409 6:0.32190943 7:0.24479803 8:0.84568304 9:0.83381623 10:0.31478885 11:0.010154915 12:0.07692308 13:0.27596438 14:0.306786 15:0.33546326 16:0.36736423 #
2 5:0.34034851 6:0.21100917 7:0.1559633 8:0.75531834 9:0.78343469 10:0.70653749 11:0.22703831 13:0.53846157 14:0.56438154 15:0.58666664 16:0.60725766 #
-1.6839462584854629767505684867501 1:0.081632651 2:0 3:0.3125 4:0.015190972 5:0.73829234 6:0.094861656 7:0.15513834 8:0.74150437 9:0.76050633 10:0.98177165 11:0.4706144 12:0.32258064 13:0.68316829 14:0.69777071 15:0.73897058 16:0.74585772 #
2 1:0 2:0 3:0 4:0.00077972712 5:0.026666667 6:0.78181821 7:0.77685952 8:0.64346641 9:0.63658732 10:0.020194197 11:0.00421682 13:0.053511705 14:0.098082013 15:0.057761732 16:0.1030672 #
-2 1:0 2:0 3:0 4:5.6511544e-05 5:0.084369577 6:2.9268293 7:3.5 8:0.65539581 9:0.65370303 10:0.32986724 11:0 12:0.012658228 13:0.43103448 14:0.24492361 15:0.46551725 16:0.26207417 #
-2 5:0.060287099 6:2.0965517 7:2.524138 8:0.65553302 9:0.65562636 10:0.39187992 11:0.017413208 12:0.05479452 13:0.41999999 14:0.27135527 15:0.4742268 16:0.29421967 #
-2 1:0 2:0 3:0 4:0.00045454546 5:0.13054413 6:2.0068028 7:2.3605442 8:0.60665351 9:0.61064661 10:0.37540492 11:0 12:0.053333335 13:0.42268041 14:0.27794462 15:0.44791666 16:0.2932303 #
2 5:0.33105704 6:0.1262136 7:0.038834952 8:0.90762156 9:0.90618771 10:0.57781273 11:0.1352274 13:0.52715653 14:0.53441709 15:0.58781362 16:0.57755429 #
2 5:0.32865298 6:0.022727273 7:0.054545455 8:0.84217966 9:0.85487109 10:0.62410504 11:0.18681601 13:0.5714286 14:0.5744254 15:0.6397059 16:0.61953491 #
2 1:0 2:0 3:0 4:0.00012993763 5:0.033967298 6:0.90822262 7:0.89908636 8:0.49366385 9:0.48954248 10:0.057517003 11:0 13:0.094614267 14:0.20054308 15:0.11467116 16:0.2207606 #
-2 1:0.00028214051 2:0.0024293957 3:0.059999999 4:0.004243827 5:0.49521819 6:0.74716049 7:0.7106173 8:0.76534414 9:0.76733255 10:0.580235 11:0.35024747 13:0.19604316 14:0.28560776 15:0.23320158 16:0.31575644 #
0.045007957937144738025381229817867 5:0.62787026 6:0.0080889789 7:0.003033367 8:0.95404696 9:0.95494092 10:0.9759571 11:0.39687017 13:0.82633054 14:0.81053805 15:0.85542166 16:0.83194715 #
-2 1:0 2:0 3:0 4:0.00016483202 5:0.10464333 6:0.722372 7:0.6981132 8:0.58967096 9:0.58171874 10:0.28053817 11:0.011894652 13:0.17258883 14:0.26979008 15:0.18617021 16:0.28018835 #
-2 1:0 2:0 3:0 4:0 5:0.22370535 6:0.21910828 7:0.10828026 8:0.75224376 9:0.75559533 10:0.38279086 11:0.014938423 13:0.34666666 14:0.36654225 15:0.36363637 16:0.37728086 #
-2 1:0 2:0 3:0 4:0.00033313737 5:0.18834649 6:0.3991228 7:0.3640351 8:0.72289759 9:0.72076917 10:0.36951309 11:0.016058648 12:0.057971016 13:0.31553397 14:0.37947375 15:0.33589745 16:0.39155975 #
2 5:0.41047943 6:0.1295972 7:0.012259195 8:0.87817454 9:0.87733614 10:0.64681566 11:0.1456238 13:0.56837606 14:0.56390542 15:0.5925926 16:0.57678729 #
-2 1:0 2:0 3:0 4:0.0007513148 5:0.32135111 6:0.60217983 7:0.56267029 8:0.72359216 9:0.71606159 10:0.50110853 11:0.14729182 12:0.093023255 13:0.26558891 14:0.3207384 15:0.30729166 16:0.35000202 #
-2 1:0 2:0 3:0 4:0.00014422523 5:0.29673722 6:0.64852607 7:0.61678004 8:0.70603919 9:0.70269066 10:0.4027622 11:0.12722948 12:0.063492067 13:0.17889908 14:0.26547202 15:0.2029703 16:0.28992829 #
-2 1:0 2:0 3:0 4:2.7655376e-05 5:0.1871962 6:0.51223022 7:0.48776978 8:0.73036069 9:0.72784978 10:0.29444417 11:0.018627333 13:0.24561404 14:0.31879991 15:0.26524389 16:0.34138918 #
2 5:0.53301203 6:0.1125 7:0.075000003 8:0.9312185 9:0.93160886 10:0.77921623 11:0.22396094 13:0.64848483 14:0.68996602 15:0.68354428 16:0.70625961 #
