SVM-light Version V6.02
0 # kernel type
3 # kernel parameter -d 
1 # kernel parameter -g 
1 # kernel parameter -s 
1 # kernel parameter -r 
empty# kernel parameter -u 
16 # highest feature index 
1478 # number of training documents 
335 # number of support vectors plus 1 
-0.48968051 # threshold b, each following line is a SV (starting with alpha*y)
1.7769602745663632958894595503807 1:0 3:0 4:0.00018303844 5:0.10987823 6:0.014379085 7:0.074509807 8:0.55470407 9:0.54561687 10:0.035898026 11:0.011467434 13:0.11621621 14:0.13725427 15:0.14159292 16:0.16262032 #
2 1:0.0077864295 2:0.050000001 3:0.06666667 4:0.0066609979 5:0.35988167 6:0.038610037 7:0.057915058 8:0.8494556 9:0.85503083 10:0.67478597 11:0.21462083 12:0.84210527 13:0.60588235 14:0.59378076 15:0.63975155 16:0.62442595 #
-2 5:0.87451112 6:0.17144808 7:0.091871582 8:0.95947129 9:0.96038783 10:0.93659168 11:0.66721231 12:0.045454547 13:0.71529001 14:0.71652281 15:0.77335984 16:0.76208031 #
2 1:0 3:0 4:9.5026924e-05 5:0.099352039 6:0.9662447 7:0.95464134 8:0.29630134 9:0.29291055 10:0.022181433 11:0 13:0.033726811 14:0.078009263 15:0.044444446 16:0.095076539 #
2 1:0.0065678363 2:0.040123455 3:0.08024691 4:0.0053560175 5:0.016007539 6:0.17258883 7:0.10406091 8:0.15244479 9:0.15023971 10:0.025117839 11:0.0058997818 12:0.84615386 13:0.084905662 14:0.092989899 15:0.095693782 16:0.10143793 #
2 1:0 3:0 4:0.00014278915 5:0.11732717 6:0.86031264 7:0.82602119 8:0.60877705 9:0.5954898 10:0.039970633 11:0 13:0.075723834 14:0.11755163 15:0.092269324 16:0.13334568 #
-2 1:0.00013523536 2:0.0043090181 3:0.087499999 4:0.0033884521 5:0.26415163 6:0.64228934 7:0.93163753 8:0.72353423 9:0.71662074 10:0.42178488 11:0.030686114 13:0.3026087 14:0.22634523 15:0.35823753 16:0.25416571 #
-2 5:0.64361387 6:0.013379205 7:0.01529052 8:0.79330653 9:0.79445684 10:0.7787416 11:0.34352022 13:0.65778959 14:0.64182305 15:0.7101025 16:0.68545574 #
-2 1:0.032051284 3:0.12244898 4:0.013223141 5:0.15823025 6:0.22191012 7:0.030898876 8:0.778808 9:0.77992839 10:0.51991588 11:0.046496708 12:0.9464286 13:0.36057693 14:0.37857154 15:0.38613862 16:0.39606667 #
-2 1:0.045351475 3:0.12244898 4:0.013223141 5:0.42364794 6:0.19784525 7:0.02546523 8:0.92666531 9:0.92942774 10:0.71337199 11:0.11037094 12:0.9464286 13:0.55507559 14:0.54256338 15:0.60046726 16:0.57857651 #
-2 1:0.00056776201 2:0.0050652474 3:0.020833334 4:0.0012365108 #
-2 1:0.00078070286 2:0.007053806 3:0.050000001 4:0.0052069426 5:0.32787424 6:0.88044447 7:0.87777776 8:0.51420313 9:0.52046967 10:0.40820831 11:0.06192112 13:0.10144927 14:0.23178999 15:0.11504425 16:0.249631 #
-2 1:0.037267081 3:0.12244898 4:0.013223141 5:0.21150093 6:0.32653061 7:0.16472304 8:0.87872094 9:0.88254988 10:0.6004113 11:0.055298544 12:0.9464286 13:0.40826872 14:0.45737463 15:0.47091413 16:0.50492918 #
-2 3:0 4:0.0034722222 5:0.6407848 6:0.14718251 7:0.078637511 8:0.88475519 9:0.88812727 10:0.83342403 11:0.44963163 13:0.72967863 14:0.72796339 15:0.78270513 16:0.77000487 #
2 1:0.0073578595 2:0.03167421 3:0.070588239 4:0.0058346521 5:0.44956958 6:0.095238097 7:0.0059523811 8:0.85378015 9:0.85971361 10:0.73200172 11:0.27469045 12:0.85365856 13:0.63942307 14:0.64724982 15:0.66497463 16:0.67183024 #
2 1:0.014925373 2:0.2 3:0.5 4:0.069444448 5:0.39658403 6:0.16053511 7:0.20903011 8:0.91404092 9:0.91129535 10:0.49684536 11:0.095378004 12:0.14341085 13:0.41273585 14:0.41143841 15:0.49014086 16:0.45223799 #
-2 1:0.0009304249 2:0.0093491552 3:0.095238097 4:0.0056179776 #
-0.35076206541151577766868285834789 1:0.00042774883 2:0.0048042061 3:0.016666668 4:0.0013826669 5:0.51441002 6:0.92575884 7:0.91974294 8:0.70898527 9:0.71492958 10:0.58720356 11:0.12036116 13:0.10287847 14:0.26617363 15:0.12735543 16:0.29965004 #
-2 1:0.039525691 3:0.1388889 4:0.015595463 5:0.36914724 6:0.28147101 7:0.086280055 8:0.87027794 9:0.87641877 10:0.65811765 11:0.11279172 12:0.9464286 13:0.53781515 14:0.57398587 15:0.57971013 16:0.61254954 #
2 1:0.0055357143 2:0.016203703 3:0.034615386 4:0.0041034915 5:0.35900146 6:0.045296166 7:0.17073171 8:0.84540975 9:0.85240465 10:0.81115097 11:0.18138558 12:0.84615386 13:0.63186812 14:0.62574899 15:0.6936416 16:0.66896242 #
-2 1:0.00088474015 2:0.007520176 3:0.041666668 4:0.0033812341 5:0.49223074 6:0.8656401 7:0.85688406 8:0.69554305 9:0.69543219 10:0.54686278 11:0.11285164 13:0.14495592 14:0.3008565 15:0.17026107 16:0.32757807 #
-2 1:0 2:0 3:0 4:0.00052838161 5:0.073202454 6:1.4452736 7:1.460199 8:0.45971987 9:0.44970608 10:0.065531753 11:0.0096936915 12:0.06779661 13:0.31862745 14:0.19586959 15:0.35567009 16:0.21518415 #
2 1:0.0064464142 2:0.027777778 3:0.049586777 4:0.0042526494 5:0.24730305 6:0.15929204 7:0.013274336 8:0.83554715 9:0.84466302 10:0.83981425 11:0.11707874 12:0.84210527 13:0.46000001 14:0.47445378 15:0.45774648 16:0.47121248 #
-2 1:0.024691358 3:0.12244898 4:0.013223141 5:0.55192751 6:0.21008404 7:0.014705882 8:0.95338863 9:0.95570618 10:0.84911722 11:0.27462751 12:0.9464286 13:0.68292683 14:0.69395697 15:0.72422063 16:0.7233538 #
2 1:0.0063681593 2:0.033333335 3:0.041666668 4:0.0042134831 5:0.4874728 6:0.13235295 7:0.0024509805 8:0.90741551 9:0.9043895 10:0.82320499 11:0.29548591 12:0.84210527 13:0.62857145 14:0.65033913 15:0.66228068 16:0.67730033 #
2 1:0 3:0 4:0.00011411183 5:0.0344842 6:0.95717883 7:0.94206548 8:0.56634378 9:0.54824579 10:0.035054792 11:0 13:0.05102041 14:0.095450446 15:0.062256809 16:0.11021647 #
2 1:0.0069013112 2:0.03125 3:0.052631579 4:0.0052941763 5:0.43133843 6:0 7:0.034013607 8:0.8576138 9:0.86060798 10:0.87600219 11:0.25596973 12:0.85365856 13:0.58888888 14:0.61729169 15:0.62573099 16:0.64487094 #
-2 1:0.0066176471 2:0 3:0.07183212 4:0.00091485638 5:0.51967114 6:0.26302817 7:0.29753521 8:0.89934415 9:0.90649152 10:0.6342786 11:0.14644127 12:0.23255815 13:0.50674373 14:0.4547095 15:0.54853272 16:0.46555057 #
2 1:0 2:0 3:0.014992503 4:0.0016560482 5:0.70403576 6:0.10946745 7:0.1030572 8:0.88572925 9:0.88668847 10:0.7202884 11:0.54938817 12:0.40000001 13:0.49331105 14:0.47434229 15:0.56713426 16:0.51421154 #
2 1:0.0048840051 2:0 3:0.14822134 4:0.0026606119 5:0.43680349 6:0.18547681 7:0.21784776 8:0.88297564 9:0.88172936 10:0.73392498 11:0.17493689 12:0.28985506 13:0.50858366 14:0.47097269 15:0.5670886 16:0.49616328 #
-2 3:0 4:0.0034722222 5:0.76214826 6:0.16997617 7:0.065131053 8:0.96096504 9:0.96295089 10:0.92530632 11:0.53176987 13:0.65252525 14:0.7008931 15:0.67785233 16:0.72756702 #
-2 1:0 2:0 3:0.12244898 4:0.013683432 5:0.11257358 6:0.38062283 7:0.24221453 8:0.54000098 9:0.54943633 10:0.52095139 11:0.068795472 12:0.9464286 13:0.31176472 14:0.36228141 15:0.35329342 16:0.40197489 #
-2 1:0.033333335 3:0.12244898 4:0.013223141 5:0.49596867 6:0.28187919 7:0.062080536 8:0.91290718 9:0.92235148 10:0.82237381 11:0.21006392 12:0.9464286 13:0.58620691 14:0.61736912 15:0.6159696 16:0.63689756 #
1.1173377874893049011006951332092 1:0 3:0 4:0.00050167221 5:0.070270874 6:0.89162564 7:1.4334975 8:0.49955845 9:0.48546264 10:0.030237311 11:0.0036158385 13:0.19298245 14:0.1371451 15:0.22429906 16:0.14762872 #
2 1:0.0063820421 2:0.025252525 3:0.047619049 4:0.0048159929 5:0.53396451 6:0.15646258 7:0 8:0.91847992 9:0.93450779 10:0.87422836 11:0.34926707 12:0.83333331 13:0.60233921 14:0.65801054 15:0.6855346 16:0.71540421 #
-2 1:0.00045888123 2:0.0052049449 3:0.11111111 4:0.0062864842 5:0.302091 6:0.61079812 7:0.53849763 8:0.82408363 9:0.82679683 10:0.6270473 11:0.081013411 13:0.22126082 14:0.31440297 15:0.25537634 16:0.34698811 #
-2 1:0.029585799 3:0.12244898 4:0.013223141 5:0.42760465 6:0.23303168 7:0.029411765 8:0.91874188 9:0.92471182 10:0.8452934 11:0.18560646 12:0.9464286 13:0.63559324 14:0.63357431 15:0.6875 16:0.6770032 #
2 1:0.00068587105 3:0 4:9.6966251e-06 5:0.1293391 6:0.9616034 7:0.94936711 8:0.28503922 9:0.2846145 10:0.030208286 11:0 13:0.033726811 14:0.072032914 15:0.042592593 16:0.088527039 #
2 1:0.0059559261 2:0.011904762 3:0.090909094 4:0.0057916776 5:0.49036828 6:0.1221865 7:0.022508038 8:0.91443568 9:0.92338419 10:0.89895672 11:0.29840565 12:0.84210527 13:0.69729728 14:0.70081115 15:0.70520234 16:0.70317292 #
-2 3:0 4:0.0034722222 5:0.35418081 6:0.0022099447 7:0.0047882134 8:0.55423594 9:0.5519765 10:0.49712449 11:0.17797542 13:0.56041664 14:0.43830058 15:0.64233577 16:0.48363087 #
2 1:0.0054945056 2:0.014492754 3:0.054545455 4:0.0045818123 5:0.48745832 6:0.20725389 7:0.054404143 8:0.88111925 9:0.89696616 10:0.89069062 11:0.31625554 12:0.84210527 13:0.61946905 14:0.66004401 15:0.65402842 16:0.68922508 #
2 1:0.0066889632 2:0.018181818 3:0.06666667 4:0.0066060079 5:0.33301812 6:0.21276596 7:0.017021276 8:0.83901924 9:0.85713261 10:0.73314035 11:0.15026124 12:0.85365856 13:0.47445256 14:0.48228163 15:0.51538461 16:0.50204521 #
-2 1:0.0045454544 2:0 3:0.13194445 4:0.0055048601 5:0.55466455 6:0.22205438 7:0.25075528 8:0.88757563 9:0.88149977 10:0.7753554 11:0.2313465 12:0.28985506 13:0.5129683 14:0.47738934 15:0.54915255 16:0.49034658 #
-2 1:0.045351475 3:0.12244898 4:0.013223141 5:0.31752464 6:0.13432837 7:0.040511727 8:0.83919549 9:0.84635878 10:0.6117568 11:0.11919162 12:0.94594592 13:0.49392712 14:0.49699497 15:0.53571427 16:0.53216255 #
-2 1:0.044321328 3:0.12244898 4:0.013223141 5:0.44643793 6:0.27438369 7:0.042872455 8:0.93466407 9:0.93528938 10:0.82263571 11:0.16093756 12:0.9464286 13:0.58518517 14:0.59361225 15:0.61197919 16:0.61197919 #
-2 1:0.036458332 3:0.12244898 4:0.013223141 5:0.4972291 6:0.18306011 7:0.040983606 8:0.85853761 9:0.86587644 10:0.81649357 11:0.34256575 12:0.9464286 13:0.62926829 14:0.63132715 15:0.65128207 16:0.64632928 #
2 1:0.0065849642 2:0.028132992 3:0.090909094 4:0.0046296297 5:0.46593195 6:0.18817204 7:0.034946237 8:0.91548985 9:0.92544407 10:0.89240241 11:0.27357534 12:0.84210527 13:0.67906976 14:0.67587817 15:0.69950742 16:0.68939352 #
-2 1:0 3:0 4:0.0034722222 5:0.65366316 6:0.11364377 7:0.018235102 8:0.93963271 9:0.93796802 10:0.89063716 11:0.29694167 13:0.60000002 14:0.62225157 15:0.65261626 16:0.66231394 #
-2 1:0.037807185 3:0.12244898 4:0.013223141 5:0.35338596 6:0.20598802 7:0.034730539 8:0.90446484 9:0.90781105 10:0.66652763 11:0.12134207 12:0.9464286 13:0.58942068 14:0.57161027 15:0.62796831 16:0.60011339 #
2 5:0.12510864 6:0.0032679739 7:0.09150327 8:0.56519353 9:0.57079685 10:0.29076332 11:0.034752402 12:0.82758623 13:0.33152175 14:0.33080098 15:0.37222221 16:0.36040261 #
2 1:0.014925373 2:0.071428575 3:0.5 4:0.069444448 5:0.54645848 6:0.2917923 7:0.27001676 8:0.90035051 9:0.90015972 10:0.85356408 11:0.33346939 12:0.25694445 13:0.59819818 14:0.55789036 15:0.64999998 16:0.57754016 #
-2 1:0 2:0 3:0.090277776 4:0.0055048601 5:0.82593942 6:0.054905947 7:0.070665985 8:0.94437951 9:0.94594371 10:0.86712217 11:0.71808958 12:0.3773585 13:0.47145489 14:0.44088191 15:0.53715497 16:0.47751492 #
2 1:0.0045561665 2:0.018518519 3:0.023255814 4:0.002422181 5:0.27850461 6:0.16386555 7:0.016806724 8:0.80228531 9:0.82001072 10:0.77032012 11:0.080196708 12:0.84210527 13:0.43165466 14:0.44872352 15:0.5 16:0.51741332 #
2 5:0.24051264 6:0.17415731 7:0.23314607 8:0.70228374 9:0.73373252 10:0.53358662 11:0.080848202 12:0.82758623 13:0.36507937 14:0.3730602 15:0.40782124 16:0.4112823 #
2 1:0.0047169812 2:0 3:0.1 4:0.0019251094 5:0.5452739 6:0.18315871 7:0.20100893 8:0.89497256 9:0.89192635 10:0.67734337 11:0.29250127 12:0.28985506 13:0.51485151 14:0.46583313 15:0.56908667 16:0.49169335 #
2 1:0.0045955884 2:0.018518519 3:0.023255814 4:0.002422181 5:0.27850461 6:0.16386555 7:0.016806724 8:0.80228531 9:0.82001072 10:0.77032012 11:0.080196708 12:0.84210527 13:0.43165466 14:0.44872352 15:0.5 16:0.51741332 #
-2 1:0.00071572646 2:0.011904762 3:0.093333334 4:0.0033482143 5:0.38151234 6:0.39183903 7:0.32420346 8:0.90926641 9:0.90512407 10:0.83940065 11:0.088539496 13:0.4300518 14:0.50845528 15:0.48428571 16:0.5555138 #
2 5:0.5786646 6:0.20707636 7:0.094227187 8:0.94519705 9:0.94837016 10:0.94924277 11:0.24637602 13:0.6115607 14:0.63176954 15:0.6745407 16:0.67946279 #
-2 1:0.037807185 3:0.12244898 4:0.013223141 5:0.28388387 6:0.40031645 7:0.22626582 8:0.89360386 9:0.89455837 10:0.60983187 11:0.0611706 12:0.9464286 13:0.43143812 14:0.47377396 15:0.47330961 16:0.51321524 #
-2 1:0 3:0 4:0.0034722222 5:0.81794959 6:0.10089612 7:0.021241289 8:0.97414523 9:0.97473127 10:0.90685147 11:0.40582493 13:0.59168702 14:0.59808785 15:0.65390068 16:0.64172775 #
-2 1:0.046875 3:0.12244898 4:0.013223141 5:0.17694773 6:0.58801496 7:0.45318353 8:0.72788042 9:0.71134967 10:0.21649919 11:0.015748737 12:0.9464286 13:0.23507462 14:0.31402591 15:0.28740159 16:0.36325151 #
2 1:0.0062770564 2:0.026041666 3:0.06666667 4:0.0055321143 5:0.40429217 6:0.12937063 7:0 8:0.85107297 9:0.86931968 10:0.6658904 11:0.23574315 12:0.84615386 13:0.60509557 14:0.59706157 15:0.63576162 16:0.61762202 #
2 1:0.0053940667 2:0.020588236 3:0.037694015 4:0.0025155772 5:0.47796309 6:0.15662651 7:0.018072288 8:0.90612215 9:0.91029596 10:0.84155053 11:0.2416846 12:0.85000002 13:0.625 14:0.65057486 15:0.65326631 16:0.67390084 #
-2 1:0 2:0 3:0.033333335 4:0.0024340674 5:0.78816831 6:0.04353562 7:0.041556727 8:0.94808751 9:0.9465006 10:0.87237102 11:0.63614553 12:0.41666666 13:0.46855983 14:0.46172258 15:0.53900707 16:0.50494158 #
2 5:0.3664881 6:0.089887641 7:0.087078653 8:0.65925705 9:0.66472453 10:0.45958579 11:0.10179387 12:0.82758623 13:0.41836736 14:0.42677048 15:0.44329897 16:0.44676682 #
2 5:0.7226395 6:0.15587798 7:0.04389881 8:0.966618 9:0.96834898 10:0.9443689 11:0.32599065 13:0.64504284 14:0.65695179 15:0.70416665 16:0.70221877 #
2 5:0.30112362 6:0.19444445 7:0.25 8:0.80712825 9:0.81155843 10:0.61081338 11:0.086576805 12:0.82758623 13:0.38967136 14:0.39530396 15:0.4009901 16:0.4009901 #
-2 1:0.047499999 3:0.12244898 4:0.013223141 5:0.37669742 6:0.32954547 7:0.076704547 8:0.86082232 9:0.87138069 10:0.58686638 11:0.10967308 12:0.9464286 13:0.48837209 14:0.53560799 15:0.52201259 16:0.56651658 #
-2 1:0.034420289 3:0.12244898 4:0.013223141 5:0.47750601 6:0.2181146 7:0.055452865 8:0.92323756 9:0.92363459 10:0.75843745 11:0.17178389 12:0.9464286 13:0.5625 14:0.56218499 15:0.61153847 16:0.60688794 #
2 1:0.021276595 2:0.25 3:0.5 4:0.069444448 5:0.45934835 6:0.17602874 7:0.24265186 8:0.92269146 9:0.92323321 10:0.4758763 11:0.15039475 12:0.14341085 13:0.40566039 14:0.40048948 15:0.48458692 16:0.44150421 #
2 1:0.0063224449 2:0.034375001 3:0.072463766 4:0.0041243457 5:0.38062575 6:0.1015625 7:0.02734375 8:0.80952692 9:0.84596646 10:0.87025577 11:0.19765198 12:0.84210527 13:0.51298702 14:0.52090299 15:0.55862069 16:0.54740977 #
2 1:0 3:0 4:0.00014365064 5:0.069791429 6:0.92774981 7:0.9086988 8:0.59305859 9:0.57692122 10:0.04705799 11:0 13:0.06175299 14:0.11768126 15:0.074324325 16:0.13142508 #
-2 1:0 2:0 3:0 4:4.2842697e-05 5:0.15636207 6:0.68215615 7:0.61152416 8:0.78847969 9:0.79637915 10:0.54104769 11:0.035948481 13:0.31274131 14:0.45853725 15:0.35294119 16:0.49705014 #
2 1:0 3:0 4:0.00010369859 5:0.08740557 6:0.95005065 7:0.93688828 8:0.65880096 9:0.62171715 10:0.04301158 11:0.0010734162 13:0.063953489 14:0.12966055 15:0.079625294 16:0.1437571 #
-2 3:0 4:0.0034722222 5:0.34122917 6:0.095975235 7:0.04767802 8:0.63619769 9:0.63730478 10:0.57359374 11:0.20181502 13:0.57649666 14:0.49178618 15:0.65139949 16:0.53345144 #
-2 1:0.041322313 3:0.12244898 4:0.013223141 5:0.43121758 6:0.33144155 7:0.15664019 8:0.91465694 9:0.91903323 10:0.86456209 11:0.2046724 12:0.9464286 13:0.59736842 14:0.61263883 15:0.64606744 16:0.65158159 #
2 1:0 3:0 4:0.00018303844 5:0.056421481 6:0.93188322 7:0.90784204 8:0.49352181 9:0.47796068 10:0.024173552 11:0 13:0.045731708 14:0.090368003 15:0.054237287 16:0.10287315 #
-2 1:0.010892019 3:0.12953506 4:0.0015389521 5:0.0082132928 6:0.3488372 7:0.18604651 8:0.49724412 9:0.51381141 10:0.14380181 11:0 12:0.9464286 13:0.21276596 14:0.24310832 15:0.2173913 16:0.2492224 #
-2 3:0 4:0.0034722222 5:0.60731137 6:0.67022949 7:0.65859795 8:0.92419273 9:0.92234612 10:0.7644127 11:0.31483573 13:0.47819549 14:0.60972309 15:0.5441696 16:0.66764957 #
-2 1:0 2:0 3:0 4:0.00071073207 5:0.034716483 6:0.13958333 7:0.081249997 8:0.31072927 9:0.283126 10:0.045199431 11:0 12:0.055555556 13:0.18773946 14:0.18628156 15:0.22131148 16:0.21116963 #
-2 1:0 2:0 3:0 4:0.00067544746 5:0.024089253 6:0.72977221 7:0.72584444 8:0.51527035 9:0.507442 10:0.070441738 11:0 12:0.057142857 13:0.11507937 14:0.17503104 15:0.13071896 16:0.18924432 #
-2 1:0 2:0 3:0 4:0.00061936938 5:0.038147997 6:1.8368795 7:2.0567377 8:0.63200396 9:0.61467767 10:0.033202492 11:0 12:0.06779661 13:0.29166666 14:0.18837528 15:0.33125001 16:0.19773917 #
-2 1:0.0010948905 2:0.040935673 3:0.083333336 4:0.0069989394 5:0.43039516 6:0.39675173 7:0.31438515 8:0.89555228 9:0.89406687 10:0.87733197 11:0.14344394 13:0.4816626 14:0.56753218 15:0.51948053 16:0.59547812 #
2 1:0.0056338026 2:0.0084033618 3:0.090909094 4:0.0057916776 5:0.41888329 6:0.11965812 7:0.07692308 8:0.88072979 9:0.88555539 10:0.82214582 11:0.14550868 12:0.83333331 13:0.5714286 14:0.56949937 15:0.63909775 16:0.62741309 #
2 1:0.006760363 2:0.021428572 3:0.11111111 4:0.0054347827 5:0.36097783 6:0.074468084 7:0.13031915 8:0.90106571 9:0.90268004 10:0.76515085 11:0.18259667 12:0.85365856 13:0.62612611 14:0.59346461 15:0.65437788 16:0.61459768 #
2 1:0.006209936 2:0.03409091 3:0.037037037 4:0.0037688443 5:0.42961729 6:0.076487251 7:0 8:0.87671763 9:0.88602519 10:0.76667142 11:0.22966769 12:0.85000002 13:0.64676619 14:0.65347338 15:0.67708331 16:0.68607551 #
2 1:0.0051948051 2:0.036458332 3:0.035294119 4:0.0030236254 5:0.39398113 6:0.12456747 7:0.055363324 8:0.86354738 9:0.87820607 10:0.83841705 11:0.22194839 12:0.84210527 13:0.62359548 14:0.64035255 15:0.67469877 16:0.67267573 #
2 1:0.0058422592 2:0.020833334 3:0.03846154 4:0.003947258 5:0.26420692 6:0.15718158 7:0.0054200543 8:0.81565672 9:0.82560521 10:0.64319628 11:0.10837453 12:0.83333331 13:0.53170735 14:0.53791177 15:0.56770831 16:0.57524794 #
-2 3:0 4:0.0034722222 5:0.40201399 6:0.12877698 7:0.15359712 8:0.63128597 9:0.63425487 10:0.61853617 11:0.14965518 13:0.55887228 14:0.4901821 15:0.63953489 16:0.53916389 #
-2 5:0.55436188 6:0.68696481 7:0.66444653 8:0.88551998 9:0.88401276 10:0.79588264 11:0.30129531 13:0.3531746 14:0.51920861 15:0.41494435 16:0.57374281 #
-2 1:0.041322313 3:0.12244898 4:0.013223141 5:0.26943427 6:0.13362069 7:0.12931034 8:0.84567821 9:0.85082263 10:0.50052929 11:0.11747712 12:0.9464286 13:0.57322174 14:0.56816363 15:0.63555557 16:0.61030912 #
-2 1:0 2:0 3:0 4:0.00069962686 5:0.058383156 6:0.47415507 7:0.5 8:0.50917488 9:0.51090169 10:0.084082499 11:0.0035579079 12:0.054054055 13:0.18329467 14:0.19983022 15:0.22166246 16:0.23540522 #
-2 1:0.036231883 3:0.12244898 4:0.013223141 5:0.28936493 6:0.30620155 7:0.13953489 8:0.81929529 9:0.83729482 10:0.77551663 11:0.15194435 12:0.9464286 13:0.54140127 14:0.56927872 15:0.56756759 16:0.60098201 #
-2 1:0.030864198 3:0.12244898 4:0.013223141 5:0.28062043 6:0.30991736 7:0.16322315 8:0.87352318 9:0.87917876 10:0.68574089 11:0.1183257 12:0.9464286 13:0.43846154 14:0.47674951 15:0.48979592 16:0.51805532 #
2 1:0.0061835749 2:0.024291499 3:0.063157894 4:0.0052594044 5:0.42368907 6:0.20689656 7:0.025078369 8:0.87084609 9:0.88276148 10:0.78076082 11:0.19657043 12:0.83783782 13:0.59562844 14:0.61168396 15:0.6608187 16:0.65698785 #
2 5:0.2041402 6:0.22950819 7:0.25526932 8:0.76363009 9:0.77503306 10:0.48086998 11:0.062902413 12:0.82758623 13:0.36915886 14:0.37649664 15:0.39901477 16:0.39609867 #
-2 1:0.03809524 3:0.12244898 4:0.013223141 5:0.18203847 6:0.1638796 7:0.07692308 8:0.71060908 9:0.72165614 10:0.6498611 11:0.064889751 12:0.9464286 13:0.52659577 14:0.51665598 15:0.55191255 16:0.52926028 #
-2 1:0.052469134 3:0.1388889 4:0.015595463 5:0.18573837 6:0.19457014 7:0.48868778 8:0.64708924 9:0.66366422 10:0.50883526 11:0.075251259 12:0.9464286 13:0.56028366 14:0.48450157 15:0.59420288 16:0.51045036 #
2 1:0.0060606059 2:0 3:0.061585367 4:0.0014302792 5:0.43845996 6:0.17757988 7:0.20429544 8:0.88151884 9:0.88519228 10:0.6812672 11:0.21870403 12:0.28985506 13:0.49470899 14:0.45985293 15:0.54320985 16:0.48171654 #
-2 1:0 5:0.61957639 6:0.17658474 7:0.19825356 8:0.76873046 9:0.77261889 10:0.78525889 11:0.27204341 13:0.55324674 14:0.53217882 15:0.5981735 16:0.55040073 #
-2 3:0 4:0.0034722222 5:0.64331079 6:0.45726901 7:0.46483758 8:0.84141648 9:0.84538531 10:0.86974829 11:0.40862909 13:0.37717909 14:0.45473099 15:0.42830539 16:0.49939266 #
-2 3:0 4:0.0034722222 5:0.50363165 6:0.15565869 7:0.16708319 8:0.5637157 9:0.56835872 10:0.57559508 11:0.22438464 13:0.53456223 14:0.48307058 15:0.60363638 16:0.5228833 #
-2 3:0 4:0.0034722222 5:0.47586256 6:0.15834218 7:0.19837053 8:0.5711323 9:0.57345581 10:0.57987463 11:0.23640564 13:0.50798261 14:0.46620291 15:0.57825369 16:0.51241642 #
2 1:0.0067500495 2:0.04524887 3:0.059999999 4:0.0050123185 5:0.2460874 6:0.022304833 7:0.096654274 8:0.77373546 9:0.77621841 10:0.5362727 11:0.10297292 12:0.85000002 13:0.44067797 14:0.45461151 15:0.48520711 16:0.48520711 #
2 1:0.0068027209 2:0.020833334 3:0.050000001 4:0.0050593703 5:0.50174242 6:0.12230216 7:0.0071942448 8:0.80074602 9:0.818183 10:0.81099975 11:0.27966103 12:0.84210527 13:0.59340662 14:0.60343671 15:0.66279072 16:0.6829409 #
2 1:0.0061776061 2:0.018099548 3:0.070588239 4:0.0058346521 5:0.42923686 6:0.11246943 7:0.03178484 8:0.89608997 9:0.90286785 10:0.7588169 11:0.17319044 12:0.84615386 13:0.62053573 14:0.61408824 15:0.64150941 16:0.63261974 #
2 1:0.0073653199 2:0.040485829 3:0.077272728 4:0.004980843 5:0.27018228 6:0.16042781 7:0.045454547 8:0.85051799 9:0.85476172 10:0.78085941 11:0.099014118 12:0.83333331 13:0.5 14:0.51907587 15:0.56650245 16:0.57506472 #
-2 1:0 3:0 4:0.0034722222 5:0.41571844 6:0.21984436 7:0.26167315 8:0.83001363 9:0.833112 10:0.69150871 11:0.1432265 13:0.50409168 14:0.4794032 15:0.57279694 16:0.51730412 #
-2 1:0 5:0.44573087 6:0.21235652 7:0.21607022 8:0.87334752 9:0.87310964 10:0.63514131 11:0.17309487 13:0.48531139 14:0.47322187 15:0.53333336 16:0.49859095 #
2 1:0.0057814992 2:0.026515152 3:0.039999999 4:0.0043149069 5:0.41330919 6:0.2147651 7:0.013422819 8:0.82977891 9:0.84803921 10:0.66130191 11:0.14645825 12:0.83333331 13:0.51098901 14:0.53830117 15:0.53448278 16:0.56447673 #
-2 1:0.022167487 3:0.12244898 4:0.013223141 5:0.042220034 6:0.47169811 7:0.96226418 8:0.46741107 9:0.49078164 10:0.26425412 11:0 12:0.9464286 13:0.45454547 14:0.35675302 15:0.5 16:0.37796447 #
2 1:0 3:0 4:0.000270027 5:0.15182906 6:0.41269842 7:0.2820513 8:0.62403351 9:0.61708885 10:0.05676562 11:0 13:0.086065575 14:0.083110638 15:0.11926606 16:0.10776791 #
-2 1:0.0092993081 3:0.12439156 4:0.0021928106 5:0.099828564 6:0.057553958 7:0.16546762 8:0.61711335 9:0.6149382 10:0.25945303 11:0.014833954 12:0.9464286 13:0.28865978 14:0.26396307 15:0.31868133 16:0.28472453 #
-2 1:0.036231883 3:0.12244898 4:0.013223141 5:0.12009048 6:0.088888891 7:0.079999998 8:0.71330202 9:0.72064543 10:0.42091963 11:0.0095635774 12:0.9464286 13:0.33576643 14:0.34408823 15:0.37313432 16:0.36768681 #
2 5:0.15957694 6:0.078431375 7:0.15966387 8:0.74307197 9:0.74572152 10:0.36211869 11:0.077701978 12:0.82758623 13:0.41566265 14:0.39917082 15:0.43902439 16:0.42259461 #
-2 3:0 4:0.0034722222 5:0.63165677 6:0.53799099 7:0.5650354 8:0.8022064 9:0.80615062 10:0.89970869 11:0.30837199 13:0.46656534 14:0.53263265 15:0.53693694 16:0.58039409 #
2 5:0.0048554623 6:0.89609015 7:0.88446635 8:0.30121925 9:0.29989067 10:0.032198075 11:0 13:0.033755273 14:0.054177865 15:0.043668121 16:0.069850698 #
2 1:0.0049975011 2:0.050000001 3:0.03125 4:0.0032295748 5:0.34806788 6:0.19881305 7:0.089020774 8:0.79228711 9:0.80935836 10:0.60656232 11:0.20341344 12:0.84210527 13:0.45539907 14:0.48977259 15:0.50251257 16:0.52402008 #
2 1:0 3:0 4:0.00016330974 5:0.041179586 6:0.94555646 7:0.92714173 8:0.38642168 9:0.37697145 10:0.015937274 11:0.012922334 13:0.045454547 14:0.083624199 15:0.051546391 16:0.089051753 #
-2 1:0.0077369441 3:0.14496124 4:0.0010881205 5:0.23247692 6:0.28638497 7:0.60093898 8:0.76435435 9:0.76715928 10:0.51729739 11:0.10738239 12:0.9464286 13:0.5271318 14:0.43095845 15:0.57599998 16:0.47346908 #
2 1:0.0047592386 2:0.022058824 3:0.030769231 4:0.0026483526 5:0.25793728 6:0.045643155 7:0.186722 8:0.66314608 9:0.67199439 10:0.65413833 11:0.10456704 12:0.84210527 13:0.4909091 14:0.51258987 15:0.52173913 16:0.53696322 #
-2 1:0.0288 3:0.12244898 4:0.013223141 5:0.048435949 6:0.69999999 7:0.67333335 8:0.52571923 9:0.53447711 10:0.25764662 11:0.027317919 12:0.9464286 13:0.17475729 14:0.27698866 15:0.18181819 16:0.28252897 #
2 5:0.090807401 6:0.85147059 7:0.83051473 8:0.63954675 9:0.6250847 10:0.042189702 11:0 12:0.051948052 13:0.06113537 14:0.13133968 15:0.074146338 16:0.15013489 #
-2 1:0.041322313 3:0.12244898 4:0.013223141 5:0.25996342 6:0.2407809 7:0.026030369 8:0.84323555 9:0.84849161 10:0.64822298 11:0.068926223 12:0.9464286 13:0.47302905 14:0.46905187 15:0.51982379 16:0.49632871 #
2 5:0.4832283 6:0.11343284 7:0.003358209 8:0.89186502 9:0.89851093 10:0.91037947 11:0.18786515 13:0.56480378 14:0.56629783 15:0.61185986 16:0.59907806 #
2 1:0.0071313549 2:0.043749999 3:0.052631579 4:0.00528169 5:0.30496308 6:0.14672686 7:0.058690745 8:0.86314613 9:0.87506741 10:0.85418618 11:0.10000031 12:0.85365856 13:0.53389829 14:0.55505568 15:0.56018519 16:0.57642579 #
-2 1:0.034782607 3:0.12244898 4:0.013223141 5:0.36149243 6:0.31300345 7:0.10817031 8:0.87556893 9:0.87741333 10:0.68086064 11:0.17824638 12:0.9464286 13:0.52790695 14:0.5816862 15:0.56447691 16:0.60822666 #
2 1:0 3:0 4:0.000199071 5:0.027102001 6:0.95315582 7:0.94033533 8:0.46191019 9:0.45576426 10:0.043588612 11:0.0029725691 13:0.036789298 14:0.10315146 15:0.0501002 16:0.12435041 #
-2 1:0.044117648 3:0.12244898 4:0.013223141 5:0.20869248 6:0.1879845 7:0.032945737 8:0.80945653 9:0.8033489 10:0.48467752 11:0.027455872 12:0.9464286 13:0.39272729 14:0.38629791 15:0.43243244 16:0.41151449 #
2 1:0.023255814 2:0.2 3:0.5 4:0.069444448 5:0.38279295 6:0.20575587 7:0.24776712 8:0.89345968 9:0.89645028 10:0.55114394 11:0.093499228 12:0.14341085 13:0.44785276 14:0.43905738 15:0.51703161 16:0.46806112 #
-2 1:0.0072351419 2:0 3:0.11328125 4:0.003961219 5:0.25401768 6:0.21069519 7:0.21657754 8:0.83546126 9:0.83198965 10:0.45327419 11:0.10006985 12:0.41666666 13:0.4924078 14:0.47234398 15:0.53316951 16:0.49249673 #
-2 1:0.04112554 3:0.12244898 4:0.013223141 5:0.19949728 6:0.058441557 7:0.17532468 8:0.83161813 9:0.83590794 10:0.42795464 11:0.048726723 12:0.9464286 13:0.46357617 14:0.43737838 15:0.51056337 16:0.47292778 #
-2 1:0.015966387 3:0.12244898 4:0.013223141 5:0.1979723 6:0.30841121 7:0.12616822 8:0.75725257 9:0.76498902 10:0.4740026 11:0.061669424 12:0.9464286 13:0.46511629 14:0.46971044 15:0.5078125 16:0.50196415 #
2 1:0 3:0 4:0.00041958041 5:0.015644655 6:0.96880066 7:0.96312803 8:0.32473868 9:0.32687756 10:0.063994557 11:0 13:0.026578072 14:0.077391379 15:0.031835206 16:0.087307014 #
2 1:0.017241379 2:0.25 3:0.5 4:0.069444448 5:0.41608983 6:0.13418746 7:0.16351989 8:0.90528107 9:0.90443414 10:0.54461855 11:0.12635285 12:0.14285715 13:0.45084745 14:0.43558228 15:0.55241936 16:0.49596897 #
2 1:0.0053872052 2:0.02077922 3:0.023391813 4:0.0027144686 5:0.2730889 6:0.12709832 7:0.026378896 8:0.85893929 9:0.87340003 10:0.83211124 11:0.082764998 12:0.85714287 13:0.56321841 14:0.59875393 15:0.62704921 16:0.64168006 #
2 1:0.0058754408 2:0.015037594 3:0.055555556 4:0.0055321143 5:0.39211982 6:0.1142132 7:0.083756343 8:0.8742938 9:0.876957 10:0.8439886 11:0.17902029 12:0.84615386 13:0.60287082 14:0.62061167 15:0.63 16:0.64636636 #
2 5:0.12651746 6:0.058479533 7:0.10526316 8:0.6937952 9:0.70378155 10:0.47901252 11:0.037261385 12:0.82758623 13:0.38502672 14:0.37966695 15:0.42696628 16:0.40898061 #
-2 1:0.041322313 3:0.12244898 4:0.013223141 5:0.16654523 6:0.54022986 7:1.0862069 8:0.70826137 9:0.71395296 10:0.24771206 11:0.040015813 12:0.9464286 13:0.46610171 14:0.36073524 15:0.5089286 16:0.39492023 #
2 5:0.42421475 6:0.27805063 7:0.18284851 8:0.8423174 9:0.84975153 10:0.83876258 11:0.16521318 13:0.50061655 14:0.4850716 15:0.56424582 16:0.5304963 #
2 1:0.0071361503 2:0.040624999 3:0.1 4:0.0049494598 5:0.37621471 6:0.10344828 7:0.023872679 8:0.89296418 9:0.89611137 10:0.79522818 11:0.15544192 12:0.83333331 13:0.63285023 14:0.63981044 15:0.67539269 16:0.6667223 #
-2 1:0.0030769231 2:0 3:0.095238097 4:0.0029279999 5:0.38116461 6:0.18152031 7:0.17038009 8:0.90749729 9:0.89733219 10:0.58924955 11:0.14291261 12:0.41666666 13:0.53614455 14:0.49940944 15:0.61063218 16:0.53256643 #
2 5:0.12713626 6:0.78481013 7:0.7479862 8:0.63310701 9:0.61837262 10:0.024000704 11:0 13:0.073291928 14:0.1260868 15:0.081267215 16:0.13606106 #
2 1:0.0062399716 2:0.037037037 3:0.045454547 4:0.0038860103 5:0.22516014 6:0.16666667 7:0.049242426 8:0.80496162 9:0.81047887 10:0.60689348 11:0.11695328 12:0.85365856 13:0.45625001 14:0.45768249 15:0.47741935 16:0.47741935 #
-2 1:0.0096491231 3:0.12477639 4:0.0018042787 5:0.044532724 6:0.35227272 7:0.21590909 8:0.59163815 9:0.60614461 10:0.26505524 11:0.0069824299 12:0.9464286 13:0.27272728 14:0.30184385 15:0.31623933 16:0.33542246 #
-2 1:0.027434843 3:0.12244898 4:0.013223141 5:0.226071 6:0.019543974 7:0.29967427 8:0.84959543 9:0.84077829 10:0.50369412 11:0.060340948 12:0.9464286 13:0.45108697 14:0.46791947 15:0.47486034 16:0.49610144 #
2 1:0.0052677789 2:0.017857144 3:0.026936026 4:0.0028997515 5:0.38621897 6:0.16727273 7:0.021818181 8:0.89780235 9:0.90986156 10:0.73462987 11:0.21845599 12:0.86666667 13:0.57062149 14:0.61210775 15:0.61676645 16:0.65516114 #
-2 1:0.010584678 3:0.10901163 4:0.0020403147 5:0.10527142 6:0.22395833 7:0.015625 8:0.69467068 9:0.69757551 10:0.43546632 11:0.028903665 12:0.9464286 13:0.42519686 14:0.41088703 15:0.43089432 16:0.41282967 #
2 1:0.0067599067 2:0 3:0.1399177 4:0.0022279234 5:0.37757513 6:0.2111448 7:0.2706596 8:0.82949573 9:0.84165293 10:0.47990867 11:0.12399419 12:0.28985506 13:0.51167727 14:0.45255676 15:0.57289004 16:0.47406903 #
-2 1:0.0011202128 2:0.017008798 3:0.041666668 4:0.0022823033 5:0.11658607 6:0.91346157 7:0.91466343 8:0.71468753 9:0.72713643 10:0.73864275 11:0.079157971 13:0.082742319 14:0.22946504 15:0.0964467 16:0.25813931 #
2 1:0.0073529412 2:0.042735044 3:0.06666667 4:0.0066060079 5:0.32635698 6:0.23717949 7:0.10576923 8:0.87492955 9:0.8869288 10:0.66024333 11:0.13599029 12:0.83333331 13:0.52542371 14:0.54975379 15:0.58235294 16:0.59111065 #
-2 1:0.0392562 3:0.12244898 4:0.013223141 5:0.28818804 6:0.43956044 7:0.24175824 8:0.77851117 9:0.78339022 10:0.6210131 11:0.16985121 12:0.9464286 13:0.43684211 14:0.51739597 15:0.46629214 16:0.5394389 #
2 1:0 3:0 4:0.00011131725 5:0.048672576 6:0.93766367 7:0.91566265 8:0.56461155 9:0.55705869 10:0.0345404 11:0 13:0.047619049 14:0.10101525 15:0.058641974 16:0.11656661 #
2 1:0.006828852 2:0.039772727 3:0.05882353 4:0.0059718308 5:0.37182954 6:0.112 7:0.068000004 8:0.8392188 9:0.85282665 10:0.78383756 11:0.1596029 12:0.83333331 13:0.5804196 14:0.57346237 15:0.5869565 16:0.57459813 #
2 1:0.0059259259 2:0.025575448 3:0.0625 4:0.0041752425 5:0.34310016 6:0.14804469 7:0.039106146 8:0.84030694 9:0.8455531 10:0.74701566 11:0.14267425 12:0.85365856 13:0.5714286 14:0.57809013 15:0.60000002 16:0.59565735 #
-2 1:0.045000002 3:0.12244898 4:0.013223141 5:0.13428499 6:0.36875001 7:0.66250002 8:0.71853024 9:0.72433674 10:0.49961811 11:0.047840543 12:0.9464286 13:0.47272727 14:0.40276533 15:0.48543689 16:0.4091357 #
-2 1:0.020811655 3:0.12244898 4:0.013223141 5:0.097867951 6:0.047619049 7:0.21428572 8:0.60211492 9:0.59471524 10:0.30401173 11:0.007611223 12:0.9464286 13:0.32978722 14:0.30910489 15:0.34444445 16:0.31889358 #
2 1:0.016666668 2:0.25 3:0.5 4:0.069444448 5:0.39045316 6:0.20595855 7:0.23639897 8:0.8881675 9:0.87870127 10:0.49629971 11:0.10169912 12:0.17977528 13:0.45141065 14:0.42901826 15:0.53535354 16:0.47383559 #
-2 1:0.026666667 3:0.12244898 4:0.013223141 5:0.20612061 6:0.192 7:0.068000004 8:0.80901527 9:0.82329232 10:0.56144667 11:0.076179899 12:0.9464286 13:0.49122807 14:0.49311519 15:0.52962965 16:0.52289474 #
2 1:0.0068150843 2:0.0390625 3:0.045454547 4:0.0046337377 5:0.37806022 6:0.171123 7:0.0026737968 8:0.87740296 9:0.88482571 10:0.69083714 11:0.21187039 12:0.84615386 13:0.55140185 14:0.56281507 15:0.57416266 16:0.57692975 #
2 1:0.0073613985 2:0.044444446 3:0.055555556 4:0.0055707376 5:0.19959499 6:0.1416309 7:0.025751073 8:0.76043123 9:0.7814061 10:0.7135061 11:0.066827491 12:0.83333331 13:0.49032259 14:0.50505108 15:0.54421771 16:0.55177665 #
2 1:0.0061544571 2:0.015625 3:0.075000003 4:0.0061721937 5:0.40183708 6:0.12860893 7:0.026246719 8:0.9026556 9:0.91778272 10:0.72914517 11:0.23668742 12:0.84615386 13:0.56444442 14:0.5825724 15:0.60663509 16:0.61695522 #
-2 1:0.035916824 3:0.12244898 4:0.013223141 5:0.24123244 6:0.29298642 7:0.071266972 8:0.83985364 9:0.84341389 10:0.64578384 11:0.074611038 12:0.9464286 13:0.51116073 14:0.53075308 15:0.54694837 16:0.55414969 #
2 5:0.17668663 6:0.11344538 7:0.06092437 8:0.67879921 9:0.68806493 10:0.52662885 11:0.061984777 12:0.82758623 13:0.460177 14:0.45364943 15:0.48095238 16:0.46259272 #
-2 1:0.043181818 3:0.12244898 4:0.013223141 5:0.31805974 6:0.28622541 7:0.10017889 8:0.88628787 9:0.89080143 10:0.61659306 11:0.064705387 12:0.9464286 13:0.51929826 14:0.54178387 15:0.56088561 16:0.56827295 #
2 1:0.0063529881 2:0.021875 3:0.05882353 4:0.0058777863 5:0.19372255 6:0.19939578 7:0.027190333 8:0.81821394 9:0.83458477 10:0.62822479 11:0.049037453 12:0.83333331 13:0.53439152 14:0.52964872 15:0.55307263 16:0.54402995 #
2 1:0.0061776061 2:0.03508772 3:0.057142857 4:0.0047874069 5:0.33965084 6:0.2006079 7:0.012158055 8:0.79047394 9:0.7967931 10:0.72702819 11:0.11189085 12:0.84210527 13:0.56345177 14:0.56927133 15:0.60416669 16:0.61056012 #
2 1:0.0068933824 2:0.028571429 3:0.0625 4:0.0061983471 5:0.43339187 6:0.15358362 7:0.034129694 8:0.866687 9:0.87133461 10:0.83711672 11:0.20713241 12:0.84615386 13:0.61016947 14:0.62541413 15:0.63253009 16:0.63253009 #
-2 1:0.047091413 3:0.1388889 4:0.015595463 5:0.26684046 6:0.26881722 7:0.11827957 8:0.8954466 9:0.89949 10:0.65407032 11:0.082516544 12:0.9464286 13:0.53985506 14:0.54189724 15:0.58461541 16:0.57690096 #
-2 1:0.045000002 3:0.12244898 4:0.013223141 5:0.30357203 6:0.31625834 7:0.10690423 8:0.862553 9:0.86452353 10:0.6021359 11:0.10158937 12:0.9464286 13:0.46484375 14:0.49573234 15:0.48571429 16:0.51729351 #
-2 1:0.0021290185 2:0.042606518 3:0.14285715 4:0.0057471264 5:0.3113392 6:0.49421966 7:0.43208092 8:0.8491804 9:0.85863441 10:0.87407577 11:0.09527836 13:0.38328531 14:0.49152508 15:0.40184048 16:0.5130356 #
2 1:0.0069444445 2:0.039215688 3:0.050000001 4:0.0050437762 5:0.36258769 6:0.13428572 7:0.031428572 8:0.90359616 9:0.91052955 10:0.77360332 11:0.15902774 12:0.84210527 13:0.63849765 14:0.6345247 15:0.63902438 16:0.6374715 #
-2 1:0 2:0 3:0 4:0.00068082788 5:0.06399826 6:0.19253731 7:0.24328358 8:0.59842771 9:0.59376961 10:0.044138186 11:0.0015027827 12:0.05479452 13:0.23300971 14:0.19386557 15:0.28873238 16:0.22420445 #
-2 1:0 2:0 3:0 4:0.00076552929 5:0.020403206 6:1.0829694 7:0.95633185 8:0.46830931 9:0.47364351 10:0.025562044 11:0 12:0.050632913 13:0.19852941 14:0.13589437 15:0.25954199 16:0.16528825 #
2 5:0.046004482 6:0.90670663 7:0.89059573 8:0.58983642 9:0.57793379 10:0.024093186 11:0 13:0.039506175 14:0.10182758 15:0.052126199 16:0.11341212 #
-2 1:0.0272 3:0.12244898 4:0.013223141 5:0.32049164 6:0.22998729 7:0.036848795 8:0.83790088 9:0.84151214 10:0.48469245 11:0.092174709 12:0.9464286 13:0.46948355 14:0.48823953 15:0.52499998 16:0.5323711 #
-2 1:0 2:0 3:0 4:0.00069962686 5:0.066120364 6:0.53636366 7:0.48727274 8:0.51914465 9:0.51859218 10:0.08250165 11:0.0019792474 12:0.051282052 13:0.27240142 14:0.2074143 15:0.32307693 16:0.23274146 #
-2 1:0 2:0 3:0 4:0.0014204546 5:0.069497086 6:0.42663658 7:0.39729118 8:0.61786491 9:0.55271745 10:0.035691131 11:0.0065004439 12:0.071428575 13:0.19346733 14:0.18396613 15:0.23415978 16:0.20666772 #
-2 1:0 3:0.11111111 4:0.015151516 5:0.33955833 6:0.31011236 7:0.11910112 8:0.83707803 9:0.84119904 10:0.57706106 11:0.1029644 12:0.9464286 13:0.47659576 14:0.48827755 15:0.49775785 16:0.50228304 #
2 1:0.018181818 2:0.25 3:0.5 4:0.069444448 5:0.50668585 6:0.28206003 7:0.27216917 8:0.92903399 9:0.93048412 10:0.5864256 11:0.17430218 12:0.14341085 13:0.56914896 14:0.51181936 15:0.64946234 16:0.54721731 #
2 1:0.0067340066 2:0.043749999 3:0.055555556 4:0.0055707376 5:0.21838285 6:0.11619718 7:0.095070422 8:0.79287916 9:0.80263311 10:0.64840937 11:0.070667624 12:0.83333331 13:0.48837209 14:0.48712403 15:0.5029586 16:0.51056808 #
-2 1:0 2:0 3:0.07692308 4:0.0048912126 5:0.61157542 6:0.080672272 7:0.1184874 8:0.9329654 9:0.93147892 10:0.82405049 11:0.2450943 12:0.38461539 13:0.5366379 14:0.53409731 15:0.58706468 16:0.55860841 #
-2 1:0.00071718864 2:0.021875 3:0.12605043 4:0.0034547152 5:0.38298985 6:0.61806208 7:0.56820321 8:0.82651705 9:0.82773691 10:0.76258236 11:0.16504748 13:0.38431373 14:0.52939051 15:0.4131054 16:0.55282336 #
2 5:0.32820812 6:0.10461538 7:0.12923077 8:0.73532575 9:0.75534576 10:0.70034248 11:0.20512092 12:0.82758623 13:0.52694613 14:0.52205026 15:0.54430377 16:0.52785575 #
-2 1:0.034420289 3:0.12244898 4:0.013223141 5:0.48704991 6:0.32853717 7:0.055155877 8:0.90884465 9:0.91084492 10:0.74249423 11:0.19624886 12:0.9464286 13:0.54838711 14:0.5683006 15:0.5767442 16:0.59354609 #
2 1:0.0040854807 2:0 3:0.086363636 4:0.001154037 5:0.39321092 6:0.26662168 7:0.30037126 8:0.87068552 9:0.87452865 10:0.45532307 11:0.13720839 12:0.28985506 13:0.49031007 14:0.42938623 15:0.5480094 16:0.45116109 #
-2 1:0.0059470711 2:0 3:0.20214844 4:0.0018571311 5:0.33641481 6:0.17073965 7:0.18735744 8:0.87537479 9:0.87482786 10:0.5967043 11:0.17360349 12:0.29850745 13:0.55980861 14:0.53422576 15:0.62096775 16:0.56711751 #
-2 1:0.0059701493 2:0 3:0.071005918 4:0.0013953103 5:0.4147951 6:0.24385448 7:0.27630284 8:0.86516911 9:0.86510724 10:0.46679479 11:0.16067553 12:0.28985506 13:0.51224947 14:0.44735086 15:0.5625 16:0.46915743 #
2 1:0.0054131052 2:0 3:0.12833333 4:0.0024287794 5:0.3631638 6:0.19851117 7:0.25268817 8:0.86239678 9:0.86220556 10:0.51518089 11:0.1709677 12:0.28985506 13:0.52330506 14:0.46832463 15:0.58040202 16:0.49105829 #
2 1:0.0053802007 2:0.043956045 3:0.034482758 4:0.0035525321 5:0.28974783 6:0.21524663 7:0.085201792 8:0.79911602 9:0.83103627 10:0.84331632 11:0.14892374 12:0.85365856 13:0.46527779 14:0.52410299 15:0.5289855 16:0.57206094 #
2 1:0.0061835749 2:0.022624435 3:0.059090909 4:0.004980843 5:0.30389568 6:0.15012106 7:0.0048426152 8:0.85613656 9:0.86108661 10:0.62820548 11:0.13164972 12:0.84615386 13:0.57522124 14:0.58150345 15:0.61320752 16:0.6117664 #
-2 1:0.022988506 3:0.12244898 4:0.013223141 5:0.24552737 6:0.26717559 7:0.076335877 8:0.8182562 9:0.81938833 10:0.53317475 11:0.042824071 12:0.9464286 13:0.40336135 14:0.4175593 15:0.4525862 16:0.4525862 #
2 1:0 3:0 4:0.00020253849 5:0.11610071 6:0.96664137 7:0.95223653 8:0.65371877 9:0.61609596 10:0.03322332 11:0 13:0.036093418 14:0.088693373 15:0.043478262 16:0.099272721 #
-2 1:0.0078630894 2:0 3:0.088842973 4:0.0027824719 5:0.28204805 6:0.28139904 7:0.27344993 8:0.86817563 9:0.88845187 10:0.90041494 11:0.13006097 12:0.39215687 13:0.48387095 14:0.48387095 15:0.50588238 16:0.49860311 #
2 1:0 3:0 4:0.00018303844 5:0.14212796 6:0.10857143 7:0.17428571 8:0.58006591 9:0.56773025 10:0.036842704 11:0 13:0.11494253 14:0.13488865 15:0.13855422 16:0.15747885 #
-2 1:0.0059139784 2:0 3:0.1184 4:0.0024210622 5:0.37461954 6:0.18890719 7:0.20428336 8:0.91230625 9:0.90939951 10:0.63546544 11:0.17790431 12:0.41666666 13:0.50210971 14:0.47370186 15:0.54390246 16:0.49301788 #
2 1:0.0073313783 2:0.038961038 3:0.071428575 4:0.0071050641 5:0.37690479 6:0.1284153 7:0.054644808 8:0.86521053 9:0.8761369 10:0.81107754 11:0.19910069 12:0.84210527 13:0.60730594 14:0.60406464 15:0.65865386 16:0.64189923 #
2 1:0 3:0 4:4.8963604e-05 5:0.18736799 6:0.0030474532 7:0.0074009579 8:0.67653841 9:0.65111297 10:0.16471961 11:0.0030455701 13:0.15437788 14:0.17089589 15:0.20445609 16:0.20663412 #
2 1:0 3:0 4:0.00019071838 5:0.15415969 6:0.81388366 7:0.77073169 8:0.6950689 9:0.69138116 10:0.16344164 11:0.0021344081 13:0.10327023 14:0.15057434 15:0.13617887 16:0.17556842 #
2 1:0.0064102565 2:0.027210884 3:0.03846154 4:0.003928836 5:0.41921422 6:0.20900321 7:0.10932476 8:0.88728958 9:0.89606959 10:0.83496022 11:0.2157709 12:0.85714287 13:0.55135137 14:0.60068768 15:0.59659094 16:0.62376362 #
-2 1:0 2:0 3:0 4:3.1919564e-05 5:0.18010265 6:0.21513945 7:0.083665341 8:0.87286019 9:0.87444341 10:0.53996134 11:0.023417499 13:0.28417265 14:0.31135315 15:0.32592592 16:0.34426519 #
2 1:0.0064935065 2:0.030303031 3:0.05882353 4:0.0058777863 5:0.2834484 6:0.11081794 7:0.068601586 8:0.8335371 9:0.8495996 10:0.78390479 11:0.085762039 12:0.84615386 13:0.57205242 14:0.57700789 15:0.62385321 16:0.62242728 #
-2 1:0 2:0 3:0.070987657 4:0.0037006177 5:0.72458839 6:0.13689254 7:0.17864476 8:0.90600693 9:0.90598392 10:0.73206574 11:0.52457505 12:0.39215687 13:0.45512819 14:0.44963551 15:0.52322739 16:0.48602986 #
2 5:0.04661043 6:0.90688258 7:0.89372468 8:0.57793212 9:0.57183313 10:0.030343812 11:0 13:0.048192769 14:0.10436006 15:0.05820106 16:0.12131574 #
2 1:0 3:0 4:0.00010611956 5:0.077733152 6:0.90646362 7:0.87600994 8:0.67892188 9:0.65639204 10:0.054551121 11:0.0047231745 13:0.063394681 14:0.11388726 15:0.088516749 16:0.1413161 #
-2 1:0 2:0 3:0 4:0.00072553899 5:0.058984797 6:0.014230272 7:0.023285899 8:0.77957714 9:0.77379823 10:0.076054282 11:0.001776897 12:0.043956045 13:0.17914438 14:0.17363231 15:0.20991254 16:0.19317812 #
-2 1:0 2:0 3:0 4:0.00062189053 5:0.081963271 6:0.72289157 7:0.72244531 8:0.5395627 9:0.53645682 10:0.13540129 11:0.0037518335 12:0.054054055 13:0.17036012 14:0.22914998 15:0.20642202 16:0.26494128 #
2 1:0.0066889632 2:0.025641026 3:0.06666667 4:0.0066060079 5:0.38446453 6:0.14609572 7:0.050377835 8:0.88099211 9:0.88883251 10:0.74068731 11:0.18886334 12:0.84210527 13:0.59130436 14:0.58800447 15:0.61818182 16:0.60857576 #
-1.8158270417116000317037105560303 1:0.045351475 3:0.1388889 4:0.015595463 5:0.32214102 6:0.24928367 7:0.065902576 8:0.8722375 9:0.87948072 10:0.70527071 11:0.097368091 12:0.9464286 13:0.50151974 14:0.52794701 15:0.56869012 16:0.58878458 #
-2 1:0.0062337662 2:0 3:0.044077136 4:0.0017972635 5:0.55773467 6:0.24045546 7:0.22371066 8:0.91750634 9:0.91679943 10:0.70656657 11:0.25123993 12:0.28985506 13:0.50816697 14:0.45954305 15:0.5726496 16:0.48969072 #
-2 1:0.036231883 3:0.12244898 4:0.013223141 5:0.17693456 6:0.59219861 7:0.49113476 8:0.68297976 9:0.67565191 10:0.42499927 11:0.037363235 12:0.9464286 13:0.27436823 14:0.38293606 15:0.32941177 16:0.43534422 #
2 5:0.49975705 6:0.25158405 7:0.16287738 8:0.86822933 9:0.87027562 10:0.75377494 11:0.22447588 13:0.48883048 14:0.46206096 15:0.55059522 16:0.5046289 #
2 1:0.0064102565 2:0.024 3:0.043636363 4:0.0040168087 5:0.49746123 6:0.15931372 7:0.05882353 8:0.91372955 9:0.91935843 10:0.79155225 11:0.24445294 12:0.83333331 13:0.66108787 14:0.65845853 15:0.70386267 16:0.69937468 #
-2 1:0.0062015504 2:0 3:0.09765625 4:0.003961219 5:0.42171231 6:0.1838565 7:0.23811659 8:0.91761768 9:0.91959012 10:0.71833831 11:0.2042892 12:0.41666666 13:0.52424943 14:0.46766341 15:0.59685862 16:0.50671673 #
2 1:0.00086580089 3:0 4:3.2297656e-05 5:0.095260292 6:0.93065071 7:0.91738015 8:0.66965032 9:0.66271496 10:0.064057939 11:0 13:0.050239235 14:0.09261442 15:0.063186817 16:0.11051053 #
2 1:0.0060541308 2:0.043749999 3:0.077272728 4:0.004980843 5:0.43545103 6:0.17910448 7:0.02238806 8:0.85667789 9:0.8775984 10:0.76830679 11:0.23016962 12:0.85714287 13:0.57608694 14:0.61955088 15:0.62637365 16:0.65985304 #
-2 1:0.035916824 3:0.12244898 4:0.013223141 5:0.27023971 6:0.47469878 7:0.89397591 8:0.83494151 9:0.83964062 10:0.56957668 11:0.05431683 12:0.9464286 13:0.58119661 14:0.46136138 15:0.63228697 16:0.49354431 #
-2 1:0 2:0 3:0 4:0.00070921984 5:0.057342146 6:0.3945885 7:0.37880495 8:0.54936093 9:0.55154467 10:0.074586511 11:0.0080910018 12:0.045977011 13:0.1632653 14:0.18454331 15:0.2074074 16:0.22184525 #
2 1:0.0066889632 2:0.035714287 3:0.049382716 4:0.005189029 5:0.38218862 6:0.27540985 7:0.17704917 8:0.87147379 9:0.89320117 10:0.83622849 11:0.18976702 12:0.84210527 13:0.52910054 14:0.60095352 15:0.5955056 16:0.65753585 #
-2 1:0 2:0 3:0 4:0.0006291946 5:0.085692108 6:0.18167457 7:0.16587678 8:0.76093793 9:0.75774276 10:0.054368746 11:0.0022799519 12:0.043478262 13:0.18241042 14:0.19559917 15:0.23674911 16:0.22656997 #
2 1:0 2:0 3:0 4:0.00017683466 5:0.046382867 6:1.453202 7:2.1182265 8:0.58686608 9:0.58081788 10:0.063197017 11:0.0032787942 13:0.20175439 14:0.12471951 15:0.24299066 16:0.14368808 #
-2 1:0 2:0 3:0 4:0.00052380952 5:0.12914011 6:0.16269842 7:0.22751322 8:0.46586874 9:0.46855906 10:0.11733614 11:0.0075440789 12:0.075471699 13:0.26553673 14:0.22427042 15:0.30909091 16:0.25110665 #
2 1:0 3:0 4:0.00018303844 5:0.13118954 6:0.92252254 7:0.90315318 8:0.67046106 9:0.65133262 10:0.045233231 11:0 13:0.05029586 14:0.1172682 15:0.069421485 16:0.14642058 #
-1.5130308434395494110447089042282 1:0.0002954657 2:0.0040850095 3:0.024598394 4:0.00051768793 5:0.53060859 6:0.61479414 7:0.5593161 8:0.92111748 9:0.92938596 10:0.88314778 11:0.10799825 13:0.2775 14:0.40780142 15:0.31420764 16:0.44721699 #
-2 1:0 2:0 3:0 4:0.00067371473 5:0.098271593 6:0.62639111 7:0.60519344 8:0.62923688 9:0.61192667 10:0.069546819 11:0.0084044021 12:0.070175439 13:0.14434524 14:0.19359288 15:0.17391305 16:0.22445822 #
2 1:0.00019700552 2:0 3:0 4:0.00015205822 5:0.12599754 6:0.65601963 7:0.59950858 8:0.62585843 9:0.61314327 10:0.050811186 11:0.0031143015 13:0.10526316 14:0.11862307 15:0.12631579 16:0.12732498 #
2 1:0 3:0 4:0.00021818181 5:0.055518009 6:0.93053734 7:0.90956748 8:0.55627537 9:0.54588187 10:0.052918255 11:0 13:0.049397592 14:0.12183744 15:0.073275864 16:0.1628006 #
-2 1:0 2:0 3:0 4:0.00072016462 5:0.036402903 6:0.39906833 7:0.4083851 8:0.56359625 9:0.5609473 10:0.050394997 11:0 12:0.05479452 13:0.14920636 14:0.16194789 15:0.17770036 16:0.18492953 #
2 1:0 3:0 4:4.8441791e-05 5:0.11041643 6:0.95018029 7:0.935431 8:0.66334677 9:0.65392423 10:0.17376028 11:0.0034004361 13:0.059654631 14:0.15442404 15:0.081031308 16:0.18882208 #
-2 1:0 2:0 3:0 4:0.00062578224 5:0.12337028 6:0.35908321 7:0.35314092 8:0.65777558 9:0.66221124 10:0.14170417 11:0.0077337376 12:0.054054055 13:0.1969697 14:0.21124469 15:0.23584905 16:0.23954999 #
-2 1:0.00093984965 2:0.0090497741 3:0.051948052 4:0.0037136066 5:0.34584019 6:0.94117647 7:0.94358289 8:0.35945567 9:0.36289108 10:0.3228336 11:0.19045466 13:0.047358833 14:0.14385624 15:0.060240965 16:0.16973773 #
-2 1:0 2:0 3:0 4:0.00072178477 5:0.067419983 6:0.24566089 7:0.27102804 8:0.54635054 9:0.54687124 10:0.05398659 11:0.013246319 12:0.056338027 13:0.18181819 14:0.17370108 15:0.22666667 16:0.20437846 #
-2 1:0 2:0 3:0 4:0.00059737155 5:0.083023116 6:0.45397922 7:0.43875432 8:0.54539251 9:0.52998555 10:0.051316775 11:0.0033990368 12:0.059701491 13:0.16039281 14:0.18695623 15:0.19818182 16:0.21861297 #
2 1:0.0014204546 3:0 4:1.9679874e-05 5:0.034363963 6:0.92743498 7:0.90880871 8:0.60431498 9:0.59116989 10:0.041832477 11:0 13:0.047524754 14:0.091665536 15:0.067915693 16:0.1173589 #
-2 1:0 2:0 3:0 4:0.00074626866 5:0.053990554 6:0.71274298 7:0.72066236 8:0.50440943 9:0.51136935 10:0.045066882 11:0.0031726293 12:0.047058824 13:0.092485547 14:0.13028966 15:0.12068965 16:0.15880407 #
-2 1:0.0015760938 2:0.024305556 3:0.11428571 4:0.0072244625 5:0.21869667 6:0.71627408 7:0.64025694 8:0.84743589 9:0.84999681 10:0.55827481 11:0.058440432 13:0.25942349 14:0.4041537 15:0.28708133 16:0.42806938 #
2 1:0.0068933824 2:0.051948052 3:0.0625 4:0.0061983471 5:0.40964496 6:0.075539567 7:0.068345323 8:0.86770564 9:0.87928814 10:0.77981895 11:0.23247661 12:0.84210527 13:0.66473991 14:0.66857141 15:0.70059878 16:0.69438952 #
-2 1:0.0013339921 2:0.016233766 3:0.1 4:0.003565365 5:0.33552113 6:0.75658721 7:0.70012546 8:0.86517149 9:0.86848021 10:0.56979603 11:0.081662491 13:0.25591099 14:0.38244042 15:0.28824475 16:0.41680124 #
2 5:0.011019149 6:0.89587206 7:0.88880622 8:0.48442951 9:0.47347161 10:0.011109137 11:0 13:0.037552156 14:0.080032676 15:0.044303797 16:0.086971618 #
1.9808405954271393056842498481274 1:0 2:0 3:0 4:0.00017207261 5:0.028977778 6:0.64620936 7:0.66516244 8:0.8211295 9:0.81647843 10:0.039979834 11:0 13:0.062222224 14:0.095374614 15:0.070257612 16:0.10370012 #
-2 1:0.00042039237 2:0.0037568307 3:0.015625 4:0.0017006802 5:0.1388524 6:0.8608216 7:0.86020845 8:0.74806374 9:0.74787605 10:0.43087456 11:0.016509943 13:0.085790887 14:0.19836374 15:0.10324484 16:0.22325397 #
-2 1:0 2:0 3:0 4:0.00065690692 5:0.13600002 6:0.13519552 7:0.16759777 8:0.56891698 9:0.56020683 10:0.12766822 11:0.013270642 12:0.051282052 13:0.18087855 14:0.17642811 15:0.22005571 16:0.19809705 #
2 1:0.0068150843 2:0.050000001 3:0.050000001 4:0.0050750459 5:0.26200587 6:0.13333334 7:0.031372551 8:0.83058739 9:0.83548629 10:0.67430806 11:0.16981234 12:0.84210527 13:0.52147239 14:0.54469669 15:0.54487181 16:0.56322277 #
2 1:0 3:0 4:4.8441791e-05 5:0.14943308 6:0.88102263 7:0.85086858 8:0.76189393 9:0.7370922 10:0.10349506 11:0.0086744502 13:0.08948195 14:0.15117639 15:0.11970534 16:0.17820932 #
-2 1:0.0081908833 2:0 3:0.16454081 4:0.0021424217 5:0.59894735 6:0.24736337 7:0.25167784 8:0.90702099 9:0.90984827 10:0.80977738 11:0.38762304 12:0.41666666 13:0.56022412 14:0.50947809 15:0.605178 16:0.52601814 #
-2 1:0.049861494 3:0.12244898 4:0.013223141 5:0.143595 6:0.13147411 7:0.031872511 8:0.73326278 9:0.73310256 10:0.54080456 11:0.024193745 12:0.9464286 13:0.41379312 14:0.40419516 15:0.47794119 16:0.45971137 #
-2 1:0.00021240345 2:0.0021158855 3:0.080555558 4:0.0006901673 5:0.3551237 6:0.52470356 7:0.520751 8:0.90337473 9:0.90137464 10:0.61064214 11:0.074870132 13:0.24247226 14:0.3363286 15:0.28003457 16:0.36965305 #
-2 1:0.0013013013 2:0.018039215 3:0.14285715 4:0.0088315215 5:0.21585129 6:0.78319919 7:0.73742455 8:0.83765662 9:0.83303493 10:0.43858942 11:0.03737542 13:0.18929017 14:0.33705029 15:0.2140884 16:0.35933197 #
-2 1:0.00018955256 2:0.0029120559 3:0.017241379 4:0.0013126659 5:0.048244886 6:0.53399432 7:0.72946173 8:0.58620429 9:0.58570969 10:0.28310102 11:0.0082832957 13:0.095238097 14:0.16534247 15:0.1160221 16:0.18928908 #
-2 1:0.011008705 3:0.12439156 4:0.0021928106 5:0.19383548 6:0.38403043 7:0.26615968 8:0.78436327 9:0.789976 10:0.3343237 11:0.024279855 12:0.9464286 13:0.25806451 14:0.30845183 15:0.3051948 16:0.34718746 #
-2 1:0.018365473 3:0.12244898 4:0.013223141 5:0.24950771 6:0.26011559 7:0.05202312 8:0.77864051 9:0.78184968 10:0.35504815 11:0.070525862 12:0.9464286 13:0.35344827 14:0.38067544 15:0.38793105 16:0.42422637 #
2 1:0 3:0 4:0.00011604518 5:0.012215856 6:0.8659392 7:0.83008575 8:0.46158859 9:0.44983527 10:0.020776 11:0 13:0.045267489 14:0.068988308 15:0.056034483 16:0.078239463 #
2 1:0.0073529412 2:0.050000001 3:0.05882353 4:0.005859375 5:0.34183785 6:0.1072797 7:0.019157087 8:0.84850335 9:0.87032926 10:0.76728064 11:0.16483073 12:0.84615386 13:0.60227275 14:0.62391812 15:0.62352943 16:0.65090722 #
-2 1:0.010833963 3:0.12439156 4:0.0021928106 5:0.10624921 6:0.10588235 7:0.31176472 8:0.74877119 9:0.75164795 10:0.29235169 11:0.017206181 12:0.9464286 13:0.30275229 14:0.26769865 15:0.33644861 16:0.28044665 #
2 1:0.0073575783 2:0.042105265 3:0.059090909 4:0.0050824927 5:0.31399906 6:0.11413044 7:0.11141305 8:0.78202206 9:0.7935034 10:0.85506451 11:0.17382808 12:0.83333331 13:0.58222222 14:0.59882575 15:0.63636363 16:0.6409806 #
-2 1:0.045351475 3:0.1388889 4:0.015595463 5:0.29387444 6:0.25794393 7:0.028037382 8:0.87857622 9:0.88279688 10:0.48573482 11:0.059651695 12:0.9464286 13:0.44649446 14:0.4759894 15:0.5 16:0.51532531 #
2 1:0 3:0 4:0.00035419126 5:0.020409226 6:0.94285715 7:0.92352939 8:0.33124223 9:0.32754126 10:0.01406549 11:0 13:0.028017242 14:0.074856184 15:0.03233831 16:0.080421776 #
2 1:0.0073313783 2:0.050000001 3:0.06666667 4:0.0066609979 5:0.35606834 6:0.068322979 7:0.01242236 8:0.77231747 9:0.79097211 10:0.78826076 11:0.16668417 12:0.84210527 13:0.5714286 14:0.55491245 15:0.62 16:0.59659529 #
-2 1:0.00021339381 2:0.0022105263 3:0.083333336 4:0.00076078391 5:0.21074043 6:0.68887687 7:0.62397408 8:0.71977633 9:0.71871829 10:0.55337137 11:0.040909011 13:0.23382045 14:0.36068287 15:0.27759036 16:0.40768608 #
2 1:0.0063064955 2:0.026041666 3:0.05882353 4:0.005859375 5:0.19881734 6:0.13438736 7:0.031620555 8:0.75401938 9:0.77648866 10:0.81841874 11:0.095886618 12:0.84210527 13:0.5714286 14:0.59949315 15:0.62237763 16:0.63586026 #
-2 1:0.01375 3:0.12439156 4:0.0021928106 5:0.20630395 6:0.58823532 7:0.97478992 8:0.74000734 9:0.74082756 10:0.43371576 11:0.067828186 12:0.9464286 13:0.48863637 14:0.38066515 15:0.51724136 16:0.40344548 #
-2 1:0.00079387316 2:0.010884354 3:0.06666667 4:0.0047363034 5:0.093382448 6:0.90202278 7:0.90581542 8:0.18543971 9:0.18575022 10:0.10045905 11:0.016904071 13:0.054927301 14:0.14485671 15:0.064981952 16:0.1639789 #
-2 1:0.043290045 3:0.12244898 4:0.013223141 5:0.37954926 6:0.25836432 7:0.022304833 8:0.85496598 9:0.85183728 10:0.4672735 11:0.17809115 12:0.9464286 13:0.41114983 14:0.43740541 15:0.4375 16:0.46575433 #
2 1:0 3:0 4:0.00041958041 5:0.036420979 6:0.94448948 7:0.93111831 8:0.38025555 9:0.37634405 10:0.050542291 11:0 13:0.036544852 14:0.083979256 15:0.043071162 16:0.094047703 #
-2 1:0.0016078531 2:0.010839574 3:0.095238097 4:0.0081665982 5:0.11336775 6:0.72031248 7:0.65937501 8:0.70316511 9:0.71110785 10:0.52083582 11:0.019055206 13:0.19277108 14:0.29997265 15:0.20125785 16:0.30551103 #
2 1:0.0069371453 2:0.040723983 3:0.055555556 4:0.0055321143 5:0.28524935 6:0.10606061 7:0.018939395 8:0.78335136 9:0.79548132 10:0.7468068 11:0.15519391 12:0.83333331 13:0.54901963 14:0.56050956 15:0.60000002 16:0.58991528 #
2 1:0 3:0 4:9.3080984e-05 5:0.0088827619 6:0.98856211 7:0.98692811 8:0.41986829 9:0.41652918 10:0.0387123 11:0 13:0.019704433 14:0.070186242 15:0.025423728 16:0.085913226 #
-2 1:0.0014007172 2:0.031135531 3:0.125 4:0.01055936 5:0.26475504 6:0.78434503 7:0.7939297 8:0.63798147 9:0.63793606 10:0.54294705 11:0.190981 13:0.1875 14:0.38355625 15:0.19318181 16:0.39545578 #
2 1:0.0073529412 2:0.048484847 3:0.055555556 4:0.0055707376 5:0.36177546 6:0.15725806 7:0.012096774 8:0.77812475 9:0.79518819 10:0.86642206 11:0.1871869 12:0.83333331 13:0.6100629 14:0.60740769 15:0.67320263 16:0.66037852 #
-2 1:0.0016366612 2:0.042016808 3:0.1 4:0.0077700079 5:0 6:0.96879876 7:0.97347891 8:0.32242557 9:0.32576722 10:0.15743944 11:0 13:0.031042129 14:0.13745984 15:0.03626943 16:0.14858346 #
-2 1:0.021683674 3:0.12244898 4:0.013223141 5:0.18237092 6:0.27196652 7:0.085774057 8:0.83346879 9:0.83504254 10:0.47647205 11:0.03244479 12:0.9464286 13:0.38515902 14:0.40974584 15:0.43656716 16:0.45201042 #
2 5:0.086397089 6:0.79489106 7:0.77460557 8:0.52714115 9:0.51850551 10:0.11218068 11:0 13:0.060394891 14:0.12822865 15:0.067602038 16:0.14108524 #
2 1:0 3:0 4:0.00035419126 5:0.017037189 6:0.9099291 7:0.8865248 8:0.33575034 9:0.33134064 10:0.021012774 11:0 13:0.03773585 14:0.073096707 15:0.052777778 16:0.094622262 #
-2 1:0.00044488933 2:0.0063715628 3:0.06818182 4:0.0043037976 5:0.23058742 6:0.81552941 7:0.792 8:0.79603207 9:0.79821914 10:0.55772603 11:0.074056894 13:0.1539394 14:0.31893533 15:0.16600791 16:0.33625117 #
-2 1:0.037878789 3:0.12244898 4:0.013223141 5:0.14507021 6:1.005291 7:1.4285715 8:0.68218493 9:0.70688117 10:0.39269337 11:0.026402878 12:0.9464286 13:0.456 14:0.35336944 15:0.48760331 16:0.36751032 #
-2 1:0.00067488599 2:0.0067287786 3:0.057692308 4:0.0037161352 5:0.082282148 6:0.97712582 7:0.97314769 8:0.55492288 9:0.5628463 10:0.35654595 11:0.015508303 13:0.034792367 14:0.15628548 15:0.03875 16:0.16338435 #
2 1:0 3:0 4:0.00011129248 5:0.10289444 6:0.97450978 7:0.96372551 8:0.57261842 9:0.55888397 10:0.051114213 11:0 13:0.044334974 14:0.11022877 15:0.053672317 16:0.1206988 #
2 1:0.0058479533 2:0.027777778 3:0.062200956 4:0.0052246605 5:0.27934602 6:0.095360823 7:0.087628864 8:0.82562399 9:0.8337211 10:0.75482285 11:0.098852448 12:0.83333331 13:0.61458331 14:0.60268813 15:0.64864862 16:0.63506287 #
2 5:0.034314688 6:0.89632994 7:0.89935678 8:0.50219941 9:0.49329284 10:0.0085895937 11:0 13:0.021403091 14:0.053641934 15:0.02670227 16:0.060480122 #
-2 1:0.00036508075 2:0.0044281865 3:0.024 4:0.001678134 5:0.1811009 6:0.98707193 7:0.98404622 8:0.67794621 9:0.68368095 10:0.36105466 11:0.021489846 13:0.026339285 14:0.1489975 15:0.030927835 16:0.16519463 #
2 1:0.0070869992 2:0.052083332 3:0.0625 4:0.0062691742 5:0.31424376 6:0.16358025 7:0.046296295 8:0.87161028 9:0.87870067 10:0.76790875 11:0.10631464 12:0.85000002 13:0.58378381 14:0.59042555 15:0.64044946 16:0.63511968 #
2 1:0.0070480928 2:0.039215688 3:0.052631579 4:0.0052594044 5:0.48574451 6:0.14814815 7:0.025641026 8:0.86123359 9:0.87031275 10:0.80105895 11:0.27243879 12:0.85000002 13:0.61057693 14:0.64420408 15:0.65151513 16:0.6686182 #
-2 1:0.0015493581 2:0.01489573 3:0.071428575 4:0.0063105212 5:0.40699548 6:0.73059654 7:0.71007055 8:0.66363817 9:0.67424369 10:0.47381881 11:0.07567399 13:0.17713365 14:0.29914567 15:0.20567375 16:0.33467913 #
-2 1:0.006642512 2:0 3:0.036604896 4:0.00060508749 5:0.54924005 6:0.24942642 7:0.25270402 8:0.91280586 9:0.91960192 10:0.63468462 11:0.1616638 12:0.28985506 13:0.49607536 14:0.44681233 15:0.5451197 16:0.46476296 #
2 1:0.00017559262 2:0 3:0 4:0.00010561893 5:0.091739833 6:0.94311571 7:0.92727858 8:0.58276033 9:0.57045472 10:0.064732075 11:0 13:0.056798622 14:0.11545807 15:0.074534163 16:0.13698119 #
-2 1:0.045351475 3:0.095238097 4:0.010695187 5:0.092703484 6:0.29588014 7:0.11235955 8:0.66393739 9:0.68118656 10:0.37425315 11:0.0091059729 12:0.9464286 13:0.30952382 14:0.33355394 15:0.36363637 16:0.3763994 #
2 1:0.0061919503 2:0.020833334 3:0.045454547 4:0.0045818123 5:0.53109759 6:0.21372032 7:0.079155676 8:0.91730535 9:0.922279 10:0.87043601 11:0.34603411 12:0.85365856 13:0.6681416 14:0.70193976 15:0.70754719 16:0.73029244 #
2 5:0.0170465 6:0.89893031 7:0.90188122 8:0.50611889 9:0.49907765 10:0.0037631546 11:0 13:0.020592021 14:0.049930509 15:0.02489019 16:0.05383468 #
-2 1:0.061904762 3:0.12244898 4:0.013223141 5:0.22559945 6:0.87165773 7:1.1818181 8:0.74912715 9:0.75708658 10:0.61035353 11:0.090085283 12:0.9464286 13:0.55725193 14:0.42957139 15:0.62096775 16:0.46098694 #
2 1:0 3:0 4:0.0001013856 5:0.0426399 6:0.97915328 7:0.97145605 8:0.64193845 9:0.62697279 10:0.028481653 11:0 13:0.033492822 14:0.084934324 15:0.041208792 16:0.097517796 #
-2 1:0.036231883 3:0.1388889 4:0.015595463 5:0.18776691 6:0.11666667 7:0.41111112 8:0.67896968 9:0.68319082 10:0.43766055 11:0.093250483 12:0.9464286 13:0.47368422 14:0.41714081 15:0.49541286 16:0.43404657 #
-2 1:0.031746034 3:0.12244898 4:0.013223141 5:0.19197693 6:0.2860465 7:0.12325581 8:0.75651079 9:0.77497429 10:0.47512978 11:0.037586544 12:0.9464286 13:0.43137255 14:0.44446555 15:0.45528457 16:0.45808634 #
-2 1:0.00089230767 2:0.021551725 3:0.1 4:0.0077763768 5:0.15118673 6:0.84446877 7:0.84994525 8:0.64926875 9:0.62764579 10:0.31295282 11:0.01357493 13:0.071759261 14:0.17222223 15:0.078328982 16:0.18192513 #
2 1:0.0059984522 2:0.029166667 3:0.049242426 4:0.0043437583 5:0.33703628 6:0.11574074 7:0.018518519 8:0.83148324 9:0.84295171 10:0.74309987 11:0.11990213 12:0.84210527 13:0.59558821 14:0.59501648 15:0.63636363 16:0.62237591 #
2 1:0.0021947874 3:0 4:1.7823193e-05 5:0.04847949 6:0.97271532 7:0.96548325 8:0.57408094 9:0.54787695 10:0.01948582 11:0 13:0.032036614 14:0.080045752 15:0.03773585 16:0.088142753 #
-2 1:0.00055593794 2:0.00795756 3:0.054545455 4:0.0037087291 5:0.17196906 6:0.74835742 7:0.72601837 8:0.7527948 9:0.75895572 10:0.63832062 11:0.013736374 13:0.15854824 14:0.29019558 15:0.18880351 16:0.32955936 #
2 1:0.006095238 2:0.029999999 3:0.034632035 4:0.0041527622 5:0.32722577 6:0.16176471 7:0.040441178 8:0.7828114 9:0.78977096 10:0.72948575 11:0.18287924 12:0.84210527 13:0.51875001 14:0.54894716 15:0.59868419 16:0.62605458 #
2 1:0.005860806 2:0.052083332 3:0.027548209 4:0.0028882576 5:0.45646536 6:0.14732143 7:0.035714287 8:0.8770296 9:0.89147246 10:0.78108525 11:0.28718325 12:0.84210527 13:0.54966885 14:0.59756589 15:0.59027779 16:0.62854421 #
2 1:0.0069124424 2:0.03125 3:0.050000001 4:0.0050750459 5:0.47909561 6:0.15359478 7:0.035947714 8:0.88729841 9:0.88633001 10:0.8023203 11:0.27279222 12:0.85714287 13:0.64361703 14:0.66709459 15:0.66101694 16:0.67849177 #
2 1:0.0060439561 2:0.028985508 3:0.064393938 4:0.0041973395 5:0.33548942 6:0.12130178 7:0.068047337 8:0.87480056 9:0.878016 10:0.70289117 11:0.14740399 12:0.83333331 13:0.6056338 14:0.61470014 15:0.63414633 16:0.63883799 #
2 1:0.0071428572 2:0.03167421 3:0.0625 4:0.0061721937 5:0.5184387 6:0.073604062 7:0.007614213 8:0.89165688 9:0.89984465 10:0.8338936 11:0.29197359 12:0.85365856 13:0.70386267 14:0.71434593 15:0.73239434 16:0.73239434 #
-2 1:0.034420289 3:0.12244898 4:0.013223141 5:0.18682447 6:0.20384616 7:0.0038461538 8:0.79620862 9:0.80948728 10:0.4405697 11:0.039047848 12:0.9464286 13:0.38181818 14:0.37986377 15:0.41975307 16:0.41218933 #
2 1:0 3:0 4:0.00010611956 5:0.071453981 6:0.95618397 7:0.93784958 8:0.53607464 9:0.52413589 10:0.053497214 11:0.001519648 13:0.047034767 14:0.10907052 15:0.071770333 16:0.14600658 #
2 1:0 2:0 3:0 4:0.00012444002 5:0.15063579 6:0.86940926 7:0.84092826 8:0.57592022 9:0.57228643 10:0.04255968 11:0.0045436015 13:0.089376055 14:0.11645256 15:0.11296296 16:0.13628435 #
2 1:0.0071348939 2:0.042735044 3:0.06666667 4:0.0066060079 5:0.29381686 6:0.078873239 7:0.10140845 8:0.80826646 9:0.81400406 10:0.6360997 11:0.13469836 12:0.84615386 13:0.56132078 14:0.56739014 15:0.61083746 16:0.60933846 #
-2 1:0.034545455 3:0.10204082 4:0.012561983 5:0.35218892 6:0.3594203 7:0.12173913 8:0.87574482 9:0.87882721 10:0.64803898 11:0.065021947 12:0.9464286 13:0.46264368 14:0.49009362 15:0.50903612 16:0.52849674 #
2 5:0.020355625 6:0.89996266 7:0.88951099 8:0.47824508 9:0.4719291 10:0.0099196071 11:0 13:0.030456852 14:0.063903056 15:0.035410766 16:0.070721425 #
2 1:0 3:0 4:0.00010611956 5:0.043610252 6:0.96022373 7:0.9527657 8:0.62318742 9:0.60420793 10:0.1008637 11:0 13:0.055214725 14:0.13259871 15:0.074162677 16:0.16256009 #
2 1:0 3:0 4:0.00018303844 5:0.049170755 6:0.94837999 7:0.92970896 8:0.54935002 9:0.53847498 10:0.035772454 11:0 13:0.040084388 14:0.10196255 15:0.051219512 16:0.11523512 #
-2 1:0.021403091 3:0.10204082 4:0.012561983 5:0.12838447 6:0.24489796 7:0.086734697 8:0.6478377 9:0.64867008 10:0.52856296 11:0.030284682 12:0.9464286 13:0.33566433 14:0.36991397 15:0.375 16:0.39272621 #
2 1:0.0069515435 2:0.036437247 3:0.055 4:0.0051230369 5:0.39525634 6:0.09898477 7:0.058375634 8:0.88820499 9:0.89220482 10:0.82486457 11:0.19973929 12:0.84210527 13:0.65546221 14:0.67093182 15:0.69469029 16:0.69934744 #
-2 1:0.044321328 3:0.12244898 4:0.013223141 5:0.28206012 6:0.49076775 7:0.34888241 8:0.84141606 9:0.84308332 10:0.64768189 11:0.094808683 12:0.9464286 13:0.45553145 14:0.51899993 15:0.5081585 16:0.56339777 #
1.7193442331831749747550475149183 1:0 3:0 4:0.00025488529 5:0.096257091 6:2.4474709 7:3.0486381 8:0.66745919 9:0.62759352 10:0.0421356 11:0 13:0.17777778 14:0.13954508 15:0.203125 16:0.15709467 #
-2 1:0.049861494 3:0.12244898 4:0.013223141 5:0.14885582 6:0.16666667 7:0.047619049 8:0.67759663 9:0.67964399 10:0.4460699 11:0.045162231 12:0.9464286 13:0.36842105 14:0.37336653 15:0.40909091 16:0.41096318 #
-2 1:0.040476192 3:0.12244898 4:0.013223141 5:0.33980459 6:0.27883211 7:0.052554745 8:0.9104234 9:0.90962833 10:0.63259953 11:0.083219841 12:0.9464286 13:0.49404761 14:0.50077718 15:0.5316456 16:0.5316456 #
-2 1:0.043290045 3:0.12244898 4:0.013223141 5:0.26282352 6:0.46489859 7:0.2979719 8:0.84129477 9:0.84464991 10:0.70630497 11:0.11664369 12:0.9464286 13:0.45973155 14:0.52916396 15:0.51601422 16:0.57924515 #
-2 1:0.052469134 3:0.12244898 4:0.013223141 5:0.20283991 6:0.3354232 7:0.18181819 8:0.73394346 9:0.73875165 10:0.66767001 11:0.087750472 12:0.9464286 13:0.44148937 14:0.48779663 15:0.46994534 16:0.5139575 #
2 1:0.0067663817 2:0.036931816 3:0.090909094 4:0.0046296297 5:0.48382568 6:0.11747851 7:0.051575933 8:0.88404834 9:0.88703626 10:0.81764317 11:0.29508445 12:0.84210527 13:0.72680414 14:0.7194252 15:0.73655915 16:0.72876465 #
-1.5538050054533414368052035570145 1:0.0075866706 3:0.14602713 4:0.00077411882 5:0.093275316 6:0.3306773 7:0.69322711 8:0.71186435 9:0.71957004 10:0.31466237 11:0.0066697798 12:0.9464286 13:0.35624999 14:0.31408268 15:0.40764332 16:0.34358487 #
-2 1:0.0392562 3:0.12244898 4:0.013223141 5:0.13751012 6:0.1368421 7:0.021052632 8:0.6928221 9:0.73024613 10:0.45639101 11:0.034815531 12:0.9464286 13:0.32352942 14:0.34881109 15:0.36923078 16:0.39429125 #
2 1:0 3:0 4:0.00016330974 5:0.1209737 6:0.86068857 7:0.80464369 8:0.59593385 9:0.57750273 10:0.034477945 11:0 13:0.081818178 14:0.10043492 15:0.092783503 16:0.10883337 #
2 5:0.53878981 6:0.1523525 7:0.034353994 8:0.91149509 9:0.91532433 10:0.91077042 11:0.23092288 13:0.58757061 14:0.60273951 15:0.63864493 16:0.64391804 #
2 1:0.0075811418 2:0.051282052 3:0.06666667 4:0.0066060079 5:0.34706685 6:0.11733333 7:0.077333331 8:0.86630189 9:0.87067294 10:0.71666282 11:0.17905895 12:0.84210527 13:0.60580915 14:0.6122449 15:0.63478261 16:0.62666136 #
2 1:0.0058275056 2:0.050000001 3:0.037037037 4:0.0038062844 5:0.35085791 6:0.12835822 7:0.044776119 8:0.82579958 9:0.83285415 10:0.67109179 11:0.15933421 12:0.85000002 13:0.54081631 14:0.5642938 15:0.57837838 16:0.59638029 #
2 5:0.074181594 6:0.86814344 7:0.8347398 8:0.69449025 9:0.68271428 10:0.056181934 11:0.0025993879 13:0.05820106 14:0.12698591 15:0.073199525 16:0.14108557 #
-2 1:0.043062203 3:0.12244898 4:0.013223141 5:0.28131676 6:0.2143928 7:0.0059970017 8:0.80449337 9:0.81302398 10:0.64189267 11:0.056487836 12:0.9464286 13:0.46666667 14:0.49337617 15:0.50649351 16:0.52287793 #
-2 1:0.037807185 3:0.12244898 4:0.013223141 5:0.12697391 6:0.11607143 7:0.086309522 8:0.66868764 9:0.66111457 10:0.46222448 11:0.018763198 12:0.9464286 13:0.36868685 14:0.37208924 15:0.40932643 16:0.39911717 #
2 1:0.0063820421 2:0.035714287 3:0.052631579 4:0.0054454873 5:0.32374606 6:0.13455658 7:0.018348623 8:0.86117649 9:0.87064636 10:0.698035 11:0.1538471 12:0.84615386 13:0.59162301 14:0.59793812 15:0.63736266 16:0.62710947 #
0.6019901913029577222857824381208 5:0.011867987 6:0.86257625 7:0.86114103 8:0.40558729 9:0.39533859 10:0.0075002708 11:0 13:0.041939713 14:0.08161319 15:0.050670642 16:0.090146676 #
-2 1:0.033043478 3:0.1388889 4:0.015595463 5:0.18556572 6:0.25617284 7:0.08024691 8:0.76832545 9:0.77590132 10:0.61183679 11:0.049968779 12:0.9464286 13:0.44262296 14:0.45923504 15:0.44970414 16:0.46657386 #
2 1:0.0058399173 2:0.030092593 3:0.04137931 4:0.0035228087 5:0.35197064 6:0.1594203 7:0.020289855 8:0.89114147 9:0.89407301 10:0.6764943 11:0.15313362 12:0.83333331 13:0.58604652 14:0.6014787 15:0.6195122 16:0.62720829 #
2 1:0.007147362 2:0.050000001 3:0.052631579 4:0.0052594044 5:0.22768912 6:0.1 7:0.022222223 8:0.77377361 9:0.79137683 10:0.64707792 11:0.10249238 12:0.84210527 13:0.54205608 14:0.55708343 15:0.61165047 16:0.61017126 #
0.018242257849910403777471401554067 1:0.0056703859 2:0.043749999 3:0.048 4:0.003755738 5:0.4120447 6:0.069948189 7:0.0077720205 8:0.84223759 9:0.84198093 10:0.81995261 11:0.25565326 12:0.84210527 13:0.66367716 14:0.67115605 15:0.69483566 16:0.69647253 #
0.018709616197156719863414764404297 1:0.0069444445 2:0.036363635 3:0.05882353 4:0.0058346521 5:0.43567306 6:0.16666667 7:0.02020202 8:0.8860985 9:0.8869915 10:0.76465029 11:0.26943466 12:0.85365856 13:0.66666669 14:0.65947479 15:0.67741936 16:0.66974729 #
