SVM-light Version V6.02
0 # kernel type
3 # kernel parameter -d 
1 # kernel parameter -g 
1 # kernel parameter -s 
1 # kernel parameter -r 
empty# kernel parameter -u 
16 # highest feature index 
1392 # number of training documents 
377 # number of support vectors plus 1 
-1.003628 # threshold b, each following line is a SV (starting with alpha*y)
-2 1:0 3:0 4:0.0016087516 5:0.29792288 6:0.13798977 7:0.29131174 8:0.83552438 9:0.83375961 10:0.49005035 11:0.027940577 12:0.088888891 13:0.30258304 14:0.27256986 15:0.35039371 16:0.29892376 #
2 5:0.094646715 6:0.76892561 7:0.71008265 8:0.73949271 9:0.71716267 10:0.075848877 11:0.00050583814 13:0.12953368 14:0.15587555 15:0.16237624 16:0.18267609 #
2 1:0.0060748579 2:0.024691358 3:0.03125 4:0.0034719948 5:0.24211867 6:0.19407009 7:0.008086253 8:0.84129804 9:0.86537254 10:0.90490156 11:0.0621121 12:0.85000002 13:0.50218338 14:0.530092 15:0.53669727 16:0.54552716 #
-2 1:0.0018104016 2:0.028213166 3:0.050000001 4:0.0036325895 5:0.17079097 6:0.55045873 7:0.48457047 8:0.54504925 9:0.54049945 10:0.45509481 11:0.049049288 13:0.20255475 14:0.31019059 15:0.23123732 16:0.33492491 #
2 1:0.0068933824 2:0.028571429 3:0.0625 4:0.0061983471 5:0.42675376 6:0.22525597 7:0.017064847 8:0.88292956 9:0.89287829 10:0.84515071 11:0.23710452 12:0.84615386 13:0.60451978 14:0.61410642 15:0.63855422 16:0.6347419 #
-2 5:0.63206142 6:0.037355371 7:0.092561983 8:0.94677013 9:0.94962448 10:0.83012843 11:0.37445483 12:0.75 13:0.63903284 14:0.57526547 15:0.65742576 16:0.59477103 #
2 5:0.69204134 6:0.15378845 7:0.064516127 8:0.9611252 9:0.96237451 10:0.9789896 11:0.44165805 12:0.875 13:0.80941707 14:0.79146528 15:0.83173078 16:0.81243044 #
1.2175413002059380929154031036887 1:0.00089285715 2:0 3:0 4:3.4711375e-05 #
-2 5:0.22437477 6:0.87676829 7:0.8582207 8:0.68636274 9:0.6891253 10:0.47202417 11:0.016775317 12:0.029850746 13:0.1159844 14:0.24271891 15:0.13581599 16:0.26111862 #
-2 1:0 3:0 4:0.0016501651 5:0.30393508 6:2.0596547 7:2.6295133 8:0.89859998 9:0.90042627 10:0.68037266 11:0.10123537 12:0.064516127 13:0.44015443 14:0.27402651 15:0.51028806 16:0.30986735 #
-2 5:0.72623962 6:0.17167722 7:0.14161393 8:0.94433725 9:0.94542581 10:0.86038935 11:0.47420004 12:0.68421054 13:0.73909247 14:0.74961734 15:0.77044028 16:0.76484859 #
-2 1:0.036363635 2:0.015625 3:0.16083916 4:0.0099700894 5:0.16730408 6:14.264865 7:15.778378 8:0.65011394 9:0.65145922 10:0.077809222 11:0.027397292 12:0.16304348 13:0.43362832 14:0.143719 15:0.47706422 16:0.15950996 #
-2 1:0.023351649 3:0.12244898 4:0.013223141 5:0.24780621 6:0.22175732 7:0.043933053 8:0.85405141 9:0.86022562 10:0.54839426 11:0.082146756 12:0.9464286 13:0.47349823 14:0.48499298 15:0.52985072 16:0.52985072 #
-2 1:0.037807185 3:0.12244898 4:0.013223141 5:0.27823919 6:0.13978495 7:0.026881721 8:0.72804135 9:0.74404359 10:0.58483654 11:0.11955598 12:0.9464286 13:0.51999998 14:0.53176278 15:0.53278691 16:0.55116421 #
-2 1:0.0097285071 3:0.12439156 4:0.0021928106 5:0.15473019 6:0.32374102 7:0.12230216 8:0.67861158 9:0.68232304 10:0.35653201 11:0.034847226 12:0.9464286 13:0.25773194 14:0.27214134 15:0.2857143 16:0.29390261 #
2 1:0.0064045545 2:0.028124999 3:0.13360325 4:0.0051556746 5:0.34257036 6:0.037037037 7:0.16460906 8:0.8105579 9:0.81898218 10:0.76302946 11:0.20457031 12:0.85000002 13:0.65217394 14:0.619533 15:0.6855346 16:0.64791483 #
2 1:0.0015135327 2:0.04296875 3:0.09490741 4:0.0021416505 12:0.23232323 #
-2 1:0.022222223 3:0.12244898 4:0.013223141 5:0 6:0.57692307 7:0.46153846 8:0.13693064 9:0.13693064 10:0.097947486 11:0 12:0.9464286 13:0.125 14:0.16984156 15:0.125 16:0.16984156 #
-2 1:0.0065323566 3:0.15135659 4:0.00072188058 5:0.017056057 6:0.81274903 7:0.78087652 8:0.45748889 9:0.46285984 10:0.25176328 11:0 12:0.9464286 13:0.1 14:0.20673373 15:0.11464968 16:0.22166546 #
-2 5:0.59264791 6:0.0072669825 7:0.075829387 8:0.89221829 9:0.89858413 10:0.65055287 11:0.37168294 12:0.66101694 13:0.8018868 14:0.77296436 15:0.83630472 16:0.79838574 #
2 12:0.11428571 #
-2 1:0.00047597114 2:0.0043285023 3:0.033333335 4:0.0020833334 6:0.76105803 #
-2 1:0.0022988506 2:0.013227513 3:0.03846154 4:0.0037433156 5:0.66936773 7:0.16661751 8:0.95193857 9:0.95461124 10:0.94481421 11:0.42308697 13:0.75340599 14:0.69108617 15:0.78995436 16:0.7167756 #
-2 1:0.038961038 3:0.12244898 4:0.013223141 5:0.35143614 6:0.22740525 7:0.052478135 8:0.85169345 9:0.86034411 10:0.69558543 11:0.18359831 12:0.9464286 13:0.58397931 14:0.59592545 15:0.63988918 16:0.63463694 #
2.2776034001026346231810748577118e-05 1:0.00016377334 2:0 3:0 4:0.00015350826 5:0.11661751 6:0.91196269 7:0.89694458 8:0.70666963 9:0.67614716 10:0.063441284 11:0 13:0.096491225 14:0.15853408 15:0.13675214 16:0.20176128 #
2 1:0.0058399173 2:0.030092593 3:0.04137931 4:0.0035228087 5:0.40371802 6:0.11304348 7:0.14782609 8:0.88362575 9:0.88828337 10:0.76291537 11:0.24291596 12:0.83333331 13:0.61860466 14:0.61681968 15:0.6682927 16:0.65408885 #
-2 1:0.00055290619 2:0.0048928857 3:0.10666667 4:0.0039113429 5:0.21535154 6:0.55650687 7:0.5 8:0.81065232 9:0.8147791 10:0.50413972 11:0.041859705 13:0.24003795 14:0.32889602 15:0.28479657 16:0.36846063 #
-2 5:0.18471734 6:0.7614314 7:0.73260438 8:0.64571953 9:0.64891481 10:0.30972475 11:0.014205131 12:0.030534351 13:0.18231292 14:0.29538539 15:0.21764706 16:0.32444909 #
2 1:0.0060457205 2:0.029999999 3:0.03846154 4:0.003928836 5:0.4450759 6:0.14687499 7:0.0093750004 8:0.87730926 9:0.89156204 10:0.801368 11:0.19190061 12:0.84210527 13:0.57446808 14:0.58201873 15:0.63687152 16:0.63687152 #
2 1:0.0066889632 2:0.018181818 3:0.06666667 4:0.0066060079 5:0.36727515 6:0.10638298 7:0.051063828 8:0.83852822 9:0.8584699 10:0.7701506 11:0.13954093 12:0.85365856 13:0.5109489 14:0.51235956 15:0.53846157 16:0.52073765 #
2 1:0.0063381721 2:0.028340081 3:0.059999999 4:0.0050123185 5:0.44110265 6:0.10617284 7:0.10123457 8:0.87952906 9:0.89809728 10:0.7519961 11:0.16496216 12:0.85000002 13:0.58371043 14:0.57103521 15:0.65853661 16:0.62858725 #
2 1:0.0056189639 2:0.025078369 3:0.03125 4:0.0032197635 5:0.38663 6:0.11374407 7:0.19905214 8:0.85749608 9:0.87201345 10:0.7707395 11:0.1629988 12:0.83333331 13:0.59842521 14:0.54521275 15:0.66393441 16:0.60280138 #
2 1:0.0032840723 2:0.035 3:0.047325104 4:0.00054986018 5:0.67785698 6:0.10403083 7:0.064908125 8:0.9728803 9:0.97506571 10:0.87383038 11:0.20076445 12:0.16666667 13:0.61780506 14:0.60339671 15:0.68625754 16:0.65347427 #
2 1:0.0061116964 2:0.03125 3:0.047619049 4:0.0048159929 5:0.23229672 6:0.06666667 7:0.10476191 8:0.80849332 9:0.83648884 10:0.58205843 11:0.081825718 12:0.83783782 13:0.5690608 14:0.55441594 15:0.61988306 16:0.59436244 #
2 1:0.0067554889 2:0.040123455 3:0.08024691 4:0.0053560175 5:0.011364194 6:0.17766498 7:0.015228426 8:0.12776348 9:0.12896189 10:0.023359925 11:0.0056744497 12:0.84615386 13:0.089622639 14:0.092390828 15:0.11004785 16:0.1111163 #
2 5:0.095330492 6:0.69252872 7:0.61159003 8:0.4833712 9:0.47859567 10:0.069974616 11:0.00080682529 13:0.072765075 14:0.13256657 15:0.084632516 16:0.14427669 #
2 5:0.092452355 6:0.90452105 7:0.88934559 8:0.68197918 9:0.66466153 10:0.059358459 11:0.0053099953 13:0.048664123 14:0.11757721 15:0.065934069 16:0.1413507 #
-2 1:0.036363635 2:0.078125 3:0.147929 4:0.0094444444 5:0.56073767 6:0.18124738 7:0.15320218 8:0.96850157 9:0.96951228 10:0.92584765 11:0.35465193 12:0.18072289 13:0.67557251 14:0.68185359 15:0.72815531 16:0.72866082 #
-2 5:0.76441824 6:0.19047619 7:0.075187966 8:0.90224874 9:0.90680319 10:0.91037714 11:0.41722426 12:0.074074075 13:0.65820312 14:0.62301195 15:0.72747749 16:0.67877519 #
2 1:0 3:0 4:0.00032686416 5:0.060130361 6:0.92482519 7:0.90938228 8:0.69680709 9:0.68146586 10:0.047540668 11:0.0010204145 12:0.035714287 13:0.039162114 14:0.094895691 15:0.050261781 16:0.11577193 #
2 1:0 2:0 3:0 4:0.00011566265 5:0.0933493 6:0.39338842 7:0.30991736 8:0.71649295 9:0.70087004 10:0.06674286 11:0 13:0.093189962 14:0.13686025 15:0.099811673 16:0.14694187 #
2 5:0.0739711 6:0.8640269 7:0.8236832 8:0.6990059 9:0.68730497 10:0.072544962 11:0.0019722867 12:0.035714287 13:0.062893085 14:0.12997933 15:0.085714288 16:0.16345073 #
-1.8910515358878399183595320209861 5:0.12277245 6:0.50213546 7:0.42037827 8:0.80046886 9:0.80497384 10:0.62061512 11:0.018948184 12:0.1 13:0.26580226 14:0.32268497 15:0.29656419 16:0.34696895 #
-2 5:0.64788008 6:0.15120171 7:0.091572866 8:0.94795978 9:0.95021951 10:0.80433738 11:0.39568111 12:0.66666669 13:0.72048998 14:0.72934347 15:0.74703556 16:0.75050443 #
-2 1:0.022959184 3:0.12244898 4:0.013223141 5:0 6:0.71052629 7:0.63157892 8:0.21221867 9:0.20008168 10:0.030878577 11:0 12:0.9464286 13:0.13333334 14:0.20254788 15:0.13333334 16:0.21081851 #
-2 1:0 3:0 4:0.0016233766 5:0.21866493 6:0.008686211 7:0.19869708 8:0.85035163 9:0.85048759 10:0.36120638 11:0.04428314 12:0.08510638 13:0.36253041 14:0.35333744 15:0.40318301 16:0.38521031 #
2 1:0.0050600884 2:0 3:0.12615384 4:0.0023273437 5:0.79085344 6:0.1714939 7:0.073551826 8:0.9651463 9:0.9671154 10:0.97159451 11:0.55357409 12:0.40000001 13:0.75 14:0.7519685 15:0.79342723 16:0.78427553 #
2 5:0.65507752 6:0.1643454 7:0.080779947 8:0.96095216 9:0.96355855 10:0.97484595 11:0.43010339 12:0.87272727 13:0.75870067 14:0.76747507 15:0.78643215 16:0.78941298 #
2 5:0.65591931 6:0.17248461 7:0.094455853 8:0.95753849 9:0.96274716 10:0.96033919 11:0.42902562 12:0.86792451 13:0.76923078 14:0.77385688 15:0.80701756 16:0.79547161 #
-2 1:0.047499999 3:0.12244898 4:0.013223141 5:0.17230411 6:1.5418719 7:2.1527092 8:0.63004613 9:0.6393162 10:0.36622339 11:0.09193556 12:0.9464286 13:0.54166669 14:0.35172623 15:0.56410259 16:0.36399704 #
-2 1:0 2:0 3:0 4:0.0003391619 5:0.062934682 6:0.35910779 7:0.31672862 8:0.62989259 9:0.62802559 10:0.2331067 11:0.0062506883 12:0.075471699 13:0.2247619 14:0.24583067 15:0.27950311 16:0.28765887 #
2 1:0.0048840051 2:0 3:0.14822134 4:0.0026606119 5:0.77218384 6:0.18459606 7:0.061532021 8:0.95998478 9:0.9632284 10:0.97873461 11:0.53761888 12:0.40000001 13:0.71041667 14:0.72469676 15:0.75429976 16:0.76470441 #
-2 5:0.65623027 6:0.28349411 7:0.17122187 8:0.88344467 9:0.88472939 10:0.82124275 11:0.40199903 12:0.065573767 13:0.67755103 14:0.64637142 15:0.74651164 16:0.70363611 #
-2 1:0.045351475 3:0.12244898 4:0.013223141 5:0.40311185 6:0.23261118 7:0.033067275 8:0.91077161 9:0.91527635 10:0.63363791 11:0.15012196 12:0.9464286 13:0.58354753 14:0.58703989 15:0.6204986 16:0.6096192 #
2 1:0.0071313549 2:0.043749999 3:0.052631579 4:0.00528169 5:0.33850864 6:0.054176074 7:0.15575621 8:0.89694685 9:0.90964645 10:0.83325374 11:0.11103914 12:0.85365856 13:0.56779659 14:0.54644161 15:0.61574072 16:0.57697529 #
-2 5:0.65176576 6:0.2240676 7:0.18648018 8:0.93479627 9:0.93250847 10:0.75998288 11:0.45962903 12:0.62295079 13:0.64451158 14:0.66102743 15:0.67502987 16:0.68492097 #
2 1:0.00016869095 2:0 3:0 4:0.00010523093 5:0.12146131 6:0.85809314 7:0.8226164 8:0.71076214 9:0.69444472 10:0.092243969 11:0.00061923603 13:0.11623246 14:0.15911117 15:0.14617169 16:0.18676692 #
-2 1:0.037500001 3:0.12244898 4:0.013223141 5:0.28887415 6:0.47360703 7:0.33431086 8:0.81877762 9:0.82240498 10:0.52557153 11:0.10572369 12:0.9464286 13:0.42776203 14:0.49883202 15:0.45045045 16:0.51987523 #
-2 5:0.64029205 6:0.075757578 7:0.0247669 8:0.94969052 9:0.94966066 10:0.83788884 11:0.35267371 13:0.61839706 14:0.63562089 15:0.64083767 16:0.65939623 #
-2 5:0.70400959 6:0.045836516 7:0.19327731 8:0.91505647 9:0.91770059 10:0.85056305 11:0.4053314 12:0.045977011 13:0.63085938 14:0.57080442 15:0.68663597 16:0.62017691 #
-2 1:0.0094043883 2:0.021008404 3:0.071428575 4:0.0061224489 5:0.45077074 6:0.57216495 7:0.80927837 8:0.87342983 9:0.87648827 10:0.65519476 11:0.29485741 13:0.70707071 14:0.56484568 15:0.72222221 16:0.57295972 #
2 1:0.0040854807 2:0 3:0.086363636 4:0.001154037 5:0.80601466 6:0.22164682 7:0.10564474 8:0.977575 9:0.97910076 10:0.97714949 11:0.53293222 12:0.40000001 13:0.7491228 14:0.72639883 15:0.80341882 16:0.76887274 #
2 5:0.52704293 6:0.20091848 7:0.13777268 8:0.94802105 9:0.94979739 10:0.96756423 11:0.30197006 12:0.87719297 13:0.72368419 14:0.74558884 15:0.75071633 16:0.76969653 #
2 1:0.023255814 2:0.2 3:0.5 4:0.069444448 5:0.74172658 6:0.20025228 7:0.022075055 8:0.97309452 9:0.97402412 10:0.93200529 11:0.29405317 12:0.14341085 13:0.62113661 14:0.63922095 15:0.68608797 16:0.69481772 #
2 1:0.0023431866 2:0.043956045 3:0.069731407 4:0.0010469436 5:0.4608843 6:0.16796267 7:0.015033696 8:0.87254006 9:0.87445235 10:0.78484184 11:0.096468553 12:0.18548387 13:0.5321101 14:0.55401343 15:0.60329932 16:0.60568297 #
-2 1:0.023319615 3:0.12244898 4:0.013223141 5:0.048795003 6:0.56666666 7:0.46666667 8:0.31426969 9:0.2981424 10:0.10007558 11:0 12:0.9464286 13:0.10714286 14:0.14638501 15:0.10714286 16:0.15152287 #
-2 1:0.022592152 3:0.12244898 4:0.013223141 5:0.32091272 6:0.1528822 7:0.067669176 8:0.86478472 9:0.86835504 10:0.59535736 11:0.12256268 12:0.9464286 13:0.52742618 14:0.52073228 15:0.55793989 16:0.55321151 #
-2 5:0.66188425 6:0.20345002 7:0.098680876 8:0.91184717 9:0.90990621 10:0.70336711 11:0.32008642 12:0.06779661 13:0.68222892 14:0.66193932 15:0.73857403 16:0.70519966 #
-2 5:0.68921155 6:0.16750804 7:0.073887102 8:0.89799541 9:0.9042058 10:0.90078378 11:0.36174953 12:0.068965517 13:0.66132265 14:0.64589733 15:0.73607749 16:0.6989817 #
2 1:0.0017612524 2:0.050000001 3:0.097959183 4:0.0022482683 5:0.33909336 6:0.24760294 7:0.075014099 8:0.85456866 9:0.85894573 10:0.73788267 11:0.064324349 12:0.23469388 13:0.5006485 14:0.50661182 15:0.56223774 16:0.54786754 #
-2 1:0.00028682238 2:0.002428639 3:0.039999999 4:0.0024596616 6:0.89419502 #
2 5:0.67060184 6:0.20255721 7:0.095558546 8:0.95783597 9:0.96256834 10:0.95699823 11:0.43242586 12:0.87272727 13:0.7635659 14:0.77086216 15:0.80555558 16:0.80298597 #
2 1:0.016666668 2:0.25 3:0.5 4:0.069444448 5:0.51283729 6:0.16518937 7:0.044319097 8:0.96164662 9:0.96677494 10:0.90541291 11:0.21861957 12:0.17977528 13:0.59036142 14:0.61951602 15:0.66143495 16:0.67362833 #
-2 1:0 3:0 4:0.0015811012 5:0.17315313 6:0.45827234 7:0.70863837 8:0.85238338 9:0.84055948 10:0.13816164 11:0.015594585 12:0.083333336 13:0.36666667 14:0.31759343 15:0.41883117 16:0.35121843 #
-2 1:0.0023911402 2:0.023088023 3:0.1875 4:0.012039904 5:0.1092264 6:0.22955975 7:0.067610063 8:0.69003463 9:0.66172659 10:0.35687625 11:0.0020258527 13:0.18296529 14:0.23095459 15:0.2147651 16:0.26617727 #
2 1:0.014925373 2:0.071428575 3:0.5 4:0.069444448 5:0.79153645 6:0.24740741 7:0.12691358 8:0.98377186 9:0.98382914 10:0.93014413 11:0.49777398 12:0.25694445 13:0.76297575 14:0.79414892 15:0.79918033 16:0.82225066 #
-2 5:0.69471782 6:0.20943668 7:0.10038517 8:0.93463033 9:0.93625301 10:0.85842693 11:0.35715973 12:0.059701491 13:0.66120219 14:0.6622079 15:0.71221864 16:0.71050727 #
-2 1:0.04112554 3:0.12244898 4:0.013223141 5:0.51442158 6:0.30223125 7:0.64503044 8:0.8915751 9:0.89302844 10:0.51157045 11:0.26603153 12:0.9464286 13:0.60080647 14:0.53695822 15:0.62761503 16:0.55196697 #
-1.9999938002763713029708014801145 1:0 3:0 4:0.0017507003 5:0.16396658 6:0.67130274 7:0.63328695 8:0.89591122 9:0.89126348 10:0.6207723 11:0.019927487 12:0.090909094 13:0.23653089 14:0.34533584 15:0.29312977 16:0.39429957 #
2 1:0.0071348939 2:0.042735044 3:0.06666667 4:0.0066060079 5:0.49691468 6:0.083123423 7:0.078085646 8:0.91014528 9:0.91479927 10:0.77428305 11:0.30324405 12:0.84210527 13:0.64347827 14:0.63019156 15:0.66818184 16:0.65207869 #
2 1:0.014925373 2:0.2 3:0.5 4:0.069444448 5:0.69757229 6:0.11419536 7:0.080815181 8:0.97707993 9:0.97747052 10:0.86010987 11:0.30392453 12:0.14341085 13:0.67695475 14:0.68617696 15:0.73391092 16:0.72675061 #
-2 1:0.039999999 2:0.078125 3:0.15384616 4:0.0089743594 5:0.22059217 6:5.8811474 7:6.3565574 8:0.62811917 9:0.6184988 10:0.44148782 11:0.098075524 12:0.16304348 13:0.49593496 14:0.18963881 15:0.51239669 16:0.19940022 #
2 1:0.0059259259 2:0.025575448 3:0.0625 4:0.0041752425 5:0.37207016 6:0.14525139 7:0.019553073 8:0.8643356 9:0.87114853 10:0.7640515 11:0.19941178 12:0.85365856 13:0.5714286 14:0.56942594 15:0.62926829 16:0.62622094 #
2 1:0.00023310023 2:0 3:0 4:0.00028965357 5:0.10522376 6:0.89597601 7:0.87542808 8:0.7083475 9:0.68822533 10:0.079562023 11:0.0014682341 13:0.1076555 14:0.16891344 15:0.1401099 16:0.20685272 #
2 1:0.002565857 2:0.041666668 3:0.06427221 4:0.00076752517 5:0.63856971 6:0.10476191 7:0.055555556 8:0.97338951 9:0.97492898 10:0.78360122 11:0.19479464 12:0.16666667 13:0.63461536 14:0.6107986 15:0.68800724 16:0.65038854 #
-2 1:0.034722224 3:0.12244898 4:0.013223141 5:0.53536487 6:0.23224044 7:0.016393442 8:0.88419801 9:0.89392543 10:0.83643901 11:0.34147176 12:0.9464286 13:0.55121952 14:0.57434696 15:0.60512823 16:0.60983747 #
-2 5:0.56749034 6:0.10071942 7:0.19568345 8:0.85704452 9:0.8565163 10:0.81068808 11:0.26988226 12:0.070175439 13:0.58126724 14:0.53128117 15:0.63030303 16:0.56616724 #
-2 1:0.00067152228 2:0.009615385 3:0.037037037 4:0.0020674299 5:0.45177445 6:0.55078864 7:0.45362777 8:0.81056476 9:0.81717461 10:0.60034233 11:0.10009784 13:0.31542289 14:0.41835919 15:0.35882354 16:0.46415019 #
-2 1:0.018365473 3:0.12244898 4:0.013223141 5:0.4367165 6:0.057803467 7:0.24277456 8:0.88920373 9:0.89375812 10:0.65242815 11:0.18651219 12:0.9464286 13:0.58620691 14:0.5935744 15:0.64655173 16:0.63834989 #
-2 5:0.57445419 6:0.21599741 7:0.14443006 8:0.9092325 9:0.91163832 10:0.86795461 11:0.29862785 12:0.064516127 13:0.63172042 14:0.63155377 15:0.70032054 16:0.6835472 #
-2 5:0.43111825 6:0.18343195 7:0.12623274 8:0.84338856 9:0.86573094 10:0.86052972 11:0.25910544 12:0.068965517 13:0.578125 14:0.61492616 15:0.60905349 16:0.6445086 #
2 5:0.66657019 6:0.17244525 7:0.068430655 8:0.94784886 9:0.94972289 10:0.96603113 11:0.46853185 12:0.87272727 13:0.76623374 14:0.78480494 15:0.79020977 16:0.80342805 #
2 1:0 3:0 4:0.00013844024 5:0.071568169 6:0.9780069 7:0.97113401 8:0.68195111 9:0.66793108 10:0.069544174 11:0 13:0.049331963 14:0.13930784 15:0.074025974 16:0.17237939 #
-2 1:0.024691358 3:0.12244898 4:0.013223141 5:0.52204013 6:0.19117647 7:0.030462185 8:0.93849254 9:0.94166827 10:0.74445951 11:0.27907896 12:0.9464286 13:0.64079821 14:0.6518842 15:0.68105513 16:0.68187326 #
2 1:0.00020678247 2:0 3:0 4:0.00027308415 5:0.07150273 6:0.90739328 7:0.88910061 8:0.66150761 9:0.64568484 10:0.087921277 11:0.000859208 13:0.08730159 14:0.14731629 15:0.11267605 16:0.17996092 #
-2 1:0.027434843 3:0.12244898 4:0.013223141 5:0.38519445 6:0.1009772 7:0.11726385 8:0.88785917 9:0.8951031 10:0.6514802 11:0.14831908 12:0.9464286 13:0.61413044 14:0.60746306 15:0.64245808 16:0.62358338 #
-2 1:0.021403091 3:0.12244898 4:0.013223141 5:0.42192319 6:0.15695067 7:0.11210762 8:0.88515902 9:0.89287525 10:0.6581279 11:0.24258226 12:0.9464286 13:0.61643833 14:0.60217172 15:0.66206896 16:0.64452761 #
-2 5:0.43113542 6:0.051470589 7:0.15021008 8:0.87762666 9:0.85410184 10:0.52762026 11:0.1695987 12:0.73584908 13:0.52572346 14:0.48892403 15:0.55904061 16:0.52481401 #
2 1:0.0061728396 2:0.041522492 3:0.10049796 4:0.00084925687 5:0.55028254 6:0.21079473 7:0.029324267 8:0.93593627 9:0.93661833 10:0.83049709 11:0.11664656 12:0.18548387 13:0.57673019 14:0.60459834 15:0.63526833 16:0.65265632 #
2 1:0.0041628121 2:0.050000001 3:0.095935725 4:0.00079633243 5:0.46637878 6:0.17712082 7:0.0017994859 8:0.9080919 9:0.9075399 10:0.65230316 11:0.084711693 12:0.16428572 13:0.56821591 14:0.56676048 15:0.64568967 16:0.62002969 #
-2 5:0.55989552 6:0.24804688 7:0.19965278 8:0.88529533 9:0.88462526 10:0.69064289 11:0.32920566 12:0.043956045 13:0.53500003 14:0.55678165 15:0.6111111 16:0.62882817 #
-2 5:0.46822307 6:0.25527489 7:0.10222883 8:0.88923776 9:0.88974661 10:0.3992562 11:0.20120364 12:0.052631579 13:0.67634255 14:0.69042087 15:0.74704891 16:0.74082857 #
-2 5:0.57562613 6:0.21839564 7:0.12305754 8:0.89553744 9:0.90601897 10:0.9036063 11:0.29377329 12:0.070175439 13:0.63620073 14:0.63557917 15:0.70416665 16:0.6934154 #
2 1:0.0045955884 2:0.018518519 3:0.023255814 4:0.002422181 5:0.36233547 6:0.13025211 7:0.029411765 8:0.84799242 9:0.8722567 10:0.76553512 11:0.16129717 12:0.84210527 13:0.50359714 14:0.49832231 15:0.56617647 16:0.56205875 #
2 1:0.0052677789 2:0.017857144 3:0.026936026 4:0.0028997515 5:0.41921875 6:0.16727273 7:0.036363635 8:0.86620027 9:0.86853379 10:0.7139771 11:0.28395042 12:0.86666667 13:0.57627118 14:0.60469091 15:0.60479039 16:0.6277653 #
-2 1:0.043083899 3:0.12244898 4:0.013223141 5:0.35187602 6:0.37721518 7:0.21518987 8:0.82824492 9:0.83993495 10:0.51140791 11:0.18815905 12:0.9464286 13:0.50666666 14:0.55419987 15:0.56074768 16:0.60972649 #
2 5:0.024595873 6:12.818584 7:13.415929 8:0.60775429 9:0.5896703 10:0.10862411 11:0 13:0.31506848 14:0.12211251 15:0.37142858 16:0.14641209 #
2 1:0.0054675718 2:0.022727273 3:0.039999999 4:0.0040791193 5:0.54970109 6:0.060773481 7:0.013812155 8:0.89777136 9:0.90672523 10:0.8205775 11:0.38155851 12:0.85714287 13:0.73008847 14:0.74342835 15:0.75813955 16:0.76529193 #
2 5:0.5952543 6:0.19507042 7:0.070422538 8:0.94414747 9:0.94512403 10:0.93177193 11:0.32917255 12:0.73214287 13:0.7672956 14:0.75321811 15:0.80465114 16:0.78137487 #
2 1:0.0065359478 2:0.027149322 3:0.045454547 4:0.0046969699 5:0.44264436 6:0.12847222 7:0.0069444445 8:0.85930467 9:0.86107838 10:0.73834503 11:0.34821525 12:0.84615386 13:0.64804471 14:0.66111189 15:0.68518519 16:0.68518519 #
2 1:0.0045561665 2:0.018518519 3:0.023255814 4:0.002422181 5:0.36233547 6:0.13025211 7:0.029411765 8:0.84799242 9:0.8722567 10:0.76553512 11:0.16129717 12:0.84210527 13:0.50359714 14:0.49832231 15:0.56617647 16:0.56205875 #
-2 1:0.045112781 3:0.12244898 4:0.013223141 5:0.57558817 6:0.23031203 7:0.054977711 8:0.93604809 9:0.93871737 10:0.8904286 11:0.3293578 12:0.9464286 13:0.63157892 14:0.63462842 15:0.67808217 16:0.66786784 #
-2 1:0.0023809525 2:0.049586777 3:0.060660932 4:0.0011644789 5:0.50964868 6:0.21073559 7:0.016235918 8:0.90532643 9:0.90767688 10:0.79815239 11:0.11015589 12:0.22772278 13:0.51594895 14:0.53368294 15:0.58562553 16:0.5787341 #
-2 1:0 3:0 4:0.0015811012 5:0.16097026 6:0.63416272 7:0.56893075 8:0.83322293 9:0.82915932 10:0.5462113 11:0.019905562 12:0.090909094 13:0.19387755 14:0.28597507 15:0.22346368 16:0.31283751 #
2 5:0.072574839 6:0.90041101 7:0.8846032 8:0.71834409 9:0.70262498 10:0.091814704 11:0.0030673405 13:0.064885497 14:0.15443382 15:0.081318684 16:0.18650392 #
2 1:0.0056338026 2:0.011204482 3:0.090909094 4:0.0057916776 5:0.47998512 6:0.1025641 7:0.12820514 8:0.86244941 9:0.87106305 10:0.84270114 11:0.2180385 12:0.83333331 13:0.60000002 14:0.5741505 15:0.63157892 16:0.59471357 #
2 5:0.69935805 6:0.20930232 7:0.10409746 8:0.9478308 9:0.95208633 10:0.95710731 11:0.44920474 12:0.86792451 13:0.75596815 14:0.77225399 15:0.80000001 16:0.80586088 #
-2 1:0.0056703859 2:0.025568182 3:0.10294118 4:0.002274204 5:0.49385998 6:0.18686402 7:0.03654024 8:0.91336077 9:0.91547668 10:0.85668725 11:0.17728464 12:0.21698113 13:0.59977949 14:0.61214334 15:0.6582734 16:0.65051961 #
2 5:0.61510706 6:0.1612284 7:0.074856043 8:0.95517582 9:0.95819634 10:0.92571402 11:0.39322582 12:0.87272727 13:0.77200902 14:0.78107023 15:0.80049258 16:0.80049258 #
2 1:0.0069515435 2:0.036437247 3:0.055 4:0.0051230369 5:0.44901326 6:0.012690355 7:0.10659899 8:0.88052464 9:0.88361645 10:0.80314881 11:0.26513672 12:0.84210527 13:0.6932773 14:0.70248532 15:0.71238941 16:0.70925796 #
-2 1:0.034420289 3:0.12244898 4:0.013223141 5:0.51890457 6:0.30291262 7:0.12427185 8:0.93504697 9:0.937666 10:0.69648826 11:0.25675282 12:0.9464286 13:0.639485 14:0.65100092 15:0.67117119 16:0.66668171 #
2 1:0.0063820421 2:0.025252525 3:0.047619049 4:0.0048159929 5:0.49131724 6:0.095238097 7:0.098639458 8:0.89343131 9:0.91596061 10:0.85080111 11:0.26480779 12:0.83333331 13:0.57309943 14:0.60626006 15:0.6981132 16:0.70031893 #
2 1:0.0071428572 2:0.03167421 3:0.0625 4:0.0061721937 5:0.41727671 6:0.02538071 7:0.068527922 8:0.87215102 9:0.88095051 10:0.76562655 11:0.22582395 12:0.85365856 13:0.58798283 14:0.59702712 15:0.63380283 16:0.63084799 #
2 1:0.0060331826 2:0.052083332 3:0.041666668 4:0.0042413571 5:0.46492535 6:0.12169312 7:0.047619049 8:0.85039651 9:0.87418491 10:0.86022353 11:0.29284921 12:0.84210527 13:0.59200001 14:0.62305599 15:0.60683763 16:0.63754743 #
-2 5:0.44889733 6:0.44170403 7:0.46502241 8:0.8745392 9:0.87424588 10:0.62893611 11:0.3207753 12:0.66101694 13:0.70801032 14:0.58254296 15:0.73065478 16:0.59480947 #
2 5:0.10920895 6:2.9551122 7:3.1733167 8:0.73203629 9:0.71233171 10:0.090005562 11:0.0026623714 13:0.2748538 14:0.1624352 15:0.31366459 16:0.18740888 #
-2 5:0.53531122 6:0.24049258 7:0.22600508 8:0.87585175 9:0.87883621 10:0.75229353 11:0.28268695 12:0.66666669 13:0.68102443 14:0.67932159 15:0.71311474 16:0.69304925 #
-2 1:0.045351475 3:0.12244898 4:0.013223141 5:0.065223388 6:1.0818182 7:1.7318182 8:0.48268899 9:0.48576906 10:0.27424634 11:0.032339606 12:0.9464286 13:0.45454547 14:0.31700906 15:0.48148149 16:0.33372852 #
-2 1:0.047222223 3:0.12244898 4:0.013223141 5:0.1669917 6:0.85822785 7:0.83037972 8:0.48911479 9:0.50221187 10:0.30115908 11:0.066575006 12:0.9464286 13:0.1238938 14:0.26193178 15:0.15348837 16:0.30914113 #
-2 1:0.0085697398 3:0.14192091 4:0.0012412335 5:0.14595127 6:0.73239434 7:0.65727699 8:0.51871741 9:0.52247685 10:0.41599295 11:0.074730463 12:0.9464286 13:0.2635659 14:0.40364793 15:0.28 16:0.42211589 #
-2 1:0.047368422 3:0.12244898 4:0.013223141 5:0.3012186 6:0.1754386 7:0.074960127 8:0.74168575 9:0.7513504 10:0.64963299 11:0.17860208 12:0.9464286 13:0.61245674 14:0.59655684 15:0.64944649 16:0.62565744 #
-2 1:0.033333335 3:0.12244898 4:0.013223141 5:0.44956115 6:0.15535098 7:0.037974682 8:0.8548274 9:0.85787481 10:0.77108669 11:0.29235736 12:0.9464286 13:0.64883721 14:0.6741842 15:0.67396593 16:0.69635147 #
2 5:0.67454565 6:0.17982587 7:0.099069349 8:0.95731622 9:0.95828235 10:0.91519159 11:0.39480647 12:0.89285713 13:0.7196691 14:0.73511308 15:0.75639713 16:0.76991242 #
-2 1:0.016435986 3:0.12244898 4:0.013223141 5:0.21867883 6:0.50467288 7:0.34112149 8:0.69195735 9:0.71190256 10:0.50064093 11:0.11095717 12:0.9464286 13:0.40310079 14:0.46014094 15:0.4609375 16:0.5322448 #
-2 5:0.64816338 6:0.19657259 7:0.10114247 8:0.95299035 9:0.95489967 10:0.85587847 11:0.32377943 13:0.60601717 14:0.59300315 15:0.65723795 16:0.63393337 #
2 12:0.07272727 #
2 1:0.0053940667 2:0.019117648 3:0.037694015 4:0.0025155772 5:0.54277164 6:0.17168675 7:0.0060240962 8:0.92116654 9:0.92601746 10:0.84506691 11:0.31818959 12:0.85000002 13:0.68269229 14:0.68917465 15:0.71356785 16:0.70824927 #
-2 5:0.71207488 6:0.31920201 7:0.17313859 8:0.94831997 9:0.94888794 10:0.87727946 11:0.30168507 12:0.071428575 13:0.67175573 14:0.65935624 15:0.73230088 16:0.70988214 #
-2 5:0.56345683 6:0.14056122 7:0.028061224 8:0.90902501 9:0.91135442 10:0.79605156 11:0.26291853 12:0.061538462 13:0.66356385 14:0.63787353 15:0.72602737 16:0.69742209 #
2 1:0.0069124424 2:0.03125 3:0.050000001 4:0.0050750459 5:0.47717282 6:0.17320262 7:0.029411765 8:0.9009614 9:0.90441656 10:0.77904361 11:0.23864824 12:0.85714287 13:0.67553192 14:0.6956225 15:0.7175141 16:0.72576171 #
2 1:0.0069444445 2:0.039215688 3:0.050000001 4:0.0050437762 5:0.44104844 6:0.15142857 7:0.022857143 8:0.89929163 9:0.91268313 10:0.81190223 11:0.25603965 12:0.84210527 13:0.67136151 14:0.67431903 15:0.70243901 16:0.69568467 #
2 1:0.006209936 2:0.03409091 3:0.037037037 4:0.0037688443 5:0.46164006 6:0.050991502 7:0.0084985839 8:0.90284264 9:0.91404903 10:0.83689189 11:0.25666782 12:0.85000002 13:0.69651741 14:0.71116531 15:0.74479169 16:0.75267327 #
2 1:0.017241379 2:0.25 3:0.5 4:0.069444448 5:0.69391334 6:0.18268216 7:0.053502288 8:0.97828364 9:0.97883499 10:0.93538785 11:0.33124265 12:0.14285715 13:0.64077669 14:0.65546924 15:0.70596796 16:0.70443159 #
-2 1:0.00089870079 2:0.017671518 3:0.1 4:0.0051100631 5:0.54325002 6:0.26620269 7:0.15571988 8:0.9518823 9:0.95471627 10:0.95418435 11:0.27059302 13:0.5823068 14:0.64023578 15:0.63706565 16:0.68149048 #
-2 1:0.039999999 2:0.078125 3:0.13736264 4:0.0077536553 5:0.27845621 6:0.32337663 7:0.27922079 8:0.90119219 9:0.90415984 10:0.65503228 11:0.090974808 12:0.125 13:0.40826872 14:0.44694799 15:0.45355192 16:0.48430061 #
2 5:0.64032078 6:0.17398794 7:0.11197244 8:0.95256984 9:0.95537078 10:0.92883372 11:0.41446209 12:0.875 13:0.76018101 14:0.77014196 15:0.78536588 16:0.78922516 #
-2 5:0.61236238 6:0.22395833 7:0.12282986 8:0.88691878 9:0.89123726 10:0.86485815 11:0.25492015 12:0.070175439 13:0.58823532 14:0.58910644 15:0.66225165 16:0.63546205 #
2 1:3.1593579e-05 2:0 3:0 4:0.00039184952 5:0.12937231 6:0.11821086 7:0.024494143 8:0.81116867 9:0.79927826 10:0.053033218 11:0.0013238195 12:0.08510638 13:0.14249364 14:0.13619871 15:0.18384402 16:0.15882695 #
-2 5:0.57690376 6:0.12892096 7:0.081869513 8:0.92744011 9:0.92983496 10:0.78273112 11:0.34373385 12:0.68421054 13:0.66046 14:0.64724535 15:0.69493669 16:0.66878158 #
2 5:0.045792699 6:0.91062343 7:0.88772267 8:0.65605718 9:0.64408153 10:0.061323062 11:0 13:0.062038403 14:0.12141781 15:0.083188906 16:0.14273329 #
2 1:0 2:0 3:0 4:1.4199785e-05 5:0.21754973 6:0.001861504 7:0.28443784 8:0.78889537 9:0.77254528 10:0.13831155 11:0.0069922521 13:0.31506848 14:0.22408825 15:0.41418764 16:0.26469514 #
2 1:0.0071644043 2:0.032000002 3:0.079999998 4:0.0040181098 5:0.43151778 6:0.054945055 7:0.047619049 8:0.86730039 9:0.87538981 10:0.76671267 11:0.26960531 12:0.85000002 13:0.60674155 14:0.63635927 15:0.63005781 16:0.65515411 #
2 1:0 3:0 4:0 5:0.025822075 6:0.81763828 7:0.79297459 8:0.56724566 9:0.55974793 10:0.071005948 11:0 13:0.062737644 14:0.11748311 15:0.073684208 16:0.13200501 #
-2 1:0.039999999 2:0.078125 3:0.13736264 4:0.0077536553 5:0.27699095 6:0.33709273 7:0.30075186 8:0.92140013 9:0.92429268 10:0.66209036 11:0.093985491 12:0.13761468 13:0.39798489 14:0.44154474 15:0.44414893 16:0.47994846 #
2 5:0.042268656 6:0.99118221 7:0.98922271 8:0.39375919 9:0.39163548 10:0.228809 11:0 13:0.025 14:0.10998534 15:0.030828517 16:0.12822588 #
2 1:0.0069013112 2:0.03125 3:0.052631579 4:0.0052941763 5:0.4840962 6:0.068027213 7:0.044217687 8:0.87454295 9:0.8802368 10:0.91245449 11:0.34264037 12:0.85365856 13:0.64999998 14:0.66860014 15:0.70175439 16:0.70175439 #
-2 5:0.28279999 6:1.19146 7:1.3174931 8:0.81427127 9:0.80123246 10:0.38129494 11:0.1054359 12:0.68421054 13:0.57180154 14:0.41046545 15:0.63063061 16:0.44492224 #
-2 5:0.47330821 6:0.21314676 7:0.11487146 8:0.87220162 9:0.86407799 10:0.51340997 11:0.20591609 12:0.75 13:0.43622047 14:0.43992919 15:0.45970696 16:0.45678815 #
-2 5:0.29631436 6:0.042135734 7:0.12801544 8:0.85929537 9:0.85330081 10:0.35430834 11:0.065722354 12:0.60317463 13:0.41677943 14:0.42010593 15:0.47460318 16:0.46474874 #
2 1:0.0071231616 2:0.046875 3:0.052631579 4:0.0054487507 5:0.44723496 6:0.11111111 7:0.033333335 8:0.89960212 9:0.91875041 10:0.84807324 11:0.2575258 12:0.84615386 13:0.65437788 14:0.67154658 15:0.68811882 16:0.70581114 #
2 5:0.68636537 6:0.19207317 7:0.085365854 8:0.95886987 9:0.95972961 10:0.9544155 11:0.45627749 12:0.87272727 13:0.75318068 14:0.76735377 15:0.78151262 16:0.78928906 #
-1.7518143065905960042982769664377 5:0.2970303 6:0.50794566 7:0.39497256 8:0.72736204 9:0.73253495 10:0.58673984 11:0.026770344 12:0.02631579 13:0.23813632 14:0.31056735 15:0.27555987 16:0.35266912 #
0.86777153130000861391835087488289 1:0.0064646467 2:0.052083332 3:0.044444446 4:0.0046254308 5:0.52194989 6:0.014084507 7:0.051643193 8:0.85262978 9:0.8645218 10:0.76728946 11:0.34214792 12:0.85714287 13:0.67346936 14:0.694359 15:0.72222221 16:0.73775566 #
-2 1:0.044973545 3:0.12244898 4:0.013223141 5:0.033066723 6:0.88030887 7:0.84555984 8:0.57418597 9:0.58983481 10:0.21002088 11:0 12:0.9464286 13:0.10357143 14:0.24157996 15:0.125 16:0.26441494 #
2 1:0.0067099566 2:0.041666668 3:0.055555556 4:0.0056818184 5:0.51956785 6:0.035519127 7:0.046448089 8:0.93374568 9:0.94100356 10:0.83989424 11:0.33237258 12:0.85365856 13:0.71296299 14:0.72564036 15:0.75124377 16:0.74753392 #
2 1:0 2:0 5:0.10743309 6:0.6041553 7:0.52050298 8:0.78997391 9:0.78389961 10:0.058387563 11:0.00089912064 12:0.15384616 13:0.10804851 14:0.15979692 15:0.13205282 16:0.18465683 #
2 1:0 3:0 4:0.00015236161 5:0.11129073 6:2 7:2.3703189 8:0.73148024 9:0.71654397 10:0.073834412 11:0 13:0.16426513 14:0.14291987 15:0.19817074 16:0.17129479 #
-2 5:0.57970649 6:0.0718707 7:0.10832187 8:0.9366467 9:0.9360655 10:0.76954311 11:0.24387123 12:0.064516127 13:0.66449511 14:0.61054242 15:0.71017277 16:0.64684922 #
2 1:0.00013711778 2:0 3:0 4:0.00014914984 5:0.12120164 6:0.62414265 7:0.90123457 8:0.75109529 9:0.73075801 10:0.056714736 11:0 13:0.12096774 14:0.12886196 15:0.13764045 16:0.14517643 #
2 1:0 2:0 3:0 4:0.00013411617 5:0.065247141 6:0.85492957 7:0.82499999 8:0.68892622 9:0.67845863 10:0.075436257 11:0 13:0.10404624 14:0.1442793 15:0.13092551 16:0.16351852 #
2 1:0.0073529412 2:0.051282052 3:0.0625 4:0.0062206574 5:0.48331419 6:0.14285715 7:0.013736264 8:0.87370986 9:0.89289415 10:0.8899557 11:0.31793541 12:0.85714287 13:0.65727699 14:0.66831398 15:0.71212119 16:0.72128659 #
2 1:0.0061919503 2:0.020833334 3:0.045454547 4:0.0045818123 5:0.4906598 6:0.12137203 7:0.029023746 8:0.91070217 9:0.91422009 10:0.81963068 11:0.30258405 12:0.85365856 13:0.63716817 14:0.64884913 15:0.66037738 16:0.66669691 #
-2 5:0.55044544 6:0.095695481 7:0.1807186 8:0.93547809 9:0.93314672 10:0.7836886 11:0.23754042 12:0.78846157 13:0.63946587 14:0.5965367 15:0.67636985 16:0.62451863 #
-2 1:0 2:0 3:0 4:0.0016297263 5:0.24250323 6:0.27027026 7:0.14864865 8:0.8019262 9:0.80518079 10:0.23662746 11:0.057507705 13:0.31647941 14:0.34219179 15:0.36231884 16:0.36847332 #
-2 5:0.12908506 6:0.45737547 7:0.42097703 8:0.65579265 9:0.65741116 10:0.27613583 11:0.04964298 12:0.72549021 13:0.2027027 14:0.2853936 15:0.22160356 16:0.31030029 #
2 1:0.0056703859 2:0.043749999 3:0.048 4:0.003755738 5:0.48962995 6:0.10880829 7:0.005181347 8:0.86142212 9:0.87026024 10:0.84043199 11:0.29895666 12:0.84210527 13:0.67264575 14:0.66670728 15:0.69014084 16:0.68533146 #
2 1:0.0061544571 2:0.015625 3:0.075000003 4:0.0061721937 5:0.47304976 6:0.12860893 7:0.015748031 8:0.90743476 9:0.92062634 10:0.74260753 11:0.28951716 12:0.84615386 13:0.61777776 14:0.64596862 15:0.66824645 16:0.67795515 #
-2 1:0.021551725 3:0.12244898 4:0.013223141 5:0.4763478 6:0.15068494 7:0.020547945 8:0.90783447 9:0.9106499 10:0.78225034 11:0.2488362 12:0.9464286 13:0.63157892 14:0.65643698 15:0.67755103 16:0.69477963 #
2 1:0.0069444445 2:0.036363635 3:0.05882353 4:0.0058346521 5:0.44880688 6:0.19949494 7:0.058080807 8:0.87755758 9:0.88714743 10:0.78864819 11:0.29109317 12:0.85365856 13:0.67105263 14:0.67679119 15:0.69124424 16:0.68808061 #
2 5:0.072746813 6:0.76839745 7:0.72095627 8:0.69601005 9:0.68286914 10:0.084483355 11:0.00081670762 12:0.035714287 13:0.098532498 14:0.16085108 15:0.12619048 16:0.19275914 #
-2 1:0 2:0 3:0 4:0.00035945364 5:0.20629483 6:0.0018214936 7:0.055555556 8:0.84375674 9:0.83913887 10:0.45423865 11:0.070679136 12:0.075471699 13:0.28142589 14:0.30999592 15:0.30923694 16:0.33087307 #
-2 1:0.043181818 3:0.12244898 4:0.013223141 5:0.34920874 6:0.38695651 7:0.23043478 8:0.80792999 9:0.80940723 10:0.34084386 11:0.17046575 12:0.9464286 13:0.51452285 14:0.56676668 15:0.5688889 16:0.61424279 #
-2 5:0.41915655 6:0.032946344 7:0.082208976 8:0.8395896 9:0.8416152 10:0.49694335 11:0.16583788 12:0.73076922 13:0.55820894 14:0.53582597 15:0.59240067 16:0.56701726 #
2 1:0.0060541308 2:0.043749999 3:0.077272728 4:0.004980843 5:0.48893222 6:0.2238806 7:0.10447761 8:0.8922441 9:0.89903849 10:0.76306272 11:0.30639732 12:0.85714287 13:0.57608694 14:0.64647746 15:0.59340662 16:0.65804744 #
2 1:0.0073313783 2:0.038961038 3:0.071428575 4:0.0071050641 5:0.49290743 6:0.13114753 7:0.016393442 8:0.87270582 9:0.88132036 10:0.84009504 11:0.30900106 12:0.84210527 13:0.60273975 14:0.62650347 15:0.63942307 16:0.65703249 #
2 1:0.0063681593 2:0.033333335 3:0.041666668 4:0.0042134831 5:0.44620869 6:0.095588237 7:0.039215688 8:0.87385333 9:0.87942719 10:0.81819034 11:0.29822189 12:0.84210527 13:0.69795918 14:0.69081318 15:0.7149123 16:0.70418417 #
-2 1:0.037807185 3:0.1388889 4:0.015595463 5:0.26009578 6:0.64444447 7:0.49444443 8:0.66174215 9:0.68404859 10:0.43670449 11:0.13967541 12:0.9464286 13:0.32456142 14:0.43317094 15:0.33027524 16:0.4379186 #
-2 1:0 3:0.22222222 4:0.030991735 5:0.30766043 6:0.65714288 7:0.59740257 8:0.74562258 9:0.74884981 10:0.57724023 11:0.22548667 12:0.9464286 13:0.26605505 14:0.37799656 15:0.2904762 16:0.40885305 #
-2 1:0.01004016 3:0.13204081 4:0.0013392685 5:0.22499999 6:0.64534885 7:0.56976742 8:0.66684961 9:0.66915339 10:0.47067189 11:0.11060444 12:0.9464286 13:0.30097088 14:0.43938804 15:0.31999999 16:0.45254833 #
2 5:0.80320889 6:0.16073583 7:0.057297949 8:0.97051156 9:0.97343045 10:0.97423917 11:0.47741473 12:0.90769231 13:0.71212119 14:0.72118127 15:0.7652474 16:0.76218379 #
2 1:0 3:0 4:0.00017595309 5:0.071144313 6:1.7577548 7:1.9202363 8:0.61982137 9:0.60786587 10:0.061832044 11:0 13:0.12169312 14:0.12341253 15:0.16712329 16:0.1573022 #
2 1:0.0069444445 2:0.040485829 3:0.047619049 4:0.0049459301 5:0.31371051 6:0.1072797 7:0.057471264 8:0.84134066 9:0.85928571 10:0.80697656 11:0.10115389 12:0.83333331 13:0.52830189 14:0.54265428 15:0.5945946 16:0.5945946 #
-2 1:0.034420289 3:0.12244898 4:0.013223141 5:0.4417114 6:0.36371604 7:0.20858896 8:0.87576431 9:0.88084942 10:0.8350082 11:0.26401168 12:0.9464286 13:0.58513188 14:0.63439143 15:0.61696661 16:0.65896028 #
-2 5:0.39523658 6:0.055823568 7:0.16333564 8:0.87194061 9:0.87600631 10:0.69164962 11:0.1834264 12:0.068965517 13:0.58937198 14:0.56147408 15:0.67134833 16:0.61808509 #
-2 5:0.50735551 6:0.14378758 7:0.05511022 8:0.8992269 9:0.89265001 10:0.75470257 11:0.22069806 12:0.075471699 13:0.56659621 14:0.55988365 15:0.65394402 16:0.62157309 #
2 1:0.0064935065 2:0.030303031 3:0.05882353 4:0.0058777863 5:0.27173695 6:0.05540897 7:0.1530343 8:0.85061753 9:0.85911381 10:0.70651436 11:0.076664954 12:0.84615386 13:0.51091701 14:0.50230753 15:0.56422019 16:0.5445891 #
2 1:0.0061776061 2:0.018099548 3:0.070588239 4:0.0058346521 5:0.35319689 6:0.06845966 7:0.06845966 8:0.85729831 9:0.8576715 10:0.78837562 11:0.15147588 12:0.84615386 13:0.58928573 14:0.57839757 15:0.61320752 16:0.59522909 #
-2 1:0.043290045 3:0.1388889 4:0.015595463 5:0.38144559 6:0.95390069 7:1.4219859 8:0.81263494 9:0.81596798 10:0.6716724 11:0.19499567 12:0.9464286 13:0.67763156 14:0.46797863 15:0.72108841 16:0.49181715 #
-2 1:0.043181818 3:0.12244898 4:0.013223141 5:0.36654082 6:0.22209026 7:0.048693586 8:0.88012332 9:0.88485438 10:0.7580691 11:0.218086 12:0.9464286 13:0.56594723 14:0.5979026 15:0.61012655 16:0.63732976 #
2 1:0.0071361503 2:0.040624999 3:0.1 4:0.0049494598 5:0.33456141 6:0.092838198 7:0.12732096 8:0.87108243 9:0.8744486 10:0.67871588 11:0.13518797 12:0.83333331 13:0.57487923 14:0.56201893 15:0.63350785 16:0.60273647 #
-2 5:0.40601185 6:0.2974537 7:0.27141204 8:0.85154027 9:0.84651828 10:0.64908558 11:0.18518122 12:0.73076922 13:0.48778358 14:0.51616418 15:0.53546453 16:0.54936057 #
2 1:0.0056114551 2:0.020833334 3:0.049242426 4:0.0043437583 5:0.34551165 6:0.09259259 7:0.046296295 8:0.85409188 9:0.86760271 10:0.74548244 11:0.14287515 12:0.84210527 13:0.58088237 14:0.56182212 15:0.59848487 16:0.58113378 #
2 1:0.0061605722 2:0.032407407 3:0.050000001 4:0.0050123185 5:0.25959471 6:0.088319086 7:0.13390313 8:0.84522551 9:0.85273194 10:0.73233479 11:0.09212254 12:0.85000002 13:0.55607474 14:0.55911404 15:0.59803921 16:0.58803546 #
-2 1:0.045351475 3:0.1388889 4:0.015595463 5:0.40415889 6:0.17743702 7:0.032858707 8:0.88668197 9:0.88910544 10:0.70165449 11:0.19648083 12:0.9464286 13:0.62030905 14:0.62295121 15:0.65011823 16:0.64935112 #
2 1:0.006763285 2:0.032142859 3:0.071428575 4:0.0047685835 5:0.31899863 6:0.019138755 7:0.19138756 8:0.88554621 9:0.88810796 10:0.68734878 11:0.12921968 12:0.84615386 13:0.58203125 14:0.57748961 15:0.61382115 16:0.60526997 #
-2 1:0.034965035 3:0.11904762 4:0.013043478 5:0.43912116 6:0.10730253 7:0.11773472 8:0.88703179 9:0.89137846 10:0.73189229 11:0.20171066 12:0.9464286 13:0.58383232 14:0.57971847 15:0.64984226 16:0.62201309 #
-2 1:0.037807185 3:0.12244898 4:0.013223141 5:0.4080371 6:0.23473054 7:0.069461077 8:0.9210605 9:0.92464966 10:0.74603713 11:0.21346883 12:0.9464286 13:0.63476068 14:0.65149456 15:0.68073881 16:0.69462341 #
-2 1:0.038548753 3:0.12244898 4:0.013223141 5:0.50697911 6:0.11596639 7:0.10252101 8:0.87661582 9:0.88037485 10:0.71687365 11:0.21568319 12:0.9464286 13:0.60122699 14:0.59223276 15:0.65714288 16:0.63533109 #
2 1:0.0057814992 2:0.026515152 3:0.039999999 4:0.0043149069 5:0.37959737 6:0.24161074 7:0.03691275 8:0.82469076 9:0.83199972 10:0.66813087 11:0.13361618 12:0.83333331 13:0.45054945 14:0.47776654 15:0.48275861 16:0.50822359 #
2 1:0.0053872052 2:0.02077922 3:0.023391813 4:0.0027144686 5:0.27446231 6:0.09592326 7:0.069544367 8:0.86146402 9:0.87014043 10:0.7601921 11:0.12152667 12:0.85714287 13:0.54789275 14:0.58376187 15:0.61065573 16:0.61960822 #
2 1:0.0061835749 2:0.022624435 3:0.059090909 4:0.004980843 5:0.29021367 6:0.10411622 7:0.13559322 8:0.86085153 9:0.87163633 10:0.60786039 11:0.12026563 12:0.84615386 13:0.59292036 14:0.55569202 15:0.63207549 16:0.59160137 #
-2 1:0 5:0.15592048 6:0.29593945 7:0.24569856 8:0.85597044 9:0.85382366 10:0.39602086 11:0.037578914 12:0.083333336 13:0.28943089 14:0.32560635 15:0.3281787 16:0.36174631 #
-2 1:0.0091925021 3:0.12684911 4:0.0018086059 5:0.1016494 6:0.52840906 7:0.40340909 8:0.6069259 9:0.61599243 10:0.31856379 11:0.034407407 12:0.9464286 13:0.29752067 14:0.35290727 15:0.30769232 16:0.35888916 #
-2 1:0.052287582 3:0.12244898 4:0.013223141 5:0.19052345 6:0.83067095 7:0.78594249 8:0.60007399 9:0.60602576 10:0.31696481 11:0.11167319 12:0.9464286 13:0.1724138 14:0.32188797 15:0.18181819 16:0.32703498 #
2 1:0.021276595 2:0.25 3:0.5 4:0.069444448 5:0.67657024 6:0.1496761 7:0.0051142178 8:0.97511679 9:0.97591549 10:0.91010332 11:0.36344135 12:0.14341085 13:0.58015269 14:0.59449196 15:0.65250963 16:0.65461928 #
2 1:0 3:0 4:4.8441791e-05 5:0.16600151 6:0.88069487 7:0.84529662 8:0.77763289 9:0.76114005 10:0.11308602 11:0.00074830261 13:0.091051802 14:0.15385526 15:0.12523021 16:0.19200079 #
2 1:0 2:0 3:0 4:0.00010668058 5:0.16080217 6:0.69681478 7:0.60243809 8:0.73837477 9:0.70915103 10:0.075382002 11:0.0056035202 13:0.17439294 14:0.17865305 15:0.24538259 16:0.22957225 #
-2 5:0.52953523 6:0.24276949 7:0.12532866 8:0.92861027 9:0.93965155 10:0.91502589 11:0.26304087 12:0.053333335 13:0.5714286 14:0.59602308 15:0.61778843 16:0.64051747 #
-2 5:0.42622489 6:0.23451635 7:0.12943633 8:0.90301895 9:0.91986167 10:0.79498869 11:0.16699409 12:0.0625 13:0.66197181 14:0.66782331 15:0.72049689 16:0.71315217 #
-2 5:0.52142024 6:0.14136386 7:0.022399204 8:0.90000856 9:0.90816635 10:0.67177325 11:0.17470996 12:0.065573767 13:0.65384614 14:0.62253177 15:0.72357726 16:0.67581511 #
2 1:0.0073313783 2:0.052083332 3:0.0625 4:0.0063763396 5:0.22888301 6:0.14379086 7:0.11111111 8:0.79762405 9:0.81184357 10:0.75407743 11:0.059958853 12:0.83333331 13:0.5 14:0.50002712 15:0.55248618 16:0.54648072 #
2 1:0.0050151977 2:0.016768293 3:0.023809524 4:0.0026961567 5:0.31270868 6:0 7:0.25087109 8:0.81035662 9:0.82429624 10:0.72553217 11:0.1284339 12:0.84615386 13:0.54395604 14:0.52988172 15:0.62427747 16:0.58800822 #
2 1:0.0071348939 2:0.042735044 3:0.06666667 4:0.0066060079 5:0.2800318 6:0.11830986 7:0.070422538 8:0.84123492 9:0.85030288 10:0.6287418 11:0.098540403 12:0.84615386 13:0.56603771 14:0.57749027 15:0.61576355 16:0.61425245 #
-2 1:0.045238096 3:0.12244898 4:0.013223141 5:0.090629183 6:0.11356467 7:0.11356467 8:0.70747668 9:0.71159661 10:0.27303892 11:0.019783564 12:0.9464286 13:0.2742857 14:0.25529748 15:0.31952661 16:0.29670331 #
-2 1:0.047368422 3:0.12244898 4:0.013223141 5:0.071182877 6:0.86416185 7:0.82369941 8:0.49796703 9:0.50350535 10:0.21285927 11:0.015528156 12:0.9464286 13:0.10606061 14:0.21320072 15:0.11640212 16:0.2309783 #
2 5:0.13094151 6:0.81973094 7:0.77040356 8:0.72162914 9:0.71096659 10:0.090082921 11:0.003777507 13:0.086563304 14:0.15787309 15:0.11904762 16:0.19325702 #
-2 1:0.039999999 2:0.078125 3:0.147929 4:0.009406074 5:0.2694062 6:0.33976835 7:0.3088803 8:0.89362347 9:0.89781713 10:0.65023172 11:0.086407073 12:0.13761468 13:0.3709273 14:0.4190287 15:0.40318301 16:0.44248724 #
-2 1:0.0272 3:0.12244898 4:0.013223141 5:0.32648852 6:0.23125795 7:0.017789073 8:0.83695549 9:0.83896774 10:0.50581926 11:0.13850048 12:0.9464286 13:0.48356807 14:0.51214945 15:0.55500001 16:0.57550818 #
-2 5:0.55178565 6:0.28607342 7:0.16239317 8:0.86284649 9:0.86852282 10:0.83379847 11:0.21996203 12:0.049382716 13:0.62090164 14:0.62538105 15:0.67764705 16:0.6784457 #
-2 1:0.010273973 3:0.14030303 4:0.0014092778 5:0.089299954 6:0.86097562 7:0.84146339 8:0.55424529 9:0.56641704 10:0.31679991 11:0.014887284 12:0.9464286 13:0.1273585 14:0.25471699 15:0.14705883 16:0.29127586 #
2 1:0.039999999 2:0.078125 3:0.17346939 4:0.0091373287 5:0.3084372 6:0.11643836 7:0.061643835 8:0.76799589 9:0.79288554 10:0.75188351 11:0.16093485 12:0.31914893 13:0.52439022 14:0.50054169 15:0.55128205 16:0.52198923 #
-2 1:0.043290045 3:0.12244898 4:0.013223141 5:0.14938852 6:0.04225352 7:0.24647887 8:0.62821597 9:0.63713628 10:0.37800953 11:0.080742784 12:0.9464286 13:0.41509435 14:0.39590496 15:0.46534654 16:0.42168155 #
2 1:0.039999999 2:0.078125 3:0.15625 4:0.0077551021 5:0.33612913 6:0.074257426 7:0.07920792 8:0.84018177 9:0.84750664 10:0.56502545 11:0.18060783 12:0.53571427 13:0.5726496 14:0.56079221 15:0.62280703 16:0.61215997 #
-2 5:0.30499738 6:0.12836364 7:0.19309092 8:0.86476749 9:0.85569268 10:0.41196215 11:0.076126166 12:0.61904764 13:0.49025488 14:0.43822086 15:0.55595028 16:0.48991546 #
2 1:0.0060037524 2:0.050000001 3:0.033333335 4:0.0034242151 5:0.48414376 6:0.13274336 7:0.017699115 8:0.86745441 9:0.8687402 10:0.79854876 11:0.32767281 12:0.84210527 13:0.69863015 14:0.68925214 15:0.71428573 16:0.70675349 #
2 1:0.039999999 2:0.078125 3:0.18131869 4:0.0085043991 5:0.33201841 6:0.03267974 7:0.03267974 8:0.77764493 9:0.79197508 10:0.53147441 11:0.19843134 12:0.20547946 13:0.5247525 14:0.51963282 15:0.58585858 16:0.58292192 #
-2 1:0 3:0 4:0.0016708438 5:0.18003233 6:0.18358831 7:0.061196107 8:0.87114447 9:0.86469555 10:0.25683308 11:0.010665121 12:0.078431375 13:0.28213167 14:0.29097331 15:0.34228188 16:0.33451435 #
2 5:0.046059784 6:0.87598056 7:0.85543519 8:0.62353051 9:0.60690403 10:0.076883763 11:0 13:0.0639413 14:0.13500465 15:0.076190479 16:0.15422806 #
2 1:0.01754386 2:0.25 3:0.5 4:0.069444448 5:0.68474847 6:0.22110553 7:0.11127064 8:0.94350231 9:0.94788313 10:0.91763759 11:0.37452617 12:0.14285715 13:0.70942408 14:0.69996876 15:0.7478261 16:0.73721808 #
-2 1:0.0027592345 2:0.03305785 3:0.04882155 4:0.00085476326 5:0.38896081 6:0.32926831 7:0.18757258 8:0.93360782 9:0.93504137 10:0.78271896 11:0.11967791 12:0.23 13:0.52320677 14:0.56685913 15:0.57627118 16:0.60337651 #
2 5:0.075992897 6:0.83528298 7:0.79544735 8:0.71654516 9:0.69831598 10:0.085082859 11:0.00078784814 13:0.085877866 14:0.16540582 15:0.10879121 16:0.19304812 #
-2 1:0 3:0 4:0.0016233766 5:0 6:0.13681869 7:0.12791991 8:0.51548821 9:0.51535642 10:0.0061721131 11:0 12:0.086956523 13:0.014084507 14:0.018946709 15:0.018518519 16:0.021979349 #
2 1:0 2:0 3:0 4:0.00051679584 5:0.12698764 6:0.80350041 7:0.76372313 8:0.70050734 9:0.68449187 10:0.028893303 11:0 13:0.063694268 14:0.09976086 15:0.076738611 16:0.11583943 #
-2 5:0.28250635 6:0.14219114 7:0.067599066 8:0.7994464 9:0.80324572 10:0.58960468 11:0.072253138 12:0.057971016 13:0.51136363 14:0.51061654 15:0.574359 16:0.5685572 #
-2 1:0.037878789 3:0.1388889 4:0.015595463 5:0.33667862 6:0.28995755 7:0.076379068 8:0.82443362 9:0.83241463 10:0.56531143 11:0.1463542 12:0.9464286 13:0.55182076 14:0.58444023 15:0.60000002 16:0.62299681 #
-2 1:0.0015325671 2:0.047337279 3:0.12777779 4:0.0033898305 5:0.29242042 6:0.17614166 7:0 8:0.84902239 9:0.85566056 10:0.71666414 11:0.11169255 12:0.16083916 13:0.51171172 14:0.52554142 15:0.55000001 16:0.55266345 #
-2 1:0 2:0 3:0 4:0.00029205607 5:0.055195395 6:0.79283488 7:0.91588783 8:0.82426918 9:0.8186757 10:0.34316137 11:0.0070841573 12:0.075471699 13:0.25071225 14:0.19534825 15:0.27794561 16:0.21033421 #
-2 1:0 2:0 3:0 4:0 5:0.16737857 6:0.69632494 7:1.0348163 8:0.73083764 9:0.73274893 10:0.55302721 11:0.044943996 12:0.06666667 13:0.35915494 14:0.28788316 15:0.40909091 16:0.3123005 #
-2 1:0 3:0 4:0.0015873016 5:0.22300956 6:0.40144926 7:0.59855074 8:0.85630226 9:0.86174661 10:0.60034841 11:0.031847496 12:0.07692308 13:0.3323077 14:0.28364879 15:0.42345276 16:0.35251069 #
2 1:0 2:0 3:0 4:0.00027841303 5:0.083482198 6:0.88461536 7:0.87616551 8:0.68953121 9:0.67595959 10:0.082499504 11:0.0018105524 13:0.072859742 14:0.16026144 15:0.093193717 16:0.19031394 #
-2 1:0 3:0 4:0.001572327 5:0.20139429 6:0.43245777 7:0.34896812 8:0.87259746 9:0.8723287 10:0.17542104 11:0.01552618 12:0.07272727 13:0.2631579 14:0.30810255 15:0.33009708 16:0.36444497 #
-2 1:0 3:0 4:0.0016534391 5:0.23236333 6:0.058455113 7:0.25260961 8:0.8506735 9:0.84329385 10:0.24016531 11:0.013249295 12:0.074074075 13:0.30504587 14:0.29954541 15:0.35802469 16:0.33305624 #
-2 1:0 2:0 3:0 4:0.0012820513 5:0.29740819 6:0.33242133 7:0.61285907 8:0.78530759 9:0.7904104 10:0.41803345 11:0.066582181 13:0.37241378 14:0.28228199 15:0.46850392 16:0.33226487 #
2 1:0 2:0 3:0 4:0 5:0.12947132 6:0.83181471 7:0.79536825 8:0.7869373 9:0.77647561 10:0.11017139 11:0.0032446419 12:0.070175439 13:0.15156507 14:0.23237179 15:0.19433962 16:0.28017488 #
2 1:0 3:0 4:0.00018303844 5:0.13915086 6:0.89285713 7:0.86706346 8:0.75760865 9:0.73607695 10:0.11381954 11:0.0015139008 13:0.11986301 14:0.19962145 15:0.14398421 16:0.22162156 #
-2 5:0.29432175 6:0.49918789 7:0.79750949 8:0.85836095 9:0.85838282 10:0.42977044 11:0.091356762 12:0.090909094 13:0.4216691 14:0.35862324 15:0.46655518 16:0.38222119 #
-2 5:0.21289256 6:0.76106471 7:0.73042405 8:0.70399225 9:0.71072435 10:0.53988397 11:0.035860386 12:0.028368793 13:0.16241497 14:0.27903128 15:0.20520231 16:0.33520162 #
2 5:0.074402384 6:0.8199234 7:0.76580459 8:0.51001757 9:0.50975966 10:0.087952197 11:0.0050489358 13:0.066528067 14:0.13076538 15:0.075723834 16:0.14739969 #
-2 1:0.037807185 3:0.12244898 4:0.013223141 5:0.22887462 6:0.4362292 7:0.29390019 8:0.75550085 9:0.76030254 10:0.52900225 11:0.10564505 12:0.9464286 13:0.35836178 14:0.42293304 15:0.3985765 16:0.45148447 #
-2 5:0.61223763 6:0.2737532 7:0.14524937 8:0.92121935 9:0.92193151 10:0.84225339 11:0.22846127 12:0.05882353 13:0.54313099 14:0.54180139 15:0.62884617 16:0.61257011 #
-2 1:0 3:0 4:0.0016464032 5:0.14150265 6:0.089024387 7:0.073170729 8:0.82766402 9:0.82842422 10:0.3184697 11:0.019406881 12:0.081632651 13:0.33879781 14:0.33956566 15:0.39367816 16:0.38283095 #
2 1:0 3:0 4:4.8441791e-05 5:0.14162466 6:0.79678792 7:0.75516224 8:0.7608847 9:0.73671126 10:0.11407009 11:0.0012394636 13:0.13814756 14:0.18452686 15:0.1878453 16:0.23070075 #
2 1:3.1593579e-05 2:0 3:0 4:0.00033156498 5:0.16931382 6:0.51196808 7:0.84441489 8:0.82345414 9:0.81306809 10:0.085962839 11:0.0052833473 12:0.093023255 13:0.26479751 14:0.19680819 15:0.30303031 16:0.22349508 #
2 1:0 2:0 3:0 4:0.00024588147 5:0.13107999 6:0.60118794 7:0.49469665 8:0.7581113 9:0.75027865 10:0.15134297 11:0.007128763 13:0.23219374 14:0.28869006 15:0.28125 16:0.32583311 #
-2 1:0.001707213 2:0 3:0.033670034 4:0.0011395036 5:0.38334271 6:0.17547169 7:0.3335849 8:0.85485023 9:0.82437408 10:0.41698903 11:0.096200608 12:0.40000001 13:0.53478259 14:0.45336151 15:0.60574412 16:0.49223739 #
-2 1:0 2:0 3:0 4:4.9258659e-05 5:0.10015123 6:0.60916442 7:0.53638816 8:0.69533879 9:0.69396102 10:0.48443472 11:0.0090675214 12:0.052631579 13:0.2284264 14:0.295147 15:0.26455027 16:0.34520543 #
2 1:0 2:0 3:0 4:3.7991296e-05 5:0.11453717 6:0.021722561 7:0.31478658 8:0.67415529 9:0.66076458 10:0.094825335 11:0.00093552691 13:0.26785713 14:0.17950857 15:0.35915494 16:0.22661817 #
2 5:0.1324846 6:0.38093165 7:0.45711797 8:0.72634679 9:0.70897925 10:0.11819191 11:0.0029269122 13:0.19009216 14:0.19233318 15:0.2621232 16:0.24108182 #
2 1:0.0073575783 2:0.042105265 3:0.059090909 4:0.0050824927 5:0.3206799 6:0.11413044 7:0.097826086 8:0.81678343 9:0.83049536 10:0.87163377 11:0.16140693 12:0.83333331 13:0.5688889 14:0.57142997 15:0.61722487 16:0.61284214 #
-2 1:0.052469134 3:0.12244898 4:0.013223141 5:0.28059828 6:0.32049829 7:0.13137034 8:0.81808162 9:0.82631963 10:0.35733005 11:0.12184781 12:0.9464286 13:0.45933014 14:0.49449235 15:0.5 16:0.51958871 #
-2 1:0.037807185 3:0.12244898 4:0.013223141 5:0.083936147 6:0.35111111 7:0.20444444 8:0.67424697 9:0.68842429 10:0.35402533 11:0.0056325737 12:0.9464286 13:0.29927006 14:0.36820406 15:0.3283582 16:0.3801021 #
2 1:0.0059559261 2:0.011904762 3:0.0625 4:0.0061721937 5:0.38589197 6:0.073732719 7:0.041474655 8:0.78561366 9:0.79635346 10:0.87623948 11:0.23210089 12:0.85365856 13:0.58955222 14:0.56674892 15:0.60629922 16:0.57953739 #
2 1:0.00039447731 2:0 3:0 4:0.00054619228 5:0.014772053 6:0.15634218 7:0.27138644 8:0.62137502 9:0.62438416 10:0.13726558 11:0 13:0.18009479 14:0.19428696 15:0.21951219 16:0.23107328 #
2 1:0.0067340066 2:0.037433155 3:0.05882353 4:0.0059718308 5:0.29582477 6:0.092 7:0.16 8:0.82437247 9:0.82872152 10:0.78359032 11:0.11389928 12:0.83333331 13:0.62237763 14:0.5901134 15:0.63768119 16:0.60561609 #
2 5:0.11133965 6:0.92811704 7:0.91157758 8:0.73416096 9:0.71792394 10:0.072697237 11:0 13:0.064992614 14:0.13626929 15:0.08665511 16:0.17052536 #
-2 1:0.011767926 3:0.12439156 4:0.0021928106 5:0.12604597 6:0.62352943 7:0.53529412 8:0.65660167 9:0.65463287 10:0.28050941 11:0.020770324 12:0.9464286 13:0.21100917 14:0.27978134 15:0.21495327 16:0.28238401 #
2 1:0.0047592386 2:0.022058824 3:0.030769231 4:0.0026483526 5:0.2837846 6:0.0373444 7:0.186722 8:0.71744478 9:0.72046548 10:0.70260328 11:0.11449286 12:0.84210527 13:0.55151516 14:0.54175305 15:0.57763976 16:0.56716806 #
-2 1:0.041322313 3:0.12244898 4:0.013223141 5:0.22928335 6:0.46075949 7:0.32658228 8:0.78145152 9:0.79552507 10:0.41405648 11:0.0878736 12:0.9464286 13:0.40845069 14:0.48441875 15:0.47058824 16:0.54879546 #
2 1:0 2:0 3:0 4:0.00013314282 5:0.10955136 6:0.73106062 7:0.66637528 8:0.73307693 9:0.72128844 10:0.10426909 11:0.00054650503 13:0.10746812 14:0.16211247 15:0.14031413 16:0.19812322 #
2 1:0.0073613985 2:0.044444446 3:0.055555556 4:0.0055707376 5:0.26498491 6:0.11587983 7:0.060085837 8:0.76397789 9:0.7855705 10:0.67629725 11:0.13806279 12:0.83333331 13:0.4967742 14:0.52179611 15:0.55782312 16:0.567559 #
2 1:0.0064102565 2:0.027210884 3:0.03846154 4:0.003928836 5:0.392129 6:0.21221864 7:0.11575563 8:0.86178517 9:0.87635958 10:0.84796774 11:0.23001818 12:0.85714287 13:0.60540539 14:0.63952082 15:0.67613637 16:0.69620413 #
-2 5:0.37119561 6:0.0043777362 7:0.06660413 8:0.83586359 9:0.84210873 10:0.50894016 11:0.13602833 12:0.609375 13:0.53834587 14:0.50716424 15:0.58378381 16:0.53985381 #
-2 1:0.030769231 3:0.12244898 4:0.013223141 5:0.26688352 6:1.25 7:1.7964286 8:0.78122395 9:0.78844285 10:0.44976822 11:0.078634016 12:0.9464286 13:0.55428571 14:0.37584218 15:0.58333331 16:0.3914867 #
-2 1:0.045000002 3:0.12244898 4:0.013223141 5:0.35488802 6:0.040816326 7:0.22448979 8:0.82352072 9:0.82287639 10:0.60758388 11:0.22344738 12:0.9464286 13:0.46601942 14:0.43862036 15:0.53684211 16:0.49006754 #
2 1:0.0070869992 2:0.052083332 3:0.0625 4:0.0062691742 5:0.31688419 6:0.098765433 7:0.098765433 8:0.79933226 9:0.81047738 10:0.73258191 11:0.1278936 12:0.85000002 13:0.53513515 14:0.52341425 15:0.58988762 16:0.56503904 #
2 1:0.0062770564 2:0.024242423 3:0.070588239 4:0.0058346521 5:0.31939077 6:0.081447966 7:0.12217195 8:0.76494592 9:0.7989229 10:0.70055771 11:0.15454429 12:0.83333331 13:0.56521738 14:0.5426839 15:0.60740739 16:0.57816774 #
2 1:0.0058422592 2:0.020833334 3:0.03846154 4:0.003947258 5:0.19550908 6:0.08130081 7:0.12466124 8:0.78035408 9:0.79876953 10:0.53866506 11:0.069046967 12:0.83333331 13:0.47804877 14:0.46583861 15:0.54166669 16:0.51916999 #
-2 1:0.003837544 2:0.047337279 3:0.089116141 4:0.0022875818 5:0.41096419 6:0.19437468 7:0.014565545 8:0.90249169 9:0.90200132 10:0.67154908 11:0.092306234 12:0.25555557 13:0.55926353 14:0.54797512 15:0.62280703 16:0.58973914 #
2 5:0.065996632 6:0.9008621 7:0.88266283 8:0.48111483 9:0.46876907 10:0.051876266 11:0 13:0.036382537 14:0.096339718 15:0.042316258 16:0.10794584 #
-2 5:0.29692623 6:0.37142858 7:0.24761905 8:0.78162551 9:0.78567177 10:0.58431 11:0.12701598 12:0.07272727 13:0.32234433 14:0.34817165 15:0.34375 16:0.36997002 #
-2 1:0.021403091 3:0.12244898 4:0.013223141 5:0.19069046 6:0.62980771 7:0.50961536 8:0.63100195 9:0.64325261 10:0.33099008 11:0.048583396 12:0.9464286 13:0.2248062 14:0.28910515 15:0.23622048 16:0.30337098 #
2 1:0.0058479533 2:0.027777778 3:0.062200956 4:0.0052246605 5:0.35997945 6:0.020618556 7:0.2242268 8:0.85991383 9:0.8638519 10:0.74077815 11:0.18078305 12:0.83333331 13:0.69270831 14:0.65781975 15:0.72432435 16:0.68641269 #
-0.79029998880801599625556264072657 1:0.038961038 3:0.12244898 4:0.013223141 5:0.41865698 6:0.25082508 7:0.062706269 8:0.91821373 9:0.92332721 10:0.78449738 11:0.20469348 12:0.9464286 13:0.65949821 14:0.65953761 15:0.69411767 16:0.68741101 #
-2 1:0.04112554 3:0.12244898 4:0.013223141 5:0.31455743 6:0.35523614 7:0.20944558 8:0.83322018 9:0.83718187 10:0.64744872 11:0.1274188 12:0.9464286 13:0.5848214 14:0.59876418 15:0.63207549 16:0.63812417 #
-2 1:0.032051284 3:0.12244898 4:0.013223141 5:0.2611306 6:0.091954023 7:0.068965517 8:0.71320516 9:0.71699637 10:0.4856084 11:0.1061765 12:0.9464286 13:0.48275861 14:0.47151145 15:0.5 16:0.49651563 #
2 1:0.0060616867 2:0.037037037 3:0.045454547 4:0.0038860103 5:0.28736475 6:0.18560606 7:0.049242426 8:0.84038246 9:0.84723723 10:0.64603895 11:0.13643816 12:0.85365856 13:0.44374999 14:0.44860032 15:0.46451613 16:0.46602187 #
2 1:0.0073653199 2:0.040485829 3:0.077272728 4:0.004980843 5:0.33866805 6:0.12566845 7:0.050802138 8:0.87785822 9:0.88122058 10:0.73415118 11:0.15197827 12:0.83333331 13:0.57407409 14:0.56891978 15:0.63054186 16:0.61269271 #
2 1:0.0060439561 2:0.028985508 3:0.064393938 4:0.0041973395 5:0.35088685 6:0.12426036 7:0.044378698 8:0.8399018 9:0.84545618 10:0.69631875 11:0.16108833 12:0.83333331 13:0.5539906 14:0.56075376 15:0.60000002 16:0.6014688 #
2 1:0.00012239903 2:0 3:0.0016666667 4:0.00060598407 5:0.13310897 6:0.68123543 7:0.60751748 8:0.71620554 9:0.70355457 10:0.086703099 11:0.0024808734 12:0.064516127 13:0.11748634 14:0.16207899 15:0.15706806 16:0.19604661 #
2 1:0.0063820421 2:0.035714287 3:0.052631579 4:0.0054454873 5:0.33966744 6:0.17431192 7:0.0061162082 8:0.83593142 9:0.84314692 10:0.67244262 11:0.1448908 12:0.84615386 13:0.56020945 14:0.56920809 15:0.60439563 16:0.60274202 #
2 1:0.006095238 2:0.029999999 3:0.034632035 4:0.0041527622 5:0.35410711 6:0.12867647 7:0.036764707 8:0.82483381 9:0.83464193 10:0.67657936 11:0.17467415 12:0.84210527 13:0.50625002 14:0.51576406 15:0.57236844 16:0.57426053 #
-2 5:0.36703199 6:0.086003371 7:0.24620573 8:0.83206302 9:0.84742153 10:0.71751416 11:0.12879832 12:0.075471699 13:0.47784811 14:0.46924782 15:0.51505017 16:0.49401876 #
-2 5:0.25445294 6:0.27725857 7:0.1246106 8:0.79556936 9:0.80120832 10:0.7140975 11:0.10482908 12:0.07272727 13:0.43617022 14:0.47288266 15:0.47540984 16:0.51164079 #
2 1:0.0073529412 2:0.048484847 3:0.055555556 4:0.0055707376 5:0.34023833 6:0.056451611 7:0.11290322 8:0.73302108 9:0.74834013 10:0.76554638 11:0.15099949 12:0.83333331 13:0.6100629 14:0.58645624 15:0.65359479 16:0.61465472 #
2 1:0.0049975011 2:0.050000001 3:0.03125 4:0.0032295748 5:0.2787872 6:0.17507419 7:0.011869436 8:0.82668525 9:0.84532088 10:0.65748489 11:0.14317873 12:0.84210527 13:0.48826292 14:0.4964886 15:0.53768843 16:0.53634256 #
-2 1:0.041322313 3:0.12244898 4:0.013223141 5:0.32673973 6:0.0065075923 7:0.24728851 8:0.85976708 9:0.86590958 10:0.61957991 11:0.14602095 12:0.9464286 13:0.64315355 14:0.58286911 15:0.70044053 16:0.62621725 #
2 1:0 3:0 4:0.00010369859 5:0.15586576 6:0.88140857 7:0.85266703 8:0.7540167 9:0.72132951 10:0.068205915 11:0.0038944562 13:0.1122807 14:0.15963128 15:0.15170941 16:0.19827142 #
-2 1:0.045238096 3:0.12244898 4:0.013223141 5:0.1063817 6:0.089887641 7:0.11985019 8:0.75132519 9:0.76823968 10:0.35957763 11:0.012150629 12:0.9464286 13:0.33333334 14:0.33016908 15:0.37575758 16:0.35391033 #
-2 1:0.037807185 3:0.12244898 4:0.013223141 5:0.2476991 6:0.7364341 7:0.63953489 8:0.71299839 9:0.70811939 10:0.60567921 11:0.1683052 12:0.9464286 13:0.28025478 14:0.4389478 15:0.28378379 16:0.4420318 #
2 1:0.0073529412 2:0.048484847 3:0.065656565 4:0.0054935766 5:0.33886749 6:0.1 7:0.053333335 8:0.81575161 9:0.83085924 10:0.68617088 11:0.15392447 12:0.84210527 13:0.59340662 14:0.57630342 15:0.61931819 16:0.60082692 #
2 1:0.0057971017 2:0.048484847 3:0.03125 4:0.0032051282 5:0.35880673 6:0.020920502 7:0.14225942 8:0.85306233 9:0.8633734 10:0.80583245 11:0.19813217 12:0.84210527 13:0.61073828 14:0.60594356 15:0.63829786 16:0.61680019 #
2 1:0.0071348939 2:0.048484847 3:0.049382716 4:0.0055555557 5:0.30914202 6:0.056047197 7:0.15339233 8:0.82984501 9:0.83898342 10:0.74168205 11:0.14643405 12:0.84210527 13:0.59241706 14:0.59179914 15:0.65853661 16:0.64154917 #
1.5780137837364947017704253084958 5:0.052726828 6:6.397222 7:6.7555556 8:0.63981712 9:0.63393617 10:0.12010809 11:0.0020307971 13:0.37850466 14:0.18854481 15:0.42718446 16:0.21503234 #
2 1:0 2:0 3:0 4:2.6979449e-05 5:0.095173091 6:0.60646385 7:0.49619773 8:0.72964764 9:0.71162385 10:0.078303911 11:0 13:0.18110237 14:0.14095631 15:0.21338913 16:0.16135524 #
-2 1:0 2:0 3:0 4:2.7414786e-05 5:0.16177891 6:0.41035858 7:0.29482073 8:0.80842423 9:0.80973673 10:0.44921163 11:0.0089384736 13:0.24460432 14:0.28663501 15:0.25555557 16:0.29186502 #
-2 1:0 2:0 3:0 4:0.00035945364 5:0.20753281 6:0.52794409 7:0.49650699 8:0.90743154 9:0.90093541 10:0.55039251 11:0.051620256 12:0.075471699 13:0.23515151 14:0.32454211 15:0.26753247 16:0.36798036 #
2 1:0.007147362 2:0.050000001 3:0.052631579 4:0.0052594044 5:0.28199017 6:0.025 7:0.21666667 8:0.77633703 9:0.7986697 10:0.66203994 11:0.11102868 12:0.84210527 13:0.58411217 14:0.56337523 15:0.66990292 16:0.60688812 #
2 1:0.0071157496 2:0.050000001 3:0.046783626 4:0.0048611113 5:0.3778972 6:0.029739777 7:0.026022306 8:0.84024566 9:0.86588556 10:0.8256197 11:0.22774376 12:0.85714287 13:0.6111111 14:0.61398458 15:0.65789473 16:0.64940542 #
2 1:0 2:0 3:0 4:0 5:0.13878591 6:0.64787114 7:0.50978136 8:0.72004753 9:0.71455747 10:0.07558535 11:0.0049886014 13:0.12114014 14:0.1850141 15:0.14360313 16:0.2049672 #
-2 5:0.21242908 6:0.63184083 7:0.59145451 8:0.74482036 9:0.73399258 10:0.51132607 11:0.024118615 12:0.02631579 13:0.22019231 14:0.30309021 15:0.26574174 16:0.34685519 #
-2 5:0.25924376 6:0.19730942 7:0.076233186 8:0.7237044 9:0.73010164 10:0.57299256 11:0.076120563 12:0.068965517 13:0.35849056 14:0.40543291 15:0.40625 16:0.44642183 #
2 1:0.0067500495 2:0.04524887 3:0.059999999 4:0.0050123185 5:0.34924313 6:0.022304833 7:0.08178439 8:0.80218434 9:0.80768746 10:0.65189397 11:0.17856841 12:0.85000002 13:0.50847459 14:0.52129877 15:0.53846157 16:0.53846157 #
2 1:0.0073313783 2:0.050000001 3:0.06666667 4:0.0066609979 5:0.30691722 6:0.043478262 7:0.11180124 8:0.72757566 9:0.74610215 10:0.72581506 11:0.15892713 12:0.84210527 13:0.60952383 14:0.57158458 15:0.64999998 16:0.59837347 #
2 1:0.0067269285 2:0.050000001 3:0.052631579 4:0.0052941763 5:0.58322006 6:0.14683545 7:0.0025316456 8:0.8830179 9:0.89568275 10:0.88613951 11:0.39883932 12:0.85000002 13:0.74025977 14:0.75115615 15:0.76525819 16:0.77440143 #
0.63438146188887956089530462122639 1:0.00017158545 2:0 3:0 4:0.00011645511 5:0.090337887 6:0.890625 7:0.863186 8:0.64320415 9:0.62540883 10:0.061191402 11:0 13:0.08730159 14:0.14247838 15:0.11737089 16:0.17347939 #
2 5:0.10152645 6:0.82474554 7:0.76590329 8:0.69666743 9:0.68377 10:0.094876379 11:0.0034810374 13:0.13884786 14:0.20218222 15:0.18197574 16:0.23882456 #
-2 1:0.0057471264 2:0.038781162 3:0.027323326 4:0.00043970975 5:0.41863057 6:0.18337476 7:0.014636841 8:0.90559298 9:0.90688872 10:0.79282051 11:0.093387127 12:0.18699187 13:0.52985072 14:0.56621331 15:0.59983498 16:0.616597 #
2 5:0.056139085 6:0.90466028 7:0.89754534 8:0.58351052 9:0.56762588 10:0.11783855 11:0.0011973077 13:0.060830861 14:0.12524354 15:0.075342469 16:0.14671884 #
2 1:0.0053802007 2:0.043956045 3:0.034482758 4:0.0035525321 5:0.42007765 6:0.22869955 7:0.049327355 8:0.83622694 9:0.87153512 10:0.87929142 11:0.27036902 12:0.85365856 13:0.59722221 14:0.6199643 15:0.63768119 16:0.65201288 #
-2 1:0.035273369 3:0.1388889 4:0.015595463 5:0.35324669 6:0.20297556 7:0.004250797 8:0.83989578 9:0.84700757 10:0.64131743 11:0.17449938 12:0.9464286 13:0.59813082 14:0.59259439 15:0.65473145 16:0.63860261 #
-2 1:0.0012919897 2:0.050000001 3:0.10089286 4:0.0021329804 5:0.32130849 6:0.18733081 7:0.01082837 8:0.88409311 9:0.88573927 10:0.67397952 11:0.059314329 12:0.20535715 13:0.49388754 14:0.49695536 15:0.55335969 16:0.52852648 #
-2 1:0.002077922 2:0.047337279 3:0.097993828 4:0.0021514629 5:0.42214584 6:0.18655172 7:0.0093103452 8:0.89750093 9:0.90038764 10:0.71396142 11:0.079348505 12:0.19327731 13:0.51592922 14:0.54193068 15:0.58997053 16:0.59555995 #
2 1:0.0073529412 2:0.050000001 3:0.05882353 4:0.005859375 5:0.38160834 6:0.072796933 7:0.068965517 8:0.84982121 9:0.86098021 10:0.71897906 11:0.20198479 12:0.84615386 13:0.60795456 14:0.60623473 15:0.61176473 16:0.62096471 #
2 1:0.0068150843 2:0.0390625 3:0.045454547 4:0.0046337377 5:0.34531641 6:0.090909094 7:0.064171121 8:0.84312916 9:0.85324043 10:0.63797212 11:0.19807991 12:0.84615386 13:0.52336448 14:0.52919585 15:0.57416266 16:0.5660944 #
-2 1:0.032000002 3:0.12244898 4:0.013223141 5:0.26687893 6:0.2 7:0.030508475 8:0.7987923 9:0.80786455 10:0.50441676 11:0.12356041 12:0.9464286 13:0.41242939 14:0.42665651 15:0.45029241 16:0.45702359 #
2 1:0.0075811418 2:0.051282052 3:0.06666667 4:0.0066060079 5:0.27234721 6:0.10133334 7:0.13600001 8:0.8286041 9:0.83702248 10:0.66709501 11:0.15697542 12:0.84210527 13:0.60995853 14:0.61570537 15:0.6695652 16:0.6541062 #
-2 1:0.040476192 3:0.12244898 4:0.013223141 5:0.23839805 6:0.32516703 7:0.12917595 8:0.71228701 9:0.72798163 10:0.57009733 11:0.11254837 12:0.9464286 13:0.48117155 14:0.51066154 15:0.5401786 16:0.56743139 #
-2 1:0.04112554 3:0.12244898 4:0.013223141 5:0.29734764 6:0.35968378 7:0.20553359 8:0.85178804 9:0.85586286 10:0.56250978 11:0.13776231 12:0.9464286 13:0.44117647 14:0.50407326 15:0.50597608 16:0.54797405 #
2 1:0.0073529412 2:0.042735044 3:0.06666667 4:0.0066060079 5:0.3762967 6:0.24358974 7:0.051282052 8:0.83263189 9:0.84522855 10:0.69941813 11:0.20552154 12:0.83333331 13:0.56497175 14:0.61149949 15:0.61176473 16:0.6427595 #
2 1:0 3:0 4:0.00030643513 5:0.052673224 6:0.53053892 7:0.48383233 8:0.64174837 9:0.6390304 10:0.11330878 11:0 13:0.13853905 14:0.20885904 15:0.15831135 16:0.22659263 #
2 1:0.005860806 2:0.052083332 3:0.027548209 4:0.0028882576 5:0.42225975 6:0.14732143 7:0.0625 8:0.8497988 9:0.85450035 10:0.79574001 11:0.29408586 12:0.84210527 13:0.57615894 14:0.62095356 15:0.59722221 16:0.63845742 #
2 1:0.0056561087 2:0.050000001 3:0.03846154 4:0.003947258 5:0.35470524 6:0.20065789 7:0.042763159 8:0.84474224 9:0.85899782 10:0.64143527 11:0.20331749 12:0.84615386 13:0.51595747 14:0.543872 15:0.54802263 16:0.56419194 #
-2 1:0.036363635 3:0.12244898 4:0.013223141 5:0.34497043 6:0.088362068 7:0.14439656 8:0.88523281 9:0.88898951 10:0.61908656 11:0.1492123 12:0.9464286 13:0.61924684 14:0.595806 15:0.68000001 16:0.64510465 #
-2 1:0 2:0 3:0 4:0.0015432099 5:0.14229046 6:0.13916947 7:0.034792367 8:0.68978369 9:0.69352365 10:0.57848901 11:0.015364388 13:0.27710843 14:0.28067988 15:0.30287206 16:0.30169281 #
-2 1:0.047499999 3:0.12244898 4:0.013223141 5:0.1977208 6:0.142 7:0.079999998 8:0.69952595 9:0.70999068 10:0.48985404 11:0.083430894 12:0.9464286 13:0.45833334 14:0.45761442 15:0.51229507 16:0.49438405 #
2 5:0.65718192 6:0.16508938 7:0.10410095 8:0.93405354 9:0.93564886 10:0.95981973 11:0.44184071 12:0.875 13:0.77488154 14:0.78917933 15:0.82487309 16:0.8301574 #
-2 1:0.037549406 3:0.12244898 4:0.013223141 5:0.31136405 6:0.34507042 7:0.15727699 8:0.70618623 9:0.71410716 10:0.5472002 11:0.13675393 12:0.9464286 13:0.38961038 14:0.44340041 15:0.45454547 16:0.49302375 #
2 1:0.0063199713 2:0.026960785 3:0.045454547 4:0.0045556491 5:0.38181865 6:0.17785235 7:0.087248325 8:0.83136201 9:0.83453315 10:0.57430357 11:0.20131463 12:0.85000002 13:0.56149733 14:0.58667362 15:0.61452514 16:0.62690532 #
-2 1:0.04112554 3:0.12244898 4:0.013223141 5:0.21849923 6:0.0048701297 7:0.24188311 8:0.82885814 9:0.83079255 10:0.47897136 11:0.076190308 12:0.9464286 13:0.49668875 14:0.45963538 15:0.55633801 16:0.50623345 #
-2 5:0.43229333 6:0.012646222 7:0.030034777 8:0.92933154 9:0.92409164 10:0.72087336 11:0.16665512 12:0.7647059 13:0.45992365 14:0.47032413 15:0.50109893 16:0.50359541 #
2 1:0 3:0 4:0.00014742014 5:0.092671812 6:0.90015185 7:0.86598331 8:0.6437341 9:0.63341522 10:0.074989602 11:0 13:0.08118812 14:0.12711728 15:0.10304449 16:0.15018989 #
2 1:0.0065520066 2:0.029629629 3:0.054545455 4:0.0045818123 5:0.40843269 6:0.19081272 7:0.063604243 8:0.82065362 9:0.82478011 10:0.67210764 11:0.27076709 12:0.85365856 13:0.64534885 14:0.66911191 15:0.66871166 16:0.6902191 #
2 1:0.0070480928 2:0.039215688 3:0.052631579 4:0.0052594044 5:0.56493145 6:0.13105413 7:0.039886039 8:0.91407734 9:0.91995168 10:0.83442897 11:0.37594551 12:0.85000002 13:0.70192307 14:0.70616114 15:0.73232323 16:0.72503626 #
2 1:0.0065671643 2:0.028708134 3:0.057142857 4:0.0049342103 5:0.59384346 6:0.16121495 7:0.004672897 8:0.94493032 9:0.94917053 10:0.85838234 11:0.40596327 12:0.85365856 13:0.75675678 14:0.76648915 15:0.76811594 16:0.77564669 #
-2 1:0.045238096 3:0.12244898 4:0.013223141 5:0.18778799 6:0.18888889 7:0.44074073 8:0.71405745 9:0.71712995 10:0.38846129 11:0.062608793 12:0.9464286 13:0.39156628 14:0.33783674 15:0.41358024 16:0.35984081 #
-2 1:0.045112781 3:0.12244898 4:0.013223141 5:0.11389155 6:0.30239519 7:0.14670658 8:0.73654735 9:0.74346399 10:0.32953337 11:0.021919133 12:0.9464286 13:0.3115578 14:0.34892473 15:0.34375 16:0.38507703 #
-2 1:0.043290045 3:0.12244898 4:0.013223141 5:0.2878904 6:0.133829 7:0.074349441 8:0.80833536 9:0.80392504 10:0.49196714 11:0.11068712 12:0.9464286 13:0.43554008 14:0.43902704 15:0.48897058 16:0.4926061 #
-2 1:0 2:0 5:0.19332601 6:0.26499361 7:0.1429179 8:0.87401938 9:0.87354344 10:0.55448705 11:0.018295946 13:0.33000001 14:0.34598202 15:0.3888889 16:0.39468732 #
-2 5:0.43128148 6:0.27308294 7:0.19874804 8:0.82097876 9:0.81744081 10:0.78099632 11:0.11771166 12:0.065573767 13:0.53346455 14:0.53272778 15:0.60364467 16:0.5982185 #
-2 5:0.52062482 6:0.59355009 7:0.52385396 8:0.90458781 9:0.90561521 10:0.82674575 11:0.21696648 12:0.064516127 13:0.38299596 14:0.47561094 15:0.44891945 16:0.53906351 #
2 1:0 3:0 4:0.00030643513 5:0.053569619 6:0.61904764 7:0.58114672 8:0.62081373 9:0.61811012 10:0.097031996 11:0 13:0.12581345 14:0.20074481 15:0.14918415 16:0.22717758 #
-2 1:0.0086875167 3:0.14037433 4:0.0012186692 5:0.18884218 6:0.72549021 7:0.67226893 8:0.68415111 9:0.68749458 10:0.38463056 11:0.04740205 12:0.9464286 13:0.25480768 14:0.3832294 15:0.28282827 16:0.40831339 #
2 1:0.00015082957 2:0 3:0 4:7.8434728e-05 5:0.13236949 6:0.86478871 7:0.8309859 8:0.75216669 9:0.73722404 10:0.09035486 11:0.0019593535 13:0.12524085 14:0.17453234 15:0.16478555 16:0.21346125 #
-2 1:0.021164021 3:0.12244898 4:0.013223141 5:0.13744019 6:0.12200957 7:0.081339709 8:0.77879393 9:0.78376144 10:0.4446215 11:0.042069152 12:0.9464286 13:0.38339922 14:0.37485009 15:0.42561984 16:0.40673038 #
2 5:0.053963467 6:0.94270831 7:0.93721062 8:0.60952878 9:0.61512417 10:0.084722407 11:0 13:0.039267015 14:0.11480227 15:0.049950048 16:0.13452823 #
-2 1:0 2:0 3:0 4:0.00034515717 5:0.15612163 6:0.53412747 7:0.5112685 8:0.73812246 9:0.72954994 10:0.56047314 11:0.022099124 12:0.075471699 13:0.24598393 14:0.30081427 15:0.27701148 16:0.32656547 #
-2 1:0.052083332 3:0.12244898 4:0.013223141 5:0.16877638 6:0.88764048 7:0.85955054 8:0.59648687 9:0.60373503 10:0.34089097 11:0.078886203 12:0.9464286 13:0.10820895 14:0.23672089 15:0.12598425 16:0.26831138 #
-2 1:0.011186264 3:0.12439156 4:0.0021928106 5:0.22152442 6:0.66159695 7:0.58555132 8:0.71806091 9:0.72921771 10:0.30699155 11:0.033283077 12:0.9464286 13:0.17419355 14:0.24908824 15:0.20779221 16:0.28829998 #
2 5:0.07688307 6:0.87193167 7:0.83635718 8:0.65560549 9:0.64096016 10:0.098142862 11:0.0018222404 13:0.10682493 14:0.17266038 15:0.13184932 16:0.20440012 #
-2 1:0.00019742557 2:0.002117347 3:0.040476192 4:0.000674852 5:0.22610903 6:0.57926565 7:0.52062637 8:0.72958159 9:0.73046619 10:0.56878132 11:0.020433253 13:0.25135699 14:0.34435794 15:0.29975903 16:0.38605812 #
2 1:0.001814882 3:0 4:1.7217038e-05 5:0.086446345 6:0.9801119 7:0.97545058 8:0.61860806 9:0.60773069 10:0.069750391 11:0.0085787941 13:0.038854804 14:0.11474562 15:0.050239235 16:0.13044736 #
2 5:0.096354596 6:3.7202382 7:3.9806547 8:0.69999117 9:0.68693995 10:0.079812936 11:0.00068385666 13:0.25878593 14:0.15315445 15:0.34343433 16:0.19706917 #
0.67517081164412218186043901368976 1:0 3:0 4:0.00010369859 5:0.08347363 6:5.3701429 7:6.226994 8:0.72612083 9:0.71774662 10:0.10648265 11:0.0020441564 13:0.25773194 14:0.17701888 15:0.30824372 16:0.21378753 #
-2 1:0.0392562 3:0.12244898 4:0.013223141 5:0.1372041 6:0.55322862 7:0.45375219 8:0.73002791 9:0.73866063 10:0.4197807 11:0.042414661 12:0.9464286 13:0.28115016 14:0.35494918 15:0.32894737 16:0.40454346 #
2 5:0.086430661 6:0.88195562 7:0.85461563 8:0.67932403 9:0.67174333 10:0.06280797 11:0 13:0.08525034 14:0.14110477 15:0.11428571 16:0.17621355 #
-0.539742033441925173065101262182 1:0.016415263 3:0.12370242 4:0.0027842161 5:0.12333261 6:0.48366013 7:0.28104576 8:0.53539079 9:0.54962075 10:0.37513489 11:0.035629176 12:0.9464286 13:0.20183486 14:0.23559411 15:0.20560747 16:0.24081497 #
