SVM-light Version V6.02
0 # kernel type
3 # kernel parameter -d 
1 # kernel parameter -g 
1 # kernel parameter -s 
1 # kernel parameter -r 
empty# kernel parameter -u 
192 # highest feature index 
384 # number of training documents 
48 # number of support vectors plus 1 
-1.5205734 # threshold b, each following line is a SV (starting with alpha*y)
-0.20000000000000001110223024625157 1:0.010285715 2:0.037878789 3:0.0069444445 4:0.0055017606 12:0.38235295 #
-0.20000000000000001110223024625157 1:0.11111111 3:0.70727038 4:0.0034179688 5:0.58966571 6:0.079518072 7:0.033132531 8:0.94506192 9:0.94774514 10:0.72291934 11:0.14393964 12:0.8490566 13:0.61731845 14:0.58535802 15:0.67867869 16:0.62118042 #
-0.17739121540811586541508404479828 9:0.83094591 10:0.83094591 11:0.01878223 12:0.01878223 13:0.045228746 14:0.045228746 15:0.98656744 16:0.98656744 17:0.98637044 18:0.98637044 19:0.91570419 20:0.91570419 21:0.35964859 22:0.35964859 24:0.37142858 25:0.74412829 26:0.74412829 27:0.7749756 28:0.7749756 29:0.79516315 30:0.79516315 31:0.82207179 32:0.82207179 #
-0.20000000000000001110223024625157 5:0.47776663 6:0.013771187 7:0.046477754 8:0.92981124 9:0.93154591 10:0.8689214 11:0.27009967 13:0.52406967 14:0.50698799 15:0.53823775 16:0.51796734 #
0.031810573769044170333586407650728 1:0 2:0 3:0 7:0 8:0 9:0 10:0 11:0 12:0 13:0.24312612 14:0.24312612 15:0.24312612 16:0.84638309 17:0.84638309 18:0.84638309 19:0.84430146 20:0.84430146 21:0.84430146 22:0.72645348 23:0.72645348 24:0.72645348 25:0.71555954 26:0.71555954 27:0.71555954 28:0.14019835 29:0.14019835 30:0.14019835 31:0.0095461244 32:0.0095461244 33:0.0095461244 37:0.09372177 38:0.09372177 39:0.09372177 40:0.20517083 41:0.20517083 42:0.20517083 43:0.12325175 44:0.12325175 45:0.12325175 46:0.2462167 47:0.2462167 48:0.2462167 #
0.20000000000000001110223024625157 1:0 2:0 3:0 4:0.00050179212 5:0.34334865 6:0.34375739 7:0.17533235 8:0.81970423 9:0.80931062 10:0.21898118 11:0.012962966 12:0.078431375 13:0.20325203 14:0.26312324 15:0.25524476 16:0.319309 #
0.20000000000000001110223024625157 5:0.40847197 6:0.11203911 7:0.15787329 8:0.90564281 9:0.90555972 10:0.76818198 11:0.074300945 13:0.39540815 14:0.42325509 15:0.46743849 16:0.4817701 #
-0.20000000000000001110223024625157 5:0.50703764 6:5.5648174 7:4.8998814 8:0.89101255 9:0.88566768 10:0.48630279 11:0.13404983 13:0.77263683 14:0.42509007 15:0.79852128 16:0.43903491 #
-0.20000000000000001110223024625157 1:0.011764706 2:0.037878789 3:0.0078125 4:0.0060709082 5:0.61878008 6:0.036766287 7:0.082562886 8:0.86622441 9:0.86836767 10:0.75785261 11:0.27988115 12:0.40625 13:0.67678958 14:0.69057828 15:0.7293278 16:0.73392648 #
-0.20000000000000001110223024625157 5:0.76943094 6:0.070901364 7:0.054685753 8:0.96331459 9:0.96484756 10:0.96171081 11:0.55118388 13:0.78982437 14:0.78278303 15:0.81443298 16:0.80373257 #
-0.20000000000000001110223024625157 5:0.057607986 6:0.46784756 7:0.59681237 8:0.25518578 9:0.25675073 10:0.050488293 11:0.03567579 13:0.72406721 14:0.67309731 15:0.78504676 16:0.70727926 #
0.20000000000000001110223024625157 9:0.1018525 10:0.1018525 11:0.94140625 12:0.94140625 13:0.9435249 14:0.9435249 15:0.56695873 16:0.56695873 17:0.55172175 18:0.55172175 19:0.088448711 20:0.088448711 21:0.0034004524 22:0.0034004524 25:0.038921133 26:0.038921133 27:0.10544161 28:0.10544161 29:0.053615961 30:0.053615961 31:0.13182579 32:0.13182579 #
-0.20000000000000001110223024625157 5:0.68523413 6:0.76428872 7:0.77426529 8:0.068410039 9:0.069752708 10:0.080219023 11:0.62426484 13:0.062315851 14:0.20835218 15:0.059661619 16:0.20639841 #
0.20000000000000001110223024625157 1:0 2:0 3:0 4:0.00018746177 5:0.32869253 6:0.0029498525 7:0.038839724 8:0.87507039 9:0.87398523 10:0.76855481 11:0.048238724 13:0.33505821 14:0.38003817 15:0.39193085 16:0.43514597 #
-0.20000000000000001110223024625157 1:0.0042325687 2:0.1388889 3:0.083333336 4:0.0076530613 5:0.58311361 6:0.092896178 7:0.012295082 8:0.94283551 9:0.94321972 10:0.87649029 11:0.34004194 12:0.41772151 13:0.73184359 14:0.74623185 15:0.7647059 16:0.77039152 #
-0.20000000000000001110223024625157 1:0.0042325687 2:0.1388889 3:0.083333336 4:0.0076530613 5:0.5346576 6:0.033277869 7:0.031613976 8:0.92311883 9:0.93106526 10:0.81724256 11:0.31808087 12:0.41772151 13:0.80872482 14:0.8065747 15:0.83745581 16:0.82871693 #
0.18174612886808688694273428154702 5:0.29736823 6:1.785154 7:1.4360659 8:0.84020287 9:0.82870233 10:0.19706431 11:0.0091749271 12:0.078431375 13:0.23615576 14:0.24338438 15:0.28676152 16:0.2948845 #
-0.20000000000000001110223024625157 1:0.010285715 2:0.037878789 3:0.0054347827 4:0.0044571226 5:0.42332 6:0.093126386 7:0.0066518849 8:0.88649839 9:0.88961208 10:0.69716448 11:0.1829457 12:0.39393941 13:0.56962025 14:0.587367 15:0.60532153 16:0.61920685 #
-0.20000000000000001110223024625157 1:0.00972973 2:0.037878789 3:0.0062500001 4:0.0050301813 5:0.16459851 6:0.21630435 7:0.26304349 8:0.6837613 9:0.67873567 10:0.15483841 11:0.0041959723 12:0.43333334 13:0.12334802 14:0.15829132 15:0.14153132 16:0.17283921 #
0.20000000000000001110223024625157 1:0.00063166016 2:0.0035744577 3:0.013392857 4:0.0015691067 5:0.8294149 6:0.40533715 7:0.45003295 8:0.79380953 9:0.79464197 10:0.80364352 11:0.78432685 13:0.505992 14:0.63628542 15:0.50732929 16:0.63720882 #
0.20000000000000001110223024625157 1:0.00039812879 2:0.0045652627 3:0.12530713 4:0.0013366587 5:0.58186865 6:0.022941971 7:0.059109312 8:0.87225407 9:0.87355572 10:0.70881653 11:0.11749533 12:0.51851851 13:0.41597223 14:0.42740315 15:0.46130729 16:0.45821929 #
0.20000000000000001110223024625157 1:0.00043234878 2:0.0044973544 3:0.058035713 4:0.0014459523 5:0.24900311 6:0.89059919 7:0.89669424 8:0.88226163 9:0.88326776 10:0.86518705 11:0.045363452 13:0.1430193 14:0.31929633 15:0.16574585 16:0.35022596 #
0.20000000000000001110223024625157 1:0 2:0 3:0 4:5.6084202e-05 5:0.16169699 6:0.23529412 7:0.12352941 8:0.45804569 9:0.47273636 10:0.39216113 11:0.065277196 12:0.04255319 13:0.32843137 14:0.33751991 15:0.34170854 16:0.35156325 #
0.20000000000000001110223024625157 1:0.00079074822 2:0.024886878 3:0.081632651 4:0.0099555552 5:0.36186436 6:0.82333577 7:0.82699341 8:0.87413478 9:0.87559432 10:0.6924997 11:0.078831978 12:0.66666669 13:0.15814851 14:0.32968971 15:0.17954071 16:0.3617343 #
0.20000000000000001110223024625157 5:0.38063201 6:0.070656694 7:0.0099750627 8:0.90097135 9:0.89913863 10:0.66897333 11:0.090956882 13:0.43366092 14:0.45337045 15:0.48069242 16:0.4933356 #
-0.20000000000000001110223024625157 1:0.010285715 2:0.037878789 3:0.0065789474 4:0.0052554132 5:0.34460285 6:0.11940298 7:0.0085287848 8:0.81469822 9:0.82034963 10:0.75890929 11:0.17268677 12:0.39393941 13:0.54275095 14:0.55636734 15:0.594697 16:0.59696251 #
0.020690280886080908429036639972765 1:0 2:0 3:0 4:0 5:0 6:0 7:0 8:0 9:0 10:0.00013391263 11:0.00013391263 12:0.00013391263 13:0.10797583 14:0.10797583 15:0.10797583 16:12.96411 17:12.96411 18:12.96411 19:11.213864 20:11.213864 21:11.213864 22:0.65868032 23:0.65868032 24:0.65868032 25:0.64799017 26:0.64799017 27:0.64799017 28:0.08346615 29:0.08346615 30:0.08346615 31:0.0020554627 32:0.0020554627 33:0.0020554627 34:0.033898305 35:0.033898305 36:0.033898305 37:0.37386805 38:0.37386805 39:0.37386805 40:0.20618372 41:0.20618372 42:0.20618372 43:0.45244956 44:0.45244956 45:0.45244956 46:0.2545251 47:0.2545251 48:0.2545251 #
0.20000000000000001110223024625157 1:0 2:0 3:0 4:5.6003584e-05 5:0.15426031 6:0.15765765 7:0.0990991 8:0.63299692 9:0.63773358 10:0.44071168 11:0.046283543 13:0.36820084 14:0.36118445 15:0.39148936 16:0.37363198 #
0.20000000000000001110223024625157 1:0 2:0 3:0 4:4.7344001e-05 5:0.25380969 6:0.36559141 7:0.38853046 8:0.86671996 9:0.86759293 10:0.51672947 11:0.024939222 12:0.059701491 13:0.26917511 14:0.35352135 15:0.29907975 16:0.38279766 #
-0.20000000000000001110223024625157 1:0.010285715 2:0.037878789 3:0.0078125 4:0.0060709082 5:0.45358929 6:0.11506525 7:0.017793594 8:0.86088133 9:0.8628763 10:0.78489906 11:0.19313772 12:0.3611111 13:0.56930691 14:0.5666275 15:0.60621762 16:0.60310078 #
-0.20000000000000001110223024625157 1:0.010285715 2:0.010285715 3:0.037878789 4:0.037878789 5:0.0062500001 6:0.0062500001 7:0.0050301813 8:0.0050301813 9:0.39902154 10:0.39902154 11:0.096354164 12:0.096354164 13:0.046875 14:0.046875 15:0.77594727 16:0.77594727 17:0.78333825 18:0.78333825 19:0.6455943 20:0.6455943 21:0.21850252 22:0.21850252 23:0.41935483 24:0.06666667 25:0.5350877 26:0.5350877 27:0.56089914 28:0.56089914 29:0.56422019 30:0.56422019 31:0.59353149 32:0.59353149 #
0.03821171767236916649856937056029 9:0.12414081 10:0.12414081 11:9.6781359 12:9.6781359 13:9.3240147 14:9.3240147 15:0.62307864 16:0.62307864 17:0.61320728 18:0.61320728 19:0.099990301 20:0.099990301 21:0.0030422553 22:0.0030422553 25:0.23589002 26:0.23589002 27:0.11919224 28:0.11919224 29:0.2791411 30:0.2791411 31:0.1398389 32:0.1398389 #
-0.20000000000000001110223024625157 1:0.010285715 2:0.037878789 3:0.0078125 4:0.0060709082 5:0.40507847 6:0.18055555 7:0.020833334 8:0.81604499 9:0.82614064 10:0.66559845 11:0.2037373 12:0.39393941 13:0.6134454 14:0.60824436 15:0.64317179 16:0.63212943 #
0.20000000000000001110223024625157 1:0.00051364367 2:0.015015015 3:0.046153847 4:0.005754048 5:0.66930389 6:0.2913669 7:0.31115109 8:0.69206822 9:0.69144732 10:0.85401803 11:0.4394004 12:0.46666667 13:0.29856688 14:0.3563126 15:0.32154882 16:0.37553123 #
0.20000000000000001110223024625157 5:0.16596648 6:0.17426273 7:0.19034852 8:0.73727071 9:0.74317062 10:0.60462683 11:0.023922222 12:0.031496063 13:0.29781422 14:0.3469536 15:0.32378224 16:0.36879888 #
-0.20000000000000001110223024625157 1:0.010285715 2:0.037878789 3:0.013636364 4:0.0049909255 5:0.45924604 6:0.21454546 7:0.049696971 8:0.86504173 9:0.86955744 10:0.78873587 11:0.23108397 12:0.39393941 13:0.59382421 14:0.59580088 15:0.64764267 16:0.64287472 #
0.20000000000000001110223024625157 5:0.20545265 6:0.16720258 7:0.1414791 8:0.73663187 9:0.74177903 10:0.47291976 11:0.052148536 12:0.048780486 13:0.31016043 14:0.30814546 15:0.33888888 16:0.3316001 #
0.20000000000000001110223024625157 1:0.00012151009 2:0.0023496239 3:0.021012006 4:0.00040407397 5:0.36389828 6:0.77629226 7:0.78721291 8:0.67678589 9:0.68231791 10:0.63862187 11:0.084892265 13:0.20025873 14:0.36566791 15:0.22403733 16:0.38935241 #
-0.20000000000000001110223024625157 1:0.010285715 2:0.037878789 3:0.0059523811 4:0.0047582793 5:0.41794965 6:0.15558061 7:0.045095827 8:0.86158305 9:0.86540592 10:0.70691425 11:0.20874555 12:0.30952382 13:0.59637189 14:0.5908159 15:0.64150941 16:0.62478733 #
-0.20000000000000001110223024625157 1:0.010285715 2:0.037878789 3:0.0052083335 4:0.0042423215 5:0.53114206 6:0.0046403711 7:0.047563806 8:0.87149096 9:0.87236983 10:0.73423785 11:0.19153924 12:0.40625 13:0.58415842 14:0.58909482 15:0.64322919 16:0.63582128 #
0.20000000000000001110223024625157 1:0.00063500128 2:0.0031712474 3:0.019354839 4:0.002140688 5:0.36806223 6:0.80591905 7:0.80758762 8:0.89497018 9:0.89673269 10:0.64222932 11:0.11174221 12:0.56 13:0.21147685 14:0.38969913 15:0.23304805 16:0.41243309 #
0.20000000000000001110223024625157 1:0.0008092497 2:0.0098684207 3:0.051948052 4:0.004456955 5:0.90693188 6:0.73468745 7:0.76145488 8:0.93489313 9:0.93671143 10:0.88701016 11:0.83939868 13:0.24768139 14:0.41594788 15:0.26479378 16:0.43462026 #
-0.20000000000000001110223024625157 1:0.010285715 2:0.037878789 3:0.010380623 4:0.0059016393 5:0.454557 6:0.18585859 7:0.012121212 8:0.85330951 9:0.85903496 10:0.75910723 11:0.20250309 12:0.43333334 13:0.64338237 14:0.63290888 15:0.67175573 16:0.65568566 #
0.11424892735078162608886032103328 1:0 2:0 3:0 4:0 5:0.052240334 6:0.24093817 7:0.16098081 8:0.62039405 9:0.60477149 10:0.047325704 11:0.0021848569 13:0.23529412 14:0.22882836 15:0.26756757 16:0.24906941 #
0.031066183753197307293447693155031 1:0.00085006474 2:0.011601963 3:0.12 4:0.0039547146 5:0.88064766 6:0.84138405 7:0.84549505 8:0.89763469 9:0.89800787 10:0.81042367 11:0.79837638 13:0.19480519 14:0.37343124 15:0.20967741 16:0.39166358 #
0.13358648495495017982648278120905 1:0 2:0 3:0 4:0 5:0 6:0 7:0.00022346369 8:0.00022346369 9:0.16487266 10:0.16487266 11:0.99959207 12:0.99959207 13:0.99960679 14:0.99960679 15:0.34124023 16:0.34124023 17:0.3374885 18:0.3374885 19:0.058551826 20:0.058551826 21:0.002974065 22:0.002974065 25:0.0047283298 26:0.0047283298 27:0.056769375 28:0.056769375 29:0.005459019 30:0.005459019 31:0.062412981 32:0.062412981 #
0.026030918153603699316533948149299 17:0.16634253 18:0.16634253 19:0.16634253 20:0.16634253 21:3.6217809 22:3.6217809 23:3.6217809 24:3.6217809 25:3.4685075 26:3.4685075 27:3.4685075 28:3.4685075 29:0.73070848 30:0.73070848 31:0.73070848 32:0.73070848 33:0.71859497 34:0.71859497 35:0.71859497 36:0.71859497 37:0.095642649 38:0.095642649 39:0.095642649 40:0.095642649 41:0.0023843874 42:0.0023843874 43:0.0023843874 44:0.0023843874 49:0.21788773 50:0.21788773 51:0.21788773 52:0.21788773 53:0.13183664 54:0.13183664 55:0.13183664 56:0.13183664 57:0.27377221 58:0.27377221 59:0.27377221 60:0.27377221 61:0.16615972 62:0.16615972 63:0.16615972 64:0.16615972 #
