SVM-light Version V6.02
0 # kernel type
3 # kernel parameter -d 
1 # kernel parameter -g 
1 # kernel parameter -s 
1 # kernel parameter -r 
empty# kernel parameter -u 
16 # highest feature index 
1478 # number of training documents 
98 # number of support vectors plus 1 
-0.99635474 # threshold b, each following line is a SV (starting with alpha*y)
0.5 1:0 3:0 4:0.00010611956 5:0.043393508 6:0.55479455 7:0.61154598 8:0.36422852 9:0.35730538 10:0.045204915 11:0 13:0.13450292 14:0.16522804 15:0.16734694 16:0.19744425 #
-0.5 1:0.00044488933 2:0.0063715628 3:0.06818182 4:0.0043037976 5:0.23058742 6:0.81552941 7:0.792 8:0.79603207 9:0.79821914 10:0.55772603 11:0.074056894 13:0.1539394 14:0.31893533 15:0.16600791 16:0.33625117 #
-0.5 1:0 2:0 3:0 4:0.00061936938 5:0.038147997 6:1.8368795 7:2.0567377 8:0.63200396 9:0.61467767 10:0.033202492 11:0 12:0.06779661 13:0.29166666 14:0.18837528 15:0.33125001 16:0.19773917 #
0.5 1:0 3:0 4:4.8963604e-05 5:0.18736799 6:0.0030474532 7:0.0074009579 8:0.67653841 9:0.65111297 10:0.16471961 11:0.0030455701 13:0.15437788 14:0.17089589 15:0.20445609 16:0.20663412 #
-0.5 1:0 2:0 3:0 4:0.00072553899 5:0.058984797 6:0.014230272 7:0.023285899 8:0.77957714 9:0.77379823 10:0.076054282 11:0.001776897 12:0.043956045 13:0.17914438 14:0.17363231 15:0.20991254 16:0.19317812 #
0.5 1:0.00018821759 2:0 3:0 4:0.00020214725 5:0.083202504 6:0.89048892 7:0.86905557 8:0.6860919 9:0.66681868 10:0.098041773 11:0.0053018527 13:0.11615245 14:0.19367418 15:0.14957266 16:0.2265479 #
-0.5 1:0 2:0 3:0 4:0.00052838161 5:0.073202454 6:1.4452736 7:1.460199 8:0.45971987 9:0.44970608 10:0.065531753 11:0.0096936915 12:0.06779661 13:0.31862745 14:0.19586959 15:0.35567009 16:0.21518415 #
0.5 1:0.00024245364 2:0 3:0 4:0 5:0.16544639 6:0.010924982 7:0.1962855 8:0.72427052 9:0.71882308 10:0.10320505 11:0.0056930212 12:0.03773585 13:0.3219178 14:0.26537168 15:0.40093604 16:0.31266826 #
-0.5 1:0 2:0 3:0 4:3.1919564e-05 5:0.18010265 6:0.21513945 7:0.083665341 8:0.87286019 9:0.87444341 10:0.53996134 11:0.023417499 13:0.28417265 14:0.31135315 15:0.32592592 16:0.34426519 #
-0.34532922400208931890119856689125 1:0.00047320046 2:0.0058097313 3:0.047619049 4:0.0036434978 5:0.33804953 6:0.96814245 7:0.96389478 8:0.77359641 9:0.75965869 10:0.59311175 11:0.064931385 13:0.069236256 14:0.23793557 15:0.080519482 16:0.25517789 #
-0.5 1:0.00056776201 2:0.0050652474 3:0.020833334 4:0.0012365108 #
-0.5 1:0 2:0 3:0 4:0.00076552929 5:0.020403206 6:1.0829694 7:0.95633185 8:0.46830931 9:0.47364351 10:0.025562044 11:0 12:0.050632913 13:0.19852941 14:0.13589437 15:0.25954199 16:0.16528825 #
0.4389743002007238104056341398973 5:0.12782983 6:0.043956045 7:0.2857143 8:0.75935656 9:0.74796635 10:0.056049984 11:0 13:0.18852459 14:0.14616451 15:0.24770643 16:0.17699116 #
-0.5 1:0 2:0 3:0 4:0.00074626866 5:0.053990554 6:0.71274298 7:0.72066236 8:0.50440943 9:0.51136935 10:0.045066882 11:0.0031726293 12:0.047058824 13:0.092485547 14:0.13028966 15:0.12068965 16:0.15880407 #
0.5 1:0 3:0 4:0.00038412292 5:0.010048447 6:0.8792876 7:0.84300792 8:0.38354638 9:0.38300538 10:0.062957719 11:0.0012628881 13:0.095334686 14:0.17516848 15:0.12056737 16:0.20314534 #
-0.5 1:0 2:0 3:0 4:0.00067544746 5:0.024089253 6:0.72977221 7:0.72584444 8:0.51527035 9:0.507442 10:0.070441738 11:0 12:0.057142857 13:0.11507937 14:0.17503104 15:0.13071896 16:0.18924432 #
0.5 1:0 2:0 3:0 4:7.6923076e-05 5:0.045151759 6:0.61774373 7:1.1051478 8:0.49123636 9:0.48726416 10:0.054715149 11:0.00062232913 13:0.22619048 14:0.15677844 15:0.29830509 16:0.19434763 #
0.5 1:0 3:0 4:0.00025488529 5:0.087664492 6:0.0024937657 7:0.027431421 8:0.53707141 9:0.51479 10:0.048947293 11:0 13:0.11988304 14:0.1300665 15:0.14906833 16:0.15872821 #
-0.5 1:0 2:0 3:0 4:0.0006291946 5:0.085692108 6:0.18167457 7:0.16587678 8:0.76093793 9:0.75774276 10:0.054368746 11:0.0022799519 12:0.043478262 13:0.18241042 14:0.19559917 15:0.23674911 16:0.22656997 #
0.5 1:0 3:0 4:0.00021818181 5:0.039545234 6:0.7634173 7:0.68893754 8:0.48788252 9:0.49659213 10:0.16072713 11:0.0015031969 13:0.15178572 14:0.2581495 15:0.18983051 16:0.28486648 #
0.5 5:0.086397089 6:0.79489106 7:0.77460557 8:0.52714115 9:0.51850551 10:0.11218068 11:0 13:0.060394891 14:0.12822865 15:0.067602038 16:0.14108524 #
0.5 1:0 3:0 4:0.00019071838 5:0.15415969 6:0.81388366 7:0.77073169 8:0.6950689 9:0.69138116 10:0.16344164 11:0.0021344081 13:0.10327023 14:0.15057434 15:0.13617887 16:0.17556842 #
-0.5 1:0.0017807077 2:0.011729405 3:0.083333336 4:0.0084978072 5:0.092991896 6:0.97135741 7:0.96731007 8:0.69619673 9:0.70243895 10:0.60703653 11:0.0037763014 13:0.045215562 14:0.17034948 15:0.057068743 16:0.19654807 #
-0.5 1:0.0007957982 2:0.0095137423 3:0.25 4:0.015931373 5:0.11269273 6:0.93432283 7:0.92949909 8:0.58485121 9:0.6037432 10:0.42319298 11:0.031230031 13:0.046012271 14:0.14347355 15:0.060141511 16:0.17426556 #
0.5 1:0.00033534539 2:0 3:0 4:0.00032529142 5:0.075701118 6:0.82461101 7:0.79207921 8:0.53848022 9:0.51473933 10:0.060506877 11:0.0028451777 13:0.10796915 14:0.18139264 15:0.13569322 16:0.20676716 #
-0.5 1:0.0009304249 2:0.0093491552 3:0.095238097 4:0.0056179776 #
0.5 1:9.9502489e-05 2:0 3:0 4:0.00010799913 5:0.014192288 6:0.93302989 7:0.91807544 8:0.28411627 9:0.27605891 10:0.067988105 11:0 13:0.10423452 14:0.15114868 15:0.12110727 16:0.1752587 #
0.5 1:0 2:0 3:0 4:0.00010173199 5:0.12283291 6:0.52782536 7:0.4156678 8:0.78372657 9:0.7651661 10:0.094167732 11:0.00098333659 13:0.22966507 14:0.19409175 15:0.2857143 16:0.22953193 #
0.5 1:0.00024826216 2:0 3:0 4:0.0002095797 5:0.071695149 6:0.73463935 7:0.68922532 8:0.61545861 9:0.58702952 10:0.08008258 11:0 13:0.17716536 14:0.19392228 15:0.22477064 16:0.23525631 #
-0.16069674285329860197180096292868 1:0.0015760938 2:0.024305556 3:0.11428571 4:0.0072244625 5:0.21869667 6:0.71627408 7:0.64025694 8:0.84743589 9:0.84999681 10:0.55827481 11:0.058440432 13:0.25942349 14:0.4041537 15:0.28708133 16:0.42806938 #
0.5 1:0.00026860059 2:0 3:0 4:0.00020510909 5:0.088324301 6:0.89829224 7:0.88311195 8:0.66218233 9:0.65550721 10:0.099506676 11:0 13:0.09551657 14:0.16170032 15:0.12443439 16:0.19947447 #
-0.5 1:0.0016366612 2:0.042016808 3:0.1 4:0.0077700079 5:0 6:0.96879876 7:0.97347891 8:0.32242557 9:0.32576722 10:0.15743944 11:0 13:0.031042129 14:0.13745984 15:0.03626943 16:0.14858346 #
-0.5 1:0 2:0 3:0 4:0.00071073207 5:0.034716483 6:0.13958333 7:0.081249997 8:0.31072927 9:0.283126 10:0.045199431 11:0 12:0.055555556 13:0.18773946 14:0.18628156 15:0.22131148 16:0.21116963 #
0.5 1:0 2:0 3:0 4:5.4112556e-05 5:0.0442071 6:0.21044546 7:0.0061443932 8:0.71456045 9:0.70544064 10:0.072716177 11:0.0017590156 12:0.075471699 13:0.18518518 14:0.17877212 15:0.23076923 16:0.21215729 #
-0.5 1:0 2:0 3:0 4:0.00072016462 5:0.036402903 6:0.39906833 7:0.4083851 8:0.56359625 9:0.5609473 10:0.050394997 11:0 12:0.05479452 13:0.14920636 14:0.16194789 15:0.17770036 16:0.18492953 #
0.5 1:0 3:0 4:0.00019071838 5:0.097699523 6:0.90619135 7:0.87917447 8:0.70832121 9:0.69603604 10:0.096764609 11:0.0010516532 13:0.094664373 14:0.16133974 15:0.12804878 16:0.20134065 #
-0.5 1:0 2:0 3:0 4:0.00072178477 5:0.067419983 6:0.24566089 7:0.27102804 8:0.54635054 9:0.54687124 10:0.05398659 11:0.013246319 12:0.056338027 13:0.18181819 14:0.17370108 15:0.22666667 16:0.20437846 #
-0.5 1:0 2:0 3:0 4:0.00067371473 5:0.098271593 6:0.62639111 7:0.60519344 8:0.62923688 9:0.61192667 10:0.069546819 11:0.0084044021 12:0.070175439 13:0.14434524 14:0.19359288 15:0.17391305 16:0.22445822 #
0.5 5:0.10613922 6:0.050321605 7:0.2429058 8:0.68513405 9:0.67263323 10:0.051131193 11:0.00054896064 13:0.19262782 14:0.17249721 15:0.24432577 16:0.20596331 #
-0.5 1:0 2:0 3:0 4:0.00068082788 5:0.06399826 6:0.19253731 7:0.24328358 8:0.59842771 9:0.59376961 10:0.044138186 11:0.0015027827 12:0.05479452 13:0.23300971 14:0.19386557 15:0.28873238 16:0.22420445 #
-0.5 1:0 2:0 3:0 4:0.0014204546 5:0.069497086 6:0.42663658 7:0.39729118 8:0.61786491 9:0.55271745 10:0.035691131 11:0.0065004439 12:0.071428575 13:0.19346733 14:0.18396613 15:0.23415978 16:0.20666772 #
0.5 1:0 2:0 3:0 4:8.4960455e-05 5:0.10933763 6:1.2892504 7:1.7227722 8:0.68806565 9:0.68664163 10:0.080491923 11:0.0025188217 13:0.26221079 14:0.16863692 15:0.33923304 16:0.20393726 #
-0.5 1:0.00079387316 2:0.010884354 3:0.06666667 4:0.0047363034 5:0.093382448 6:0.90202278 7:0.90581542 8:0.18543971 9:0.18575022 10:0.10045905 11:0.016904071 13:0.054927301 14:0.14485671 15:0.064981952 16:0.1639789 #
-0.5 1:0 2:0 3:0 4:0.00059737155 5:0.083023116 6:0.45397922 7:0.43875432 8:0.54539251 9:0.52998555 10:0.051316775 11:0.0033990368 12:0.059701491 13:0.16039281 14:0.18695623 15:0.19818182 16:0.21861297 #
0.5 1:0 3:0 4:0.00035419126 5:0.03546232 6:0.69007093 7:0.61631203 8:0.47073853 9:0.46581829 10:0.069831356 11:0 13:0.11320755 14:0.14477254 15:0.15833333 16:0.18385184 #
-0.5 1:0 2:0 3:0 4:0.00070921984 5:0.057342146 6:0.3945885 7:0.37880495 8:0.54936093 9:0.55154467 10:0.074586511 11:0.0080910018 12:0.045977011 13:0.1632653 14:0.18454331 15:0.2074074 16:0.22184525 #
0.5 1:0 3:0 4:0.00018303844 5:0.10987823 6:0.014379085 7:0.074509807 8:0.55470407 9:0.54561687 10:0.035898026 11:0.011467434 13:0.11621621 14:0.13725427 15:0.14159292 16:0.16262032 #
0.5 1:0 2:0 3:0 4:5.6206842e-05 5:0.065535218 6:0.75810373 7:0.69651538 8:0.48934323 9:0.48429289 10:0.065220825 11:0.0013533151 13:0.1013289 14:0.14131962 15:0.13483146 16:0.17363366 #
0.5 1:0 3:0 4:0.00019071838 5:0.12931937 6:0.85778612 7:0.82776737 8:0.7198084 9:0.69638604 10:0.082522824 11:0.0016589018 13:0.11876076 14:0.1883454 15:0.15243903 16:0.2316802 #
-0.5 1:0.00021339381 2:0.0022105263 3:0.083333336 4:0.00076078391 5:0.21074043 6:0.68887687 7:0.62397408 8:0.71977633 9:0.71871829 10:0.55337137 11:0.040909011 13:0.23382045 14:0.36068287 15:0.27759036 16:0.40768608 #
0.28971060932468617465929128229618 1:0 3:0 4:0.00032285837 5:0.043197446 6:0.34006375 7:0.27523911 8:0.56291378 9:0.56686443 10:0.058814432 11:0.0014919139 13:0.16355141 14:0.1663934 15:0.21994884 16:0.1997657 #
0.5 1:0 2:0 3:0 4:4.0775136e-05 5:0.15588224 6:0.63280457 7:0.56564295 8:0.71754712 9:0.68465942 10:0.07114365 11:0.0016350038 13:0.18023255 14:0.17823437 15:0.23653395 16:0.2160093 #
-0.5 1:0 2:0 3:0 4:0.00069962686 5:0.058383156 6:0.47415507 7:0.5 8:0.50917488 9:0.51090169 10:0.084082499 11:0.0035579079 12:0.054054055 13:0.18329467 14:0.19983022 15:0.22166246 16:0.23540522 #
0.5 1:0 2:0 3:0 4:6.644518e-05 5:0.03613228 6:0.47754654 7:0.8203724 8:0.54738402 9:0.540371 10:0.06284681 11:0 13:0.23809524 14:0.17769715 15:0.30847457 16:0.21399328 #
-0.5 1:0 2:0 3:0 4:0.00065690692 5:0.13600002 6:0.13519552 7:0.16759777 8:0.56891698 9:0.56020683 10:0.12766822 11:0.013270642 12:0.051282052 13:0.18087855 14:0.17642811 15:0.22005571 16:0.19809705 #
-0.5 1:0.00036508075 2:0.0044281865 3:0.024 4:0.001678134 5:0.1811009 6:0.98707193 7:0.98404622 8:0.67794621 9:0.68368095 10:0.36105466 11:0.021489846 13:0.026339285 14:0.1489975 15:0.030927835 16:0.16519463 #
0.47199908326184214502063696272671 1:0.00056221889 3:0 4:5.5494716e-06 5:0.10028844 6:1.6141814 7:1.62878 8:0.58948004 9:0.57201016 10:0.085809343 11:0.00069854956 13:0.21380846 14:0.1560033 15:0.2416268 16:0.17688294 #
-0.5 1:0 2:0 3:0 4:0.00069962686 5:0.066120364 6:0.53636366 7:0.48727274 8:0.51914465 9:0.51859218 10:0.08250165 11:0.0019792474 12:0.051282052 13:0.27240142 14:0.2074143 15:0.32307693 16:0.23274146 #
-0.5 1:0 2:0 3:0 4:0.00062578224 5:0.12337028 6:0.35908321 7:0.35314092 8:0.65777558 9:0.66221124 10:0.14170417 11:0.0077337376 12:0.054054055 13:0.1969697 14:0.21124469 15:0.23584905 16:0.23954999 #
0.5 1:0.00039556963 2:0 3:0 4:0.00025263158 5:0.023782576 6:0.70536691 7:0.67141294 8:0.41821077 9:0.39775598 10:0.051539008 11:0 13:0.125 14:0.17370208 15:0.15254237 16:0.20712928 #
0.5 1:0 2:0 3:0 4:0.00042192312 5:0.066715218 6:0.44787526 7:0.44390094 8:0.59323156 9:0.58862889 10:0.072110027 11:0.00028501984 13:0.11287758 14:0.16796605 15:0.13943541 16:0.19350225 #
-0.5 1:0 2:0 3:0 4:0.00062189053 5:0.081963271 6:0.72289157 7:0.72244531 8:0.5395627 9:0.53645682 10:0.13540129 11:0.0037518335 12:0.054054055 13:0.17036012 14:0.22914998 15:0.20642202 16:0.26494128 #
-0.5 1:0.00018955256 2:0.0029120559 3:0.017241379 4:0.0013126659 5:0.048244886 6:0.53399432 7:0.72946173 8:0.58620429 9:0.58570969 10:0.28310102 11:0.0082832957 13:0.095238097 14:0.16534247 15:0.1160221 16:0.18928908 #
0.5 1:0.00024189647 2:0 3:0 4:0.00028965357 5:0.01944449 6:0.88264298 7:0.85749507 8:0.502334 9:0.49932331 10:0.12573774 11:0 13:0.090301007 14:0.16598029 15:0.1242485 16:0.2135001 #
-0.5 1:0 2:0 3:0 4:0.00052380952 5:0.12914011 6:0.16269842 7:0.22751322 8:0.46586874 9:0.46855906 10:0.11733614 11:0.0075440789 12:0.075471699 13:0.26553673 14:0.22427042 15:0.30909091 16:0.25110665 #
-0.5 1:0.00067488599 2:0.0067287786 3:0.057692308 4:0.0037161352 5:0.082282148 6:0.97712582 7:0.97314769 8:0.55492288 9:0.5628463 10:0.35654595 11:0.015508303 13:0.034792367 14:0.15628548 15:0.03875 16:0.16338435 #
0.5 1:0 3:0 4:0.00018303844 5:0.14212796 6:0.10857143 7:0.17428571 8:0.58006591 9:0.56773025 10:0.036842704 11:0 13:0.11494253 14:0.13488865 15:0.13855422 16:0.15747885 #
-0.5 1:0.00089230767 2:0.021551725 3:0.1 4:0.0077763768 5:0.15118673 6:0.84446877 7:0.84994525 8:0.64926875 9:0.62764579 10:0.31295282 11:0.01357493 13:0.071759261 14:0.17222223 15:0.078328982 16:0.18192513 #
0.5 1:0 3:0 4:0.00024135158 5:0.053544473 6:0.072857141 7:0.072857141 8:0.51839721 9:0.50065631 10:0.067444935 11:0 13:0.10632184 14:0.12903583 15:0.12349398 16:0.14555122 #
0.5 1:7.4738418e-05 2:0 3:0 4:0.00012784921 5:0.048876379 6:0.46675032 7:0.35257214 8:0.57529581 9:0.56584567 10:0.049300428 11:0 12:0.049382716 13:0.13624679 14:0.17452492 15:0.16066483 16:0.19623059 #
-0.5 1:0.0065678363 2:0.040123455 3:0.08024691 4:0.0053560175 5:0.016007539 6:0.17258883 7:0.10406091 8:0.15244479 9:0.15023971 10:0.025117839 11:0.0058997818 12:0.84615386 13:0.084905662 14:0.092989899 15:0.095693782 16:0.10143793 #
-0.5 1:0.00042039237 2:0.0037568307 3:0.015625 4:0.0017006802 5:0.1388524 6:0.8608216 7:0.86020845 8:0.74806374 9:0.74787605 10:0.43087456 11:0.016509943 13:0.085790887 14:0.19836374 15:0.10324484 16:0.22325397 #
0.5 1:0 3:0 4:0.00016330974 5:0.072887398 6:0.83411217 7:0.82359815 8:0.57080883 9:0.55721325 10:0.074162111 11:0.0046061324 13:0.16438356 14:0.16316901 15:0.20426829 16:0.18292633 #
-0.44836663753778904784041969833197 1:0.021428572 3:0.12244898 4:0.013223141 5:0 6:1.0526316 7:1.6052631 8:0.232996 9:0.23221019 10:0.045287535 11:0 12:0.9464286 13:0.2 14:0.13483997 15:0.2 16:0.13587324 #
-0.5 1:0.00013523536 2:0.0043090181 3:0.087499999 4:0.0033884521 5:0.26415163 6:0.64228934 7:0.93163753 8:0.72353423 9:0.71662074 10:0.42178488 11:0.030686114 13:0.3026087 14:0.22634523 15:0.35823753 16:0.25416571 #
-0.5 1:0.00041857953 2:0.0042677447 3:0.040816326 4:0.0017309659 5:0.17600216 6:0.84253985 7:0.87927109 8:0.77646005 9:0.77222157 10:0.64434433 11:0.023323569 13:0.081605352 14:0.19684258 15:0.099236645 16:0.22761875 #
0.5 1:0 3:0 4:7.2341449e-05 5:0.083964512 6:0.81549293 7:0.76408452 8:0.69424534 9:0.67333347 10:0.089122489 11:0.000571326 13:0.14450867 14:0.18131049 15:0.18510158 16:0.20854476 #
-0.5 1:0.0013013013 2:0.018039215 3:0.14285715 4:0.0088315215 5:0.21585129 6:0.78319919 7:0.73742455 8:0.83765662 9:0.83303493 10:0.43858942 11:0.03737542 13:0.18929017 14:0.33705029 15:0.2140884 16:0.35933197 #
-0.5 1:0.00093984965 2:0.0090497741 3:0.051948052 4:0.0037136066 5:0.34584019 6:0.94117647 7:0.94358289 8:0.35945567 9:0.36289108 10:0.3228336 11:0.19045466 13:0.047358833 14:0.14385624 15:0.060240965 16:0.16973773 #
0.5 1:0 3:0 4:0.0001658925 5:0.029001441 6:0.72879684 7:0.68984222 8:0.51772374 9:0.50339025 10:0.066509664 11:0.001285212 13:0.12709031 14:0.1729272 15:0.17034069 16:0.21439438 #
0.5 1:0 3:0 4:0.00026086956 5:0.023656834 6:0.86089814 7:0.8203724 8:0.42207488 9:0.41169798 10:0.059143621 11:0 13:0.080357142 14:0.14803913 15:0.10169491 16:0.18210268 #
0.5 1:0 3:0 4:4.8441791e-05 5:0.14943308 6:0.88102263 7:0.85086858 8:0.76189393 9:0.7370922 10:0.10349506 11:0.0086744502 13:0.08948195 14:0.15117639 15:0.11970534 16:0.17820932 #
0.24000884256574295250175055116415 1:0 3:0 4:0.00021818181 5:0.083601646 6:0.85681522 7:0.81913501 8:0.67963499 9:0.6652438 10:0.083708994 11:0 13:0.10481928 14:0.18438984 15:0.13793103 16:0.22023447 #
-0.5 1:0.00078070286 2:0.007053806 3:0.050000001 4:0.0052069426 5:0.32787424 6:0.88044447 7:0.87777776 8:0.51420313 9:0.52046967 10:0.40820831 11:0.06192112 13:0.10144927 14:0.23178999 15:0.11504425 16:0.249631 #
0.5 1:0 3:0 4:4.8441791e-05 5:0.11041643 6:0.95018029 7:0.935431 8:0.66334677 9:0.65392423 10:0.17376028 11:0.0034004361 13:0.059654631 14:0.15442404 15:0.081031308 16:0.18882208 #
0.5 1:0 3:0 4:0.00035419126 5:0.034347065 6:0.94316161 7:0.86323267 8:0.57642829 9:0.57005572 10:0.092801958 11:0.0025515642 13:0.24535316 14:0.19237377 15:0.32377049 16:0.24001628 #
0.5 1:0 3:0 4:0.00010865628 5:0.068151303 6:0.67011374 7:0.5770424 8:0.56726873 9:0.5550794 10:0.093896784 11:0.00074123841 13:0.23076923 14:0.21046254 15:0.29251701 16:0.25866094 #
-0.5 1:0.021711366 3:0.12244898 4:0.013223141 5:0.04148699 6:1.1666666 7:1.9666667 8:0.43123081 9:0.43123081 10:0.043946955 11:0 12:0.9464286 13:0.17857143 14:0.11720181 15:0.17857143 16:0.11720181 #
0.5 1:0.00021687269 2:0 3:0 4:0.00020539072 5:0.022129793 6:0.86686391 7:0.84861934 8:0.51224148 9:0.50355768 10:0.0926506 11:0.0019979433 13:0.07692308 14:0.13823111 15:0.10420842 16:0.17207886 #
-0.5 1:0.0016078531 2:0.010839574 3:0.095238097 4:0.0081665982 5:0.11336775 6:0.72031248 7:0.65937501 8:0.70316511 9:0.71110785 10:0.52083582 11:0.019055206 13:0.19277108 14:0.29997265 15:0.20125785 16:0.30551103 #
-0.5 1:0 2:0 3:0 4:4.2842697e-05 5:0.15636207 6:0.68215615 7:0.61152416 8:0.78847969 9:0.79637915 10:0.54104769 11:0.035948481 13:0.31274131 14:0.45853725 15:0.35294119 16:0.49705014 #
-0.5 1:0.0015493581 2:0.01489573 3:0.071428575 4:0.0063105212 5:0.40699548 6:0.73059654 7:0.71007055 8:0.66363817 9:0.67424369 10:0.47381881 11:0.07567399 13:0.17713365 14:0.29914567 15:0.20567375 16:0.33467913 #
0.5 1:0 3:0 4:0.00018303844 5:0.033817813 6:0.89790577 7:0.90183246 8:0.46989033 9:0.44708943 10:0.086246714 11:0.00065537612 13:0.20810811 14:0.17623439 15:0.23753665 16:0.19979486 #
0.5 1:0 3:0 4:0.00035419126 5:0.030087944 6:0.78226948 7:0.71560282 8:0.39583656 9:0.3911899 10:0.061985746 11:0 13:0.10613208 14:0.15685804 15:0.15000001 16:0.19364917 #
0.5 1:0.00035842293 2:0 3:0 4:0.00034078516 5:0.027053934 6:0.81758243 7:0.79926741 8:0.62881011 9:0.61443609 10:0.11240883 11:0.0031086009 13:0.10702341 14:0.13910019 15:0.13899614 16:0.17207162 #
0.5 1:0 2:0 3:0 4:0.00055017608 5:0.013939785 6:0.88154548 7:0.86985254 8:0.42998412 9:0.42203182 10:0.05643997 11:0 13:0.092081033 14:0.18029271 15:0.11889596 16:0.20659284 #
0.013699769040215414861449971795082 1:0.00068587105 3:0 4:9.6966251e-06 5:0.1293391 6:0.9616034 7:0.94936711 8:0.28503922 9:0.2846145 10:0.030208286 11:0 13:0.033726811 14:0.072032914 15:0.042592593 16:0.088527039 #
