SVM-light Version V6.02
0 # kernel type
3 # kernel parameter -d 
1 # kernel parameter -g 
1 # kernel parameter -s 
1 # kernel parameter -r 
empty# kernel parameter -u 
16 # highest feature index 
2236 # number of training documents 
739 # number of support vectors plus 1 
-2.0968228 # threshold b, each following line is a SV (starting with alpha*y)
-2 1:2.3654642e-05 2:0 3:0 4:0.0001815541 5:0.049104638 6:0.58536583 7:0.55487806 8:0.39071542 9:0.4024086 10:0.2593976 11:0.012098348 12:0.047619049 13:0.10784314 14:0.15264656 15:0.14285715 16:0.18257418 #
2 5:0.025813062 6:1.6490251 7:1.8913649 8:0.61128551 9:0.60154104 10:0.034918301 11:0 12:0.032000002 13:0.22857143 14:0.14128897 15:0.27160493 16:0.16670972 #
-2 1:0 2:0 3:0 4:0.00021008404 5:0.091365784 6:15.962963 7:18.277779 8:0.54239184 9:0.55143815 10:0.47315156 11:0.0085395258 12:0.047619049 13:0.61538464 14:0.18933319 15:0.671875 16:0.19732246 #
2 1:0.079999998 2:0 3:0.23999999 4:0.011944445 5:0.19912285 6:0.13921113 7:0.025522042 8:0.45955983 9:0.47285339 10:0.77629733 11:0.13076259 12:0.32258064 13:0.54314721 14:0.54592085 15:0.61452514 16:0.59963536 #
-2 6:0.098623857 #
2 1:0.040816326 2:0 3:0.16 4:0.011944445 5:0.53996807 6:0.115625 7:0.15000001 8:0.80881107 9:0.81603467 10:0.91596103 11:0.22724925 12:0.32786885 13:0.64583331 14:0.68203741 15:0.69924814 16:0.72127706 #
-2 1:0 2:0 3:0 4:0 5:0.41405746 6:0.70646632 7:0.65763348 8:0.90689182 9:0.90633804 10:0.36374414 11:0.030156605 13:0.16244726 14:0.25583142 15:0.20111288 16:0.29618713 #
-2 5:0.75033838 6:0.0010893246 7:0.0054466231 8:0.96433127 9:0.96434671 10:0.98514909 11:0.56055766 13:0.86703598 14:0.84843791 15:0.88622755 16:0.863271 #
-2 1:0 2:0 3:0 4:4.460383e-06 5:0.12967405 6:0.80920058 7:0.79336351 8:0.67588878 9:0.67519015 10:0.33564886 11:0.016397715 13:0.17181467 14:0.30755079 15:0.19096509 16:0.33526632 #
2 1:0 2:0 3:0 4:0 5:0.057331171 6:0.21028037 7:0.11448598 8:0.59406406 9:0.57789785 10:0.034621265 11:0 13:0.14864865 14:0.17146976 15:0.17391305 16:0.19078889 #
-2 6:0.2340824 #
-2 1:0 2:0 3:0 4:0.00025947069 5:0.20475146 6:0.50478798 7:0.73187417 8:0.8341406 9:0.8349613 10:0.41649166 11:0.0087952511 12:0.056338027 13:0.31725889 14:0.27315387 15:0.35372341 16:0.29681584 #
2 1:6.9089879e-06 2:0 3:0 4:0.00013687849 5:0.013014205 6:0.45673078 7:0.41346154 8:0.39460543 9:0.39141151 10:0.018549349 11:0 12:0.037383176 13:0.10687023 14:0.14078458 15:0.10687023 16:0.13346049 #
2 1:0 2:0 3:0 4:1.4042183e-05 5:0.015198692 6:0.19166666 7:0.32499999 8:0.48052993 9:0.47782472 10:0.018611368 11:0 12:0.039215688 13:0.14606741 14:0.13447876 15:0.14772727 16:0.13588932 #
-2 1:0 2:0 3:0 4:0.00010575296 5:0.15438476 6:0.91529709 7:0.89886218 8:0.63859832 9:0.64061451 10:0.40548587 11:0.02543034 12:0.068965517 13:0.14680851 14:0.30477446 15:0.17067307 16:0.33342522 #
-2 1:0.00042617961 2:0.0083333338 3:0.59172416 4:0.0021968214 5:0.4261598 6:0.19277108 7:0.075301208 8:0.90218508 9:0.90790182 10:0.64753747 11:0.16178036 12:0.13076924 13:0.55050504 14:0.58722407 15:0.59685862 16:0.6114381 #
-2 1:0.0056338026 2:0.0084033618 3:0.090909094 4:0.0057916776 6:0.16666667 12:0.83333331 #
-2 1:0.0064045545 2:0.028124999 3:0.13360325 4:0.0051556746 6:0.037037037 12:0.85000002 #
-2 6:0.13347237 #
-2 5:0.23954368 6:0.090909094 7:0.037878789 8:0.59808105 9:0.58284295 10:0.25368601 11:0.10527092 13:0.50617284 14:0.52329117 15:0.62666667 16:0.59214437 #
2 1:0 2:0 3:0 4:4.4592427e-05 5:0.082716785 6:0.58011049 7:0.52348065 8:0.52422076 9:0.51556146 10:0.056385249 11:0 12:0.033613447 13:0.12569316 14:0.1684408 15:0.15605749 16:0.18929325 #
-2 1:7.3059359e-06 2:0 3:0 4:0.00015042764 5:0.1897001 6:0.84814596 7:0.8304885 8:0.90237492 9:0.90157908 10:0.37310621 11:0.024035446 12:0.064516127 13:0.13070866 14:0.25930372 15:0.15780446 16:0.30028981 #
-2 1:0 2:0 3:0 4:0 5:0.068217136 6:0.33333334 7:0.31967214 8:0.34460494 9:0.37275136 10:0.23789562 11:0.003809503 13:0.25136611 14:0.28164726 15:0.2793296 16:0.30312496 #
2 1:0 2:0 3:0 4:0 5:0.011385389 6:1.1944444 7:1.2777778 8:0.56397611 9:0.5558725 10:0.11380227 11:0 13:0.18435754 14:0.15838815 15:0.22839506 16:0.19423175 #
2 1:0.00017054062 2:0.013833992 3:0.069444448 4:0.0039609815 5:0.29372931 6:0.75195175 7:0.72995031 8:0.88188535 9:0.85702068 10:0.55324978 11:0.022943083 13:0.16008538 14:0.27833256 15:0.19756098 16:0.31925908 #
-2 1:0 2:0 3:0 4:0 5:0.099212319 6:0.77565217 7:0.75652176 8:0.50755477 9:0.52298182 10:0.26077357 11:0.0040041665 13:0.15438597 14:0.28565228 15:0.18248175 16:0.31322271 #
2 1:0 2:0 3:0 4:0.00017282554 5:0.044237394 6:0.73179394 7:0.70515096 8:0.58508945 9:0.57361245 10:0.028291266 11:0 12:0.05479452 13:0.08178439 14:0.13619484 15:0.083969466 16:0.13944735 #
2 1:0.0012077295 2:0.021852238 3:0.10185185 4:0.0047474746 5:0.53987306 6:0.026126126 7:0.023423424 8:0.91309428 9:0.9164868 10:0.93004149 11:0.1561034 13:0.5164609 14:0.52939862 15:0.56124723 16:0.5587638 #
-2 1:0 2:0 3:0 4:0.00010303436 5:0.10025372 6:0.42345276 7:0.3436482 8:0.72430021 9:0.72289062 10:0.2862559 11:0.0045701424 12:0.035714287 13:0.2754491 14:0.32730454 15:0.2962963 16:0.3501505 #
2 1:0 2:0 3:0 4:0.00014281634 5:0.027524095 6:0.56160456 7:0.52722061 8:0.56761038 9:0.55229604 10:0.011113775 11:0 12:0.07272727 13:0.086956523 14:0.12327322 15:0.089108914 16:0.12859111 #
2 1:0.000715476 2:0.0059288535 3:0.071428575 4:0.0056320401 5:0.31719983 6:0.50285715 7:0.48263738 8:0.89960271 9:0.89697373 10:0.90167397 11:0.037501492 13:0.2820513 14:0.36918926 15:0.33138686 16:0.41584927 #
2 1:0.029748283 2:0 3:0.12037037 4:0.0020961934 5:0.70511621 6:0.0042052143 7:0.040370058 8:0.75996262 9:0.77890021 10:0.96357757 11:0.52570963 12:0.33898306 13:0.729927 14:0.69499356 15:0.77350426 16:0.72961336 #
-2 1:0 2:0 3:0 4:0.00015384231 5:0.21594743 6:0.7703436 7:0.74321878 8:0.6436727 9:0.67502964 10:0.4381074 11:0.02875768 12:0.049382716 13:0.18965517 14:0.31622776 15:0.21904762 16:0.33838168 #
-2 5:0.66257793 6:0.1194426 7:0.0092899799 8:0.96709061 9:0.96728367 10:0.79914558 11:0.23041159 13:0.62639111 14:0.63108552 15:0.65694684 16:0.65470469 #
-2 5:0 6:0.4888064 7:0.46338171 8:0.23365045 9:0.23184672 10:0.001735681 11:0 13:0.020008337 14:0.021869773 15:0.020710059 16:0.0244036 #
2 1:0.046218488 2:0 3:0.10267857 4:0.0035652281 5:0.73336452 6:0.26674235 7:0.21906924 8:0.85781866 9:0.86736506 10:0.97038668 11:0.45782208 12:0.33898306 13:0.66375548 14:0.67862737 15:0.7150259 16:0.71875978 #
2 1:0 5:0.084814385 6:0.0063761957 7:0.1381509 8:0.71889395 9:0.71086842 10:0.058424782 11:0 13:0.17422435 14:0.16726848 15:0.20351759 16:0.19717894 #
2 1:0 2:0 3:0 4:0.00035193565 5:0.10509273 6:0.20675105 7:0.37834036 8:0.75499254 9:0.74701965 10:0.063730478 11:0 12:0.036036037 13:0.18205805 14:0.1743907 15:0.19337016 16:0.18702009 #
-2 1:0 2:0 3:0 4:4.1020594e-05 5:0.33436456 6:0.646281 7:0.58512396 8:0.59965909 9:0.60328805 10:0.29235196 11:0.043480828 13:0.21678321 14:0.29834598 15:0.22463769 16:0.30992252 #
2 1:0 2:0 3:0.0015037594 4:0.0010860484 5:0.49465799 6:0.082660332 7:0.10403801 8:0.82127726 9:0.82773596 10:0.94453347 11:0.35692638 12:0.33898306 13:0.65588236 14:0.62950724 15:0.7006579 16:0.66845101 #
2 1:0 2:0 3:0 4:0.00012254903 5:0.047172558 6:0.069986545 7:0.19919246 8:0.6509921 9:0.64014226 10:0.065017112 11:0.0013861442 12:0.0625 13:0.24709302 14:0.23982921 15:0.27190334 16:0.2625514 #
2 1:0.0013043479 2:0.012662338 3:0.16666667 4:0.01069079 5:0.26781791 6:0.5419274 7:0.65832293 8:0.75671107 9:0.76626092 10:0.64516336 11:0.026014093 13:0.36883116 14:0.35958883 15:0.42608696 16:0.4033457 #
2 1:0.079999998 2:0 3:0.1875 4:0.015190972 5:0.20556819 6:0.0084745763 7:0.093220338 8:0.47674888 9:0.48404288 10:0.72894031 11:0.10029762 12:0.32258064 13:0.60759491 14:0.59222424 15:0.72000003 16:0.67237866 #
2 1:0.00038530378 2:0.0072142063 3:0.13076924 4:0.00087643228 5:0.25867191 6:0.93099451 7:0.9266454 8:0.83747667 9:0.85332257 10:0.80445069 11:0.013583544 13:0.086438149 14:0.24617378 15:0.097165994 16:0.26025751 #
2 1:0 2:0 3:0 4:0.00013419216 5:0.067802452 6:0.3965798 7:0.45846906 8:0.72129416 9:0.69041181 10:0.075184658 11:0.0015905402 13:0.15306123 14:0.17088151 15:0.18930958 16:0.20364788 #
-2 1:0 2:0 3:0 4:2.4174735e-05 5:0.10081339 6:0.22 7:0.12 8:0.63663322 9:0.63569099 10:0.29896566 11:0.024906775 12:0.04040404 13:0.28421053 14:0.27840969 15:0.28723404 16:0.28131106 #
-2 5:0.3202318 6:0.08374384 7:0.049261082 8:0.8635928 9:0.85677361 10:0.37094116 11:0.14438236 13:0.55924171 14:0.56482089 15:0.63546801 16:0.63236052 #
-2 1:0 2:0.00037202382 3:0 4:0.00010123476 5:0.095175207 6:0.67830688 7:0.65396827 8:0.70900518 9:0.70152992 10:0.3297534 11:0.014915823 12:0.060606062 13:0.17910448 14:0.27441308 15:0.20533334 16:0.30586639 #
-2 1:6.5769136e-06 2:0 3:0 4:0.00015457145 5:0.16106503 6:0.80595368 7:0.79051816 8:0.79989839 9:0.79724503 10:0.38993672 11:0.029012943 12:0.083333336 13:0.16321243 14:0.29753971 15:0.19428572 16:0.33319727 #
-2 1:0 2:0 3:0 4:7.8440469e-05 5:0.17867073 6:0.13602941 7:0.071691178 8:0.67456329 9:0.67617697 10:0.34630686 11:0.0082056504 13:0.30035335 14:0.31010452 15:0.32129964 16:0.32129964 #
0.78137544542741610431590970620164 3:0 4:6.3275118e-05 5:0.043751787 6:0.58222222 7:0.49333334 8:0.44100848 9:0.45076841 10:0.03392319 11:0 12:0.042105265 13:0.087248325 14:0.13471507 15:0.10344828 16:0.1488875 #
-2 1:0 3:0 4:0.00027073859 5:0.10322059 6:0.18489583 7:0.080729164 8:0.6663571 9:0.66369063 10:0.090865344 11:0.013535856 12:0.064516127 13:0.2029703 14:0.22134387 15:0.23195876 16:0.24081048 #
-2 1:6.2275808e-06 2:0 3:0 4:0.00014312295 5:0.062501222 6:0.72673559 7:0.704579 8:0.52719975 9:0.5100562 10:0.079015285 11:0 12:0.07272727 13:0.15714286 14:0.23425475 15:0.16730037 16:0.24563763 #
2 1:0 2:0 3:0 4:0.00016437538 5:0.012577096 6:0.060301509 7:0.070351757 8:0.42966226 9:0.41989768 10:0.023595205 11:0 13:0.17322835 14:0.17602253 15:0.17741935 16:0.18035211 #
2 1:0 2:0 3:0 4:1.1466575e-05 5:0.065716632 6:0.48563218 7:0.43390805 8:0.65128303 9:0.63847941 10:0.016096927 11:0 12:0.043478262 13:0.11956522 14:0.14930445 15:0.1299435 16:0.15982631 #
2 1:0 2:0 3:0 4:3.2810982e-05 5:0 6:0.59398496 7:0.81203008 8:0.27681494 9:0.27267033 10:0.010080266 11:0 12:0.06666667 13:0.17708333 14:0.15907417 15:0.18947369 16:0.16651684 #
-2 6:0.097308487 #
2 5:0.041910399 6:0.37199125 7:0.35448578 8:0.58623219 9:0.57058853 10:0.022321546 11:0 12:0.034482758 13:0.1563981 14:0.18178959 15:0.18137255 16:0.20740744 #
-2 6:0.036890645 #
-2 6:0.093229748 #
2 1:0 2:0 3:0 4:0.00026919713 5:0.082609974 6:0.025839793 7:0.094315246 8:0.76787728 9:0.75386035 10:0.044876184 11:0.0014752344 13:0.1974026 14:0.21558252 15:0.23822714 16:0.24878882 #
-2 1:0 2:0 3:0 4:0.00015774509 5:0.20106816 6:0.44748858 7:0.40182647 8:0.7515347 9:0.74644327 10:0.44871539 11:0.0015839291 13:0.23543124 14:0.30657199 15:0.25419664 16:0.33163077 #
2 5:0.13542593 6:0.51586372 7:0.45475912 8:0.73263919 9:0.71865517 10:0.047024474 11:0 12:0.057971016 13:0.14363144 14:0.16717385 15:0.16811594 16:0.18728201 #
2 1:0 2:0 3:0 4:0.00027340333 5:0.028002223 6:0.96014494 7:1.1847826 8:0.52475393 9:0.52056146 10:0.025366973 11:0 12:0.05479452 13:0.15789473 14:0.11770526 15:0.18787879 16:0.13512148 #
-2 1:0 2:0 3:0 4:0.00011711472 5:0.084904008 6:0.81051344 7:0.80440098 8:0.65126234 9:0.65884084 10:0.32521734 11:0.012838528 12:0.0625 13:0.17378917 14:0.29847145 15:0.18153846 16:0.30386546 #
-2 1:0 2:0 3:0 4:0.0001115845 5:0.25528345 6:0.037383176 7:0.12616822 8:0.70969009 9:0.7108472 10:0.26973432 11:0.02326645 13:0.29583332 14:0.28881067 15:0.36681223 16:0.34425074 #
-2 1:0 2:0 3:0 4:2.6748839e-06 5:0.14852214 6:0.60512823 7:0.54871798 8:0.36764041 9:0.43704286 10:0.42607996 11:0.01980295 12:0.07272727 13:0.125 14:0.17826851 15:0.12820514 16:0.1836796 #
-2 1:0 2:0 3:0 4:7.644383e-05 5:0.046820734 6:0.61417323 7:0.5774278 8:0.54817009 9:0.56781065 10:0.33491674 11:0 13:0.098712444 14:0.16227268 15:0.12962963 16:0.19051588 #
-2 1:0 2:0 3:0 4:0.00016483202 5:0.10464333 6:0.722372 7:0.6981132 8:0.58967096 9:0.58171874 10:0.28053817 11:0.011894652 13:0.17258883 14:0.26979008 15:0.18617021 16:0.28018835 #
2 1:0 2:0 3:0 4:1.3500378e-05 5:0.038316708 6:0.65104169 7:0.58333331 8:0.5439086 9:0.54067004 10:0.031834241 11:0 12:0.043103449 13:0.1010101 14:0.13430382 15:0.10769231 16:0.14404187 #
2 1:0.00088559254 2:0.0074605453 3:0.073891625 4:0.0017645253 5:0.34800953 6:0.8834855 7:0.87495035 8:0.85949147 9:0.85793781 10:0.60999012 11:0.029686788 13:0.11813187 14:0.2860747 15:0.14152542 16:0.31986701 #
-2 1:0 2:0 3:0 4:0 5:0.16754845 6:0.10769231 7:0.010256411 8:0.57637805 9:0.5773145 10:0.24296652 11:0.0766965 13:0.34558824 14:0.35426524 15:0.36296296 16:0.36987716 #
2 1:0.0009019046 2:0.016756756 3:0.1375 4:0.002954632 5:0.42736739 6:0.1078935 7:0.20644559 8:0.91080076 9:0.89861763 10:0.75111955 11:0.098409407 13:0.41611624 14:0.39923519 15:0.47264439 16:0.44629216 #
2 1:0 2:0 3:0 4:8.1360347e-05 5:0.076642416 6:0.33524355 7:0.26934096 8:0.56023216 9:0.56459635 10:0.014804152 11:0.0039227754 12:0.071428575 13:0.11891892 14:0.14678591 15:0.12849163 16:0.15254553 #
-2 5:0.68214476 6:0.03125 7:0.012867647 8:0.95795333 9:0.95816195 10:0.93376446 11:0.49218109 13:0.81339711 14:0.80197155 15:0.82767624 16:0.81192952 #
-2 1:0 2:0 3:0 4:0.00013054554 5:0.14372754 6:0.66426861 7:0.61031175 8:0.6051895 9:0.61352295 10:0.43801761 11:0.021091931 13:0.21138212 14:0.29819626 15:0.23876405 16:0.32768989 #
2 1:0.0001911315 2:0.0028929606 3:0.010344828 4:0.001153947 5:0.12138196 6:0.0084985839 7:0.014164306 8:0.63300717 9:0.64017832 10:0.50688207 11:0.020472867 13:0.21693122 14:0.241446 15:0.24861878 16:0.26279417 #
-2 1:0 2:0 3:0 4:0 5:0.12741463 6:0.81240547 7:0.80030257 8:0.56562841 9:0.56910497 10:0.23887989 11:0 13:0.15909091 14:0.28952044 15:0.1701389 16:0.3026768 #
-2 1:0 2:0 3:0 4:0.00011035841 5:0.19112419 6:0.18556701 7:0.14639175 8:0.70932382 9:0.70453525 10:0.31970221 11:0.038070451 13:0.31983805 14:0.3285982 15:0.34583333 16:0.35250598 #
-2 1:0 2:0 3:0 4:4.1806019e-05 5:0.14799221 6:0.5645439 7:0.51462996 8:0.64896965 9:0.65038973 10:0.32012308 11:0.0027069077 13:0.20689656 14:0.27671015 15:0.23550725 16:0.30551806 #
-2 1:0 2:0 3:0 4:1.2832358e-05 5:0.089458875 6:0.55492955 7:0.48450705 8:0.61160189 9:0.60913175 10:0.38142782 11:0.04291885 13:0.20975609 14:0.27302274 15:0.22 16:0.28520963 #
2 1:4.7975438e-05 2:0 3:0 4:0.00015129508 5:0.016585236 6:0.32971016 7:0.27536231 8:0.37617528 9:0.36987805 10:0.0092592817 11:0 12:0.05479452 13:0.11695907 14:0.13625319 15:0.12727273 16:0.14801216 #
2 1:0 2:0 3:0 4:4.7301452e-05 5:0.016409129 6:0.18556701 7:0.13402061 8:0.37931195 9:0.37074596 10:0.0093147755 11:0 12:0.050632913 13:0.12280702 14:0.12857571 15:0.12844037 16:0.1327745 #
-2 1:0 2:0 3:0 4:0.00025691089 5:0.084490433 6:0.31213874 7:0.26011559 8:0.62825811 9:0.62837744 10:0.36103243 11:0.0077498425 13:0.26086956 14:0.29166105 15:0.27927929 16:0.31365982 #
-2 1:0.0071361503 2:0.040624999 3:0.1 4:0.0049494598 6:0.066312999 12:0.83333331 #
-2 1:0 2:0 3:0 4:2.6638672e-05 5:0.016675007 6:0.16194332 7:0.20242915 8:0.51618963 9:0.51423907 10:0.10961927 11:0 13:0.19512194 14:0.19148542 15:0.20987654 16:0.20078662 #
-2 1:0 2:0 3:0 4:0 5:0.076365195 6:0.36170211 7:0.48510638 8:0.56993359 9:0.56550008 10:0.12971567 11:0.011646468 13:0.28666666 14:0.23610234 15:0.3263889 16:0.26227939 #
2 1:0.00037716873 2:0.0086755352 3:0.09375 4:0.0059031877 5:0.45619452 6:0.64983976 7:0.61939102 8:0.91196585 9:0.90845358 10:0.70710957 11:0.06569504 13:0.23483483 14:0.35904929 15:0.28974739 16:0.4116036 #
-2 1:0 2:0 3:0 4:0.00014736656 5:0.19602987 6:0.027210884 7:0.15419501 8:0.63236749 9:0.63646936 10:0.36564359 11:0.025602242 13:0.33070865 14:0.33120483 15:0.37551022 16:0.35573244 #
-2 1:0.0073529412 2:0.042735044 3:0.06666667 4:0.0066060079 6:0.17307693 12:0.83333331 #
2 1:0.031746034 2:0 3:0.18421052 4:0.0029848928 5:0.68394297 6:0.14805654 7:0.17915194 8:0.76514506 9:0.78530514 10:0.96924835 11:0.38677895 12:0.32786885 13:0.60461539 14:0.61212194 15:0.66913122 16:0.66913122 #
2 1:0.013888889 2:0 3:0.15359478 4:0.0031545025 5:0.73678333 6:0.16190477 7:0.23544973 8:0.74912959 9:0.76246607 10:0.97156441 11:0.52281553 12:0.33898306 13:0.72148544 14:0.73115724 15:0.77575755 16:0.77109832 #
-2 1:0 2:0 3:0 4:7.498177e-05 5:0.18128704 6:0.16483517 7:0.091575094 8:0.6706813 9:0.67092627 10:0.36644077 11:0.029793978 13:0.37341774 14:0.37384811 15:0.39473686 16:0.38840038 #
-2 1:0 2:0 3:0 4:0.00012725365 5:0.079559892 6:1.2987804 7:1.4756098 8:0.57695258 9:0.57648373 10:0.3576234 11:0.013093074 13:0.37719297 14:0.28869218 15:0.40707964 16:0.29512051 #
-2 5:0.90177417 6:0.0016820858 7:0.1783011 8:0.94911051 9:0.96289599 10:0.98492807 11:0.84805804 13:0.37362638 14:0.36958706 15:0.41111112 16:0.40442592 #
2 1:0.0004259462 2:0.014242878 3:0.16666667 4:0.015943877 5:0.54883111 6:0.26801029 7:0.20025729 8:0.91852552 9:0.92365664 10:0.84918094 11:0.19836253 13:0.54114711 14:0.61165059 15:0.60528302 16:0.66888517 #
-2 5:0.8223511 6:0.44096065 7:0.17811875 8:0.82768357 9:0.85523796 10:0.99683797 11:0.64640206 13:0.46212122 14:0.43790933 15:0.48461539 16:0.45886493 #
2 1:0.055555556 2:0 3:0.1875 4:0.015190972 5:0.27436513 6:0.087048829 7:0.027600849 8:0.56072378 9:0.55504006 10:0.73586655 11:0.1617597 12:0.32258064 13:0.64772725 14:0.61585444 15:0.70552146 16:0.66952187 #
2 1:0.0018990504 2:0.022941971 3:0.097222224 4:0.0037601052 5:0.10018377 6:0.26455027 7:0.21957672 8:0.75760537 9:0.74715555 10:0.4991318 11:0.0067691123 13:0.30751708 14:0.33370131 15:0.35294119 16:0.36232954 #
2 1:0.036363635 2:0 3:0.16 4:0.011944445 5:0.17944804 6:0.73407203 7:0.71098799 8:0.58862084 9:0.58810562 10:0.54277951 11:0.089186676 12:0.32258064 13:0.30746269 14:0.42620838 15:0.37809187 16:0.48357907 #
2 1:0 2:0 3:0 4:0.00017805739 5:0.054126639 6:0.96747965 7:1.1747967 8:0.59383702 9:0.58571863 10:0.046103708 11:0 13:0.22222222 14:0.16584404 15:0.24832214 16:0.17768964 #
-2 1:0.0032407406 2:0.06666667 3:0.55716556 4:0.00086154632 5:0.2572124 6:7.0079999 7:8.0319996 8:0.72790891 9:0.72347343 10:0.29240015 11:0.11101154 12:0.3548387 13:0.81481481 14:0.32314527 15:0.83544302 16:0.33375502 #
-2 1:0 2:0 3:0 4:0.00082706765 5:0.25776282 6:7.3722944 7:8.5064936 8:0.53685886 9:0.53946871 10:0.40703973 11:0.053467963 13:0.30656934 14:0.13510861 15:0.34328359 16:0.15261267 #
2 1:0.047619049 2:0 3:0.088541664 4:0.0035807292 5:0.62079817 6:0.36666667 7:0.33240741 8:0.84189218 9:0.8426103 10:0.92555892 11:0.35380325 12:0.33898306 13:0.58631921 14:0.61764508 15:0.63503647 16:0.65956426 #
2 1:0.00025949808 2:0.0020218238 3:0.023423424 4:0.001205962 5:0.45959279 6:0.42692438 7:0.38250256 8:0.91771305 9:0.91055894 10:0.89822453 11:0.091757283 13:0.35971943 14:0.42515433 15:0.43468207 16:0.49316829 #
2 1:0.00058960845 2:0.0036073374 3:0.041666668 4:0.0035552683 5:0.36002213 6:0.25122669 7:0.35525024 8:0.86741799 9:0.88713068 10:0.93494397 11:0.15243983 13:0.44650206 14:0.42069367 15:0.50328225 16:0.46602169 #
-2 5:0.87294251 6:0.17433535 7:0.091025144 8:0.98868567 9:0.98805994 10:0.94529521 11:0.56811911 13:0.66356277 14:0.65386981 15:0.7225374 16:0.70563567 #
2 1:0 2:0 3:0 4:0 5:0.0078282831 6:1.3461539 7:1.5769231 8:0.52958858 9:0.52164155 10:0.019000702 11:0 12:0.032258064 13:0.20588236 14:0.13421887 15:0.20792079 16:0.13689281 #
2 1:0 3:0 4:0 5:0.028867608 6:0.064516127 7:0.16873449 8:0.60505062 9:0.57929599 10:0.05151714 11:0 12:0.0625 13:0.18131869 14:0.15708452 15:0.21022727 16:0.17781886 #
-2 1:0.00043392016 2:0.0083333338 3:0.57894737 4:0.0022394799 5:0.27992222 6:0.16587678 7:0.12085308 8:0.85961413 9:0.86506712 10:0.59210461 11:0.15180399 12:0.12977099 13:0.46610171 14:0.50388134 15:0.50666666 16:0.52197015 #
-2 1:0 2:0 3:0 4:0 5:0.056716148 6:0.79636365 7:0.78727275 8:0.55674452 9:0.56264186 10:0.30499363 11:0 13:0.14885496 14:0.27073416 15:0.17254902 16:0.3061541 #
2 1:0.036956523 2:0 3:0.1388889 4:0.0031507201 5:0.49413404 6:0.15692821 7:0.10767946 8:0.79562193 9:0.79633683 10:0.80343419 11:0.26650983 12:0.33898306 13:0.59880239 14:0.58285362 15:0.63758391 16:0.62411594 #
2 1:0.079999998 2:0 3:0.16 4:0.011944445 5:0.45407248 6:0.11409396 7:0.093959734 8:0.80476248 9:0.81733185 10:0.76319098 11:0.22773431 12:0.33333334 13:0.60759491 14:0.5724436 15:0.66233766 16:0.62311065 #
-2 1:0 2:0 3:0 4:0 5:0.080374636 6:0.4273743 7:0.37150839 8:0.47143403 9:0.47607362 10:0.30546963 11:0.0039796759 13:0.23316061 14:0.2887378 15:0.26111111 16:0.30262807 #
2 1:0 2:0 3:0 4:0 5:0.070885919 6:0.63522011 7:0.55849057 8:0.57256579 9:0.57339615 10:0.052150216 11:0.0083450247 13:0.1522388 14:0.20363991 15:0.17532468 16:0.22034393 #
2 1:0.00054555375 2:0.015376458 3:0.010186757 4:0.0019688646 5:0.40242499 6:0.054624122 7:0.0010816657 8:0.90823978 9:0.90829396 10:0.81611484 11:0.23679322 13:0.47092199 14:0.4855046 15:0.52773374 16:0.52857208 #
-2 1:0 2:0 3:0 4:8.8090201e-05 5:0.19514741 6:0.20899472 7:0.11640212 8:0.74944586 9:0.7536689 10:0.41056117 11:0.05410751 13:0.32743362 14:0.3741104 15:0.36486486 16:0.39968944 #
-2 5:0.92431074 6:0.21459553 7:0.10722666 8:0.99529207 9:0.99481928 10:0.91251582 11:0.49257654 13:0.69022202 14:0.67613304 15:0.75386411 16:0.72329199 #
-2 5:0.88800573 6:0.20701228 7:0.08511854 8:0.99286503 9:0.99233931 10:0.89999765 11:0.45609653 13:0.68153775 14:0.69127798 15:0.75 16:0.74381137 #
-2 1:0.0071348939 2:0.042735044 3:0.06666667 4:0.0066060079 6:0.10831235 12:0.84210527 #
2 1:0.040816326 2:0 3:0.065789476 4:0.0028326022 5:0.67793638 6:0.20406279 7:0.22622345 8:0.75127786 9:0.76255155 10:0.95870054 11:0.50222367 12:0.33333334 13:0.71481484 14:0.73753661 15:0.77021277 16:0.79066443 #
2 1:0 2:0 3:0 4:0.0001344809 5:0.036621097 6:0.86963981 7:0.84848487 8:0.51745945 9:0.50575489 10:0.033701114 11:0 13:0.098039217 14:0.18121488 15:0.11856823 16:0.20400164 #
2 1:0 2:0 3:0.12244898 4:0.0083616776 5:0.47298282 6:0.19678715 7:0.13253012 8:0.71986037 9:0.71941471 10:0.63846767 11:0.27392712 12:0.33898306 13:0.62068963 14:0.6352458 15:0.67289722 16:0.66669524 #
-2 1:0 2:0 3:0 4:7.6535871e-05 5:0.14242123 6:0.19929454 7:0.11463845 8:0.74807131 9:0.75013113 10:0.31388578 11:0.051027346 12:0.042105265 13:0.34931508 14:0.37220716 15:0.38709676 16:0.39569998 #
-2 5:0.83204323 6:0.044348564 7:0.092162967 8:0.96796829 9:0.96844375 10:0.95787019 11:0.67265481 13:0.79066205 14:0.75769287 15:0.82155633 16:0.79101479 #
2 1:0.016917294 2:0 3:0.060975611 4:0.0012510779 5:0.76493335 6:0.054456379 7:0.10457886 8:0.7129823 9:0.72269303 10:0.93696964 11:0.52964211 12:0.32786885 13:0.66260868 14:0.6655305 15:0.71396649 16:0.70689344 #
-2 1:0 2:0 3:0 4:0 5:0.048205331 6:0.37375414 7:0.29235882 8:0.62059313 9:0.60390711 10:0.13687795 11:0 12:0.064516127 13:0.18587361 14:0.22135238 15:0.22891566 16:0.25167587 #
2 1:0 2:0 3:0.1875 4:0.015190972 5:0.50677907 6:0.16245487 7:0.13718411 8:0.70409614 9:0.70156592 10:0.74657756 11:0.34531507 12:0.33333334 13:0.61538464 14:0.63811183 15:0.66393441 16:0.67225128 #
2 1:0.0015717845 2:0.027586207 3:0.090909094 4:0.0057749753 5:0.39424169 6:0.22482893 7:0.14760508 8:0.91489428 9:0.9186241 10:0.77807152 11:0.19472882 13:0.4817073 14:0.51837981 15:0.53303963 16:0.55819672 #
2 1:0.00085531396 2:0.0064244573 3:0.014285714 4:0.0014425719 5:0.29723856 6:0.65649348 7:0.62207794 8:0.84738487 9:0.84225816 10:0.43470484 11:0.019471984 13:0.14603175 14:0.21853818 15:0.17894737 16:0.25669822 #
-2 1:0 2:0 3:0 4:0.00027081923 5:0.11946399 6:1.1724138 7:1.453202 8:0.62548316 9:0.63726646 10:0.31285965 11:0.02477554 12:0.045977011 13:0.39455783 14:0.29818246 15:0.45833334 16:0.33471933 #
2 1:0.0011361289 2:0.048951048 3:0.088888891 4:0.0053951591 5:0.40968701 6:0.016029593 7:0.21208385 8:0.8113085 9:0.81233764 10:0.81585145 11:0.14617704 13:0.54353565 14:0.53080332 15:0.60806918 16:0.57356864 #
2 1:0.055555556 2:0 3:0.16 4:0.011944445 5:0.42203191 6:0.04255319 7:0.018237082 8:0.61004883 9:0.61306971 10:0.62979233 11:0.21437107 12:0.32258064 13:0.625 14:0.61224002 15:0.708134 16:0.67067266 #
-2 5:0.55167603 6:0.13095239 7:0.10154062 8:0.94606227 9:0.95040041 10:0.98854566 11:0.53477985 13:0.28915662 14:0.27464917 15:0.32911393 16:0.31361741 #
-2 5:0.76710194 6:0.15330318 7:0.12081963 8:0.97103363 9:0.97124332 10:0.91986668 11:0.45935813 13:0.72226441 14:0.70235652 15:0.77582318 16:0.74909979 #
2 1:0.057142857 2:0 3:0.13333334 4:0.0099537037 5:0.30377766 6:0.13513513 7:0.10810811 8:0.63964993 9:0.64823109 10:0.43220913 11:0.1693335 12:0.33333334 13:0.64999998 14:0.6010322 15:0.68000001 16:0.61065805 #
2 1:0.0011871358 2:0.016771488 3:0.042857144 4:0.0031187346 5:0.21037196 6:0.41282302 7:0.36277395 8:0.79778856 9:0.77884901 10:0.41877267 11:0.0090207532 13:0.26750973 14:0.31743437 15:0.311804 16:0.34797835 #
2 1:0 3:0 4:0.00025987526 5:0.070032194 6:0.6964286 7:0.6662088 8:0.55618775 9:0.54730511 10:0.035117351 11:0 13:0.14527027 14:0.20059355 15:0.15957446 16:0.21184975 #
2 1:0.00036223134 2:0.018200202 3:0.027777778 4:0.0031373398 5:0.47624919 6:0.21793863 7:0.098347761 8:0.85057288 9:0.85345858 10:0.69783682 11:0.19442776 13:0.44802868 14:0.50369501 15:0.49409449 16:0.54146659 #
-2 1:0 2:0 3:0 4:2.4337058e-05 5:0.18223651 6:2.5929649 7:3.1356783 8:0.77655572 9:0.77186513 10:0.50267553 11:0.035632625 12:0.057971016 13:0.35245901 14:0.19154529 15:0.40000001 16:0.21693046 #
2 1:0.00054869684 2:0.013550135 3:0.045454547 4:0.0046883617 5:0.54903758 6:0.1827451 7:0.089803919 8:0.8621667 9:0.86698425 10:0.6929453 11:0.23003517 13:0.60837698 14:0.65067577 15:0.66666669 16:0.7047677 #
-2 1:0 2:0 3:0 4:0 5:0.12103759 6:0.61198735 7:0.56466877 8:0.66454715 9:0.6608265 10:0.16049354 11:0.010914306 13:0.26380369 14:0.34531319 15:0.27215189 16:0.34733939 #
2 1:0.00082305272 2:0.0088665579 3:0.077922076 4:0.0046219649 5:0.55882591 6:0.17021276 7:0.17521903 8:0.91854942 9:0.91460675 10:0.84918302 11:0.16529897 13:0.47848102 14:0.51239407 15:0.52688169 16:0.55688113 #
-2 1:0 2:0 3:0 4:0 5:0.24504036 6:0.093896717 7:0.17136151 8:0.83871353 9:0.83879852 10:0.40983883 11:0.0093697114 13:0.25920472 14:0.27284151 15:0.31162789 16:0.31581762 #
-2 5:0.22917463 6:0.18055555 7:0.125 8:0.65214062 9:0.64530677 10:0.48320583 11:0.12428864 13:0.37288135 14:0.40505284 15:0.4107143 16:0.43907204 #
-2 1:0 2:0 3:0 4:6.1489271e-05 5:0.58646536 6:0.2069435 7:0.14635807 8:0.91065323 9:0.90906811 10:0.77986515 11:0.12943652 12:0.083333336 13:0.3444227 14:0.35396585 15:0.39254385 16:0.3858332 #
2 1:0.00038155523 2:0.0022357968 3:0.064285718 4:0.0015183893 5:0.14866547 6:2.2345417 7:2.4434967 8:0.73874247 9:0.73664212 10:0.6712786 11:0.014471245 13:0.43460765 14:0.32194915 15:0.48723406 16:0.35268772 #
-2 5:0.35380307 6:0.066265061 7:0.018072288 8:0.76367933 9:0.76830322 10:0.47464103 11:0.19050814 13:0.54285717 14:0.54976922 15:0.57843137 16:0.58418703 #
2 1:0.0017363852 2:0.018243244 3:0.1 4:0.012028869 5:0.43620887 6:0.25442833 7:0.22383253 8:0.92565125 9:0.92878801 10:0.94820029 11:0.23858264 13:0.47727272 14:0.53687626 15:0.54545456 16:0.59420055 #
-2 1:0 2:0 3:0 4:0.00078492938 5:0.12145371 6:0.04945055 7:0.15384616 8:0.6010446 9:0.5996114 10:0.30474609 11:0.017966971 12:0.071428575 13:0.31451613 14:0.31139958 15:0.32499999 16:0.3122499 #
-2 1:0 2:0 3:0 4:0.00035635897 5:0.28375503 6:0.86968523 7:0.85643291 8:0.79204631 9:0.79894567 10:0.55923539 11:0.074576616 12:0.075471699 13:0.15327103 14:0.29822174 15:0.18776371 16:0.33716476 #
-2 1:0 2:0 3:0 4:3.010416e-05 5:0.25339735 6:0.41009465 7:0.35173503 8:0.7756272 9:0.78268951 10:0.41401023 11:0.031873077 13:0.29865772 14:0.35341471 15:0.31428573 16:0.36119002 #
-2 1:0 5:0.57581615 6:0.12381597 7:0.046008117 8:0.85414797 9:0.85698766 10:0.88097572 11:0.23946935 12:0.070175439 13:0.35741445 14:0.37607044 15:0.40083507 16:0.41217759 #
2 1:0.079999998 2:0 3:0.1875 4:0.015190972 5:0.47708705 6:0.098666668 7:0.010666667 8:0.61260831 9:0.63448095 10:0.85047781 11:0.28492385 12:0.32258064 13:0.61235952 14:0.59904581 15:0.64848483 16:0.63515186 #
2 1:0.00140313 2:0.041666668 3:0.13333334 4:0.011660447 5:0.49456659 6:0.19175628 7:0.15412186 8:0.84458911 9:0.85374063 10:0.89532995 11:0.14981979 13:0.55056179 14:0.58114785 15:0.5731225 16:0.59849942 #
-2 1:0 2:0 3:0 4:4.1612569e-05 5:0.17716093 6:0.43405277 7:0.35251799 8:0.74413162 9:0.7503143 10:0.36008349 11:0.012816629 13:0.25641027 14:0.32209641 15:0.2863436 16:0.34764826 #
2 1:0.056122448 2:0 3:0.18934911 4:0.0043967785 5:0.59987974 6:0.10580456 7:0.096987508 8:0.75281042 9:0.7645005 10:0.92207068 11:0.28959265 12:0.31746033 13:0.64174455 14:0.60805738 15:0.6838488 16:0.64808816 #
-2 1:0 2:0 3:0 4:2.5278059e-05 5:0.078866147 6:0.8347826 7:0.81739128 8:0.65025818 9:0.65728372 10:0.3641744 11:0.017298611 13:0.1460177 14:0.29890183 15:0.15277778 16:0.30276504 #
-2 1:0.0038314175 2:0.022222223 3:0.65781331 4:0.0010830078 5:0.16038896 6:0.018796992 7:0.0075187972 8:0.87202209 9:0.86918497 10:0.66152459 11:0.043509759 12:0.26506025 13:0.49253732 14:0.47295266 15:0.54838711 16:0.50538421 #
2 5:0.05361611 6:1.8810811 7:2.1108108 8:0.67703199 9:0.66652858 10:0.036427189 11:0 12:0.030769231 13:0.2914573 14:0.18813862 15:0.30851063 16:0.19680135 #
-2 5:0.23772828 6:0.80668342 7:0.79123247 8:0.83915812 9:0.83999896 10:0.42519513 11:0.036165953 12:0.065573767 13:0.16720258 14:0.29929554 15:0.20224719 16:0.33905983 #
2 1:0 2:0 3:0 4:0.0001206033 5:0.05231829 6:1.7205882 7:2.1593137 8:0.64250451 9:0.63157767 10:0.05980774 11:0.0024215756 12:0.037037037 13:0.2977528 14:0.18183735 15:0.34104046 16:0.20560113 #
2 1:0.0017670074 2:0.022222223 3:0.11111111 4:0.010702055 5:0.58586466 6:0.08510638 7:0.20141844 8:0.91211051 9:0.91892731 10:0.89572102 11:0.2754989 13:0.61261261 14:0.59716886 15:0.63836479 16:0.61736643 #
2 1:0 2:0 3:0 4:0 5:0.12571397 6:1.184265 7:1.4492754 8:0.78216547 9:0.77888471 10:0.045387402 11:0 12:0.034482758 13:0.24034335 14:0.17180002 15:0.25221238 16:0.1789359 #
2 5:0.10077511 6:0.32418951 7:0.4713217 8:0.75314409 9:0.74131525 10:0.055476151 11:0 12:0.051948052 13:0.2173913 14:0.18384123 15:0.23857868 16:0.20047612 #
-2 1:8.3333334e-06 2:0 3:0 4:0.00018230433 5:0.12860972 6:0.75311202 7:0.73340249 8:0.7712419 9:0.76840204 10:0.3658115 11:0.012503691 13:0.16241299 14:0.30248821 15:0.18181819 16:0.31224462 #
2 1:0.00055117195 2:0.013546798 3:0.018518519 4:0.0015595709 5:0.73780656 6:0.39275053 7:0.35735607 8:0.89781672 9:0.90454328 10:0.9206382 11:0.26376945 13:0.39774331 14:0.49041313 15:0.44481054 16:0.52726328 #
-2 1:0 2:0 3:0 4:0.00050066755 5:0.032636318 6:0.26379311 7:0.19827586 8:0.62699175 9:0.6242649 10:0.22401819 11:0 13:0.17263843 14:0.19588336 15:0.21403509 16:0.2174968 #
2 1:0.00025218658 2:0.0021248774 3:0.021551725 4:0.0014774916 5:0.26003823 6:0.40154439 7:0.40218791 8:0.86256135 9:0.86015123 10:0.78884655 11:0.09946128 13:0.36134455 14:0.44740167 15:0.41044775 16:0.49005672 #
2 1:0.00098166789 2:0.0082942657 3:0.027777778 4:0.0023758612 5:0.19483821 6:0.4267292 7:0.41852286 8:0.73755944 9:0.73679334 10:0.87549335 11:0.10020459 13:0.28749999 14:0.40757743 15:0.31999999 16:0.44038552 #
2 1:0 2:0 3:0 4:0 5:0.0095007941 6:0.10177706 7:0.13408723 8:0.47867247 9:0.45877683 10:0.022471204 11:0 13:0.23952095 14:0.17495631 15:0.2631579 16:0.18857858 #
-2 1:0.0038314175 2:0.047619049 3:0.6780318 4:0.001114461 5:0.16860855 6:0.16249999 7:0.06666667 8:0.7933718 9:0.80028641 10:0.4408274 11:0.056446638 12:0.2972973 13:0.41059601 14:0.43342242 15:0.4513889 16:0.46619245 #
-2 1:0.0029985008 2:0.035714287 3:0.66990721 4:0.0010926171 5:0.2601496 6:0.44604316 7:0.528777 8:0.77427447 9:0.78968537 10:0.68869817 11:0.085525393 12:0.27160493 13:0.44999999 14:0.42544752 15:0.46710527 16:0.44430572 #
-2 1:0.0044929394 2:0.074074075 3:0.51980609 4:0.0012008181 5:0.34263235 6:0.33018869 7:0.21383648 8:0.8564229 9:0.86198217 10:0.72922462 11:0.15515375 12:0.3548387 13:0.5 14:0.54941851 15:0.52688169 16:0.58093011 #
-2 1:0.00043785575 2:0.0083333338 3:0.56821591 4:0.0022028077 5:0.36535051 6:0.14068441 7:0.11977186 8:0.91814613 9:0.92228258 10:0.64224499 11:0.13638039 12:0.12230216 13:0.51839465 14:0.56371588 15:0.55172414 16:0.58722019 #
2 1:0.018595042 2:0 3:0.057692308 4:0.0021675706 5:0.80003208 6:0.15312901 7:0.17423917 8:0.77145356 9:0.7738502 10:0.84638053 11:0.50303918 12:0.32786885 13:0.64558142 14:0.64334434 15:0.72162485 16:0.70658934 #
2 1:0 2:0 3:0 4:6.1637082e-05 5:0.046565879 6:0.15618661 7:0.22718053 8:0.61034566 9:0.59905392 10:0.025210202 11:0 13:0.14385965 14:0.17771024 15:0.15018316 16:0.1834328 #
-2 5:0.88192683 6:0.016045846 7:0.14842407 8:0.93652767 9:0.94456965 10:0.99982649 11:0.8122375 13:0.44186047 14:0.42720905 15:0.4642857 16:0.45361105 #
-2 1:0 2:0 3:0 4:0.00046620046 5:0.051245004 6:6.4615383 7:6.6923075 8:0.43631893 9:0.46232143 10:0.37778664 11:0 13:0.53846157 14:0.24846467 15:0.58974361 16:0.26860654 #
-2 1:3.7319001e-05 2:0 3:0 4:9.5593154e-05 5:0.099910833 6:0.75435203 7:0.74468082 8:0.75389004 9:0.75489551 10:0.37563774 11:0.013222147 12:0.050000001 13:0.15686275 14:0.25974575 15:0.17283951 16:0.28243953 #
-2 1:0.0066807312 2:0.035326086 3:0.090909094 4:0.0046296297 6:0.022922637 12:0.84210527 #
2 1:0.0065406975 2:0 3:0.088953488 4:0.0011708656 5:0.67544568 6:1.0731232 7:1.1036724 8:0.78282517 9:0.78519249 10:0.78802907 11:0.35923028 12:0.32786885 13:0.66125542 14:0.50422013 15:0.70394737 16:0.53969419 #
-2 1:0 2:0 3:0 4:0.00029835006 5:0.083428159 6:0.91150445 7:1.1769911 8:0.52528429 9:0.51156217 10:0.3134917 11:0.006661783 12:0.057971016 13:0.35294119 14:0.25167927 15:0.37878788 16:0.26387522 #
-2 1:0.0073653199 2:0.040485829 3:0.077272728 4:0.004980843 6:0.10962567 12:0.83333331 #
2 1:0.074074075 2:0 3:0.203125 4:0.0072699655 5:0.53849685 6:0.11353032 7:0.059097979 8:0.76015842 9:0.763017 10:0.79916233 11:0.23170488 12:0.33333334 13:0.60869563 14:0.58879209 15:0.67261904 16:0.64446342 #
-2 5:0.65306926 6:0.06888441 7:0.10483871 8:0.93863386 9:0.94633925 10:0.72111815 11:0.52770621 13:0.33333334 14:0.3220306 15:0.35772356 16:0.34662867 #
-2 1:0 2:0 3:0 4:0.00036801508 5:0.2151709 6:0.69749999 7:0.67250001 8:0.72069407 9:0.69672322 10:0.052035291 11:0.0024565205 12:0.068965517 13:0.15060242 14:0.23129787 15:0.17171717 16:0.25283179 #
-2 1:0 2:0 3:0 4:2.3909146e-05 5:0.094701804 6:4.4104047 7:5.0751443 8:0.71665883 9:0.71442634 10:0.39024341 11:0.0052921907 13:0.45689654 14:0.22642949 15:0.50442475 16:0.24449113 #
-2 1:0 2:0 3:0 4:0.00017685456 5:0.22727761 6:0.89252335 7:0.87694705 8:0.71927351 9:0.72095215 10:0.29780704 11:0.029269425 13:0.088932805 14:0.21655034 15:0.1123348 16:0.25515315 #
-2 1:0 2:0 3:0 4:0.00012112403 5:0.25631508 6:0.91945064 7:0.91425389 8:0.75425422 9:0.7557317 10:0.30582532 11:0.018463552 12:0.04255319 13:0.12915601 14:0.30825812 15:0.15509601 16:0.33864978 #
2 1:0 2:0 3:0.1875 4:0.015190972 5:0.33327445 6:0.1375839 7:0.03691275 8:0.61243922 9:0.62293738 10:0.7187019 11:0.19732608 12:0.33333334 13:0.60683763 14:0.6134454 15:0.65765768 16:0.64894658 #
2 1:0.019138755 2:0 3:0.17901234 4:0.0030864198 5:0.54776394 6:1.0362538 7:0.88519639 8:0.758865 9:0.74919921 10:0.77878684 11:0.24341218 12:0.32786885 13:0.73148149 14:0.51486981 15:0.78723407 16:0.54940063 #
-2 5:0.34327191 6:0.18292683 7:0.14634146 8:0.70561719 9:0.7090342 10:0.49974898 11:0.15321286 13:0.47761193 14:0.5396077 15:0.5 16:0.56330073 #
2 1:0 2:0 3:0 4:5.412427e-05 5:0.098699056 6:0.87099642 7:0.84386122 8:0.60610765 9:0.60553396 10:0.11817671 11:0.0050635994 13:0.11352041 14:0.22657378 15:0.13294798 16:0.25044796 #
2 1:0.00049529853 2:0.0065359478 3:0.064583331 4:0.00098814233 5:0.39289078 6:0.72415572 7:0.70456302 8:0.8957485 9:0.90307385 10:0.9084546 11:0.044200715 13:0.20064464 14:0.33845854 15:0.24137931 16:0.38192868 #
-1.1300809516957377454104971548077 5:0.59101802 6:0.17927171 7:0.085434176 8:0.93653613 9:0.93861043 10:0.78790718 11:0.25312677 13:0.58974361 14:0.6132831 15:0.60856271 16:0.62705243 #
2 1:0 2:0 3:0 4:1.2127092e-05 5:0.018245513 6:0.096969694 7:0.024242423 8:0.63824975 9:0.63371021 10:0.028832555 11:0 12:0.043859649 13:0.12765957 14:0.13156661 15:0.14285715 16:0.14568627 #
-2 1:0.0044871797 2:0.06666667 3:0.5086019 4:0.0011291372 5:0.36532134 6:0.17553191 7:0.10638298 8:0.87225181 9:0.87739807 10:0.66365045 11:0.21075638 12:0.3548387 13:0.55288464 14:0.5736289 15:0.58536583 16:0.59263778 #
2 1:0.00055794674 2:0.012776413 3:0.076666668 4:0.0024518678 5:0.23092234 6:0.050802138 7:0.0080213901 8:0.80689216 9:0.81094307 10:0.77186435 11:0.078221299 13:0.38987342 14:0.37933642 15:0.43010753 16:0.40820044 #
2 1:0.00078656682 2:0.012560386 3:0.020833334 4:0.0032679739 5:0.25818774 6:0.4123314 7:0.42003852 8:0.85241777 9:0.85160714 10:0.81050986 11:0.03925683 13:0.26905829 14:0.34804767 15:0.30024815 16:0.36818445 #
2 1:0.00050611678 2:0.0045432644 3:0.083333336 4:0.0073563219 5:0.13497414 6:0.2 7:0.15428571 8:0.78872883 9:0.80035758 10:0.58061564 11:0.01343929 13:0.26439792 14:0.31201366 15:0.31355932 16:0.34643546 #
-2 1:0 2:0 3:0 4:0 5:0.22184397 6:0.39285713 7:0.51428574 8:0.71847022 9:0.71621174 10:0.36336553 11:0.047943145 13:0.47333333 14:0.37206444 15:0.47945204 16:0.37631145 #
2 1:0 2:0 3:0 4:0.00014581511 5:0.054749168 6:0.59497207 7:0.67877096 8:0.69464445 9:0.69346994 10:0.045722056 11:0 12:0.042105265 13:0.18134715 14:0.14018066 15:0.19892474 16:0.15334623 #
-2 1:0.0066075465 2:0.03050109 3:0.074074075 4:0.00390625 6:0.13172042 12:0.84210527 #
-2 1:0 2:0 3:0 4:0.00017799929 5:0.38642409 6:0.75628078 7:0.73556072 8:0.90381718 9:0.90222508 10:0.49204922 11:0.043489784 12:0.068965517 13:0.17103235 14:0.29294443 15:0.21107267 16:0.3417367 #
-2 1:0 2:0 3:0 4:8.6523905e-05 5:0.06418702 6:0.72531646 7:0.70886075 8:0.72699809 9:0.72550094 10:0.26724267 11:0 13:0.11886305 14:0.19675271 15:0.15235457 16:0.23557034 #
2 5:0.036748815 6:0.98930484 7:1.2299465 8:0.60321158 9:0.58287233 10:0.024826901 11:0 13:0.24576271 14:0.17977937 15:0.25641027 16:0.18827751 #
2 1:0.053333335 2:0 3:0.15000001 4:0.0057638888 5:0.70755541 6:0.17653167 7:0.17808931 8:0.78123534 9:0.80842429 10:0.96838975 11:0.32728717 12:0.31746033 13:0.64389235 14:0.64245701 15:0.7157107 16:0.69685036 #
2 1:0.04296875 2:0 3:0.1736111 4:0.0047743055 5:0.46411964 6:0.16348357 7:0.13750955 8:0.74604267 9:0.74710041 10:0.75923312 11:0.29798847 12:0.33333334 13:0.60629922 14:0.57508773 15:0.63636363 16:0.59526366 #
-2 5:0.76369542 6:0.005654281 7:0 8:0.94639152 9:0.94831097 10:0.97277391 11:0.424851 13:0.80378252 14:0.77858084 15:0.83376622 16:0.80403417 #
2 1:0.037807185 2:0 3:0.15916955 4:0.0033400615 5:0.70494419 6:0.10309734 7:0.1380531 8:0.75766057 9:0.77577746 10:0.9756825 11:0.39721096 12:0.31746033 13:0.6613546 14:0.65625751 15:0.72576833 16:0.71323252 #
2 1:0.0022381986 2:0.021088436 3:0.083333336 4:0.0066142092 5:0.2535426 6:0.43888572 7:0.39624786 8:0.91094446 9:0.90572822 10:0.78551859 11:0.045378149 13:0.32175228 14:0.40195209 15:0.3581315 16:0.43432033 #
2 1:0 2:0 3:0 4:7.6540375e-05 5:0.047706388 6:0.70918369 7:0.67142856 8:0.49667305 9:0.49354985 10:0.022466769 11:0 12:0.060606062 13:0.10626703 14:0.15087573 15:0.12166172 16:0.16464934 #
2 1:0.00040799147 2:0.0031775921 3:0.061538462 4:0.0018140232 5:0.19260378 6:0.25361156 7:0.19261637 8:0.65678108 9:0.65996557 10:0.33659494 11:0.057847288 13:0.2857143 14:0.30669832 15:0.31309903 16:0.32360864 #
2 1:0 2:0 3:0 4:6.4499487e-05 5:0.050040048 6:0.9048059 7:0.89648801 8:0.54343998 9:0.54509711 10:0.018066611 11:0 12:0.075471699 13:0.060606062 14:0.15106116 15:0.069767445 16:0.15879908 #
2 1:0.081632651 2:0 3:0.12244898 4:0.0083616776 5:0.738967 6:0.27433628 7:0.24778761 8:0.79803401 9:0.80504066 10:0.96726304 11:0.60911202 12:0.33898306 13:0.70535713 14:0.75636804 15:0.70642203 16:0.75668597 #
-2 1:0.0065068495 2:0.036931816 3:0.083333336 4:0.0041752425 6:0.0234375 12:0.84210527 #
2 1:0 2:0 3:0 4:1.158856e-05 5:0.028950732 6:0.12598425 7:0.20866142 8:0.68547159 9:0.67539769 10:0.029258845 11:0 12:0.04587156 13:0.13375796 14:0.13793713 15:0.15333334 16:0.15083994 #
2 5:0.018934138 6:0.66283524 7:0.73563218 8:0.61524338 9:0.60356885 10:0.012746392 11:0 12:0.057971016 13:0.14838709 14:0.12051138 15:0.147651 16:0.12178884 #
2 1:0 2:0 3:0 4:0 5:0.074011192 6:1.1606426 7:1.3333334 8:0.64311856 9:0.63863128 10:0.036457103 11:0 12:0.03539823 13:0.23333333 14:0.16775061 15:0.24489796 16:0.175882 #
2 1:0.00024517818 2:0.0082304524 3:0.074074075 4:0.0049835541 5:0.15786378 6:0.025925925 7:0.13611111 8:0.86772478 9:0.87186033 10:0.45719904 11:0.0058889082 13:0.23925234 14:0.24398425 15:0.2790224 16:0.27061045 #
-2 1:0 2:0 3:0 4:7.1084462e-05 5:0.21760687 6:0.23624596 7:0.16019417 8:0.76650482 9:0.76952094 10:0.42679739 11:0.027759587 13:0.33112583 14:0.35373592 15:0.36363637 16:0.3756496 #
2 1:0 3:0 4:0.0010526315 5:0.025244053 6:2.2408164 7:2.6510205 8:0.66074789 9:0.65465957 10:0.044647254 11:0 12:0.036363635 13:0.23247233 14:0.1493632 15:0.25 16:0.16541821 #
2 1:0 2:0 3:0 4:2.9485478e-05 5:0.064640082 6:3.0205128 7:3.3008547 8:0.67499769 9:0.6662854 10:0.035681069 11:0.0035324169 12:0.033613447 13:0.31687242 14:0.17204429 15:0.35652173 16:0.19021478 #
2 1:0.023460411 2:0 3:0.091111109 4:0.0018518518 5:0.7704854 6:0.13939925 7:0.10731992 8:0.79300761 9:0.8033486 10:0.96081054 11:0.4092111 12:0.32786885 13:0.6880734 14:0.66334027 15:0.72321427 16:0.696374 #
-2 5:0.64592022 6:0.016505407 7:0.10358566 8:0.95762706 9:0.96092159 10:0.91620797 11:0.64208704 13:0.35106382 14:0.33867982 15:0.37777779 16:0.36389139 #
2 1:0.056122448 2:0 3:0.18181819 4:0.0052226814 5:0.49458304 6:0.12279226 7:0.069806561 8:0.72767574 9:0.75353169 10:0.69180292 11:0.23444684 12:0.31746033 13:0.54985756 14:0.5381701 15:0.62962961 16:0.59108293 #
-2 1:0 2:0 3:0 4:0.00010566038 5:0.23141348 6:0.049319729 7:0.20408164 8:0.85770446 9:0.8571173 10:0.37743551 11:0.020841375 12:0.057142857 13:0.34415585 14:0.33315247 15:0.38435373 16:0.36783433 #
2 1:0.079999998 2:0 3:0.1875 4:0.015190972 5:0.30676788 6:0.032258064 7:0.02764977 8:0.57502455 9:0.59054798 10:0.74457711 11:0.14684059 12:0.32258064 13:0.56842107 14:0.56545275 15:0.58426964 16:0.58426964 #
2 1:0.029136317 2:0 3:0.098765433 4:0.0020861912 5:0.7823292 6:0.12730153 7:0.12037221 8:0.81101811 9:0.82083178 10:0.9590432 11:0.43532994 12:0.32786885 13:0.64757162 14:0.65434688 15:0.69378698 16:0.69276297 #
-2 1:0 2:0.00080906152 3:0 4:7.5250209e-05 5:0.1440881 6:0.66523606 7:0.62875539 8:0.737028 9:0.73700839 10:0.18284547 11:0.031569056 12:0.06779661 13:0.23963134 14:0.33505183 15:0.26442307 16:0.36527318 #
-2 1:0 2:0 3:0 4:0.00016923338 5:0.13892885 6:0.80715704 7:0.80318093 8:0.63525385 9:0.64223915 10:0.32484493 11:0.030036066 12:0.034482758 13:0.19354838 14:0.31679398 15:0.21327014 16:0.3442142 #
-2 1:0 2:0 3:0 4:4.2979325e-05 5:0.30444714 6:0.32481202 7:0.2781955 8:0.76090205 9:0.77139139 10:0.57278776 11:0.15510912 12:0.067567565 13:0.29392973 14:0.36352164 15:0.3447099 16:0.41413271 #
2 1:0.00082145643 2:0.021367522 3:0.11111111 4:0.0048247562 5:0.25342259 6:0.58201987 7:0.57092822 8:0.84887695 9:0.85043293 10:0.50548238 11:0.063155867 13:0.2715655 14:0.37485725 15:0.29963899 16:0.39800486 #
2 1:0.00045572664 2:0.0034013605 3:0.03125 4:0.0022727272 5:0.4322789 6:0.79522496 7:0.77895844 8:0.89656752 9:0.89516479 10:0.61829364 11:0.074206911 13:0.15443242 14:0.30454749 15:0.1875 16:0.34232661 #
2 1:0.00074060727 2:0.0070149256 3:0.125 4:0.0073630926 5:0.3861708 6:0.51489949 7:0.49272349 8:0.90152431 9:0.90609717 10:0.8538605 11:0.10962689 13:0.3884007 14:0.51635939 15:0.426 16:0.54454511 #
-2 1:0 2:0 3:0 4:0.00011004213 5:0.12305681 6:0.0064935065 7:0.1525974 8:0.67896223 9:0.68305558 10:0.24484916 11:0.015668286 13:0.31843576 14:0.33716381 15:0.34911242 16:0.35439432 #
-2 1:0 2:0 3:0 4:0.00035222637 5:0.20844249 6:0.59060401 7:0.5704698 8:0.67017561 9:0.66521883 10:0.35028714 11:0.007941762 12:0.074074075 13:0.19270833 14:0.26183906 15:0.22346368 16:0.29602841 #
2 1:0.00046642387 2:0.0084292209 3:0.13333334 4:0.011322464 5:0.28574282 6:0.9230383 7:0.92069602 8:0.89997745 9:0.892187 10:0.79904842 11:0.029596353 13:0.094420604 14:0.24712981 15:0.11575092 16:0.2801643 #
2 1:0 2:0 3:0 4:0.00016548463 5:0.020477459 6:0.66377443 7:0.63340563 8:0.50237232 9:0.5026713 10:0.033878364 11:0 13:0.10869565 14:0.16388033 15:0.12442397 16:0.1724228 #
2 1:0.052380953 2:0 3:0.14583333 4:0.0047743055 5:0.64382702 6:0.21560846 7:0.13624339 8:0.82176387 9:0.82826692 10:0.90249372 11:0.43521553 12:0.33898306 13:0.61386138 14:0.61167932 15:0.65263158 16:0.65092087 #
2 1:0.00058555225 2:0.021621622 3:0.10769231 4:0.003700658 5:0.33570617 6:0.7661221 7:0.73918027 8:0.90657294 9:0.90382791 10:0.58224654 11:0.025776759 13:0.18166091 14:0.32054037 15:0.20874752 16:0.3460826 #
2 1:0 2:0 3:0 4:5.4525626e-05 5:0.072686754 6:0.93075645 7:0.92435378 8:0.67885149 9:0.66977024 10:0.042360555 11:0 12:0.06779661 13:0.055752214 14:0.14434159 15:0.071721308 16:0.1642921 #
-2 1:0 2:0 3:0 4:0 5:0.045830112 6:0.53043479 7:0.49217391 8:0.66960967 9:0.66847879 10:0.29636562 11:0 12:0.040816326 13:0.18772563 14:0.24695016 15:0.22180451 16:0.27038631 #
-2 1:0 2:0 3:0 4:0 5:0.22370535 6:0.21910828 7:0.10828026 8:0.75224376 9:0.75559533 10:0.38279086 11:0.014938423 13:0.34666666 14:0.36654225 15:0.36363637 16:0.37728086 #
2 1:0.0012235148 2:0.0077881622 3:0.15000001 4:0.010884354 5:0.2567094 6:0.40381896 7:0.37270156 8:0.8619867 9:0.867428 10:0.78015876 11:0.094518997 13:0.32894737 14:0.39066184 15:0.36938775 16:0.42857796 #
2 1:0.038781162 2:0 3:0.12890625 4:0.0035536024 5:0.65102267 6:0.046511628 7:0.052540913 8:0.77558535 9:0.78995913 10:0.84306639 11:0.38922921 12:0.33333334 13:0.68070173 14:0.62406802 15:0.70588237 16:0.64863288 #
2 1:0 2:0 3:0 4:7.9478617e-05 5:0.048458122 6:0.088669948 7:0.10837439 8:0.55984426 9:0.54554653 10:0.019923532 11:0 12:0.048780486 13:0.13138686 14:0.12950981 15:0.13432837 16:0.13534217 #
2 1:0.053333335 2:0 3:0.15234375 4:0.0035536024 5:0.67201853 6:0.095124848 7:0.1296076 8:0.81576103 9:0.82479036 10:0.97627926 11:0.43245721 12:0.32258064 13:0.66023165 14:0.67456776 15:0.7368421 16:0.74339193 #
-2 1:0.0067873304 2:0.026666667 3:0.079999998 4:0.0040181098 6:0.13919415 12:0.85000002 #
2 1:0.018742191 2:0 3:0.11753087 4:0.0012448559 5:0.69915539 6:0.093892694 7:0.11815068 8:0.8045643 9:0.80948752 10:0.96285903 11:0.38005683 12:0.33333334 13:0.66857964 14:0.66951114 15:0.7241993 16:0.71909922 #
-2 5:0.78548688 6:0.15822674 7:0.10873864 8:0.98319089 9:0.9825502 10:0.89124215 11:0.5487805 13:0.79096043 14:0.75529802 15:0.83407784 16:0.78746569 #
2 1:9.4553707e-06 2:0 3:0 4:0.00018218841 5:0 6:0.41860464 7:0.48837209 8:0.55701005 9:0.55756581 10:0.013844155 11:0 12:0.059701491 13:0.12087912 14:0.11307207 15:0.13186814 16:0.1245548 #
-2 1:0 2:0 3:0 4:0 5:0.39211395 6:4.0438871 7:4.6551723 8:0.80742019 9:0.80944914 10:0.54846162 11:0.15636909 12:0.064516127 13:0.60159361 14:0.27976474 15:0.67372882 16:0.30748659 #
-2 1:0 2:0 3:0 4:5.6511544e-05 5:0.084369577 6:2.9268293 7:3.5 8:0.65539581 9:0.65370303 10:0.32986724 11:0 12:0.012658228 13:0.43103448 14:0.24492361 15:0.46551725 16:0.26207417 #
2 1:0.079999998 2:0 3:0.19444445 4:0.0098379627 5:0.44633284 6:0.14806378 7:0.17084283 8:0.60667551 9:0.61915201 10:0.96857446 11:0.25376138 12:0.32258064 13:0.6785714 14:0.69934988 15:0.71140939 16:0.73131281 #
2 1:0.055555556 2:0 3:0.1875 4:0.015190972 5:0.38596296 6:0.066473991 7:0.06936416 8:0.62137645 9:0.61355084 10:0.65886617 11:0.25854826 12:0.32258064 13:0.66197181 14:0.65523475 15:0.765625 16:0.74004954 #
-2 1:0.0015197569 2:0.027272727 3:0.37412587 4:0.0049636285 5:0.32947868 6:0.072519086 7:0.072519086 8:0.89832944 9:0.90123415 10:0.60346848 11:0.15069121 12:0.18518518 13:0.61971831 14:0.58020437 15:0.64233577 16:0.5981276 #
-2 1:6.6067652e-05 2:0 3:0 4:0.00041608876 5:0.10553518 6:0.28350514 7:0.18041237 8:0.70999998 9:0.70288622 10:0.38563663 11:0.0066660084 13:0.24905661 14:0.28491318 15:0.31275719 16:0.32721558 #
2 1:0 2:0 3:0 4:7.6080338e-05 5:0.033123303 6:0.22773723 7:0.30656934 8:0.61359471 9:0.60555577 10:0.041645683 11:0.0013539772 13:0.17424242 14:0.14715344 15:0.19838056 16:0.16015039 #
2 1:0.00038606726 2:0.010727311 3:0.039999999 4:0.002063185 5:0.28224474 6:0.59213573 7:0.5705474 8:0.87705576 9:0.88611209 10:0.83395183 11:0.062709808 13:0.29636362 14:0.42454809 15:0.35095137 16:0.46975949 #
-2 1:0 2:0 3:0 4:3.5253222e-05 5:0.24810176 6:0.77931035 7:0.75862068 8:0.67178077 9:0.65203691 10:0.50740051 11:0.051772017 13:0.16528925 14:0.28527996 15:0.17621145 16:0.29498813 #
2 1:0 2:0.0036231885 3:0 4:1.6493485e-05 5:0.12560803 6:0.7807765 7:0.76420456 8:0.69518572 9:0.68386102 10:0.044806216 11:0 12:0.051948052 13:0.11398176 14:0.17848918 15:0.14210527 16:0.19786726 #
-2 1:0.00053623412 2:0.0083333338 3:0.24764891 4:0.0023521506 5:0.41973236 6:0.0046189376 7:0.043879908 8:0.90276486 9:0.90711039 10:0.69066119 11:0.23788093 12:0.12878788 13:0.59336102 14:0.62243468 15:0.64502162 16:0.65502256 #
-2 1:0 2:0 3:0 4:0 5:0.091923885 6:0.625323 7:0.59948319 8:0.60690939 9:0.60136425 10:0.20163821 11:0.0047065206 12:0.045977011 13:0.12365592 14:0.16457987 15:0.12568305 16:0.1667192 #
-2 1:0 2:0 3:0 4:0.00044079436 5:0.16769235 6:0.95272148 7:0.95629716 8:0.62209243 9:0.62957019 10:0.43624398 11:0.030001018 12:0.061538462 13:0.067867033 14:0.20781749 15:0.081469648 16:0.23229381 #
-2 1:0 2:0 3:0 4:0.000375848 5:0.17383023 6:0.93082708 7:0.92330825 8:0.66459703 9:0.66732323 10:0.23191749 11:0.028667826 12:0.093023255 13:0.084444441 14:0.22750005 15:0.097972974 16:0.2498886 #
2 1:0.00028618381 2:0.0046593407 3:0.054545455 4:0.0022287944 5:0.23489903 6:4.2507291 7:4.6151605 8:0.71833736 9:0.73414439 10:0.52277541 11:0.032153424 13:0.44034091 14:0.23484907 15:0.48447204 16:0.25002503 #
2 1:0.00058680953 2:0.022544283 3:0.050000001 4:0.0045351475 5:0.28672788 6:0.28092244 7:0.256464 8:0.88375753 9:0.8881548 10:0.58138758 11:0.095414653 13:0.40556368 14:0.46098113 15:0.46310833 16:0.50866908 #
-2 1:0.00062637019 2:0.0083333338 3:0.24363637 4:0.0027006173 5:0.34527811 6:0.15183246 7:0.13874346 8:0.87059265 9:0.87257612 10:0.62425917 11:0.14103061 12:0.13492064 13:0.50943398 14:0.53759849 15:0.52912623 16:0.5524106 #
2 1:0.00046381759 2:0.0033988473 3:0.033333335 4:0.0031459224 5:0.16400996 6:0.85817385 7:0.84750551 8:0.72229254 9:0.72620642 10:0.76125526 11:0.021675456 13:0.13197026 14:0.28493884 15:0.16079295 16:0.32087991 #
2 1:0.00043604651 2:0.0060790274 3:0.023076924 4:0.0016315986 5:0.17198879 6:0.86209106 7:0.85760105 8:0.78302318 9:0.77917057 10:0.63207293 11:0.035614155 13:0.13534483 14:0.28754386 15:0.16768293 16:0.33468628 #
-2 5:0.39553705 6:0.20224719 7:0.056179777 8:0.76682544 9:0.78707594 10:0.62968725 11:0.31378582 13:0.54411763 14:0.58572549 15:0.58208954 16:0.62029916 #
2 1:0 2:0 3:0.1875 4:0.015190972 5:0.4622429 6:0.10465116 7:0.019379845 8:0.70320582 9:0.71097583 10:0.75773823 11:0.22578655 12:0.33333334 13:0.616 14:0.60253668 15:0.67768598 16:0.65889496 #
2 1:0.00078685087 2:0.0070594624 3:0.045454547 4:0.0043821209 5:0.14213982 6:0.63048017 7:0.60055673 8:0.83300924 9:0.8290484 10:0.54381901 11:0.009654263 13:0.18813559 14:0.26460075 15:0.22456814 16:0.29743275 #
2 1:0.053333335 2:0 3:0.14222223 4:0.0037962962 5:0.70917577 6:0.14639905 7:0.13931523 8:0.83050197 9:0.83974737 10:0.86605477 11:0.48657879 12:0.33898306 13:0.71296299 14:0.695319 15:0.74603176 16:0.74018043 #
-2 5:0.71048403 6:0.033409264 7:0.0015186028 8:0.96893698 9:0.9698965 10:0.97692287 11:0.51927137 13:0.799591 14:0.80162811 15:0.83956045 16:0.8368063 #
2 1:0.029411765 2:0 3:0.031764038 4:0.0013038067 5:0.71063989 6:0.11697303 7:0.10766292 8:0.70092267 9:0.72915429 10:0.88672864 11:0.37457788 12:0.31746033 13:0.59386975 14:0.56070215 15:0.65798044 16:0.59894657 #
2 1:0.0011038766 2:0.0065151514 3:0.1 4:0.007751938 5:0.48635525 6:0.071736008 7:0.1061693 8:0.86479217 9:0.86773038 10:0.85761446 11:0.28887153 13:0.4775641 14:0.45944434 15:0.53061223 16:0.50389743 #
-2 1:0 2:0 3:0 4:0.00012800819 5:0.36918676 6:0.74709302 7:0.67441863 8:0.75369966 9:0.74562311 10:0.59952909 11:0.095114432 12:0.093023255 13:0.16149068 14:0.3089115 15:0.17647059 16:0.32907259 #
2 1:0.0020180438 2:0.024691358 3:0.0090497741 4:0.0021645022 5:0.30791873 6:0.63240302 7:0.59087813 8:0.89121807 9:0.87385988 10:0.89040112 11:0.056076039 13:0.25360826 14:0.3544139 15:0.3020595 16:0.40930283 #
-2 5:0.60864842 6:0.072222225 7:0.022222223 8:0.85692859 9:0.86467057 10:0.88154888 11:0.37278587 13:0.67391306 14:0.62572837 15:0.71111113 16:0.66151857 #
-2 1:6.465963e-06 2:0 3:0 4:0.00014854426 5:0.34629712 6:0.80327868 7:0.78343397 8:0.77078444 9:0.7727403 10:0.58165723 11:0.061735395 12:0.083333336 13:0.14004377 14:0.25669453 15:0.16747573 16:0.29257256 #
-2 1:0 5:0.30717021 6:0.79727757 7:0.77491492 8:0.85322762 9:0.85486388 10:0.4750106 11:0.030954499 12:0.043956045 13:0.13014609 14:0.25166404 15:0.1640058 16:0.28958276 #
-2 1:0 2:0 3:0 4:0 5:0.20348209 6:0.27960527 7:0.4506579 8:0.78879118 9:0.79924107 10:0.3771452 11:0.04134978 13:0.37096775 14:0.34114385 15:0.41666666 16:0.36544085 #
2 1:0 2:0 3:0 4:6.4977256e-05 5:0.054899909 6:0.31770834 7:0.27864584 8:0.5345543 9:0.51431257 10:0.028517716 11:0 12:0.064516127 13:0.13366337 14:0.14813364 15:0.13917525 16:0.14780825 #
2 1:0.000921659 2:0.01177394 3:0.005050505 4:0.0013360272 5:0.27314746 6:0.27714932 7:0.1979638 8:0.86051136 9:0.8631227 10:0.51761556 11:0.078688614 13:0.27990431 14:0.33358076 15:0.30690536 16:0.36332121 #
-2 1:0.0067500495 2:0.04524887 3:0.077272728 4:0.004980843 6:0.12720849 12:0.84210527 #
-2 1:0 2:0 3:0 4:0 5:0.31537583 6:0.021582734 7:0.1059516 8:0.85845166 9:0.85683441 10:0.47604302 11:0.049137454 12:0.065573767 13:0.31375581 14:0.33951953 15:0.37563452 16:0.38832617 #
2 1:0 2:0 3:0 4:2.9744908e-05 5:0.012872455 6:0.17021276 7:0.08510638 8:0.4973844 9:0.50138211 10:0.024698481 11:0 13:0.125 14:0.15075567 15:0.14736842 16:0.15488772 #
-2 1:0 2:0 3:0 4:4.4050921e-05 5:0.24046412 6:0.64236456 7:0.59802955 8:0.69877779 9:0.6998257 10:0.34005162 11:0.015039216 13:0.25183374 14:0.32561779 15:0.28165373 16:0.35326731 #
2 1:0.056122448 2:0 3:0.096938774 4:0.0040745465 5:0.68442297 6:0.17480136 7:0.098751418 8:0.82778203 9:0.83670807 10:0.93085676 11:0.37116221 12:0.33898306 13:0.62295079 14:0.60504562 15:0.67464113 16:0.63758492 #
2 1:0.00041191475 2:0.0035731022 3:0.042857144 4:0.0040777619 5:0.15191105 6:0.83776957 7:0.83389491 8:0.80865175 9:0.81151557 10:0.57513827 11:0.03889621 13:0.18384224 14:0.33550581 15:0.2161572 16:0.37077004 #
2 5:0.043690138 6:0.64876956 7:0.62639821 8:0.71419609 9:0.70771736 10:0.019132497 11:0 12:0.048543688 13:0.084070794 14:0.13143679 15:0.09259259 16:0.13676833 #
-2 5:0.37938866 6:0.89339465 7:0.87834448 8:0.85306901 9:0.85013515 10:0.70773405 11:0.084478922 12:0.06666667 13:0.13722628 14:0.29327765 15:0.1638796 16:0.32398862 #
-2 1:1.1138834e-05 2:0 3:0 4:0.00015099549 5:0.2561473 6:0.8613295 7:0.84846318 8:0.85793966 9:0.85774928 10:0.52046257 11:0.042714473 12:0.093023255 13:0.13018867 14:0.28006449 15:0.15756303 16:0.31512606 #
-2 1:0 2:0 3:0 4:0 5:0.14447789 6:0.65918654 7:0.5834502 8:0.75257254 9:0.75175202 10:0.30916831 11:0.016219398 12:0.060606062 13:0.16957606 14:0.26394388 15:0.19060053 16:0.2903899 #
2 5:0.30645397 6:0.92522418 7:0.92392248 8:0.80129486 9:0.80660588 10:0.81099874 11:0.028213363 13:0.088922009 14:0.24474303 15:0.10410642 16:0.26542035 #
2 1:0.00079617836 2:0.0088117486 3:0.021505376 4:0.0017284292 5:0.31313857 6:0.82540399 7:0.81588882 8:0.89725494 9:0.89750504 10:0.8785975 11:0.027518794 13:0.18129331 14:0.35042351 15:0.21769178 16:0.39036423 #
2 1:0 2:0 3:0 4:1.1466575e-05 5:0.050784182 6:0.48433048 7:0.42165244 8:0.62185204 9:0.62059343 10:0.027701536 11:0 12:0.039682541 13:0.096938774 14:0.12881429 15:0.10309278 16:0.13817111 #
2 1:0 2:0 3:0 4:0.00013076595 5:0.075486712 6:0.67009717 7:0.6466552 8:0.5354647 9:0.52357358 10:0.046532411 11:0 13:0.14901961 14:0.20070812 15:0.17897092 16:0.22030544 #
2 1:0.015086207 2:0 3:0.10544217 4:0.0026455026 5:0.63164657 6:0.11729186 7:0.11033852 8:0.72742969 9:0.73882663 10:0.81586379 11:0.29948506 12:0.32786885 13:0.56373936 14:0.56941426 15:0.60532153 16:0.60565734 #
-2 1:0 2:0 3:0 4:0.00016889368 5:0.25768626 6:0.61931187 7:0.56159824 8:0.748878 9:0.74470282 10:0.43927449 11:0.023809165 13:0.25067386 14:0.32491153 15:0.27683616 16:0.35857764 #
2 1:0.0010338589 2:0.015599343 3:0.0075187972 4:0.00059220119 5:0.16765679 6:0.84460694 7:0.84186471 8:0.79992968 9:0.76817065 10:0.54507494 11:0.022970274 13:0.13773796 14:0.29261586 15:0.16862746 16:0.34015751 #
-2 1:0 2:0 3:0 4:0.00040255536 5:0.25583136 6:0.72463769 7:0.68888891 8:0.71723676 9:0.71932346 10:0.51615745 11:0.033132169 13:0.20090294 14:0.3152127 15:0.22434367 16:0.33854151 #
-2 5:0.56215769 6:0.17775294 7:0.09446618 8:0.93666303 9:0.93718565 10:0.6910153 11:0.23687923 13:0.62176168 14:0.64063984 15:0.66022098 16:0.66953343 #
-0.67366695398755771506671408133116 1:0 2:0 3:0 4:7.6628356e-05 5:0.058913771 6:2.7727273 7:3.028409 8:0.62979192 9:0.63655865 10:0.29874 11:0.0095223226 12:0.052631579 13:0.46551725 14:0.28672144 15:0.52173913 16:0.31083494 #
2 1:0 2:0 3:0 4:3.7664784e-05 5:0.037248686 6:0.91111112 7:0.93227512 8:0.66929984 9:0.64154661 10:0.026826842 11:0.00070086605 13:0.1641791 14:0.1673979 15:0.2 16:0.20189321 #
2 1:0.00036770379 2:0.010699589 3:0.06198347 4:0.0023188405 5:0.29231131 6:0.29624277 7:0.21098267 8:0.85069907 9:0.85343796 10:0.84537542 11:0.07452137 13:0.29268292 14:0.33804342 15:0.33717579 16:0.38224274 #
-2 1:0 2:0 3:0 4:0.00016457422 5:0.20005587 6:0.82242066 7:0.80456346 8:0.59046692 9:0.61255652 10:0.59877986 11:0.035096649 13:0.11011236 14:0.21795236 15:0.12224939 16:0.228568 #
2 1:0.0016514228 2:0.01978022 3:0.036458332 4:0.0030245297 5:0.38833192 6:0.54481369 7:0.51359516 8:0.87691522 9:0.88060164 10:0.73009878 11:0.17205532 13:0.36585367 14:0.47327796 15:0.40476191 16:0.51334769 #
2 1:0.00089976343 2:0.013431014 3:0.083333336 4:0.0047142855 5:0.18506175 6:0.66242516 7:0.66317368 8:0.78970563 9:0.78840679 10:0.53935039 11:0.051073171 13:0.24912281 14:0.36761653 15:0.29558542 16:0.42501238 #
-2 1:0 2:0 3:0 4:0.00024159592 5:0.19821544 6:0.9447059 7:0.9329412 8:0.69226986 9:0.69061643 10:0.42807043 11:0.040834073 12:0.07272727 13:0.078809105 14:0.22666976 15:0.095419846 16:0.26106903 #
2 1:0.0018084904 2:0.032196969 3:0.074074075 4:0.0063004033 5:0.19437203 6:0.21266234 7:0.17694806 8:0.82452327 9:0.82258576 10:0.42029336 11:0.027313998 13:0.27181208 14:0.2938168 15:0.32363635 16:0.3414878 #
0.082670034270789449770688861462986 1:0 2:0 3:0 4:7.6819073e-05 5:0.053192794 6:4.5034804 7:4.1856151 8:0.66150862 9:0.62285835 10:0.059543811 11:0 13:0.236 14:0.16413148 15:0.27196652 16:0.19170871 #
-2 1:0 2:0 3:0 4:4.4082964e-05 5:0.099366598 6:0.65005302 7:0.60551429 8:0.79264098 9:0.78886437 10:0.31922889 11:0.017095752 12:0.0625 13:0.15869565 14:0.26070708 15:0.17701149 16:0.27441433 #
-2 1:7.3155566e-06 2:0 3:0 4:0.00014967819 5:0.21647081 6:0.74193549 7:0.73237753 8:0.79719782 9:0.79556453 10:0.52130461 11:0.062005196 12:0.081632651 13:0.16208792 14:0.27439055 15:0.1923077 16:0.3125 #
2 1:0.0010370918 2:0.0066750105 3:0.020833334 4:0.0019826426 5:0.27544236 6:0.89321148 7:0.8853786 8:0.81840253 9:0.84218395 10:0.83388704 11:0.048937906 13:0.11749788 14:0.27246186 15:0.14285715 16:0.3097069 #
-2 1:0 2:0 3:0 4:3.070923e-05 5:0.15299378 6:0.76827371 7:0.7340591 8:0.80117989 9:0.79922628 10:0.2850194 11:0.0015634125 13:0.11149826 14:0.20163979 15:0.13232514 16:0.22621995 #
2 1:0.0013968254 2:0.014619883 3:0.0038461538 4:0.00086465362 5:0.24221973 6:0.82115251 7:0.79444838 8:0.79338318 9:0.79485041 10:0.55689937 11:0.039635595 13:0.13480885 14:0.27616045 15:0.15111111 16:0.29698855 #
2 1:0 2:0 3:0 4:7.044238e-05 5:0.03334257 6:1.5720081 7:1.4705882 8:0.63045233 9:0.60957831 10:0.034273017 11:0 13:0.1754386 14:0.15850131 15:0.1978022 16:0.18443681 #
2 1:0 2:0 3:0 4:6.8306013e-05 5:0.044516064 6:2.3982809 7:2.2020056 8:0.70874923 9:0.67280746 10:0.047468811 11:0 13:0.19113573 14:0.1608929 15:0.22448979 16:0.18957067 #
2 1:0.00031298204 2:0.0038098693 3:0.041666668 4:0.0030637255 5:0.24939433 6:0.70651084 7:0.69282138 8:0.83641016 9:0.83530563 10:0.58612984 11:0.022577936 13:0.20063025 14:0.29327363 15:0.2345079 16:0.3244316 #
-2 5:0.70370358 6:0.0074626864 7:0.017412934 8:0.9656958 9:0.96651894 10:0.97864181 11:0.49778092 13:0.81924886 14:0.7971428 15:0.84155846 16:0.81849766 #
-2 1:0 2:0 3:0 4:0.00072674418 5:0.20736028 6:0.67485237 7:0.66055334 8:0.87562364 9:0.86765528 10:0.36784101 11:0.022623353 12:0.088888891 13:0.22442588 14:0.32926226 15:0.27682927 16:0.37245157 #
2 1:0.057142857 2:0 3:0.13333334 4:0.0099537037 5:0.36825532 6:0.25082508 7:0.24422443 8:0.61204219 9:0.62065768 10:0.61275905 11:0.23879234 12:0.33333334 13:0.51219511 14:0.54660815 15:0.52136755 16:0.55567169 #
2 1:0.079999998 2:0 3:0.1388889 4:0.0098379627 5:0.35801375 6:0.14741036 7:0.095617533 8:0.63650721 9:0.65706891 10:0.75620812 11:0.16326874 12:0.33333334 13:0.5462963 14:0.56226569 15:0.58653843 16:0.5922609 #
-2 1:0.0073313783 2:0.038961038 3:0.071428575 4:0.0071050641 6:0.049180329 12:0.84210527 #
2 1:0.00059232028 2:0.0046863533 3:0.059233449 4:0.0012319264 5:0.23430525 6:0.95556486 7:0.95242089 8:0.86003196 9:0.85693419 10:0.59137255 11:0.013688977 13:0.073914915 14:0.23575132 15:0.096774191 16:0.27628756 #
-2 1:0 2:0 3:0 4:0.00027631095 5:0.14723359 6:0.76643598 7:0.716263 8:0.66377693 9:0.66474301 10:0.310891 11:0.017826246 13:0.1732852 14:0.28957102 15:0.18796992 16:0.30207208 #
2 1:0 2:0 3:0 4:3.0502219e-05 5:0.094020367 6:0.92676973 7:0.92270136 8:0.68176669 9:0.67731893 10:0.070953958 11:0.0021143209 12:0.044943821 13:0.060810812 14:0.15806198 15:0.071146242 16:0.17108944 #
2 1:0.00027376981 2:0.0024155991 3:0.014285714 4:0.0014541558 5:0.30860466 6:0.71985477 7:0.70514047 8:0.84500366 9:0.8450197 10:0.61917222 11:0.037521109 13:0.18000001 14:0.28261358 15:0.23476298 16:0.33909577 #
-2 1:0 2:0 3:0 4:0.00023181537 5:0.26080766 6:0.40728477 7:0.64569539 8:0.75545537 9:0.75744802 10:0.52309316 11:0.10594375 13:0.39583334 14:0.31811556 15:0.43165466 16:0.33340022 #
2 1:0.0004591032 2:0.0042939517 3:0.018181818 4:0.0018916766 5:0.27435118 6:0.82819277 7:0.81662649 8:0.80078864 9:0.80499363 10:0.68909454 11:0.057571106 13:0.15914489 14:0.32006428 15:0.17960289 16:0.34748602 #
2 1:0 2:0 3:0 4:4.8828126e-05 5:0.071913138 6:0.76311845 7:0.73388308 8:0.60618627 9:0.58924562 10:0.031851348 11:0.0045587127 12:0.049382716 13:0.10817308 14:0.17040174 15:0.13031915 16:0.1899396 #
-2 1:0.0061776061 2:0.018099548 3:0.070588239 4:0.0058346521 6:0.036674816 12:0.84615386 #
-2 5:0.17837976 6:0.84628236 7:0.83792818 8:0.74618816 9:0.72310483 10:0.15333492 11:0.022664843 12:0.070175439 13:0.11872146 14:0.23690267 15:0.13647643 16:0.26610756 #
2 1:0.056122448 2:0 3:0.1322314 4:0.0052226814 5:0.67893654 6:0.12217438 7:0.12217438 8:0.73629153 9:0.75179833 10:0.9535681 11:0.41166708 12:0.31746033 13:0.63817096 14:0.65358889 15:0.71226418 16:0.70810127 #
2 1:0.00018872941 2:0.0025406082 3:0.055555556 4:0.00092760409 5:0.23946278 6:0.78118545 7:0.7654537 8:0.84058493 9:0.83923078 10:0.40918776 11:0.035186864 13:0.21844059 14:0.3509855 15:0.25440452 16:0.38993979 #
-2 1:8.3005461e-06 2:0 3:0 4:0.0001654503 5:0.083858117 6:0.86902285 7:0.86382538 8:0.76917154 9:0.77742028 10:0.1075011 11:0.010490921 12:0.07272727 13:0.10213777 14:0.23950538 15:0.12911393 16:0.27511355 #
2 1:0.0011875 2:0.020310633 3:0.07692308 4:0.0040422888 5:0.16819735 6:0.48984468 7:0.4432497 8:0.80662066 9:0.79363179 10:0.44667917 11:0.040730655 13:0.20418848 14:0.25923792 15:0.2419825 16:0.29234597 #
2 1:0.0014981825 2:0.012366738 3:0.10227273 4:0.0039124838 5:0.20723343 6:0.83022147 7:0.81893182 8:0.84546989 9:0.83422214 10:0.60334414 11:0.033551827 13:0.16116248 14:0.29365978 15:0.18251534 16:0.31564209 #
2 1:0 2:0 3:0 4:7.3313786e-05 5:0.039382588 6:0.35324675 7:0.29610389 8:0.60149354 9:0.59152997 10:0.040802836 11:0 13:0.14285715 14:0.16654827 15:0.17532468 16:0.19382872 #
2 1:0.00067255151 2:0.0051759835 3:0.11428571 4:0.0072514294 5:0.23110922 6:0.79620427 7:0.78490734 8:0.80368555 9:0.80658108 10:0.75700045 11:0.054289892 13:0.18757613 14:0.32962462 15:0.21388888 16:0.35940522 #
2 1:0 2:0 3:0 4:0 5:0.011153035 6:0.67573011 7:0.62839878 8:0.40634689 9:0.39742434 10:0.019207211 11:0 13:0.16203703 14:0.17683001 15:0.21276596 16:0.215653 #
-2 1:0 2:0 3:0 4:0 5:0.13073748 6:0.039772727 7:0.085227273 8:0.64911616 9:0.65658957 10:0.30552784 11:0 12:0.055555556 13:0.25203252 14:0.2606515 15:0.28099173 16:0.29076827 #
2 1:0.00057295075 2:0.0051879701 3:0.029999999 4:0.0019545429 5:0.15319781 6:0.8770963 7:0.88284618 8:0.45204693 9:0.45341951 10:0.70975548 11:0.041081373 13:0.093724534 14:0.2168607 15:0.10373066 16:0.23131824 #
-2 1:0 2:0 3:0 4:0.00022199748 5:0.22434476 6:0.38497654 7:0.32863849 8:0.819166 9:0.82069415 10:0.41060042 11:0.02556028 13:0.2631579 14:0.31835905 15:0.29276314 16:0.33805376 #
-2 1:0.013636364 2:0.052631579 3:0.27272728 4:0.0095070424 5:0.15731503 6:0.18487395 7:0.44957983 8:0.79153877 9:0.7910049 10:0.27725655 11:0.018424738 12:0.5 13:0.20422535 14:0.17844211 15:0.24626866 16:0.21248354 #
2 1:0 2:0 3:0 4:3.1661602e-05 5:0.031900454 6:0.50260419 7:0.4296875 8:0.62445229 9:0.62633628 10:0.050853424 11:0 12:0.034482758 13:0.13636364 14:0.17020097 15:0.15897436 16:0.1910634 #
-2 1:0 2:0 3:0 4:0.00032999084 5:0.24825768 6:0.94083071 7:0.93495297 8:0.74324775 9:0.74676305 10:0.54663491 11:0.045846816 12:0.088888891 13:0.084254146 14:0.23740309 15:0.097978227 16:0.25490201 #
2 1:0 2:0 3:0 4:3.830537e-05 5:0.1090644 6:0.082170546 7:0.28682169 8:0.58642685 9:0.57970834 10:0.053934023 11:0 12:0.061538462 13:0.22151899 14:0.20213079 15:0.25170067 16:0.22286528 #
2 1:0.00096899224 2:0 3:0 4:0.0017734598 5:0.067061909 6:0.14553314 7:0.05907781 8:0.59738135 9:0.58839703 10:0.041003101 11:0.0016220777 12:0.1 13:0.19571866 14:0.20122045 15:0.2192691 16:0.21502478 #
-2 1:0.0062770564 2:0.024242423 3:0.070588239 4:0.0058346521 6:0.0045248871 12:0.83333331 #
-2 1:0 2:0 3:0 4:4.2252927e-05 5:0.20537183 6:0.57210779 7:0.51188588 8:0.79981178 9:0.80002135 10:0.19456181 11:0.0071608834 13:0.21904762 14:0.28643337 15:0.24333334 16:0.31070864 #
2 5:0.019864954 6:3.3510203 7:3.6979592 8:0.57767665 9:0.57273632 10:0.033959545 11:0.0042289062 12:0.051948052 13:0.27210885 14:0.15608011 15:0.2986111 16:0.16671175 #
-2 1:0 2:0 3:0 4:0.00018409551 5:0.1512896 6:0.86215234 7:0.84280533 8:0.76107264 9:0.76006466 10:0.27885371 11:0.0017014088 13:0.091172211 14:0.21018764 15:0.10510046 16:0.23268576 #
-2 1:0 2:0 3:0 4:0.00053022272 5:0.15403441 6:0.28709289 7:0.25693607 8:0.75496674 9:0.71605843 10:0.17671563 11:0.018244121 13:0.18644068 14:0.22070681 15:0.22251309 16:0.24861455 #
2 1:0 2:0 3:0 4:0.00011462386 5:0.071011201 6:2.5209582 7:2.7664671 8:0.63765186 9:0.62917727 10:0.046527404 11:0 12:0.03809524 13:0.31339031 14:0.19991387 15:0.33827892 16:0.21846618 #
-2 1:0 2:0 3:0 4:0 5:0.079721898 6:0.91570437 7:0.90877599 8:0.56155872 9:0.56973106 10:0.32240778 11:0 13:0.092219017 14:0.21642876 15:0.0990991 16:0.22966562 #
2 1:0 2:0 3:0 4:7.1398819e-05 5:0.079578862 6:0.1137218 7:0.20206767 8:0.68529773 9:0.6696831 10:0.046304584 11:0.0027966476 12:0.057142857 13:0.20125785 14:0.20330642 15:0.22098215 16:0.21975921 #
-2 1:0 2:0 3:0 4:0.00020032052 5:0.081512146 6:0.88672769 7:0.87643021 8:0.55159372 9:0.56112683 10:0.32690874 11:0.0036684715 13:0.12064343 14:0.27270725 15:0.12676056 16:0.27953547 #
-2 5:0.11309937 6:0.89369297 7:0.88456964 8:0.76343817 9:0.75595564 10:0.14353085 11:0 12:0.063492067 13:0.077594571 14:0.19794042 15:0.096500531 16:0.23000194 #
2 1:0 2:0 3:0 4:0.00012586532 5:0.046682354 6:0.2928994 7:0.25443786 8:0.65151787 9:0.62843567 10:0.042682905 11:0.0019480523 12:0.078431375 13:0.14563107 14:0.16158327 15:0.15986395 16:0.17767884 #
2 1:0 2:0 3:0 4:0.00026041668 5:0.057869337 6:0.13925926 7:0.054814816 8:0.62284601 9:0.61351705 10:0.04855676 11:0 12:0.038834952 13:0.1971831 14:0.19573829 15:0.21804512 16:0.21102214 #
2 1:0.0012037751 2:0.0092043877 3:0.071428575 4:0.0071645682 5:0.17476755 6:0.90976489 7:0.90785849 8:0.86363697 9:0.86884451 10:0.70052463 11:0.024459582 13:0.087580763 14:0.22415419 15:0.11817368 16:0.28429466 #
2 1:7.2733619e-06 2:0 3:0 4:0.00017621428 5:0.027704582 6:0.0087719299 7:0.12719299 8:0.6007455 9:0.5940727 10:0.019407984 11:0.0047273003 12:0.061538462 13:0.16546762 14:0.16256954 15:0.17266187 16:0.17391761 #
-2 1:0 2:0 3:0 4:0.00015733769 5:0.24188367 6:0.2240566 7:0.13207547 8:0.84412295 9:0.84189296 10:0.35901526 11:0.0054104663 13:0.25612473 14:0.30192029 15:0.28971961 16:0.32601792 #
-2 1:0 2:0 3:0 4:0 5:0.22215277 6:0.42871386 7:0.38285145 8:0.78843236 9:0.78010833 10:0.37302801 11:0.02162561 13:0.22247706 14:0.26228902 15:0.25925925 16:0.28986067 #
-2 1:0 2:0 3:0 4:0.00018853696 5:0.40974319 6:0.62555718 7:0.91827637 8:0.88829839 9:0.88532412 10:0.58024663 11:0.098990113 12:0.052631579 13:0.30259365 14:0.25353372 15:0.36307693 16:0.29012251 #
2 1:0 2:0 3:0 4:1.3005254e-05 5:0.015383832 6:0.66281754 7:0.64780599 8:0.58966929 9:0.58839923 10:0.026788784 11:0 12:0.048076924 13:0.11815562 14:0.17031813 15:0.12312312 16:0.17762405 #
-2 1:0 2:0.00034578147 3:0 4:5.1835679e-05 5:0.13437314 6:0.53835022 7:0.46599132 8:0.77269834 9:0.77029449 10:0.25644243 11:0.0065707052 12:0.051948052 13:0.18302387 14:0.25918278 15:0.21008404 16:0.28949979 #
-2 5:0.085642673 6:0.48367953 7:0.44807121 8:0.69015044 9:0.69156915 10:0.27127168 11:0.0045597972 13:0.15420561 14:0.2177145 15:0.1745283 16:0.22820385 #
2 1:0 3:0 4:0 5:0.024990436 6:0.047516197 7:0.010799136 8:0.48347276 9:0.4684732 10:0.021911595 11:0 12:0.03508772 13:0.16877638 14:0.1760062 15:0.17982456 16:0.18782063 #
2 1:0.0001128923 2:0 3:0 4:0.00081480062 5:0.025494318 6:0.59299779 7:0.57111597 8:0.50590801 9:0.49615562 10:0.018770086 11:0 12:0.070175439 13:0.13145539 14:0.16762261 15:0.13636364 16:0.16829045 #
2 1:0 2:0 3:0 4:2.9117167e-05 5:0.05677022 6:0.65620327 7:0.68011957 8:0.74490124 9:0.73359013 10:0.061011259 11:0 13:0.16207951 14:0.16616093 15:0.1791531 16:0.18626632 #
2 1:0 2:0 3:0 4:0.0001703561 5:0.020765597 6:0.19557196 7:0.12915128 8:0.48025158 9:0.47209364 10:0.011470748 11:0 12:0.079999998 13:0.16551724 14:0.17347635 15:0.17266187 16:0.18135042 #
-2 1:6.4935489e-06 2:0 3:0 4:0.00014467593 5:0.14016496 6:0.75259256 7:0.74222225 8:0.71709794 9:0.71065336 10:0.18981077 11:0.047210444 12:0.057142857 13:0.13028169 14:0.2272286 15:0.15413533 16:0.25138712 #
-2 1:0 2:0 3:0 4:0 5:0.12784602 6:0.89883476 7:0.88400424 8:0.75452775 9:0.74858558 10:0.1812799 11:0.0056085349 12:0.055555556 13:0.10222222 14:0.23086348 15:0.13014828 16:0.27597255 #
2 1:0.079999998 2:0 3:0.1875 4:0.015190972 5:0.38525781 6:0 7:0.028901733 8:0.55951583 9:0.57597178 10:0.79924673 11:0.20277876 12:0.32258064 13:0.61386138 14:0.59207809 15:0.7157895 16:0.6744585 #
2 1:0.00027020965 2:0.0026814574 3:0.058441557 4:0.0020944148 5:0.19177249 6:0.91133356 7:0.89846265 8:0.78715199 9:0.7829935 10:0.56234747 11:0.030009598 13:0.12513034 14:0.28980246 15:0.1502146 16:0.32900283 #
2 1:0 2:0 3:0 4:2.608242e-05 5:0.079388551 6:0.523166 7:0.44980696 8:0.68467176 9:0.67945534 10:0.032588966 11:0 12:0.056338027 13:0.14814815 14:0.17612611 15:0.17699115 16:0.1940559 #
-2 1:0 2:0 3:0 4:0 5:0.067676336 6:0.55707765 7:0.5 8:0.65025568 9:0.64931226 10:0.31520489 11:0 13:0.18309858 14:0.23548056 15:0.21287128 16:0.25848329 #
-2 1:0 2:0 3:0 4:8.6275322e-06 5:0.15235591 6:0.82702953 7:0.80350554 8:0.65371352 9:0.65070432 10:0.28980175 11:0.011663666 12:0.02919708 13:0.1434263 14:0.2674824 15:0.17629179 16:0.30912787 #
2 1:0 2:0 3:0 4:5.3050397e-05 5:0.11510081 6:0.55847567 7:0.5282523 8:0.71424621 9:0.70139503 10:0.059788287 11:0 12:0.065573767 13:0.1607717 14:0.20165823 15:0.1875 16:0.22845289 #
-2 1:0 2:0 3:0 4:0.00035558266 5:0.15292707 6:0.60623229 7:0.57790369 8:0.71662748 9:0.71518302 10:0.17069145 11:0.02072233 12:0.079999998 13:0.17613636 14:0.23024316 15:0.20496894 16:0.25751403 #
-2 5:0.11613854 6:0.84072024 7:0.8261773 8:0.72974372 9:0.72660315 10:0.22279021 11:0.0090555046 12:0.03539823 13:0.11151079 14:0.22048265 15:0.12934363 16:0.24363153 #
2 1:0 2:0 3:0 4:0.00016293317 5:0.07064613 6:0.18450184 7:0.16974169 8:0.6069777 9:0.59464663 10:0.019867258 11:0 12:0.088888891 13:0.14482759 14:0.14686751 15:0.16546762 16:0.16979834 #
2 5:0.076708153 6:0.015296367 7:0.12810707 8:0.68572503 9:0.67499733 10:0.025794188 11:0 12:0.034482758 13:0.15671642 14:0.14787632 15:0.1634981 16:0.15874077 #
2 1:0 2:0 3:0 4:6.8198868e-05 5:0.09187261 6:0.19352351 7:0.15805705 8:0.7363705 9:0.71939588 10:0.045338318 11:0 13:0.19955157 14:0.1961402 15:0.2256532 16:0.21753716 #
2 1:0 2:0 3:0 4:0 5:0.026813187 6:0.73729473 7:0.71931195 8:0.5714426 9:0.5582481 10:0.034778919 11:0 12:0.065573767 13:0.11764706 14:0.19129872 15:0.14545454 16:0.2190548 #
-2 1:0 2:0 3:0 4:0.00012985326 5:0.12970825 6:0.68917018 7:0.65682137 8:0.75593251 9:0.75506473 10:0.20875333 11:0.018273959 12:0.036036037 13:0.16886544 14:0.27071926 15:0.1878453 16:0.28894082 #
-2 1:0 2:0 3:0 4:0.00013616421 5:0.12616643 6:0.5780105 7:0.55602092 8:0.76633924 9:0.75972408 10:0.26863113 11:0.0017147841 13:0.2 14:0.28443161 15:0.21212122 16:0.29421195 #
2 1:0 2:0 3:0 4:1.1980065e-05 5:0.070435941 6:0.6495468 7:0.59818733 8:0.63814777 9:0.62658036 10:0.031798553 11:0 12:0.044247787 13:0.097315438 14:0.14405237 15:0.10752688 16:0.15632635 #
-2 1:0 2:0 3:0 4:0.00021032864 5:0.15698449 6:0.45688689 7:0.38521835 8:0.71675563 9:0.71669573 10:0.35104507 11:0.0015752349 13:0.20725389 14:0.24874493 15:0.23287672 16:0.27486652 #
2 1:0 2:0 3:0 4:6.3572792e-05 5:0.079383023 6:0.40769231 7:0.33589745 8:0.62238371 9:0.61280018 10:0.050679781 11:0.0016633065 12:0.05479452 13:0.16158536 14:0.173925 15:0.18709677 16:0.19547354 #
-0.45422165162519689829423441551626 1:0 2:0 3:0 4:0.00045454546 5:0.13054413 6:2.0068028 7:2.3605442 8:0.60665351 9:0.61064661 10:0.37540492 11:0 12:0.053333335 13:0.42268041 14:0.27794462 15:0.44791666 16:0.2932303 #
2 1:0 2:0 3:0 4:9.4867661e-05 5:0.034083199 6:0.38554215 7:0.32013768 8:0.70753968 9:0.69769776 10:0.046790104 11:0.0023621197 13:0.17346939 14:0.22038469 15:0.20141342 16:0.24264108 #
-2 1:0 2:0 3:0 4:0 5:0.12023015 6:0.79955292 7:0.7585693 8:0.73951024 9:0.73329508 10:0.211761 11:0.0032636591 12:0.061538462 13:0.14656772 14:0.24883525 15:0.168 16:0.27845728 #
-2 1:0 2:0 3:0 4:9.2650502e-05 5:0.23399182 6:0.3219178 7:0.25342464 8:0.77717066 9:0.77953303 10:0.37171638 11:0.018485127 13:0.25813952 14:0.31421298 15:0.27644232 16:0.32883459 #
-2 1:4.4923629e-05 2:0 3:0 4:0.00032453093 5:0.42007542 6:0.18938053 7:0.077876106 8:0.84767526 9:0.84221196 10:0.40142193 11:0.13954093 12:0.064516127 13:0.26877472 14:0.26877391 15:0.30125523 16:0.2910808 #
2 1:0 2:0 3:0 4:9.7041462e-05 5:0.076567546 6:0.51662052 7:0.48060942 8:0.56627613 9:0.56477994 10:0.056193404 11:0 12:0.057142857 13:0.15047021 14:0.1949129 15:0.18272425 16:0.22360495 #
-2 1:0 2:0 3:0 4:0 5:0.14226502 6:0.66225165 7:0.62417221 8:0.73203492 9:0.73959881 10:0.29978478 11:0.0060192724 13:0.18065694 14:0.27427366 15:0.19729207 16:0.28543448 #
-2 1:0 2:0 3:0 4:1.2357121e-05 5:0.079572052 6:1.5166667 7:1.9416667 8:0.54963803 9:0.55017269 10:0.21144494 11:0.010728064 13:0.35955057 14:0.24416101 15:0.375 16:0.25387621 #
2 1:0.00055276306 2:0.0046665664 3:0.063636363 4:0.0022604272 5:0.30020249 6:0.80488521 7:0.79370219 8:0.88799095 9:0.88478357 10:0.89219737 11:0.057280965 13:0.18259224 14:0.34060213 15:0.22824858 16:0.39334315 #
2 1:0.00095316931 2:0.015077605 3:0.0084507046 4:0.00091907789 5:0.48598504 6:0.87925768 7:0.86163968 8:0.92039776 9:0.91812134 10:0.87788081 11:0.11102471 13:0.13752456 14:0.31188607 15:0.16686252 16:0.34680906 #
2 1:0 2:0 3:0 4:4.2838608e-05 5:0.021714516 6:0.24267782 7:0.15062761 8:0.55281729 9:0.55477893 10:0.048048366 11:0 12:0.083333336 13:0.11038961 14:0.13002506 15:0.12582782 16:0.14878298 #
2 1:0 2:0 3:0 4:0.00010691756 5:0.0076943566 6:0.70281994 7:0.70281994 8:0.50410628 9:0.49610242 10:0.015960449 11:0 12:0.065573767 13:0.091304347 14:0.14547859 15:0.10138249 16:0.15403835 #
-2 5:0.69474411 6:0.051738076 7:0.019401779 8:0.95363158 9:0.95271266 10:0.96961915 11:0.50532168 13:0.80725622 14:0.81449842 15:0.84119105 16:0.83911151 #
-2 1:0 2:0 3:0 4:4.6413763e-05 5:0.052144133 6:1.7362638 7:1.8791208 8:0.61158377 9:0.61093384 10:0.13011676 11:0.0037382981 12:0.057971016 13:0.3611111 14:0.22978641 15:0.3888889 16:0.25112361 #
-2 1:0 2:0 3:0 4:3.2834254e-05 5:0.069079965 6:0.18342152 7:0.12169312 8:0.58568347 9:0.58194178 10:0.20120446 11:0 13:0.28518519 14:0.26920775 15:0.31225297 16:0.28966311 #
-2 1:0 2:0 3:0 4:0.00017430187 5:0.13570325 6:0.61550635 7:0.55379748 8:0.62397957 9:0.62258667 10:0.42431802 11:0.0052354229 13:0.17375886 14:0.2278503 15:0.17883211 16:0.2332963 #
-2 5:0.064264566 6:0.46749225 7:0.60526317 8:0.53973114 9:0.54455626 10:0.22613762 11:0 13:0.26086956 14:0.18486495 15:0.27826086 16:0.20256816 #
2 1:0.00042483956 2:0.0079223607 3:0.03409091 4:0.0022921863 5:0.40426925 6:0.68938071 7:0.66258979 8:0.92428643 9:0.92295462 10:0.86929703 11:0.11563449 13:0.29378173 14:0.43139255 15:0.33333334 16:0.466993 #
2 1:0.011705685 2:0 3:0.15694444 4:0.0013310185 5:0.56339407 6:0.49646392 7:0.44483733 8:0.81611997 9:0.81993437 10:0.88880926 11:0.33130425 12:0.32258064 13:0.44357976 14:0.51054901 15:0.46530613 16:0.53259981 #
2 1:0 2:0 3:0 4:0.00010711356 5:0.011465319 6:0.59381443 7:0.57113403 8:0.54933679 9:0.5372746 10:0.018678531 11:0 12:0.063492067 13:0.09565217 14:0.13757172 15:0.1 16:0.13771535 #
1.948461957090398044556422973983 1:7.3524006e-06 2:0 3:0 4:0.00013766519 5:0.024489796 6:0.74251497 7:0.92814374 8:0.52654272 9:0.51821661 10:0.011844896 11:0 12:0.03960396 13:0.17171717 14:0.13065718 15:0.17894737 16:0.1366134 #
-2 1:0 2:0 3:0 4:0 5:0.092725396 6:0.16666667 7:0.070512824 8:0.59974998 9:0.60156572 10:0.19262739 11:0.015007505 13:0.28431374 14:0.27503291 15:0.2970297 16:0.2872425 #
-2 1:0 2:0 3:0 4:0 5:0.023499183 6:0.032697547 7:0.095367849 8:0.64071244 9:0.63535327 10:0.098715037 11:0 13:0.19730942 14:0.20914494 15:0.23004694 16:0.23681448 #
2 1:0 2:0 3:0 4:0.00011633955 5:0.046232946 6:4.1152072 7:4.9400921 8:0.59848374 9:0.59074926 10:0.035451625 11:0 12:0.036697246 13:0.36170211 14:0.2053764 15:0.41726619 16:0.22548471 #
-2 1:0 2:0 3:0 4:0.00023418949 5:0.10573588 6:0.89679718 7:0.87473309 8:0.76258165 9:0.75740814 10:0.24083817 11:0.0046598404 12:0.057142857 13:0.092979126 14:0.21639523 15:0.11924686 16:0.25688711 #
-2 1:7.1186537e-06 2:0 3:0 4:0.00014684288 5:0.13854659 6:0.82999998 7:0.82333332 8:0.75509512 9:0.75490069 10:0.19032633 11:0.042955268 12:0.081632651 13:0.12715517 14:0.25903794 15:0.15625 16:0.29462782 #
2 1:0.00038231956 2:0.0069404282 3:0.050000001 4:0.0035860091 5:0.35718399 6:0.69377989 7:0.67344499 8:0.92846519 9:0.92556679 10:0.8247115 11:0.097980671 13:0.26163393 14:0.41305369 15:0.29341316 16:0.44257799 #
2 1:0.00029239766 2:0.018181818 3:0.0087145967 4:0.0016697263 5:0.34537318 6:0.43862522 7:0.43207857 8:0.76557225 9:0.76022345 10:0.72900414 11:0.023149345 13:0.21142857 14:0.27049255 15:0.25635594 16:0.30752289 #
2 1:0.0014072848 2:0.008086253 3:0.057692308 4:0.0042159664 5:0.23609956 6:0.72940159 7:0.71465743 8:0.84163052 9:0.850528 10:0.75856614 11:0.038942628 13:0.23445596 14:0.35926309 15:0.26756352 16:0.39562094 #
2 1:0.0011880012 2:0.020408163 3:0.075000003 4:0.0055555557 5:0.30814117 6:0.72651356 7:0.68632567 8:0.81192476 9:0.81639028 10:0.63422686 11:0.047548998 13:0.18126889 14:0.30852854 15:0.21061644 16:0.3423754 #
-2 1:0 2:0 3:0 4:0 5:0.17355949 6:0.15243903 7:0.24085365 8:0.76029021 9:0.76186609 10:0.48134932 11:0.023728741 13:0.21465969 14:0.199431 15:0.26344085 16:0.2411366 #
2 1:0 2:0 3:0.22222222 4:0.020833334 5:0.55598307 6:0.34146342 7:0.28658536 8:0.74170792 9:0.76588452 10:0.85447866 11:0.37900457 12:0.33898306 13:0.62790698 14:0.67690647 15:0.67500001 16:0.72160536 #
2 1:1.684551e-05 2:0 3:0 4:6.5404158e-05 5:0.010875277 6:0.67375886 7:0.62647754 8:0.67157269 9:0.66965026 10:0.019206302 11:0 12:0.078431375 13:0.1042654 14:0.16744219 15:0.1127451 16:0.17166092 #
-2 1:0 2:0 3:0 4:0.00040004001 5:0.080343537 6:0.76605505 7:0.73165137 8:0.63370657 9:0.63993615 10:0.33700123 11:0.010681146 12:0.036363635 13:0.175 14:0.31046021 15:0.19396552 16:0.32625833 #
-2 1:0 2:0 3:0 4:0.00013596563 5:0.19600502 6:0.71085858 7:0.6691919 8:0.78750551 9:0.78331357 10:0.34227049 11:0.018712234 13:0.16962026 14:0.27625847 15:0.192 16:0.30459568 #
-2 5:0.17926478 6:0.62872928 7:0.60331494 8:0.80084008 9:0.79903531 10:0.34770316 11:0.015055718 13:0.21026894 14:0.30008921 15:0.23884514 16:0.33471721 #
-2 1:0 2:0 3:0 4:4.7153131e-05 5:0.092250504 6:0.66585368 7:0.60365856 8:0.79205662 9:0.79022902 10:0.34839115 11:0.0019955151 13:0.17816092 14:0.25276554 15:0.20376176 16:0.27912167 #
2 1:0.000146616 2:0.0011162589 3:0.03125 4:0.00074257428 5:0.46597931 6:0.62219226 7:0.60182691 8:0.92889929 9:0.92636687 10:0.88317943 11:0.10877173 13:0.26718405 14:0.3836287 15:0.32091504 16:0.43597192 #
-2 1:0 2:0 3:0 4:0.00011690438 5:0.1600024 6:1.373913 7:1.6217391 8:0.67397398 9:0.67451048 10:0.30924344 11:0.0074602771 12:0.029850746 13:0.45412844 14:0.29471645 15:0.50710899 16:0.32682157 #
-2 1:0 2:0 3:0 4:0.00034671658 5:0.15752827 6:0.67671007 7:0.62052119 8:0.79098594 9:0.78591251 10:0.27444026 11:0.0080146324 12:0.05479452 13:0.17755102 14:0.2696279 15:0.19821826 16:0.28915161 #
-2 1:0 2:0.00065616798 3:0 4:0.00015470297 5:0.10974896 6:0.59446448 7:0.52948254 8:0.75651717 9:0.75192064 10:0.24151824 11:0.0019837755 12:0.068965517 13:0.15201901 14:0.22906277 15:0.17661692 16:0.24553514 #
-2 5:0.33007851 6:0.10854504 7:0.027713627 8:0.8203184 9:0.82930076 10:0.53406268 11:0.1701154 13:0.48971194 14:0.50436199 15:0.53043479 16:0.53749186 #
2 1:0.002129307 2:0.010808029 3:0.11111111 4:0.010557433 5:0.1438476 6:0.52876711 7:0.51050228 8:0.80408895 9:0.80777645 10:0.43639356 11:0.01402681 13:0.22931442 14:0.29291472 15:0.24935065 16:0.317141 #
-2 1:0 2:0 3:0 4:0.00037822584 5:0.19614308 6:0.60197043 7:0.55073893 8:0.81479257 9:0.81558293 10:0.35972378 11:0.024948888 12:0.057971016 13:0.26525822 14:0.3542088 15:0.285 16:0.36716929 #
2 1:3.7995364e-05 2:0 3:0 4:0.00010893247 5:0.070283107 6:0.33618233 7:0.23646724 8:0.58681792 9:0.57471424 10:0.01872017 11:0 12:0.057142857 13:0.13235295 14:0.16129556 15:0.14795919 16:0.17506766 #
2 1:0 2:0 3:0 4:7.5075077e-05 5:0.065572716 6:0.68573946 7:0.6434859 8:0.61532575 9:0.60596347 10:0.037512287 11:0.0016621986 12:0.051282052 13:0.125 14:0.18958206 15:0.15061729 16:0.20207429 #
2 1:8.7413355e-06 2:0 3:0 4:7.8146368e-05 5:0.041314732 6:0.76256156 7:0.73793101 8:0.65947747 9:0.65928531 10:0.041469403 11:0 12:0.057971016 13:0.086854458 14:0.15541954 15:0.1075 16:0.18642864 #
2 1:0 2:0 3:0 4:6.5513625e-05 5:0.11158643 6:0.48297429 7:0.44058374 8:0.72517711 9:0.71720916 10:0.064710595 11:0.00098969357 12:0.045454547 13:0.15648855 14:0.18924075 15:0.19654427 16:0.21333133 #
-2 1:0 2:0 3:0 4:0.00014422523 5:0.29673722 6:0.64852607 7:0.61678004 8:0.70603919 9:0.70269066 10:0.4027622 11:0.12722948 12:0.063492067 13:0.17889908 14:0.26547202 15:0.2029703 16:0.28992829 #
2 1:0 2:0 3:0 4:2.6662401e-05 5:0.073887885 6:0.67932487 7:0.64029539 8:0.54376787 9:0.53778529 10:0.051731486 11:0.0019741962 12:0.074074075 13:0.10941476 14:0.15587366 15:0.12432432 16:0.1662156 #
-2 1:2.2614202e-05 2:0 3:0 4:0.00023474179 5:0.13661586 6:0.73427814 7:0.7085917 8:0.70631897 9:0.70780998 10:0.25466645 11:0.0053401412 12:0.055555556 13:0.16221374 14:0.27381003 15:0.17330678 16:0.28096402 #
-2 1:0 2:0 3:0 4:0.00036170855 5:0.13623047 6:0.83236152 7:0.82215744 8:0.70772219 9:0.68805218 10:0.22068422 11:0.040890306 12:0.086956523 13:0.15753424 14:0.29910517 15:0.17100371 16:0.31756628 #
-2 1:0 2:0 3:0 4:0 5:0.17851193 6:0.46153846 7:0.41334569 8:0.81508356 9:0.81223869 10:0.36066878 11:0.0069054975 13:0.2275449 14:0.30189955 15:0.25158563 16:0.32411113 #
2 1:8.9041641e-06 2:0 3:0 4:0.0001324363 5:0.019458789 6:0.53286386 7:0.48122066 8:0.54224837 9:0.53213161 10:0.017415892 11:0 12:0.060606062 13:0.095022626 14:0.12737101 15:0.10900474 16:0.14394411 #
2 1:0 2:0 3:0 4:0.00017282554 5:0.016677672 6:0.69094139 7:0.65186501 8:0.51423788 9:0.49744555 10:0.01903828 11:0 12:0.05479452 13:0.085501857 14:0.13389239 15:0.095419846 16:0.14402585 #
2 1:0 2:0 3:0 4:8.8472087e-05 5:0.038613975 6:0.16867469 7:0.23407917 8:0.70936477 9:0.69982862 10:0.044231392 11:0.0016938233 13:0.20748299 14:0.20036481 15:0.22261484 16:0.21201669 #
-2 1:0 2:0 3:0 4:0.00027745886 5:0.12669051 6:0.65906209 7:0.61850446 8:0.74128401 9:0.74444604 10:0.35536554 11:0.016324602 13:0.18000001 14:0.27208826 15:0.1953125 16:0.28849569 #
2 1:0 2:0 3:0 4:5.1085568e-05 5:0.054927446 6:0.51020408 7:0.47667637 8:0.68978399 9:0.67124826 10:0.034172732 11:0 12:0.065573767 13:0.12974684 14:0.16475657 15:0.14093959 16:0.17467883 #
2 1:0.00044836116 2:0.0042276424 3:0.074074075 4:0.0059523811 5:0.54309022 6:0.5 7:0.44911936 8:0.92172027 9:0.92314231 10:0.80204606 11:0.20968768 13:0.38418078 14:0.51530176 15:0.43515673 16:0.55729306 #
-2 5:0.93903011 6:0.21136191 7:0.085053109 8:0.99388307 9:0.9931491 10:0.92895341 11:0.7530058 13:0.69862717 14:0.69444013 15:0.76284081 16:0.74063087 #
2 5:0.0039240136 6:0.85897434 7:1.0256411 8:0.45899907 9:0.4519324 10:0.021000158 11:0 12:0.040322579 13:0.23529412 14:0.17861772 15:0.24752475 16:0.19249572 #
-2 1:7.3260071e-06 2:0 3:0 4:0.00015250544 5:0.13567121 6:0.93180132 7:0.92624164 8:0.72047693 9:0.71941704 10:0.28197536 11:0.0031865116 12:0.088888891 13:0.062363237 14:0.17149934 15:0.076433122 16:0.19468108 #
-2 1:6.1425062e-06 2:0 3:0 4:0.00014387307 5:0.20592031 6:0.93585175 7:0.9337135 8:0.72056788 9:0.7217766 10:0.36550209 11:0.040125798 12:0.063492067 13:0.080645159 14:0.22051883 15:0.099270076 16:0.24885729 #
2 1:0 2:0 3:0 4:0 5:0.026628671 6:0.0082304524 7:0.1090535 8:0.43031836 9:0.42428958 10:0.024120096 11:0 13:0.21787709 14:0.17000607 15:0.25925925 16:0.19685145 #
-2 5:0.087806486 6:0.16091955 7:0.059386972 8:0.73139679 9:0.72657472 10:0.1338919 11:0.0022471966 12:0.055555556 13:0.17266187 14:0.18531233 15:0.19548872 16:0.20245881 #
2 1:0 5:0.048298422 6:2.8269231 7:3.1177886 8:0.60500479 9:0.59900492 10:0.036464233 11:0 12:0.038834952 13:0.30733946 14:0.17493629 15:0.35238096 16:0.1999854 #
2 1:0 2:0 3:0 4:0 5:0.03752543 6:0.67816091 7:0.84482759 8:0.56768799 9:0.55903602 10:0.035228301 11:0.0021378945 12:0.034782607 13:0.25 14:0.19469586 15:0.25988701 16:0.20096728 #
2 5:0.034851339 6:1.2542373 7:1.3220339 8:0.6063422 9:0.59416872 10:0.020435486 11:0 12:0.03960396 13:0.24418604 14:0.18307303 15:0.24705882 16:0.19047669 #
-2 1:0 2:0 3:0 4:0 5:0.037907124 6:0.35570469 7:0.45637584 8:0.49547553 9:0.49473909 10:0.14963855 11:0 13:0.27000001 14:0.21899892 15:0.28865978 16:0.23369063 #
-2 1:2.4529043e-05 2:0 3:0 4:7.4178475e-05 5:0.1149017 6:0.68947369 7:0.93684208 8:0.69066256 9:0.68318743 10:0.20968682 11:0.030046793 13:0.3140496 14:0.24550386 15:0.31355932 16:0.24645863 #
-2 3:0 4:5.4653767e-05 5:0.13616569 6:0.06530612 7:0.26938775 8:0.57374549 9:0.57169235 10:0.28623208 11:0.015720036 13:0.3537415 14:0.32838905 15:0.36805555 16:0.33676767 #
-2 1:0 2:0 3:0 4:0 5:0.153393 6:0.22891566 7:0.32931727 8:0.66607428 9:0.6645813 10:0.28999627 11:0.015841614 13:0.40666667 14:0.36042982 15:0.41496599 16:0.36215335 #
2 1:0.00073593075 2:0.022774328 3:0.083333336 4:0.0067090397 5:0.37594262 6:0.44181818 7:0.43272728 8:0.89103681 9:0.8961882 10:0.87262613 11:0.099263199 13:0.37300435 14:0.46975896 15:0.41435564 16:0.50665408 #
2 1:0.00036509676 2:0.011242379 3:0.083333336 4:0.0071919952 5:0.20918483 6:0.73968363 7:0.71767539 8:0.81594807 9:0.81637627 10:0.83310258 11:0.03092465 13:0.2041049 14:0.33089465 15:0.26975477 16:0.40727639 #
2 1:0 2:0 3:0 4:0.00070028013 5:0.059204698 6:2.3175123 7:2.188216 8:0.69794935 9:0.66160631 10:0.038521059 11:0 13:0.21768707 14:0.17114796 15:0.26353791 16:0.20957811 #
-2 1:0 2:0 3:0 4:0.00013265274 5:0.23735286 6:0.65291005 7:0.62222224 8:0.8146081 9:0.80988544 10:0.39327201 11:0.018716257 13:0.17355372 14:0.27601945 15:0.1934066 16:0.29318678 #
-2 1:0 2:0 3:0 4:0.00034890693 5:0.17972288 6:0.71042085 7:0.67535073 8:0.74924016 9:0.74738824 10:0.42557475 11:0.019150553 13:0.15349887 14:0.24597012 15:0.17857143 16:0.27585465 #
2 1:0.00040392976 2:0.010617761 3:0.032967035 4:0.0029032258 5:0.18844298 6:4.8546023 7:4.7259417 8:0.51605809 9:0.49750867 10:0.62821275 11:0.0029216327 13:0.32380953 14:0.17584276 15:0.35844156 16:0.18508241 #
2 1:0.0008957042 2:0.012387387 3:0.055555556 4:0.0045955884 5:0.26567897 6:0.91300827 7:0.90835524 8:0.79885083 9:0.79512209 10:0.64731508 11:0.09745647 13:0.13132022 14:0.33833387 15:0.14742015 16:0.35803831 #
-2 1:8.2778033e-06 2:0 3:0 4:0.00015760797 5:0.29114449 6:0.69774014 7:0.6581921 8:0.73949063 9:0.73852712 10:0.37272105 11:0.061812848 12:0.063492067 13:0.19135803 14:0.28252256 15:0.2147651 16:0.30474809 #
2 1:0.046296295 2:0 3:0.18181819 4:0.0052226814 5:0.50624686 6:0.11408816 7:0.079083838 8:0.75522846 9:0.77970761 10:0.74775457 11:0.2467645 12:0.31746033 13:0.55000001 14:0.53379548 15:0.58785248 16:0.55456692 #
-2 1:0 2:0 3:0 4:0.00013075313 5:0.075889923 6:0.11976048 7:0.2754491 8:0.50160605 9:0.5062269 10:0.29252794 11:0.0058811321 13:0.33333334 14:0.30656767 15:0.35789475 16:0.31843919 #
2 1:0.00069033285 2:0.0031846159 3:0.041666668 4:0.0034591195 5:0.42584956 6:0.7988447 7:0.78083587 8:0.892784 9:0.89438504 10:0.73941135 11:0.11927187 13:0.21611375 14:0.39576849 15:0.24728851 16:0.43136814 #
2 1:0.0005857143 2:0.012187088 3:0.008547009 4:0.00036746429 5:0.23675042 6:0.78926176 7:0.7801342 8:0.67944509 9:0.67718023 10:0.28002229 11:0.013055155 13:0.12854758 14:0.24512683 15:0.17617618 16:0.29979223 #
-2 1:1.1356023e-05 2:0 3:0 4:0.00014387307 5:0.27443999 6:0.78640777 7:0.75404531 8:0.80131137 9:0.80184495 10:0.38563749 11:0.038035199 12:0.051948052 13:0.15280899 14:0.256699 15:0.18673219 16:0.3006537 #
2 1:0.00071411964 2:0.005850065 3:0.077777781 4:0.0031682027 5:0.16792846 6:0.67693412 7:0.6482808 8:0.84930521 9:0.83969575 10:0.6902383 11:0.01182085 13:0.184375 14:0.29257625 15:0.21331058 16:0.32593 #
-1.5313895076995338584424644068349 1:0 2:0 3:0 4:0.00042076383 5:0.22984877 6:0.85465115 7:0.84011626 8:0.76383895 9:0.76966953 10:0.6378243 11:0.086786531 12:0.088888891 13:0.1024735 14:0.21893184 15:0.11196911 16:0.23263362 #
-2 1:0 2:0 3:0 4:0 5:0.21884 6:0.1184466 7:0.044660196 8:0.77767497 9:0.77550644 10:0.28596008 11:0.020180641 13:0.30662021 14:0.33140245 15:0.32971016 16:0.34782517 #
-2 1:0 2:0 3:0 4:3.6002304e-05 5:0.36896276 6:0.50089926 7:0.40917265 8:0.84252036 9:0.84195894 10:0.69605446 11:0.16815411 12:0.055555556 13:0.25430211 14:0.34269246 15:0.27515399 16:0.36817634 #
-2 1:0 2:0 3:0 4:6.2320825e-05 5:0.1046908 6:0.10208817 7:0.0023201855 8:0.77909422 9:0.77465284 10:0.26736885 11:0.0050837784 13:0.21600001 14:0.22973524 15:0.23430963 16:0.24878326 #
-2 1:0 2:0 3:0 4:0.00036573649 5:0.25171107 6:0.76782274 7:0.74373794 8:0.73978996 9:0.74083722 10:0.54962915 11:0.023120744 12:0.057971016 13:0.1318408 14:0.23908252 15:0.16032609 16:0.26668727 #
-2 1:5.8031568e-05 2:0 3:0 4:0.00024207214 5:0.13470533 6:0.80835736 7:0.78818446 8:0.71363586 9:0.708395 10:0.45493931 11:0.027907278 13:0.12844037 14:0.25154358 15:0.15282393 16:0.27948168 #
2 1:0.0009931539 2:0.0094366195 3:0.06666667 4:0.0037615742 5:0.2866286 6:0.75133687 7:0.74123591 8:0.91262031 9:0.91085172 10:0.72816253 11:0.031534925 13:0.17413355 14:0.3170726 15:0.20676328 16:0.35606632 #
2 1:0.00029911034 2:0.001663722 3:0.064189188 4:0.0012395803 5:0.14904918 6:0.79941648 7:0.78227574 8:0.77656549 9:0.77084821 10:0.56010014 11:0.01377175 13:0.10707804 14:0.23703 15:0.12932791 16:0.26550335 #
2 1:0.00049591128 2:0.0055636186 3:0.055555556 4:0.0054753609 5:0.2756916 6:0.86155838 7:0.85396999 8:0.79766059 9:0.79687917 10:0.53787309 11:0.01655644 13:0.11904762 14:0.26542303 15:0.14228617 16:0.29400691 #
2 1:0.00096449454 2:0.010433245 3:0.09375 4:0.0059866272 5:0.34048468 6:0.67859274 7:0.673226 8:0.88088804 9:0.88430709 10:0.76300913 11:0.21130805 13:0.29862174 14:0.46960059 15:0.33105803 16:0.50284725 #
-2 5:0.90476316 6:0.14497344 7:0.066816509 8:0.98579305 9:0.9882468 10:0.9279393 11:0.74913281 13:0.78932357 14:0.77421379 15:0.82456142 16:0.80612957 #
-2 1:0 2:0 3:0 4:0 5:0.12250474 6:0.48044693 7:0.39851025 8:0.72688615 9:0.72657692 10:0.38104525 11:0.032607973 13:0.25899279 14:0.32218984 15:0.30303031 16:0.36496595 #
2 1:0.00049697992 2:0.0059374589 3:0.14285715 4:0.01015625 5:0.35045311 6:0.74003464 7:0.71837085 8:0.79536641 9:0.80067736 10:0.83795595 11:0.11547438 13:0.21281742 14:0.35938579 15:0.24512535 16:0.40424857 #
-2 1:0 2:0 3:0 4:3.2783446e-05 5:0.19596438 6:0.28992248 7:0.45116279 8:0.78164566 9:0.76893634 10:0.43638763 11:0.012708062 12:0.071428575 13:0.27710843 14:0.24339469 15:0.30696201 16:0.25896239 #
-0.5725800304648469563062462839298 5:0.65775234 6:0.017374517 7:0.055019304 8:0.95503962 9:0.95679647 10:0.94524902 11:0.47561508 13:0.77218223 14:0.78128612 15:0.79634464 16:0.79948193 #
2 1:0 2:0 3:0 4:0 5:0.035489179 6:0.58808291 7:0.8134715 8:0.53233075 9:0.51424176 10:0.025031218 11:0 13:0.25742576 14:0.20056199 15:0.2827225 16:0.21607435 #
2 1:0 2:0 5:0.035761766 6:0.28070176 7:0.40789473 8:0.58850116 9:0.58548784 10:0.035222758 11:0.0017476216 12:0.044943821 13:0.21363637 14:0.18192393 15:0.22748815 16:0.19206762 #
-2 5:0.1871421 6:0.79190749 7:0.77745664 8:0.67758447 9:0.66504711 10:0.39349374 11:0.034549374 12:0.074074075 13:0.12459017 14:0.23600663 15:0.13937283 16:0.25916716 #
-2 1:0 3:0 4:0.0019493178 5:0.15799214 6:0.8896175 7:0.87540984 8:0.62477529 9:0.62504166 10:0.48602015 11:0.013796549 12:0.090909094 13:0.089805827 14:0.21190308 15:0.10846561 16:0.24852593 #
2 1:0.00075051514 2:0.0048152762 3:0.097435899 4:0.0028387762 5:0.4592289 6:0.43417048 7:0.40030441 8:0.91488206 9:0.91334909 10:0.89297718 11:0.12485574 13:0.3984375 14:0.4955219 15:0.45607236 16:0.54005086 #
2 1:0.00068494456 2:0.007542857 3:0.095238097 4:0.0073702829 5:0.46304771 6:0.68647325 7:0.65641385 8:0.92255932 9:0.92098194 10:0.79816741 11:0.080457702 13:0.26615554 14:0.40937096 15:0.32253885 16:0.46907714 #
2 1:0 2:0 3:0 4:0.00013775399 5:0.04806475 6:0.82618642 7:0.80503142 8:0.56247032 9:0.55724519 10:0.062180337 11:0.0013713138 13:0.13921569 14:0.22869746 15:0.17449665 16:0.26764801 #
-2 1:0 2:0 3:0 4:0.00011114668 5:0.19189279 6:0.82779884 7:0.80502844 8:0.72283751 9:0.72090793 10:0.40544239 11:0.058652669 12:0.041666668 13:0.15049227 14:0.26746443 15:0.17764166 16:0.30604836 #
-2 1:0 2:0 3:0 4:0.00034467902 5:0.14812645 6:0.89590186 7:0.88363743 8:0.80663943 9:0.79990238 10:0.36005795 11:0.0087822918 12:0.063492067 13:0.095744684 14:0.21924606 15:0.12457912 16:0.26698279 #
-2 1:8.0290329e-06 2:0 3:0 4:0.00015132663 5:0.20172368 6:0.82854098 7:0.81150162 8:0.73975009 9:0.73465979 10:0.4096427 11:0.040470243 12:0.063492067 13:0.14366198 14:0.27204353 15:0.1552795 16:0.28291515 #
2 1:0.00032210269 2:0.0056200824 3:0.0625 4:0.0046669906 5:0.34909195 6:0.8864671 7:0.88053524 8:0.91231734 9:0.91227114 10:0.79192495 11:0.070736043 13:0.12487611 14:0.27215916 15:0.15389186 16:0.30696404 #
2 1:0 2:0 3:0 4:1.158856e-05 5:0.091639988 6:0.49884528 7:0.47690532 8:0.70456529 9:0.69261193 10:0.028706865 11:0 12:0.048076924 13:0.12391931 14:0.15386121 15:0.13813815 16:0.17033882 #
2 1:0 2:0 3:0 4:5.7025547e-05 5:0.059814796 6:0.69629627 7:0.65925926 8:0.67427671 9:0.67177933 10:0.03842403 11:0 12:0.057971016 13:0.11971831 14:0.17380963 15:0.13909775 16:0.18523169 #
-1.5347232453699781729028472909704 1:0.0060439561 2:0.028985508 3:0.064393938 4:0.0041973395 6:0.11242604 12:0.83333331 #
-2 5:0.15578412 6:0.2610063 7:0.17610063 8:0.77377331 9:0.78119779 10:0.39146376 11:0.003360552 13:0.25882354 14:0.2877706 15:0.27439025 16:0.29488075 #
2 1:0 2:0 3:0 4:3.587058e-05 5:0.076883771 6:0.097872339 7:0.22021277 8:0.75005311 9:0.72904956 10:0.038866099 11:0 13:0.18575063 14:0.17854199 15:0.21832883 16:0.21052885 #
2 1:0 2:0 3:0 4:2.8830076e-05 5:0.092917889 6:0.13145539 7:0.0086071985 8:0.75072068 9:0.73741579 10:0.053104375 11:0 12:0.03773585 13:0.12076584 14:0.15311317 15:0.15348837 16:0.17867009 #
2 1:0 2:0 3:0 4:6.3371357e-05 5:0.053728368 6:0.21166892 7:0.13432837 8:0.63009155 9:0.61587554 10:0.020173408 11:0 12:0.038834952 13:0.16828479 14:0.17180106 15:0.19031142 16:0.19197938 #
-2 1:0 2:0 3:0 4:0.00060034305 5:0.27608359 6:0.51483679 7:0.44807121 8:0.85612953 9:0.86050659 10:0.47980174 11:0.062653027 13:0.25 14:0.31272265 15:0.28434506 16:0.34880778 #
2 1:0.0013020312 2:0.0079686316 3:0.1 4:0.0057624113 5:0.24052104 6:0.61877394 7:0.57183909 8:0.71742243 9:0.72692609 10:0.84196109 11:0.067065023 13:0.23255815 14:0.35192567 15:0.27083334 16:0.40280315 #
2 1:0 2:0 3:0 4:1.1466575e-05 5:0.0058652037 6:0.07272727 7:0.13636364 8:0.58761382 9:0.5711785 10:0.022163477 11:0 12:0.043859649 13:0.14361702 14:0.14315099 15:0.16483517 16:0.15493587 #
-2 1:0 2:0 3:0 4:0 5:0.14234328 6:0.78086191 7:0.74726075 8:0.82250595 9:0.82207978 10:0.41300008 11:0.020555679 13:0.13771518 14:0.26531485 15:0.16243654 16:0.29191199 #
-2 1:3.4674063e-05 2:0 3:0 4:0.00013421275 5:0.089760773 6:0.17336683 7:0.062814072 8:0.72019875 9:0.72854137 10:0.3290529 11:0.0052859578 12:0.06779661 13:0.21428572 14:0.24572107 15:0.23144105 16:0.26475191 #
2 1:0.00082161324 2:0.0057762749 3:0.035714287 4:0.0032213531 5:0.53059441 6:0.59567451 7:0.54252201 8:0.88507122 9:0.88717663 10:0.72205234 11:0.15375751 13:0.22415669 14:0.32114869 15:0.26826197 16:0.36326656 #
-2 1:0 2:0.0010548523 3:0 4:2.1157304e-05 5:0.31200233 6:0.7493003 7:0.71371454 8:0.887631 9:0.88350379 10:0.40023512 11:0.030577093 12:0.060606062 13:0.18456376 14:0.30834517 15:0.22556391 16:0.34405193 #
-2 1:0 2:0 3:0 4:0.00054945057 5:0.25282288 6:0.87593359 7:0.85892117 8:0.83506161 9:0.82694453 10:0.42491272 11:0.029196749 12:0.057971016 13:0.13090418 14:0.27530992 15:0.16041979 16:0.31408429 #
-2 1:0 2:0 3:0 4:0.00029968319 5:0.16332468 6:0.23851852 7:0.32888889 8:0.82633382 9:0.82640779 10:0.37453905 11:0.014037751 12:0.044444446 13:0.30903789 14:0.29046947 15:0.35093167 16:0.31291255 #
-2 1:0 2:0 3:0 4:0.00015536092 5:0.23793133 6:0.2604284 7:0.19165727 8:0.83689475 9:0.83723366 10:0.40843001 11:0.0094184419 13:0.27293578 14:0.31718498 15:0.29647058 16:0.33695984 #
2 1:0 2:0 3:0 4:0.00012910167 5:0.071697593 6:0.71469408 7:0.67981702 8:0.52538168 9:0.5157671 10:0.051565848 11:0.0042395676 13:0.15490197 14:0.19900444 15:0.19239374 16:0.23968919 #
2 1:0.00064224721 2:0.0052532461 3:0.0625 4:0.0054700854 5:0.46095195 6:0.81303453 7:0.80533701 8:0.75916493 9:0.76189101 10:0.82520199 11:0.11313833 13:0.16632859 14:0.33873177 15:0.20304976 16:0.38700309 #
-2 1:2.9137529e-05 2:0 3:0 4:0.00020081882 5:0.24363837 6:0.62 7:0.58749998 8:0.78288138 9:0.78283167 10:0.52676427 11:0.04625072 13:0.20999999 14:0.3017934 15:0.24352331 16:0.34001777 #
-2 1:0 2:0 3:0 4:0.00021740075 5:0.175136 6:0.83404559 7:0.82977206 8:0.77855647 9:0.789352 10:0.53091067 11:0.028297756 13:0.13097346 14:0.27670795 15:0.15589353 16:0.30546448 #
-2 1:7.2837456e-06 2:0 3:0 4:0.00015296134 5:0.16918407 6:0.77031422 7:0.73889488 8:0.80071545 9:0.80135858 10:0.42526636 11:0.012449217 12:0.06779661 13:0.15404041 14:0.26298589 15:0.17344174 16:0.28781563 #
2 1:0.00086918729 2:0.0073504276 3:0.05952381 4:0.0038819876 5:0.52276623 6:0.83846617 7:0.83876812 8:0.86896431 9:0.87050241 10:0.82132924 11:0.13320367 13:0.17238002 14:0.33965287 15:0.2122588 16:0.38848636 #
2 1:0.0020192503 2:0.012595591 3:0.11111111 4:0.010146104 5:0.29172033 6:0.58547485 7:0.54413408 8:0.843355 9:0.84834313 10:0.84433156 11:0.072210334 13:0.2846154 14:0.40354922 15:0.30898875 16:0.43333963 #
-2 1:0 2:0 3:0 4:0.00013450242 5:0.3302308 6:0.23492064 7:0.15238096 8:0.7340548 9:0.74060559 10:0.66101319 11:0.13213612 13:0.34285715 14:0.37675527 15:0.37426901 16:0.39960995 #
