SVM-light Version V6.02
0 # kernel type
3 # kernel parameter -d 
1 # kernel parameter -g 
1 # kernel parameter -s 
1 # kernel parameter -r 
empty# kernel parameter -u 
16 # highest feature index 
1478 # number of training documents 
179 # number of support vectors plus 1 
-1.3167179 # threshold b, each following line is a SV (starting with alpha*y)
-2 1:0.0058422592 2:0.020833334 3:0.03846154 4:0.003947258 5:0.26420692 6:0.15718158 7:0.0054200543 8:0.81565672 9:0.82560521 10:0.64319628 11:0.10837453 12:0.83333331 13:0.53170735 14:0.53791177 15:0.56770831 16:0.57524794 #
2 1:0.030864198 3:0.12244898 4:0.013223141 5:0.35689953 6:0.096153848 7:0.23076923 8:0.82804185 9:0.83067423 10:0.63748246 11:0.14140879 12:0.9464286 13:0.50704223 14:0.4844991 15:0.52857143 16:0.49137175 #
-2 1:0.0065678363 2:0.040123455 3:0.08024691 4:0.0053560175 5:0.016007539 6:0.17258883 7:0.10406091 8:0.15244479 9:0.15023971 10:0.025117839 11:0.0058997818 12:0.84615386 13:0.084905662 14:0.092989899 15:0.095693782 16:0.10143793 #
2 3:0 4:0.0034722222 5:0.34122917 6:0.095975235 7:0.04767802 8:0.63619769 9:0.63730478 10:0.57359374 11:0.20181502 13:0.57649666 14:0.49178618 15:0.65139949 16:0.53345144 #
-2 1:0.0060541308 2:0.043749999 3:0.077272728 4:0.004980843 5:0.43545103 6:0.17910448 7:0.02238806 8:0.85667789 9:0.8775984 10:0.76830679 11:0.23016962 12:0.85714287 13:0.57608694 14:0.61955088 15:0.62637365 16:0.65985304 #
-2 1:0.0059292577 2:0.023809524 3:0.037190083 4:0.0039983164 5:0.48264283 6:0.2 7:0.053061225 8:0.87348694 9:0.87668985 10:0.64660335 11:0.28580731 12:0.85365856 13:0.63448274 14:0.65518957 15:0.63571429 16:0.6597119 #
2 1:0.024691358 3:0.12244898 4:0.013223141 5:0.55192751 6:0.21008404 7:0.014705882 8:0.95338863 9:0.95570618 10:0.84911722 11:0.27462751 12:0.9464286 13:0.68292683 14:0.69395697 15:0.72422063 16:0.7233538 #
2 1:0.015966387 3:0.12244898 4:0.013223141 5:0.1979723 6:0.30841121 7:0.12616822 8:0.75725257 9:0.76498902 10:0.4740026 11:0.061669424 12:0.9464286 13:0.46511629 14:0.46971044 15:0.5078125 16:0.50196415 #
-2 1:0.023255814 2:0.2 3:0.5 4:0.069444448 5:0.38279295 6:0.20575587 7:0.24776712 8:0.89345968 9:0.89645028 10:0.55114394 11:0.093499228 12:0.14341085 13:0.44785276 14:0.43905738 15:0.51703161 16:0.46806112 #
1.6692380943281932559330016374588 1:0.045351475 3:0.1388889 4:0.015595463 5:0.29387444 6:0.25794393 7:0.028037382 8:0.87857622 9:0.88279688 10:0.48573482 11:0.059651695 12:0.9464286 13:0.44649446 14:0.4759894 15:0.5 16:0.51532531 #
-2 5:0.12510864 6:0.0032679739 7:0.09150327 8:0.56519353 9:0.57079685 10:0.29076332 11:0.034752402 12:0.82758623 13:0.33152175 14:0.33080098 15:0.37222221 16:0.36040261 #
2 1:0.029585799 3:0.12244898 4:0.013223141 5:0.42760465 6:0.23303168 7:0.029411765 8:0.91874188 9:0.92471182 10:0.8452934 11:0.18560646 12:0.9464286 13:0.63559324 14:0.63357431 15:0.6875 16:0.6770032 #
-2 5:0.06538029 6:0.24847251 7:0.2892057 8:0.43113637 9:0.44491729 10:0.14104775 11:0.010503877 12:0.82758623 13:0.37823835 14:0.36750031 15:0.40760869 16:0.38711256 #
2 1:0.034420289 3:0.12244898 4:0.013223141 5:0.48704991 6:0.32853717 7:0.055155877 8:0.90884465 9:0.91084492 10:0.74249423 11:0.19624886 12:0.9464286 13:0.54838711 14:0.5683006 15:0.5767442 16:0.59354609 #
-2 5:0.42421475 6:0.27805063 7:0.18284851 8:0.8423174 9:0.84975153 10:0.83876258 11:0.16521318 13:0.50061655 14:0.4850716 15:0.56424582 16:0.5304963 #
2 5:0.87451112 6:0.17144808 7:0.091871582 8:0.95947129 9:0.96038783 10:0.93659168 11:0.66721231 12:0.045454547 13:0.71529001 14:0.71652281 15:0.77335984 16:0.76208031 #
-2 5:0.49975705 6:0.25158405 7:0.16287738 8:0.86822933 9:0.87027562 10:0.75377494 11:0.22447588 13:0.48883048 14:0.46206096 15:0.55059522 16:0.5046289 #
2 3:0 4:0.0034722222 5:0.47586256 6:0.15834218 7:0.19837053 8:0.5711323 9:0.57345581 10:0.57987463 11:0.23640564 13:0.50798261 14:0.46620291 15:0.57825369 16:0.51241642 #
2 1:0.041322313 3:0.12244898 4:0.013223141 5:0.43121758 6:0.33144155 7:0.15664019 8:0.91465694 9:0.91903323 10:0.86456209 11:0.2046724 12:0.9464286 13:0.59736842 14:0.61263883 15:0.64606744 16:0.65158159 #
-2 1:0.016666668 2:0.25 3:0.5 4:0.069444448 5:0.39045316 6:0.20595855 7:0.23639897 8:0.8881675 9:0.87870127 10:0.49629971 11:0.10169912 12:0.17977528 13:0.45141065 14:0.42901826 15:0.53535354 16:0.47383559 #
2 1:0.041322313 3:0.12244898 4:0.013223141 5:0.26943427 6:0.13362069 7:0.12931034 8:0.84567821 9:0.85082263 10:0.50052929 11:0.11747712 12:0.9464286 13:0.57322174 14:0.56816363 15:0.63555557 16:0.61030912 #
2 1:0.047091413 3:0.1388889 4:0.015595463 5:0.26684046 6:0.26881722 7:0.11827957 8:0.8954466 9:0.89949 10:0.65407032 11:0.082516544 12:0.9464286 13:0.53985506 14:0.54189724 15:0.58461541 16:0.57690096 #
2 1:0.043181818 3:0.12244898 4:0.013223141 5:0.31805974 6:0.28622541 7:0.10017889 8:0.88628787 9:0.89080143 10:0.61659306 11:0.064705387 12:0.9464286 13:0.51929826 14:0.54178387 15:0.56088561 16:0.56827295 #
2 1:0.045351475 3:0.12244898 4:0.013223141 5:0.42364794 6:0.19784525 7:0.02546523 8:0.92666531 9:0.92942774 10:0.71337199 11:0.11037094 12:0.9464286 13:0.55507559 14:0.54256338 15:0.60046726 16:0.57857651 #
-2 5:0.17668663 6:0.11344538 7:0.06092437 8:0.67879921 9:0.68806493 10:0.52662885 11:0.061984777 12:0.82758623 13:0.460177 14:0.45364943 15:0.48095238 16:0.46259272 #
2 1:0.0024177949 2:0.044642858 3:0.33333334 4:0.025390625 5:0.3826378 6:0.30608973 7:0.25160256 8:0.85426593 9:0.86537975 10:0.86019301 11:0.11735859 13:0.50169492 14:0.57258809 15:0.557971 16:0.61798072 #
-2 5:0.11185376 6:0.17906336 7:0.29476583 8:0.59783489 9:0.59860629 10:0.18690807 11:0.052174345 12:0.82758623 13:0.38499999 14:0.40139025 15:0.41361257 16:0.42255658 #
2 1:0.033333335 3:0.12244898 4:0.013223141 5:0.49596867 6:0.28187919 7:0.062080536 8:0.91290718 9:0.92235148 10:0.82237381 11:0.21006392 12:0.9464286 13:0.58620691 14:0.61736912 15:0.6159696 16:0.63689756 #
-2 5:0.24051264 6:0.17415731 7:0.23314607 8:0.70228374 9:0.73373252 10:0.53358662 11:0.080848202 12:0.82758623 13:0.36507937 14:0.3730602 15:0.40782124 16:0.4112823 #
2 3:0 4:0.0034722222 5:0.6407848 6:0.14718251 7:0.078637511 8:0.88475519 9:0.88812727 10:0.83342403 11:0.44963163 13:0.72967863 14:0.72796339 15:0.78270513 16:0.77000487 #
-2 1:0.0060606059 2:0 3:0.061585367 4:0.0014302792 5:0.43845996 6:0.17757988 7:0.20429544 8:0.88151884 9:0.88519228 10:0.6812672 11:0.21870403 12:0.28985506 13:0.49470899 14:0.45985293 15:0.54320985 16:0.48171654 #
2 1:0.040476192 3:0.12244898 4:0.013223141 5:0.33980459 6:0.27883211 7:0.052554745 8:0.9104234 9:0.90962833 10:0.63259953 11:0.083219841 12:0.9464286 13:0.49404761 14:0.50077718 15:0.5316456 16:0.5316456 #
-2 1:0.0040854807 2:0 3:0.086363636 4:0.001154037 5:0.39321092 6:0.26662168 7:0.30037126 8:0.87068552 9:0.87452865 10:0.45532307 11:0.13720839 12:0.28985506 13:0.49031007 14:0.42938623 15:0.5480094 16:0.45116109 #
-2 5:0.3664881 6:0.089887641 7:0.087078653 8:0.65925705 9:0.66472453 10:0.45958579 11:0.10179387 12:0.82758623 13:0.41836736 14:0.42677048 15:0.44329897 16:0.44676682 #
-2 1:0.0061776061 2:0.018099548 3:0.070588239 4:0.0058346521 5:0.42923686 6:0.11246943 7:0.03178484 8:0.89608997 9:0.90286785 10:0.7588169 11:0.17319044 12:0.84615386 13:0.62053573 14:0.61408824 15:0.64150941 16:0.63261974 #
2 1:0.036458332 3:0.12244898 4:0.013223141 5:0.4972291 6:0.18306011 7:0.040983606 8:0.85853761 9:0.86587644 10:0.81649357 11:0.34256575 12:0.9464286 13:0.62926829 14:0.63132715 15:0.65128207 16:0.64632928 #
-2 1:0.0054945056 2:0.014492754 3:0.054545455 4:0.0045818123 5:0.48745832 6:0.20725389 7:0.054404143 8:0.88111925 9:0.89696616 10:0.89069062 11:0.31625554 12:0.84210527 13:0.61946905 14:0.66004401 15:0.65402842 16:0.68922508 #
-2 5:0.2041402 6:0.22950819 7:0.25526932 8:0.76363009 9:0.77503306 10:0.48086998 11:0.062902413 12:0.82758623 13:0.36915886 14:0.37649664 15:0.39901477 16:0.39609867 #
2 1:0 3:0 4:0.0034722222 5:0.65366316 6:0.11364377 7:0.018235102 8:0.93963271 9:0.93796802 10:0.89063716 11:0.29694167 13:0.60000002 14:0.62225157 15:0.65261626 16:0.66231394 #
-2 1:0.0054131052 2:0 3:0.12833333 4:0.0024287794 5:0.3631638 6:0.19851117 7:0.25268817 8:0.86239678 9:0.86220556 10:0.51518089 11:0.1709677 12:0.28985506 13:0.52330506 14:0.46832463 15:0.58040202 16:0.49105829 #
2 1:0.037807185 3:0.12244898 4:0.013223141 5:0.14774641 6:0.014150944 7:0.16037735 8:0.7536729 9:0.7509411 10:0.64902663 11:0.056256603 12:0.9464286 13:0.39160839 14:0.39726961 15:0.43283582 16:0.4219549 #
-2 5:0.12651746 6:0.058479533 7:0.10526316 8:0.6937952 9:0.70378155 10:0.47901252 11:0.037261385 12:0.82758623 13:0.38502672 14:0.37966695 15:0.42696628 16:0.40898061 #
-2 1:0.021276595 2:0.25 3:0.5 4:0.069444448 5:0.45934835 6:0.17602874 7:0.24265186 8:0.92269146 9:0.92323321 10:0.4758763 11:0.15039475 12:0.14341085 13:0.40566039 14:0.40048948 15:0.48458692 16:0.44150421 #
2 3:0 4:0.0034722222 5:0.76214826 6:0.16997617 7:0.065131053 8:0.96096504 9:0.96295089 10:0.92530632 11:0.53176987 13:0.65252525 14:0.7008931 15:0.67785233 16:0.72756702 #
2 1:0.037807185 3:0.12244898 4:0.013223141 5:0.12697391 6:0.11607143 7:0.086309522 8:0.66868764 9:0.66111457 10:0.46222448 11:0.018763198 12:0.9464286 13:0.36868685 14:0.37208924 15:0.40932643 16:0.39911717 #
2 1:0.036231883 3:0.12244898 4:0.013223141 5:0.2226065 6:0.031042129 7:0.22394678 8:0.85813034 9:0.85970324 10:0.65830123 11:0.05180119 12:0.9464286 13:0.47744361 14:0.47413963 15:0.54330707 16:0.52405989 #
2 1:0.00024245364 2:0 3:0 4:0 5:0.16544639 6:0.010924982 7:0.1962855 8:0.72427052 9:0.71882308 10:0.10320505 11:0.0056930212 12:0.03773585 13:0.3219178 14:0.26537168 15:0.40093604 16:0.31266826 #
2 1:0.037807185 3:0.12244898 4:0.013223141 5:0.35338596 6:0.20598802 7:0.034730539 8:0.90446484 9:0.90781105 10:0.66652763 11:0.12134207 12:0.9464286 13:0.58942068 14:0.57161027 15:0.62796831 16:0.60011339 #
-2 1:0.006760363 2:0.021428572 3:0.11111111 4:0.0054347827 5:0.36097783 6:0.074468084 7:0.13031915 8:0.90106571 9:0.90268004 10:0.76515085 11:0.18259667 12:0.85365856 13:0.62612611 14:0.59346461 15:0.65437788 16:0.61459768 #
2 1:0.039525691 3:0.12244898 4:0.013223141 5:0.24519885 6:0.23076923 7:0.0033444816 8:0.78115177 9:0.79386842 10:0.76150906 11:0.065479487 12:0.9464286 13:0.44692737 14:0.47434166 15:0.48502994 16:0.50508726 #
2 1:0.04112554 3:0.12244898 4:0.013223141 5:0.19949728 6:0.058441557 7:0.17532468 8:0.83161813 9:0.83590794 10:0.42795464 11:0.048726723 12:0.9464286 13:0.46357617 14:0.43737838 15:0.51056337 16:0.47292778 #
2 5:0.64361387 6:0.013379205 7:0.01529052 8:0.79330653 9:0.79445684 10:0.7787416 11:0.34352022 13:0.65778959 14:0.64182305 15:0.7101025 16:0.68545574 #
2 1:0.045351475 3:0.1388889 4:0.015595463 5:0.32214102 6:0.24928367 7:0.065902576 8:0.8722375 9:0.87948072 10:0.70527071 11:0.097368091 12:0.9464286 13:0.50151974 14:0.52794701 15:0.56869012 16:0.58878458 #
2 1:0.02514793 3:0.12244898 4:0.013223141 5:0.28992307 6:0.040733196 7:0.27698573 8:0.86160797 9:0.86414373 10:0.62312615 11:0.077222578 12:0.9464286 13:0.49310344 14:0.46694013 15:0.53623188 16:0.4881857 #
2 1:0.035196688 3:0.12244898 4:0.013223141 5:0.36245805 6:0.08739496 7:0.17142858 8:0.88771152 9:0.89004016 10:0.58355659 11:0.075747699 12:0.9464286 13:0.49693251 14:0.48094732 15:0.54603177 16:0.52099687 #
-2 1:0 2:0 3:0.014992503 4:0.0016560482 5:0.70403576 6:0.10946745 7:0.1030572 8:0.88572925 9:0.88668847 10:0.7202884 11:0.54938817 12:0.40000001 13:0.49331105 14:0.47434229 15:0.56713426 16:0.51421154 #
-2 1:0.0073313783 2:0.038961038 3:0.071428575 4:0.0071050641 5:0.37690479 6:0.1284153 7:0.054644808 8:0.86521053 9:0.8761369 10:0.81107754 11:0.19910069 12:0.84210527 13:0.60730594 14:0.60406464 15:0.65865386 16:0.64189923 #
-2 5:0.32820812 6:0.10461538 7:0.12923077 8:0.73532575 9:0.75534576 10:0.70034248 11:0.20512092 12:0.82758623 13:0.52694613 14:0.52205026 15:0.54430377 16:0.52785575 #
-2 5:0.15957694 6:0.078431375 7:0.15966387 8:0.74307197 9:0.74572152 10:0.36211869 11:0.077701978 12:0.82758623 13:0.41566265 14:0.39917082 15:0.43902439 16:0.42259461 #
1.6083992297682243588496930897236 1:0.0425 3:0.1388889 4:0.015595463 5:0.19630848 6:0.18589744 7:0.051282052 8:0.73207235 9:0.75471509 10:0.68627882 11:0.0542376 12:0.9464286 13:0.39805827 14:0.40602019 15:0.43434343 16:0.45056447 #
2 1:0.0072351419 2:0 3:0.11328125 4:0.003961219 5:0.25401768 6:0.21069519 7:0.21657754 8:0.83546126 9:0.83198965 10:0.45327419 11:0.10006985 12:0.41666666 13:0.4924078 14:0.47234398 15:0.53316951 16:0.49249673 #
-2 5:0.30112362 6:0.19444445 7:0.25 8:0.80712825 9:0.81155843 10:0.61081338 11:0.086576805 12:0.82758623 13:0.38967136 14:0.39530396 15:0.4009901 16:0.4009901 #
-2 1:0.0045955884 2:0.018518519 3:0.023255814 4:0.002422181 5:0.27850461 6:0.16386555 7:0.016806724 8:0.80228531 9:0.82001072 10:0.77032012 11:0.080196708 12:0.84210527 13:0.43165466 14:0.44872352 15:0.5 16:0.51741332 #
2 1:0 3:0 4:0.0034722222 5:0.81794959 6:0.10089612 7:0.021241289 8:0.97414523 9:0.97473127 10:0.90685147 11:0.40582493 13:0.59168702 14:0.59808785 15:0.65390068 16:0.64172775 #
2 3:0 4:0.0034722222 5:0.50363165 6:0.15565869 7:0.16708319 8:0.5637157 9:0.56835872 10:0.57559508 11:0.22438464 13:0.53456223 14:0.48307058 15:0.60363638 16:0.5228833 #
2 1:0.037267081 3:0.12244898 4:0.013223141 5:0.43504122 6:0.20895523 7:0.021558871 8:0.90049392 9:0.90309793 10:0.67258829 11:0.14833416 12:0.9464286 13:0.48148149 14:0.48905617 15:0.53956836 16:0.53478062 #
2 1:0.047091413 3:0.12244898 4:0.013223141 5:0.34011424 6:0.11075442 7:0.089887641 8:0.86830866 9:0.87763035 10:0.74519575 11:0.083411686 12:0.9464286 13:0.55161291 14:0.52058864 15:0.56643355 16:0.52732098 #
-2 1:0.0063199713 2:0.026960785 3:0.045454547 4:0.0045556491 5:0.45720515 6:0.21140939 7:0.097315438 8:0.85193324 9:0.8566497 10:0.58755052 11:0.27040213 12:0.85000002 13:0.58288771 14:0.61925226 15:0.61452514 16:0.64201361 #
-2 5:0.39449611 6:0.23919414 7:0.12710623 8:0.80372977 9:0.81340623 10:0.71047419 11:0.12934999 13:0.58832568 14:0.60651791 15:0.64409721 16:0.64976221 #
-2 5:0.13063744 6:0.12556054 7:0.080717489 8:0.66527081 9:0.66689253 10:0.33574671 11:0.053382624 12:0.82758623 13:0.4402985 14:0.42771596 15:0.47328246 16:0.45946097 #
2 1:0.047499999 3:0.12244898 4:0.013223141 5:0.37669742 6:0.32954547 7:0.076704547 8:0.86082232 9:0.87138069 10:0.58686638 11:0.10967308 12:0.9464286 13:0.48837209 14:0.53560799 15:0.52201259 16:0.56651658 #
-2 1:0.0067599067 2:0 3:0.1399177 4:0.0022279234 5:0.37757513 6:0.2111448 7:0.2706596 8:0.82949573 9:0.84165293 10:0.47990867 11:0.12399419 12:0.28985506 13:0.51167727 14:0.45255676 15:0.57289004 16:0.47406903 #
2 1:0.046783626 3:0.12244898 4:0.013223141 5:0.41704232 6:0.0078895465 7:0.24457593 8:0.88853306 9:0.91663873 10:0.92538768 11:0.16284573 12:0.9464286 13:0.54285717 14:0.49690399 15:0.60869563 16:0.53838187 #
-2 1:0.0064464142 2:0.027777778 3:0.049586777 4:0.0042526494 5:0.24730305 6:0.15929204 7:0.013274336 8:0.83554715 9:0.84466302 10:0.83981425 11:0.11707874 12:0.84210527 13:0.46000001 14:0.47445378 15:0.45774648 16:0.47121248 #
2 3:0 4:0.0034722222 5:0.35418081 6:0.0022099447 7:0.0047882134 8:0.55423594 9:0.5519765 10:0.49712449 11:0.17797542 13:0.56041664 14:0.43830058 15:0.64233577 16:0.48363087 #
-2 1:0.0047592386 2:0.022058824 3:0.030769231 4:0.0026483526 5:0.25793728 6:0.045643155 7:0.186722 8:0.66314608 9:0.67199439 10:0.65413833 11:0.10456704 12:0.84210527 13:0.4909091 14:0.51258987 15:0.52173913 16:0.53696322 #
-2 1:0.0067500495 2:0.04524887 3:0.059999999 4:0.0050123185 5:0.2460874 6:0.022304833 7:0.096654274 8:0.77373546 9:0.77621841 10:0.5362727 11:0.10297292 12:0.85000002 13:0.44067797 14:0.45461151 15:0.48520711 16:0.48520711 #
2 1:0 2:0 3:0.033333335 4:0.0024340674 5:0.78816831 6:0.04353562 7:0.041556727 8:0.94808751 9:0.9465006 10:0.87237102 11:0.63614553 12:0.41666666 13:0.46855983 14:0.46172258 15:0.53900707 16:0.50494158 #
-2 1:0.0070869992 2:0.052083332 3:0.0625 4:0.0062691742 5:0.31424376 6:0.16358025 7:0.046296295 8:0.87161028 9:0.87870067 10:0.76790875 11:0.10631464 12:0.85000002 13:0.58378381 14:0.59042555 15:0.64044946 16:0.63511968 #
2 1:0.03809524 3:0.12244898 4:0.013223141 5:0.18203847 6:0.1638796 7:0.07692308 8:0.71060908 9:0.72165614 10:0.6498611 11:0.064889751 12:0.9464286 13:0.52659577 14:0.51665598 15:0.55191255 16:0.52926028 #
-2 1:0.014925373 2:0.2 3:0.5 4:0.069444448 5:0.39658403 6:0.16053511 7:0.20903011 8:0.91404092 9:0.91129535 10:0.49684536 11:0.095378004 12:0.14341085 13:0.41273585 14:0.41143841 15:0.49014086 16:0.45223799 #
-2 1:0.0057814992 2:0.026515152 3:0.039999999 4:0.0043149069 5:0.41330919 6:0.2147651 7:0.013422819 8:0.82977891 9:0.84803921 10:0.66130191 11:0.14645825 12:0.83333331 13:0.51098901 14:0.53830117 15:0.53448278 16:0.56447673 #
-2 1:0.0047169812 2:0 3:0.1 4:0.0019251094 5:0.5452739 6:0.18315871 7:0.20100893 8:0.89497256 9:0.89192635 10:0.67734337 11:0.29250127 12:0.28985506 13:0.51485151 14:0.46583313 15:0.56908667 16:0.49169335 #
-2 1:0.0045561665 2:0.018518519 3:0.023255814 4:0.002422181 5:0.27850461 6:0.16386555 7:0.016806724 8:0.80228531 9:0.82001072 10:0.77032012 11:0.080196708 12:0.84210527 13:0.43165466 14:0.44872352 15:0.5 16:0.51741332 #
2 1:0.0059470711 2:0 3:0.20214844 4:0.0018571311 5:0.33641481 6:0.17073965 7:0.18735744 8:0.87537479 9:0.87482786 10:0.5967043 11:0.17360349 12:0.29850745 13:0.55980861 14:0.53422576 15:0.62096775 16:0.56711751 #
2 3:0 4:0.0034722222 5:0.40201399 6:0.12877698 7:0.15359712 8:0.63128597 9:0.63425487 10:0.61853617 11:0.14965518 13:0.55887228 14:0.4901821 15:0.63953489 16:0.53916389 #
1.1715447993744874111143872141838 1:0 2:0 3:0 4:3.1919564e-05 5:0.18010265 6:0.21513945 7:0.083665341 8:0.87286019 9:0.87444341 10:0.53996134 11:0.023417499 13:0.28417265 14:0.31135315 15:0.32592592 16:0.34426519 #
2 1:0.034420289 3:0.12244898 4:0.013223141 5:0.47750601 6:0.2181146 7:0.055452865 8:0.92323756 9:0.92363459 10:0.75843745 11:0.17178389 12:0.9464286 13:0.5625 14:0.56218499 15:0.61153847 16:0.60688794 #
-2 1:0.0048840051 2:0 3:0.14822134 4:0.0026606119 5:0.43680349 6:0.18547681 7:0.21784776 8:0.88297564 9:0.88172936 10:0.73392498 11:0.17493689 12:0.28985506 13:0.50858366 14:0.47097269 15:0.5670886 16:0.49616328 #
2 3:0.2 4:0.014668368 5:0.39503029 6:0.00068050355 7:0.015991833 8:0.80997008 9:0.80340147 10:0.45992932 11:0.28599995 12:0.92307693 13:0.46013987 14:0.40354645 15:0.54438859 16:0.44511318 #
2 1:0.0010948905 2:0.040935673 3:0.083333336 4:0.0069989394 5:0.43039516 6:0.39675173 7:0.31438515 8:0.89555228 9:0.89406687 10:0.87733197 11:0.14344394 13:0.4816626 14:0.56753218 15:0.51948053 16:0.59547812 #
-2 1:0.014925373 2:0.071428575 3:0.5 4:0.069444448 5:0.54645848 6:0.2917923 7:0.27001676 8:0.90035051 9:0.90015972 10:0.85356408 11:0.33346939 12:0.25694445 13:0.59819818 14:0.55789036 15:0.64999998 16:0.57754016 #
-2 1:0.017241379 2:0.25 3:0.5 4:0.069444448 5:0.41608983 6:0.13418746 7:0.16351989 8:0.90528107 9:0.90443414 10:0.54461855 11:0.12635285 12:0.14285715 13:0.45084745 14:0.43558228 15:0.55241936 16:0.49596897 #
2 1:0.027434843 3:0.12244898 4:0.013223141 5:0.226071 6:0.019543974 7:0.29967427 8:0.84959543 9:0.84077829 10:0.50369412 11:0.060340948 12:0.9464286 13:0.45108697 14:0.46791947 15:0.47486034 16:0.49610144 #
0.67929793544408312300220131874084 1:0.022959184 3:0.12244898 4:0.013223141 5:0.25509977 6:0.022779044 7:0.25512528 8:0.86396831 9:0.86753458 10:0.62964785 11:0.071761176 12:0.9464286 13:0.46638656 14:0.43963701 15:0.5151515 16:0.47827047 #
-2 1:0.0052677789 2:0.017857144 3:0.026936026 4:0.0028997515 5:0.38621897 6:0.16727273 7:0.021818181 8:0.89780235 9:0.90986156 10:0.73462987 11:0.21845599 12:0.86666667 13:0.57062149 14:0.61210775 15:0.61676645 16:0.65516114 #
2 1:0.0045539299 2:0 3:0.4221763 4:0.0008700529 5:0.50794035 6:0.20382383 7:0.19494708 8:0.8432759 9:0.84283757 10:0.71610832 11:0.37826759 12:0.41666666 13:0.66666669 14:0.64406967 15:0.67582417 16:0.64469516 #
-2 1:0.0062399716 2:0.037037037 3:0.045454547 4:0.0038860103 5:0.22516014 6:0.16666667 7:0.049242426 8:0.80496162 9:0.81047887 10:0.60689348 11:0.11695328 12:0.85365856 13:0.45625001 14:0.45768249 15:0.47741935 16:0.47741935 #
2 1:0.010584678 3:0.10901163 4:0.0020403147 5:0.10527142 6:0.22395833 7:0.015625 8:0.69467068 9:0.69757551 10:0.43546632 11:0.028903665 12:0.9464286 13:0.42519686 14:0.41088703 15:0.43089432 16:0.41282967 #
-2 1:0.0066889632 2:0.018181818 3:0.06666667 4:0.0066060079 5:0.33301812 6:0.21276596 7:0.017021276 8:0.83901924 9:0.85713261 10:0.73314035 11:0.15026124 12:0.85365856 13:0.47445256 14:0.48228163 15:0.51538461 16:0.50204521 #
2 1:0.026666667 3:0.12244898 4:0.013223141 5:0.20612061 6:0.192 7:0.068000004 8:0.80901527 9:0.82329232 10:0.56144667 11:0.076179899 12:0.9464286 13:0.49122807 14:0.49311519 15:0.52962965 16:0.52289474 #
-2 1:0.0063529881 2:0.021875 3:0.05882353 4:0.0058777863 5:0.19372255 6:0.19939578 7:0.027190333 8:0.81821394 9:0.83458477 10:0.62822479 11:0.049037453 12:0.83333331 13:0.53439152 14:0.52964872 15:0.55307263 16:0.54402995 #
-2 1:0.018181818 2:0.25 3:0.5 4:0.069444448 5:0.50668585 6:0.28206003 7:0.27216917 8:0.92903399 9:0.93048412 10:0.5864256 11:0.17430218 12:0.14341085 13:0.56914896 14:0.51181936 15:0.64946234 16:0.54721731 #
-2 1:0.0049975011 2:0.050000001 3:0.03125 4:0.0032295748 5:0.34806788 6:0.19881305 7:0.089020774 8:0.79228711 9:0.80935836 10:0.60656232 11:0.20341344 12:0.84210527 13:0.45539907 14:0.48977259 15:0.50251257 16:0.52402008 #
2 1:0.035916824 3:0.12244898 4:0.013223141 5:0.24123244 6:0.29298642 7:0.071266972 8:0.83985364 9:0.84341389 10:0.64578384 11:0.074611038 12:0.9464286 13:0.51116073 14:0.53075308 15:0.54694837 16:0.55414969 #
2 1:0.044321328 3:0.12244898 4:0.013223141 5:0.44643793 6:0.27438369 7:0.042872455 8:0.93466407 9:0.93528938 10:0.82263571 11:0.16093756 12:0.9464286 13:0.58518517 14:0.59361225 15:0.61197919 16:0.61197919 #
-2 1:0.0063224449 2:0.034375001 3:0.072463766 4:0.0041243457 5:0.38062575 6:0.1015625 7:0.02734375 8:0.80952692 9:0.84596646 10:0.87025577 11:0.19765198 12:0.84210527 13:0.51298702 14:0.52090299 15:0.55862069 16:0.54740977 #
-2 1:0.0066889632 2:0.035714287 3:0.049382716 4:0.005189029 5:0.38218862 6:0.27540985 7:0.17704917 8:0.87147379 9:0.89320117 10:0.83622849 11:0.18976702 12:0.84210527 13:0.52910054 14:0.60095352 15:0.5955056 16:0.65753585 #
2 1:0 2:0 3:0 4:0.00071073207 5:0.034716483 6:0.13958333 7:0.081249997 8:0.31072927 9:0.283126 10:0.045199431 11:0 12:0.055555556 13:0.18773946 14:0.18628156 15:0.22131148 16:0.21116963 #
2 1:0.043062203 3:0.12244898 4:0.013223141 5:0.45146474 6:0.26894501 7:0.052005943 8:0.90420192 9:0.90924793 10:0.88165319 11:0.18881367 12:0.9464286 13:0.55263156 14:0.5543015 15:0.59246576 16:0.5835411 #
2 1:0.040816326 3:0.12244898 4:0.013223141 5:0.17730203 6:0.037593983 7:0.14285715 8:0.74206179 9:0.76157218 10:0.58461642 11:0.0464851 12:0.9464286 13:0.4375 14:0.44935852 15:0.45161289 16:0.46692613 #
-2 1:0.0067340066 2:0.043749999 3:0.055555556 4:0.0055707376 5:0.21838285 6:0.11619718 7:0.095070422 8:0.79287916 9:0.80263311 10:0.64840937 11:0.070667624 12:0.83333331 13:0.48837209 14:0.48712403 15:0.5029586 16:0.51056808 #
-2 1:0.0073529412 2:0.042735044 3:0.06666667 4:0.0066060079 5:0.32635698 6:0.23717949 7:0.10576923 8:0.87492955 9:0.8869288 10:0.66024333 11:0.13599029 12:0.83333331 13:0.52542371 14:0.54975379 15:0.58235294 16:0.59111065 #
2 1:0.041189931 3:0.12244898 4:0.013223141 5:0.2370403 6:0.061643835 7:0.16438356 8:0.82048935 9:0.83028883 10:0.7692225 11:0.061114416 12:0.9464286 13:0.48878923 14:0.46838561 15:0.52830189 16:0.49966154 #
2 1:0.036231883 3:0.12244898 4:0.013223141 5:0.28936493 6:0.30620155 7:0.13953489 8:0.81929529 9:0.83729482 10:0.77551663 11:0.15194435 12:0.9464286 13:0.54140127 14:0.56927872 15:0.56756759 16:0.60098201 #
2 1:0.0030769231 2:0 3:0.095238097 4:0.0029279999 5:0.38116461 6:0.18152031 7:0.17038009 8:0.90749729 9:0.89733219 10:0.58924955 11:0.14291261 12:0.41666666 13:0.53614455 14:0.49940944 15:0.61063218 16:0.53256643 #
-2 1:0.0053802007 2:0.043956045 3:0.034482758 4:0.0035525321 5:0.28974783 6:0.21524663 7:0.085201792 8:0.79911602 9:0.83103627 10:0.84331632 11:0.14892374 12:0.85365856 13:0.46527779 14:0.52410299 15:0.5289855 16:0.57206094 #
-2 1:0.0068150843 2:0.0390625 3:0.045454547 4:0.0046337377 5:0.37806022 6:0.171123 7:0.0026737968 8:0.87740296 9:0.88482571 10:0.69083714 11:0.21187039 12:0.84615386 13:0.55140185 14:0.56281507 15:0.57416266 16:0.57692975 #
2 1:0.045351475 3:0.12244898 4:0.013223141 5:0.31752464 6:0.13432837 7:0.040511727 8:0.83919549 9:0.84635878 10:0.6117568 11:0.11919162 12:0.94594592 13:0.49392712 14:0.49699497 15:0.53571427 16:0.53216255 #
-2 1:0.006095238 2:0.029999999 3:0.034632035 4:0.0041527622 5:0.32722577 6:0.16176471 7:0.040441178 8:0.7828114 9:0.78977096 10:0.72948575 11:0.18287924 12:0.84210527 13:0.51875001 14:0.54894716 15:0.59868419 16:0.62605458 #
-2 1:0.0073653199 2:0.040485829 3:0.077272728 4:0.004980843 5:0.27018228 6:0.16042781 7:0.045454547 8:0.85051799 9:0.85476172 10:0.78085941 11:0.099014118 12:0.83333331 13:0.5 14:0.51907587 15:0.56650245 16:0.57506472 #
2 1:0 2:0 3:0.07692308 4:0.0048912126 5:0.61157542 6:0.080672272 7:0.1184874 8:0.9329654 9:0.93147892 10:0.82405049 11:0.2450943 12:0.38461539 13:0.5366379 14:0.53409731 15:0.58706468 16:0.55860841 #
-2 1:0.0061776061 2:0.03508772 3:0.057142857 4:0.0047874069 5:0.33965084 6:0.2006079 7:0.012158055 8:0.79047394 9:0.7967931 10:0.72702819 11:0.11189085 12:0.84210527 13:0.56345177 14:0.56927133 15:0.60416669 16:0.61056012 #
2 1:0.034782607 3:0.12244898 4:0.013223141 5:0.36149243 6:0.31300345 7:0.10817031 8:0.87556893 9:0.87741333 10:0.68086064 11:0.17824638 12:0.9464286 13:0.52790695 14:0.5816862 15:0.56447691 16:0.60822666 #
-2 1:0.0071313549 2:0.043749999 3:0.052631579 4:0.00528169 5:0.30496308 6:0.14672686 7:0.058690745 8:0.86314613 9:0.87506741 10:0.85418618 11:0.10000031 12:0.85365856 13:0.53389829 14:0.55505568 15:0.56018519 16:0.57642579 #
2 1:0.035273369 3:0.1388889 4:0.015595463 5:0.28562278 6:0.29649308 7:0.12114771 8:0.87719804 9:0.88074166 10:0.74282026 11:0.080844089 12:0.9464286 13:0.49532712 14:0.51742804 15:0.56265986 16:0.57919008 #
2 1:0.049861494 3:0.12244898 4:0.013223141 5:0.13984069 6:0.14925373 7:0.05472637 8:0.68358737 9:0.69445044 10:0.61385953 11:0.021470031 12:0.9464286 13:0.390625 14:0.40469682 15:0.43442622 16:0.42747498 #
-2 1:0.0068150843 2:0.050000001 3:0.050000001 4:0.0050750459 5:0.26200587 6:0.13333334 7:0.031372551 8:0.83058739 9:0.83548629 10:0.67430806 11:0.16981234 12:0.84210527 13:0.52147239 14:0.54469669 15:0.54487181 16:0.56322277 #
2 1:0.044736844 3:0.12244898 4:0.013223141 5:0.16782212 6:0.072186835 7:0.14861996 8:0.80189657 9:0.80986857 10:0.74302161 11:0.025347838 12:0.9464286 13:0.43579766 14:0.42042601 15:0.47325101 16:0.45148057 #
-2 1:0.0073613985 2:0.044444446 3:0.055555556 4:0.0055707376 5:0.19959499 6:0.1416309 7:0.025751073 8:0.76043123 9:0.7814061 10:0.7135061 11:0.066827491 12:0.83333331 13:0.49032259 14:0.50505108 15:0.54421771 16:0.55177665 #
2 1:0.049861494 3:0.12244898 4:0.013223141 5:0.143595 6:0.13147411 7:0.031872511 8:0.73326278 9:0.73310256 10:0.54080456 11:0.024193745 12:0.9464286 13:0.41379312 14:0.40419516 15:0.47794119 16:0.45971137 #
2 1:0.0272 3:0.12244898 4:0.013223141 5:0.32049164 6:0.22998729 7:0.036848795 8:0.83790088 9:0.84151214 10:0.48469245 11:0.092174709 12:0.9464286 13:0.46948355 14:0.48823953 15:0.52499998 16:0.5323711 #
-2 1:0.0056338026 2:0.0084033618 3:0.090909094 4:0.0057916776 5:0.41888329 6:0.11965812 7:0.07692308 8:0.88072979 9:0.88555539 10:0.82214582 11:0.14550868 12:0.83333331 13:0.5714286 14:0.56949937 15:0.63909775 16:0.62741309 #
-2 1:0.0059259259 2:0.025575448 3:0.0625 4:0.0041752425 5:0.34310016 6:0.14804469 7:0.039106146 8:0.84030694 9:0.8455531 10:0.74701566 11:0.14267425 12:0.85365856 13:0.5714286 14:0.57809013 15:0.60000002 16:0.59565735 #
-2 5:0.5786646 6:0.20707636 7:0.094227187 8:0.94519705 9:0.94837016 10:0.94924277 11:0.24637602 13:0.6115607 14:0.63176954 15:0.6745407 16:0.67946279 #
2 1:0 5:0.61957639 6:0.17658474 7:0.19825356 8:0.76873046 9:0.77261889 10:0.78525889 11:0.27204341 13:0.55324674 14:0.53217882 15:0.5981735 16:0.55040073 #
-2 1:0.006828852 2:0.035714287 3:0.05882353 4:0.0058777863 5:0.2038487 6:0.11872146 7:0.01369863 8:0.79317313 9:0.80172563 10:0.53982496 11:0.081526555 12:0.85000002 13:0.55263156 14:0.56583846 15:0.57333332 16:0.57719421 #
-0.91798308033821740536950528621674 1:0.0065849642 2:0.028132992 3:0.090909094 4:0.0046296297 5:0.46593195 6:0.18817204 7:0.034946237 8:0.91548985 9:0.92544407 10:0.89240241 11:0.27357534 12:0.84210527 13:0.67906976 14:0.67587817 15:0.69950742 16:0.68939352 #
2 1:0.039525691 3:0.1388889 4:0.015595463 5:0.36914724 6:0.28147101 7:0.086280055 8:0.87027794 9:0.87641877 10:0.65811765 11:0.11279172 12:0.9464286 13:0.53781515 14:0.57398587 15:0.57971013 16:0.61254954 #
2 1:0 2:0 3:0.090277776 4:0.0055048601 5:0.82593942 6:0.054905947 7:0.070665985 8:0.94437951 9:0.94594371 10:0.86712217 11:0.71808958 12:0.3773585 13:0.47145489 14:0.44088191 15:0.53715497 16:0.47751492 #
-2 1:0.0064102565 2:0.027210884 3:0.03846154 4:0.003928836 5:0.41921422 6:0.20900321 7:0.10932476 8:0.88728958 9:0.89606959 10:0.83496022 11:0.2157709 12:0.85714287 13:0.55135137 14:0.60068768 15:0.59659094 16:0.62376362 #
-2 5:0.4832283 6:0.11343284 7:0.003358209 8:0.89186502 9:0.89851093 10:0.91037947 11:0.18786515 13:0.56480378 14:0.56629783 15:0.61185986 16:0.59907806 #
-2 1:0.0061544571 2:0.015625 3:0.075000003 4:0.0061721937 5:0.40183708 6:0.12860893 7:0.026246719 8:0.9026556 9:0.91778272 10:0.72914517 11:0.23668742 12:0.84615386 13:0.56444442 14:0.5825724 15:0.60663509 16:0.61695522 #
2 1:0 3:0 4:0.0034722222 5:0.41571844 6:0.21984436 7:0.26167315 8:0.83001363 9:0.833112 10:0.69150871 11:0.1432265 13:0.50409168 14:0.4794032 15:0.57279694 16:0.51730412 #
-2 5:0.64434022 6:0.16080777 7:0.056843679 8:0.97202992 9:0.9709689 10:0.89602941 11:0.32092148 13:0.62541074 14:0.6283235 15:0.67965895 16:0.67515105 #
2 1:0.037807185 3:0.12244898 4:0.013223141 5:0.20397003 6:0.010893246 7:0.26797387 8:0.82331938 9:0.82617104 10:0.68626076 11:0.05055812 12:0.9464286 13:0.47450981 14:0.45023388 15:0.51037347 16:0.47691616 #
2 1:0 5:0.44573087 6:0.21235652 7:0.21607022 8:0.87334752 9:0.87310964 10:0.63514131 11:0.17309487 13:0.48531139 14:0.47322187 15:0.53333336 16:0.49859095 #
2 1:0.045112781 3:0.12244898 4:0.013223141 5:0.30894423 6:0.2516129 7:0.070967741 8:0.76372606 9:0.76674956 10:0.74949867 11:0.096914247 12:0.9464286 13:0.49504951 14:0.53648812 15:0.50526315 16:0.53732842 #
2 1:0.0062015504 2:0 3:0.09765625 4:0.003961219 5:0.42171231 6:0.1838565 7:0.23811659 8:0.91761768 9:0.91959012 10:0.71833831 11:0.2042892 12:0.41666666 13:0.52424943 14:0.46766341 15:0.59685862 16:0.50671673 #
2 1:0.0059139784 2:0 3:0.1184 4:0.0024210622 5:0.37461954 6:0.18890719 7:0.20428336 8:0.91230625 9:0.90939951 10:0.63546544 11:0.17790431 12:0.41666666 13:0.50210971 14:0.47370186 15:0.54390246 16:0.49301788 #
2 1:0.0078630894 2:0 3:0.088842973 4:0.0027824719 5:0.28204805 6:0.28139904 7:0.27344993 8:0.86817563 9:0.88845187 10:0.90041494 11:0.13006097 12:0.39215687 13:0.48387095 14:0.48387095 15:0.50588238 16:0.49860311 #
2 1:0.046783626 3:0.12244898 4:0.013223141 5:0.22461039 6:0.081460677 7:0.19382022 8:0.82052201 9:0.8288582 10:0.62446922 11:0.063932806 12:0.9464286 13:0.44711539 14:0.42780781 15:0.50990099 16:0.48529866 #
-2 1:0.0066889632 2:0.025641026 3:0.06666667 4:0.0066060079 5:0.38446453 6:0.14609572 7:0.050377835 8:0.88099211 9:0.88883251 10:0.74068731 11:0.18886334 12:0.84210527 13:0.59130436 14:0.58800447 15:0.61818182 16:0.60857576 #
-2 1:0.0075811418 2:0.051282052 3:0.06666667 4:0.0066060079 5:0.34706685 6:0.11733333 7:0.077333331 8:0.86630189 9:0.87067294 10:0.71666282 11:0.17905895 12:0.84210527 13:0.60580915 14:0.6122449 15:0.63478261 16:0.62666136 #
-2 1:0.006828852 2:0.039772727 3:0.05882353 4:0.0059718308 5:0.37182954 6:0.112 7:0.068000004 8:0.8392188 9:0.85282665 10:0.78383756 11:0.1596029 12:0.83333331 13:0.5804196 14:0.57346237 15:0.5869565 16:0.57459813 #
2 1:0.043062203 3:0.12244898 4:0.013223141 5:0.28131676 6:0.2143928 7:0.0059970017 8:0.80449337 9:0.81302398 10:0.64189267 11:0.056487836 12:0.9464286 13:0.46666667 14:0.49337617 15:0.50649351 16:0.52287793 #
-2 1:0.0061835749 2:0.022624435 3:0.059090909 4:0.004980843 5:0.30389568 6:0.15012106 7:0.0048426152 8:0.85613656 9:0.86108661 10:0.62820548 11:0.13164972 12:0.84615386 13:0.57522124 14:0.58150345 15:0.61320752 16:0.6117664 #
2 1:0.041304346 3:0.12244898 4:0.013223141 5:0.27237269 6:0.065632455 7:0.15035799 8:0.75668454 9:0.76732165 10:0.6270023 11:0.064307824 12:0.9464286 13:0.47999999 14:0.42515457 15:0.5171504 16:0.45160452 #
-2 5:0.63523132 6:0.22695556 7:0.080793239 8:0.96734357 9:0.96971399 10:0.93687207 11:0.34449342 13:0.62171841 14:0.65124816 15:0.68724281 16:0.70334649 #
-2 1:0.0069371453 2:0.040723983 3:0.055555556 4:0.0055321143 5:0.28524935 6:0.10606061 7:0.018939395 8:0.78335136 9:0.79548132 10:0.7468068 11:0.15519391 12:0.83333331 13:0.54901963 14:0.56050956 15:0.60000002 16:0.58991528 #
-2 1:0.0053940667 2:0.020588236 3:0.037694015 4:0.0025155772 5:0.47796309 6:0.15662651 7:0.018072288 8:0.90612215 9:0.91029596 10:0.84155053 11:0.2416846 12:0.85000002 13:0.625 14:0.65057486 15:0.65326631 16:0.67390084 #
-2 1:0.0061835749 2:0.024291499 3:0.063157894 4:0.0052594044 5:0.42368907 6:0.20689656 7:0.025078369 8:0.87084609 9:0.88276148 10:0.78076082 11:0.19657043 12:0.83783782 13:0.59562844 14:0.61168396 15:0.6608187 16:0.65698785 #
2 1:0.041322313 3:0.12244898 4:0.013223141 5:0.25996342 6:0.2407809 7:0.026030369 8:0.84323555 9:0.84849161 10:0.64822298 11:0.068926223 12:0.9464286 13:0.47302905 14:0.46905187 15:0.51982379 16:0.49632871 #
-2 1:0.0058275056 2:0.050000001 3:0.037037037 4:0.0038062844 5:0.35085791 6:0.12835822 7:0.044776119 8:0.82579958 9:0.83285415 10:0.67109179 11:0.15933421 12:0.85000002 13:0.54081631 14:0.5642938 15:0.57837838 16:0.59638029 #
1.0528814182414407696342095732689 1:0.0062337662 2:0 3:0.044077136 4:0.0017972635 5:0.55773467 6:0.24045546 7:0.22371066 8:0.91750634 9:0.91679943 10:0.70656657 11:0.25123993 12:0.28985506 13:0.50816697 14:0.45954305 15:0.5726496 16:0.48969072 #
2 1:0.041407868 3:0.11904762 4:0.013043478 5:0.22819078 6:0.25454545 7:0.040909089 8:0.79882205 9:0.80369794 10:0.71210754 11:0.066244669 12:0.9464286 13:0.4302789 14:0.46625242 15:0.47280335 16:0.50082928 #
-2 1:0.0058754408 2:0.015037594 3:0.055555556 4:0.0055321143 5:0.39211982 6:0.1142132 7:0.083756343 8:0.8742938 9:0.876957 10:0.8439886 11:0.17902029 12:0.84615386 13:0.60287082 14:0.62061167 15:0.63 16:0.64636636 #
-2 1:0.0068933824 2:0.028571429 3:0.0625 4:0.0061983471 5:0.43339187 6:0.15358362 7:0.034129694 8:0.866687 9:0.87133461 10:0.83711672 11:0.20713241 12:0.84615386 13:0.61016947 14:0.62541413 15:0.63253009 16:0.63253009 #
-2 1:0.0064935065 2:0.030303031 3:0.05882353 4:0.0058777863 5:0.2834484 6:0.11081794 7:0.068601586 8:0.8335371 9:0.8495996 10:0.78390479 11:0.085762039 12:0.84615386 13:0.57205242 14:0.57700789 15:0.62385321 16:0.62242728 #
2 1:0.047499999 3:0.12244898 4:0.013223141 5:0.33279493 6:0.22802851 7:0.0035629454 8:0.88575399 9:0.89030868 10:0.694309 11:0.071851052 12:0.9464286 13:0.45323741 14:0.47593006 15:0.48860759 16:0.50416398 #
-2 1:0.005860806 2:0.052083332 3:0.027548209 4:0.0028882576 5:0.45646536 6:0.14732143 7:0.035714287 8:0.8770296 9:0.89147246 10:0.78108525 11:0.28718325 12:0.84210527 13:0.54966885 14:0.59756589 15:0.59027779 16:0.62854421 #
-2 1:0.0062770564 2:0.026041666 3:0.06666667 4:0.0055321143 5:0.40429217 6:0.12937063 7:0 8:0.85107297 9:0.86931968 10:0.6658904 11:0.23574315 12:0.84615386 13:0.60509557 14:0.59706157 15:0.63576162 16:0.61762202 #
2 1:0.033043478 3:0.1388889 4:0.015595463 5:0.18556572 6:0.25617284 7:0.08024691 8:0.76832545 9:0.77590132 10:0.61183679 11:0.049968779 12:0.9464286 13:0.44262296 14:0.45923504 15:0.44970414 16:0.46657386 #
2 1:0.039473683 3:0.12244898 4:0.013223141 5:0.22307944 6:0.128125 7:0.096874997 8:0.80503583 9:0.81291229 10:0.56749135 11:0.048341844 12:0.9464286 13:0.42268041 14:0.40529549 15:0.48913044 16:0.46567786 #
-2 1:0.0071348939 2:0.042735044 3:0.06666667 4:0.0066060079 5:0.29381686 6:0.078873239 7:0.10140845 8:0.80826646 9:0.81400406 10:0.6360997 11:0.13469836 12:0.84615386 13:0.56132078 14:0.56739014 15:0.61083746 16:0.60933846 #
-2 1:0.0058399173 2:0.030092593 3:0.04137931 4:0.0035228087 5:0.35197064 6:0.1594203 7:0.020289855 8:0.89114147 9:0.89407301 10:0.6764943 11:0.15313362 12:0.83333331 13:0.58604652 14:0.6014787 15:0.6195122 16:0.62720829 #
0.73662348622224271821323782205582 1:0.037549406 3:0.12244898 4:0.013223141 5:0.32411638 6:0.021276595 7:0.33865249 8:0.78166449 9:0.79114854 10:0.5861783 11:0.094489098 12:0.9464286 13:0.50684929 14:0.45930046 15:0.57243818 16:0.51400608 #
-2 1:0.0060439561 2:0.028985508 3:0.064393938 4:0.0041973395 5:0.33548942 6:0.12130178 7:0.068047337 8:0.87480056 9:0.878016 10:0.70289117 11:0.14740399 12:0.83333331 13:0.6056338 14:0.61470014 15:0.63414633 16:0.63883799 #
