SVM-light Version V6.02
0 # kernel type
3 # kernel parameter -d 
1 # kernel parameter -g 
1 # kernel parameter -s 
1 # kernel parameter -r 
empty# kernel parameter -u 
32 # highest feature index 
1231 # number of training documents 
248 # number of support vectors plus 1 
-0.60946358 # threshold b, each following line is a SV (starting with alpha*y)
-1 5:0.64115679 6:0.32446808 7:0.80957448 8:0.87492853 9:0.87344241 10:0.69713277 11:0.46963522 12:0.625 13:0.48822269 14:0.4341495 15:0.56091368 16:0.48225924 #
-1 1:0.0013586957 2:0.03508772 3:0.14285715 4:0.0092329541 5:0.35290474 6:0.15220949 7:0.098199673 8:0.9090569 9:0.90781343 10:0.4008911 11:0.023211887 12:0.03125 13:0.31224489 14:0.31412792 15:0.35331905 16:0.34457579 #
1 1:0 2:0 3:0 4:0.00016715885 5:0.12445759 6:0.80000001 7:0.74190474 8:0.68428993 9:0.66388136 10:0.055497039 11:0 12:0.0079365084 13:0.062444247 14:0.14955544 15:0.084313728 16:0.18407358 #
1 1:0.012345679 2:0.046875 3:0.11111111 4:0.0023975414 5:0.73467016 6:0.18495297 7:0.0062695923 8:0.91311795 9:0.92257327 10:0.96105999 11:0.58644474 12:0.23404256 13:0.72169811 14:0.68840742 15:0.74111676 16:0.71107084 #
-1 1:0.0012323944 2:0.046875 3:0.075000003 4:0.0047519216 5:0.021208093 6:0.5142349 7:0.30604982 8:0.48506004 9:0.4796375 10:0.16869491 11:0.004009828 12:0.025 13:0.13109756 14:0.17365044 15:0.14790997 16:0.18173727 #
1 5:0.033635247 6:0.097999997 7:0.366 8:0.59738106 9:0.59673887 10:0.079651088 11:0 13:0.12631579 14:0.1472647 15:0.14814815 16:0.16960728 #
-1 1:0.00021614722 2:0.015276146 3:0.085714288 4:0.0062452401 5:0.46277338 6:0.75386101 7:0.70115829 8:0.78872925 9:0.78364497 10:0.3509523 11:0.096045554 12:0.020833334 13:0.13756613 14:0.2145014 15:0.15952733 16:0.23651248 #
1 1:0.0099999998 2:0.049382716 3:0.19642857 4:0.0019796279 5:0.62465566 6:0.22509961 7:0.025896415 8:0.95244747 9:0.96015251 10:0.97281003 11:0.27778843 12:0.27848101 13:0.78772378 14:0.76566803 15:0.81449276 16:0.78332567 #
-1 1:0 2:0 3:0 4:0 5:0 6:0 7:0.00012410028 8:0.00012410028 9:0.58567971 10:0.58567971 11:0.82628745 12:0.82628745 13:0.76037663 14:0.76037663 15:0.93203682 16:0.93203682 17:0.93263745 18:0.93263745 19:0.56300175 20:0.56300175 21:0.067166418 22:0.067166418 25:0.17579472 26:0.17579472 27:0.30603832 28:0.30603832 29:0.20760627 30:0.20760627 31:0.3457098 32:0.3457098 #
-1 1:0.0015763103 2:0.027777778 3:0.13333334 4:0.0061538462 5:0.018750703 6:0.92390013 7:0.89655173 8:0.33161941 9:0.31265703 10:0.0095885163 11:0 12:0.037037037 13:0.058064517 14:0.14661437 15:0.066433564 16:0.15432371 #
1 1:0.021739131 2:1 5:0.69543165 6:0.28951487 7:0.067292646 8:0.95772713 9:0.95945138 10:0.93427539 11:0.28674966 13:0.65142858 14:0.66803747 15:0.69537812 16:0.71046406 #
-1 5:0.63827187 6:0.20011148 7:0.19788183 8:0.92177999 9:0.92033547 10:0.94373924 11:0.45394871 12:0.92307693 13:0.76701969 14:0.70940852 15:0.80133557 16:0.7477107 #
1 5:0.11716598 6:0.20192307 7:0.52644229 8:0.60206121 9:0.5935353 10:0.084571511 11:0.0042488999 13:0.13414635 14:0.1222927 15:0.17167382 16:0.15716638 #
-1 5:0.75667018 6:0.3953284 7:0.18721461 8:0.95080507 9:0.95221245 10:0.72560751 11:0.48901638 13:0.73624825 14:0.70728993 15:0.7972973 16:0.75453681 #
1 5:0.56526291 6:0.12 7:0.029333333 8:0.90132952 9:0.91609019 10:0.92312396 11:0.35280052 12:0.85416669 13:0.60784316 14:0.60586643 15:0.64748204 16:0.64748204 #
-1 5:0.54160988 6:0.24800709 7:0.17980514 8:0.89994508 9:0.9002862 10:0.45534456 11:0.31323734 12:0.88679248 13:0.71566266 14:0.69248432 15:0.77248675 16:0.74814266 #
1 5:0.081409469 6:1.0532213 7:1.7815126 8:0.64479536 9:0.6347816 10:0.095011972 11:0 13:0.1758794 14:0.14696938 15:0.20526315 16:0.17479828 #
1 1:0 2:0 3:0 4:0.00026784395 5:0.47105494 6:0.16752844 7:0.26008272 8:0.88516062 9:0.8855024 10:0.75902808 11:0.26317737 12:0.11764706 13:0.5887962 14:0.5881049 15:0.60794044 16:0.6086961 #
1 5:0.80543333 6:0.2372153 7:0.044907607 8:0.97419906 9:0.97511786 10:0.9714461 11:0.53726542 12:0.41999999 13:0.74611402 14:0.71540272 15:0.80063289 16:0.75912678 #
1 5:0.31505403 6:0.048405599 7:0.16471668 8:0.79706991 9:0.80110234 10:0.50677121 11:0.1072797 12:0.11111111 13:0.48037791 14:0.46582222 15:0.52329195 16:0.49507564 #
1 5:0.04502948 6:0.51839465 7:0.9498328 8:0.518516 9:0.5137977 10:0.056334201 11:0 13:0.12068965 14:0.11121628 15:0.14371258 16:0.12381171 #
1 5:0.23659016 6:0.21668909 7:0.0067294752 8:0.82460642 9:0.8287105 10:0.61357403 11:0.052856218 12:0.52272725 13:0.5106383 14:0.51658016 15:0.54789275 16:0.54271895 #
-1 5:0.64706397 6:0.16456391 7:0.12726276 8:0.8938008 9:0.89402246 10:0.48939085 11:0.39048693 12:0.92424244 13:0.69609082 14:0.65838659 15:0.75463623 16:0.70772982 #
-1 1:0.027006174 2:0.11111111 3:0.16666667 4:0.016224986 5:0.34438732 6:0.07772021 7:0.18911918 8:0.84582853 9:0.83822709 10:0.25225291 11:0.014136482 12:0.85714287 13:0.28961748 14:0.24934402 15:0.33707866 16:0.28557187 #
-1 1:0.0057142857 2:0 3:0.50671643 4:0.0031810296 5:0.2678715 6:0.19496268 7:0.027985075 8:0.87479812 9:0.87148958 10:0.37967095 11:0.063142873 12:0.8888889 13:0.40748897 14:0.38665348 15:0.44917259 16:0.3993986 #
-1 5:0.19676501 6:0.25324029 7:0.13359921 8:0.90114158 9:0.90042007 10:0.46895227 11:0.047043692 12:0.78260869 13:0.41826922 14:0.40943366 15:0.45128205 16:0.42632386 #
1 5:0.15573561 6:0.4834308 7:0.78752434 8:0.8640272 9:0.86625481 10:0.4099403 11:0.026574241 12:0.0625 13:0.43648207 14:0.35813582 15:0.49152541 16:0.38255379 #
1 5:0.11400222 6:3.5 7:4.9877453 8:0.62708229 9:0.6159997 10:0.077268682 11:0 13:0.17040358 14:0.11566674 15:0.19248827 16:0.1354752 #
-1 1:0.0061919503 2:0.16666667 3:0.011363637 4:0.0052551883 5:0.2441577 6:0.47554806 7:0.31450254 8:0.83484125 9:0.82933563 10:0.33907121 11:0.016089499 12:0.40625 13:0.25265393 14:0.27281821 15:0.28146452 16:0.29165348 #
-0.47411915659495207364670932292938 1:0.0020445252 2:0.017301038 3:0.041322313 4:0.0035862471 5:0.55005002 6:0.32096007 7:0.13340776 8:0.95010448 9:0.94962919 10:0.68914473 11:0.13259408 12:0.59090906 13:0.49458206 14:0.48288548 15:0.54568964 16:0.51330251 #
1 5:0.59209675 6:0.25568941 7:0.087014727 8:0.94582385 9:0.94939017 10:0.96478152 11:0.41105905 12:0.89090908 13:0.75297618 14:0.76166111 15:0.80511183 16:0.80382878 #
0.80169853707514704410641570575535 9:0.10278443 10:0.10278443 11:0.062234797 12:0.062234797 13:0.16195191 14:0.16195191 15:0.67741972 16:0.67741972 17:0.67749476 18:0.67749476 19:0.40170911 20:0.40170911 21:0.0029849999 22:0.0029849999 23:0.18181819 24:0.061538462 25:0.30769232 26:0.30769232 27:0.25539991 28:0.25539991 29:0.34419551 30:0.34419551 31:0.27593023 32:0.27593023 #
1 1:0.0045351475 2:0 3:0.25 4:0.042857144 5:0.37643445 6:0.35117057 7:0.18311037 8:0.89630896 9:0.89581931 10:0.46384341 11:0.070298888 12:0.89285713 13:0.46666667 14:0.45031965 15:0.54624277 16:0.50614065 #
-1 1:0 2:0 3:0 4:0.00025201612 5:0.1583586 6:0.44509518 7:0.29282576 8:0.77930713 9:0.77589309 10:0.22345896 11:0.021920746 12:0.083333336 13:0.23939393 14:0.28885776 15:0.28896105 16:0.33222836 #
1 5:0.086118817 6:0.58387393 7:0.46895275 8:0.72481489 9:0.69738442 10:0.070592746 11:0.0012313301 13:0.094736844 14:0.14549388 15:0.10290828 16:0.16039661 #
1 5:0.17453124 6:0.49002492 7:0.3117207 8:0.75591451 9:0.72258192 10:0.12423918 11:0 13:0.11403508 14:0.1518227 15:0.13043478 16:0.17025131 #
-1 5:0.39275095 6:0.22250639 7:0.034526855 8:0.83194792 9:0.82557219 10:0.51195729 11:0.17585735 12:0.42857143 13:0.61250001 14:0.49540168 15:0.66666669 16:0.52311909 #
1 1:0 2:0 3:0 4:0.0001114082 5:0.014612315 6:0.0023980816 7:0.27338129 8:0.60033482 9:0.59206724 10:0.05702566 11:0 12:0.008547009 13:0.074803151 14:0.087262228 15:0.08230453 16:0.09259259 #
1 5:0.027973205 6:0.91215152 7:0.88479745 8:0.64564848 9:0.63328815 10:0.044655934 11:0 13:0.048723899 14:0.089759164 15:0.057441253 16:0.10177553 #
1 5:0.63554192 6:0.15347625 7:0.12542577 8:0.93913603 9:0.94054741 10:0.91403466 11:0.40498024 12:0.92537314 13:0.66322702 14:0.62908947 15:0.71443409 16:0.68031967 #
1 5:0.61977851 6:0.2688053 7:0.13053097 8:0.94601834 9:0.9505617 10:0.94790578 11:0.38188294 12:0.88679248 13:0.78885633 14:0.77379465 15:0.81055903 16:0.79586488 #
1 5:0.56482071 6:0.21584386 7:0.079219289 8:0.94578546 9:0.95154381 10:0.97819442 11:0.35726297 12:0.89473683 13:0.70789474 14:0.725021 15:0.75644702 16:0.76081955 #
1 5:0.77015632 6:0.21884415 7:0.15420432 8:0.92942894 9:0.93017238 10:0.95916241 11:0.41623271 12:0.92307693 13:0.66844922 14:0.65485668 15:0.72115386 16:0.70401591 #
0.58537190617832379757601302117109 1:0 2:0 3:0 4:0.00026737968 5:0.038072117 6:0.7237277 7:0.64904165 8:0.73918873 9:0.73054469 10:0.088178433 11:0.0011881916 13:0.10272873 14:0.18129568 15:0.12164579 16:0.20756418 #
-1 5:0.39793119 6:0.21192053 7:0.50772625 8:0.87515032 9:0.88287669 10:0.74750048 11:0.25185579 12:0.41176471 13:0.6102941 14:0.47890246 15:0.6557377 16:0.50463396 #
-1 5:0.70575142 6:0.18755031 7:0.15052322 8:0.94251919 9:0.94242752 10:0.91759664 11:0.44537854 12:0.92063493 13:0.70212764 14:0.67780536 15:0.75791854 16:0.73266107 #
1 1:0.0067278286 2:0.024216523 3:0.066897348 4:0.0015450871 5:0.80201596 6:0.23222901 7:0.057896432 8:0.98105687 9:0.98265451 10:0.96608245 11:0.54106891 12:0.96774191 13:0.77941179 14:0.77119303 15:0.80378252 16:0.78542888 #
-1 1:0 2:0 3:0 4:0.00024813897 5:0.27830806 6:0.5106383 7:0.35638297 8:0.84669083 9:0.85112786 10:0.51521206 11:0.021969484 12:0.074074075 13:0.29283488 14:0.33384892 15:0.33333334 16:0.36700666 #
0.27903852035979070933535695075989 1:0 2:0 3:0 4:4.8660855e-05 5:0.019024445 6:0.79026216 7:0.72191012 8:0.53511858 9:0.50458848 10:0.049336009 11:0 12:0.011764706 13:0.08259587 14:0.11011423 15:0.10299003 16:0.12962884 #
-1 1:0.00023963134 2:0.005357143 3:0.039999999 4:0.0018851508 5:0.26838273 6:0.94316977 7:0.91140133 8:0.80623078 9:0.7998929 10:0.31676078 11:0.016980391 12:0.025 13:0.053435113 14:0.16765463 15:0.065975495 16:0.18994828 #
-1 1:9.861933e-06 2:0 3:0 4:2.2726258e-06 5:0.31643453 6:0.20524018 7:0.0087336246 8:0.86451495 9:0.8707093 10:0.66042554 11:0.16043158 13:0.57564574 14:0.58169603 15:0.62307692 16:0.61485499 #
-1 5:0.62311023 6:0.50756747 7:0.36464348 8:0.90993434 9:0.9110015 10:0.73284358 11:0.34703207 13:0.67196369 14:0.67190647 15:0.74238229 16:0.73132384 #
1 5:0.57663971 6:0.16745731 7:0.069734342 8:0.92178684 9:0.92233378 10:0.89256024 11:0.30044523 12:0.41176471 13:0.70175439 14:0.63891149 15:0.74378109 16:0.66360933 #
-1 5:0.47053057 6:0.6082328 7:1.0376153 8:0.92770875 9:0.92706716 10:0.52848351 11:0.021675993 12:0.90322578 13:0.36021507 14:0.24604182 15:0.40037951 16:0.26499906 #
-0.40740045771872246405109763145447 1:0.0018315018 2:0.025974026 3:0.15000001 4:0.0086690467 5:0.22202028 6:0.92367399 7:0.89909446 8:0.7439931 9:0.74249351 10:0.31484401 11:0.031205254 12:0.025 13:0.079866886 14:0.21535185 15:0.097069599 16:0.24458529 #
-1 1:0 2:0 3:0 4:2.890374e-05 5:0.26622614 6:0.2369338 7:0.020905923 8:0.81800491 9:0.82614338 10:0.57471752 11:0.078125596 12:0.097560972 13:0.47651008 14:0.46446362 15:0.51408452 16:0.4873603 #
1 5:0.6684463 6:0.22200772 7:0.050193049 8:0.95239478 9:0.95577055 10:0.96293837 11:0.45103484 12:0.89090908 13:0.77696079 14:0.75163978 15:0.80585104 16:0.78326219 #
1 5:0.10271541 6:0.071599044 7:0.36754176 8:0.67739964 9:0.65331936 10:0.06225542 11:0.0055659679 13:0.11261261 14:0.11578542 15:0.11574074 16:0.12540193 #
1 5:0.59703958 6:0.25258046 7:0.071038254 8:0.9521715 9:0.95353633 10:0.95464748 11:0.32412809 12:0.8888889 13:0.73706007 14:0.71242177 15:0.77324265 16:0.73885894 #
-1 5:0.75665182 6:0.4990297 7:0.34885803 8:0.95316613 9:0.9537496 10:0.71504647 11:0.47645891 12:0.61764705 13:0.64400494 14:0.64490235 15:0.70149255 16:0.68826526 #
1 5:0.59109718 6:0.26183844 7:0.089136489 8:0.94846189 9:0.95308834 10:0.94603479 11:0.33121997 12:0.89090908 13:0.71229696 14:0.72373861 15:0.75628144 16:0.75723332 #
-1 5:0.30654442 6:0.23736404 7:0.14843251 8:0.84190577 9:0.84760469 10:0.4742586 11:0.12010393 12:0.43396226 13:0.544586 14:0.51290751 15:0.5777027 16:0.54466331 #
-1 1:0.25 2:0.5 3:0.17370613 4:0.0049053635 5:0.34171286 6:0.033860046 7:0.19864559 8:0.81847101 9:0.82327789 10:0.58981681 11:0.19070536 12:0.64444447 13:0.47982064 14:0.43884996 15:0.50236964 16:0.45256189 #
1 1:0.0054945056 2:0.0064102565 3:0.2631579 4:0.0034421152 5:0.51129323 6:0.2319538 7:0.02694899 8:0.91580021 9:0.92006135 10:0.81255597 11:0.2708365 12:0.25882354 13:0.7537092 14:0.75075305 15:0.76923078 16:0.75545985 #
-0.64893885911956772361008916050196 5:0.78836954 6:0.42786616 7:0.25470835 8:0.94770503 9:0.95249856 10:0.85446119 11:0.5478096 12:0.61764705 13:0.59401196 14:0.61012161 15:0.6862464 16:0.6862464 #
-1 5:0.41511571 6:0.30901816 7:0.17205293 8:0.89314103 9:0.8898043 10:0.58365154 11:0.16898154 12:0.21052632 13:0.51490515 14:0.48791516 15:0.58003169 16:0.52782375 #
-0.04733863869842025451362133026123 1:0.00084593421 2:0.025641026 3:0.083333336 4:0.0069137169 5:0.17669314 6:0.92782307 7:0.91385335 8:0.55181915 9:0.58616632 10:0.31460324 11:0.040809717 12:0.021276595 13:0.049881235 14:0.14928952 15:0.058080807 16:0.17041245 #
-1 5:0.5048244 6:0.13615946 7:0.084222347 8:0.8763237 9:0.87564427 10:0.48970938 11:0.26684463 12:0.92537314 13:0.70739913 14:0.66121227 15:0.7603513 16:0.71433115 #
1 1:0.0059171598 2:0.0069444445 3:0.14 4:0.0051903115 5:0.54961467 6:0.27817747 7:0.050359711 8:0.91501641 9:0.91858977 10:0.86942059 11:0.2316976 12:0.31428573 13:0.5477941 14:0.5555591 15:0.63519311 16:0.61077815 #
-1 1:0.00015336247 2:0.0025575447 3:0.037500001 4:0.0025531915 5:0.16023503 6:0.98684996 7:0.98306435 8:0.66522515 9:0.66428798 10:0.29564428 11:0.011867288 12:0.028571429 13:0.022530328 14:0.12101535 15:0.025789812 16:0.13336445 #
1 1:0.0027434842 2:0.020408163 3:0.038062282 4:0.0046946062 5:0.35270318 6:0.26632047 7:0.18545994 8:0.89019096 9:0.89245284 10:0.43247885 11:0.19056371 12:0.5 13:0.44481605 14:0.46517515 15:0.49080881 16:0.50104481 #
1 5:0.1329955 6:1.680292 7:2.5664234 8:0.69250691 9:0.68387979 10:0.10305436 11:0.0019878449 13:0.16369048 14:0.14092688 15:0.18987341 16:0.16276968 #
1 1:0.012345679 2:0.046875 3:0.264 4:0.0024053196 5:0.67397022 6:0.296875 7:0.1140625 8:0.92113113 9:0.89942014 10:0.48210168 11:0.44187176 12:0.37288135 13:0.67741936 14:0.6634351 15:0.70175439 16:0.68589348 #
1 5:0.51579344 6:0.21568628 7:0.023342671 8:0.92585677 9:0.92503619 10:0.93320447 11:0.29780564 12:0.88461536 13:0.7368421 14:0.68243909 15:0.79768789 16:0.72661275 #
-1 5:0.71014935 6:0.38729301 7:0.20682663 8:0.94668168 9:0.95553964 10:0.77173024 11:0.52099222 12:0.68421054 13:0.65685022 14:0.66414738 15:0.73003197 16:0.71864229 #
1 5:0.50782907 6:0.297315 7:0.1237721 8:0.85994619 9:0.8626433 10:0.72383916 11:0.25661719 12:0.11458334 13:0.46170214 14:0.46089208 15:0.51877934 16:0.50644666 #
1 5:0.55268401 6:0.25719771 7:0.071976967 8:0.93783784 9:0.9457075 10:0.8668133 11:0.34558991 12:0.89090908 13:0.7562077 14:0.75838923 15:0.78817731 16:0.78432316 #
-1 1:2.2790464e-05 2:0 3:0 4:3.1295378e-05 5:0.16394635 6:0.58149779 7:0.48017621 8:0.76774663 9:0.76957184 10:0.55087757 11:0.060487546 13:0.34222221 14:0.43544185 15:0.37383178 16:0.45572394 #
1 1:0 2:0 3:0 4:1.9833005e-05 5:0.096964873 6:0.86700213 7:0.82925951 8:0.7060445 9:0.69368023 10:0.064047523 11:0.00092845107 13:0.074971162 14:0.13584794 15:0.093667544 16:0.15275706 #
1 1:0.002997003 2:0.018633541 3:0.038062282 4:0.0046778549 5:0.372035 6:0.098915987 7:0.025745258 8:0.86112386 9:0.86066926 10:0.4827168 11:0.091826409 12:0.52777779 13:0.52302629 14:0.49540114 15:0.56272399 16:0.5213818 #
1 5:0.61633307 6:0.26931733 7:0.08927232 8:0.92666113 9:0.92897201 10:0.87394154 11:0.35588339 12:0.89285713 13:0.75336325 14:0.73816723 15:0.78846157 16:0.77642328 #
-1 1:2.3041475e-05 2:0 3:0 4:3.0729519e-05 5:0.20627818 6:0.56213015 7:0.41814595 8:0.81145889 9:0.82601488 10:0.51812088 11:0.055624269 13:0.34166667 14:0.39941716 15:0.39819005 16:0.43999451 #
-1 1:0 2:0 3:0 4:0.0002805049 5:0.23801252 6:0.37975952 7:0.18537074 8:0.85488874 9:0.85704374 10:0.50244063 11:0.023030635 12:0.074074075 13:0.31784841 14:0.33597061 15:0.35809019 16:0.36644757 #
-1 5:0.43813658 6:0.26298702 7:0.053571429 8:0.89012897 9:0.8956821 10:0.73857719 11:0.19809704 12:0.42857143 13:0.64705884 14:0.64317566 15:0.65765768 16:0.65325856 #
1 5:0.56976235 6:0.27865404 7:0.12933753 8:0.93033308 9:0.93450922 10:0.93705678 11:0.34955215 12:0.89285713 13:0.71327013 14:0.71764904 15:0.76142132 16:0.75949609 #
-1 5:0.61129797 6:0.16736169 7:0.11036975 8:0.92059076 9:0.92072654 10:0.82172942 11:0.34140989 12:0.921875 13:0.66787004 14:0.62913108 15:0.72043014 16:0.68004096 #
1 1:0.027777778 2:0.039999999 3:0.13609467 4:0.0046326746 5:0.5531562 6:0.28790459 7:0.095400341 8:0.87365884 9:0.87316394 10:0.77587289 11:0.34245405 12:0.2682927 13:0.71428573 14:0.696733 15:0.72826087 16:0.71292734 #
1 5:0.66443163 6:0.19551525 7:0.13328294 8:0.93653136 9:0.93718857 10:0.92424375 11:0.33184248 12:0.91071427 13:0.69372696 14:0.66757071 15:0.74153847 16:0.71422434 #
1 5:0.67520881 6:0.23125683 7:0.13289617 8:0.88599896 9:0.88792205 10:0.66016984 11:0.37265268 12:0.92424244 13:0.65415245 14:0.62603229 15:0.69677418 16:0.66106069 #
1 5:0.54285896 6:0.25937185 7:0.10739615 8:0.91842449 9:0.92273873 10:0.70461351 11:0.29749227 12:0.89090908 13:0.6721698 14:0.69487447 15:0.71501273 16:0.72906148 #
1 5:0.55962604 6:0.30551818 7:0.13055182 8:0.94301069 9:0.9478153 10:0.90871394 11:0.32174179 12:0.89090908 13:0.68410856 14:0.69656265 15:0.73504275 16:0.73741001 #
1 5:0.10257242 6:0.73246026 7:0.62301219 8:0.69686949 9:0.68450785 10:0.077223204 11:0 13:0.10843374 14:0.11535934 15:0.13215859 16:0.13675411 #
-1 1:0.000483635 2:0.0089076422 3:0.037142858 4:0.00067081524 5:0.053196419 6:0.98955435 7:0.98711699 8:0.4151296 9:0.4301236 10:0.24336308 11:0.01532522 12:0.024390243 13:0.015426497 14:0.10453278 15:0.016949153 16:0.10957029 #
-1 1:0.010380623 3:0.29862127 4:0.00079617836 5:0.21568261 6:0.34300792 7:0.084432721 8:0.84924877 9:0.84336311 10:0.46648362 11:0.059833989 12:0.69999999 13:0.45777777 14:0.48793423 15:0.49295774 16:0.51000327 #
1 1:0.0099999998 2:0.012345679 3:0.12396694 4:0.0046175737 5:0.55221587 6:0.25903615 7:0.018072288 8:0.87059116 9:0.87679064 10:0.91479868 11:0.38090795 12:0.37931034 13:0.70769233 14:0.71985382 15:0.76436782 16:0.76218081 #
-1 1:0.00023970037 2:0.0069419071 3:0.017730497 4:0.00059427368 5:0.096787326 6:0.88945794 7:0.86683738 8:0.17632723 9:0.17852657 10:0.15606472 11:0.012702947 12:0.030303031 13:0.041619796 14:0.11239148 15:0.048309177 16:0.11706721 #
-1 1:0.0007369197 2:0.030303031 3:0.083333336 4:0.0051020407 5:0.3369101 6:0.85942858 7:1.4411429 8:0.83063811 9:0.83280671 10:0.31503224 11:0.052420914 12:0.024390243 13:0.30843374 14:0.23760609 15:0.34243175 16:0.25853351 #
1 5:0.54454529 6:0.2411714 7:0.10938846 8:0.85953897 9:0.86556143 10:0.90777522 11:0.29355744 12:0.89285713 13:0.6968326 14:0.71531945 15:0.72195125 16:0.73646426 #
1 5:0.59167314 6:0.26117885 7:0.13821138 8:0.90295047 9:0.905029 10:0.64657533 11:0.36743465 12:0.89090908 13:0.69974554 14:0.72237283 15:0.75630254 16:0.76712286 #
-1 5:0.27540907 6:0.71036208 7:1.1285893 8:0.71850115 9:0.72485524 10:0.47162944 11:0.11799802 12:0.42857143 13:0.5387454 14:0.42699683 15:0.5925926 16:0.45345616 #
-1 1:8.0482248e-05 2:0.013468013 3:0.022857143 4:0.0012282304 5:0.023066761 6:0.65084076 7:0.80909991 8:0.49383578 9:0.49288812 10:0.37334129 11:0.0043339096 12:0.014492754 13:0.15730338 14:0.14176199 15:0.17349398 16:0.1427507 #
-1 1:8.5246953e-05 2:0.0042735045 3:0.0061728396 4:0.00083212298 5:0.32579917 6:0.82663846 7:0.76061147 8:0.6489467 9:0.64963454 10:0.3191278 11:0.069506817 12:0.021739131 13:0.14316013 14:0.27958319 15:0.16946107 16:0.3100116 #
-1 5:0.84689432 6:0.54672611 7:0.45488304 8:0.80635679 9:0.81037641 10:0.55692321 11:0.80520105 12:0.61764705 13:0.31222221 14:0.4711279 15:0.31534263 16:0.48678812 #
1 1:0.0078125 2:0.03125 3:0.097222224 4:0.0021828222 5:0.66877306 6:0.17694806 7:0.015422078 8:0.92518622 9:0.93105763 10:0.96053153 11:0.34881163 12:0.21782178 13:0.67197454 14:0.66265303 15:0.69858158 16:0.6888786 #
-1 1:0 2:0 3:0 4:0.00014788524 5:0.18532677 6:0.0057379664 7:0.28020403 8:0.73781306 9:0.73845834 10:0.30532342 11:0.046799209 12:0.071428575 13:0.43306011 14:0.36240906 15:0.51857585 16:0.41330254 #
-1 1:4.7907568e-05 2:0.01097561 3:0.015810277 4:0.0013404826 5:0.43132359 6:7.5999999 7:10.381905 8:0.90284503 9:0.90140778 10:0.46617028 11:0.0366344 12:0.030303031 13:0.5575397 14:0.24018459 15:0.60408163 16:0.26674569 #
1 1:0.016528925 2:0.020408163 3:0.087235995 4:0.0014339761 5:0.67765826 6:0.27126321 7:0.074484147 8:0.94762284 9:0.95578182 10:0.92857438 11:0.43121037 12:0.34920636 13:0.70212764 14:0.69357914 15:0.74008811 16:0.72202486 #
1 1:0 2:0 3:0 4:3.3843236e-05 5:0.10109977 6:0.83089709 7:0.79936945 8:0.67344147 9:0.65408438 10:0.054246612 11:0.0013793366 13:0.074394464 14:0.11990765 15:0.091182366 16:0.13670507 #
-1 1:0 2:0.023809524 5:0.23881134 6:0.18556701 7:0.66881442 8:0.7959528 9:0.7930457 10:0.46204066 11:0.026639618 13:0.42345276 14:0.3648653 15:0.47463769 16:0.39037919 #
1 5:0.12689102 6:1.2924901 7:1.9104084 8:0.68000799 9:0.66377574 10:0.087770149 11:0.0013393861 13:0.15339233 14:0.1360434 15:0.18322982 16:0.15892865 #
-1 1:0.00075339025 2:0.045454547 3:0.11111111 4:0.0068855933 5:0.087138683 6:0.92034549 7:0.90163147 8:0.6367048 9:0.63374114 10:0.25033927 11:0.016751759 12:0.024390243 13:0.087336242 14:0.19516028 15:0.096273296 16:0.20574969 #
-1 1:0.00078193919 2:0.020555556 3:0.015873017 4:0.0010835645 5:0.43316725 6:0.99559218 7:0.99443221 8:0.71953917 9:0.71703273 10:0.29427189 11:0.041984037 12:0.027027028 13:0.010260795 14:0.090601526 15:0.012613522 16:0.10252447 #
1 1:0 2:0 3:0 4:5.4043099e-05 5:0.047231086 6:0.81652731 7:0.74422038 8:0.58102649 9:0.57351732 10:0.071153037 11:0.0009861401 13:0.10260586 14:0.15567891 15:0.13863216 16:0.19623694 #
-1 1:9.4465759e-05 2:0.0069264071 3:0.0087412586 4:0.0011485746 5:0.34040329 6:1.3471742 7:2.2422144 8:0.75467843 9:0.76046866 10:0.30735639 11:0.039349969 12:0.023809524 13:0.38024691 14:0.26181838 15:0.42894736 16:0.28397903 #
1 5:0.71175653 6:0.17911597 7:0.045125518 8:0.9593358 9:0.9595871 10:0.82638896 11:0.34847343 12:0.56 13:0.68729424 14:0.69495124 15:0.7352246 16:0.72724515 #
-1 1:0 2:0 3:0 4:6.8634181e-05 5:0.26275361 6:0.30535713 7:0.10357143 8:0.83811772 9:0.83653826 10:0.41027278 11:0.04161885 13:0.34962407 14:0.37791571 15:0.38709676 16:0.40108776 #
1 5:0.1088333 6:0.04821803 7:0.22222222 8:0.63852394 9:0.62625098 10:0.071252026 11:0 13:0.097959183 14:0.10612599 15:0.11016949 16:0.11283039 #
1 1:0 2:0 3:0 4:0.00013495504 5:0.018218318 6:0.62034512 7:0.51771116 8:0.70279771 9:0.69405305 10:0.075399838 11:0.0013258891 12:0.0083333338 13:0.094736844 14:0.14385736 15:0.10666667 16:0.16329932 #
-1 1:0.0023096821 2:0.032763533 3:0.33333334 4:0.025390625 5:0.21668944 6:0.75 7:0.6875 8:0.76971364 9:0.76672715 10:0.16236903 11:0.019827561 12:0.023809524 13:0.14973262 14:0.25866747 15:0.16573034 16:0.26912877 #
1 1:1.507e-05 2:0 3:0 4:7.4678879e-05 5:0.11304662 6:0.62621361 7:0.5006935 8:0.65804505 9:0.64208138 10:0.096915618 11:0.0010701671 13:0.14990859 14:0.19445023 15:0.19066937 16:0.23199695 #
-1 1:0.00042626573 2:0.013333334 3:0.021276595 4:0.0008938394 5:0.17732057 6:0.98986411 7:0.98733008 8:0.68830514 9:0.6780324 10:0.3278898 11:0.032892838 12:0.027777778 13:0.022205207 14:0.12382313 15:0.023549201 16:0.12681633 #
-1 5:0.10209199 6:0.67317939 7:0.57548845 8:0.66481513 9:0.66821671 10:0.44578981 11:0.012431595 13:0.2086331 14:0.27837932 15:0.23420075 16:0.30558771 #
1 1:0 2:0 3:0 4:2.2122671e-05 5:0.083700962 6:0.71734357 7:0.64434689 8:0.72277367 9:0.7147212 10:0.073919699 11:0.001024004 13:0.10815307 14:0.1356905 15:0.13483146 16:0.15838221 #
-1 1:0.0037037036 2:0.25 3:0.011363637 4:0.0041578575 5:0.18493435 6:0.0016806723 7:0.31428573 8:0.74512279 9:0.75000864 10:0.50729614 11:0.027391935 12:0.40625 13:0.36397058 14:0.30619404 15:0.40944883 16:0.3275075 #
1 5:0.17123622 6:0.18058252 7:0.5708738 8:0.72400033 9:0.71231157 10:0.099363118 11:0 13:0.13357401 14:0.14969623 15:0.16287878 16:0.17488347 #
1 5:0.14604208 6:0.79028696 7:1.388521 8:0.67956781 9:0.66755056 10:0.12113205 11:0 13:0.24264705 14:0.12177204 15:0.27049181 16:0.13165289 #
1 5:0.066355892 6:0.41657811 7:0.27417642 8:0.62459761 9:0.61866516 10:0.065704517 11:0.0036632959 13:0.088785045 14:0.13566896 15:0.10741688 16:0.14798827 #
1 5:0.091430053 6:0.013173653 7:0.18083832 8:0.67894191 9:0.67351097 10:0.11852678 11:0.0011478341 13:0.14357683 14:0.15473875 15:0.1530343 16:0.16577046 #
-1 1:0.00047976972 2:0.009214744 3:0.044444446 4:0.0035511365 5:0.095330134 6:0.84493876 7:0.84880722 8:0.33369809 9:0.33485487 10:0.26309922 11:0.013232662 12:0.033333335 13:0.059380379 14:0.14371203 15:0.065839693 16:0.15033858 #
1 5:0.13736562 6:1.1757215 7:1.8089983 8:0.80003011 9:0.78317422 10:0.20457742 11:0.011307329 13:0.33402923 14:0.23977251 15:0.39954853 16:0.27680284 #
-1 1:0 2:0 3:0 4:8.3784093e-05 5:0.19825484 6:0.051282052 7:0.33076924 8:0.80722821 9:0.80276692 10:0.36656728 11:0.031041667 12:0.05882353 13:0.39846742 14:0.3231366 15:0.40663901 16:0.32686102 #
1 1:0 3:0 4:3.8933231e-05 5:0.054631311 6:0.89278752 7:1.2962962 8:0.59469128 9:0.57408404 10:0.074771315 11:0 12:0.0089285718 13:0.11743772 14:0.12231482 15:0.14393939 16:0.14941651 #
1 5:0.19407509 6:0.86243194 7:0.81016332 8:0.81461543 9:0.80079406 10:0.18171725 11:0.0032885233 13:0.15183246 14:0.18497387 15:0.21348314 16:0.23549008 #
1 1:0 3:0 4:6.939625e-05 5:0.059235413 6:0.21161826 7:0.0082987556 8:0.64218527 9:0.6316523 10:0.077303238 11:0.001316656 12:0.0089285718 13:0.12365592 14:0.14491685 15:0.13802817 16:0.16128546 #
-1 1:0 2:0 3:0 4:0.00024624477 5:0.25160152 6:0.18378378 7:0.01945946 8:0.86880422 9:0.8620894 10:0.50536114 11:0.026449205 12:0.063492067 13:0.32311979 14:0.29823631 15:0.39877301 16:0.34966457 #
0.42836395491722045747451375063974 1:0.02 2:1 5:0.67166442 6:0.37922242 7:0.11982154 8:0.94358438 9:0.94401807 10:0.63735598 11:0.31418273 13:0.59957629 14:0.61985236 15:0.63218391 16:0.65196818 #
1 5:0.089886554 6:0.51927197 7:0.38650963 8:0.69263011 9:0.66776562 10:0.072734684 11:0.0089004226 13:0.10182767 14:0.14085904 15:0.11516854 16:0.16019537 #
1 5:0.066376388 6:0.95075476 7:0.93541205 8:0.71761024 9:0.68006206 10:0.051292367 11:0 13:0.048846677 14:0.10385068 15:0.064102568 16:0.12391089 #
-1 1:0.0011494253 2:0.021867115 3:0.041666668 4:0.0023967552 5:0 6:0.99669117 7:0.99558824 8:0.30171466 9:0.30125216 10:0.042141568 11:0 12:0.024390243 13:0.0049652434 14:0.055707064 15:0.0053879311 16:0.058029793 #
1 1:0.021739131 2:1 5:0.54625934 6:0.22829342 7:0.017215569 8:0.94470757 9:0.94517744 10:0.94367301 11:0.28509459 13:0.75321335 14:0.74969745 15:0.79144382 16:0.78208965 #
-1 5:0.82588691 6:0.37926278 7:0.2004731 8:0.95827442 9:0.96067929 10:0.85339034 11:0.45525175 12:0.62376237 13:0.69519341 14:0.72122276 15:0.76058394 16:0.78079271 #
0.47479205678536118284682743251324 5:0.026588224 6:38.266666 7:46.833332 8:0.27501187 9:0.27040166 10:0.019823749 11:0 12:0.0089285718 13:0.32142857 14:0.090913728 15:0.35714287 16:0.10768262 #
1 1:0 2:0 3:0 4:3.0534353e-05 5:0.076423936 6:0.024590164 7:0.26434427 8:0.55613464 9:0.5570128 10:0.065586284 11:0 13:0.12209302 14:0.10048088 15:0.16666667 16:0.11952286 #
-1 1:2.9342724e-05 2:0 3:0 4:7.5714554e-05 5:0.075949259 6:0.23146944 7:0.071521454 8:0.73282713 9:0.73642331 10:0.18423553 11:0.0062418524 13:0.22250639 14:0.24399771 15:0.26595744 16:0.26631182 #
-1 5:0.35496691 6:0.56234097 7:1.0597965 8:0.83995908 9:0.84516025 10:0.36661381 11:0.16338584 12:0.40384614 13:0.63913041 14:0.47425961 15:0.71078432 16:0.5114519 #
1 5:0.11893577 6:0.51934427 7:0.34885246 8:0.7713716 9:0.75064528 10:0.1621099 11:0 13:0.1234375 14:0.18883154 15:0.14188035 16:0.21200666 #
-1 1:0.00053126895 2:0.013221154 3:0.03125 4:0.0016547862 5:0.10440528 6:0.99339271 7:0.99109453 8:0.64461529 9:0.63751256 10:0.094125658 11:0 12:0.033333335 13:0.014855356 14:0.1118034 15:0.018041236 16:0.12310418 #
1 1:0 2:0 3:0 4:9.7243159e-05 5:0.054878257 6:0.56752658 7:0.44688922 8:0.64935815 9:0.63962948 10:0.089650519 11:0.00098763232 12:0.0093457941 13:0.10350877 14:0.15658857 15:0.13207547 16:0.18857037 #
-1 1:0.0010542803 2:0.023848685 3:0.0072115385 4:0.00039135231 5:0.20380408 6:0.96369636 7:0.9471947 8:0.48640105 9:0.49595147 10:0.23139189 11:0.068274006 12:0.041666668 13:0.056047197 14:0.21517402 15:0.063829787 16:0.24141121 #
1 5:0.13513659 6:0.12305516 7:0.1513437 8:0.72929138 9:0.72223765 10:0.11806967 11:0.0039651957 13:0.15126051 14:0.17010996 15:0.16231884 16:0.18416668 #
-1 1:0.00055991043 2:0.043749999 3:0.044444446 4:0.0034877232 5:0.24484622 6:0.96746278 7:0.95846313 8:0.78042436 9:0.77597809 10:0.16521552 11:0.022034578 12:0.034482758 13:0.043057997 14:0.16261818 15:0.051909894 16:0.18429795 #
-1 5:0.42162555 6:0.25882354 7:0.54588234 8:0.86025763 9:0.86346853 10:0.70010221 11:0.17621198 12:0.42857143 13:0.54605263 14:0.46640763 15:0.57534248 16:0.49280638 #
-1 1:0.0023208424 2:0.020155039 3:0.09375 4:0.0055783428 5:0.071044944 6:0.9773519 7:0.97038329 8:0.45107812 9:0.45192531 10:0.077309743 11:0.019852318 12:0.034482758 13:0.023985241 14:0.13161562 15:0.025145067 16:0.13476026 #
1 5:0.18901132 6:0.63710779 7:1.1336972 8:0.77436215 9:0.76267517 10:0.13993397 11:0.014839964 13:0.19491525 14:0.18498509 15:0.22781065 16:0.21262607 #
1 5:0.034142178 6:0.96132362 7:0.94907606 8:0.65978664 9:0.63865936 10:0.059573244 11:0 13:0.060880829 14:0.140477 15:0.077531643 16:0.16356613 #
1 5:0.0767847 6:0.82198662 7:0.76841515 8:0.74526155 9:0.71692103 10:0.076426648 11:0 13:0.10173697 14:0.13513596 15:0.13142857 16:0.15773231 #
-1 1:0 2:0 3:0 4:0.00020811654 5:0.26730955 6:0.32459018 7:0.65081966 8:0.81824243 9:0.81922179 10:0.29837734 11:0.045375351 12:0.074074075 13:0.41843972 14:0.33345863 15:0.4576923 16:0.35548529 #
1 1:0 2:0 3:0 4:8.361204e-06 5:0.025541695 6:0.8855496 7:0.87072867 8:0.44675702 9:0.44200045 10:0.034338683 11:0.0012237455 13:0.048235293 14:0.10165741 15:0.066929132 16:0.12810351 #
-1 1:4.9982507e-05 2:0 3:0.00031289112 4:8.1767692e-05 5:0.083424859 6:0.5625 7:0.38541666 8:0.64862013 9:0.65018368 10:0.19307086 11:0.0051336759 13:0.1878453 14:0.23883136 15:0.19444445 16:0.24221598 #
-1 1:0.0001250739 2:0.0038314175 3:0.1 4:0.006663335 5:0.078982189 6:0.89157218 7:0.87826514 8:0.63274348 9:0.62907857 10:0.073118024 11:0.0062680957 12:0.016666668 13:0.087882824 14:0.20501442 15:0.098124102 16:0.22398373 #
-1 1:0.00059346342 2:0.014100609 3:0.075000003 4:0.0055149416 5:0.21358527 6:0.044417769 7:0.27130851 8:0.81838089 9:0.81682801 10:0.32463399 11:0.019105706 12:0.03125 13:0.28199053 14:0.26294878 15:0.32070708 16:0.28399482 #
-1 1:0.00079090463 2:0.012507445 3:0.011363637 4:0.00084284728 5:0.18614237 6:0.96472859 7:0.95921743 8:0.68541962 9:0.68621892 10:0.19974729 11:0.0086390972 12:0.033333335 13:0.041478131 14:0.15689783 15:0.047736626 16:0.16982602 #
-1 1:0.001 2:0.011934012 3:0.050000001 4:0.0028609154 5:0.044668347 6:0.95848161 7:0.94899172 8:0.59113461 9:0.58327442 10:0.17700575 11:0 12:0.022222223 13:0.035051547 14:0.13437581 15:0.036016949 16:0.13832572 #
-1 1:0.0006940313 2:0.021568628 3:0.1 4:0.010204081 5:0.16398135 6:0.012704174 7:0.26497278 8:0.8375572 9:0.83623952 10:0.36635095 11:0.0091426168 12:0.023255814 13:0.26351351 14:0.24092451 15:0.28719723 16:0.25590482 #
-1 1:0.00030593318 2:0.014204546 3:0.025 4:0.002561213 5:0.21460304 6:0.79396987 7:1.361809 8:0.680287 9:0.67822498 10:0.2747601 11:0.026314467 12:0.023809524 13:0.29807693 14:0.21914539 15:0.32894737 16:0.23592256 #
-1 1:0.0012157277 2:0.021419829 3:0.05882353 4:0.0027542373 5:0.080174282 6:0.97712415 7:0.97058821 8:0.51865458 9:0.54376996 10:0.22410159 11:0 12:0.020833334 13:0.032332562 14:0.14681636 15:0.034739453 16:0.15218291 #
-1 1:0 2:0 3:0 4:0.00034317089 5:0.14167884 6:0.49512196 7:0.35731706 8:0.80601615 9:0.80556124 10:0.32460758 11:0.022274712 12:0.074074075 13:0.26502731 14:0.32109147 15:0.29885057 16:0.34574589 #
-1 1:0.00034133575 2:0.0089947088 3:0.0043010754 4:0.00076332374 5:0.18008536 6:0.30180722 7:0.063855425 8:0.66577995 9:0.66700608 10:0.35835743 11:0.0057856641 12:0.025 13:0.15751445 14:0.1746757 15:0.18316101 16:0.19264229 #
-1 1:0.00016451052 2:0.012426901 3:0.035294119 4:0.0025311986 5:0.032928269 6:0.85273576 7:0.85157162 8:0.40709847 9:0.40725291 10:0.19461706 11:0.0060090702 12:0.028571429 13:0.070962481 14:0.18376979 15:0.086720869 16:0.20877609 #
-1 1:0.0004517432 2:0.016129032 3:0.1 4:0.0070546735 5:0.20955677 6:0.6708464 7:0.85788924 8:0.66783518 9:0.66265815 10:0.19799817 11:0.040023591 12:0.022727273 13:0.30958903 14:0.26248538 15:0.33522728 16:0.272681 #
-1 1:0.00083014049 2:0.014230769 3:0.088888891 4:0.0028534371 5:0.051015373 6:0.96330845 7:0.95708954 8:0.64687687 9:0.64712346 10:0.16290285 11:0.0037666988 12:0.035714287 13:0.048458152 14:0.19064 15:0.051321927 16:0.19619237 #
-1 1:0.00088313216 2:0.0194508 3:0.075000003 4:0.0046835272 5:0.12326915 6:0.87096775 7:0.85388994 8:0.63363653 9:0.63109827 10:0.25408915 11:0.0087379301 12:0.023809524 13:0.072761193 14:0.18632515 15:0.0815534 16:0.19728966 #
1 1:0.0022163121 2:1 5:0.59416968 6:0.32523698 7:0.056872036 8:0.95107317 9:0.95360863 10:0.77819628 11:0.33990729 12:0.24277456 13:0.65166342 14:0.65234375 15:0.68240345 16:0.68461066 #
-1 1:0 2:0 3:0 4:0.00026881721 5:0.22793339 6:0.34285715 7:0.13376623 8:0.78880805 9:0.78626913 10:0.35872284 11:0.022350704 12:0.074074075 13:0.27777779 14:0.28405797 15:0.31874999 16:0.31726629 #
1 5:0.078471914 6:0.71731162 7:0.62647659 8:0.55718005 9:0.52662033 10:0.076132007 11:0.0013665676 13:0.11919504 14:0.14565039 15:0.17105263 16:0.19092889 #
-1 1:0.00022395859 2:0.0079501914 3:0.018181818 4:0.00065173849 5:0.15257591 6:0.89306277 7:0.88538527 8:0.46201649 9:0.46031523 10:0.17745072 11:0.041587971 12:0.027027028 13:0.068965517 14:0.17562224 15:0.084727466 16:0.19808979 #
1 5:0.10638166 6:0.033450704 7:0.20246479 8:0.59642124 9:0.59131962 10:0.093746044 11:0.006337529 13:0.11785714 14:0.13683572 15:0.13688213 16:0.15466464 #
-1 1:0.0018527668 2:0.022029897 3:0.07692308 4:0.0042098444 5:0.15042913 6:0.8172043 7:0.76612902 8:0.80999386 9:0.80544668 10:0.21372542 11:0.0034254612 12:0.041666668 13:0.11538462 14:0.19955704 15:0.12149533 16:0.20660965 #
1 1:0 3:0 4:9.4206312e-05 5:0.068229161 6:0.55808383 7:0.39281437 8:0.6142866 9:0.59923607 10:0.12911834 11:0.0048266021 12:0.0089285718 13:0.14861462 14:0.22372323 15:0.16622691 16:0.24462561 #
-1 1:0.0018768597 2:0.021594685 3:0.071428575 4:0.0029438406 5:0.153852 6:0.91078669 7:0.89375508 8:0.66795957 9:0.66751903 10:0.24053909 11:0.037963111 12:0.028571429 13:0.078299776 14:0.19509974 15:0.086448595 16:0.20651387 #
1 5:0.11648691 6:0.52739727 7:0.3321918 8:0.63778359 9:0.62935436 10:0.083519079 11:0 13:0.10204082 14:0.1006445 15:0.13872832 16:0.12444257 #
1 1:0 2:0 3:0 4:1.8459948e-05 5:0.11946261 6:0.84551448 7:0.79363716 8:0.74339414 9:0.72836375 10:0.12070954 11:0.0026778309 13:0.10899654 14:0.20698917 15:0.13927856 16:0.24111676 #
-1 1:0.0012540659 2:0.013605442 3:0.083333336 4:0.0019864608 5:0.131221 6:0.90359479 7:0.8594771 8:0.56840342 9:0.56396925 10:0.21849881 11:0.034893159 12:0.030303031 13:0.1021021 14:0.2311001 15:0.10658307 16:0.23983541 #
1 5:0.098983862 6:0.026595745 7:0.2109929 8:0.6136716 9:0.61445314 10:0.085592657 11:0 13:0.10616438 14:0.12996425 15:0.12720849 16:0.14909932 #
1 5:0.25587586 6:0.90257496 7:0.87711376 8:0.74486464 9:0.72439063 10:0.059024602 11:0.0055800211 13:0.079279967 14:0.18623146 15:0.095302016 16:0.21430372 #
-1 1:0.0011961722 2:0.022794118 3:0.125 4:0.0071271928 5:0.085969262 6:0.92403692 7:0.89744979 8:0.65150291 9:0.64979303 10:0.18743238 11:0.0057873446 12:0.029411765 13:0.05944518 14:0.15318355 15:0.061452515 16:0.15468812 #
1 1:0 3:0 4:7.905138e-05 5:0.12393528 6:0.88838267 7:1.5763098 8:0.684443 9:0.68044537 10:0.13112575 11:0.0073336568 12:0.0089285718 13:0.18067227 14:0.15467364 15:0.21212122 16:0.1766721 #
-1 1:0 2:0 3:0 4:0.00010958904 5:0.13184179 6:0.67753625 7:1.0362319 8:0.81128359 9:0.82007676 10:0.47637737 11:0.030250713 13:0.40875912 14:0.27295545 15:0.42537314 16:0.27966726 #
1 1:1.5494506e-05 2:0 3:0 4:8.6203399e-05 5:0.10733023 6:0.76555026 7:0.68682033 8:0.72148955 9:0.713229 10:0.11621919 11:0.002521669 13:0.11785298 14:0.18992124 15:0.15106952 16:0.22641517 #
-1 1:0.002119642 2:0.024801588 3:0.1 4:0.005930657 5:0.036195863 6:0.9158383 7:0.89264411 8:0.59585118 9:0.59305537 10:0.22911648 11:0.0050259032 12:0.021739131 13:0.062600322 14:0.15105277 15:0.080645159 16:0.18770541 #
-1 1:0.0003847921 2:0.008201058 3:0.014285714 4:0.00067259936 5:0.11781649 6:0.96169919 7:0.95160168 8:0.55292201 9:0.54605204 10:0.25366157 11:0.010909542 12:0.027027028 13:0.048094373 14:0.17431967 15:0.054835495 16:0.1883661 #
-1 1:0.0012698412 2:0.016903313 3:0.090909094 4:0.0051100631 5:0.28707513 6:0.91417551 7:0.88556737 8:0.87250531 9:0.86867619 10:0.26574317 11:0.079464644 12:0.027777778 13:0.098347105 14:0.25673375 15:0.1132917 16:0.2751846 #
1 5:0.14197512 6:0.60226232 7:0.47538978 8:0.74033207 9:0.72112662 10:0.080788933 11:0.00048026434 13:0.085850559 14:0.16923262 15:0.10607357 16:0.20179628 #
-1 1:0.0031055901 2:0.028490029 3:0.095238097 4:0.006793478 5:0.23723134 6:0.80745339 7:0.74844718 8:0.63683492 9:0.63815302 10:0.31500301 11:0.081747815 12:0.014705882 13:0.092348285 14:0.1946657 15:0.099462368 16:0.20221296 #
1 1:0 2:0 3:0 4:7.1500071e-05 5:0.065052673 6:0.90987653 7:0.89259261 8:0.54944319 9:0.53548563 10:0.029593835 11:0 13:0.050518136 14:0.10520817 15:0.062590972 16:0.12160583 #
1 1:0 3:0 4:5.3792362e-05 5:0.095484436 6:0.33069083 7:0.200453 8:0.60735977 9:0.60217506 10:0.078507438 11:0 12:0.0089285718 13:0.098086126 14:0.13865198 15:0.1122449 16:0.15121078 #
1 5:0.095167577 6:0.12415654 7:0.16329284 8:0.73727912 9:0.71622872 10:0.060192242 11:0.0010886273 13:0.082725063 14:0.10606889 15:0.089285716 16:0.1181139 #
1 5:0.12615025 6:0.42997199 7:0.87394959 8:0.74867344 9:0.73813522 10:0.081547365 11:0 13:0.091811411 14:0.11307989 15:0.11764706 16:0.13613757 #
-1 1:5.2709256e-05 2:0 3:0 4:9.5235075e-05 5:0.18850857 6:0.58163267 7:0.46938777 8:0.80355126 9:0.81521648 10:0.47734979 11:0.037019901 13:0.30357143 14:0.40810663 15:0.32692307 16:0.43247858 #
-1 1:0.0024414062 2:0.032763533 3:0.125 4:0.006052928 5:0.14553975 6:0.92705166 7:0.89969605 8:0.76543844 9:0.76157755 10:0.19955091 11:0.011895774 12:0.03846154 13:0.053533189 14:0.148121 15:0.059907835 16:0.15979514 #
1 1:0 3:0 4:9.7228971e-05 5:0.016198672 6:0.48711658 7:0.34846625 8:0.60957533 9:0.60701048 10:0.094142132 11:0 12:0.0089285718 13:0.10199005 14:0.14905418 15:0.11873351 16:0.16681777 #
1 5:0.21577947 6:0.44805655 7:0.29681978 8:0.80585665 9:0.78813362 10:0.07270705 11:0.005899224 13:0.10308183 14:0.15789314 15:0.126021 16:0.18492338 #
1 5:0.16285254 6:1.0309918 7:1.75 8:0.72612828 9:0.69516963 10:0.10837758 11:0.0011065224 13:0.16165413 14:0.13923912 15:0.18503937 16:0.16233943 #
1 5:0.057763897 6:0.060433295 7:0.12428734 8:0.59115767 9:0.58800364 10:0.099146038 11:0 13:0.14395887 14:0.16108964 15:0.16343491 16:0.17278147 #
1 5:0.013745727 6:1.4819278 7:1.9698795 8:0.54834348 9:0.54722095 10:0.15491629 11:0 13:0.24607331 14:0.18772843 15:0.25274727 16:0.18972339 #
1 5:0.051111676 6:0.52054793 7:0.369863 8:0.62914181 9:0.6178562 10:0.082017004 11:0.0019261495 13:0.10204082 14:0.10474794 15:0.12138728 16:0.1183479 #
-1 5:0.45396101 6:0.51162791 7:0.96405917 8:0.90546155 9:0.91415942 10:0.63590848 11:0.20312515 12:0.40384614 13:0.68663597 14:0.46446666 15:0.72361809 16:0.49055985 #
-1 1:0.00033789023 2:0.011176471 3:0.0078947367 4:0.0006959681 5:0.13708612 6:0.98840731 7:0.98748517 8:0.54436088 9:0.54653084 10:0.24345887 11:0.0040440448 12:0.03125 13:0.01745283 14:0.098914921 15:0.020485176 16:0.10943468 #
-1 5:0.32367238 6:1.1169724 7:1.7041284 8:0.84095365 9:0.83654612 10:0.64671671 11:0.11297182 12:0.40384614 13:0.70414203 14:0.46966821 15:0.75159234 16:0.51224041 #
-1 1:0.00012431535 2:0.04010025 3:0.33333334 4:0.025390625 5:0.14290923 6:0.84850013 7:0.85391986 8:0.84431803 9:0.83035815 10:0.071976759 11:0.022196235 12:0.02631579 13:0.044915557 14:0.096665345 15:0.052552551 16:0.1076401 #
-1 1:0.0013848589 2:0.022556391 3:0.16666667 4:0.015943877 5:0.17328477 6:0.7798658 7:0.70738256 8:0.76430809 9:0.76497626 10:0.2134371 11:0.014687851 12:0.02631579 13:0.10909091 14:0.19049686 15:0.12533334 16:0.21205406 #
1 5:0.01760266 6:0.26142132 7:0.61421317 8:0.61349791 9:0.60386908 10:0.11701994 11:0.0021834269 13:0.15126051 14:0.16977553 15:0.18141593 16:0.18429247 #
-1 1:0.00069314893 2:0.0057346108 3:0.016129032 4:0.00071022729 5:0.24708673 6:0.77927822 7:0.70803261 8:0.83325648 9:0.82464981 10:0.36714977 11:0.03891113 12:0.034482758 13:0.16151686 14:0.26251221 15:0.20294599 16:0.30729285 #
-1 5:0.36966076 6:0.74828768 7:1.2910959 8:0.85118258 9:0.85494888 10:0.53280646 11:0.11715199 12:0.40384614 13:0.47448981 14:0.37865478 15:0.51445085 16:0.39598209 #
-1 1:0.0125 2:0.015873017 3:0.075000003 4:0.0036025911 5:0.31412569 6:0.83773583 7:1.0264151 8:0.68887806 9:0.69227993 10:0.53417784 11:0.24239504 12:0.26190478 13:0.49689442 14:0.40411192 15:0.52666664 16:0.4290691 #
1 5:0.072054565 6:0.88225448 7:0.85100448 8:0.72286451 9:0.69827145 10:0.0773331 11:0.0013060151 13:0.079404466 14:0.13102876 15:0.1 16:0.15430336 #
1 1:0 2:0 3:0 4:0 5:0.11411282 6:0.52639633 7:0.37796479 8:0.72900927 9:0.71564591 10:0.10170262 11:0.0011158379 13:0.13051471 14:0.1622328 15:0.15490197 16:0.1843702 #
-1 1:0.0011328235 2:0.013205829 3:0.075000003 4:0.0029492455 5:0.15972777 6:0.9762277 7:0.97309977 8:0.59757197 9:0.5952577 10:0.23918331 11:0.0022643392 12:0.032258064 13:0.0322841 14:0.14432065 15:0.036412079 16:0.15517396 #
-1 5:0.25533959 6:1.0143442 7:1.7274591 8:0.79696864 9:0.79056692 10:0.58466017 11:0.079200707 12:0.2658228 13:0.52910054 14:0.39520273 15:0.56818181 16:0.41494134 #
1 5:0.041995298 6:0.066326529 7:0.16156463 8:0.58781421 9:0.58401054 10:0.082765818 11:0 13:0.10749186 14:0.13423868 15:0.13087249 16:0.15740657 #
-1 1:0.0037945863 2:0.022580646 3:0.16666667 4:0.010551948 5:0.025700234 6:0.97150612 7:0.96472186 8:0.542099 9:0.54701108 10:0.18732068 11:0.010240399 12:0.035714287 13:0.031331591 14:0.13710928 15:0.035714287 16:0.15236235 #
1 1:0 2:0 3:0 4:0 5:0.10733216 6:0.62050498 7:0.51338947 8:0.74657214 9:0.73177052 10:0.081484504 11:0 13:0.10110294 14:0.13646163 15:0.11960784 16:0.15807141 #
-1 1:0.0005872483 2:0.024291499 3:0.10714286 4:0.0077662724 5:0.19940181 6:0.65423244 7:1.1434721 8:0.83307993 9:0.83460063 10:0.43328151 11:0.015336943 12:0.016129032 13:0.41643059 14:0.32633659 15:0.43266475 16:0.33504468 #
-1 1:0 2:0 3:0 4:0.00025601638 5:0.31028265 6:0.13049646 7:0.43971631 8:0.9040029 9:0.89845234 10:0.50002211 11:0.037686322 12:0.074074075 13:0.35294119 14:0.3203243 15:0.4169279 16:0.3668662 #
1 5:0.13333753 6:0.72045743 7:1.3087674 8:0.76938558 9:0.75267661 10:0.12963682 11:0.0013862604 13:0.19483568 14:0.2043429 15:0.23 16:0.23754297 #
1 5:0.077767164 6:0.19607843 7:0.48801744 8:0.58069128 9:0.57334238 10:0.085164078 11:0.0018103766 13:0.1254902 14:0.1392414 15:0.14522822 16:0.15708181 #
-1 5:0.42863253 6:0.83698297 7:1.43309 8:0.85582811 9:0.85819256 10:0.7009427 11:0.19824733 12:0.40384614 13:0.6708861 14:0.48571837 15:0.71232879 16:0.52381152 #
1 1:0 3:0 4:4.8731044e-06 5:0.11407706 6:0.077163711 7:0.21584985 8:0.67730272 9:0.6562171 10:0.098423019 11:0.0009368324 12:0.0089285718 13:0.15367483 14:0.18158093 15:0.16507177 16:0.19484997 #
-1 1:0.00079149706 2:0.010542636 3:0.046153847 4:0.0036711891 5:0.065471455 6:0.87578946 7:0.8463158 8:0.6103304 9:0.62080568 10:0.32284573 11:0.017219281 12:0.033333335 13:0.076604553 14:0.17534511 15:0.088744588 16:0.19074926 #
-1 1:0.0013859191 2:0.018976424 3:0.10714286 4:0.0056710774 5:0.16621269 6:0.79587156 7:0.74655962 8:0.81272429 9:0.81265014 10:0.3440744 11:0.017934071 12:0.032258064 13:0.14054726 14:0.24743602 15:0.15845539 16:0.26827261 #
-1 1:0.0002913753 2:0.0079365084 3:0.076190479 4:0.0016096395 5:0.28708568 6:0.95641577 7:0.94336915 8:0.74620432 9:0.73452532 10:0.28174728 11:0.012119017 12:0.027777778 13:0.050343249 14:0.17448764 15:0.061235357 16:0.19457793 #
-1 5:0.75494391 6:0.41451126 7:0.20960699 8:0.93943 9:0.94141334 10:0.78498131 11:0.45223072 12:0.097560972 13:0.69137931 14:0.69113028 15:0.75201613 16:0.73945087 #
-1 1:0.0020661156 2:0.0022675737 3:0.17410715 4:0.0017351868 5:0.30995911 6:0.99780703 7:1.5734649 8:0.78290415 9:0.78401417 10:0.55290544 11:0.17201866 12:0.22448979 13:0.56727272 14:0.39554092 15:0.62055337 16:0.4279407 #
-1 1:0.0011684399 2:0.013157895 3:0.044117648 4:0.0025862069 5:0.045169938 6:0.91983122 7:0.89943743 8:0.72300082 9:0.72285765 10:0.34369081 11:0 12:0.033333335 13:0.069020867 14:0.18182746 15:0.075250834 16:0.18879919 #
-1 5:0.35772568 6:0.0033444816 7:0.30657747 8:0.85417682 9:0.84821594 10:0.68227303 11:0.13634418 12:0.42857143 13:0.52916664 14:0.46260938 15:0.57209301 16:0.47875872 #
1 5:0.059187897 6:0.8951292 7:0.86729622 8:0.68601757 9:0.67059523 10:0.058025829 11:0 13:0.068391867 14:0.13416928 15:0.087136932 16:0.15778551 #
0.11431817284456258221325697377324 1:0 3:0 4:1.8959143e-05 5:0.066521466 6:20.17757 7:26.831776 8:0.48111287 9:0.4744893 10:0.086552463 11:0.0018686007 12:0.0089285718 13:0.30379745 14:0.10406034 15:0.38157895 16:0.12609172 #
1 5:0.084545963 6:0.19314079 7:0.057761732 8:0.71496129 9:0.70024377 10:0.072393298 11:0 13:0.097777776 14:0.12289768 15:0.12880562 16:0.15190762 #
1 5:0.058250532 6:0.36036035 7:0.18146718 8:0.57046324 9:0.55442595 10:0.055665117 11:0 13:0.094890513 14:0.12720546 15:0.10796915 16:0.14389724 #
1 5:0.051740188 6:0.93214101 7:0.90320885 8:0.69885951 9:0.69285107 10:0.065631688 11:0.0013846525 13:0.069605567 14:0.12976925 15:0.078328982 16:0.13993658 #
-1 1:1.040626e-05 2:0 3:0 4:5.0628969e-05 5:0.32155603 6:0.23989899 7:0.06818182 8:0.81346655 9:0.82872564 10:0.63515937 11:0.095798358 13:0.53110045 14:0.50425327 15:0.60512823 16:0.56085652 #
-1 1:0.0012780618 2:0.016140865 3:0.047619049 4:0.0028508771 5:0.18992753 6:0.95445621 7:0.94660383 8:0.76814336 9:0.76962501 10:0.36140126 11:0.024007587 12:0.037037037 13:0.062622309 14:0.21187593 15:0.068464734 16:0.22532554 #
1 5:0.14298454 6:1.3117871 7:2.0760455 8:0.65480554 9:0.63691717 10:0.067839593 11:0 13:0.14935064 14:0.11606396 15:0.1632653 16:0.13080816 #
1 1:2.6702983e-05 2:0 3:0 4:4.280089e-05 5:0.081774056 6:0.77947295 7:0.72746187 8:0.68781859 9:0.67610204 10:0.081266634 11:0.0014844019 13:0.10786106 14:0.18177599 15:0.13590264 16:0.2053168 #
1 1:0 2:0 3:0 4:6.939625e-05 5:0.12217212 6:0.88578588 7:0.85964912 8:0.6450969 9:0.63680583 10:0.045957197 11:0.0082525285 13:0.06329114 14:0.1326845 15:0.081264108 16:0.15329075 #
-0.14705835076870243938174098730087 1:8.5006817e-05 2:0.015970515 3:0.0014150944 4:0.00033652529 5:0.51834124 6:1.8734062 7:2.8251367 8:0.9221499 9:0.91981739 10:0.57177204 11:0.12710185 12:0.020833334 13:0.46938777 14:0.29908571 15:0.53579175 16:0.33334243 #
0.041269256144289556686999276280403 1:0 2:0 3:0 4:1.2596045e-05 5:0.044226043 6:0.63722026 7:0.46643108 8:0.6333304 9:0.62290424 10:0.095369801 11:0.0070152124 12:0.015151516 13:0.14723927 14:0.16645592 15:0.17845118 16:0.19334698 #
